~o
<STREAMINFO> 1 25
<VECSIZE> 25<NULLD><MFCC_D_N_Z_0><DIAGC>
~s "silst"
<MEAN> 25
 -1.385189e+01 1.750215e+00 -3.692718e+00 -2.964779e+00 5.002933e+00 3.405004e+00 4.574038e+00 5.809979e+00 5.373096e+00 6.509970e+00 1.993856e+00 -1.563800e+00 -2.517331e-01 -2.089740e-01 -1.882241e-01 -1.078402e-01 4.999056e-02 6.213572e-02 1.210475e-01 1.663497e-01 6.901839e-02 -2.153214e-02 -1.876057e-01 -2.005321e-01 -1.374744e-01
<VARIANCE> 25
 1.218793e+01 2.154584e+01 1.596166e+01 1.957263e+01 2.787903e+01 2.381189e+01 2.068552e+01 2.528602e+01 1.774811e+01 2.101299e+01 1.726356e+01 1.835020e+01 3.836405e-01 7.245343e-01 8.274227e-01 7.874074e-01 8.656353e-01 1.149912e+00 1.148044e+00 9.023025e-01 1.100194e+00 1.070415e+00 8.480369e-01 8.381140e-01 1.386854e-01
<GCONST> 7.786777e+01
~h "@"
<BEGINHMM>
<NUMSTATES> 5
<STATE> 2
<MEAN> 25
 4.383382e+00 -7.962030e+00 7.563616e+00 9.551204e+00 2.533135e+00 -2.871082e-01 -1.284253e+01 -1.311800e+01 -4.663319e+00 -6.065418e-01 2.269363e+00 -2.868218e+00 1.309433e+00 8.295660e-01 -2.913211e+00 -5.049596e-01 9.417084e-01 -2.706510e-01 1.400006e+00 4.402149e-01 -7.857670e-01 -1.163086e-01 -4.975038e-01 -1.165292e-01 6.238085e-02
<VARIANCE> 25
 8.682158e+00 8.622830e+00 1.866461e+01 2.191099e+01 1.743897e+01 2.293540e+01 2.521525e+01 1.795053e+01 2.571019e+01 2.671658e+01 1.718912e+01 2.307429e+01 5.986785e-01 1.360074e+00 2.955175e+00 1.316368e+00 1.946931e+00 3.200925e+00 2.591540e+00 3.277148e+00 2.418567e+00 2.135134e+00 1.467468e+00 1.914158e+00 4.009819e-01
<GCONST> 8.778040e+01
<STATE> 3
<MEAN> 25
 4.661800e+00 -2.296974e+00 4.923265e+00 8.755109e+00 4.893369e+00 2.256582e+00 -6.446071e+00 -9.260221e+00 -4.644245e+00 -1.091651e+00 -3.375675e-01 -2.389987e+00 -3.739257e-01 2.813079e+00 -4.754280e-01 -9.200936e-02 1.387277e+00 3.632823e-01 1.426164e+00 1.810134e+00 1.242220e+00 2.921583e-01 -1.588018e+00 -5.772314e-01 -1.555227e+00
<VARIANCE> 25
 6.792403e+00 2.036161e+01 1.353773e+01 1.255500e+01 1.906417e+01 2.004449e+01 1.833442e+01 2.395413e+01 2.127710e+01 1.786197e+01 1.447862e+01 1.860462e+01 2.290509e-01 7.527028e-01 1.453743e+00 6.806604e-01 1.492110e+00 1.394972e+00 1.272948e+00 1.279583e+00 3.635171e+00 3.199712e+00 2.378497e+00 1.162744e+00 2.594523e-01
<GCONST> 8.115334e+01
<STATE> 4
<MEAN> 25
 4.357761e+00 4.248288e+00 4.221122e+00 8.242952e+00 8.369389e+00 2.465909e+00 -5.873429e+00 -4.851482e+00 -7.702508e-01 -1.748567e+00 -4.806214e+00 -4.974825e+00 -8.994821e-03 1.223773e+00 -2.722507e-02 -2.762893e-01 4.755575e-01 -9.144451e-02 -6.889042e-02 6.131374e-01 5.276553e-01 -3.000493e-01 -6.941851e-01 -4.807937e-01 -4.434387e-01
<VARIANCE> 25
 4.915946e+00 1.199148e+01 1.436786e+01 1.960783e+01 1.164532e+01 2.877296e+01 1.095473e+01 1.365268e+01 1.812315e+01 1.809080e+01 2.364469e+01 9.570874e+00 1.618223e-01 8.641561e-01 5.341443e-01 5.515224e-01 1.225057e+00 8.442109e-01 1.086273e+00 1.137059e+00 1.951204e+00 1.362969e+00 1.905293e+00 5.354561e-01 2.430193e-01
<GCONST> 7.433994e+01
<TRANSP> 5
 0.000000e+00 1.000000e+00 0.000000e+00 0.000000e+00 0.000000e+00
 0.000000e+00 4.068267e-01 5.931733e-01 0.000000e+00 0.000000e+00
 0.000000e+00 0.000000e+00 6.463236e-01 3.536764e-01 0.000000e+00
 0.000000e+00 0.000000e+00 0.000000e+00 7.232485e-01 2.767515e-01
 0.000000e+00 0.000000e+00 0.000000e+00 0.000000e+00 0.000000e+00
<ENDHMM>
~h "a"
<BEGINHMM>
<NUMSTATES> 5
<STATE> 2
<MEAN> 25
 7.258004e+00 -8.110522e+00 -7.676781e+00 -4.320215e+00 -4.974897e+00 -1.377139e-01 6.487043e+00 2.794286e+00 -1.184656e+00 -7.454938e-01 1.996674e+00 2.106809e+00 -5.305718e-02 -2.168835e-01 1.324461e-02 1.714748e-01 9.984791e-02 2.375967e-01 -5.065941e-02 -1.151058e-01 1.311661e-01 3.074785e-01 2.364057e-01 -4.819083e-02 6.759792e-03
<VARIANCE> 25
 7.402670e+00 3.517553e+01 1.765760e+01 2.303898e+01 2.691792e+01 3.048586e+01 3.742770e+01 3.873324e+01 2.801020e+01 4.012124e+01 3.629457e+01 2.916567e+01 4.196580e-01 3.644911e+00 1.490486e+00 1.624147e+00 1.745384e+00 1.968726e+00 2.503383e+00 2.440478e+00 2.142340e+00 2.392040e+00 2.377795e+00 2.239333e+00 1.003311e+00
<GCONST> 9.315878e+01
<STATE> 3
<MEAN> 25
 6.411982e+00 -6.301667e+00 -6.281824e+00 -3.283728e+00 -4.373362e+00 -2.980836e-01 3.872920e+00 5.770889e-01 -9.444604e-01 3.779305e-01 2.070492e+00 2.365870e+00 -7.440507e-01 2.041456e+00 6.743125e-01 3.875586e-01 9.579734e-01 -6.413598e-02 -7.376715e-01 -1.473620e-03 1.270930e-01 6.312253e-02 -3.787831e-01 -3.275996e-01 -1.330926e+00
<VARIANCE> 25
 8.244276e+00 3.457200e+01 1.741031e+01 1.838077e+01 2.410038e+01 3.097197e+01 3.096034e+01 4.004504e+01 3.020403e+01 3.551242e+01 3.092909e+01 2.977977e+01 5.413712e-01 1.522517e+00 1.388327e+00 1.415883e+00 1.546534e+00 2.355770e+00 2.149354e+00 2.403714e+00 2.456080e+00 2.611293e+00 2.355663e+00 2.260988e+00 6.804482e-01
<GCONST> 9.147294e+01
<STATE> 4
<MEAN> 25
 1.858289e+00 6.519103e-01 -3.931772e+00 -2.839207e+00 -1.013845e+00 5.022357e-01 2.874430e+00 1.583423e+00 5.720156e-01 1.631564e+00 1.503358e+00 1.934618e+00 -1.216979e+00 1.127637e+00 8.943351e-01 1.407017e-01 8.357091e-01 6.692936e-01 -4.508247e-01 2.906168e-02 4.105496e-01 -6.019646e-02 -3.967374e-01 -2.254121e-01 -1.199376e+00
<VARIANCE> 25
 2.249210e+01 3.316452e+01 2.132495e+01 2.104961e+01 1.875241e+01 3.178763e+01 2.824208e+01 3.022463e+01 2.986832e+01 3.144369e+01 2.472795e+01 2.511303e+01 7.067730e-01 2.365326e+00 2.410678e+00 2.187579e+00 2.074204e+00 3.308263e+00 2.167488e+00 2.441911e+00 2.391552e+00 2.548041e+00 2.680326e+00 2.193628e+00 5.852551e-01
<GCONST> 9.389649e+01
<TRANSP> 5
 0.000000e+00 1.000000e+00 0.000000e+00 0.000000e+00 0.000000e+00
 0.000000e+00 5.303281e-01 4.696718e-01 0.000000e+00 0.000000e+00
 0.000000e+00 0.000000e+00 5.436980e-01 4.563020e-01 0.000000e+00
 0.000000e+00 0.000000e+00 0.000000e+00 5.121224e-01 4.878776e-01
 0.000000e+00 0.000000e+00 0.000000e+00 0.000000e+00 0.000000e+00
<ENDHMM>
~h "b"
<BEGINHMM>
<NUMSTATES> 5
<STATE> 2
<MEAN> 25
 -8.291309e+00 7.006781e+00 4.711127e-01 1.000618e-01 5.839937e+00 4.172779e+00 6.182424e+00 7.278554e+00 3.018766e+00 -1.130850e-01 -2.134075e+00 -1.101179e+00 3.142198e+00 2.554651e+00 2.189197e+00 9.860985e-01 2.560181e-02 -1.666645e-01 -9.435491e-01 -8.784979e-01 -1.101671e+00 -1.523208e+00 -7.723967e-01 -4.516332e-01 1.749064e+00
<VARIANCE> 25
 2.816203e+01 9.222850e+01 2.632833e+01 2.409893e+01 4.098178e+01 1.566760e+01 2.586045e+01 3.419375e+01 1.980304e+01 4.403745e+01 2.807939e+01 1.593792e+01 1.532589e+00 6.326491e+00 2.080391e+00 1.703799e+00 2.117017e+00 2.998191e+00 1.847882e+00 1.605948e+00 1.077377e+00 2.546430e+00 1.545977e+00 1.465807e+00 6.194088e-01
<GCONST> 9.420727e+01
<STATE> 3
<MEAN> 25
 -8.998743e-01 1.411984e+01 7.106266e+00 2.859771e+00 5.398545e+00 2.943430e+00 1.906601e+00 3.229872e+00 1.239152e+00 -1.640477e+00 -2.217071e+00 -1.307353e+00 2.189095e+00 6.584618e-02 8.794531e-01 -4.067976e-01 -1.683914e+00 -3.762814e-01 -1.344666e+00 -1.404274e+00 -6.856592e-01 -1.260152e+00 -5.133843e-01 -4.035816e-01 1.766432e+00
<VARIANCE> 25
 1.390660e+01 7.145280e+01 2.502877e+01 3.223171e+01 3.580827e+01 3.206854e+01 1.742201e+01 3.473035e+01 1.578040e+01 2.845329e+01 2.520568e+01 1.541180e+01 2.397293e+00 1.002003e+01 2.368881e+00 1.890039e+00 2.272094e+00 5.010405e+00 2.734094e+00 1.578558e+00 2.226561e+00 3.938779e+00 1.623497e+00 1.946205e+00 1.439739e+00
<GCONST> 9.732067e+01
<STATE> 4
<MEAN> 25
 2.907869e+00 9.919806e+00 5.036045e+00 -2.597312e+00 -2.955646e+00 9.210554e-01 2.212420e-01 1.264377e+00 4.304709e-01 -5.526456e+00 -5.611896e+00 -3.668862e+00 1.763415e+00 1.091568e+00 3.970329e-01 -9.200889e-01 -2.351322e+00 -2.804253e+00 -1.007508e+00 8.417839e-01 2.116830e-01 -5.272567e-01 -5.022188e-01 -1.632705e+00 1.050103e+00
<VARIANCE> 25
 1.966218e+01 9.879203e+01 2.814666e+01 2.105193e+01 3.424227e+01 5.143362e+01 6.046987e+01 2.616137e+01 2.088250e+01 3.116499e+01 1.961652e+01 2.364606e+01 2.472042e+00 7.367746e+00 1.843342e+00 4.984167e+00 4.801105e+00 4.905618e+00 6.539353e+00 3.042409e+00 3.207625e+00 3.279242e+00 1.840050e+00 2.302850e+00 9.364688e-01
<GCONST> 1.023622e+02
<TRANSP> 5
 0.000000e+00 1.000000e+00 0.000000e+00 0.000000e+00 0.000000e+00
 0.000000e+00 5.541469e-01 4.458531e-01 0.000000e+00 0.000000e+00
 0.000000e+00 0.000000e+00 4.661790e-01 5.338209e-01 0.000000e+00
 0.000000e+00 0.000000e+00 0.000000e+00 5.329446e-01 4.670554e-01
 0.000000e+00 0.000000e+00 0.000000e+00 0.000000e+00 0.000000e+00
<ENDHMM>
~h "c"
<BEGINHMM>
<NUMSTATES> 5
<STATE> 2
<MEAN> 25
 -7.362381e+00 -1.082491e+01 1.817470e+01 -1.326063e+00 -5.474388e+00 1.442264e+01 1.020451e-01 7.827131e-02 3.122686e+00 -1.855504e+00 3.167266e+00 3.399315e+00 -1.461690e+00 -5.099004e+00 3.578410e+00 2.530919e-01 -1.832995e+00 5.845111e-01 -2.145970e+00 -4.856791e-02 1.241356e-01 -3.179564e-01 1.159515e+00 4.861006e-02 1.768293e+00
<VARIANCE> 25
 1.751599e+01 1.223544e+02 8.293032e+01 2.337028e+01 3.448296e+01 4.522574e+01 4.899508e+01 2.633915e+01 1.551535e+01 1.084780e+01 3.601614e+01 8.913191e+00 2.591939e+00 1.037075e+01 7.124284e+00 4.435610e+00 4.885933e+00 7.697430e+00 5.889028e+00 3.682441e+00 2.339096e+00 2.959646e+00 2.142079e+00 1.222622e+00 1.486323e+00
<GCONST> 1.033410e+02
<STATE> 3
<MEAN> 25
 -1.816900e+00 -1.586601e+01 1.599269e+01 8.878960e+00 -3.281762e+00 1.896674e+00 -1.036651e+01 -4.983078e+00 1.553420e-01 -2.836912e+00 3.437906e+00 3.933073e-01 3.276105e+00 7.923328e-01 -3.988791e+00 3.061064e+00 1.912977e+00 -4.270405e+00 -1.853173e+00 -1.815364e+00 -1.396983e+00 1.262954e-01 -1.754553e-01 -1.395686e+00 9.893611e-01
<VARIANCE> 25
 3.017740e+01 2.363011e+01 4.137123e+01 3.394908e+01 3.340751e+01 7.235361e+01 4.458200e+01 2.379482e+01 2.174345e+01 2.077945e+01 1.601935e+01 1.864487e+01 1.248231e+00 2.551007e+00 1.786167e+00 3.548902e+00 3.712374e+00 6.172984e+00 3.680949e+00 2.380678e+00 1.591454e+00 3.852843e+00 2.545827e+00 2.671442e+00 3.397277e-01
<GCONST> 9.729202e+01
<STATE> 4
<MEAN> 25
 4.223210e+00 -1.326829e+01 2.247568e+00 1.079319e+01 3.206199e+00 -4.037316e+00 -9.568446e+00 -7.148106e+00 -4.468859e+00 -1.620432e+00 3.063545e+00 -2.160536e+00 -2.532363e-02 1.621071e+00 -1.386486e+00 -2.510603e-01 9.146041e-01 1.086334e-02 9.278378e-01 -6.243879e-02 -4.532688e-01 2.719375e-01 -2.382810e-01 1.456052e-01 -9.644173e-01
<VARIANCE> 25
 3.813733e+00 3.249483e+01 3.385259e+01 2.196467e+01 3.292375e+01 4.173875e+01 3.298103e+01 1.402345e+01 2.739340e+01 4.199323e+01 1.175057e+01 2.894649e+01 7.571713e-01 2.219529e+00 1.287855e+00 1.022155e+00 1.396063e+00 2.422482e+00 1.523252e+00 1.509544e+00 8.594006e-01 1.671777e+00 6.389084e-01 1.280118e+00 1.157228e+00
<GCONST> 8.676999e+01
<TRANSP> 5
 0.000000e+00 1.000000e+00 0.000000e+00 0.000000e+00 0.000000e+00
 0.000000e+00 7.776845e-01 2.223155e-01 0.000000e+00 0.000000e+00
 0.000000e+00 0.000000e+00 7.243548e-01 2.756452e-01 0.000000e+00
 0.000000e+00 0.000000e+00 0.000000e+00 8.452210e-01 1.547790e-01
 0.000000e+00 0.000000e+00 0.000000e+00 0.000000e+00 0.000000e+00
<ENDHMM>
~h "d"
<BEGINHMM>
<NUMSTATES> 5
<STATE> 2
<MEAN> 25
 1.273369e+00 1.811368e+00 3.536883e+00 9.354887e+00 9.967292e+00 1.132104e+00 -6.822371e+00 -6.634897e+00 -4.119269e+00 -1.919126e+00 1.402761e+00 1.891244e+00 1.162560e+00 -3.157940e+00 -8.578234e-01 9.223999e-01 -4.848399e-01 -1.387017e+00 -1.723122e+00 -1.588874e+00 -1.755843e+00 -1.268383e+00 1.127082e+00 9.982845e-01 1.931677e+00
<VARIANCE> 25
 1.911100e+01 5.969014e+01 2.934793e+01 4.213078e+01 3.598972e+01 4.735651e+01 5.443247e+01 3.762299e+01 4.954672e+01 4.913547e+01 3.312106e+01 3.449973e+01 1.063928e+00 5.125190e+00 3.122545e+00 6.217039e+00 5.124655e+00 5.901732e+00 6.241853e+00 5.490378e+00 5.398865e+00 9.085279e+00 6.213665e+00 4.096206e+00 1.137422e+00
<GCONST> 1.088746e+02
<STATE> 3
<MEAN> 25
 4.641410e+00 -2.906968e+00 1.105204e+00 8.154145e+00 7.130496e+00 -1.564269e+00 -8.637991e+00 -8.344345e+00 -7.503845e+00 -5.096014e+00 2.247240e+00 2.642748e+00 3.091404e-01 -6.255238e-01 -2.172353e-01 -7.202784e-01 -1.519642e+00 -6.413558e-01 6.058933e-01 6.236623e-01 3.056750e-01 3.619349e-01 1.895597e-01 -1.533988e-01 4.696635e-01
<VARIANCE> 25
 1.032661e+01 3.601925e+01 3.091531e+01 4.109819e+01 3.988812e+01 3.911456e+01 6.444902e+01 3.197097e+01 4.849560e+01 6.407047e+01 3.613358e+01 4.061652e+01 3.663727e-01 2.670116e+00 1.763668e+00 2.553525e+00 3.182438e+00 2.400622e+00 5.808926e+00 3.055945e+00 3.642382e+00 4.030373e+00 3.206431e+00 3.348629e+00 4.921234e-01
<GCONST> 1.000730e+02
<STATE> 4
<MEAN> 25
 4.764308e+00 -2.643930e+00 1.176244e+00 5.174506e+00 2.178429e+00 -2.479936e+00 -4.711441e+00 -4.259835e+00 -5.776867e+00 -3.670181e+00 2.238386e+00 1.275037e+00 3.367821e-02 -1.766008e-01 -2.193217e-02 -7.576412e-01 -1.407100e+00 -3.756504e-01 9.813275e-01 1.281579e+00 8.312429e-01 1.011978e-01 -4.884421e-01 -4.833319e-01 9.215353e-02
<VARIANCE> 25
 1.229309e+01 5.312842e+01 3.835493e+01 4.642479e+01 4.639137e+01 2.607079e+01 6.336368e+01 3.995176e+01 4.297331e+01 6.649995e+01 5.083414e+01 4.201193e+01 9.165609e-02 1.132089e+00 8.071527e-01 1.532268e+00 1.492451e+00 1.863567e+00 2.434252e+00 1.481679e+00 1.428105e+00 1.440815e+00 1.866331e+00 1.511995e+00 1.729948e-01
<GCONST> 9.072925e+01
<TRANSP> 5
 0.000000e+00 1.000000e+00 0.000000e+00 0.000000e+00 0.000000e+00
 0.000000e+00 6.657059e-01 3.342941e-01 0.000000e+00 0.000000e+00
 0.000000e+00 0.000000e+00 5.169755e-01 4.830245e-01 0.000000e+00
 0.000000e+00 0.000000e+00 0.000000e+00 5.557642e-01 4.442358e-01
 0.000000e+00 0.000000e+00 0.000000e+00 0.000000e+00 0.000000e+00
<ENDHMM>
~h "e"
<BEGINHMM>
<NUMSTATES> 5
<STATE> 2
<MEAN> 25
 6.093665e+00 -6.727008e+00 1.483593e+00 8.979033e+00 2.354266e+00 -4.754060e+00 -9.845433e+00 -1.108294e+01 -4.741040e+00 -7.863641e-01 2.065661e+00 2.337951e+00 -5.111996e-02 1.183359e-01 -2.540325e-01 4.599554e-01 1.439517e-01 -4.857877e-01 1.267957e-01 1.779475e-01 1.135980e-01 3.185403e-01 -1.773685e-01 -2.089117e-01 -1.951152e-01
<VARIANCE> 25
 3.351049e+00 1.379105e+01 1.425637e+01 1.484075e+01 2.936697e+01 1.691613e+01 3.004889e+01 2.934550e+01 2.256518e+01 3.802971e+01 1.909020e+01 2.422871e+01 8.252955e-02 4.022674e-01 5.398939e-01 1.081371e+00 7.681184e-01 1.202191e+00 8.310786e-01 7.885798e-01 7.686208e-01 9.990717e-01 8.761621e-01 7.950561e-01 9.123331e-02
<GCONST> 7.355083e+01
<STATE> 3
<MEAN> 25
 4.182021e+00 -3.103348e+00 -7.521541e-02 1.111535e+01 5.976128e+00 -5.873816e+00 -1.165249e+01 -1.105125e+01 -3.122340e+00 3.793894e+00 1.783249e+00 -1.660880e+00 -6.646401e-01 1.404844e+00 5.318218e-02 2.284036e-01 4.442065e-01 -2.651465e-01 2.265473e-01 -1.543012e-01 1.505302e-01 9.422274e-01 -2.110271e-02 -5.755726e-02 -1.094061e+00
<VARIANCE> 25
 6.772932e+00 2.301241e+01 1.839427e+01 1.632517e+01 4.205437e+01 2.176479e+01 2.832432e+01 3.453229e+01 3.082472e+01 4.415808e+01 1.720615e+01 1.979765e+01 3.381625e-01 9.148136e-01 8.800811e-01 1.264625e+00 9.655815e-01 1.288018e+00 1.739450e+00 1.720641e+00 1.012936e+00 2.029802e+00 1.074497e+00 1.115683e+00 4.774318e-01
<GCONST> 8.386333e+01
<STATE> 4
<MEAN> 25
 -3.234882e+00 5.478865e+00 8.874413e-01 9.232967e+00 8.789442e+00 -5.652037e+00 -9.660385e+00 -7.987494e+00 1.368876e+00 9.235194e+00 2.933240e+00 -6.446423e-01 -1.070510e+00 6.786348e-01 -6.016354e-02 -9.983210e-01 -1.368153e-01 3.948677e-01 9.347354e-01 1.267836e+00 8.126611e-01 5.262660e-02 -1.723149e-01 1.825927e-01 -9.925243e-01
<VARIANCE> 25
 2.043978e+01 2.801501e+01 2.377358e+01 3.191388e+01 3.003345e+01 2.850978e+01 3.557360e+01 5.339434e+01 3.996699e+01 4.733446e+01 2.855544e+01 1.990924e+01 2.908334e-01 1.054052e+00 8.087310e-01 1.717537e+00 2.030876e+00 1.872387e+00 2.560692e+00 1.934202e+00 2.058779e+00 3.210520e+00 2.039524e+00 1.121356e+00 3.002575e-01
<GCONST> 9.071354e+01
<TRANSP> 5
 0.000000e+00 1.000000e+00 0.000000e+00 0.000000e+00 0.000000e+00
 0.000000e+00 7.963628e-01 2.036372e-01 0.000000e+00 0.000000e+00
 0.000000e+00 0.000000e+00 7.123393e-01 2.876608e-01 0.000000e+00
 0.000000e+00 0.000000e+00 0.000000e+00 8.109220e-01 1.890780e-01
 0.000000e+00 0.000000e+00 0.000000e+00 0.000000e+00 0.000000e+00
<ENDHMM>
~h "g"
<BEGINHMM>
<NUMSTATES> 5
<STATE> 2
<MEAN> 25
 2.065017e+00 -3.361573e-01 -4.629642e+00 -1.513613e+00 1.744559e+00 5.648213e+00 3.927113e+00 -5.409531e+00 -8.163118e+00 -2.836526e-01 3.407023e+00 8.104361e-01 1.839715e+00 -2.852771e+00 -3.738054e-01 3.996299e-01 -2.452481e-01 3.115626e-01 -1.150672e+00 -1.929561e+00 -1.636617e+00 -6.914153e-01 5.659503e-01 -2.485260e-01 2.447005e+00
<VARIANCE> 25
 2.326125e+01 8.126718e+01 2.991651e+01 3.585184e+01 3.920142e+01 4.888132e+01 4.520395e+01 4.853360e+01 3.617066e+01 1.915367e+01 3.257531e+01 1.140298e+01 1.898460e+00 7.046295e+00 4.718015e+00 4.182746e+00 3.678067e+00 8.554113e+00 7.316529e+00 3.449036e+00 4.865996e+00 2.710336e+00 3.332609e+00 2.483748e+00 2.017505e+00
<GCONST> 1.058267e+02
<STATE> 3
<MEAN> 25
 9.145041e+00 -6.606058e+00 -6.067344e+00 1.510361e+00 2.560678e-02 -1.798385e+00 -1.300065e+00 -8.368880e+00 -1.096984e+01 8.499115e-01 4.876805e+00 -1.671528e+00 8.016813e-01 -1.103276e+00 -5.052563e-01 -7.918035e-01 -7.671766e-01 -1.224081e+00 -9.013646e-01 1.122637e+00 1.066871e+00 1.277312e-01 9.118987e-01 6.733019e-01 1.132632e+00
<VARIANCE> 25
 7.157558e+00 2.062268e+01 1.396520e+01 1.632689e+01 9.859449e+00 1.513475e+01 2.807305e+01 2.633359e+01 2.141510e+01 4.417673e+01 3.373093e+01 2.489659e+01 4.082293e-01 1.605331e+00 1.203107e+00 1.768847e+00 9.455189e-01 4.509976e+00 4.732357e+00 5.036565e+00 3.094894e+00 4.470640e+00 2.954774e+00 2.102247e+00 6.562065e-01
<GCONST> 9.055386e+01
<STATE> 4
<MEAN> 25
 1.060514e+01 -7.627705e+00 -8.432241e+00 -3.663961e+00 -1.709176e+00 -1.416499e+00 -2.902857e-01 -2.543892e+00 -3.701388e+00 -5.867941e-01 5.191683e+00 5.352278e+00 8.227008e-02 5.471121e-02 -4.981081e-01 -4.599764e-01 -3.485412e-01 -1.062545e-01 6.190096e-01 7.530043e-01 8.854899e-01 -8.785351e-02 -4.656086e-01 5.703280e-01 -1.735927e-02
<VARIANCE> 25
 5.439895e+00 1.140108e+01 2.108187e+01 2.237713e+01 2.112173e+01 1.419582e+01 4.165096e+01 1.990688e+01 2.725425e+01 3.788069e+01 3.810208e+01 3.544513e+01 2.374676e-01 1.004881e+00 1.201895e+00 9.914275e-01 1.554532e+00 1.188150e+00 2.464011e+00 1.267591e+00 2.117610e+00 2.893080e+00 1.769998e+00 1.604231e+00 3.785031e-01
<GCONST> 8.518201e+01
<TRANSP> 5
 0.000000e+00 1.000000e+00 0.000000e+00 0.000000e+00 0.000000e+00
 0.000000e+00 7.439950e-01 2.560050e-01 0.000000e+00 0.000000e+00
 0.000000e+00 0.000000e+00 6.893211e-01 3.106789e-01 0.000000e+00
 0.000000e+00 0.000000e+00 0.000000e+00 8.106678e-01 1.893322e-01
 0.000000e+00 0.000000e+00 0.000000e+00 0.000000e+00 0.000000e+00
<ENDHMM>
~h "h"
<BEGINHMM>
<NUMSTATES> 5
<STATE> 2
<MEAN> 25
 5.353452e+00 1.299322e+01 2.855938e+00 -2.863888e+00 -8.000207e+00 -1.079840e+01 1.430106e+00 5.999870e+00 6.192803e-01 -3.040047e+00 -5.541265e+00 -6.658937e+00 4.538479e-01 -3.626228e-01 -5.974722e-01 -3.382246e-01 -6.629848e-01 -1.253119e+00 -4.335862e-01 4.793154e-01 1.695505e-01 -4.183048e-01 -3.117620e-01 4.420222e-02 4.026007e-01
<VARIANCE> 25
 6.938951e+00 1.869611e+01 2.738271e+01 1.575298e+01 4.613608e+01 5.007826e+01 4.419387e+01 2.592260e+01 2.926798e+01 2.958146e+01 3.021094e+01 1.520284e+01 2.759795e-01 1.855210e+00 9.957142e-01 1.269230e+00 1.390534e+00 2.421926e+00 4.272496e+00 1.403153e+00 1.533973e+00 2.082359e+00 1.730258e+00 1.840355e+00 1.808475e-01
<GCONST> 8.774089e+01
<STATE> 3
<MEAN> 25
 6.862121e+00 2.193622e+00 -6.401933e+00 -5.903553e+00 -1.298801e+01 -1.111232e+01 8.353456e+00 8.763440e+00 -2.160073e+00 -5.691872e+00 -5.445770e+00 -1.161103e-01 -7.000660e-02 -2.584818e+00 -1.661970e+00 -2.569954e-01 1.543940e-01 2.083921e+00 1.658146e+00 -8.224283e-01 -3.787072e-02 8.337941e-01 4.351597e-01 1.361877e+00 6.451475e-01
<VARIANCE> 25
 5.337803e+00 2.982799e+01 2.768675e+01 1.800842e+01 3.190396e+01 3.084767e+01 5.170507e+01 2.887000e+01 2.158461e+01 3.088528e+01 2.817953e+01 1.994806e+01 5.543063e-01 2.539563e+00 1.643901e+00 1.099923e+00 2.529132e+00 3.230033e+00 4.638347e+00 3.020479e+00 2.920022e+00 3.121435e+00 3.688955e+00 2.302843e+00 9.065593e-01
<GCONST> 9.418880e+01
<STATE> 4
<MEAN> 25
 6.535679e+00 -8.020079e+00 -1.004341e+01 -5.614083e+00 -9.129387e+00 6.443556e-01 1.010680e+01 2.397980e+00 3.154565e+00 1.104796e-01 -4.891471e+00 1.518574e+00 -4.311227e-02 -5.042089e-01 7.858458e-02 4.337270e-01 1.237726e+00 1.381684e+00 -4.953714e-01 -8.907986e-01 6.792002e-01 7.618655e-01 4.115290e-01 9.612004e-02 1.802424e-01
<VARIANCE> 25
 4.945887e+00 1.684285e+01 2.414229e+01 2.093938e+01 2.208199e+01 3.472313e+01 3.116743e+01 2.326939e+01 2.479078e+01 4.324582e+01 2.575497e+01 1.116935e+01 2.501881e-01 1.490389e+00 1.865413e+00 6.498104e-01 2.476470e+00 1.675828e+00 9.167083e-01 1.712429e+00 1.105768e+00 1.250252e+00 1.163485e+00 1.170331e+00 3.086981e-01
<GCONST> 8.300004e+01
<TRANSP> 5
 0.000000e+00 1.000000e+00 0.000000e+00 0.000000e+00 0.000000e+00
 0.000000e+00 9.052098e-01 9.479017e-02 0.000000e+00 0.000000e+00
 0.000000e+00 0.000000e+00 7.638647e-01 2.361353e-01 0.000000e+00
 0.000000e+00 0.000000e+00 0.000000e+00 7.172356e-01 2.827643e-01
 0.000000e+00 0.000000e+00 0.000000e+00 0.000000e+00 0.000000e+00
<ENDHMM>
~h "i"
<BEGINHMM>
<NUMSTATES> 5
<STATE> 2
<MEAN> 25
 2.690371e+00 -7.600002e+00 6.940935e+00 1.590906e+01 5.457470e+00 -6.323836e+00 -1.380107e+01 -9.475037e+00 -1.844689e+00 -5.178438e-01 -1.539252e+00 -3.642974e+00 1.182184e-01 -3.445612e-01 1.060918e+00 2.213057e+00 4.770997e-01 -1.601214e+00 -8.651679e-01 -6.193056e-02 -1.540886e-01 1.984356e-01 -2.412241e-01 -9.659012e-01 2.934602e-01
<VARIANCE> 25
 1.320638e+01 3.338256e+01 6.217293e+01 4.249573e+01 3.957357e+01 5.292373e+01 4.416819e+01 3.187296e+01 3.196421e+01 3.056526e+01 3.501033e+01 3.070733e+01 1.257297e+00 3.238920e+00 2.004376e+00 5.826139e+00 2.445796e+00 4.828759e+00 3.506487e+00 3.313828e+00 2.461784e+00 2.727164e+00 2.147275e+00 2.571864e+00 1.661131e+00
<GCONST> 1.015804e+02
<STATE> 3
<MEAN> 25
 -6.122799e-01 -4.537904e-01 7.699482e+00 1.619502e+01 7.972867e+00 -5.823222e+00 -1.078721e+01 -6.732965e+00 2.376052e-01 2.106444e+00 -1.734582e+00 -3.614191e+00 -9.341288e-01 1.658989e+00 -3.636139e-01 -1.082291e+00 3.625466e-01 6.421507e-01 8.455240e-01 5.304806e-01 4.513535e-01 8.071869e-01 3.098466e-01 3.525882e-01 -1.347827e+00
<VARIANCE> 25
 1.742265e+01 3.910258e+01 3.565434e+01 3.298379e+01 3.396543e+01 4.079134e+01 4.254669e+01 3.155032e+01 3.030119e+01 2.483960e+01 2.843622e+01 2.533738e+01 5.287377e-01 1.262848e+00 1.543133e+00 1.824163e+00 1.529539e+00 2.393766e+00 2.233058e+00 1.595779e+00 1.861764e+00 2.009215e+00 1.764065e+00 1.511376e+00 6.320239e-01
<GCONST> 9.222103e+01
<STATE> 4
<MEAN> 25
 -4.064601e+00 2.757804e+00 4.616303e+00 8.613455e+00 6.465077e+00 -2.352971e+00 -6.815516e+00 -5.318337e+00 1.498154e+00 5.122004e+00 1.850909e-01 -1.706054e+00 -5.632108e-01 -3.610013e-01 -9.321215e-01 -2.088615e+00 -7.423111e-01 1.504401e+00 1.153876e+00 2.360143e-01 1.209943e-02 -3.404454e-02 4.915371e-01 8.228177e-01 -3.171335e-01
<VARIANCE> 25
 3.381544e+01 5.146629e+01 2.450918e+01 2.865146e+01 2.776342e+01 4.306657e+01 5.011838e+01 3.804842e+01 2.961088e+01 3.204552e+01 2.192067e+01 2.515363e+01 6.581545e-01 3.406057e+00 1.951348e+00 2.059705e+00 2.346643e+00 3.204733e+00 3.542916e+00 3.207334e+00 2.415674e+00 2.472731e+00 2.522701e+00 1.849500e+00 8.416283e-01
<GCONST> 9.757195e+01
<TRANSP> 5
 0.000000e+00 1.000000e+00 0.000000e+00 0.000000e+00 0.000000e+00
 0.000000e+00 6.564173e-01 3.435828e-01 0.000000e+00 0.000000e+00
 0.000000e+00 0.000000e+00 7.872315e-01 2.127685e-01 0.000000e+00
 0.000000e+00 0.000000e+00 0.000000e+00 6.174902e-01 3.825098e-01
 0.000000e+00 0.000000e+00 0.000000e+00 0.000000e+00 0.000000e+00
<ENDHMM>
~h "j"
<BEGINHMM>
<NUMSTATES> 5
<STATE> 2
<MEAN> 25
 -3.132603e+00 1.085370e+00 7.063258e+00 1.826145e+00 1.724495e+00 6.127044e+00 -3.165431e+00 -4.563350e+00 3.949197e+00 4.182253e+00 5.412102e-01 -3.973802e-01 -1.038325e+00 -2.414078e+00 3.071087e+00 1.389786e-01 -1.406377e+00 2.040888e+00 -5.047199e-01 -6.865441e-01 3.652402e-01 -6.255240e-01 -5.379954e-01 -2.232793e-01 7.835971e-01
<VARIANCE> 25
 2.659980e+01 1.061792e+02 5.338014e+01 3.114044e+01 5.717439e+01 4.869546e+01 4.103186e+01 3.978654e+01 3.340866e+01 2.020101e+01 3.063923e+01 1.647109e+01 1.380951e+00 1.414975e+01 6.364182e+00 3.161884e+00 6.068088e+00 3.943874e+00 5.714923e+00 6.784389e+00 3.137940e+00 3.292242e+00 2.058661e+00 1.990866e+00 3.079265e+00
<GCONST> 1.070546e+02
<STATE> 3
<MEAN> 25
 -6.383232e+00 -8.846331e+00 2.177942e+01 3.919171e+00 -4.818694e+00 1.145978e+01 -7.439867e+00 -7.372344e+00 2.993403e+00 9.608772e-02 7.326216e-01 -1.145494e+00 2.070570e+00 -1.487280e+00 1.187431e-01 2.461701e+00 5.473526e-01 -2.015290e+00 -2.948593e+00 -2.548940e+00 -2.518233e+00 -1.265061e+00 8.154079e-01 -3.701434e-01 1.997303e+00
<VARIANCE> 25
 1.584146e+01 3.295716e+01 3.686658e+01 3.431726e+01 2.179969e+01 3.330611e+01 4.273824e+01 4.060830e+01 3.438852e+01 2.108853e+01 2.542645e+01 1.935874e+01 2.437380e+00 1.105855e+01 6.570355e+00 2.855469e+00 4.388665e+00 5.008971e+00 4.385896e+00 1.985299e+00 3.927248e+00 3.421134e+00 3.006251e+00 2.495865e+00 1.421602e+00
<GCONST> 1.026252e+02
<STATE> 4
<MEAN> 25
 1.961759e+00 -7.350279e+00 1.297204e+01 9.862101e+00 1.023229e+00 2.261454e+00 -1.311302e+01 -1.240930e+01 -2.977946e+00 -9.599924e-01 2.299866e+00 -1.583393e+00 3.248889e+00 2.720290e-01 -3.770653e+00 1.619225e+00 2.274786e+00 -2.984255e+00 -1.256152e+00 -1.419257e+00 -2.581977e+00 -4.593794e-01 5.128824e-01 -9.003659e-01 1.500852e+00
<VARIANCE> 25
 1.122754e+01 1.026350e+01 3.133754e+01 2.518510e+01 1.310701e+01 2.721236e+01 3.634629e+01 3.596170e+01 3.759273e+01 2.041117e+01 1.936213e+01 1.898357e+01 1.240836e+00 4.449775e+00 4.419526e+00 2.502062e+00 2.705280e+00 7.126692e+00 3.526994e+00 4.799942e+00 3.240628e+00 2.802703e+00 3.794330e+00 4.799631e+00 7.034625e-01
<GCONST> 9.762365e+01
<TRANSP> 5
 0.000000e+00 1.000000e+00 0.000000e+00 0.000000e+00 0.000000e+00
 0.000000e+00 7.618714e-01 2.381286e-01 0.000000e+00 0.000000e+00
 0.000000e+00 0.000000e+00 4.323221e-01 5.676779e-01 0.000000e+00
 0.000000e+00 0.000000e+00 0.000000e+00 2.874152e-01 7.125849e-01
 0.000000e+00 0.000000e+00 0.000000e+00 0.000000e+00 0.000000e+00
<ENDHMM>
~h "k"
<BEGINHMM>
<NUMSTATES> 5
<STATE> 2
<MEAN> 25
 -4.557406e+00 -2.100553e+00 -1.146308e-01 -5.443210e+00 -2.691995e+00 5.506754e+00 6.098724e-01 -2.417923e+00 -1.561924e+00 -1.426313e-01 2.549291e+00 2.081380e+00 1.453641e+00 -3.424022e+00 -9.027007e-01 -1.977478e+00 -2.020202e+00 2.060992e+00 1.212978e+00 -7.969052e-01 -1.909722e+00 -1.609336e+00 6.472477e-01 5.859536e-01 2.428687e+00
<VARIANCE> 25
 1.832268e+01 9.235261e+01 4.536080e+01 6.687109e+01 6.606898e+01 7.756894e+01 1.045969e+02 8.217604e+01 4.764711e+01 5.670536e+01 2.982750e+01 3.912620e+01 2.732094e+00 5.171750e+00 5.364962e+00 4.996512e+00 4.594421e+00 9.668016e+00 6.486214e+00 4.604093e+00 4.067820e+00 4.932065e+00 3.479875e+00 3.072005e+00 1.642516e+00
<GCONST> 1.129545e+02
<STATE> 3
<MEAN> 25
 3.690257e+00 -8.200005e+00 -2.767595e+00 -4.793532e+00 -6.585331e+00 2.328051e+00 1.069832e+00 -4.805986e+00 -5.649151e+00 -1.616887e+00 4.067829e+00 3.322104e+00 2.901386e+00 -1.356744e+00 -1.443639e+00 1.115838e+00 -5.452224e-01 -2.788957e+00 -2.493387e-02 2.814011e-01 3.153293e-01 6.729180e-01 3.336611e-01 2.496370e-01 2.473910e+00
<VARIANCE> 25
 2.361573e+01 4.689130e+01 2.950344e+01 4.407704e+01 4.661189e+01 5.429639e+01 6.491197e+01 6.272719e+01 3.502474e+01 4.681418e+01 3.505012e+01 2.472995e+01 1.243228e+00 3.876829e+00 3.852892e+00 3.460814e+00 4.082762e+00 5.394477e+00 7.087843e+00 8.010093e+00 4.820868e+00 7.133340e+00 3.809578e+00 4.099406e+00 9.483125e-01
<GCONST> 1.079696e+02
<STATE> 4
<MEAN> 25
 8.036265e+00 -1.286455e+01 -7.013741e+00 -3.939844e+00 -6.478458e+00 -1.657606e+00 1.998034e+00 -2.647994e+00 -2.026638e+00 2.030094e+00 5.475046e+00 3.304494e+00 4.707706e-01 -3.653448e-01 -8.783641e-01 -1.966093e-01 -1.789268e-02 -3.326039e-01 1.011746e+00 1.331547e+00 8.253203e-01 1.603461e-01 -7.309999e-02 5.707909e-02 4.126794e-01
<VARIANCE> 25
 7.238712e+00 2.941045e+01 1.294707e+01 1.824467e+01 2.448413e+01 3.106972e+01 3.854277e+01 3.383873e+01 4.041688e+01 4.297692e+01 3.117908e+01 2.798297e+01 4.870922e-01 1.828195e+00 1.203314e+00 1.729661e+00 2.325616e+00 2.318151e+00 2.817611e+00 2.517624e+00 2.190740e+00 2.671031e+00 1.955194e+00 1.635136e+00 6.236935e-01
<GCONST> 9.152918e+01
<TRANSP> 5
 0.000000e+00 1.000000e+00 0.000000e+00 0.000000e+00 0.000000e+00
 0.000000e+00 6.538780e-01 3.461220e-01 0.000000e+00 0.000000e+00
 0.000000e+00 0.000000e+00 5.852207e-01 4.147793e-01 0.000000e+00
 0.000000e+00 0.000000e+00 0.000000e+00 6.033716e-01 3.966285e-01
 0.000000e+00 0.000000e+00 0.000000e+00 0.000000e+00 0.000000e+00
<ENDHMM>
~h "l"
<BEGINHMM>
<NUMSTATES> 5
<STATE> 2
<MEAN> 25
 6.706762e+00 -4.447832e+00 -5.513540e+00 -2.237544e+00 -4.365332e+00 -2.810825e+00 4.664653e+00 2.867550e+00 -3.690790e+00 -2.660409e+00 9.321014e-01 5.732286e-01 2.087972e-01 -4.450374e-01 -4.809493e-01 -6.795298e-01 -8.897851e-01 -1.319333e-01 1.111002e+00 6.712602e-01 7.408854e-02 1.315581e-01 2.823847e-01 1.968204e-01 3.163747e-01
<VARIANCE> 25
 5.674974e+00 1.763748e+01 1.364869e+01 2.399695e+01 2.539988e+01 3.712252e+01 3.557843e+01 4.318701e+01 3.155015e+01 3.796245e+01 3.535419e+01 3.285580e+01 1.213768e-01 1.828359e+00 7.862841e-01 1.200098e+00 1.717893e+00 2.079792e+00 2.013334e+00 1.836932e+00 1.981623e+00 2.228466e+00 2.663932e+00 1.450407e+00 3.608370e-01
<GCONST> 8.751187e+01
<STATE> 3
<MEAN> 25
 6.770038e+00 -9.905114e+00 -5.695657e+00 -5.898819e+00 -9.198971e+00 7.615380e-01 9.011949e+00 3.409712e+00 1.768261e-01 -1.392628e+00 2.390774e-01 2.924168e+00 -1.493349e-01 -3.968535e-01 2.546694e-01 4.468764e-02 -8.922777e-02 2.964113e-01 -1.803743e-01 -1.713947e-03 4.251526e-01 -9.006183e-02 -2.845547e-01 -4.252714e-03 7.598299e-02
<VARIANCE> 25
 4.999836e+00 2.705636e+01 1.389535e+01 1.938977e+01 3.513237e+01 3.954921e+01 2.345804e+01 4.409459e+01 3.729283e+01 4.321663e+01 3.094749e+01 2.735030e+01 1.252131e-01 2.521193e+00 7.115055e-01 1.322892e+00 1.570266e+00 2.268247e+00 1.678991e+00 1.633760e+00 1.621831e+00 1.748402e+00 1.376428e+00 1.414218e+00 5.139694e-01
<GCONST> 8.686334e+01
<STATE> 4
<MEAN> 25
 5.567408e+00 -6.012218e+00 -4.712628e+00 -4.170974e+00 -7.527974e+00 -9.892727e-02 7.530281e+00 4.353740e+00 5.829544e-01 -1.812202e+00 -1.715448e+00 9.511287e-01 -6.542040e-01 2.140545e+00 4.360396e-01 3.432980e-01 1.005371e+00 -2.980756e-01 -4.860822e-01 2.901059e-01 5.731645e-02 3.176700e-01 -1.692092e-01 -6.231796e-01 -1.336108e+00
<VARIANCE> 25
 6.752328e+00 2.888027e+01 1.324216e+01 1.555474e+01 2.333083e+01 3.417831e+01 2.237479e+01 4.246843e+01 2.693320e+01 3.154734e+01 3.027247e+01 1.943377e+01 4.279894e-01 1.179899e+00 1.277319e+00 1.171829e+00 1.829047e+00 2.034020e+00 1.732603e+00 1.752853e+00 1.349005e+00 1.723184e+00 1.351788e+00 2.035225e+00 4.837974e-01
<GCONST> 8.648219e+01
<TRANSP> 5
 0.000000e+00 1.000000e+00 0.000000e+00 0.000000e+00 0.000000e+00
 0.000000e+00 8.344678e-01 1.655322e-01 0.000000e+00 0.000000e+00
 0.000000e+00 0.000000e+00 7.468236e-01 2.531765e-01 0.000000e+00
 0.000000e+00 0.000000e+00 0.000000e+00 4.877593e-01 5.122407e-01
 0.000000e+00 0.000000e+00 0.000000e+00 0.000000e+00 0.000000e+00
<ENDHMM>
~h "m"
<BEGINHMM>
<NUMSTATES> 5
<STATE> 2
<MEAN> 25
 3.568463e-01 5.985513e+00 2.033604e+00 6.922126e-01 2.874923e+00 3.518527e+00 4.904583e+00 6.064876e+00 1.895867e+00 -2.044180e+00 -5.086767e+00 -5.744319e+00 -5.237516e-01 9.081090e-01 5.470081e-01 3.719442e-01 9.465083e-01 6.366864e-01 -4.693459e-02 -2.163449e-01 1.136094e-01 1.311893e-01 -2.309878e-01 -5.831812e-02 -6.549360e-01
<VARIANCE> 25
 1.865431e+01 1.966149e+01 1.336778e+01 1.647866e+01 1.611087e+01 2.818501e+01 1.853052e+01 1.884488e+01 2.093236e+01 3.161634e+01 2.325178e+01 1.662362e+01 2.433489e+00 1.119273e+00 9.543721e-01 1.471611e+00 1.556971e+00 2.475867e+00 1.628537e+00 2.300081e+00 2.148679e+00 3.054779e+00 3.238793e+00 2.401869e+00 1.332384e+00
<GCONST> 8.990431e+01
<STATE> 3
<MEAN> 25
 -2.398152e+00 7.286366e+00 2.035222e+00 1.334522e-01 5.220255e+00 5.663584e+00 3.625461e+00 2.958758e+00 1.944501e+00 -5.620039e-01 -4.589211e+00 -3.737051e+00 5.471469e-01 -9.954378e-01 -4.448013e-01 -8.712354e-01 -9.321167e-01 2.130692e-02 -7.098014e-01 -1.031872e+00 -4.484459e-01 -4.547851e-01 2.259552e-01 8.460912e-01 7.788672e-01
<VARIANCE> 25
 2.300057e+01 2.696109e+01 2.186301e+01 2.233431e+01 2.335459e+01 3.357889e+01 2.456389e+01 2.996570e+01 2.329138e+01 4.026708e+01 4.133774e+01 2.760597e+01 4.722617e+00 2.703637e+00 1.175480e+00 1.313983e+00 1.888532e+00 2.491993e+00 2.721406e+00 2.825505e+00 2.601204e+00 2.852814e+00 3.273764e+00 1.904608e+00 2.201431e+00
<GCONST> 9.691125e+01
<STATE> 4
<MEAN> 25
 1.729896e+00 1.828645e+00 -1.973516e+00 -4.184381e+00 -7.310066e-01 3.229615e+00 3.223945e+00 2.515890e+00 4.916693e-01 -2.825012e+00 -3.495065e+00 -8.542469e-01 1.594141e+00 -2.054267e+00 -1.276338e+00 -1.122076e+00 -2.337082e+00 -1.185136e+00 2.240299e-01 -1.518366e-01 -6.368727e-01 -5.533673e-01 9.642586e-01 1.583128e+00 1.840289e+00
<VARIANCE> 25
 3.536701e+01 3.834057e+01 2.912825e+01 2.602691e+01 3.348322e+01 3.837562e+01 4.057624e+01 3.955988e+01 2.955775e+01 2.573731e+01 3.522694e+01 2.488313e+01 2.279922e+00 5.086324e+00 3.366138e+00 2.568073e+00 2.892574e+00 4.727307e+00 5.657972e+00 5.090986e+00 2.346900e+00 4.075421e+00 2.760588e+00 3.197550e+00 1.478684e+00
<GCONST> 1.031505e+02
<TRANSP> 5
 0.000000e+00 1.000000e+00 0.000000e+00 0.000000e+00 0.000000e+00
 0.000000e+00 7.202613e-01 2.797386e-01 0.000000e+00 0.000000e+00
 0.000000e+00 0.000000e+00 4.560242e-01 5.439758e-01 0.000000e+00
 0.000000e+00 0.000000e+00 0.000000e+00 4.955092e-01 5.044909e-01
 0.000000e+00 0.000000e+00 0.000000e+00 0.000000e+00 0.000000e+00
<ENDHMM>
~h "n"
<BEGINHMM>
<NUMSTATES> 5
<STATE> 2
<MEAN> 25
 5.257105e+00 1.231252e+00 -2.176244e+00 2.662424e+00 5.268993e+00 1.189400e+00 -1.135584e+00 -9.412458e-02 -2.332000e+00 -3.201095e+00 -2.571266e+00 -2.460708e+00 -3.435681e-01 1.442517e+00 6.546271e-01 3.196740e-01 8.677604e-01 4.391773e-01 -2.170269e-01 1.645843e-01 1.415515e-01 -7.632480e-01 -1.410848e+00 -6.003010e-01 -7.369729e-01
<VARIANCE> 25
 7.173710e+00 2.858498e+01 1.451583e+01 1.688390e+01 2.441102e+01 2.168934e+01 1.956054e+01 2.652763e+01 1.712201e+01 2.488135e+01 2.055269e+01 1.806627e+01 7.627949e-01 9.826372e-01 1.317655e+00 1.272398e+00 1.110389e+00 1.597282e+00 1.665857e+00 1.662671e+00 2.188295e+00 1.791035e+00 2.105227e+00 2.339444e+00 5.267166e-01
<GCONST> 8.540632e+01
<STATE> 3
<MEAN> 25
 3.662145e+00 4.941638e+00 7.651845e-03 2.513899e+00 6.062599e+00 1.960030e+00 -1.442823e+00 1.284470e-01 -1.548231e+00 -4.534209e+00 -4.996987e+00 -2.368539e+00 -5.092536e-01 6.287275e-01 5.781748e-01 -1.962333e-01 -2.638645e-01 1.473910e-01 2.777932e-01 1.358460e-01 1.451156e-01 -2.459721e-02 1.028907e-01 3.945734e-01 -4.903968e-01
<VARIANCE> 25
 7.153651e+00 3.355178e+01 2.144353e+01 2.027009e+01 3.022219e+01 2.283554e+01 2.619384e+01 2.727301e+01 2.552636e+01 2.602668e+01 2.370705e+01 2.149298e+01 9.446291e-01 1.102441e+00 1.469289e+00 1.080804e+00 1.124507e+00 1.677802e+00 1.453115e+00 1.557156e+00 2.018159e+00 2.024186e+00 2.246889e+00 1.402663e+00 7.385299e-01
<GCONST> 8.754950e+01
<STATE> 4
<MEAN> 25
 1.899152e+00 4.822314e+00 8.562301e-01 1.415726e+00 3.205408e+00 2.168508e+00 1.198240e+00 -8.188438e-02 -1.841328e+00 -3.045907e+00 -2.768460e+00 -1.858665e-02 -4.657123e-01 -1.430313e+00 2.231459e-01 -6.834164e-01 -1.580210e+00 4.850123e-01 9.224853e-01 -2.227399e-01 1.594684e-01 8.940614e-01 1.159135e+00 7.088385e-01 2.930259e-01
<VARIANCE> 25
 1.655655e+01 3.565492e+01 3.802126e+01 3.057332e+01 4.653305e+01 3.450800e+01 3.825786e+01 2.505983e+01 3.782858e+01 3.097916e+01 2.695012e+01 2.128154e+01 2.327210e+00 4.034937e+00 5.886755e+00 2.468342e+00 3.496344e+00 5.323631e+00 3.214383e+00 3.259446e+00 2.887425e+00 2.628188e+00 3.299801e+00 2.154827e+00 1.723239e+00
<GCONST> 1.017725e+02
<TRANSP> 5
 0.000000e+00 1.000000e+00 0.000000e+00 0.000000e+00 0.000000e+00
 0.000000e+00 5.981511e-01 4.018489e-01 0.000000e+00 0.000000e+00
 0.000000e+00 0.000000e+00 5.117211e-01 4.882789e-01 0.000000e+00
 0.000000e+00 0.000000e+00 0.000000e+00 4.820842e-01 5.179158e-01
 0.000000e+00 0.000000e+00 0.000000e+00 0.000000e+00 0.000000e+00
<ENDHMM>
~h "p"
<BEGINHMM>
<NUMSTATES> 5
<STATE> 2
<MEAN> 25
 -9.351817e-01 6.658298e+00 3.222466e+00 -1.942450e+00 -2.440675e+00 -2.342654e+00 -3.581923e+00 -3.488297e+00 -1.028376e+00 -1.324375e-03 1.452104e-01 1.011564e+00 1.691510e+00 1.667827e+00 1.370170e+00 6.405841e-01 -1.541555e+00 -3.269669e+00 -1.480000e+00 -2.096872e-01 -2.380814e-01 6.530093e-02 -1.509861e-01 -8.302970e-01 8.734354e-01
<VARIANCE> 25
 2.317444e+01 3.980717e+01 2.367912e+01 1.618226e+01 3.366940e+01 5.855139e+01 3.293523e+01 2.856859e+01 3.002376e+01 2.729527e+01 1.783004e+01 1.755764e+01 2.316497e+00 5.060936e+00 2.727525e+00 2.284550e+00 4.940389e+00 8.928349e+00 3.839545e+00 3.401072e+00 3.662048e+00 2.865309e+00 3.302959e+00 2.649089e+00 8.544867e-01
<GCONST> 1.006207e+02
<STATE> 3
<MEAN> 25
 3.131752e+00 9.827122e+00 6.464299e+00 9.590757e-01 -6.122258e+00 -1.239515e+01 -6.449424e+00 2.356886e-01 3.651515e-01 -4.476992e-01 -8.904424e-01 -2.383671e+00 1.197356e-01 -1.668638e-01 2.813695e-01 3.536039e-01 -2.788581e-01 -7.086703e-01 -1.777762e-01 4.972552e-01 4.282171e-01 1.308149e-01 -1.698270e-01 -5.082612e-01 1.926406e-01
<VARIANCE> 25
 1.484411e+01 2.134109e+01 2.688472e+01 2.380205e+01 4.714586e+01 4.320611e+01 3.717225e+01 3.370046e+01 3.461878e+01 3.074669e+01 2.763798e+01 2.697853e+01 6.364952e-01 1.264328e+00 1.068082e+00 1.156591e+00 1.929420e+00 2.775433e+00 1.801133e+00 2.869096e+00 2.025295e+00 1.989919e+00 2.129014e+00 1.616089e+00 5.117635e-01
<GCONST> 9.177734e+01
<STATE> 4
<MEAN> 25
 1.609972e+00 8.094590e+00 5.897054e+00 4.533797e-01 -4.501349e+00 -8.978073e+00 -7.015263e+00 -1.675516e+00 1.386322e+00 3.197196e-01 -1.824660e+00 -2.321188e+00 2.020726e-01 -8.911331e-01 -4.971288e-01 2.133573e-01 6.478522e-01 7.519008e-01 -4.225523e-02 -2.367646e-01 -2.335425e-01 -6.290622e-01 -5.361325e-01 -1.003701e-01 3.965969e-01
<VARIANCE> 25
 1.847823e+01 4.124193e+01 3.782805e+01 2.344754e+01 7.097708e+01 8.379695e+01 8.275525e+01 6.383104e+01 4.984055e+01 3.877935e+01 4.662308e+01 3.907418e+01 1.707772e+00 2.611761e+00 2.087193e+00 3.046854e+00 3.407276e+00 3.808537e+00 4.371312e+00 4.517852e+00 3.414876e+00 3.393939e+00 2.307995e+00 2.265691e+00 1.661550e+00
<GCONST> 1.052115e+02
<TRANSP> 5
 0.000000e+00 1.000000e+00 0.000000e+00 0.000000e+00 0.000000e+00
 0.000000e+00 5.723159e-01 4.276842e-01 0.000000e+00 0.000000e+00
 0.000000e+00 0.000000e+00 6.383256e-01 3.616744e-01 0.000000e+00
 0.000000e+00 0.000000e+00 0.000000e+00 4.461425e-01 5.538575e-01
 0.000000e+00 0.000000e+00 0.000000e+00 0.000000e+00 0.000000e+00
<ENDHMM>
~h "r"
<BEGINHMM>
<NUMSTATES> 5
<STATE> 2
<MEAN> 25
 6.601237e+00 -5.645357e-01 -7.222222e+00 -3.580837e+00 2.942305e+00 1.115689e+00 -2.768877e+00 -1.905305e+00 -1.788522e+00 -6.247379e+00 -1.306326e+00 5.747123e+00 3.273262e-01 2.492622e-01 -9.717531e-01 -7.161434e-01 5.084855e-01 2.593957e-01 -1.011615e-01 1.853136e-01 -8.007972e-04 -3.245562e-01 2.316197e-01 5.267954e-01 4.227663e-02
<VARIANCE> 25
 1.766535e+01 3.639491e+01 2.641963e+01 3.223131e+01 2.434673e+01 4.928908e+01 3.499848e+01 3.875349e+01 3.933154e+01 3.234954e+01 4.681777e+01 3.327293e+01 7.693607e-01 1.764840e+00 1.651944e+00 1.538044e+00 1.910345e+00 3.669652e+00 3.050478e+00 3.506229e+00 2.736844e+00 3.174151e+00 3.058082e+00 2.512305e+00 7.877694e-01
<GCONST> 9.748010e+01
<STATE> 3
<MEAN> 25
 5.917229e+00 8.475136e-01 -7.310265e+00 -5.005844e+00 2.572890e+00 2.932718e+00 -1.432731e+00 -2.108829e+00 -9.580444e-01 -4.465549e+00 -2.486907e+00 3.846451e+00 -5.141022e-01 4.220636e-01 6.381596e-01 4.800723e-01 1.722799e-01 1.174155e-01 4.401074e-01 5.240714e-02 -2.576642e-01 6.247800e-01 1.094280e-01 -8.335220e-01 -4.863291e-01
<VARIANCE> 25
 2.067751e+01 4.254725e+01 2.758064e+01 2.130058e+01 2.396734e+01 3.663005e+01 3.599097e+01 4.173328e+01 4.387954e+01 2.961714e+01 5.265219e+01 3.583872e+01 4.154966e-01 1.914888e+00 1.504049e+00 1.591335e+00 1.648425e+00 2.956110e+00 2.846831e+00 2.028074e+00 1.768065e+00 2.473771e+00 1.834237e+00 2.702737e+00 4.774033e-01
<GCONST> 9.422532e+01
<STATE> 4
<MEAN> 25
 -2.477322e+00 4.414732e+00 -2.001765e+00 -2.177443e+00 4.076163e+00 3.315317e+00 2.412216e-02 -2.434743e+00 -2.493903e+00 -7.211956e-01 1.710590e-01 3.066949e+00 -1.182493e+00 1.952742e-01 6.544089e-01 2.504596e-01 -1.345112e-01 -3.256501e-01 1.685383e-01 3.750300e-01 5.525839e-01 9.918457e-01 3.909703e-01 -2.727142e-01 -8.449856e-01
<VARIANCE> 25
 3.926294e+01 3.356372e+01 1.981875e+01 2.097732e+01 2.576884e+01 4.038308e+01 3.208463e+01 2.766730e+01 4.157929e+01 3.049031e+01 3.608389e+01 2.378903e+01 5.220296e-01 1.280400e+00 1.216545e+00 1.396410e+00 1.703123e+00 2.601574e+00 2.594959e+00 2.101028e+00 2.133461e+00 2.266107e+00 1.697469e+00 1.826214e+00 3.792471e-01
<GCONST> 9.184626e+01
<TRANSP> 5
 0.000000e+00 1.000000e+00 0.000000e+00 0.000000e+00 0.000000e+00
 0.000000e+00 6.295784e-01 3.704216e-01 0.000000e+00 0.000000e+00
 0.000000e+00 0.000000e+00 4.361077e-01 5.638923e-01 0.000000e+00
 0.000000e+00 0.000000e+00 0.000000e+00 6.818807e-01 3.181193e-01
 0.000000e+00 0.000000e+00 0.000000e+00 0.000000e+00 0.000000e+00
<ENDHMM>
~h "s"
<BEGINHMM>
<NUMSTATES> 5
<STATE> 2
<MEAN> 25
 -9.908022e+00 -1.177880e+01 1.694960e+01 -9.627277e+00 -7.012951e+00 1.643689e+01 -2.581185e+00 2.655386e+00 4.380713e+00 -1.398590e-01 6.112220e+00 1.530718e+00 -1.182431e+00 -7.149389e-01 9.351401e-01 -5.091378e-02 3.268068e-02 4.549269e-01 -5.152433e-01 -1.329012e-01 -2.463441e-01 -2.575962e-01 3.125848e-01 -7.168461e-02 -3.567481e-01
<VARIANCE> 25
 2.780734e+01 3.115197e+01 5.658895e+01 3.352552e+01 2.456781e+01 3.546031e+01 3.916805e+01 5.642466e+01 3.894698e+01 2.876747e+01 3.155951e+01 2.199874e+01 4.058899e+00 4.436960e+00 1.092751e+01 4.702293e+00 2.704147e+00 4.988598e+00 3.778317e+00 4.094575e+00 3.178250e+00 2.375087e+00 2.907548e+00 2.001312e+00 3.792095e-01
<GCONST> 1.032781e+02
<STATE> 3
<MEAN> 25
 -1.889784e+00 -4.038189e+00 8.709474e+00 5.164798e-01 -2.510136e-01 7.458778e+00 -6.392765e+00 -6.345298e+00 -2.451062e+00 -4.328693e+00 2.606970e+00 1.449137e+00 4.238322e+00 2.499829e+00 -2.223609e+00 2.953839e+00 1.816524e+00 -3.861890e+00 -2.010812e+00 -2.087510e+00 -1.812031e+00 -1.014380e+00 -1.299028e+00 -8.610170e-01 1.416278e+00
<VARIANCE> 25
 4.564151e+01 3.599078e+01 2.567627e+01 3.085154e+01 4.158070e+01 4.258939e+01 8.778633e+01 5.398719e+01 5.927774e+01 5.024725e+01 2.926959e+01 2.956015e+01 1.714411e+00 6.069506e+00 3.316193e+00 4.645668e+00 6.251788e+00 4.554607e+00 4.620499e+00 9.387354e+00 3.698458e+00 5.033878e+00 4.592266e+00 3.257367e+00 8.155078e-01
<GCONST> 1.083522e+02
<STATE> 4
<MEAN> 25
 3.141385e+00 -2.479648e+00 8.751234e+00 1.465874e+01 5.046915e+00 -5.105901e+00 -1.173304e+01 -6.173760e+00 -9.954785e-01 -2.993759e+00 -2.998853e+00 -5.156832e+00 1.869864e-01 2.640681e-01 -2.377035e-01 1.363368e+00 3.233943e-01 -1.505401e+00 1.262907e-01 3.848173e-01 3.001258e-01 4.674265e-01 -6.883386e-01 -5.180497e-01 -1.453117e-01
<VARIANCE> 25
 8.481774e+00 2.695727e+01 3.632926e+01 7.336694e+01 5.244199e+01 3.682304e+01 4.329950e+01 3.668618e+01 3.704874e+01 4.849402e+01 4.238263e+01 2.660551e+01 6.259172e-01 1.375830e+00 1.195379e+00 2.017618e+00 2.031812e+00 2.021000e+00 1.697637e+00 2.146764e+00 1.770371e+00 1.607616e+00 1.937256e+00 1.650581e+00 3.426188e-01
<GCONST> 9.329894e+01
<TRANSP> 5
 0.000000e+00 1.000000e+00 0.000000e+00 0.000000e+00 0.000000e+00
 0.000000e+00 8.856828e-01 1.143173e-01 0.000000e+00 0.000000e+00
 0.000000e+00 0.000000e+00 6.845760e-01 3.154239e-01 0.000000e+00
 0.000000e+00 0.000000e+00 0.000000e+00 6.371345e-01 3.628655e-01
 0.000000e+00 0.000000e+00 0.000000e+00 0.000000e+00 0.000000e+00
<ENDHMM>
~h "t"
<BEGINHMM>
<NUMSTATES> 5
<STATE> 2
<MEAN> 25
 -6.794267e+00 4.343471e+00 4.235262e-01 -2.668500e+00 1.621703e+00 3.679064e+00 2.173977e+00 6.076726e-01 1.899384e+00 2.827466e+00 2.103833e+00 3.118626e+00 4.011454e-01 -3.012022e+00 9.164274e-01 -2.174308e-02 -1.507103e+00 1.572479e+00 -7.396820e-01 -2.165391e+00 -7.880681e-01 -1.241576e+00 -1.513732e-01 7.345615e-01 1.610518e+00
<VARIANCE> 25
 2.057350e+01 3.366175e+01 3.179737e+01 2.647933e+01 3.919841e+01 3.494969e+01 3.047962e+01 3.539398e+01 3.144519e+01 3.294697e+01 1.709874e+01 1.988519e+01 2.014276e+00 3.005554e+00 3.392979e+00 4.264445e+00 3.857954e+00 4.027277e+00 5.217258e+00 3.122581e+00 3.713943e+00 3.495518e+00 2.981548e+00 3.280284e+00 1.542646e+00
<GCONST> 1.014854e+02
<STATE> 3
<MEAN> 25
 -3.342062e+00 -4.934858e+00 2.753464e+00 -2.669837e+00 -3.431662e+00 7.967068e+00 7.298257e-01 -5.216773e+00 -1.470862e+00 -2.695134e+00 5.423794e-01 4.564500e+00 3.254322e+00 -2.060148e+00 1.088207e+00 1.133126e+00 -1.593715e+00 -5.856097e-01 -1.102313e+00 -1.789246e+00 -2.079927e+00 -2.880794e+00 -1.490025e+00 -4.025665e-01 3.390897e+00
<VARIANCE> 25
 2.287112e+01 3.173351e+01 2.656549e+01 2.136917e+01 3.287915e+01 3.721319e+01 4.833157e+01 3.702600e+01 4.854569e+01 3.327995e+01 2.574685e+01 1.972528e+01 2.106648e+00 6.617058e+00 4.566317e+00 1.050968e+01 1.009208e+01 6.286239e+00 1.238356e+01 8.550095e+00 4.981985e+00 5.168524e+00 4.666361e+00 4.105021e+00 1.501945e+00
<GCONST> 1.090186e+02
<STATE> 4
<MEAN> 25
 5.318099e+00 -2.939119e+00 2.888641e+00 7.718415e-01 -4.702551e+00 9.012573e-01 -4.389393e-01 -4.867599e+00 -6.385160e+00 -8.843897e+00 -4.144900e+00 1.516454e+00 2.522866e+00 -2.490586e-01 2.761723e-02 1.946960e+00 -1.689582e-01 -3.196805e+00 -7.437361e-01 9.769990e-01 -6.171677e-01 -1.541760e+00 -1.512419e+00 -1.660677e+00 1.935589e+00
<VARIANCE> 25
 1.689665e+01 3.351079e+01 2.212448e+01 5.416117e+01 6.424823e+01 3.301182e+01 1.071206e+02 5.385613e+01 4.176610e+01 4.891062e+01 3.635593e+01 2.358942e+01 1.356264e+00 4.235984e+00 4.115347e+00 1.057803e+01 8.174546e+00 4.995403e+00 1.215105e+01 9.171293e+00 3.890731e+00 3.457175e+00 4.196404e+00 2.920810e+00 1.103280e+00
<GCONST> 1.092190e+02
<TRANSP> 5
 0.000000e+00 1.000000e+00 0.000000e+00 0.000000e+00 0.000000e+00
 0.000000e+00 3.858667e-01 6.141332e-01 0.000000e+00 0.000000e+00
 0.000000e+00 0.000000e+00 4.462826e-01 5.537174e-01 0.000000e+00
 0.000000e+00 0.000000e+00 0.000000e+00 3.315150e-01 6.684849e-01
 0.000000e+00 0.000000e+00 0.000000e+00 0.000000e+00 0.000000e+00
<ENDHMM>
~h "u"
<BEGINHMM>
<NUMSTATES> 5
<STATE> 2
<MEAN> 25
 6.091990e+00 3.685916e+00 2.786114e+00 -1.426239e+00 -7.224070e+00 -6.258286e+00 8.526168e-01 3.447084e+00 -2.303207e+00 -7.494063e+00 -5.257460e+00 -2.825442e+00 -2.266014e-01 6.879573e-01 -1.705367e-01 1.262382e-02 2.839956e-01 -3.929051e-01 -3.798494e-02 5.934628e-01 7.571288e-01 6.392553e-01 -1.099906e-01 -3.829962e-01 -4.900324e-01
<VARIANCE> 25
 9.923357e+00 4.653091e+01 2.784732e+01 1.843280e+01 4.897604e+01 4.250325e+01 7.194717e+01 3.516283e+01 4.691943e+01 4.521218e+01 3.800280e+01 2.633245e+01 4.881136e-01 1.922560e+00 1.144933e+00 1.206123e+00 2.293133e+00 3.700140e+00 2.455405e+00 2.864958e+00 2.089169e+00 2.262289e+00 1.849066e+00 1.987400e+00 6.889037e-01
<GCONST> 9.519823e+01
<STATE> 3
<MEAN> 25
 2.836864e+00 9.170463e+00 2.733059e+00 -1.788739e+00 -3.848356e+00 -4.681880e+00 6.009985e-01 3.110104e+00 3.343448e-01 -2.669141e+00 -4.450296e+00 -3.133597e+00 -1.210691e+00 8.905368e-01 -1.392246e-01 -1.614521e-01 1.269165e+00 1.008114e+00 -1.063992e-01 -4.934932e-01 4.355954e-01 1.296837e+00 6.817780e-01 4.323265e-01 -1.277442e+00
<VARIANCE> 25
 1.108203e+01 3.150177e+01 2.426485e+01 1.792978e+01 3.889676e+01 4.522476e+01 5.478824e+01 2.939174e+01 4.322533e+01 4.275489e+01 3.121058e+01 2.571869e+01 5.388767e-01 1.565809e+00 1.438305e+00 1.311083e+00 2.011749e+00 2.961015e+00 3.135149e+00 2.056414e+00 2.515309e+00 2.252780e+00 1.748606e+00 1.529120e+00 6.776519e-01
<GCONST> 9.338599e+01
<STATE> 4
<MEAN> 25
 -1.971761e+00 1.000661e+01 3.141843e+00 -1.105903e+00 1.809147e-02 -2.568404e+00 -1.611476e+00 4.801670e-01 9.875959e-01 1.159350e+00 -4.008628e-01 -5.122640e-02 -9.393542e-01 -6.701737e-01 -3.958840e-01 5.630482e-03 7.534999e-01 9.189745e-01 4.863598e-02 -5.508029e-01 -2.062379e-01 4.127215e-01 8.421561e-01 9.149474e-01 -5.179751e-01
<VARIANCE> 25
 2.066821e+01 3.016068e+01 2.640897e+01 2.548584e+01 3.372519e+01 4.754451e+01 4.707572e+01 2.786436e+01 3.652160e+01 4.087703e+01 3.336219e+01 2.213605e+01 5.397004e-01 1.615877e+00 1.388592e+00 1.574101e+00 2.065507e+00 2.902366e+00 3.264641e+00 1.989818e+00 2.541730e+00 1.820421e+00 1.739687e+00 1.556068e+00 4.344096e-01
<GCONST> 9.336723e+01
<TRANSP> 5
 0.000000e+00 1.000000e+00 0.000000e+00 0.000000e+00 0.000000e+00
 0.000000e+00 6.398580e-01 3.601420e-01 0.000000e+00 0.000000e+00
 0.000000e+00 0.000000e+00 6.341541e-01 3.658459e-01 0.000000e+00
 0.000000e+00 0.000000e+00 0.000000e+00 6.075521e-01 3.924479e-01
 0.000000e+00 0.000000e+00 0.000000e+00 0.000000e+00 0.000000e+00
<ENDHMM>
~h "ng"
<BEGINHMM>
<NUMSTATES> 5
<STATE> 2
<MEAN> 25
 4.015716e+00 -1.418459e+00 -2.682343e+00 2.034369e+00 4.597672e-02 2.938747e-01 3.552739e+00 2.051786e+00 -6.039378e-01 -3.098413e+00 -5.994909e+00 -2.772202e+00 -4.634562e-01 9.697716e-01 8.010322e-01 7.518257e-01 1.291883e+00 6.815768e-01 -1.061501e+00 -4.487963e-01 2.921874e-01 1.021282e-01 -4.030743e-01 -4.914275e-01 -6.476682e-01
<VARIANCE> 25
 5.498409e+00 1.064806e+01 1.089678e+01 6.538725e+00 8.573682e+00 2.419013e+01 1.346673e+01 1.605470e+01 1.391842e+01 2.347265e+01 1.042987e+01 2.750163e+01 1.792516e-01 1.374919e+00 7.273587e-01 9.801811e-01 1.078849e+00 1.645305e+00 2.108706e+00 1.868031e+00 1.646662e+00 1.484416e+00 1.176145e+00 1.383438e+00 3.160829e-01
<GCONST> 7.687650e+01
<STATE> 3
<MEAN> 25
 1.970657e+00 2.676519e+00 1.225292e+00 2.618283e+00 2.542802e+00 2.845467e+00 1.157656e+00 1.461374e+00 7.656923e-01 -3.466479e+00 -7.857747e+00 -3.708586e+00 -7.248651e-01 1.548588e+00 8.952113e-01 -2.550781e-01 8.557814e-01 9.716785e-04 -1.036405e+00 9.362695e-02 2.766736e-01 -2.357978e-01 -4.977155e-02 3.575246e-01 -9.169891e-01
<VARIANCE> 25
 3.436189e+00 1.196300e+01 1.105899e+01 9.770058e+00 8.463530e+00 1.218252e+01 2.654766e+01 2.283878e+01 1.851678e+01 1.818667e+01 2.170415e+01 1.210860e+01 3.232483e-01 1.427616e+00 1.670035e+00 1.552725e+00 8.119711e-01 2.411778e+00 3.304968e+00 1.617451e+00 2.675348e+00 3.116707e+00 1.442315e+00 3.346738e+00 3.777088e-01
<GCONST> 8.202898e+01
<STATE> 4
<MEAN> 25
 -2.629173e+00 7.318084e+00 3.106365e+00 1.252223e+00 4.490262e+00 1.846501e+00 -4.173128e-01 1.978799e+00 1.247247e+00 -1.545340e+00 -4.322924e+00 -2.600750e+00 -1.644023e+00 6.687878e-01 2.259551e-01 -1.854199e-01 1.833845e-01 1.372379e-01 2.528459e-01 -5.205455e-01 -2.955105e-01 9.228743e-01 1.229054e+00 4.866808e-01 -1.414055e+00
<VARIANCE> 25
 1.191054e+01 1.705715e+01 1.276354e+01 2.194523e+01 1.549096e+01 2.484988e+01 2.386066e+01 2.421707e+01 2.464435e+01 3.090555e+01 2.360316e+01 1.689830e+01 5.400694e-01 2.466150e+00 2.347153e+00 1.683975e+00 1.316806e+00 2.409392e+00 1.559179e+00 3.337334e+00 2.769959e+00 3.155833e+00 2.498955e+00 2.351719e+00 6.884838e-01
<GCONST> 8.986324e+01
<TRANSP> 5
 0.000000e+00 1.000000e+00 0.000000e+00 0.000000e+00 0.000000e+00
 0.000000e+00 7.133458e-01 2.866542e-01 0.000000e+00 0.000000e+00
 0.000000e+00 0.000000e+00 6.217263e-01 3.782738e-01 0.000000e+00
 0.000000e+00 0.000000e+00 0.000000e+00 7.471422e-01 2.528578e-01
 0.000000e+00 0.000000e+00 0.000000e+00 0.000000e+00 0.000000e+00
<ENDHMM>
~h "ny"
<BEGINHMM>
<NUMSTATES> 5
<STATE> 2
<MEAN> 25
 -1.091243e+01 5.971369e+00 6.039395e+00 4.135458e+00 6.798400e+00 4.076370e+00 -9.020638e-02 2.092293e-01 3.350505e+00 4.028670e+00 -5.461645e-01 -1.792832e+00 3.165135e+00 1.353806e+00 2.896848e+00 1.733149e+00 -7.277889e-01 -8.825395e-03 -9.443205e-01 -1.910110e+00 -1.137961e+00 -1.237274e+00 -8.201486e-01 -1.349539e-01 2.257901e+00
<VARIANCE> 25
 3.751822e+01 5.377319e+01 1.882044e+01 1.797940e+01 2.587326e+01 3.086069e+01 2.212872e+01 3.344277e+01 1.707405e+01 2.463452e+01 2.515737e+01 1.840919e+01 1.982396e+00 3.868001e+00 2.461891e+00 1.537033e+00 2.365031e+00 3.768333e+00 2.427117e+00 3.368819e+00 1.985456e+00 2.449677e+00 3.652520e+00 2.376020e+00 8.303404e-01
<GCONST> 9.606306e+01
<STATE> 3
<MEAN> 25
 -1.806810e+00 5.495192e+00 1.278106e+01 1.011140e+01 2.635252e+00 9.044713e-01 -5.351048e+00 -7.493398e+00 -1.054050e-01 1.886219e+00 -1.712975e+00 -1.784493e+00 3.011268e+00 -3.442424e+00 -2.599843e-01 1.781867e+00 -1.315477e+00 -1.314394e+00 -1.502730e+00 -2.079750e+00 -7.120522e-01 6.852126e-01 1.181545e+00 3.275687e-01 3.375514e+00
<VARIANCE> 25
 1.387450e+01 5.625021e+01 3.078798e+01 3.730813e+01 1.943335e+01 4.943594e+01 3.279982e+01 3.277091e+01 2.221750e+01 3.262116e+01 3.233737e+01 2.337409e+01 4.352377e+00 5.470651e+00 6.356984e+00 4.113770e+00 2.496073e+00 7.324580e+00 4.328197e+00 5.583156e+00 4.495281e+00 5.732488e+00 4.008969e+00 3.548988e+00 1.497930e+00
<GCONST> 1.055478e+02
<STATE> 4
<MEAN> 25
 4.391414e+00 -9.637720e+00 1.317820e+00 9.100644e+00 5.092774e-01 -8.112465e-01 -2.641353e+00 -6.082288e+00 -1.068712e+00 5.391898e+00 4.553202e+00 -2.265671e-01 1.330020e+00 -2.517164e+00 -3.138886e+00 -2.011272e+00 -6.357291e-01 7.480966e-01 2.251125e+00 1.215472e+00 -7.063810e-01 -1.213877e-01 1.050371e+00 5.936616e-01 1.579666e+00
<VARIANCE> 25
 8.071498e+00 3.016523e+01 3.228327e+01 3.614229e+01 1.485447e+01 3.678514e+01 4.665418e+01 2.599985e+01 4.160019e+01 3.853324e+01 4.539603e+01 4.052001e+01 8.595480e-01 3.926368e+00 2.488680e+00 2.965150e+00 1.687615e+00 3.550422e+00 3.539689e+00 2.186597e+00 3.435366e+00 2.291737e+00 3.175498e+00 1.829667e+00 1.041475e+00
<GCONST> 9.772054e+01
<TRANSP> 5
 0.000000e+00 1.000000e+00 0.000000e+00 0.000000e+00 0.000000e+00
 0.000000e+00 5.535756e-01 4.464244e-01 0.000000e+00 0.000000e+00
 0.000000e+00 0.000000e+00 5.730897e-01 4.269103e-01 0.000000e+00
 0.000000e+00 0.000000e+00 0.000000e+00 7.406710e-01 2.593290e-01
 0.000000e+00 0.000000e+00 0.000000e+00 0.000000e+00 0.000000e+00
<ENDHMM>
~h "sp"
<BEGINHMM>
<NUMSTATES> 3
<STATE> 2
~s "silst"
<TRANSP> 3
 0.000000e+00 1.100719e-01 8.899280e-01
 0.000000e+00 7.602155e-01 2.397845e-01
 0.000000e+00 0.000000e+00 0.000000e+00
<ENDHMM>
~h "sil"
<BEGINHMM>
<NUMSTATES> 5
<STATE> 2
<MEAN> 25
 -1.204538e+01 3.472899e+00 -6.641988e-01 1.341593e-01 5.753417e+00 1.418299e+00 5.379821e-01 2.472940e+00 4.372146e+00 5.063905e+00 1.451769e+00 6.213553e-01 -2.118697e-01 -1.659226e-01 -1.306510e-01 -7.511649e-02 2.770440e-02 1.152121e-01 2.116765e-01 2.350739e-01 1.358183e-01 3.530778e-02 1.635430e-02 6.181339e-03 -1.149118e-01
<VARIANCE> 25
 1.581081e+01 2.075867e+01 1.411804e+01 1.542886e+01 2.187631e+01 2.252267e+01 2.643670e+01 3.187368e+01 1.873641e+01 2.405154e+01 1.757724e+01 1.420105e+01 2.304332e-01 3.560244e-01 4.356177e-01 4.614874e-01 6.157258e-01 7.937854e-01 9.675814e-01 1.036295e+00 8.934305e-01 8.216342e-01 7.188172e-01 6.663595e-01 8.589166e-02
<GCONST> 7.337339e+01
<STATE> 3
~s "silst"
<STATE> 4
<MEAN> 25
 -1.210184e+01 3.193635e+00 -1.386449e+00 -3.061221e-01 5.666867e+00 1.647178e+00 1.543376e+00 3.476270e+00 4.339421e+00 4.813307e+00 7.038922e-01 -8.300068e-01 5.502930e-01 2.258255e-01 3.401708e-01 1.406567e-01 -1.457411e-02 3.638437e-01 2.626333e-01 -7.678978e-02 -3.902002e-01 -6.642441e-01 -4.823487e-01 -2.175937e-01 3.748163e-01
<VARIANCE> 25
 2.770513e+01 2.809486e+01 2.548672e+01 3.426128e+01 2.842601e+01 3.323413e+01 4.446313e+01 3.586644e+01 2.544591e+01 3.351051e+01 2.387644e+01 1.983601e+01 1.755987e+00 2.001014e+00 1.398798e+00 1.182255e+00 1.584666e+00 1.771883e+00 1.577990e+00 1.705277e+00 1.892293e+00 1.851990e+00 1.494706e+00 1.298133e+00 7.088845e-01
<GCONST> 9.186533e+01
<TRANSP> 5
 0.000000e+00 1.000000e+00 0.000000e+00 0.000000e+00 0.000000e+00
 0.000000e+00 8.138053e-01 7.283916e-02 1.133556e-01 0.000000e+00
 0.000000e+00 0.000000e+00 7.749749e-01 2.250251e-01 0.000000e+00
 0.000000e+00 8.403898e-02 0.000000e+00 1.984005e-01 7.175606e-01
 0.000000e+00 0.000000e+00 0.000000e+00 0.000000e+00 0.000000e+00
<ENDHMM>
