~o
<STREAMINFO> 1 25
<VECSIZE> 25<NULLD><MFCC_D_N_Z_0><DIAGC>
~h "@"
<BEGINHMM>
<NUMSTATES> 5
<STATE> 2
<MEAN> 25
 4.330956e+00 -7.686253e+00 7.866907e+00 9.589334e+00 2.435788e+00 1.133809e-01 -1.255684e+01 -1.285457e+01 -4.647738e+00 -8.188748e-01 2.385587e+00 -2.694123e+00 1.280436e+00 8.815755e-01 -2.843132e+00 -3.551728e-01 1.101601e+00 -4.866559e-01 1.191928e+00 4.259624e-01 -7.403276e-01 -3.069113e-02 -4.388419e-01 -1.558214e-01 3.760437e-02
<VARIANCE> 25
 8.283630e+00 9.294546e+00 1.712473e+01 2.168393e+01 1.611798e+01 2.426894e+01 2.461895e+01 1.680735e+01 2.213362e+01 2.529073e+01 1.711606e+01 2.255330e+01 8.682639e-01 1.664871e+00 3.071491e+00 1.380674e+00 1.923139e+00 3.826036e+00 2.860605e+00 3.485068e+00 2.917950e+00 2.264301e+00 1.979655e+00 2.007657e+00 7.655741e-01
<GCONST> 8.959509e+01
<STATE> 3
<MEAN> 25
 4.536600e+00 -1.844376e+00 4.825626e+00 8.877128e+00 5.133412e+00 1.823718e+00 -6.614407e+00 -9.251285e+00 -4.293042e+00 -8.284341e-01 -7.984779e-01 -2.534146e+00 -2.695118e-01 2.538363e+00 -4.705345e-01 -1.230889e-01 1.246904e+00 3.374936e-01 1.265107e+00 1.584742e+00 9.641954e-01 1.494571e-01 -1.381740e+00 -5.332965e-01 -1.355469e+00
<VARIANCE> 25
 6.675185e+00 2.329680e+01 1.309014e+01 1.371014e+01 1.825850e+01 2.065214e+01 1.886680e+01 2.410889e+01 2.202416e+01 1.800775e+01 1.619873e+01 1.949866e+01 2.918545e-01 1.066727e+00 1.542684e+00 6.942131e-01 1.486061e+00 1.363044e+00 1.519616e+00 1.500086e+00 3.678307e+00 2.944764e+00 2.537356e+00 1.136222e+00 4.027796e-01
<GCONST> 8.293772e+01
<STATE> 4
<MEAN> 25
 4.469731e+00 4.247840e+00 4.416930e+00 8.435212e+00 8.257054e+00 2.242745e+00 -5.931255e+00 -4.860024e+00 -8.130074e-01 -1.630603e+00 -4.292715e+00 -4.769479e+00 3.076073e-02 1.207964e+00 -6.808826e-02 -3.544340e-01 3.980647e-01 -1.248111e-01 1.414322e-02 7.468477e-01 6.673089e-01 -3.115133e-01 -7.822421e-01 -4.505119e-01 -4.070699e-01
<VARIANCE> 25
 4.933658e+00 1.388264e+01 1.410988e+01 1.841582e+01 1.073647e+01 2.975331e+01 1.156238e+01 1.217787e+01 1.972860e+01 1.829431e+01 2.338597e+01 9.148010e+00 1.696798e-01 1.079602e+00 5.352553e-01 6.001542e-01 1.265957e+00 8.841375e-01 1.268492e+00 1.219825e+00 2.265935e+00 1.642433e+00 2.052922e+00 6.250147e-01 3.137727e-01
<GCONST> 7.582278e+01
<TRANSP> 5
 0.000000e+00 1.000000e+00 0.000000e+00 0.000000e+00 0.000000e+00
 0.000000e+00 3.991860e-01 6.008140e-01 0.000000e+00 0.000000e+00
 0.000000e+00 0.000000e+00 6.907481e-01 3.092519e-01 0.000000e+00
 0.000000e+00 0.000000e+00 0.000000e+00 6.456143e-01 3.543857e-01
 0.000000e+00 0.000000e+00 0.000000e+00 0.000000e+00 0.000000e+00
<ENDHMM>
~h "a"
<BEGINHMM>
<NUMSTATES> 5
<STATE> 2
<MEAN> 25
 7.024149e+00 -7.552340e+00 -7.438881e+00 -4.402052e+00 -5.029624e+00 4.197833e-02 6.410893e+00 2.627845e+00 -9.524735e-01 -6.535512e-01 1.605942e+00 2.165298e+00 -8.475374e-02 -2.221409e-01 -4.317612e-02 8.425079e-02 1.296784e-01 2.954650e-01 4.210739e-02 -1.987682e-02 1.925094e-01 3.175685e-01 2.575080e-01 6.780568e-03 -9.572307e-03
<VARIANCE> 25
 8.594566e+00 4.113407e+01 1.873960e+01 2.318579e+01 2.594593e+01 3.038075e+01 3.765252e+01 4.084551e+01 2.932352e+01 4.131411e+01 3.590454e+01 2.920348e+01 7.174541e-01 4.488514e+00 1.853445e+00 1.759720e+00 1.924902e+00 2.169612e+00 2.586411e+00 2.486468e+00 2.369885e+00 2.598569e+00 2.598185e+00 2.611286e+00 1.449914e+00
<GCONST> 9.569804e+01
<STATE> 3
<MEAN> 25
 5.956432e+00 -5.951727e+00 -6.212261e+00 -3.472050e+00 -3.956156e+00 2.060419e-01 4.180599e+00 9.821346e-01 -5.068536e-01 5.768561e-01 2.028179e+00 2.281832e+00 -7.441004e-01 1.686038e+00 6.022952e-01 2.799445e-01 8.294170e-01 4.755003e-02 -6.565598e-01 -2.038649e-02 2.237398e-01 1.656630e-01 -2.311012e-01 -2.562768e-01 -1.181454e+00
<VARIANCE> 25
 1.140282e+01 4.207600e+01 1.907815e+01 1.911664e+01 2.378556e+01 3.097098e+01 3.046532e+01 3.753724e+01 2.923962e+01 3.550086e+01 3.021304e+01 2.973816e+01 6.418675e-01 2.024479e+00 1.536706e+00 1.529247e+00 1.582314e+00 2.363866e+00 2.185539e+00 2.446388e+00 2.508410e+00 2.510903e+00 2.407614e+00 2.173934e+00 8.173032e-01
<GCONST> 9.281494e+01
<STATE> 4
<MEAN> 25
 2.387611e+00 -3.624649e-01 -3.913078e+00 -2.677399e+00 -1.111888e+00 5.046006e-01 2.403837e+00 1.169386e+00 5.363292e-01 1.447466e+00 1.571291e+00 1.820831e+00 -1.086392e+00 1.102829e+00 9.597874e-01 2.334845e-01 7.909437e-01 5.772067e-01 -5.545337e-01 -3.578829e-02 2.530096e-01 -1.785365e-01 -4.206991e-01 -2.991308e-01 -1.094323e+00
<VARIANCE> 25
 2.500386e+01 4.240549e+01 2.297206e+01 2.284230e+01 1.987886e+01 3.415943e+01 2.924788e+01 3.214351e+01 2.921066e+01 3.174835e+01 2.744460e+01 2.724281e+01 7.564006e-01 2.687005e+00 2.338604e+00 2.284488e+00 2.128386e+00 3.260764e+00 2.272789e+00 2.491228e+00 2.365354e+00 2.422129e+00 2.559751e+00 2.104414e+00 6.287767e-01
<GCONST> 9.501375e+01
<TRANSP> 5
 0.000000e+00 1.000000e+00 0.000000e+00 0.000000e+00 0.000000e+00
 0.000000e+00 4.882790e-01 5.117211e-01 0.000000e+00 0.000000e+00
 0.000000e+00 0.000000e+00 5.171139e-01 4.828861e-01 0.000000e+00
 0.000000e+00 0.000000e+00 0.000000e+00 5.083487e-01 4.916514e-01
 0.000000e+00 0.000000e+00 0.000000e+00 0.000000e+00 0.000000e+00
<ENDHMM>
~h "b"
<BEGINHMM>
<NUMSTATES> 5
<STATE> 2
<MEAN> 25
 -7.891682e+00 8.518377e+00 1.298372e+00 6.551499e-01 6.152182e+00 3.707209e+00 6.088843e+00 7.150417e+00 3.175678e+00 6.709198e-01 -1.904777e+00 -1.365501e+00 2.986437e+00 2.388955e+00 2.121631e+00 1.073554e+00 -4.379848e-04 -2.160691e-01 -8.987181e-01 -9.336138e-01 -1.067735e+00 -1.341408e+00 -6.911373e-01 -4.065917e-01 1.671260e+00
<VARIANCE> 25
 3.187730e+01 8.978285e+01 2.639554e+01 2.312223e+01 3.856458e+01 1.540432e+01 2.137620e+01 3.148929e+01 1.864675e+01 3.549136e+01 2.864802e+01 1.716056e+01 1.876544e+00 6.355618e+00 2.045150e+00 1.393326e+00 1.666170e+00 2.649530e+00 2.105898e+00 1.623299e+00 1.398806e+00 2.850960e+00 1.642870e+00 1.541013e+00 6.650343e-01
<GCONST> 9.405607e+01
<STATE> 3
<MEAN> 25
 -1.503744e+00 1.321183e+01 6.654766e+00 2.587546e+00 5.229023e+00 2.715281e+00 1.814628e+00 3.550923e+00 1.221523e+00 -1.903064e+00 -2.370628e+00 -1.421454e+00 2.257654e+00 3.212356e-01 9.762263e-01 -2.890708e-01 -1.389205e+00 -2.523646e-01 -1.316033e+00 -1.286570e+00 -7.222665e-01 -1.250618e+00 -4.071064e-01 -3.359663e-01 1.732819e+00
<VARIANCE> 25
 1.753032e+01 8.744862e+01 3.010693e+01 3.141994e+01 3.494543e+01 2.899409e+01 1.884110e+01 3.896796e+01 1.303053e+01 3.462874e+01 2.388393e+01 1.362031e+01 2.865157e+00 9.363705e+00 2.296417e+00 1.852616e+00 2.649118e+00 5.548586e+00 2.990770e+00 1.909165e+00 2.215748e+00 4.241806e+00 1.648137e+00 1.922530e+00 1.549183e+00
<GCONST> 9.854951e+01
<STATE> 4
<MEAN> 25
 2.498061e+00 9.875472e+00 5.134370e+00 -2.081051e+00 -2.143974e+00 1.670123e+00 5.700059e-01 1.361887e+00 3.328831e-01 -5.326292e+00 -5.180212e+00 -3.331322e+00 1.755065e+00 7.424333e-01 2.912321e-01 -1.035658e+00 -2.374957e+00 -2.473046e+00 -1.028205e+00 6.682656e-01 1.759983e-01 -7.252985e-01 -5.541219e-01 -1.494011e+00 1.163652e+00
<VARIANCE> 25
 1.989902e+01 9.803510e+01 2.813652e+01 2.372034e+01 3.947876e+01 5.712621e+01 5.650536e+01 2.594373e+01 2.008789e+01 3.195325e+01 1.973027e+01 2.530021e+01 2.691964e+00 9.032254e+00 2.004070e+00 4.864442e+00 5.050857e+00 5.676919e+00 5.872418e+00 3.142464e+00 3.168859e+00 3.751369e+00 2.004446e+00 2.507695e+00 1.263060e+00
<GCONST> 1.037782e+02
<TRANSP> 5
 0.000000e+00 1.000000e+00 0.000000e+00 0.000000e+00 0.000000e+00
 0.000000e+00 5.389379e-01 4.610620e-01 0.000000e+00 0.000000e+00
 0.000000e+00 0.000000e+00 4.122171e-01 5.877829e-01 0.000000e+00
 0.000000e+00 0.000000e+00 0.000000e+00 5.510002e-01 4.489998e-01
 0.000000e+00 0.000000e+00 0.000000e+00 0.000000e+00 0.000000e+00
<ENDHMM>
~h "c"
<BEGINHMM>
<NUMSTATES> 5
<STATE> 2
<MEAN> 25
 -7.412243e+00 -1.090038e+01 1.811934e+01 -1.064368e+00 -5.269853e+00 1.392872e+01 -3.110194e-01 -7.810193e-02 3.227215e+00 -1.461562e+00 3.135928e+00 3.346853e+00 -1.146033e+00 -4.651122e+00 3.105838e+00 5.209338e-01 -1.666336e+00 2.521609e-01 -2.106996e+00 -3.074726e-01 6.428658e-02 -3.044849e-01 1.009439e+00 7.731847e-02 1.680751e+00
<VARIANCE> 25
 1.925183e+01 1.315744e+02 8.243901e+01 2.304414e+01 3.279027e+01 5.292365e+01 4.872853e+01 2.590602e+01 1.577324e+01 1.215740e+01 3.515449e+01 8.977206e+00 4.102686e+00 1.227376e+01 9.995590e+00 5.490618e+00 5.228840e+00 1.149889e+01 5.881012e+00 4.001924e+00 2.299526e+00 2.776966e+00 2.294688e+00 1.292638e+00 1.398886e+00
<GCONST> 1.054003e+02
<STATE> 3
<MEAN> 25
 -7.776646e-01 -1.523922e+01 1.520364e+01 9.808119e+00 -2.952468e+00 5.008117e-01 -1.096744e+01 -5.358156e+00 -3.815453e-01 -3.332167e+00 3.315754e+00 4.675044e-02 3.237326e+00 7.418672e-01 -4.019176e+00 2.922138e+00 2.030452e+00 -4.057106e+00 -1.726654e+00 -1.665427e+00 -1.494108e+00 1.196172e-01 -1.011749e-01 -1.507617e+00 9.966097e-01
<VARIANCE> 25
 2.144340e+01 1.952555e+01 3.828711e+01 2.703069e+01 3.621676e+01 5.538470e+01 4.103755e+01 2.213596e+01 2.070949e+01 2.042583e+01 1.481056e+01 1.883852e+01 1.366004e+00 2.367695e+00 1.927173e+00 3.233941e+00 3.650400e+00 5.859709e+00 3.939248e+00 2.455089e+00 1.522793e+00 4.212464e+00 2.670069e+00 2.747403e+00 3.768202e-01
<GCONST> 9.623132e+01
<STATE> 4
<MEAN> 25
 4.102627e+00 -1.293721e+01 2.135132e+00 1.069629e+01 3.270778e+00 -3.889986e+00 -9.345548e+00 -7.135653e+00 -4.445111e+00 -1.548925e+00 2.992593e+00 -2.036350e+00 -7.681226e-02 1.639721e+00 -1.326773e+00 -2.293036e-01 8.720635e-01 -3.858154e-03 8.837191e-01 -2.629161e-02 -3.987983e-01 2.839759e-01 -2.334349e-01 1.089333e-01 -1.005226e+00
<VARIANCE> 25
 4.106766e+00 3.609896e+01 3.380145e+01 2.140582e+01 3.277966e+01 4.139285e+01 3.322282e+01 1.409439e+01 2.728760e+01 4.047875e+01 1.146909e+01 2.848731e+01 8.534240e-01 2.180161e+00 1.397597e+00 1.038432e+00 1.386825e+00 2.410548e+00 1.541839e+00 1.517710e+00 9.266163e-01 1.651398e+00 6.800689e-01 1.291099e+00 1.201605e+00
<GCONST> 8.721766e+01
<TRANSP> 5
 0.000000e+00 1.000000e+00 0.000000e+00 0.000000e+00 0.000000e+00
 0.000000e+00 8.008113e-01 1.991887e-01 0.000000e+00 0.000000e+00
 0.000000e+00 0.000000e+00 6.929983e-01 3.070017e-01 0.000000e+00
 0.000000e+00 0.000000e+00 0.000000e+00 8.502133e-01 1.497867e-01
 0.000000e+00 0.000000e+00 0.000000e+00 0.000000e+00 0.000000e+00
<ENDHMM>
~h "d"
<BEGINHMM>
<NUMSTATES> 5
<STATE> 2
<MEAN> 25
 1.504039e+00 2.384528e+00 3.885394e+00 9.442811e+00 1.056335e+01 1.412448e+00 -7.223487e+00 -6.802960e+00 -4.556709e+00 -2.197648e+00 1.262669e+00 1.026901e+00 9.694285e-01 -2.581969e+00 -6.375582e-01 7.814938e-01 -4.845556e-01 -1.291745e+00 -1.461624e+00 -1.239841e+00 -1.444805e+00 -1.071482e+00 9.863786e-01 8.374099e-01 1.605370e+00
<VARIANCE> 25
 1.463114e+01 6.093151e+01 2.989487e+01 3.936979e+01 3.367467e+01 4.325692e+01 5.287895e+01 3.888959e+01 4.797089e+01 4.659675e+01 3.430930e+01 3.858231e+01 1.140131e+00 5.989991e+00 3.021702e+00 5.725682e+00 4.913665e+00 5.291260e+00 6.305726e+00 5.707723e+00 6.070890e+00 8.467063e+00 6.194167e+00 3.664298e+00 1.513373e+00
<GCONST> 1.087131e+02
<STATE> 3
<MEAN> 25
 4.496315e+00 -2.533864e+00 1.230835e+00 8.008823e+00 6.869237e+00 -1.581563e+00 -8.136649e+00 -7.444009e+00 -7.421713e+00 -5.668689e+00 2.055741e+00 2.717934e+00 2.381180e-01 -4.839384e-01 -1.616864e-01 -7.471141e-01 -1.592448e+00 -7.308716e-01 6.331214e-01 7.904910e-01 4.755556e-01 4.324335e-01 1.381361e-01 -1.911529e-01 3.716516e-01
<VARIANCE> 25
 1.032536e+01 3.546509e+01 3.228076e+01 4.311781e+01 4.036531e+01 3.571651e+01 6.844005e+01 3.119317e+01 5.107277e+01 5.794781e+01 3.632721e+01 4.127758e+01 3.036419e-01 2.682923e+00 1.566525e+00 2.113713e+00 2.710381e+00 2.437633e+00 5.128365e+00 3.135546e+00 3.168990e+00 3.685468e+00 3.147069e+00 3.252904e+00 5.309935e-01
<GCONST> 9.914274e+01
<STATE> 4
<MEAN> 25
 4.599270e+00 -2.238809e+00 1.359766e+00 5.460451e+00 2.730274e+00 -2.537746e+00 -5.055910e+00 -4.034861e+00 -5.559455e+00 -4.065408e+00 1.819746e+00 1.238916e+00 2.194953e-03 -8.519924e-02 1.282477e-02 -7.034580e-01 -1.336617e+00 -4.026015e-01 8.829322e-01 1.120384e+00 8.239386e-01 1.670413e-01 -5.027965e-01 -4.235321e-01 3.561311e-02
<VARIANCE> 25
 1.214993e+01 5.364364e+01 3.846870e+01 4.841733e+01 4.991561e+01 2.814449e+01 6.474976e+01 3.833751e+01 4.501403e+01 6.100996e+01 5.067406e+01 3.964911e+01 1.037880e-01 1.363451e+00 8.318285e-01 1.337387e+00 1.557051e+00 1.698911e+00 2.419528e+00 1.664800e+00 1.310379e+00 1.491463e+00 1.814802e+00 1.598462e+00 2.288954e-01
<GCONST> 9.132233e+01
<TRANSP> 5
 0.000000e+00 1.000000e+00 0.000000e+00 0.000000e+00 0.000000e+00
 0.000000e+00 7.150732e-01 2.849268e-01 0.000000e+00 0.000000e+00
 0.000000e+00 0.000000e+00 4.786885e-01 5.213115e-01 0.000000e+00
 0.000000e+00 0.000000e+00 0.000000e+00 5.445056e-01 4.554944e-01
 0.000000e+00 0.000000e+00 0.000000e+00 0.000000e+00 0.000000e+00
<ENDHMM>
~h "e"
<BEGINHMM>
<NUMSTATES> 5
<STATE> 2
<MEAN> 25
 6.108085e+00 -7.199650e+00 1.334367e+00 8.766667e+00 2.613292e+00 -4.863390e+00 -1.057067e+01 -1.080843e+01 -4.775013e+00 -1.115772e+00 2.646044e+00 2.166619e+00 -3.237687e-02 9.189223e-02 -2.970730e-01 5.414962e-01 1.481975e-01 -6.000140e-01 1.757963e-01 1.767686e-01 1.367951e-01 4.257827e-01 -2.201438e-01 -2.338866e-01 -1.808673e-01
<VARIANCE> 25
 3.599253e+00 1.186648e+01 1.567231e+01 1.622023e+01 3.283459e+01 1.881580e+01 3.036029e+01 3.052966e+01 2.301387e+01 3.873829e+01 1.745449e+01 2.667994e+01 8.630092e-02 5.551781e-01 5.490006e-01 1.175213e+00 9.015225e-01 1.134649e+00 9.751388e-01 7.945412e-01 8.472508e-01 1.017064e+00 9.522106e-01 7.960549e-01 1.291555e-01
<GCONST> 7.525227e+01
<STATE> 3
<MEAN> 25
 4.747271e+00 -3.455111e+00 1.052361e-01 1.083248e+01 5.041683e+00 -5.861565e+00 -1.106706e+01 -1.143645e+01 -3.144693e+00 3.707186e+00 1.092285e+00 -1.217189e+00 -5.633269e-01 1.199597e+00 4.603525e-02 1.272302e-01 3.375365e-01 -1.297491e-01 2.156395e-01 -1.425660e-01 8.417201e-02 7.477556e-01 1.720052e-02 -2.466629e-02 -9.392776e-01
<VARIANCE> 25
 5.985470e+00 2.172208e+01 1.680984e+01 1.623588e+01 3.997655e+01 2.042957e+01 2.806837e+01 3.436905e+01 3.098060e+01 4.353556e+01 2.038907e+01 2.113612e+01 3.597469e-01 1.062134e+00 7.946865e-01 1.179067e+00 8.775623e-01 1.277145e+00 1.711118e+00 1.608529e+00 9.537491e-01 2.046077e+00 8.767996e-01 1.029074e+00 5.636216e-01
<GCONST> 8.336549e+01
<STATE> 4
<MEAN> 25
 -2.532628e+00 4.773941e+00 8.134068e-01 9.697199e+00 8.630916e+00 -5.687323e+00 -9.755500e+00 -8.573744e+00 7.450060e-01 9.000479e+00 2.940939e+00 -6.983162e-01 -1.037998e+00 7.567069e-01 -3.147494e-02 -8.926668e-01 -6.022390e-02 3.530295e-01 8.869621e-01 1.213692e+00 7.636064e-01 1.177831e-01 -8.835089e-02 1.756846e-01 -1.000608e+00
<VARIANCE> 25
 2.173299e+01 3.180980e+01 2.319358e+01 2.998547e+01 3.105452e+01 2.664507e+01 3.514599e+01 5.017947e+01 3.924105e+01 4.799060e+01 2.746682e+01 1.908195e+01 3.042183e-01 1.025789e+00 8.040120e-01 1.807446e+00 2.028879e+00 1.934971e+00 2.501945e+00 1.954035e+00 2.058666e+00 3.203026e+00 1.978432e+00 1.144294e+00 3.197069e-01
<GCONST> 9.075269e+01
<TRANSP> 5
 0.000000e+00 1.000000e+00 0.000000e+00 0.000000e+00 0.000000e+00
 0.000000e+00 7.851311e-01 2.148689e-01 0.000000e+00 0.000000e+00
 0.000000e+00 0.000000e+00 7.152426e-01 2.847574e-01 0.000000e+00
 0.000000e+00 0.000000e+00 0.000000e+00 8.208240e-01 1.791761e-01
 0.000000e+00 0.000000e+00 0.000000e+00 0.000000e+00 0.000000e+00
<ENDHMM>
~h "g"
<BEGINHMM>
<NUMSTATES> 5
<STATE> 2
<MEAN> 25
 3.435502e+00 -8.582597e-01 -5.273419e+00 -1.306556e+00 9.787592e-01 4.235140e+00 4.174551e+00 -5.633249e+00 -9.504489e+00 -3.689170e-01 3.958683e+00 8.346643e-01 1.173353e+00 -1.757016e+00 -1.060434e-01 6.371636e-01 7.340838e-02 4.006823e-02 -9.220170e-01 -1.320922e+00 -1.259703e+00 -6.264099e-01 4.267016e-01 -9.114528e-02 1.530246e+00
<VARIANCE> 25
 1.848249e+01 6.984332e+01 2.585582e+01 3.580234e+01 4.070633e+01 4.936510e+01 4.101156e+01 4.187002e+01 2.808285e+01 1.859394e+01 2.719074e+01 1.285664e+01 2.881899e+00 1.038460e+01 4.072697e+00 3.327917e+00 3.475837e+00 7.304930e+00 6.361985e+00 4.991995e+00 4.864192e+00 2.779110e+00 3.001399e+00 2.403876e+00 4.715226e+00
<GCONST> 1.059383e+02
<STATE> 3
<MEAN> 25
 9.009465e+00 -6.562555e+00 -6.131021e+00 1.597965e+00 8.034112e-02 -1.790848e+00 -1.168361e+00 -8.047210e+00 -1.066247e+01 7.479393e-01 4.632622e+00 -1.532045e+00 7.735447e-01 -9.194177e-01 -4.833307e-01 -7.060586e-01 -6.488736e-01 -1.099520e+00 -9.021838e-01 9.621326e-01 1.071291e+00 1.482070e-01 8.116376e-01 6.813343e-01 1.027726e+00
<VARIANCE> 25
 6.958678e+00 2.008008e+01 1.347162e+01 1.533496e+01 9.713973e+00 1.665357e+01 3.027285e+01 2.593689e+01 2.222064e+01 4.055549e+01 3.129122e+01 2.377266e+01 4.437377e-01 1.991082e+00 1.269128e+00 1.766341e+00 1.202974e+00 4.285704e+00 4.414806e+00 4.971894e+00 3.145130e+00 4.081389e+00 2.897956e+00 2.075165e+00 7.686087e-01
<GCONST> 9.088045e+01
<STATE> 4
<MEAN> 25
 1.011453e+01 -6.993925e+00 -8.800171e+00 -3.720557e+00 -1.279418e+00 -1.748604e+00 -4.723265e-01 -1.995624e+00 -3.446757e+00 -1.334143e+00 5.368913e+00 5.885517e+00 7.500666e-02 5.221481e-02 -4.356819e-01 -3.196376e-01 -2.329080e-01 -6.795213e-02 4.896716e-01 6.314209e-01 5.985149e-01 -1.257608e-01 -2.184731e-01 4.164052e-01 -3.703360e-02
<VARIANCE> 25
 5.892035e+00 1.704928e+01 1.833556e+01 2.239496e+01 2.371181e+01 1.562008e+01 3.985876e+01 2.341880e+01 2.261868e+01 3.921323e+01 3.547472e+01 3.973118e+01 2.981506e-01 1.358254e+00 1.184047e+00 1.112743e+00 2.091336e+00 1.291662e+00 2.526252e+00 1.401400e+00 2.054064e+00 2.651828e+00 2.443803e+00 1.953890e+00 6.428809e-01
<GCONST> 8.781286e+01
<TRANSP> 5
 0.000000e+00 1.000000e+00 0.000000e+00 0.000000e+00 0.000000e+00
 0.000000e+00 7.846875e-01 2.153125e-01 0.000000e+00 0.000000e+00
 0.000000e+00 0.000000e+00 7.016387e-01 2.983613e-01 0.000000e+00
 0.000000e+00 0.000000e+00 0.000000e+00 8.807058e-01 1.192942e-01
 0.000000e+00 0.000000e+00 0.000000e+00 0.000000e+00 0.000000e+00
<ENDHMM>
~h "h"
<BEGINHMM>
<NUMSTATES> 5
<STATE> 2
<MEAN> 25
 5.483474e+00 1.243726e+01 2.540447e+00 -3.047122e+00 -8.394671e+00 -1.080709e+01 1.798974e+00 6.150420e+00 3.003458e-01 -3.394935e+00 -5.641658e+00 -6.592972e+00 3.773776e-01 -4.491273e-01 -6.484770e-01 -2.973463e-01 -6.278893e-01 -1.086000e+00 -2.618185e-01 4.760617e-01 1.181705e-01 -3.756772e-01 -2.244278e-01 1.921151e-01 3.588303e-01
<VARIANCE> 25
 7.432358e+00 2.080697e+01 3.093420e+01 1.539501e+01 4.700641e+01 4.932694e+01 4.510947e+01 2.523071e+01 2.980900e+01 3.346812e+01 2.871624e+01 1.671035e+01 2.674225e-01 1.826111e+00 1.024201e+00 1.261758e+00 1.421688e+00 2.367580e+00 4.168108e+00 1.425780e+00 1.502347e+00 2.030078e+00 1.879541e+00 1.899400e+00 2.064884e-01
<GCONST> 8.836449e+01
<STATE> 3
<MEAN> 25
 6.860045e+00 7.457349e-01 -7.255520e+00 -5.912621e+00 -1.281111e+01 -1.008805e+01 9.224401e+00 8.506518e+00 -2.027473e+00 -5.016314e+00 -4.923333e+00 6.569622e-01 -7.790085e-02 -2.417395e+00 -1.532845e+00 -2.346024e-01 4.510616e-01 2.148957e+00 1.361466e+00 -9.740164e-01 1.562320e-01 9.801442e-01 4.445246e-01 1.105718e+00 6.196138e-01
<VARIANCE> 25
 5.461138e+00 3.258317e+01 2.490137e+01 1.735335e+01 2.719480e+01 3.457607e+01 4.987624e+01 2.655467e+01 2.086528e+01 2.953105e+01 2.935287e+01 1.883901e+01 5.077565e-01 2.444227e+00 1.675779e+00 8.348731e-01 2.696038e+00 2.799207e+00 4.695863e+00 2.685189e+00 2.816188e+00 2.903753e+00 3.318240e+00 2.362708e+00 7.966893e-01
<GCONST> 9.301156e+01
<STATE> 4
<MEAN> 25
 6.446325e+00 -7.968145e+00 -1.029896e+01 -5.840811e+00 -9.096096e+00 9.811779e-01 9.812178e+00 2.014791e+00 3.492971e+00 3.589971e-01 -4.440121e+00 1.972904e+00 -9.298462e-03 -4.561240e-01 2.037536e-01 4.933178e-01 1.122911e+00 1.414012e+00 -4.449331e-01 -8.025213e-01 6.388455e-01 6.371535e-01 3.881150e-01 8.185028e-02 1.937612e-01
<VARIANCE> 25
 5.746985e+00 1.857847e+01 2.440361e+01 2.177548e+01 1.943870e+01 3.735674e+01 3.133133e+01 2.593518e+01 2.752173e+01 4.477077e+01 2.948569e+01 1.123752e+01 3.326782e-01 2.013752e+00 1.903389e+00 7.276216e-01 2.505665e+00 1.632429e+00 8.634496e-01 1.848838e+00 1.084388e+00 1.311011e+00 1.122056e+00 1.053486e+00 4.907270e-01
<GCONST> 8.470946e+01
<TRANSP> 5
 0.000000e+00 1.000000e+00 0.000000e+00 0.000000e+00 0.000000e+00
 0.000000e+00 9.120440e-01 8.795595e-02 0.000000e+00 0.000000e+00
 0.000000e+00 0.000000e+00 7.731258e-01 2.268742e-01 0.000000e+00
 0.000000e+00 0.000000e+00 0.000000e+00 6.636636e-01 3.363364e-01
 0.000000e+00 0.000000e+00 0.000000e+00 0.000000e+00 0.000000e+00
<ENDHMM>
~h "i"
<BEGINHMM>
<NUMSTATES> 5
<STATE> 2
<MEAN> 25
 2.187038e+00 -6.923293e+00 7.803255e+00 1.646116e+01 5.700632e+00 -6.406337e+00 -1.410395e+01 -9.539801e+00 -1.296525e+00 -4.345317e-01 -2.217458e+00 -3.806844e+00 1.473962e-02 -1.147531e-01 9.684564e-01 2.058449e+00 5.561892e-01 -1.452050e+00 -7.243342e-01 -4.220325e-02 -1.260997e-01 3.053665e-01 -1.857059e-01 -8.994838e-01 1.127431e-01
<VARIANCE> 25
 1.406319e+01 3.680516e+01 6.065530e+01 4.064975e+01 3.898798e+01 5.307884e+01 4.194161e+01 3.095401e+01 3.260758e+01 2.815565e+01 3.504917e+01 2.984720e+01 1.309345e+00 3.597680e+00 2.129617e+00 5.918094e+00 2.289263e+00 4.873088e+00 3.751501e+00 3.140638e+00 2.380852e+00 2.682595e+00 2.165020e+00 2.507299e+00 1.857233e+00
<GCONST> 1.017126e+02
<STATE> 3
<MEAN> 25
 -4.865838e-01 -4.285110e-01 7.219718e+00 1.573946e+01 8.199130e+00 -5.503732e+00 -1.075737e+01 -6.951181e+00 -8.051287e-03 2.322901e+00 -1.400093e+00 -3.520381e+00 -8.965341e-01 1.550711e+00 -3.926845e-01 -1.253688e+00 2.700295e-01 7.883250e-01 8.635300e-01 5.038280e-01 4.447351e-01 7.330287e-01 3.263069e-01 4.220541e-01 -1.264458e+00
<VARIANCE> 25
 1.877415e+01 4.144537e+01 3.149981e+01 3.069165e+01 3.269072e+01 4.055396e+01 4.023156e+01 3.051625e+01 2.940414e+01 2.478812e+01 2.652459e+01 2.465519e+01 5.677519e-01 1.535901e+00 1.619032e+00 1.868148e+00 1.676389e+00 2.484807e+00 2.492890e+00 1.759420e+00 1.927027e+00 2.116880e+00 1.840504e+00 1.543515e+00 7.237990e-01
<GCONST> 9.285680e+01
<STATE> 4
<MEAN> 25
 -3.754315e+00 2.549545e+00 4.184971e+00 8.407100e+00 6.401379e+00 -2.116279e+00 -6.513823e+00 -5.173558e+00 1.404859e+00 4.827640e+00 1.976533e-01 -1.392651e+00 -5.212457e-01 -3.622071e-01 -8.749620e-01 -1.996503e+00 -7.235228e-01 1.432344e+00 1.101419e+00 2.781034e-01 1.082193e-02 -7.858676e-02 4.912760e-01 8.382263e-01 -2.814867e-01
<VARIANCE> 25
 3.379900e+01 5.251648e+01 2.610727e+01 2.690623e+01 2.904912e+01 4.430431e+01 4.497474e+01 3.720259e+01 2.993112e+01 3.173186e+01 2.378273e+01 2.538582e+01 7.900549e-01 4.271154e+00 2.050256e+00 2.427367e+00 2.531888e+00 3.538722e+00 3.347113e+00 3.088743e+00 2.361867e+00 2.643101e+00 2.594630e+00 1.984016e+00 1.216522e+00
<GCONST> 9.884054e+01
<TRANSP> 5
 0.000000e+00 1.000000e+00 0.000000e+00 0.000000e+00 0.000000e+00
 0.000000e+00 6.847333e-01 3.152667e-01 0.000000e+00 0.000000e+00
 0.000000e+00 0.000000e+00 7.703882e-01 2.296118e-01 0.000000e+00
 0.000000e+00 0.000000e+00 0.000000e+00 6.273510e-01 3.726490e-01
 0.000000e+00 0.000000e+00 0.000000e+00 0.000000e+00 0.000000e+00
<ENDHMM>
~h "j"
<BEGINHMM>
<NUMSTATES> 5
<STATE> 2
<MEAN> 25
 -3.764798e+00 9.116622e-01 7.811980e+00 1.101678e+00 1.713624e+00 6.990303e+00 -3.311276e+00 -4.013557e+00 4.022919e+00 4.161105e+00 9.663116e-01 -5.469553e-01 -9.459828e-01 -2.606536e+00 3.128206e+00 3.334364e-01 -1.337149e+00 1.972292e+00 -7.115388e-01 -9.851735e-01 1.732934e-01 -6.206325e-01 -5.735691e-01 -3.274903e-01 9.286878e-01
<VARIANCE> 25
 2.848690e+01 1.125006e+02 6.778165e+01 3.152334e+01 6.372042e+01 4.886566e+01 4.605051e+01 3.464775e+01 3.335651e+01 2.130138e+01 3.060531e+01 1.613906e+01 1.689239e+00 1.360876e+01 6.232989e+00 3.626408e+00 6.582463e+00 4.291909e+00 5.883834e+00 5.813742e+00 3.386074e+00 3.480935e+00 2.204706e+00 2.071759e+00 3.020468e+00
<GCONST> 1.080914e+02
<STATE> 3
<MEAN> 25
 -5.338529e+00 -8.433141e+00 2.070436e+01 4.725168e+00 -4.146928e+00 1.049366e+01 -7.608729e+00 -8.588543e+00 2.000560e+00 -1.021271e-01 3.006984e-01 -1.057721e+00 2.265988e+00 -1.247976e+00 -1.020735e-02 2.490313e+00 5.492647e-01 -2.147422e+00 -2.901506e+00 -2.654126e+00 -2.471910e+00 -1.289181e+00 7.158943e-01 -4.420026e-01 2.017937e+00
<VARIANCE> 25
 1.787107e+01 3.320161e+01 5.837103e+01 2.475060e+01 2.455549e+01 3.655775e+01 4.328718e+01 4.125315e+01 3.201976e+01 1.871511e+01 2.703835e+01 2.017977e+01 2.993935e+00 1.251309e+01 8.282842e+00 2.907704e+00 5.177579e+00 5.714175e+00 4.579963e+00 2.288541e+00 4.197208e+00 3.153289e+00 3.227251e+00 2.646005e+00 1.564104e+00
<GCONST> 1.043101e+02
<STATE> 4
<MEAN> 25
 1.753497e+00 -7.526120e+00 1.151234e+01 9.467656e+00 1.273125e-01 2.300488e+00 -1.131666e+01 -1.159883e+01 -7.847347e-01 -1.470972e-01 1.126254e+00 -9.147585e-01 2.232367e+00 3.707699e-01 -2.569075e+00 1.172992e+00 1.709203e+00 -1.997301e+00 -9.520583e-01 -7.185614e-01 -1.632051e+00 -3.952400e-01 4.340890e-01 -6.110138e-01 9.487676e-01
<VARIANCE> 25
 1.092087e+01 1.242841e+01 3.811269e+01 2.212060e+01 1.336900e+01 3.090799e+01 4.236705e+01 4.317769e+01 5.420827e+01 2.228420e+01 2.033724e+01 1.799397e+01 3.505571e+00 4.456236e+00 8.378827e+00 2.717624e+00 3.270524e+00 8.682082e+00 4.203127e+00 6.896681e+00 6.102127e+00 3.113783e+00 2.906249e+00 4.026579e+00 1.528755e+00
<GCONST> 1.025454e+02
<TRANSP> 5
 0.000000e+00 1.000000e+00 0.000000e+00 0.000000e+00 0.000000e+00
 0.000000e+00 7.552618e-01 2.447382e-01 0.000000e+00 0.000000e+00
 0.000000e+00 0.000000e+00 3.852840e-01 6.147161e-01 0.000000e+00
 0.000000e+00 0.000000e+00 0.000000e+00 4.247498e-01 5.752502e-01
 0.000000e+00 0.000000e+00 0.000000e+00 0.000000e+00 0.000000e+00
<ENDHMM>
~h "k"
<BEGINHMM>
<NUMSTATES> 5
<STATE> 2
<MEAN> 25
 -4.216690e+00 -2.448574e+00 -2.057946e-01 -5.492357e+00 -2.668268e+00 5.743426e+00 5.017511e-01 -2.797014e+00 -1.880424e+00 -2.013271e-01 2.734766e+00 2.241793e+00 1.686185e+00 -3.376187e+00 -1.006219e+00 -1.787372e+00 -2.050387e+00 1.664567e+00 1.162130e+00 -8.010741e-01 -1.899588e+00 -1.497774e+00 6.564540e-01 5.977508e-01 2.553954e+00
<VARIANCE> 25
 2.090438e+01 8.994100e+01 4.361537e+01 6.551256e+01 6.301155e+01 7.508971e+01 1.041970e+02 8.655328e+01 4.778252e+01 5.711470e+01 2.959878e+01 3.718034e+01 2.788609e+00 5.445827e+00 5.526463e+00 5.350279e+00 4.669098e+00 1.127576e+01 7.009936e+00 4.845460e+00 4.311489e+00 5.446037e+00 3.578188e+00 3.215364e+00 1.506322e+00
<GCONST> 1.135327e+02
<STATE> 3
<MEAN> 25
 3.530330e+00 -8.596006e+00 -2.974740e+00 -5.153067e+00 -6.783072e+00 2.702982e+00 1.224221e+00 -4.969788e+00 -5.671450e+00 -1.561036e+00 4.220075e+00 3.532920e+00 2.806065e+00 -1.359195e+00 -1.390670e+00 1.020754e+00 -5.980708e-01 -2.612561e+00 9.293534e-02 3.039295e-01 3.806109e-01 7.224125e-01 3.347466e-01 2.554820e-01 2.416527e+00
<VARIANCE> 25
 2.450976e+01 4.560617e+01 2.878890e+01 4.413963e+01 4.521191e+01 5.460490e+01 6.471066e+01 5.849194e+01 3.589539e+01 4.866738e+01 3.537447e+01 2.452975e+01 1.408208e+00 3.744283e+00 3.816215e+00 3.766860e+00 3.904143e+00 6.099359e+00 6.869066e+00 8.166077e+00 4.681825e+00 7.055381e+00 3.478916e+00 4.012370e+00 1.043631e+00
<GCONST> 1.080967e+02
<STATE> 4
<MEAN> 25
 8.032427e+00 -1.237307e+01 -6.873603e+00 -4.064965e+00 -6.953719e+00 -1.840377e+00 2.486641e+00 -2.317040e+00 -2.457882e+00 1.421434e+00 5.308517e+00 3.649240e+00 6.072369e-01 -3.604318e-01 -8.886275e-01 -4.017240e-02 5.345066e-02 -5.722077e-01 8.246759e-01 1.281242e+00 7.929122e-01 1.615819e-01 -8.469106e-02 -1.089672e-03 5.038245e-01
<VARIANCE> 25
 7.466056e+00 3.079038e+01 1.371498e+01 1.805622e+01 2.567990e+01 3.108838e+01 3.819886e+01 3.464318e+01 3.992878e+01 4.304736e+01 3.045183e+01 2.651907e+01 8.544224e-01 2.097572e+00 1.366413e+00 1.926727e+00 2.368291e+00 2.839878e+00 3.127402e+00 2.824445e+00 2.397808e+00 2.948701e+00 2.185469e+00 1.782984e+00 8.802848e-01
<GCONST> 9.373476e+01
<TRANSP> 5
 0.000000e+00 1.000000e+00 0.000000e+00 0.000000e+00 0.000000e+00
 0.000000e+00 6.481760e-01 3.518240e-01 0.000000e+00 0.000000e+00
 0.000000e+00 0.000000e+00 5.274727e-01 4.725273e-01 0.000000e+00
 0.000000e+00 0.000000e+00 0.000000e+00 6.113679e-01 3.886321e-01
 0.000000e+00 0.000000e+00 0.000000e+00 0.000000e+00 0.000000e+00
<ENDHMM>
~h "l"
<BEGINHMM>
<NUMSTATES> 5
<STATE> 2
<MEAN> 25
 6.612264e+00 -4.832952e+00 -5.468814e+00 -2.246257e+00 -4.113780e+00 -2.111834e+00 4.710596e+00 2.756150e+00 -3.347395e+00 -2.401540e+00 8.383783e-01 3.591477e-01 1.735451e-01 -3.078117e-01 -4.165917e-01 -6.258293e-01 -7.690694e-01 -1.669932e-01 8.994616e-01 5.938157e-01 1.342692e-01 7.378216e-02 1.195645e-01 1.778227e-01 2.435940e-01
<VARIANCE> 25
 5.422747e+00 2.068448e+01 1.274040e+01 2.341622e+01 2.989075e+01 3.668055e+01 3.746725e+01 3.913208e+01 3.055396e+01 3.886840e+01 3.443463e+01 3.238711e+01 1.256302e-01 1.881363e+00 7.468753e-01 1.172814e+00 1.663000e+00 2.042827e+00 2.128687e+00 1.733012e+00 1.902167e+00 2.060699e+00 2.574578e+00 1.400280e+00 3.710713e-01
<GCONST> 8.736230e+01
<STATE> 3
<MEAN> 25
 6.795463e+00 -9.567141e+00 -5.952832e+00 -5.672299e+00 -8.811391e+00 1.678260e-01 8.741540e+00 4.059795e+00 -3.983780e-02 -1.663401e+00 5.021208e-01 2.639639e+00 -1.754715e-01 -1.092889e-01 2.722269e-01 1.030570e-01 1.344248e-02 1.849832e-01 -2.609254e-01 1.573512e-02 3.486961e-01 -3.972788e-02 -2.577333e-01 -9.715270e-02 -7.360867e-02
<VARIANCE> 25
 5.059463e+00 2.682591e+01 1.300219e+01 1.840735e+01 3.419609e+01 4.012071e+01 2.447440e+01 4.637027e+01 3.575700e+01 4.140813e+01 3.117314e+01 2.758845e+01 1.423659e-01 2.770913e+00 7.514616e-01 1.304719e+00 1.543550e+00 2.209084e+00 1.674127e+00 1.724273e+00 1.484302e+00 1.763270e+00 1.371271e+00 1.517137e+00 5.770123e-01
<GCONST> 8.713251e+01
<STATE> 4
<MEAN> 25
 4.953238e+00 -4.217618e+00 -4.316842e+00 -3.932822e+00 -6.550974e+00 -1.385770e-01 7.159238e+00 4.395271e+00 4.911233e-01 -1.270199e+00 -1.459325e+00 6.003664e-01 -8.768749e-01 2.166639e+00 5.420700e-01 2.953250e-01 1.107854e+00 2.064926e-02 -4.133288e-01 2.196854e-01 1.423372e-01 3.585330e-01 -2.016537e-01 -5.542970e-01 -1.476442e+00
<VARIANCE> 25
 7.322226e+00 3.613729e+01 1.479078e+01 1.597062e+01 2.317064e+01 3.115015e+01 2.027139e+01 4.169724e+01 2.716701e+01 3.577341e+01 3.062652e+01 2.176967e+01 4.740419e-01 1.135653e+00 1.376310e+00 1.236363e+00 1.776327e+00 2.386631e+00 1.913599e+00 1.927763e+00 1.536237e+00 1.957788e+00 1.452924e+00 2.215433e+00 5.144913e-01
<GCONST> 8.796057e+01
<TRANSP> 5
 0.000000e+00 1.000000e+00 0.000000e+00 0.000000e+00 0.000000e+00
 0.000000e+00 8.660480e-01 1.339521e-01 0.000000e+00 0.000000e+00
 0.000000e+00 0.000000e+00 7.512751e-01 2.487248e-01 0.000000e+00
 0.000000e+00 0.000000e+00 0.000000e+00 6.035287e-01 3.964712e-01
 0.000000e+00 0.000000e+00 0.000000e+00 0.000000e+00 0.000000e+00
<ENDHMM>
~h "m"
<BEGINHMM>
<NUMSTATES> 5
<STATE> 2
<MEAN> 25
 1.696790e-01 5.924707e+00 1.861116e+00 6.686159e-01 3.102124e+00 3.686682e+00 4.742965e+00 5.904063e+00 2.159507e+00 -1.874277e+00 -5.163619e+00 -5.667304e+00 -4.032820e-01 8.502583e-01 5.207854e-01 4.052715e-01 9.315261e-01 6.203932e-01 -5.224403e-02 -2.304958e-01 1.979104e-02 3.440221e-03 -3.010981e-01 -9.264565e-02 -5.503604e-01
<VARIANCE> 25
 2.073848e+01 2.021994e+01 1.398641e+01 1.695036e+01 1.676855e+01 2.858403e+01 1.820129e+01 1.897532e+01 1.936996e+01 3.118392e+01 2.380849e+01 1.744209e+01 2.908908e+00 1.245704e+00 9.456595e-01 1.414782e+00 1.663534e+00 2.499875e+00 1.560396e+00 2.369850e+00 2.185390e+00 3.129237e+00 3.523590e+00 2.407922e+00 1.578285e+00
<GCONST> 9.073220e+01
<STATE> 3
<MEAN> 25
 -1.959640e+00 7.210559e+00 2.057727e+00 2.779820e-01 4.972152e+00 5.261586e+00 3.613739e+00 3.209648e+00 1.782776e+00 -8.718809e-01 -4.731373e+00 -3.948581e+00 5.092498e-01 -7.757035e-01 -3.887530e-01 -8.245451e-01 -8.744609e-01 -3.542982e-02 -5.852892e-01 -9.242907e-01 -4.379247e-01 -3.526614e-01 3.082879e-01 8.924210e-01 6.734024e-01
<VARIANCE> 25
 2.171827e+01 2.802132e+01 2.181036e+01 2.165280e+01 2.258111e+01 3.352295e+01 2.429208e+01 2.875110e+01 2.409064e+01 3.786385e+01 3.945420e+01 2.625718e+01 4.945745e+00 2.632898e+00 1.249946e+00 1.370730e+00 2.116450e+00 2.618953e+00 2.743208e+00 2.892846e+00 2.500101e+00 3.088332e+00 3.093550e+00 1.873188e+00 2.497352e+00
<GCONST> 9.705772e+01
<STATE> 4
<MEAN> 25
 5.210399e-01 2.357407e+00 -9.499668e-01 -3.502690e+00 4.208651e-02 3.885396e+00 2.767104e+00 1.794756e+00 5.042841e-01 -2.377646e+00 -3.188099e+00 -8.045334e-01 1.532503e+00 -1.678076e+00 -9.899331e-01 -1.076587e+00 -2.290794e+00 -1.303477e+00 -1.496999e-01 -3.910178e-01 -6.159855e-01 -5.191953e-01 7.908996e-01 1.404312e+00 1.699098e+00
<VARIANCE> 25
 3.786887e+01 3.952271e+01 2.873147e+01 2.634306e+01 3.478456e+01 4.035971e+01 3.830123e+01 3.738113e+01 2.977247e+01 2.899920e+01 3.720368e+01 2.554659e+01 2.249180e+00 5.994081e+00 3.660029e+00 2.456572e+00 2.889081e+00 5.099256e+00 5.768133e+00 4.967428e+00 2.323484e+00 3.756263e+00 2.589523e+00 3.105758e+00 1.472278e+00
<GCONST> 1.034995e+02
<TRANSP> 5
 0.000000e+00 1.000000e+00 0.000000e+00 0.000000e+00 0.000000e+00
 0.000000e+00 6.977714e-01 3.022286e-01 0.000000e+00 0.000000e+00
 0.000000e+00 0.000000e+00 4.349646e-01 5.650354e-01 0.000000e+00
 0.000000e+00 0.000000e+00 0.000000e+00 5.223139e-01 4.776861e-01
 0.000000e+00 0.000000e+00 0.000000e+00 0.000000e+00 0.000000e+00
<ENDHMM>
~h "n"
<BEGINHMM>
<NUMSTATES> 5
<STATE> 2
<MEAN> 25
 5.172491e+00 1.605475e+00 -2.161919e+00 2.671717e+00 5.182833e+00 1.114634e+00 -9.470606e-01 -3.480540e-01 -2.583713e+00 -3.310804e+00 -2.624809e+00 -2.070095e+00 -3.277609e-01 1.422997e+00 6.825705e-01 3.604669e-01 8.562330e-01 4.672772e-01 -1.556092e-01 1.031596e-01 -2.456545e-02 -8.332775e-01 -1.329860e+00 -4.994592e-01 -7.178597e-01
<VARIANCE> 25
 8.282105e+00 3.529641e+01 1.756768e+01 1.714492e+01 2.527248e+01 2.211757e+01 2.041662e+01 2.346612e+01 1.882986e+01 2.309249e+01 2.632125e+01 1.994276e+01 1.097044e+00 1.265377e+00 1.485839e+00 1.322298e+00 1.351372e+00 1.749464e+00 1.817253e+00 1.907393e+00 2.532405e+00 2.114985e+00 2.557643e+00 2.602252e+00 7.795244e-01
<GCONST> 8.860020e+01
<STATE> 3
<MEAN> 25
 3.958449e+00 4.144964e+00 -5.647206e-01 2.530484e+00 5.598669e+00 1.730936e+00 -8.671939e-01 1.831628e-01 -2.191752e+00 -4.851466e+00 -4.433908e+00 -1.901952e+00 -5.066315e-01 5.961602e-01 5.424460e-01 -1.266340e-01 -2.322443e-01 2.268309e-01 3.083007e-01 1.078611e-01 1.416561e-01 -7.235831e-02 -6.762411e-02 2.614054e-01 -5.042432e-01
<VARIANCE> 25
 7.571536e+00 3.387609e+01 2.237788e+01 1.958614e+01 2.957307e+01 2.357660e+01 2.476305e+01 2.412748e+01 2.569714e+01 2.458867e+01 2.620427e+01 2.159988e+01 9.427828e-01 1.861464e+00 1.839217e+00 1.155425e+00 1.701379e+00 2.014453e+00 1.733541e+00 1.641949e+00 2.037714e+00 2.124111e+00 2.892244e+00 2.017381e+00 8.661267e-01
<GCONST> 8.998340e+01
<STATE> 4
<MEAN> 25
 2.191334e+00 4.530415e+00 8.211232e-01 1.631397e+00 3.177152e+00 2.121730e+00 1.104027e+00 -2.606347e-02 -1.862067e+00 -3.190948e+00 -2.806105e+00 -2.175560e-01 -5.936891e-01 -1.005946e+00 3.783966e-01 -6.128657e-01 -1.349927e+00 4.571403e-01 7.548313e-01 -1.865395e-01 2.675656e-01 8.771973e-01 9.354464e-01 5.398430e-01 5.800663e-02
<VARIANCE> 25
 1.527576e+01 3.650087e+01 3.484915e+01 2.723664e+01 4.576285e+01 3.424589e+01 3.774239e+01 2.751124e+01 3.433809e+01 2.920323e+01 2.767799e+01 2.194593e+01 1.729113e+00 3.996758e+00 4.967549e+00 2.087681e+00 3.422871e+00 4.274240e+00 2.991043e+00 2.921049e+00 2.475047e+00 2.598135e+00 3.382665e+00 1.979496e+00 1.364316e+00
<GCONST> 9.994424e+01
<TRANSP> 5
 0.000000e+00 1.000000e+00 0.000000e+00 0.000000e+00 0.000000e+00
 0.000000e+00 5.551690e-01 4.448310e-01 0.000000e+00 0.000000e+00
 0.000000e+00 0.000000e+00 4.197206e-01 5.802794e-01 0.000000e+00
 0.000000e+00 0.000000e+00 0.000000e+00 4.586923e-01 5.413077e-01
 0.000000e+00 0.000000e+00 0.000000e+00 0.000000e+00 0.000000e+00
<ENDHMM>
~h "p"
<BEGINHMM>
<NUMSTATES> 5
<STATE> 2
<MEAN> 25
 -3.498313e-01 7.595969e+00 3.705135e+00 -1.749827e+00 -2.993544e+00 -3.738912e+00 -3.981791e+00 -3.205781e+00 -9.536765e-01 4.283412e-02 9.205515e-02 7.413744e-01 1.558543e+00 1.574418e+00 1.312406e+00 6.477888e-01 -1.494081e+00 -3.237482e+00 -1.419082e+00 -9.565840e-02 -1.429567e-01 1.593760e-01 -8.332844e-02 -8.477361e-01 7.981208e-01
<VARIANCE> 25
 2.104029e+01 3.307942e+01 2.194927e+01 1.622152e+01 3.314696e+01 5.613612e+01 2.965595e+01 2.846274e+01 2.916114e+01 2.582826e+01 1.729791e+01 1.770166e+01 2.453686e+00 4.813692e+00 2.679328e+00 2.195767e+00 4.849470e+00 8.902597e+00 3.648984e+00 3.269624e+00 3.619090e+00 2.851002e+00 3.108177e+00 2.516483e+00 9.209425e-01
<GCONST> 9.977680e+01
<STATE> 3
<MEAN> 25
 2.828986e+00 9.709404e+00 6.264337e+00 8.511479e-01 -6.075654e+00 -1.191810e+01 -6.133642e+00 -2.706259e-01 -1.397551e-01 6.267649e-03 -3.276598e-01 -2.145919e+00 1.579934e-01 -9.465726e-02 3.413299e-01 4.182828e-01 -2.449122e-01 -7.436508e-01 -2.865802e-01 3.340730e-01 3.825296e-01 2.271058e-01 -9.108666e-02 -5.215860e-01 1.992050e-01
<VARIANCE> 25
 1.597991e+01 2.453501e+01 2.786969e+01 2.386333e+01 4.766876e+01 5.022631e+01 3.681607e+01 3.453611e+01 3.319692e+01 3.065556e+01 2.650240e+01 2.682397e+01 9.344591e-01 1.514829e+00 1.165144e+00 1.226120e+00 2.426264e+00 3.266251e+00 2.135490e+00 3.202672e+00 2.332919e+00 2.031357e+00 2.345932e+00 1.793070e+00 7.202886e-01
<GCONST> 9.420004e+01
<STATE> 4
<MEAN> 25
 1.683805e+00 9.105305e+00 6.431035e+00 8.808846e-01 -4.350849e+00 -9.949076e+00 -7.830359e+00 -1.726215e+00 1.549597e+00 9.304188e-01 -1.395405e+00 -2.820886e+00 3.059987e-02 -7.792614e-01 -3.674389e-01 1.013534e-01 4.380739e-01 6.889420e-01 8.379854e-02 -6.692781e-02 -2.564271e-02 -3.559136e-01 -4.082836e-01 -1.614036e-01 2.542870e-01
<VARIANCE> 25
 1.763000e+01 3.937850e+01 3.532772e+01 2.312466e+01 6.889244e+01 7.840387e+01 7.382423e+01 6.039838e+01 4.726226e+01 3.674229e+01 4.394671e+01 3.573775e+01 1.724225e+00 2.549245e+00 1.731940e+00 3.166488e+00 2.891552e+00 3.752286e+00 3.996493e+00 4.179127e+00 3.173536e+00 3.110156e+00 2.235680e+00 2.222605e+00 1.697261e+00
<GCONST> 1.038151e+02
<TRANSP> 5
 0.000000e+00 1.000000e+00 0.000000e+00 0.000000e+00 0.000000e+00
 0.000000e+00 5.499961e-01 4.500039e-01 0.000000e+00 0.000000e+00
 0.000000e+00 0.000000e+00 5.895109e-01 4.104891e-01 0.000000e+00
 0.000000e+00 0.000000e+00 0.000000e+00 5.422670e-01 4.577331e-01
 0.000000e+00 0.000000e+00 0.000000e+00 0.000000e+00 0.000000e+00
<ENDHMM>
~h "r"
<BEGINHMM>
<NUMSTATES> 5
<STATE> 2
<MEAN> 25
 6.421724e+00 -3.236415e-01 -7.044635e+00 -3.765065e+00 2.853315e+00 1.418206e+00 -2.387717e+00 -1.803727e+00 -1.839504e+00 -6.434157e+00 -1.866126e+00 5.272794e+00 1.459254e-01 3.451531e-01 -7.580591e-01 -5.668961e-01 6.061437e-01 3.828607e-01 -1.000830e-01 2.767887e-02 6.324083e-02 -3.702939e-02 2.064009e-01 4.141878e-01 -1.085773e-01
<VARIANCE> 25
 1.755436e+01 3.652706e+01 2.626804e+01 2.991207e+01 2.410344e+01 4.775906e+01 3.416933e+01 3.909895e+01 3.900545e+01 3.191947e+01 4.780723e+01 3.335804e+01 8.777444e-01 1.708690e+00 1.802439e+00 1.677664e+00 1.722429e+00 3.502822e+00 3.105263e+00 3.352351e+00 2.436336e+00 3.165053e+00 2.743557e+00 2.433652e+00 8.083500e-01
<GCONST> 9.720473e+01
<STATE> 3
<MEAN> 25
 4.745926e+00 1.108344e+00 -6.350206e+00 -4.387426e+00 2.745241e+00 3.185806e+00 -1.009036e+00 -2.178416e+00 -1.308181e+00 -3.734311e+00 -1.820583e+00 3.740449e+00 -6.144443e-01 5.026796e-01 6.093920e-01 3.716682e-01 1.599656e-01 1.027619e-01 3.199687e-01 8.409078e-02 -6.269649e-02 7.310901e-01 1.756953e-01 -6.715870e-01 -5.934047e-01
<VARIANCE> 25
 2.473493e+01 4.459058e+01 2.970491e+01 2.001985e+01 2.467797e+01 3.634835e+01 3.555219e+01 4.027930e+01 4.366966e+01 2.825851e+01 4.625544e+01 3.163498e+01 5.475077e-01 1.690363e+00 1.440406e+00 1.683636e+00 1.537816e+00 2.727885e+00 2.746958e+00 2.030727e+00 1.934744e+00 2.475761e+00 1.738207e+00 2.501708e+00 5.025240e-01
<GCONST> 9.412256e+01
<STATE> 4
<MEAN> 25
 -1.620742e+00 4.042507e+00 -2.276396e+00 -2.211978e+00 3.907806e+00 2.947692e+00 -5.367430e-01 -2.431494e+00 -2.108239e+00 -7.607289e-01 -3.474884e-03 2.853713e+00 -1.132340e+00 2.564412e-01 8.035414e-01 3.005976e-01 -1.762182e-01 -2.414284e-01 1.249273e-01 3.104538e-01 5.508662e-01 9.284480e-01 3.175358e-01 -3.127806e-01 -8.153302e-01
<VARIANCE> 25
 4.195805e+01 3.950209e+01 2.091530e+01 2.132270e+01 2.688194e+01 3.918942e+01 3.331602e+01 2.834470e+01 4.306060e+01 2.838120e+01 4.058646e+01 2.559704e+01 5.146888e-01 1.318187e+00 1.271567e+00 1.464104e+00 1.765987e+00 2.875876e+00 2.557489e+00 2.099714e+00 2.201631e+00 2.244131e+00 1.831139e+00 1.926504e+00 3.647915e-01
<GCONST> 9.271397e+01
<TRANSP> 5
 0.000000e+00 1.000000e+00 0.000000e+00 0.000000e+00 0.000000e+00
 0.000000e+00 6.398377e-01 3.601623e-01 0.000000e+00 0.000000e+00
 0.000000e+00 0.000000e+00 4.686527e-01 5.313473e-01 0.000000e+00
 0.000000e+00 0.000000e+00 0.000000e+00 6.511534e-01 3.488466e-01
 0.000000e+00 0.000000e+00 0.000000e+00 0.000000e+00 0.000000e+00
<ENDHMM>
~h "s"
<BEGINHMM>
<NUMSTATES> 5
<STATE> 2
<MEAN> 25
 -1.012129e+01 -1.172695e+01 1.688774e+01 -9.278252e+00 -6.825953e+00 1.638616e+01 -2.512123e+00 2.486184e+00 4.282177e+00 -2.240662e-01 5.969304e+00 1.492021e+00 -8.279115e-01 -4.430541e-01 6.920656e-01 1.598737e-01 1.523702e-01 1.907543e-01 -5.802515e-01 -3.164851e-01 -3.765902e-01 -3.410304e-01 2.091842e-01 -5.881965e-02 -2.827324e-01
<VARIANCE> 25
 2.550126e+01 3.125976e+01 5.304810e+01 3.569969e+01 2.560776e+01 3.513881e+01 4.067929e+01 5.736733e+01 4.120244e+01 2.969263e+01 3.213655e+01 2.190559e+01 5.788688e+00 5.533056e+00 1.134369e+01 5.317583e+00 3.179669e+00 6.072459e+00 3.935488e+00 4.826705e+00 3.325079e+00 2.562607e+00 3.067800e+00 2.041770e+00 4.849373e-01
<GCONST> 1.051225e+02
<STATE> 3
<MEAN> 25
 -7.602485e-02 -2.921643e+00 8.047484e+00 1.491030e+00 6.637631e-01 6.073931e+00 -7.802882e+00 -7.521579e+00 -3.296573e+00 -4.740716e+00 2.328600e+00 1.124643e+00 4.117822e+00 2.157290e+00 -2.053829e+00 2.981326e+00 1.817353e+00 -3.846173e+00 -2.025868e+00 -1.912289e+00 -1.740695e+00 -8.499541e-01 -1.212985e+00 -9.753205e-01 1.519200e+00
<VARIANCE> 25
 3.107983e+01 2.711138e+01 2.308406e+01 3.199508e+01 4.249466e+01 3.364827e+01 8.507492e+01 4.687560e+01 4.844569e+01 4.817652e+01 2.970265e+01 3.242200e+01 1.927838e+00 6.403193e+00 3.282958e+00 4.483579e+00 6.169034e+00 4.532027e+00 4.443458e+00 9.618729e+00 4.005554e+00 5.258716e+00 4.886587e+00 3.078785e+00 8.093442e-01
<GCONST> 1.073052e+02
<STATE> 4
<MEAN> 25
 2.932134e+00 -2.373042e+00 9.071549e+00 1.548113e+01 5.181322e+00 -5.632370e+00 -1.166129e+01 -6.057567e+00 -1.011549e+00 -2.932917e+00 -3.191393e+00 -5.329309e+00 1.792355e-01 3.792631e-01 -2.924830e-01 1.201573e+00 2.386970e-01 -1.478743e+00 1.668561e-01 3.474711e-01 2.735362e-01 4.635771e-01 -6.679099e-01 -4.551869e-01 -1.965761e-01
<VARIANCE> 25
 8.840775e+00 2.530514e+01 3.638935e+01 7.507145e+01 5.005663e+01 3.975407e+01 3.988992e+01 3.460168e+01 3.837728e+01 4.680471e+01 4.275383e+01 2.769380e+01 7.752132e-01 1.514734e+00 1.239128e+00 1.928500e+00 2.043698e+00 1.947284e+00 1.664997e+00 1.994705e+00 1.612758e+00 1.672836e+00 1.941123e+00 1.608767e+00 3.951443e-01
<GCONST> 9.348203e+01
<TRANSP> 5
 0.000000e+00 1.000000e+00 0.000000e+00 0.000000e+00 0.000000e+00
 0.000000e+00 8.911132e-01 1.088869e-01 0.000000e+00 0.000000e+00
 0.000000e+00 0.000000e+00 6.180121e-01 3.819879e-01 0.000000e+00
 0.000000e+00 0.000000e+00 0.000000e+00 6.535339e-01 3.464660e-01
 0.000000e+00 0.000000e+00 0.000000e+00 0.000000e+00 0.000000e+00
<ENDHMM>
~h "t"
<BEGINHMM>
<NUMSTATES> 5
<STATE> 2
<MEAN> 25
 -6.827487e+00 3.845010e+00 5.841439e-01 -2.432544e+00 1.642061e+00 4.090084e+00 2.186105e+00 3.561065e-01 2.004226e+00 2.775265e+00 2.005606e+00 3.252795e+00 4.637307e-01 -2.850837e+00 8.823096e-01 -1.225734e-01 -1.519650e+00 1.608295e+00 -6.163898e-01 -2.137630e+00 -8.579466e-01 -1.251816e+00 -1.450099e-01 7.623026e-01 1.597607e+00
<VARIANCE> 25
 2.025537e+01 3.822161e+01 2.992955e+01 2.625565e+01 4.014615e+01 3.433957e+01 3.025306e+01 3.628086e+01 3.145135e+01 3.428111e+01 1.748224e+01 1.971169e+01 2.552193e+00 3.547119e+00 3.275982e+00 4.005043e+00 4.195638e+00 4.143886e+00 5.170256e+00 3.067955e+00 4.028359e+00 4.325212e+00 3.050266e+00 3.145273e+00 2.079021e+00
<GCONST> 1.025683e+02
<STATE> 3
<MEAN> 25
 -2.950065e+00 -4.575716e+00 2.865825e+00 -2.735243e+00 -3.621967e+00 7.848028e+00 8.604475e-01 -5.325412e+00 -1.836603e+00 -2.935403e+00 3.492089e-01 4.527755e+00 3.200594e+00 -1.966678e+00 1.074837e+00 1.176014e+00 -1.569717e+00 -7.026341e-01 -1.066144e+00 -1.692498e+00 -2.015955e+00 -2.818881e+00 -1.548524e+00 -4.705578e-01 3.308258e+00
<VARIANCE> 25
 2.442986e+01 3.358429e+01 2.604231e+01 2.103373e+01 3.358603e+01 3.851324e+01 4.814192e+01 3.523091e+01 5.133828e+01 3.565775e+01 2.644427e+01 1.972063e+01 2.328809e+00 6.713608e+00 4.562364e+00 1.028407e+01 9.899943e+00 5.982457e+00 1.261195e+01 8.886511e+00 5.112918e+00 5.166920e+00 4.781068e+00 4.062497e+00 1.626866e+00
<GCONST> 1.094586e+02
<STATE> 4
<MEAN> 25
 5.156896e+00 -3.240771e+00 2.958922e+00 7.167395e-01 -4.759619e+00 1.052537e+00 -4.033517e-01 -4.729107e+00 -6.174549e+00 -8.801892e+00 -4.059920e+00 1.590442e+00 2.433982e+00 -2.940705e-01 8.182153e-02 2.001606e+00 -7.371259e-02 -3.143699e+00 -8.714851e-01 9.225230e-01 -5.058610e-01 -1.416367e+00 -1.453428e+00 -1.691876e+00 1.894714e+00
<VARIANCE> 25
 1.894940e+01 3.250041e+01 2.180981e+01 5.213087e+01 6.400021e+01 3.406802e+01 1.040962e+02 5.453783e+01 4.243110e+01 4.973820e+01 3.699558e+01 2.350716e+01 1.585995e+00 4.463364e+00 4.184793e+00 1.072622e+01 8.306083e+00 5.282891e+00 1.214839e+01 9.525205e+00 4.002676e+00 3.772658e+00 4.189702e+00 2.942897e+00 1.366892e+00
<GCONST> 1.099935e+02
<TRANSP> 5
 0.000000e+00 1.000000e+00 0.000000e+00 0.000000e+00 0.000000e+00
 0.000000e+00 4.258732e-01 5.741268e-01 0.000000e+00 0.000000e+00
 0.000000e+00 0.000000e+00 4.251817e-01 5.748183e-01 0.000000e+00
 0.000000e+00 0.000000e+00 0.000000e+00 3.256067e-01 6.743933e-01
 0.000000e+00 0.000000e+00 0.000000e+00 0.000000e+00 0.000000e+00
<ENDHMM>
~h "u"
<BEGINHMM>
<NUMSTATES> 5
<STATE> 2
<MEAN> 25
 5.860918e+00 4.284619e+00 2.977909e+00 -1.449120e+00 -7.152321e+00 -6.258108e+00 8.835177e-01 3.611972e+00 -1.830888e+00 -7.108983e+00 -5.441821e+00 -3.024800e+00 -2.810609e-01 6.933591e-01 -1.820282e-01 -1.758062e-03 3.249012e-01 -3.309796e-01 2.081852e-02 6.003689e-01 7.491077e-01 6.329105e-01 -1.369420e-01 -3.589031e-01 -5.311219e-01
<VARIANCE> 25
 1.112136e+01 4.704316e+01 2.753976e+01 1.819823e+01 4.722361e+01 4.266568e+01 7.032587e+01 3.564101e+01 4.826714e+01 4.703755e+01 3.666617e+01 2.645707e+01 6.714864e-01 2.063985e+00 1.176657e+00 1.243304e+00 2.451700e+00 3.914636e+00 2.613224e+00 2.798923e+00 2.268579e+00 2.784573e+00 1.996856e+00 1.923957e+00 8.541523e-01
<GCONST> 9.645351e+01
<STATE> 3
<MEAN> 25
 2.742914e+00 8.940626e+00 2.768137e+00 -1.731807e+00 -3.872474e+00 -4.743006e+00 5.783713e-01 3.178885e+00 2.518375e-01 -2.810786e+00 -4.325119e+00 -2.943066e+00 -1.103434e+00 6.896474e-01 -2.203958e-01 -1.446572e-01 1.213214e+00 9.558625e-01 -1.043139e-01 -4.871109e-01 2.962761e-01 1.061341e+00 6.575474e-01 4.879470e-01 -1.134523e+00
<VARIANCE> 25
 1.314156e+01 3.400494e+01 2.488881e+01 1.855518e+01 4.072466e+01 4.401467e+01 5.420167e+01 2.807578e+01 4.453226e+01 4.473140e+01 3.214481e+01 2.495010e+01 6.196947e-01 1.827241e+00 1.461756e+00 1.322524e+00 2.027528e+00 3.033319e+00 3.152863e+00 2.081732e+00 2.558014e+00 2.354277e+00 1.868414e+00 1.591524e+00 7.515765e-01
<GCONST> 9.436848e+01
<STATE> 4
<MEAN> 25
 -1.381033e+00 9.287770e+00 2.243546e+00 -1.703907e+00 -6.461634e-01 -2.328891e+00 -2.676274e-01 1.153843e+00 3.672153e-01 -9.744786e-02 -1.157405e+00 -2.061519e-01 -8.827034e-01 -6.424573e-01 -4.637107e-01 -9.627512e-02 7.959650e-01 1.011034e+00 -2.877778e-02 -6.728860e-01 -2.273943e-01 4.294643e-01 8.884843e-01 9.613475e-01 -4.891850e-01
<VARIANCE> 25
 2.261716e+01 3.507209e+01 2.769431e+01 2.535551e+01 3.698719e+01 4.728137e+01 4.651247e+01 2.724442e+01 3.872260e+01 4.236519e+01 3.313914e+01 2.480953e+01 6.832396e-01 2.242079e+00 1.656147e+00 1.778057e+00 2.344329e+00 3.369346e+00 3.769264e+00 2.139832e+00 2.877310e+00 2.199689e+00 1.884546e+00 1.787675e+00 6.900275e-01
<GCONST> 9.625282e+01
<TRANSP> 5
 0.000000e+00 1.000000e+00 0.000000e+00 0.000000e+00 0.000000e+00
 0.000000e+00 6.532603e-01 3.467396e-01 0.000000e+00 0.000000e+00
 0.000000e+00 0.000000e+00 6.082845e-01 3.917156e-01 0.000000e+00
 0.000000e+00 0.000000e+00 0.000000e+00 5.424110e-01 4.575890e-01
 0.000000e+00 0.000000e+00 0.000000e+00 0.000000e+00 0.000000e+00
<ENDHMM>
~h "ng"
<BEGINHMM>
<NUMSTATES> 5
<STATE> 2
<MEAN> 25
 3.918376e+00 -1.687020e+00 -2.349812e+00 1.729837e+00 -5.141816e-01 6.813289e-01 3.360482e+00 1.752560e+00 -1.203211e-02 -3.171592e+00 -6.476379e+00 -2.732403e+00 -4.949403e-01 1.148570e+00 7.929641e-01 8.229781e-01 1.349642e+00 5.832516e-01 -9.885703e-01 -3.647437e-01 2.324781e-01 3.279864e-02 -4.412689e-01 -4.884872e-01 -7.467957e-01
<VARIANCE> 25
 4.913778e+00 1.598406e+01 1.036538e+01 6.968336e+00 1.194986e+01 2.398175e+01 1.250077e+01 1.702342e+01 1.376019e+01 2.670240e+01 1.303561e+01 2.590514e+01 1.932670e-01 1.668451e+00 7.234856e-01 1.089690e+00 1.207188e+00 1.972526e+00 2.163382e+00 1.790742e+00 1.803748e+00 1.648850e+00 1.243797e+00 1.410890e+00 4.326767e-01
<GCONST> 7.900437e+01
<STATE> 3
<MEAN> 25
 2.122176e+00 2.420645e+00 6.114421e-01 2.713760e+00 2.572188e+00 2.089208e+00 1.265150e+00 1.891939e+00 4.526247e-01 -3.338857e+00 -7.157625e+00 -3.765347e+00 -7.550378e-01 1.377981e+00 8.653913e-01 -1.819054e-01 8.909661e-01 1.133021e-01 -9.163181e-01 1.473615e-01 1.920449e-01 -2.457674e-01 9.967337e-03 2.557214e-01 -8.869047e-01
<VARIANCE> 25
 4.739325e+00 1.244933e+01 1.183002e+01 9.585620e+00 8.711146e+00 1.305993e+01 2.419016e+01 2.167724e+01 1.950511e+01 1.695178e+01 2.107809e+01 1.442274e+01 3.696484e-01 1.514523e+00 1.731706e+00 1.545422e+00 7.700781e-01 2.311141e+00 3.292004e+00 1.642537e+00 2.385140e+00 2.865551e+00 1.612510e+00 3.268827e+00 4.668048e-01
<GCONST> 8.276076e+01
<STATE> 4
<MEAN> 25
 -2.129278e+00 7.142540e+00 3.129279e+00 1.180604e+00 4.325443e+00 1.749848e+00 -4.186983e-01 2.314542e+00 8.855978e-01 -2.505750e+00 -4.816218e+00 -2.820465e+00 -1.533269e+00 7.222283e-01 2.777993e-01 -1.894408e-01 1.809889e-01 1.099847e-01 2.031001e-01 -4.982778e-01 -3.405774e-01 7.451338e-01 1.098809e+00 5.456878e-01 -1.353431e+00
<VARIANCE> 25
 1.100887e+01 1.879124e+01 1.347414e+01 2.250826e+01 1.492648e+01 2.227027e+01 2.572453e+01 2.100592e+01 2.386831e+01 2.419126e+01 2.594729e+01 1.482534e+01 5.651837e-01 2.474685e+00 2.458271e+00 1.625056e+00 1.353795e+00 2.331962e+00 1.700395e+00 3.224057e+00 2.481582e+00 2.617087e+00 2.430539e+00 2.535786e+00 6.793490e-01
<GCONST> 8.927785e+01
<TRANSP> 5
 0.000000e+00 1.000000e+00 0.000000e+00 0.000000e+00 0.000000e+00
 0.000000e+00 7.304008e-01 2.695992e-01 0.000000e+00 0.000000e+00
 0.000000e+00 0.000000e+00 5.911640e-01 4.088360e-01 0.000000e+00
 0.000000e+00 0.000000e+00 0.000000e+00 7.433224e-01 2.566775e-01
 0.000000e+00 0.000000e+00 0.000000e+00 0.000000e+00 0.000000e+00
<ENDHMM>
~h "ny"
<BEGINHMM>
<NUMSTATES> 5
<STATE> 2
<MEAN> 25
 -1.096566e+01 5.457273e+00 5.622241e+00 4.197642e+00 6.677276e+00 3.917173e+00 2.262855e-02 1.202090e-01 3.319969e+00 4.469302e+00 -3.869844e-01 -2.227822e+00 3.118620e+00 1.313298e+00 2.807353e+00 1.703315e+00 -6.658052e-01 -1.932161e-02 -9.508788e-01 -1.855829e+00 -1.184707e+00 -1.217069e+00 -6.771435e-01 -1.326168e-01 2.225177e+00
<VARIANCE> 25
 3.930224e+01 5.925426e+01 1.931214e+01 2.110465e+01 2.755348e+01 3.303569e+01 2.097125e+01 3.177398e+01 1.790545e+01 2.368749e+01 2.359911e+01 2.094260e+01 2.158461e+00 4.251918e+00 3.000838e+00 1.932652e+00 2.235666e+00 4.044498e+00 2.560969e+00 3.628949e+00 1.799482e+00 2.716115e+00 4.102098e+00 2.433225e+00 8.155975e-01
<GCONST> 9.736819e+01
<STATE> 3
<MEAN> 25
 -2.327841e+00 6.360927e+00 1.266090e+01 9.431031e+00 3.234593e+00 1.657995e+00 -4.791693e+00 -6.857650e+00 -8.359048e-02 1.585287e+00 -1.908586e+00 -1.846839e+00 3.190325e+00 -3.034164e+00 1.863754e-01 1.898437e+00 -1.376229e+00 -1.232085e+00 -1.655479e+00 -2.388794e+00 -8.056729e-01 5.074075e-01 9.694626e-01 3.448882e-01 3.423303e+00
<VARIANCE> 25
 1.506030e+01 5.498183e+01 2.976375e+01 3.314429e+01 1.923864e+01 4.703168e+01 2.961309e+01 3.398440e+01 2.135463e+01 3.193287e+01 2.671630e+01 1.916860e+01 4.240588e+00 5.817587e+00 6.548328e+00 3.917310e+00 2.641039e+00 6.816319e+00 4.317072e+00 5.280420e+00 4.553990e+00 5.540226e+00 4.536407e+00 3.373752e+00 1.510902e+00
<GCONST> 1.048817e+02
<STATE> 4
<MEAN> 25
 4.039446e+00 -8.626925e+00 2.792241e+00 1.012604e+01 6.845400e-01 -1.235400e+00 -3.684128e+00 -6.723541e+00 -8.490676e-01 5.403599e+00 4.333451e+00 -1.917659e-01 1.527256e+00 -2.937657e+00 -3.324057e+00 -1.828499e+00 -7.270324e-01 5.363044e-01 2.131088e+00 1.139721e+00 -7.073042e-01 2.866380e-02 1.259773e+00 7.049173e-01 1.829600e+00
<VARIANCE> 25
 8.786897e+00 3.626619e+01 4.107626e+01 3.750365e+01 1.589044e+01 3.745898e+01 4.749127e+01 2.659300e+01 4.209973e+01 4.000887e+01 4.542101e+01 3.919272e+01 9.614730e-01 4.144247e+00 2.273977e+00 3.508685e+00 1.791116e+00 4.305511e+00 4.080844e+00 2.249304e+00 3.689080e+00 2.671364e+00 3.044427e+00 1.861591e+00 1.141739e+00
<GCONST> 9.936882e+01
<TRANSP> 5
 0.000000e+00 1.000000e+00 0.000000e+00 0.000000e+00 0.000000e+00
 0.000000e+00 5.243847e-01 4.756153e-01 0.000000e+00 0.000000e+00
 0.000000e+00 0.000000e+00 5.296976e-01 4.703024e-01 0.000000e+00
 0.000000e+00 0.000000e+00 0.000000e+00 7.166613e-01 2.833387e-01
 0.000000e+00 0.000000e+00 0.000000e+00 0.000000e+00 0.000000e+00
<ENDHMM>
~h "sil"
<BEGINHMM>
<NUMSTATES> 5
<STATE> 2
<MEAN> 25
 -1.147101e+01 3.690479e+00 -5.597791e-01 -1.090155e-01 5.429870e+00 1.410721e+00 5.510983e-01 2.401185e+00 4.377542e+00 5.182433e+00 1.466841e+00 4.432031e-01 -2.807041e-01 -2.117057e-01 -1.740521e-01 -9.433387e-02 4.523148e-02 1.362793e-01 2.133871e-01 2.226258e-01 1.220058e-01 4.352973e-02 2.968146e-02 2.277453e-02 -1.563412e-01
<VARIANCE> 25
 1.995540e+01 2.337140e+01 1.717580e+01 1.651229e+01 2.288592e+01 2.426376e+01 2.900064e+01 3.148679e+01 1.914077e+01 2.376927e+01 1.833134e+01 1.444618e+01 2.844741e-01 4.016557e-01 4.987637e-01 5.364279e-01 6.957099e-01 8.894592e-01 1.024054e+00 1.089741e+00 9.551393e-01 8.915486e-01 7.722737e-01 7.318898e-01 1.074637e-01
<GCONST> 7.575538e+01
<STATE> 3
<MEAN> 25
 -1.332154e+01 2.373978e+00 -2.779542e+00 -1.974083e+00 5.268191e+00 2.675148e+00 3.270269e+00 4.925325e+00 4.965633e+00 5.828730e+00 1.592825e+00 -1.166759e+00 -1.676854e-01 -1.441641e-01 -1.017531e-01 -2.597616e-02 7.626006e-02 1.038568e-01 2.059821e-01 1.845037e-01 4.730022e-02 -3.553358e-02 -1.777812e-01 -2.096221e-01 -8.668355e-02
<VARIANCE> 25
 1.935441e+01 2.374174e+01 1.928861e+01 2.640980e+01 2.901318e+01 2.695699e+01 3.282384e+01 3.194967e+01 2.047435e+01 2.749466e+01 1.977404e+01 1.925000e+01 4.572618e-01 8.178629e-01 8.416239e-01 7.870036e-01 9.347864e-01 1.173048e+00 1.268461e+00 9.816762e-01 1.109783e+00 1.107012e+00 8.610708e-01 8.728935e-01 1.855280e-01
<GCONST> 8.135442e+01
<STATE> 4
<MEAN> 25
 -1.247342e+01 3.315077e+00 -1.840306e+00 -1.016999e+00 5.306760e+00 1.950789e+00 2.344915e+00 3.914322e+00 4.245149e+00 4.966168e+00 8.534356e-01 -8.788421e-01 5.916592e-01 2.310831e-01 3.586319e-01 1.449192e-01 -1.353255e-02 3.236535e-01 1.836998e-01 -9.276808e-02 -3.581138e-01 -5.724642e-01 -3.823411e-01 -2.019888e-01 4.054961e-01
<VARIANCE> 25
 2.724076e+01 2.996283e+01 2.585350e+01 3.184659e+01 2.960558e+01 3.094034e+01 3.904710e+01 3.488856e+01 2.604638e+01 3.224519e+01 2.298882e+01 2.068526e+01 1.761340e+00 2.196922e+00 1.473874e+00 1.186512e+00 1.440256e+00 1.751939e+00 1.542155e+00 1.654899e+00 1.854412e+00 1.911561e+00 1.540399e+00 1.175379e+00 6.982290e-01
<GCONST> 9.157404e+01
<TRANSP> 5
 0.000000e+00 1.000000e+00 0.000000e+00 0.000000e+00 0.000000e+00
 0.000000e+00 8.495362e-01 1.504638e-01 0.000000e+00 0.000000e+00
 0.000000e+00 0.000000e+00 6.156651e-01 3.843348e-01 0.000000e+00
 0.000000e+00 0.000000e+00 0.000000e+00 2.164546e-01 7.835455e-01
 0.000000e+00 0.000000e+00 0.000000e+00 0.000000e+00 0.000000e+00
<ENDHMM>
