~o
<STREAMINFO> 1 25
<VECSIZE> 25<NULLD><MFCC_D_N_Z_0><DIAGC>
~t "T_@"
<TRANSP> 5
 0.000000e+00 1.000000e+00 0.000000e+00 0.000000e+00 0.000000e+00
 0.000000e+00 4.127766e-01 5.872234e-01 0.000000e+00 0.000000e+00
 0.000000e+00 0.000000e+00 6.023427e-01 3.976573e-01 0.000000e+00
 0.000000e+00 0.000000e+00 0.000000e+00 7.224884e-01 2.775116e-01
 0.000000e+00 0.000000e+00 0.000000e+00 0.000000e+00 0.000000e+00
~t "T_a"
<TRANSP> 5
 0.000000e+00 1.000000e+00 0.000000e+00 0.000000e+00 0.000000e+00
 0.000000e+00 6.450145e-01 3.549855e-01 0.000000e+00 0.000000e+00
 0.000000e+00 0.000000e+00 4.915662e-01 5.084338e-01 0.000000e+00
 0.000000e+00 0.000000e+00 0.000000e+00 6.369888e-01 3.630112e-01
 0.000000e+00 0.000000e+00 0.000000e+00 0.000000e+00 0.000000e+00
~t "T_b"
<TRANSP> 5
 0.000000e+00 1.000000e+00 0.000000e+00 0.000000e+00 0.000000e+00
 0.000000e+00 5.689905e-01 4.310095e-01 0.000000e+00 0.000000e+00
 0.000000e+00 0.000000e+00 5.784324e-01 4.215676e-01 0.000000e+00
 0.000000e+00 0.000000e+00 0.000000e+00 4.793454e-01 5.206547e-01
 0.000000e+00 0.000000e+00 0.000000e+00 0.000000e+00 0.000000e+00
~t "T_c"
<TRANSP> 5
 0.000000e+00 1.000000e+00 0.000000e+00 0.000000e+00 0.000000e+00
 0.000000e+00 7.238880e-01 2.761120e-01 0.000000e+00 0.000000e+00
 0.000000e+00 0.000000e+00 7.733069e-01 2.266930e-01 0.000000e+00
 0.000000e+00 0.000000e+00 0.000000e+00 7.977480e-01 2.022519e-01
 0.000000e+00 0.000000e+00 0.000000e+00 0.000000e+00 0.000000e+00
~t "T_d"
<TRANSP> 5
 0.000000e+00 1.000000e+00 0.000000e+00 0.000000e+00 0.000000e+00
 0.000000e+00 6.118425e-01 3.881575e-01 0.000000e+00 0.000000e+00
 0.000000e+00 0.000000e+00 5.291343e-01 4.708657e-01 0.000000e+00
 0.000000e+00 0.000000e+00 0.000000e+00 5.509124e-01 4.490875e-01
 0.000000e+00 0.000000e+00 0.000000e+00 0.000000e+00 0.000000e+00
~t "T_e"
<TRANSP> 5
 0.000000e+00 1.000000e+00 0.000000e+00 0.000000e+00 0.000000e+00
 0.000000e+00 8.094450e-01 1.905550e-01 0.000000e+00 0.000000e+00
 0.000000e+00 0.000000e+00 7.756636e-01 2.243364e-01 0.000000e+00
 0.000000e+00 0.000000e+00 0.000000e+00 7.801499e-01 2.198501e-01
 0.000000e+00 0.000000e+00 0.000000e+00 0.000000e+00 0.000000e+00
~t "T_g"
<TRANSP> 5
 0.000000e+00 1.000000e+00 0.000000e+00 0.000000e+00 0.000000e+00
 0.000000e+00 7.185310e-01 2.814690e-01 0.000000e+00 0.000000e+00
 0.000000e+00 0.000000e+00 6.054330e-01 3.945670e-01 0.000000e+00
 0.000000e+00 0.000000e+00 0.000000e+00 7.022254e-01 2.977747e-01
 0.000000e+00 0.000000e+00 0.000000e+00 0.000000e+00 0.000000e+00
~t "T_h"
<TRANSP> 5
 0.000000e+00 1.000000e+00 0.000000e+00 0.000000e+00 0.000000e+00
 0.000000e+00 8.797728e-01 1.202272e-01 0.000000e+00 0.000000e+00
 0.000000e+00 0.000000e+00 8.133847e-01 1.866153e-01 0.000000e+00
 0.000000e+00 0.000000e+00 0.000000e+00 7.119325e-01 2.880675e-01
 0.000000e+00 0.000000e+00 0.000000e+00 0.000000e+00 0.000000e+00
~t "T_i"
<TRANSP> 5
 0.000000e+00 1.000000e+00 0.000000e+00 0.000000e+00 0.000000e+00
 0.000000e+00 6.374118e-01 3.625883e-01 0.000000e+00 0.000000e+00
 0.000000e+00 0.000000e+00 7.847311e-01 2.152689e-01 0.000000e+00
 0.000000e+00 0.000000e+00 0.000000e+00 7.410460e-01 2.589540e-01
 0.000000e+00 0.000000e+00 0.000000e+00 0.000000e+00 0.000000e+00
~t "T_j"
<TRANSP> 5
 0.000000e+00 1.000000e+00 0.000000e+00 0.000000e+00 0.000000e+00
 0.000000e+00 7.065544e-01 2.934456e-01 0.000000e+00 0.000000e+00
 0.000000e+00 0.000000e+00 5.197092e-01 4.802908e-01 0.000000e+00
 0.000000e+00 0.000000e+00 0.000000e+00 3.507344e-01 6.492656e-01
 0.000000e+00 0.000000e+00 0.000000e+00 0.000000e+00 0.000000e+00
~t "T_k"
<TRANSP> 5
 0.000000e+00 1.000000e+00 0.000000e+00 0.000000e+00 0.000000e+00
 0.000000e+00 6.351339e-01 3.648662e-01 0.000000e+00 0.000000e+00
 0.000000e+00 0.000000e+00 6.575903e-01 3.424097e-01 0.000000e+00
 0.000000e+00 0.000000e+00 0.000000e+00 4.342382e-01 5.657617e-01
 0.000000e+00 0.000000e+00 0.000000e+00 0.000000e+00 0.000000e+00
~t "T_l"
<TRANSP> 5
 0.000000e+00 1.000000e+00 0.000000e+00 0.000000e+00 0.000000e+00
 0.000000e+00 7.223781e-01 2.776219e-01 0.000000e+00 0.000000e+00
 0.000000e+00 0.000000e+00 6.015086e-01 3.984915e-01 0.000000e+00
 0.000000e+00 0.000000e+00 0.000000e+00 5.031405e-01 4.968595e-01
 0.000000e+00 0.000000e+00 0.000000e+00 0.000000e+00 0.000000e+00
~t "T_m"
<TRANSP> 5
 0.000000e+00 1.000000e+00 0.000000e+00 0.000000e+00 0.000000e+00
 0.000000e+00 6.925820e-01 3.074179e-01 0.000000e+00 0.000000e+00
 0.000000e+00 0.000000e+00 5.175635e-01 4.824365e-01 0.000000e+00
 0.000000e+00 0.000000e+00 0.000000e+00 5.514920e-01 4.485081e-01
 0.000000e+00 0.000000e+00 0.000000e+00 0.000000e+00 0.000000e+00
~t "T_n"
<TRANSP> 5
 0.000000e+00 1.000000e+00 0.000000e+00 0.000000e+00 0.000000e+00
 0.000000e+00 5.829910e-01 4.170090e-01 0.000000e+00 0.000000e+00
 0.000000e+00 0.000000e+00 5.959690e-01 4.040310e-01 0.000000e+00
 0.000000e+00 0.000000e+00 0.000000e+00 5.191722e-01 4.808278e-01
 0.000000e+00 0.000000e+00 0.000000e+00 0.000000e+00 0.000000e+00
~t "T_p"
<TRANSP> 5
 0.000000e+00 1.000000e+00 0.000000e+00 0.000000e+00 0.000000e+00
 0.000000e+00 6.015857e-01 3.984143e-01 0.000000e+00 0.000000e+00
 0.000000e+00 0.000000e+00 6.637606e-01 3.362394e-01 0.000000e+00
 0.000000e+00 0.000000e+00 0.000000e+00 4.233508e-01 5.766492e-01
 0.000000e+00 0.000000e+00 0.000000e+00 0.000000e+00 0.000000e+00
~t "T_r"
<TRANSP> 5
 0.000000e+00 1.000000e+00 0.000000e+00 0.000000e+00 0.000000e+00
 0.000000e+00 5.157234e-01 4.842766e-01 0.000000e+00 0.000000e+00
 0.000000e+00 0.000000e+00 5.180674e-01 4.819325e-01 0.000000e+00
 0.000000e+00 0.000000e+00 0.000000e+00 7.295582e-01 2.704418e-01
 0.000000e+00 0.000000e+00 0.000000e+00 0.000000e+00 0.000000e+00
~t "T_s"
<TRANSP> 5
 0.000000e+00 1.000000e+00 0.000000e+00 0.000000e+00 0.000000e+00
 0.000000e+00 8.579459e-01 1.420541e-01 0.000000e+00 0.000000e+00
 0.000000e+00 0.000000e+00 7.243863e-01 2.756136e-01 0.000000e+00
 0.000000e+00 0.000000e+00 0.000000e+00 3.590326e-01 6.409674e-01
 0.000000e+00 0.000000e+00 0.000000e+00 0.000000e+00 0.000000e+00
~t "T_t"
<TRANSP> 5
 0.000000e+00 1.000000e+00 0.000000e+00 0.000000e+00 0.000000e+00
 0.000000e+00 3.652233e-01 6.347767e-01 0.000000e+00 0.000000e+00
 0.000000e+00 0.000000e+00 4.646920e-01 5.353081e-01 0.000000e+00
 0.000000e+00 0.000000e+00 0.000000e+00 3.518915e-01 6.481085e-01
 0.000000e+00 0.000000e+00 0.000000e+00 0.000000e+00 0.000000e+00
~t "T_u"
<TRANSP> 5
 0.000000e+00 1.000000e+00 0.000000e+00 0.000000e+00 0.000000e+00
 0.000000e+00 6.292019e-01 3.707981e-01 0.000000e+00 0.000000e+00
 0.000000e+00 0.000000e+00 6.011992e-01 3.988008e-01 0.000000e+00
 0.000000e+00 0.000000e+00 0.000000e+00 7.039712e-01 2.960288e-01
 0.000000e+00 0.000000e+00 0.000000e+00 0.000000e+00 0.000000e+00
~t "T_ng"
<TRANSP> 5
 0.000000e+00 1.000000e+00 0.000000e+00 0.000000e+00 0.000000e+00
 0.000000e+00 6.668316e-01 3.331684e-01 0.000000e+00 0.000000e+00
 0.000000e+00 0.000000e+00 6.969421e-01 3.030579e-01 0.000000e+00
 0.000000e+00 0.000000e+00 0.000000e+00 7.065005e-01 2.934995e-01
 0.000000e+00 0.000000e+00 0.000000e+00 0.000000e+00 0.000000e+00
~t "T_ny"
<TRANSP> 5
 0.000000e+00 1.000000e+00 0.000000e+00 0.000000e+00 0.000000e+00
 0.000000e+00 6.332649e-01 3.667352e-01 0.000000e+00 0.000000e+00
 0.000000e+00 0.000000e+00 6.648939e-01 3.351060e-01 0.000000e+00
 0.000000e+00 0.000000e+00 0.000000e+00 6.795811e-01 3.204189e-01
 0.000000e+00 0.000000e+00 0.000000e+00 0.000000e+00 0.000000e+00
~s "ST_s_2_1"
<MEAN> 25
 -1.160592e+01 -9.884127e+00 2.305247e+01 -4.417891e+00 -7.940939e+00 1.619626e+01 1.306066e+00 8.188186e-01 -8.698881e-01 -1.061857e+00 6.111181e+00 3.024853e-01 -1.413124e+00 -1.705477e+00 8.455904e-01 1.209683e-01 -4.251984e-01 4.008044e-01 4.330977e-01 4.281702e-01 -9.903040e-01 -2.403262e-01 1.277235e+00 3.670130e-01 -1.837339e-01
<VARIANCE> 25
 1.994327e+01 2.058158e+01 3.699357e+01 3.854095e+01 2.735991e+01 2.248349e+01 3.939297e+01 5.181762e+01 2.390833e+01 3.310831e+01 4.075781e+01 2.417075e+01 2.313767e+00 2.951762e+00 1.316110e+01 2.632013e+00 2.886244e+00 4.461924e+00 3.594687e+00 2.184276e+00 2.674085e+00 2.582048e+00 3.330946e+00 2.228020e+00 3.327951e-01
<GCONST> 9.975558e+01
~s "ST_s_2_2"
<MEAN> 25
 -1.000821e+01 -1.273610e+01 1.708503e+01 -1.230406e+01 -7.166642e+00 1.722762e+01 -4.420269e+00 4.140703e+00 6.122973e+00 -3.994605e-02 6.364325e+00 1.293562e+00 -1.566547e+00 -9.575504e-01 1.003377e+00 -3.446591e-01 3.695336e-02 6.743808e-01 -4.778611e-01 1.374331e-01 -4.017293e-03 -1.161370e-01 2.470373e-01 -2.311419e-01 -4.795163e-01
<VARIANCE> 25
 1.913098e+01 2.583121e+01 4.126744e+01 1.597015e+01 2.334189e+01 3.671849e+01 2.739890e+01 5.561259e+01 2.753703e+01 2.499205e+01 2.601645e+01 2.014246e+01 1.635952e+00 2.100633e+00 7.567330e+00 3.628633e+00 1.578926e+00 2.588173e+00 3.035588e+00 3.097440e+00 2.105913e+00 1.811157e+00 1.944133e+00 1.483733e+00 3.315684e-01
<GCONST> 9.500872e+01
~s "ST_s_3_1"
<MEAN> 25
 -6.144052e+00 -7.414929e+00 1.070029e+01 -2.334487e+00 -2.423040e+00 1.076921e+01 -4.389907e+00 -3.952223e+00 -4.861640e-01 -2.984303e+00 4.018269e+00 2.119616e+00 4.119471e+00 3.117611e+00 -2.381997e+00 2.971262e+00 1.913810e+00 -3.609632e+00 -1.840004e+00 -2.557127e+00 -1.981531e+00 -1.283165e+00 -1.390072e+00 -5.061359e-01 9.980266e-01
<VARIANCE> 25
 5.516057e+01 5.620584e+01 2.823204e+01 3.733377e+01 3.833305e+01 5.119312e+01 7.817859e+01 6.070765e+01 7.026339e+01 5.048181e+01 3.686491e+01 2.709324e+01 1.858623e+00 3.719238e+00 3.278866e+00 4.105349e+00 5.668412e+00 4.587420e+00 4.670200e+00 7.948656e+00 3.050295e+00 4.024694e+00 3.883719e+00 3.391956e+00 1.286706e+00
<GCONST> 1.088175e+02
~s "ST_s_4_1"
<MEAN> 25
 4.702655e+00 -2.819349e+00 4.610023e+00 5.360579e+00 2.565142e+00 4.757071e-01 -1.014040e+01 -8.524045e+00 -4.005864e+00 -3.912598e+00 9.808192e-01 -1.012404e+00 1.464559e+00 -9.300347e-02 -1.216817e+00 2.153142e+00 9.124464e-01 -2.605334e+00 -4.073661e-01 2.402073e-01 2.488815e-01 6.440332e-01 -9.354982e-01 -1.243785e+00 7.206214e-01
<VARIANCE> 25
 6.907001e+00 3.629803e+01 2.729147e+01 3.863233e+01 7.132986e+01 1.902740e+01 7.761480e+01 5.549614e+01 3.546105e+01 6.452827e+01 2.845143e+01 2.729981e+01 1.201545e+00 3.595040e+00 1.826519e+00 3.471721e+00 3.032674e+00 2.769726e+00 3.035028e+00 4.122763e+00 3.274129e+00 3.042787e+00 3.432979e+00 2.090363e+00 5.543077e-01
<GCONST> 1.000485e+02
~s "ST_i_2_1"
<MEAN> 25
 3.477496e+00 -5.194212e+00 6.635743e+00 1.568428e+01 5.225420e+00 -7.485074e+00 -1.121773e+01 -5.204806e+00 -1.254055e+00 -1.069194e+00 -7.279619e-01 -4.059484e+00 -4.267657e-01 6.306197e-01 6.940817e-01 1.169324e+00 2.614154e-01 -7.677283e-01 -3.678158e-02 1.709740e-01 -1.103908e-02 -5.987940e-02 -5.755661e-01 -2.963718e-01 -5.513520e-01
<VARIANCE> 25
 1.024654e+01 2.387905e+01 5.857537e+01 3.628381e+01 4.067302e+01 3.212370e+01 3.251415e+01 2.328298e+01 2.656562e+01 3.140586e+01 2.626874e+01 2.464565e+01 1.338787e-01 1.141764e+00 1.248044e+00 1.664490e+00 1.199037e+00 1.878795e+00 1.522149e+00 1.500151e+00 1.273441e+00 1.633176e+00 1.331507e+00 1.020154e+00 3.047751e-01
<GCONST> 8.645371e+01
~s "ST_i_2_2"
<MEAN> 25
 3.529746e+00 -8.612661e+00 5.418899e+00 1.627028e+01 6.229414e+00 -6.033229e+00 -1.490460e+01 -1.179291e+01 -3.172635e+00 -1.294729e+00 -2.205466e+00 -3.524957e+00 5.938547e-01 -9.983454e-01 1.388331e+00 3.590920e+00 8.781098e-01 -2.689201e+00 -1.575352e+00 -5.917330e-02 -1.858238e-01 3.586859e-01 -1.528990e-01 -1.472198e+00 9.148335e-01
<VARIANCE> 25
 7.986941e+00 2.472118e+01 3.706394e+01 3.370945e+01 3.957808e+01 4.319651e+01 3.291510e+01 2.281924e+01 2.704140e+01 3.377966e+01 4.003001e+01 3.511457e+01 1.321207e+00 3.021416e+00 2.512054e+00 5.213140e+00 2.883850e+00 4.917208e+00 4.139518e+00 4.184264e+00 2.992270e+00 3.043841e+00 2.622370e+00 2.991257e+00 1.462989e+00
<GCONST> 1.006036e+02
~s "ST_i_3_1"
<MEAN> 25
 1.492981e+00 -7.796978e-01 1.612056e+00 1.075119e+01 4.224093e+00 -5.695850e+00 -5.575101e+00 -4.456214e+00 2.618133e-01 3.323055e+00 -1.397634e+00 -2.345366e+00 -1.376740e+00 1.844377e+00 1.712577e-01 -5.983148e-01 6.542934e-01 4.307325e-01 2.174395e-01 5.983001e-01 8.122260e-01 6.767765e-01 1.428114e-01 3.116113e-01 -1.700747e+00
<VARIANCE> 25
 1.036050e+01 1.842754e+01 2.730013e+01 2.403067e+01 2.022029e+01 3.645180e+01 3.054333e+01 2.905784e+01 3.445670e+01 1.813770e+01 1.750013e+01 1.540293e+01 2.657869e-01 8.198932e-01 1.963301e+00 1.636936e+00 9.746850e-01 2.553137e+00 2.114882e+00 1.333577e+00 1.855370e+00 1.890383e+00 1.679937e+00 1.586528e+00 3.547080e-01
<GCONST> 8.590164e+01
~s "ST_i_3_2"
<MEAN> 25
 -1.119023e+00 -2.396780e+00 9.199181e+00 1.832058e+01 8.535146e+00 -5.779416e+00 -1.318143e+01 -9.426002e+00 -3.619701e-01 9.668005e-01 -2.378429e+00 -2.520570e+00 -1.361802e+00 2.357324e+00 -2.456186e-01 -7.779788e-01 8.678805e-01 5.616623e-01 9.482177e-01 6.305048e-01 5.319263e-01 1.374663e+00 4.961729e-01 2.240750e-01 -1.952932e+00
<VARIANCE> 25
 8.919046e+00 3.999168e+01 1.572898e+01 2.145307e+01 3.682335e+01 4.253979e+01 3.286985e+01 2.360781e+01 2.228333e+01 2.633156e+01 2.966080e+01 2.464671e+01 4.757477e-01 1.128915e+00 1.469218e+00 1.718350e+00 1.565589e+00 2.637025e+00 2.322810e+00 1.764431e+00 2.120500e+00 2.529842e+00 2.153016e+00 2.514590e+00 5.269458e-01
<GCONST> 9.048607e+01
~s "ST_i_3_3"
<MEAN> 25
 4.813958e+00 -1.002816e+01 5.095488e+00 1.477195e+01 6.289268e+00 -5.945537e+00 -1.379154e+01 -9.909454e+00 -2.470595e+00 1.542707e+00 1.121145e-02 -5.825287e+00 1.809252e-01 7.892600e-01 -3.601319e-01 -1.267387e+00 -8.261960e-02 7.405767e-01 5.071110e-01 1.403037e-01 2.279614e-02 2.123847e-01 6.122982e-01 5.349743e-01 -1.385995e-01
<VARIANCE> 25
 5.893092e+00 2.694737e+01 2.262070e+01 2.186442e+01 3.311634e+01 5.018518e+01 2.455318e+01 3.302967e+01 2.490362e+01 3.691854e+01 3.068950e+01 2.583373e+01 1.939003e-01 1.678108e+00 1.271847e+00 1.492994e+00 1.424094e+00 2.227050e+00 1.910973e+00 2.938837e+00 2.135521e+00 2.065753e+00 1.354779e+00 1.170841e+00 3.421136e-01
<GCONST> 8.810294e+01
~s "ST_i_3_4"
<MEAN> 25
 -2.322931e+00 1.357366e-01 1.459565e+01 2.143864e+01 8.416685e+00 -7.182870e+00 -1.424442e+01 -6.602655e+00 2.419909e+00 5.046696e-01 -4.678620e+00 -6.417029e+00 -4.657994e-01 9.485906e-01 -4.075081e-01 -5.465934e-01 -1.829131e-01 -8.431925e-02 8.601092e-01 2.506388e-01 9.991628e-02 5.740489e-01 -1.796445e-01 9.448083e-03 -7.837371e-01
<VARIANCE> 25
 8.703086e+00 2.051379e+01 3.101491e+01 2.016382e+01 4.108922e+01 4.777995e+01 4.593665e+01 2.544395e+01 3.387666e+01 2.168304e+01 3.673969e+01 2.199546e+01 1.621336e-01 6.664232e-01 1.213576e+00 1.551751e+00 1.178042e+00 1.485516e+00 1.431484e+00 7.965657e-01 8.675408e-01 1.158551e+00 1.050035e+00 6.679474e-01 2.959392e-01
<GCONST> 8.304153e+01
~s "ST_i_4_1"
<MEAN> 25
 -6.728920e+00 6.637682e+00 4.668440e+00 7.773119e+00 6.259456e+00 -2.558688e+00 -2.991829e+00 -1.439659e+00 3.156940e+00 5.811655e+00 -6.656105e-01 -1.824836e+00 -9.739598e-01 1.007530e-01 -8.273772e-01 -1.637362e+00 -2.897139e-01 8.523031e-01 9.628850e-01 6.469597e-01 3.162963e-01 2.564824e-01 3.621037e-01 4.751370e-01 -7.881576e-01
<VARIANCE> 25
 1.345737e+01 1.039567e+01 2.682067e+01 3.691579e+01 1.704848e+01 4.547841e+01 4.726906e+01 2.626087e+01 2.529657e+01 2.185616e+01 2.343910e+01 2.312668e+01 1.900527e-01 1.349711e+00 1.084335e+00 1.360111e+00 1.631642e+00 2.492501e+00 2.722622e+00 2.287534e+00 1.971341e+00 1.808904e+00 1.841028e+00 1.067022e+00 1.912549e-01
<GCONST> 8.672581e+01
~s "ST_i_4_2"
<MEAN> 25
 -6.365804e+00 2.125702e+00 6.215986e+00 1.104091e+01 8.278440e+00 -3.437262e+00 -1.146233e+01 -8.283271e+00 1.006834e+00 3.664040e+00 -4.483382e-01 -5.775992e-01 -7.346995e-01 -1.340341e+00 -9.021636e-01 -2.790069e+00 -9.674240e-01 2.125569e+00 2.470771e-01 -4.445586e-01 1.843952e-01 3.866969e-01 9.553536e-01 4.627044e-01 2.225247e-02
<VARIANCE> 25
 9.780662e+00 3.516128e+01 1.240142e+01 3.054792e+01 2.053501e+01 4.766622e+01 3.279673e+01 1.863435e+01 2.317788e+01 2.688674e+01 1.405591e+01 2.508667e+01 4.798992e-01 5.035455e+00 2.304532e+00 2.481488e+00 2.674933e+00 3.671175e+00 3.136441e+00 2.093090e+00 2.434781e+00 1.960674e+00 2.578351e+00 1.419165e+00 1.326545e+00
<GCONST> 9.326144e+01
~s "ST_i_4_3"
<MEAN> 25
 3.171885e+00 -3.534427e+00 3.350834e+00 9.475237e+00 6.351649e+00 -8.362501e-01 -8.919942e+00 -8.710859e+00 -1.359536e+00 3.848425e+00 1.993544e+00 -2.252758e+00 1.733830e-02 1.017299e+00 -1.136648e+00 -1.988775e+00 -3.929363e-01 1.726374e+00 2.248968e+00 1.090389e+00 -6.178951e-02 -6.502869e-01 -2.732599e-02 1.370094e+00 -5.158740e-01
<VARIANCE> 25
 2.902784e+01 6.886169e+01 2.946601e+01 2.881940e+01 4.651965e+01 4.299597e+01 3.213195e+01 2.882903e+01 3.061595e+01 4.040335e+01 1.905790e+01 3.056330e+01 4.862548e-01 2.289080e+00 2.532674e+00 1.814034e+00 2.615902e+00 2.105974e+00 2.652092e+00 2.615990e+00 2.271494e+00 3.116562e+00 2.630044e+00 2.768596e+00 6.160458e-01
<GCONST> 9.694491e+01
~s "ST_l_2_1"
<MEAN> 25
 5.727361e+00 -2.367142e+00 -4.548384e+00 -4.466282e+00 -5.743487e+00 -2.414333e+00 5.049077e+00 3.398318e+00 -4.416918e+00 -3.604224e+00 4.703348e-01 -9.129725e-01 5.094189e-01 -1.508122e+00 -1.050608e+00 -7.942827e-01 -1.635009e+00 -3.550198e-01 1.959050e+00 9.764950e-01 -2.037202e-01 4.106537e-01 1.190036e+00 4.176661e-01 8.417760e-01
<VARIANCE> 25
 4.510612e+00 1.386656e+01 1.691022e+01 2.421124e+01 2.378185e+01 3.753429e+01 2.816869e+01 4.334347e+01 4.037594e+01 2.861721e+01 3.683170e+01 3.125867e+01 8.308771e-02 1.661063e+00 8.093047e-01 1.190726e+00 2.336239e+00 1.736917e+00 2.023743e+00 2.681815e+00 2.292486e+00 2.557695e+00 2.590017e+00 2.226012e+00 2.941780e-01
<GCONST> 8.747175e+01
~s "ST_l_2_2"
<MEAN> 25
 7.648062e+00 -4.770787e+00 -5.624721e+00 -2.973004e-01 -3.623090e+00 -4.353890e+00 2.928714e+00 8.060749e-01 -3.622067e+00 -2.344384e+00 1.796654e-01 2.356138e+00 1.423140e-01 4.873063e-02 -2.862247e-01 -5.094549e-01 -6.626093e-01 -1.066325e-01 1.016467e+00 5.710812e-01 8.686022e-02 -1.065845e-01 -3.394281e-01 2.815689e-02 7.888326e-02
<VARIANCE> 25
 5.490908e+00 1.258216e+01 1.129621e+01 1.437597e+01 1.842275e+01 3.505351e+01 3.396492e+01 4.429961e+01 2.963614e+01 4.412169e+01 4.491915e+01 2.631157e+01 1.040538e-01 8.961552e-01 6.028790e-01 1.187713e+00 1.141130e+00 1.548226e+00 1.444724e+00 1.453907e+00 1.276500e+00 2.219233e+00 2.694502e+00 1.127814e+00 1.839283e-01
<GCONST> 8.237428e+01
~s "ST_l_3_1"
<MEAN> 25
 6.853733e+00 -8.258101e+00 -6.089010e+00 -6.061367e+00 -8.539495e+00 5.587159e-01 8.669319e+00 3.009174e+00 -5.447269e-01 -1.229689e+00 3.780750e-01 2.643887e+00 -8.877751e-02 -1.735309e+00 1.060645e-01 -4.333862e-01 -4.798591e-01 1.144498e+00 6.246640e-01 -5.559451e-02 5.827773e-01 1.177465e-01 1.179949e-01 2.008840e-01 7.556190e-01
<VARIANCE> 25
 5.654528e+00 2.802080e+01 1.470159e+01 2.743332e+01 3.714771e+01 5.224951e+01 2.705356e+01 4.242776e+01 4.121338e+01 4.223771e+01 3.273271e+01 3.681337e+01 1.589185e-01 1.514759e+00 1.029846e+00 1.827324e+00 2.457408e+00 2.102489e+00 2.457654e+00 2.352890e+00 2.632977e+00 2.904231e+00 2.233735e+00 1.610755e+00 3.088063e-01
<GCONST> 9.092977e+01
~s "ST_l_4_1"
<MEAN> 25
 6.660402e+00 -1.060976e+01 -5.729952e+00 -5.226118e+00 -8.324724e+00 3.071482e-01 8.623689e+00 3.847552e+00 -2.589921e-01 -1.577196e+00 6.860586e-01 2.113848e+00 -9.603905e-02 2.365772e-01 6.229073e-02 1.002676e-01 5.928370e-02 -1.632285e-01 -3.691552e-01 2.247605e-01 2.308803e-01 -8.949365e-02 -1.370831e-01 -7.385350e-02 -2.174686e-01
<VARIANCE> 25
 4.357624e+00 2.056211e+01 1.322470e+01 1.452342e+01 4.131211e+01 3.336972e+01 2.458621e+01 5.072575e+01 3.619209e+01 4.375040e+01 3.015833e+01 2.629668e+01 1.057835e-01 5.993199e-01 6.000386e-01 8.663977e-01 1.088615e+00 1.506943e+00 1.187274e+00 1.450591e+00 1.228989e+00 1.234337e+00 1.266272e+00 1.174946e+00 1.102813e-01
<GCONST> 8.033627e+01
~s "ST_b_2_1"
<MEAN> 25
 -9.754113e+00 2.280884e+00 -1.370980e+00 -1.845870e+00 3.189628e+00 5.250951e+00 7.322575e+00 6.840006e+00 3.492249e+00 -1.416205e-01 -2.538887e+00 -6.591378e-01 3.121723e+00 2.054839e+00 1.817639e+00 7.705219e-01 -1.186340e-01 5.590544e-02 -5.579425e-01 -5.540765e-01 -1.093733e+00 -1.733436e+00 -7.490986e-01 -2.346253e-01 1.856439e+00
<VARIANCE> 25
 2.093247e+01 1.122230e+02 2.291961e+01 2.530619e+01 6.158231e+01 2.539820e+01 3.537864e+01 3.849753e+01 2.251513e+01 5.216592e+01 2.983242e+01 2.184376e+01 1.995685e+00 9.368002e+00 2.361636e+00 1.870573e+00 3.173104e+00 4.161364e+00 2.442281e+00 1.499215e+00 1.073806e+00 2.821652e+00 1.294551e+00 2.006436e+00 8.990514e-01
<GCONST> 9.844059e+01
~s "ST_b_3_1"
<MEAN> 25
 -1.537723e-01 1.493542e+01 7.099912e+00 3.221636e+00 5.821599e+00 3.047288e+00 2.264563e+00 3.360392e+00 8.673410e-01 -1.853078e+00 -2.473667e+00 -1.313327e+00 2.414205e+00 9.014428e-01 1.219062e+00 -3.335967e-02 -1.339140e+00 -7.927060e-01 -1.618748e+00 -1.372195e+00 -6.025834e-01 -1.055371e+00 -6.456583e-01 -7.371677e-01 1.672021e+00
<VARIANCE> 25
 7.993011e+00 4.149966e+01 1.735502e+01 2.566631e+01 3.585015e+01 2.713697e+01 1.929577e+01 3.210480e+01 1.434012e+01 2.559289e+01 2.389311e+01 1.186234e+01 2.160394e+00 1.089601e+01 2.826315e+00 2.624719e+00 2.635902e+00 4.844293e+00 2.283655e+00 1.724640e+00 2.273469e+00 3.184117e+00 1.838413e+00 1.724575e+00 1.040326e+00
<GCONST> 9.496507e+01
~s "ST_b_4_1"
<MEAN> 25
 4.310668e+00 1.324769e+01 6.459546e+00 -2.102804e+00 -2.556819e+00 -1.756443e+00 -2.010888e+00 1.566011e+00 4.549690e-01 -5.635026e+00 -5.247899e+00 -4.906163e+00 1.174547e+00 7.689576e-01 2.911453e-01 -1.139587e+00 -2.602500e+00 -3.018081e+00 -9.023967e-01 1.111252e+00 3.815110e-01 -3.151816e-01 -3.156149e-01 -1.680726e+00 7.387484e-01
<VARIANCE> 25
 7.797367e+00 2.702958e+01 1.533104e+01 1.742427e+01 2.664532e+01 3.378917e+01 3.188523e+01 2.942585e+01 2.608425e+01 3.391882e+01 2.196930e+01 1.827781e+01 1.495055e+00 3.593570e+00 1.433943e+00 4.413624e+00 3.626051e+00 3.074294e+00 6.562387e+00 3.159467e+00 3.436148e+00 2.957609e+00 1.747221e+00 1.823544e+00 6.776672e-01
<GCONST> 9.537066e+01
~s "ST_e_2_1"
<MEAN> 25
 5.999764e+00 -6.595291e+00 1.529686e+00 9.106120e+00 2.537148e+00 -4.589706e+00 -9.860361e+00 -1.122943e+01 -4.841367e+00 -5.894294e-01 2.026055e+00 2.074371e+00 -6.474321e-02 1.635479e-01 -2.341198e-01 4.303918e-01 1.644331e-01 -4.264913e-01 8.870565e-02 1.280193e-01 8.235845e-02 3.264118e-01 -1.591297e-01 -1.939919e-01 -2.184230e-01
<VARIANCE> 25
 3.545409e+00 1.426282e+01 1.425999e+01 1.333315e+01 2.964900e+01 1.668797e+01 2.939935e+01 2.868373e+01 2.211329e+01 3.867759e+01 1.850120e+01 2.504869e+01 8.599252e-02 3.722056e-01 5.658002e-01 1.090006e+00 8.082109e-01 1.253170e+00 8.823429e-01 8.892340e-01 7.430567e-01 1.011443e+00 8.225185e-01 7.839414e-01 9.003089e-02
<GCONST> 7.366250e+01
~s "ST_e_3_1"
<MEAN> 25
 2.857340e+00 -8.314862e-01 3.381853e-01 1.169186e+01 7.587124e+00 -6.120649e+00 -1.233872e+01 -1.143762e+01 -2.787543e+00 5.058334e+00 2.312393e+00 -1.559904e+00 -8.895443e-01 1.464051e+00 1.311388e-01 9.419642e-02 4.594863e-01 -2.876871e-01 2.308557e-01 1.335529e-01 5.078304e-01 1.136852e+00 1.190170e-01 -5.063929e-02 -1.231818e+00
<VARIANCE> 25
 9.900878e+00 2.999512e+01 1.859339e+01 2.043179e+01 4.045132e+01 2.240130e+01 2.922586e+01 3.879046e+01 3.020364e+01 5.098185e+01 1.762209e+01 2.062091e+01 3.871247e-01 8.207530e-01 8.807646e-01 1.220566e+00 1.100222e+00 1.254707e+00 2.068369e+00 1.827601e+00 1.556565e+00 2.145427e+00 1.170138e+00 1.106441e+00 4.105138e-01
<GCONST> 8.580956e+01
~s "ST_e_4_1"
<MEAN> 25
 -4.856320e+00 6.010520e+00 5.071268e-01 7.098480e+00 7.949367e+00 -4.795439e+00 -7.596690e+00 -5.325758e+00 2.769719e+00 8.952143e+00 2.746550e+00 -3.169016e-01 -9.977891e-01 2.941206e-01 -2.844248e-01 -1.217864e+00 -3.912223e-01 5.668107e-01 1.299485e+00 1.425136e+00 5.579568e-01 -4.378459e-01 -3.743193e-01 1.952529e-01 -8.314282e-01
<VARIANCE> 25
 2.329887e+01 3.056252e+01 2.383239e+01 3.125489e+01 3.001418e+01 3.145286e+01 4.221672e+01 4.991985e+01 3.814936e+01 4.920336e+01 2.916538e+01 1.765800e+01 2.731245e-01 1.115329e+00 7.833381e-01 1.550639e+00 2.099380e+00 1.796417e+00 2.222310e+00 1.753345e+00 1.963366e+00 2.568192e+00 2.074697e+00 1.175469e+00 2.274540e-01
<GCONST> 9.013519e+01
~s "ST_r_2_1"
<MEAN> 25
 5.556423e+00 1.725609e-01 -5.497733e+00 -3.339009e+00 1.965754e+00 2.350432e+00 -2.201210e+00 -2.989839e+00 -2.104995e+00 -5.670020e+00 -2.205731e+00 4.898438e+00 5.842869e-01 2.560655e-01 -9.820443e-01 -7.101934e-01 3.524882e-01 -2.209093e-01 -5.470911e-01 3.513517e-01 2.725688e-01 -7.360544e-01 -5.648304e-02 5.865079e-01 2.378828e-01
<VARIANCE> 25
 1.509642e+01 3.856122e+01 2.352980e+01 3.407471e+01 2.915274e+01 4.238022e+01 3.414150e+01 2.879865e+01 3.340815e+01 2.895999e+01 3.491755e+01 3.103183e+01 8.192138e-01 2.006950e+00 1.784525e+00 1.627348e+00 1.587103e+00 3.696936e+00 3.086663e+00 3.802130e+00 3.523401e+00 2.916299e+00 3.452587e+00 2.229685e+00 8.181465e-01
<GCONST> 9.683864e+01
~s "ST_r_3_1"
<MEAN> 25
 3.133752e+00 3.309488e+00 -4.128521e+00 -4.944145e+00 2.159212e+00 4.714799e+00 -1.299411e+00 -2.587799e+00 -1.375795e+00 -5.333169e+00 -2.995874e+00 4.043468e+00 -6.738864e-01 1.197989e+00 6.875821e-01 3.129925e-01 5.723100e-01 3.502078e-02 2.702803e-01 1.406971e-01 -2.643909e-01 3.866625e-01 -2.297521e-01 -8.649424e-01 -8.585541e-01
<VARIANCE> 25
 1.116061e+01 2.126305e+01 1.836926e+01 2.165804e+01 1.867532e+01 3.155137e+01 2.871766e+01 3.572321e+01 3.120477e+01 2.286776e+01 2.126542e+01 2.586934e+01 4.530898e-01 1.689649e+00 1.657475e+00 1.157682e+00 1.168180e+00 1.860015e+00 1.923230e+00 1.443655e+00 1.379972e+00 1.827313e+00 2.666992e+00 2.467145e+00 3.492998e-01
<GCONST> 8.753381e+01
~s "ST_r_3_2"
<MEAN> 25
 9.981754e+00 3.715453e-01 -1.067590e+01 -5.913423e+00 3.167118e+00 -7.186059e-01 -4.444719e+00 -1.569525e+00 1.539608e+00 -4.848685e+00 -3.390054e+00 5.238799e+00 1.831503e-01 -7.148615e-01 -3.290827e-01 8.460958e-02 -3.189670e-01 -7.019168e-01 3.274087e-01 6.595685e-01 3.094453e-01 6.597058e-01 6.692986e-01 -1.687534e-01 4.023723e-01
<VARIANCE> 25
 7.262916e+00 4.378483e+01 2.321556e+01 1.721743e+01 2.507459e+01 3.827149e+01 3.593180e+01 4.738542e+01 5.847121e+01 3.372274e+01 7.488433e+01 5.443268e+01 2.980860e-01 1.299085e+00 1.453514e+00 1.834610e+00 1.954148e+00 3.638301e+00 3.474006e+00 2.229676e+00 2.917961e+00 2.269705e+00 1.967580e+00 2.526110e+00 2.743668e-01
<GCONST> 9.414731e+01
~s "ST_r_4_1"
<MEAN> 25
 -5.119403e+00 5.373967e+00 -9.979298e-01 -1.748940e+00 4.855030e+00 3.902076e+00 1.562443e-01 -2.506017e+00 -2.310081e+00 4.921220e-02 4.671914e-01 3.221798e+00 -1.385190e+00 1.592140e-01 4.405645e-01 1.899696e-01 1.190374e-02 -3.082250e-01 1.973265e-01 4.578400e-01 6.326262e-01 1.076805e+00 4.763445e-01 -1.597645e-01 -1.015358e+00
<VARIANCE> 25
 2.217647e+01 2.125245e+01 1.293746e+01 1.899953e+01 2.326153e+01 3.612320e+01 2.703973e+01 2.224912e+01 4.540759e+01 3.327137e+01 3.036151e+01 2.029218e+01 3.356535e-01 1.241504e+00 1.450528e+00 1.447443e+00 1.762949e+00 2.160261e+00 2.388535e+00 2.084352e+00 2.118806e+00 2.234373e+00 1.647345e+00 1.689540e+00 2.469867e-01
<GCONST> 8.847286e+01
~s "ST_r_4_2"
<MEAN> 25
 9.021130e+00 -3.064676e+00 -9.340819e+00 -3.754935e+00 9.201090e-01 -4.299564e+00 -1.201022e+00 2.546551e+00 -1.110439e+00 -4.144460e+00 1.891846e+00 4.077698e+00 -3.265210e-01 -8.893881e-01 7.194262e-01 5.334722e-01 -7.914372e-01 -3.357366e-02 1.275817e+00 4.557011e-01 -1.802273e-01 9.395011e-01 1.515402e-01 -1.129172e+00 2.068241e-01
<VARIANCE> 25
 7.584336e+00 5.902680e+01 3.117315e+01 2.259002e+01 3.723129e+01 4.036752e+01 4.751382e+01 4.140449e+01 3.076095e+01 4.616728e+01 7.354099e+01 3.635713e+01 2.622074e-01 1.085228e+00 1.327688e+00 1.654145e+00 1.182365e+00 3.936569e+00 2.208185e+00 3.264058e+00 1.752348e+00 2.875749e+00 1.475698e+00 2.047922e+00 3.479779e-01
<GCONST> 9.336786e+01
~s "ST_ny_2_1"
<MEAN> 25
 -1.009739e+01 6.319646e+00 6.980980e+00 4.440395e+00 6.227448e+00 4.159632e+00 -3.902731e-02 -2.293825e-01 2.793409e+00 3.484614e+00 -6.323690e-01 -1.778917e+00 3.383361e+00 1.031271e+00 2.707837e+00 1.838448e+00 -8.178639e-01 -2.630256e-01 -1.154510e+00 -2.054048e+00 -1.214104e+00 -1.178897e+00 -6.332388e-01 -2.360113e-02 2.502858e+00
<VARIANCE> 25
 3.915900e+01 5.131585e+01 2.491781e+01 1.831424e+01 2.526266e+01 3.233038e+01 2.061460e+01 3.391767e+01 1.937480e+01 2.717047e+01 2.463395e+01 1.730287e+01 2.412999e+00 4.147862e+00 2.766635e+00 1.998541e+00 2.536535e+00 4.726563e+00 2.728959e+00 3.714959e+00 2.238091e+00 2.619344e+00 3.925297e+00 2.665070e+00 1.257451e+00
<GCONST> 9.841131e+01
~s "ST_ny_3_1"
<MEAN> 25
 2.163568e-01 1.158731e+00 1.090397e+01 1.155404e+01 2.202821e+00 -8.612069e-01 -6.901258e+00 -8.559964e+00 -2.291391e-01 3.156654e+00 1.773624e-01 -1.302795e+00 2.470177e+00 -4.253133e+00 -1.985302e+00 7.842431e-01 -9.409427e-01 -9.629385e-01 -4.224870e-01 -8.395441e-01 -5.926755e-01 8.956451e-01 1.756653e+00 4.090733e-01 3.036520e+00
<VARIANCE> 25
 9.941475e+00 7.071744e+01 3.619009e+01 4.202393e+01 2.014900e+01 5.304498e+01 3.604091e+01 2.955773e+01 2.966732e+01 3.573530e+01 4.342639e+01 3.110498e+01 2.970504e+00 3.605784e+00 7.142475e+00 4.815547e+00 2.434920e+00 6.175092e+00 5.597421e+00 6.484560e+00 4.330071e+00 4.838300e+00 3.683141e+00 3.282367e+00 1.356439e+00
<GCONST> 1.060000e+02
~s "ST_ny_4_1"
<MEAN> 25
 5.316537e+00 -1.146578e+01 -1.434422e+00 7.305168e+00 -1.046757e-01 -1.650160e-02 -2.275080e-02 -4.820179e+00 -1.735291e+00 5.439667e+00 5.027492e+00 -1.617882e-01 9.537377e-01 -1.578015e+00 -2.596599e+00 -2.465766e+00 -7.588818e-01 1.243470e+00 2.563173e+00 1.256476e+00 -5.437472e-01 -4.575957e-01 3.769118e-01 5.762178e-01 1.090365e+00
<VARIANCE> 25
 6.040785e+00 2.040073e+01 1.537501e+01 2.573529e+01 1.233778e+01 2.713425e+01 3.737778e+01 2.040351e+01 4.109434e+01 3.826256e+01 4.679836e+01 3.900470e+01 3.980656e-01 2.210101e+00 2.158639e+00 2.156112e+00 1.494207e+00 2.503386e+00 2.805916e+00 1.956275e+00 3.297419e+00 1.486426e+00 2.427562e+00 1.436094e+00 4.994481e-01
<GCONST> 9.063753e+01
~s "ST_h_2_1"
<MEAN> 25
 4.808590e+00 1.402575e+01 4.001041e+00 -2.672272e+00 -7.506352e+00 -9.665587e+00 1.335864e+00 5.327100e+00 1.091412e+00 -2.088810e+00 -5.244575e+00 -6.876684e+00 5.099652e-01 -2.527058e-02 -4.055290e-01 -3.069369e-01 -6.331606e-01 -1.518464e+00 -7.891241e-01 4.289438e-01 4.454315e-01 -1.920747e-01 -3.456666e-01 -2.301950e-01 3.699308e-01
<VARIANCE> 25
 5.293121e+00 1.514176e+01 2.148928e+01 1.572589e+01 4.311762e+01 4.439065e+01 4.379224e+01 2.309636e+01 2.738025e+01 1.837618e+01 2.236371e+01 1.126549e+01 3.242730e-01 1.537398e+00 8.713742e-01 1.105487e+00 1.357573e+00 2.201635e+00 3.323181e+00 1.356533e+00 1.075762e+00 1.851168e+00 1.495508e+00 1.710165e+00 1.408582e-01
<GCONST> 8.391499e+01
~s "ST_h_3_1"
<MEAN> 25
 6.923605e+00 6.257174e+00 -3.610810e+00 -4.835213e+00 -1.149364e+01 -1.410214e+01 4.035637e+00 9.061115e+00 -1.029899e+00 -6.814344e+00 -6.526917e+00 -2.814302e+00 8.263171e-02 -2.289958e+00 -1.668413e+00 -4.304614e-01 -4.052776e-01 1.143886e+00 1.730059e+00 -3.752600e-01 -6.907005e-01 2.383672e-01 2.705674e-01 1.250493e+00 6.271890e-01
<VARIANCE> 25
 5.888746e+00 2.514983e+01 3.064970e+01 2.026498e+01 3.980392e+01 4.142909e+01 6.031238e+01 3.393214e+01 2.977510e+01 4.683270e+01 4.204578e+01 2.439470e+01 4.780942e-01 3.721080e+00 1.318070e+00 1.692535e+00 2.016518e+00 5.716118e+00 5.856080e+00 3.660896e+00 2.434212e+00 5.164889e+00 3.339300e+00 1.794650e+00 1.261439e+00
<GCONST> 9.802421e+01
~s "ST_h_4_1"
<MEAN> 25
 6.552691e+00 -6.930909e+00 -9.766593e+00 -6.298186e+00 -1.144919e+01 -1.676544e+00 1.158310e+01 3.783354e+00 1.678374e+00 -1.142357e+00 -5.687941e+00 1.287786e+00 2.387002e-02 -1.463222e+00 -4.913925e-01 3.385435e-01 1.121999e+00 1.875375e+00 -1.512768e-01 -1.174583e+00 9.255608e-01 8.633396e-01 2.093198e-01 2.536097e-01 5.020171e-01
<VARIANCE> 25
 4.418640e+00 2.131142e+01 1.824905e+01 1.962558e+01 2.298528e+01 3.111411e+01 2.493265e+01 2.638215e+01 2.853195e+01 2.928798e+01 1.983703e+01 1.156244e+01 3.434739e-01 2.007055e+00 1.881713e+00 8.981571e-01 2.972053e+00 1.625408e+00 1.526379e+00 1.475488e+00 1.148978e+00 1.055786e+00 1.809931e+00 1.524078e+00 4.686118e-01
<GCONST> 8.458739e+01
~s "ST_u_2_1"
<MEAN> 25
 4.569118e+00 6.150212e+00 4.571230e+00 -1.036334e+00 -6.487260e+00 -6.083263e+00 -7.062514e-01 2.480310e+00 -1.831785e+00 -6.552641e+00 -4.938149e+00 -3.602134e+00 -2.932400e-01 4.334899e-01 -4.441856e-01 -2.523756e-01 7.595361e-01 7.784618e-01 7.423027e-02 -2.714629e-01 4.863534e-01 7.614868e-01 1.626751e-02 4.926855e-02 -4.607440e-01
<VARIANCE> 25
 7.984962e+00 5.287992e+01 4.528088e+01 1.945854e+01 5.269827e+01 5.372891e+01 6.245764e+01 3.990894e+01 5.681120e+01 5.662912e+01 3.782878e+01 3.157901e+01 4.004355e-01 1.440008e+00 1.760042e+00 1.437922e+00 3.341153e+00 5.618746e+00 2.877915e+00 3.264192e+00 2.443471e+00 1.707728e+00 1.884103e+00 2.715771e+00 3.590180e-01
<GCONST> 9.729234e+01
~s "ST_u_2_2"
<MEAN> 25
 4.029181e+00 8.588776e+00 3.712814e+00 -4.792432e-01 -1.651221e+00 -8.133626e+00 -8.284715e+00 1.549772e-01 1.473326e+00 -2.651477e+00 -3.154710e+00 -8.111108e-01 -3.182471e-02 -3.191677e-01 7.623724e-02 1.358634e-01 -7.320336e-01 -6.605895e-01 3.836558e-01 1.953731e-01 -7.233464e-02 3.509893e-01 2.514983e-01 -1.432792e-02 8.178664e-02
<VARIANCE> 25
 4.490748e+00 2.173404e+01 1.770748e+01 1.696415e+01 3.836998e+01 3.737183e+01 5.861712e+01 2.833122e+01 4.484219e+01 3.273021e+01 5.062556e+01 2.509571e+01 2.480604e-01 2.274436e+00 8.619903e-01 8.944014e-01 2.017544e+00 2.564822e+00 4.185574e+00 1.818492e+00 1.493608e+00 1.249301e+00 1.186932e+00 1.368847e+00 4.724696e-01
<GCONST> 8.855497e+01
~s "ST_u_2_3"
<MEAN> 25
 7.319794e+00 1.810082e+00 1.901815e+00 -2.653309e+00 -8.330341e+00 -5.881119e+00 4.993156e-01 4.128400e+00 -4.041490e-01 -7.449327e+00 -6.158179e+00 -4.121013e+00 -1.860602e-01 1.099781e+00 9.411177e-02 -1.056279e-02 -1.813904e-01 -9.641979e-01 -3.236005e-01 4.836999e-01 1.022757e+00 1.303435e+00 -5.737638e-02 -9.517985e-01 -5.706371e-01
<VARIANCE> 25
 2.648527e+00 2.525023e+01 2.083502e+01 1.116170e+01 2.930550e+01 2.022712e+01 6.131351e+01 3.114679e+01 4.119867e+01 3.353958e+01 2.040419e+01 1.863368e+01 1.421613e-01 5.862801e-01 5.330644e-01 9.618492e-01 9.393294e-01 1.446793e+00 1.740054e+00 2.487270e+00 1.265605e+00 1.108293e+00 1.130164e+00 1.920063e+00 1.419772e-01
<GCONST> 8.049035e+01
~s "ST_u_2_4"
<MEAN> 25
 8.422957e+00 -2.095943e+00 9.307836e-01 -1.668756e+00 -1.024712e+01 -5.442518e+00 6.413082e+00 4.169229e+00 -6.364946e+00 -1.094406e+01 -5.574399e+00 -9.488420e-01 -1.164951e-02 9.268215e-01 -2.950502e-01 1.947301e-01 4.784320e-01 -8.620763e-01 9.579985e-02 1.285058e+00 7.677589e-01 3.160971e-01 -2.028080e-01 -6.141756e-01 -4.526270e-01
<VARIANCE> 25
 8.800139e+00 2.965431e+01 1.375745e+01 2.613599e+01 4.306371e+01 4.080622e+01 4.325684e+01 2.798345e+01 2.769171e+01 2.589668e+01 3.871436e+01 2.118101e+01 4.867450e-01 1.624476e+00 8.509008e-01 1.034290e+00 1.394074e+00 2.682954e+00 1.967521e+00 2.493959e+00 1.694239e+00 1.718525e+00 1.762754e+00 1.378037e+00 7.187267e-01
<GCONST> 8.942422e+01
~s "ST_u_3_1"
<MEAN> 25
 4.973375e+00 5.193850e+00 -2.831906e-01 -2.454743e+00 -5.929769e+00 -4.160985e+00 3.744123e+00 3.207426e+00 -1.405126e+00 -4.259898e+00 -5.510282e+00 -3.063327e+00 -8.015208e-01 7.854902e-01 -1.162450e-01 -2.279545e-01 1.132687e+00 8.547765e-01 -3.341849e-01 -4.005983e-01 7.757606e-01 1.394529e+00 6.594414e-01 3.491986e-01 -9.128131e-01
<VARIANCE> 25
 8.587300e+00 4.187836e+01 2.994156e+01 2.002232e+01 4.417019e+01 3.750163e+01 3.511441e+01 2.889102e+01 4.390130e+01 4.080247e+01 2.162899e+01 2.310491e+01 3.895347e-01 1.738035e+00 1.454615e+00 1.357598e+00 2.197119e+00 2.146496e+00 2.949476e+00 2.326338e+00 2.776694e+00 2.120296e+00 1.434946e+00 1.639029e+00 5.454349e-01
<GCONST> 9.205662e+01
~s "ST_u_3_2"
<MEAN> 25
 4.281800e+00 5.645042e+00 1.536801e+00 -1.299138e+00 -5.222656e+00 -3.129998e+00 5.870679e+00 4.779960e+00 -3.587578e+00 -7.254310e+00 -5.669646e+00 -1.414832e+00 -1.592509e+00 2.165692e+00 -1.551786e-02 -7.972039e-02 1.769799e+00 5.322847e-01 -6.605029e-01 -1.680932e-01 9.065738e-01 1.564221e+00 6.068143e-01 1.925430e-02 -2.069569e+00
<VARIANCE> 25
 1.401865e+01 2.328296e+01 1.355617e+01 1.739170e+01 4.019585e+01 4.982264e+01 2.999654e+01 2.574134e+01 3.247774e+01 2.568481e+01 2.869590e+01 1.989887e+01 2.962711e-01 9.493842e-01 1.296941e+00 1.529278e+00 1.830604e+00 2.430650e+00 2.843432e+00 2.640944e+00 2.106925e+00 3.033314e+00 2.196995e+00 1.764048e+00 4.537164e-01
<GCONST> 8.986781e+01
~s "ST_u_3_3"
<MEAN> 25
 1.530502e+00 1.242099e+01 5.483644e+00 -1.657611e+00 -3.295174e+00 -5.438726e+00 -3.306838e+00 9.839625e-01 1.808156e+00 1.940465e-01 -2.331289e+00 -3.569007e+00 -1.461439e+00 6.749964e-01 -3.107391e-01 -8.407871e-02 1.283258e+00 1.572299e+00 7.594070e-01 -4.330590e-01 3.499452e-01 1.553721e+00 5.516954e-01 4.668407e-01 -1.452996e+00
<VARIANCE> 25
 1.053974e+01 2.557523e+01 2.743919e+01 2.020797e+01 5.428932e+01 7.040976e+01 4.880921e+01 4.190723e+01 3.566517e+01 4.694372e+01 4.898288e+01 3.110088e+01 4.495778e-01 1.096973e+00 1.866910e+00 1.598916e+00 2.058161e+00 3.761252e+00 3.307235e+00 2.156754e+00 3.485692e+00 2.218243e+00 2.697909e+00 1.629999e+00 3.652277e-01
<GCONST> 9.540280e+01
~s "ST_u_4_1"
<MEAN> 25
 -1.964430e+00 7.896441e+00 1.360922e+00 -2.396754e+00 -1.624954e+00 -3.293507e+00 -7.280937e-01 1.091226e+00 3.454164e+00 4.751547e+00 8.428607e-01 -1.264614e-01 -9.581122e-01 -4.205323e-01 -1.884481e-01 1.858397e-01 8.853754e-01 6.565140e-01 -3.677503e-02 -1.292670e-01 6.099182e-02 3.816139e-01 8.184168e-01 8.613799e-01 -5.963493e-01
<VARIANCE> 25
 2.057630e+01 3.056547e+01 2.600552e+01 1.452542e+01 2.477813e+01 2.981827e+01 3.837206e+01 1.941539e+01 1.879132e+01 1.713160e+01 1.523320e+01 1.875127e+01 2.421247e-01 7.386339e-01 8.060182e-01 7.733831e-01 1.070820e+00 1.473340e+00 2.034173e+00 1.403355e+00 1.298570e+00 8.549712e-01 1.193124e+00 1.160057e+00 9.926627e-02
<GCONST> 8.040338e+01
~s "ST_u_4_2"
<MEAN> 25
 -5.143587e+00 1.095881e+01 5.914232e+00 2.325248e+00 3.312486e+00 -3.527454e+00 -5.701238e+00 -2.551043e+00 5.974614e-01 4.348761e+00 2.833238e+00 5.183324e-01 -9.877235e-01 -7.011357e-01 -3.723232e-01 6.772299e-02 7.122485e-01 8.919052e-01 4.047669e-01 2.529408e-02 4.032182e-02 2.226543e-01 2.879499e-01 3.462398e-01 -5.376839e-01
<VARIANCE> 25
 1.983373e+01 1.802073e+01 1.349982e+01 2.068380e+01 3.700001e+01 5.869062e+01 4.195579e+01 2.573725e+01 3.414919e+01 3.133634e+01 2.779053e+01 1.536530e+01 3.065938e-01 6.715392e-01 8.352132e-01 8.478251e-01 1.005560e+00 1.710698e+00 1.789596e+00 1.684000e+00 1.642755e+00 1.234485e+00 1.337955e+00 1.071999e+00 1.155868e-01
<GCONST> 8.378796e+01
~s "ST_u_4_3"
<MEAN> 25
 3.448196e+00 5.270969e+00 -1.377156e+00 -2.467304e+00 -1.426587e-01 9.423147e-01 3.220630e+00 2.244057e+00 -1.449093e+00 -4.499035e+00 -4.504954e+00 -1.072115e+00 -3.828753e-01 3.780928e-04 -4.067641e-01 -1.168572e-01 9.557326e-01 1.144263e+00 1.452212e-01 -5.318758e-01 -3.817349e-01 4.072821e-01 8.669440e-01 5.334238e-01 -3.671877e-01
<VARIANCE> 25
 1.149144e+01 4.357030e+01 2.738833e+01 2.202821e+01 3.997098e+01 3.633992e+01 3.849041e+01 4.151713e+01 3.967506e+01 3.250975e+01 1.952797e+01 1.470655e+01 5.689793e-01 2.087729e+00 1.473245e+00 1.734773e+00 1.864297e+00 2.793799e+00 3.245106e+00 2.433902e+00 3.210162e+00 2.090907e+00 1.935305e+00 1.983893e+00 3.532411e-01
<GCONST> 9.308141e+01
~s "ST_u_4_4"
<MEAN> 25
 -2.440439e+00 1.198450e+01 3.216827e+00 -1.365872e+00 -9.354045e-02 -2.168035e+00 1.283435e+00 2.977147e+00 7.007441e-01 -5.387496e-01 -2.507804e+00 -1.495918e+00 -1.348362e+00 -6.013739e-01 -2.651913e-01 -6.940038e-02 5.836993e-01 3.672010e-01 -6.109278e-01 -8.011550e-01 -5.841336e-02 7.439628e-01 1.137314e+00 1.034327e+00 -8.039039e-01
<VARIANCE> 25
 1.301751e+01 1.737827e+01 1.691435e+01 1.988488e+01 2.496721e+01 3.552106e+01 2.794929e+01 2.236566e+01 3.458712e+01 2.995286e+01 2.502693e+01 2.893371e+01 2.376909e-01 1.185215e+00 9.495906e-01 1.246989e+00 1.536597e+00 1.908384e+00 2.609282e+00 1.646219e+00 2.502535e+00 1.369547e+00 1.179752e+00 1.349525e+00 2.181063e-01
<GCONST> 8.554985e+01
~s "ST_k_2_1"
<MEAN> 25
 -5.862161e+00 3.688459e+00 2.466143e+00 -8.779554e+00 -8.851726e+00 7.000128e-01 1.614522e+00 7.164755e-01 5.610504e-01 6.683508e-01 1.655209e+00 6.509854e-01 1.017750e+00 -2.466386e+00 -1.129928e+00 -2.186633e+00 -1.779653e+00 2.569407e+00 2.504342e+00 3.295253e-01 -1.741457e+00 -2.644574e+00 -7.128528e-01 4.231341e-01 1.673820e+00
<VARIANCE> 25
 1.224976e+01 5.164268e+01 4.822990e+01 4.850352e+01 7.322820e+01 7.265565e+01 5.339958e+01 4.749650e+01 3.519954e+01 7.694596e+01 2.729841e+01 3.065689e+01 2.942523e+00 5.145709e+00 4.041932e+00 4.043119e+00 6.396218e+00 1.147907e+01 6.313965e+00 2.723072e+00 3.402816e+00 4.454561e+00 2.145014e+00 3.379475e+00 1.436247e+00
<GCONST> 1.089193e+02
~s "ST_k_2_2"
<MEAN> 25
 -4.640706e+00 -2.406113e+00 -7.732278e-01 -3.839975e+00 -5.658653e-01 5.558769e+00 1.646866e-01 -2.565041e+00 -1.429333e+00 2.414061e-02 2.545236e+00 2.386906e+00 1.097923e+00 -3.878821e+00 -7.552663e-01 -2.275679e+00 -2.044470e+00 2.676707e+00 9.804648e-01 -1.167660e+00 -1.838292e+00 -1.408363e+00 9.552334e-01 6.509203e-01 2.390753e+00
<VARIANCE> 25
 1.824357e+01 9.889469e+01 4.323126e+01 6.593955e+01 5.174071e+01 7.474124e+01 1.087429e+02 7.949503e+01 4.967420e+01 4.779536e+01 3.029912e+01 4.005603e+01 2.279334e+00 3.938360e+00 5.651148e+00 4.367294e+00 3.822488e+00 5.857085e+00 5.888531e+00 4.552458e+00 3.801402e+00 4.348197e+00 3.174372e+00 2.669386e+00 1.832057e+00
<GCONST> 1.109443e+02
~s "ST_k_3_1"
<MEAN> 25
 2.544876e+00 -4.945335e-01 -2.043539e+00 -8.631523e+00 -1.191185e+01 -7.644735e-01 7.413478e+00 1.946339e+00 -4.204338e+00 -3.471373e+00 -4.514846e-01 7.993712e-01 2.938741e+00 -1.406211e+00 -1.624378e+00 1.398361e+00 1.160510e-01 -1.665924e+00 6.020235e-01 4.195353e-01 -5.180459e-01 -5.345871e-01 -4.151454e-01 7.589071e-02 2.383801e+00
<VARIANCE> 25
 3.040422e+01 3.654127e+01 3.241625e+01 2.836867e+01 3.611676e+01 5.457915e+01 2.100264e+01 3.562102e+01 3.778832e+01 5.253709e+01 2.424805e+01 4.220202e+01 1.483047e+00 4.451136e+00 3.346492e+00 2.125501e+00 4.608834e+00 5.258130e+00 4.200400e+00 6.116073e+00 7.179268e+00 1.049592e+01 3.953022e+00 4.386250e+00 8.949208e-01
<GCONST> 1.058594e+02
~s "ST_k_3_2"
<MEAN> 25
 3.226502e+00 -9.847407e+00 -2.480921e+00 -3.819174e+00 -4.880318e+00 3.824482e+00 -6.430845e-01 -6.523889e+00 -5.502824e+00 -6.937083e-01 5.079117e+00 3.500150e+00 2.893171e+00 -1.367044e+00 -1.397118e+00 8.777552e-01 -8.254213e-01 -2.904091e+00 -5.004471e-02 1.944168e-01 1.059802e-01 6.934356e-01 5.784614e-01 3.042439e-01 2.506901e+00
<VARIANCE> 25
 2.863842e+01 3.616154e+01 3.428181e+01 4.683356e+01 4.017678e+01 5.994793e+01 7.154829e+01 6.261942e+01 3.593498e+01 4.724940e+01 3.293689e+01 2.262944e+01 1.244443e+00 3.919715e+00 3.900865e+00 3.649385e+00 4.041598e+00 5.348380e+00 7.336312e+00 7.738257e+00 5.087308e+00 5.914997e+00 3.555700e+00 3.966641e+00 1.012261e+00
<GCONST> 1.079319e+02
~s "ST_k_4_1"
<MEAN> 25
 7.722106e+00 -1.253359e+01 -6.773081e+00 -4.002995e+00 -6.683712e+00 -1.642342e+00 2.324046e+00 -2.714665e+00 -1.777309e+00 1.657197e+00 4.396191e+00 3.484733e+00 5.155203e-01 -7.329419e-01 -1.017057e+00 -2.918710e-01 1.077020e-02 -2.374879e-01 1.025994e+00 1.332614e+00 1.053966e+00 4.064096e-01 7.824516e-02 2.398335e-02 6.005093e-01
<VARIANCE> 25
 7.709344e+00 3.290936e+01 1.388629e+01 1.763757e+01 2.562195e+01 3.237531e+01 4.227451e+01 3.661552e+01 3.995070e+01 4.436073e+01 3.236938e+01 2.571574e+01 3.496750e-01 1.720140e+00 1.242194e+00 1.957953e+00 2.963211e+00 2.607127e+00 3.293851e+00 2.949653e+00 2.076936e+00 2.716629e+00 2.172307e+00 2.048383e+00 4.501766e-01
<GCONST> 9.237757e+01
~s "ST_a_2_1"
<MEAN> 25
 9.086658e+00 -1.036918e+01 -8.434077e+00 -5.377647e+00 -4.643503e+00 -1.540338e+00 3.447771e+00 1.478518e+00 -2.295967e+00 1.988606e-01 5.116140e+00 2.057324e+00 -1.992774e-01 1.160475e-01 3.758064e-01 5.016043e-01 1.871587e-02 1.933487e-01 -3.006081e-01 -6.225521e-01 6.838946e-02 5.479515e-01 -2.173750e-02 -1.941061e-01 -2.562051e-01
<VARIANCE> 25
 7.052456e+00 1.801433e+01 1.839148e+01 1.829587e+01 2.447742e+01 2.885239e+01 3.443237e+01 4.262046e+01 2.097027e+01 3.964880e+01 3.234975e+01 3.179186e+01 1.117979e-01 5.325673e-01 8.047296e-01 1.091278e+00 8.850186e-01 1.387329e+00 1.609669e+00 1.279750e+00 1.007964e+00 1.167295e+00 8.358323e-01 9.005273e-01 1.524360e-01
<GCONST> 8.009472e+01
~s "ST_a_2_2"
<MEAN> 25
 7.461596e+00 -1.226337e+01 -7.212933e+00 -3.295743e+00 -5.049215e+00 -7.707643e-01 2.924379e+00 -1.290231e+00 -3.539105e-01 2.102227e+00 4.196925e+00 2.919479e+00 -1.047142e-01 1.016983e+00 -3.613459e-02 5.437126e-02 2.137149e-01 -6.491301e-02 2.473394e-01 5.575542e-01 -1.790629e-01 -5.322844e-01 -3.236144e-01 -2.413825e-02 -5.520654e-01
<VARIANCE> 25
 5.909881e+00 2.314709e+01 1.230197e+01 1.755823e+01 1.999640e+01 2.501048e+01 2.881033e+01 2.499331e+01 3.673117e+01 3.649931e+01 3.180560e+01 3.096874e+01 1.442880e-01 9.370100e-01 7.843182e-01 9.952918e-01 1.393960e+00 1.727838e+00 1.933264e+00 2.221492e+00 1.877313e+00 1.945654e+00 1.955731e+00 1.558958e+00 2.436786e-01
<GCONST> 8.421446e+01
~s "ST_a_2_3"
<MEAN> 25
 6.602580e+00 -1.120650e+01 -6.012274e+00 4.282799e-01 -2.633547e+00 1.658923e+00 6.788618e+00 2.910551e-02 -3.757106e+00 2.814709e+00 5.179985e+00 7.342047e-02 2.359491e-01 6.624210e-01 -7.340134e-01 -1.103324e+00 -4.489201e-01 -1.990364e-01 7.136655e-01 9.180635e-01 -1.773720e-03 -4.599080e-01 -5.470626e-01 -2.820292e-01 -1.244889e-01
<VARIANCE> 25
 5.121142e+00 1.437996e+01 8.648217e+00 1.353262e+01 1.350272e+01 1.546243e+01 3.184329e+01 2.456319e+01 1.717695e+01 2.578357e+01 3.097276e+01 2.799004e+01 8.149465e-02 5.113112e-01 4.526387e-01 1.247323e+00 8.592020e-01 1.569500e+00 1.808143e+00 1.341343e+00 1.564230e+00 1.385383e+00 1.587523e+00 1.149402e+00 1.187682e-01
<GCONST> 7.654977e+01
~s "ST_a_2_4"
<MEAN> 25
 6.031473e+00 -8.270131e+00 -5.701301e+00 -5.830406e+00 -8.894066e+00 -7.284584e-01 8.005441e+00 5.524607e+00 -3.735456e-01 -2.957173e+00 6.371645e-01 1.445606e+00 -1.199831e-02 1.372228e+00 2.820406e-01 2.984274e-01 1.436057e-01 -8.260703e-01 -4.952566e-01 5.219288e-01 7.096291e-01 3.977241e-01 -6.982332e-01 -8.167844e-01 -5.876858e-01
<VARIANCE> 25
 4.548875e+00 2.146736e+01 1.265995e+01 1.510274e+01 2.326291e+01 4.259031e+01 3.062159e+01 4.730892e+01 2.590620e+01 3.339947e+01 2.567377e+01 1.944236e+01 1.009610e-01 1.233838e+00 8.010955e-01 1.021955e+00 1.317904e+00 1.605714e+00 1.336764e+00 1.621296e+00 1.611500e+00 1.457273e+00 1.470301e+00 1.210145e+00 2.196876e-01
<GCONST> 8.208902e+01
~s "ST_a_2_5"
<MEAN> 25
 7.312159e+00 -7.061939e+00 -8.900186e+00 -3.969310e+00 -3.584921e+00 1.233558e+00 8.286860e+00 3.961441e+00 -1.332280e+00 -1.200287e+00 9.961331e-01 1.737659e+00 1.502712e-02 -9.854484e-01 3.365464e-01 6.207151e-01 2.702811e-01 2.574438e-01 -9.107688e-01 -1.011593e+00 1.042194e-01 6.147639e-01 8.636265e-01 3.949530e-01 4.246856e-01
<VARIANCE> 25
 5.685060e+00 3.153026e+01 1.494843e+01 2.246388e+01 2.886565e+01 2.549519e+01 3.524818e+01 2.397238e+01 2.462652e+01 3.653221e+01 3.102415e+01 2.968662e+01 2.782041e-01 2.403505e+00 1.247164e+00 1.369539e+00 1.609597e+00 1.803700e+00 1.949214e+00 1.934657e+00 2.415657e+00 2.383402e+00 1.850739e+00 1.869321e+00 5.548216e-01
<GCONST> 8.884878e+01
~s "ST_a_3_1"
<MEAN> 25
 7.571667e+00 -7.586586e+00 -6.686766e+00 -2.720701e+00 -4.368281e+00 1.614100e-01 2.878351e+00 -1.461519e+00 -1.133205e+00 1.059677e+00 1.833706e+00 2.353199e+00 -6.762195e-01 1.653823e+00 7.873201e-01 5.527119e-01 7.199609e-01 1.564502e-02 -7.736703e-01 -1.882449e-01 2.936119e-01 3.210170e-03 -4.425831e-01 7.794666e-02 -1.136177e+00
<VARIANCE> 25
 6.424886e+00 2.032759e+01 1.908595e+01 2.435594e+01 2.558568e+01 3.150057e+01 4.293333e+01 4.155275e+01 3.354581e+01 4.335635e+01 3.315123e+01 3.021035e+01 4.642751e-01 1.271709e+00 1.692609e+00 1.472924e+00 1.815348e+00 3.146061e+00 2.465182e+00 2.550155e+00 2.212949e+00 2.367537e+00 2.357322e+00 2.145375e+00 4.925306e-01
<GCONST> 9.186737e+01
~s "ST_a_3_2"
<MEAN> 25
 5.964404e+00 -5.444700e+00 -5.088638e+00 -2.529600e+00 -4.310935e+00 6.023883e-01 4.211672e+00 1.028136e-01 -2.182072e+00 -1.747632e+00 1.091023e+00 3.636836e+00 -1.522833e+00 2.856344e+00 7.827495e-01 7.705691e-02 8.782847e-01 1.106355e-02 -6.360242e-01 7.571375e-02 4.567477e-01 6.737860e-01 5.251187e-02 2.952556e-02 -2.238164e+00
<VARIANCE> 25
 5.023278e+00 2.706983e+01 1.622003e+01 1.423972e+01 2.824330e+01 3.912275e+01 3.097892e+01 4.977805e+01 3.037117e+01 3.702001e+01 3.354889e+01 2.435798e+01 3.794168e-01 5.550556e-01 1.286107e+00 1.061450e+00 1.582861e+00 2.381006e+00 2.280005e+00 2.607118e+00 2.774376e+00 3.180190e+00 2.599230e+00 2.809670e+00 3.526560e-01
<GCONST> 8.936700e+01
~s "ST_a_3_3"
<MEAN> 25
 7.425828e+00 -8.442167e+00 -7.753246e+00 -2.432945e+00 -3.026534e+00 -1.589754e+00 2.990357e+00 4.562269e-01 -3.080719e+00 -8.221087e-01 5.558595e+00 4.625299e+00 -5.361690e-01 2.823364e+00 8.493597e-01 5.616096e-01 1.580655e+00 7.645138e-02 -7.736157e-01 4.192994e-01 -5.089623e-01 -1.120424e+00 -1.329260e+00 -1.094912e+00 -1.512463e+00
<VARIANCE> 25
 5.777445e+00 1.759588e+01 1.515515e+01 1.513040e+01 2.567826e+01 2.599779e+01 2.657935e+01 2.125706e+01 2.753577e+01 2.818399e+01 2.298448e+01 3.448008e+01 1.372643e-01 7.704309e-01 8.125709e-01 1.209883e+00 1.164486e+00 1.646215e+00 1.778526e+00 2.104164e+00 2.391686e+00 2.181412e+00 2.102377e+00 2.312926e+00 1.986993e-01
<GCONST> 8.349790e+01
~s "ST_a_3_4"
<MEAN> 25
 6.366755e+00 -3.115551e+00 -4.511842e+00 -4.832116e+00 -8.660145e+00 -3.494572e+00 6.070316e+00 5.827031e+00 1.105806e+00 -1.260782e+00 -1.377628e+00 -6.936623e-01 -5.843533e-01 2.757976e+00 1.333913e+00 1.166119e+00 1.838239e+00 7.900603e-02 -1.111475e+00 -1.463947e-01 9.792789e-02 1.378468e-01 -7.691541e-01 -1.386327e+00 -1.408613e+00
<VARIANCE> 25
 3.727194e+00 1.490588e+01 1.069206e+01 1.719115e+01 1.363373e+01 3.299143e+01 2.046884e+01 4.018168e+01 2.317289e+01 3.011257e+01 2.064769e+01 1.588295e+01 1.462226e-01 8.144160e-01 9.511598e-01 1.005362e+00 1.306599e+00 2.491112e+00 1.821859e+00 1.684402e+00 1.488313e+00 1.644477e+00 1.308861e+00 1.538906e+00 1.671699e-01
<GCONST> 8.027545e+01
~s "ST_a_4_1"
<MEAN> 25
 1.598057e+00 2.693195e+00 -3.593566e+00 -2.039113e+00 -1.052951e+00 -1.688575e+00 1.478598e+00 1.798260e-02 -9.661466e-01 2.120333e+00 2.108228e+00 3.001823e+00 -1.407469e+00 1.427492e+00 4.415480e-01 -2.132463e-02 8.063105e-01 3.003030e-01 -3.575621e-01 1.681063e-01 5.348526e-01 4.130268e-01 1.348296e-01 1.324906e-01 -1.565245e+00
<VARIANCE> 25
 1.810404e+01 3.585607e+01 2.514024e+01 3.000226e+01 2.227712e+01 2.405325e+01 3.107040e+01 2.676010e+01 2.393796e+01 2.346582e+01 1.820706e+01 1.578069e+01 4.878718e-01 2.490124e+00 1.666513e+00 1.782948e+00 1.659662e+00 2.434088e+00 1.812243e+00 2.882990e+00 1.897677e+00 2.750779e+00 2.320431e+00 1.248036e+00 8.631092e-01
<GCONST> 9.094877e+01
~s "ST_a_4_2"
<MEAN> 25
 -1.708014e+00 2.184612e+00 -5.414383e+00 -5.091076e+00 -1.031122e+00 2.157343e+00 5.542913e+00 3.217065e+00 2.011625e+00 3.389466e+00 2.308847e+00 3.477738e+00 -1.531784e+00 1.006910e+00 5.240561e-02 -3.849087e-01 6.073331e-01 1.796510e-01 -4.351755e-02 3.401711e-01 5.369774e-01 4.452794e-01 5.956840e-02 8.197518e-02 -1.490942e+00
<VARIANCE> 25
 1.484553e+01 2.240874e+01 1.938121e+01 1.665882e+01 1.949084e+01 2.494602e+01 1.999168e+01 2.774465e+01 2.587329e+01 2.783888e+01 1.623454e+01 1.475697e+01 4.539988e-01 2.074752e+00 1.717397e+00 1.359272e+00 1.191544e+00 2.645096e+00 1.545609e+00 2.392114e+00 2.788286e+00 2.415284e+00 1.562150e+00 1.667653e+00 6.842251e-01
<GCONST> 8.782358e+01
~s "ST_a_4_3"
<MEAN> 25
 5.966044e+00 -3.583162e+00 -6.587879e+00 -2.601182e+00 -6.537691e-01 -1.022730e-01 1.069449e+00 5.032333e-01 1.136134e+00 -7.646789e-01 -6.964802e-01 3.453991e+00 -2.214912e-01 1.399737e+00 5.307133e-02 -8.713436e-02 7.605237e-01 -3.105845e-01 -7.211354e-01 2.054367e-01 2.626205e-01 -6.409707e-01 -6.140945e-01 3.510539e-01 -6.790850e-01
<VARIANCE> 25
 9.462979e+00 2.170064e+01 1.130458e+01 1.659712e+01 1.725915e+01 2.221568e+01 3.378849e+01 2.497471e+01 3.411016e+01 2.448895e+01 3.076014e+01 2.683375e+01 3.513948e-01 7.875663e-01 1.104395e+00 1.576142e+00 2.092779e+00 2.434890e+00 2.243170e+00 1.633923e+00 1.788256e+00 1.746309e+00 2.057621e+00 1.419616e+00 2.620828e-01
<GCONST> 8.570538e+01
~s "ST_a_4_4"
<MEAN> 25
 3.423137e+00 -4.150517e+00 -6.278400e-01 -3.083216e+00 -3.169182e+00 7.855060e+00 3.674269e+00 -1.098130e-01 4.232358e+00 2.135297e+00 2.177083e+00 3.917664e+00 -2.763790e+00 -8.928759e-01 4.063406e+00 -1.458740e+00 -7.732757e-01 2.572363e+00 -1.947615e+00 2.473385e-01 1.642244e+00 5.440505e-02 8.680266e-01 7.251406e-02 -6.594988e-01
<VARIANCE> 25
 1.242597e+01 1.348562e+01 2.661349e+01 1.403171e+01 1.408841e+01 2.561566e+01 2.213635e+01 2.870844e+01 4.020583e+01 3.389371e+01 2.202995e+01 2.252389e+01 6.645595e-01 2.275243e+00 3.792402e+00 2.604658e+00 2.080075e+00 3.907857e+00 3.224739e+00 3.843053e+00 3.595004e+00 3.121791e+00 3.715217e+00 3.549142e+00 3.140703e-01
<GCONST> 9.391351e+01
~s "ST_a_4_5"
<MEAN> 25
 4.099431e+00 1.978712e+00 -7.066205e-01 -8.163277e-01 -1.887824e+00 -3.383374e-02 5.092920e+00 5.725850e+00 6.296842e-01 -2.211244e+00 -3.826533e+00 -4.622718e+00 -8.090176e-01 1.589819e+00 1.292792e+00 1.086866e+00 2.149378e+00 1.613895e+00 -5.901623e-02 2.346199e-01 2.445298e-01 -4.697824e-01 -1.238395e+00 -1.290560e+00 -1.049588e+00
<VARIANCE> 25
 2.868026e+00 1.101028e+01 9.925894e+00 1.359237e+01 1.600376e+01 2.835822e+01 2.001581e+01 2.642977e+01 2.326395e+01 2.892591e+01 2.073318e+01 1.626035e+01 1.144428e-01 8.557046e-01 8.930928e-01 1.836154e+00 1.214230e+00 2.389760e+00 2.162601e+00 1.615069e+00 1.467258e+00 1.772612e+00 1.680623e+00 1.406843e+00 2.049382e-01
<GCONST> 7.974329e+01
~s "ST_a_4_6"
<MEAN> 25
 5.495685e+00 -1.165153e+00 -4.102331e+00 -5.168878e-01 1.267140e+00 -5.488434e-01 -4.670216e-01 -1.063388e-01 -2.084397e+00 -1.066729e+00 9.769630e-01 2.551404e-01 -6.591617e-01 2.351201e+00 1.427209e+00 9.464044e-01 1.362502e+00 4.471589e-01 -7.043979e-01 -1.109790e-01 5.606204e-02 -5.582533e-01 -1.849826e+00 -1.424084e+00 -1.295881e+00
<VARIANCE> 25
 5.124925e+00 1.756094e+01 1.660288e+01 1.390165e+01 2.185015e+01 2.032485e+01 1.953946e+01 2.317020e+01 2.056668e+01 2.806516e+01 2.481161e+01 1.938158e+01 1.266593e-01 6.593879e-01 1.069909e+00 1.099583e+00 1.215248e+00 2.594396e+00 1.992629e+00 1.557074e+00 1.783475e+00 2.354177e+00 2.668276e+00 2.848757e+00 1.275079e-01
<GCONST> 8.199736e+01
~s "ST_n_2_1"
<MEAN> 25
 5.553792e+00 4.957733e-01 -2.951015e+00 1.138070e+00 2.967122e+00 2.358808e-01 -1.517956e-01 1.482387e+00 -2.779192e+00 -4.089689e+00 -2.467687e+00 -2.590121e+00 -2.949311e-01 7.571437e-01 4.250684e-01 3.143273e-01 5.778911e-01 5.661734e-01 3.930570e-02 3.479648e-02 -8.740427e-02 -8.575346e-01 -1.303948e+00 -5.518841e-01 -4.833017e-01
<VARIANCE> 25
 4.436490e+00 1.983227e+01 1.052897e+01 1.249591e+01 1.967111e+01 1.841594e+01 1.702973e+01 2.667042e+01 1.687311e+01 2.892572e+01 1.896315e+01 1.976776e+01 1.385108e-01 4.727740e-01 8.859367e-01 9.783930e-01 8.399518e-01 9.991235e-01 1.125534e+00 9.413309e-01 1.215665e+00 1.008423e+00 1.633901e+00 1.529583e+00 1.201849e-01
<GCONST> 7.544604e+01
~s "ST_n_2_2"
<MEAN> 25
 4.545953e+00 2.571043e+00 -6.323199e-01 4.642123e+00 8.141649e+00 2.718131e+00 -2.039503e+00 -1.041332e+00 -1.391806e+00 -3.118464e+00 -4.036202e+00 -2.970334e+00 -3.367609e-01 1.748300e+00 6.098225e-01 -1.123292e-01 6.819314e-01 2.833674e-01 -2.146291e-01 3.053533e-01 4.457346e-01 -5.374628e-01 -1.046587e+00 -7.022186e-02 -7.768134e-01
<VARIANCE> 25
 1.627491e+01 2.876496e+01 1.807275e+01 1.811659e+01 2.228863e+01 2.536320e+01 2.141366e+01 2.429254e+01 1.742992e+01 2.675563e+01 2.381770e+01 1.499399e+01 1.198729e+00 9.207166e-01 9.927049e-01 9.081078e-01 1.098084e+00 1.672887e+00 1.544310e+00 2.077380e+00 2.303283e+00 1.871852e+00 1.887060e+00 1.830008e+00 6.521367e-01
<GCONST> 8.654337e+01
~s "ST_n_3_1"
<MEAN> 25
 4.702162e+00 4.726973e-01 -2.185471e+00 5.865378e-01 1.328397e+00 9.177701e-01 1.295374e+00 1.127644e+00 -2.934590e+00 -5.102215e+00 -3.868852e+00 -1.876565e+00 -1.780412e-01 2.979118e-01 1.176470e-01 -6.124649e-01 -6.285434e-01 -1.187174e-01 5.355445e-01 5.275131e-01 9.638547e-03 -2.555199e-01 8.093285e-02 3.835369e-01 -1.662074e-01
<VARIANCE> 25
 4.987024e+00 2.347948e+01 1.493349e+01 1.797845e+01 2.233986e+01 2.167579e+01 3.280220e+01 2.871594e+01 2.198520e+01 2.158966e+01 2.194667e+01 2.731379e+01 3.181293e-01 6.525626e-01 1.049520e+00 1.084576e+00 8.264555e-01 2.177726e+00 1.193590e+00 1.100621e+00 1.777294e+00 1.064874e+00 1.707800e+00 9.277987e-01 2.226758e-01
<GCONST> 8.090584e+01
~s "ST_n_3_2"
<MEAN> 25
 1.719272e+00 8.974298e+00 3.218898e+00 4.748689e+00 9.958940e+00 3.196259e+00 -3.981241e+00 -2.040764e+00 -1.956467e-01 -2.240085e+00 -4.796323e+00 -2.470125e+00 -7.568637e-01 1.043306e+00 1.031137e+00 1.906414e-01 -1.428926e-01 -1.128700e-01 6.197566e-02 -1.413486e-01 2.525040e-01 6.629239e-01 5.413973e-01 4.215292e-01 -7.801588e-01
<VARIANCE> 25
 7.882864e+00 1.564976e+01 1.663136e+01 2.000083e+01 1.647008e+01 2.408562e+01 2.518721e+01 2.103917e+01 2.976113e+01 2.582874e+01 2.640721e+01 1.833980e+01 2.142627e+00 9.772329e-01 1.369000e+00 8.811150e-01 1.327714e+00 1.700341e+00 1.411527e+00 2.207510e+00 3.094203e+00 3.520832e+00 2.710965e+00 1.098386e+00 1.164157e+00
<GCONST> 8.816113e+01
~s "ST_n_4_1"
<MEAN> 25
 3.256881e+00 3.435428e+00 -1.825749e+00 -7.392840e-01 8.266086e-01 1.669637e+00 3.626248e+00 1.039648e+00 -3.522718e+00 -4.633676e+00 -2.505646e+00 6.029403e-01 -1.230867e-01 -1.982777e+00 1.194676e-01 -1.072618e+00 -2.031125e+00 8.067930e-01 1.185250e+00 -1.764984e-01 1.365475e-01 7.456062e-01 1.029292e+00 5.879380e-01 7.931051e-01
<VARIANCE> 25
 1.657694e+01 3.424088e+01 4.379723e+01 2.674739e+01 3.940185e+01 4.125231e+01 3.860383e+01 2.758933e+01 4.079276e+01 2.665168e+01 2.912432e+01 2.222017e+01 3.672700e+00 4.148941e+00 8.735238e+00 2.372314e+00 2.869208e+00 5.914262e+00 3.153916e+00 3.336621e+00 3.656394e+00 2.902771e+00 3.546781e+00 2.839011e+00 1.959740e+00
<GCONST> 1.034671e+02
~s "ST_n_4_2"
<MEAN> 25
 -1.805475e+00 9.920384e+00 7.010539e+00 6.246298e+00 8.558080e+00 1.939353e+00 -4.086778e+00 -1.660248e+00 2.668422e+00 2.351709e+00 -8.214219e-01 -2.989295e-01 -8.266394e-01 -1.022658e+00 1.161319e-01 1.848039e-01 -6.682327e-01 -4.609089e-02 5.562447e-01 -1.946446e-01 -1.325516e-01 8.176339e-01 1.437647e+00 9.024910e-01 -2.369729e-01
<VARIANCE> 25
 1.060184e+01 1.153242e+01 1.519576e+01 1.613108e+01 2.038328e+01 2.233838e+01 2.804433e+01 2.126962e+01 2.007556e+01 2.250887e+01 2.583451e+01 2.091644e+01 5.228691e-01 3.025447e+00 1.614604e+00 3.781759e+00 2.648710e+00 4.176253e+00 3.153535e+00 2.644200e+00 2.042876e+00 2.397386e+00 2.244195e+00 1.859073e+00 9.153085e-01
<GCONST> 9.089359e+01
~s "ST_d_2_1"
<MEAN> 25
 6.633295e-01 2.507951e+00 4.139452e+00 9.440204e+00 9.748803e+00 9.145422e-01 -6.275550e+00 -5.838210e+00 -3.152298e+00 -6.148989e-01 1.483585e+00 1.276669e+00 1.202936e+00 -3.793144e+00 -1.054877e+00 1.322695e+00 -4.003564e-01 -1.628127e+00 -1.935117e+00 -1.853237e+00 -1.949172e+00 -1.326039e+00 1.261336e+00 1.235398e+00 2.132327e+00
<VARIANCE> 25
 2.137309e+01 5.847633e+01 3.093615e+01 4.818943e+01 3.594064e+01 4.615120e+01 5.445565e+01 3.862994e+01 4.777989e+01 4.295860e+01 3.122853e+01 3.444688e+01 9.050888e-01 2.893966e+00 3.026904e+00 5.582479e+00 4.382635e+00 6.569159e+00 5.615877e+00 4.916600e+00 4.756242e+00 8.406536e+00 5.389786e+00 4.163226e+00 7.994364e-01
<GCONST> 1.071013e+02
~s "ST_d_3_1"
<MEAN> 25
 4.333221e+00 -3.215638e+00 1.676595e+00 9.305586e+00 7.764255e+00 -1.817453e+00 -9.619031e+00 -8.591193e+00 -7.590872e+00 -5.652612e+00 2.378075e+00 2.652513e+00 5.739563e-01 -8.596210e-01 -3.174221e-01 -7.126273e-01 -1.528717e+00 -8.050130e-01 2.946415e-01 3.366586e-01 -1.803003e-01 -1.378247e-01 1.391681e-01 -2.292640e-01 7.676550e-01
<VARIANCE> 25
 1.095056e+01 2.928928e+01 3.766082e+01 4.729556e+01 4.049749e+01 4.446946e+01 6.542484e+01 3.120000e+01 4.500210e+01 6.510434e+01 3.480832e+01 4.385110e+01 6.175513e-01 3.731600e+00 2.238390e+00 4.269046e+00 4.383512e+00 3.474085e+00 7.118857e+00 3.622417e+00 4.965644e+00 6.522213e+00 4.658258e+00 3.640157e+00 6.610034e-01
<GCONST> 1.045928e+02
~s "ST_d_4_1"
<MEAN> 25
 4.802646e+00 -3.392251e+00 1.400289e+00 6.801245e+00 2.946786e+00 -3.146338e+00 -5.561824e+00 -5.419018e+00 -6.702993e+00 -4.037347e+00 1.926903e+00 9.088194e-01 9.222794e-02 -3.968725e-01 3.726178e-02 -8.572262e-01 -1.591640e+00 -3.810038e-01 9.623197e-01 1.393950e+00 7.222858e-01 5.716860e-02 -1.801583e-01 -4.277540e-01 2.403952e-01
<VARIANCE> 25
 1.081748e+01 3.704117e+01 4.145330e+01 6.099709e+01 4.373419e+01 3.680268e+01 6.262479e+01 4.136978e+01 4.399206e+01 6.780518e+01 4.860108e+01 4.388292e+01 9.876797e-02 1.151142e+00 9.818316e-01 1.692744e+00 1.727682e+00 2.189819e+00 2.740742e+00 1.646140e+00 1.892248e+00 1.743239e+00 1.977715e+00 1.640301e+00 1.370517e-01
<GCONST> 9.223875e+01
~s "ST_@_2_1"
<MEAN> 25
 4.134387e+00 -7.862031e+00 7.119927e+00 9.320998e+00 2.500832e+00 -3.046965e-01 -1.242801e+01 -1.284442e+01 -4.030191e+00 -1.161740e-01 1.987035e+00 -3.117604e+00 1.194621e+00 9.261171e-01 -2.653924e+00 -5.387426e-01 8.160582e-01 -3.286077e-02 1.583105e+00 3.592727e-01 -8.843265e-01 -1.497076e-01 -6.306987e-01 -1.417149e-01 -1.994256e-02
<VARIANCE> 25
 8.325461e+00 8.156331e+00 1.897565e+01 1.907193e+01 1.762270e+01 2.016168e+01 2.973499e+01 1.695032e+01 2.308306e+01 2.613669e+01 1.544579e+01 2.182281e+01 5.161059e-01 1.218424e+00 2.621636e+00 1.209567e+00 1.650326e+00 2.753942e+00 2.454484e+00 3.893702e+00 2.605016e+00 1.945440e+00 1.045269e+00 1.812520e+00 3.198035e-01
<GCONST> 8.595805e+01
~s "ST_@_3_1"
<MEAN> 25
 4.836644e+00 -2.440858e+00 5.206323e+00 8.714618e+00 4.974876e+00 2.691082e+00 -6.858665e+00 -9.491473e+00 -4.883236e+00 -1.536271e+00 -7.935557e-02 -2.215989e+00 -4.103073e-01 2.946589e+00 -5.051600e-01 -7.361278e-02 1.438068e+00 3.938707e-01 1.496129e+00 1.878663e+00 1.329426e+00 4.023555e-01 -1.578149e+00 -5.957963e-01 -1.648547e+00
<VARIANCE> 25
 6.882123e+00 1.975130e+01 1.293368e+01 1.277345e+01 1.921891e+01 2.025356e+01 1.655034e+01 2.517648e+01 2.156758e+01 1.722597e+01 1.400107e+01 1.977816e+01 2.143006e-01 6.237921e-01 1.382704e+00 6.984130e-01 1.579494e+00 1.269615e+00 1.049640e+00 1.347080e+00 3.623432e+00 3.279124e+00 2.511509e+00 1.191091e+00 2.003085e-01
<GCONST> 8.046199e+01
~s "ST_@_4_1"
<MEAN> 25
 4.301479e+00 3.843408e+00 4.012087e+00 8.442932e+00 8.292270e+00 2.360352e+00 -5.670225e+00 -4.998089e+00 -1.021991e+00 -1.704546e+00 -4.758544e+00 -4.836349e+00 -1.752301e-02 1.248252e+00 6.072353e-03 -2.699248e-01 5.205604e-01 -1.161901e-02 -2.773158e-02 5.523758e-01 4.945540e-01 -3.204805e-01 -7.503830e-01 -5.143814e-01 -4.565373e-01
<VARIANCE> 25
 4.628897e+00 1.181665e+01 1.504172e+01 1.973677e+01 1.104207e+01 2.746734e+01 1.199147e+01 1.454302e+01 1.832300e+01 1.613604e+01 2.310556e+01 9.241642e+00 1.710613e-01 8.809072e-01 5.667052e-01 5.553306e-01 1.213608e+00 8.561493e-01 1.092058e+00 1.020197e+00 1.964052e+00 1.331500e+00 2.054516e+00 5.229955e-01 2.528397e-01
<GCONST> 7.432697e+01
~s "ST_g_2_1"
<MEAN> 25
 1.695066e+00 -4.145633e-01 -4.616103e+00 -2.036619e+00 1.740631e+00 6.156121e+00 4.002141e+00 -5.060860e+00 -7.776161e+00 -2.480004e-01 3.323827e+00 6.497573e-01 1.895506e+00 -2.864568e+00 -1.713012e-01 4.808365e-01 -1.450412e-01 5.109706e-01 -1.259302e+00 -2.102253e+00 -1.638584e+00 -8.279431e-01 4.655980e-01 -1.728396e-01 2.526576e+00
<VARIANCE> 25
 2.257157e+01 8.686180e+01 3.168091e+01 3.303108e+01 4.131070e+01 4.684568e+01 4.612632e+01 4.830761e+01 3.550735e+01 1.912879e+01 3.218338e+01 1.110036e+01 1.817405e+00 7.303955e+00 4.643499e+00 4.505706e+00 3.693245e+00 7.897429e+00 7.657828e+00 2.661746e+00 4.981004e+00 2.119977e+00 3.215391e+00 2.594124e+00 1.875916e+00
<GCONST> 1.052791e+02
~s "ST_g_3_1"
<MEAN> 25
 8.714586e+00 -5.289045e+00 -5.280543e+00 1.572734e+00 1.135979e+00 -1.335702e+00 -2.155340e+00 -8.897215e+00 -1.168400e+01 -8.270227e-01 4.767557e+00 -8.117683e-01 1.114275e+00 -1.596347e+00 -6.115884e-01 -6.426975e-01 -1.076019e+00 -1.969824e+00 -1.346087e+00 1.091093e+00 5.342448e-01 1.046463e-01 1.439066e+00 3.789633e-01 1.554782e+00
<VARIANCE> 25
 7.423057e+00 1.772030e+01 1.236137e+01 2.448059e+01 9.661006e+00 2.063692e+01 2.667751e+01 2.330613e+01 2.350333e+01 3.264433e+01 3.145926e+01 2.589762e+01 5.240111e-01 1.604231e+00 1.787193e+00 2.207575e+00 8.836488e-01 4.738008e+00 4.720280e+00 5.794367e+00 3.667392e+00 5.668801e+00 3.512927e+00 2.618173e+00 5.716607e-01
<GCONST> 9.224584e+01
~s "ST_g_4_1"
<MEAN> 25
 1.048150e+01 -8.092825e+00 -6.647283e+00 -3.563104e+00 -1.982908e+00 -1.011357e+00 -2.338142e+00 -4.217916e+00 -4.564856e+00 2.045476e-01 7.217208e+00 4.780777e+00 1.496268e-01 -3.543876e-01 -5.454870e-01 -9.366375e-01 -6.772156e-01 4.956537e-02 1.030712e+00 1.041209e+00 1.360427e+00 2.717344e-01 -2.751784e-01 8.853548e-01 2.703840e-01
<VARIANCE> 25
 5.763615e+00 1.200660e+01 1.569584e+01 2.591688e+01 1.356422e+01 1.615307e+01 3.738521e+01 2.944002e+01 3.672847e+01 5.191672e+01 3.610927e+01 4.739422e+01 1.103774e-01 3.527157e-01 9.240127e-01 7.047492e-01 7.310563e-01 1.267027e+00 2.296366e+00 1.738181e+00 1.371889e+00 2.529116e+00 9.829700e-01 9.467678e-01 1.028238e-01
<GCONST> 8.011380e+01
~s "ST_t_2_1"
<MEAN> 25
 -6.674727e+00 4.748172e+00 -1.790049e-01 -3.079154e+00 1.589110e+00 3.246131e+00 2.323792e+00 1.054772e+00 1.658265e+00 2.571989e+00 2.015907e+00 3.042123e+00 3.282061e-01 -2.980950e+00 9.428350e-01 1.727569e-02 -1.472430e+00 1.539387e+00 -8.409230e-01 -2.204038e+00 -7.564236e-01 -1.206078e+00 -1.402128e-01 7.326255e-01 1.547308e+00
<VARIANCE> 25
 2.209305e+01 3.144638e+01 3.170094e+01 2.718489e+01 3.795066e+01 3.453212e+01 3.136603e+01 3.592483e+01 3.171341e+01 3.461876e+01 1.767190e+01 2.159214e+01 1.739936e+00 2.706387e+00 3.247708e+00 4.012266e+00 3.535191e+00 3.680087e+00 4.722251e+00 2.999274e+00 3.674272e+00 2.995852e+00 2.911936e+00 3.123595e+00 1.209801e+00
<GCONST> 1.005302e+02
~s "ST_t_3_1"
<MEAN> 25
 -3.609991e+00 -4.895648e+00 2.504847e+00 -2.766407e+00 -3.298643e+00 7.822667e+00 7.652860e-01 -4.909659e+00 -1.206048e+00 -2.479674e+00 7.169479e-01 4.610736e+00 3.187294e+00 -2.182307e+00 1.072563e+00 1.024692e+00 -1.644163e+00 -3.926298e-01 -1.060863e+00 -1.851882e+00 -2.011091e+00 -2.814685e+00 -1.458475e+00 -3.392145e-01 3.387828e+00
<VARIANCE> 25
 2.332874e+01 3.148781e+01 2.690288e+01 2.118995e+01 3.302530e+01 3.730015e+01 4.678844e+01 3.767563e+01 4.782631e+01 3.388981e+01 2.549435e+01 1.953004e+01 2.145269e+00 6.316129e+00 4.600790e+00 1.025562e+01 9.842244e+00 6.396149e+00 1.212050e+01 8.266819e+00 5.172180e+00 5.421353e+00 4.596759e+00 4.177343e+00 1.487354e+00
<GCONST> 1.089796e+02
~s "ST_t_4_1"
<MEAN> 25
 5.122668e+00 -2.773982e+00 2.770151e+00 1.417368e-02 -4.900445e+00 1.392869e+00 -3.071023e-02 -4.573367e+00 -6.016637e+00 -8.789986e+00 -4.077662e+00 1.783785e+00 2.520404e+00 -2.352124e-01 -9.384836e-03 1.793073e+00 -2.665106e-01 -3.100654e+00 -6.424125e-01 9.763001e-01 -5.945138e-01 -1.504620e+00 -1.492353e+00 -1.625263e+00 1.930616e+00
<VARIANCE> 25
 1.681537e+01 3.458018e+01 2.333232e+01 5.086551e+01 6.132993e+01 3.363416e+01 9.938905e+01 5.361522e+01 4.413958e+01 4.875502e+01 3.511709e+01 2.438777e+01 1.434029e+00 4.434997e+00 4.055858e+00 1.033821e+01 8.004109e+00 4.917413e+00 1.214084e+01 9.126011e+00 4.118310e+00 3.771164e+00 4.259971e+00 2.959626e+00 1.125760e+00
<GCONST> 1.093932e+02
~s "ST_sil_2_1"
<MEAN> 25
 -1.269054e+01 3.079509e+00 -1.241944e+00 6.980234e-02 6.377975e+00 1.558375e+00 1.218897e+00 3.921746e+00 4.428900e+00 4.686496e+00 1.890859e+00 2.866457e-01 -9.275444e-02 -4.999634e-02 -2.562471e-02 -1.544120e-02 7.441518e-03 4.045371e-02 1.171364e-01 1.601897e-01 9.628888e-02 1.315422e-02 -1.686450e-02 -2.566305e-02 -5.472708e-02
<VARIANCE> 25
 1.531716e+01 1.870835e+01 1.189513e+01 1.594723e+01 2.422497e+01 2.266020e+01 2.550143e+01 3.534426e+01 1.753618e+01 2.359422e+01 1.746385e+01 1.611089e+01 1.621370e-01 2.915956e-01 3.871760e-01 4.453564e-01 5.947505e-01 7.436885e-01 8.734774e-01 9.678925e-01 9.111570e-01 8.411822e-01 7.235969e-01 6.715853e-01 6.943753e-02
<GCONST> 7.217898e+01
~s "silst"
<MEAN> 25
 -1.447800e+01 3.689156e-01 -4.470000e+00 -4.002514e+00 3.463284e+00 4.057413e+00 5.027399e+00 4.074226e+00 6.313189e+00 7.893903e+00 4.043546e-01 -1.595055e+00 -1.735237e-01 -2.159824e-01 -2.012870e-01 -1.497238e-01 -1.467729e-02 -3.205642e-02 -8.373637e-03 6.530360e-02 5.010801e-02 -9.598944e-03 -8.104252e-02 -9.936862e-02 -8.171155e-02
<VARIANCE> 25
 6.232782e+00 1.784830e+01 1.127057e+01 1.014685e+01 1.536727e+01 1.237743e+01 1.047623e+01 1.586899e+01 1.402213e+01 1.310013e+01 1.472613e+01 1.584865e+01 2.021382e-01 5.486928e-01 6.158473e-01 5.480397e-01 6.091623e-01 7.850078e-01 7.789236e-01 6.534088e-01 8.903745e-01 9.619369e-01 7.090919e-01 7.032745e-01 6.987654e-02
<GCONST> 6.821554e+01
~s "ST_sil_3_1"
<MEAN> 25
 -1.457571e+01 2.468781e-01 -4.412384e+00 -3.967366e+00 3.217531e+00 3.857058e+00 4.897992e+00 3.822973e+00 6.508688e+00 8.009924e+00 1.340039e-01 -1.526291e+00 -1.356841e-01 -1.608188e-01 -1.545469e-01 -1.178455e-01 -2.566929e-03 -3.930091e-02 -2.740935e-02 4.553765e-02 4.203301e-02 -4.404309e-03 -7.455843e-02 -8.778951e-02 -6.646705e-02
<VARIANCE> 25
 5.103960e+00 1.718814e+01 1.067483e+01 9.607202e+00 1.377295e+01 1.213187e+01 1.076328e+01 1.639345e+01 1.323985e+01 1.269068e+01 1.432782e+01 1.574370e+01 1.646287e-01 4.781133e-01 5.505096e-01 4.932313e-01 5.729105e-01 7.931982e-01 7.711940e-01 6.361727e-01 8.701288e-01 9.204116e-01 6.792478e-01 6.894823e-01 5.862930e-02
<GCONST> 6.672225e+01
~s "ST_sil_4_1"
<MEAN> 25
 -1.164989e+01 3.390939e+00 -1.518349e+00 -9.924820e-01 5.263179e+00 1.567905e+00 1.152247e+00 3.433576e+00 4.129900e+00 4.542641e+00 1.090562e+00 -5.210649e-01 6.464777e-02 -9.680514e-02 4.829428e-02 -4.620133e-02 -3.065208e-02 3.612565e-01 3.992356e-01 1.771337e-01 -9.905270e-02 -3.513597e-01 -3.141064e-01 -1.885216e-01 9.375305e-02
<VARIANCE> 25
 2.724935e+01 2.861704e+01 2.602265e+01 3.515348e+01 3.207505e+01 3.503745e+01 4.425896e+01 3.525243e+01 2.517254e+01 3.510498e+01 2.405239e+01 1.939800e+01 1.013504e+00 1.532363e+00 1.466927e+00 1.216922e+00 1.522266e+00 1.645923e+00 1.563967e+00 1.517734e+00 1.536965e+00 1.482673e+00 1.307946e+00 1.242894e+00 4.561126e-01
<GCONST> 9.005845e+01
~s "ST_j_2_1"
<MEAN> 25
 -2.150629e+00 3.807592e+00 7.210056e+00 2.183496e+00 3.002052e+00 7.043939e+00 -2.774860e+00 -4.816188e+00 4.546057e+00 4.533835e+00 3.385687e-01 -3.253676e-01 -1.243426e+00 -2.367293e+00 3.338970e+00 1.372716e-01 -1.666784e+00 2.139106e+00 -2.886715e-01 -8.613188e-01 3.652706e-01 -5.350156e-01 -7.233248e-01 -3.296152e-01 6.537492e-01
<VARIANCE> 25
 1.873538e+01 5.949311e+01 3.249610e+01 2.082472e+01 4.771574e+01 3.826505e+01 3.416763e+01 2.681163e+01 3.307479e+01 2.039342e+01 3.032347e+01 1.685320e+01 9.812320e-01 1.402734e+01 5.067661e+00 3.662198e+00 6.590802e+00 3.158946e+00 6.023195e+00 5.708251e+00 3.225487e+00 3.436632e+00 1.962282e+00 1.959115e+00 3.405695e+00
<GCONST> 1.036549e+02
~s "ST_j_3_1"
<MEAN> 25
 -7.472851e+00 -1.033747e+01 2.119239e+01 2.618611e+00 -5.634337e+00 1.105625e+01 -6.982496e+00 -5.793134e+00 3.790191e+00 5.244418e-01 8.252822e-01 -1.230865e+00 1.580663e+00 -1.980744e+00 9.059277e-01 2.146671e+00 3.107096e-01 -1.328315e+00 -2.854379e+00 -2.025026e+00 -1.959809e+00 -1.294792e+00 5.770297e-01 -5.289645e-01 2.013552e+00
<VARIANCE> 25
 1.681330e+01 4.911478e+01 3.484373e+01 5.269763e+01 2.738448e+01 3.442416e+01 5.529123e+01 4.655924e+01 3.172478e+01 2.195505e+01 2.502242e+01 1.778530e+01 3.345474e+00 1.261240e+01 6.365161e+00 2.641353e+00 4.336552e+00 5.294839e+00 3.923624e+00 3.304537e+00 3.969851e+00 3.025143e+00 3.217175e+00 2.531101e+00 1.296134e+00
<GCONST> 1.046278e+02
~s "ST_j_4_1"
<MEAN> 25
 2.235754e+00 -7.321712e+00 1.324310e+01 9.754507e+00 8.733051e-01 2.392787e+00 -1.312729e+01 -1.267438e+01 -3.723647e+00 -1.379600e+00 2.341856e+00 -1.488259e+00 3.254032e+00 7.863337e-02 -4.102962e+00 1.703317e+00 2.331970e+00 -3.189291e+00 -1.206071e+00 -1.218657e+00 -2.541171e+00 -5.876533e-01 6.056814e-01 -7.142102e-01 1.507226e+00
<VARIANCE> 25
 1.258637e+01 1.081654e+01 3.169625e+01 2.759424e+01 1.338677e+01 3.400829e+01 3.370185e+01 3.426116e+01 3.827118e+01 1.906201e+01 2.042016e+01 1.907258e+01 1.005607e+00 3.538280e+00 3.564726e+00 2.801972e+00 2.581229e+00 6.670912e+00 3.444265e+00 4.739054e+00 3.785577e+00 3.300351e+00 3.803543e+00 4.461674e+00 6.790023e-01
<GCONST> 9.754281e+01
~s "ST_ng_2_1"
<MEAN> 25
 3.797107e+00 -1.448882e+00 -2.564060e+00 3.253811e+00 1.033313e+00 -3.478275e-01 3.011690e+00 2.958192e+00 -1.303725e+00 -3.195949e+00 -4.545797e+00 -3.203450e+00 -4.220613e-01 6.386393e-01 1.008959e+00 5.222126e-01 1.228981e+00 9.190989e-01 -1.735348e+00 -6.629232e-01 6.002629e-01 -2.060880e-01 -5.365765e-01 -4.243149e-02 -4.264493e-01
<VARIANCE> 25
 5.595552e+00 6.850280e+00 1.219138e+01 4.286990e+00 8.209438e+00 1.770106e+01 1.718783e+01 1.410286e+01 1.229987e+01 1.488135e+01 1.192637e+01 2.680759e+01 1.769644e-01 1.224368e+00 9.369163e-01 1.670843e+00 6.419465e-01 1.457290e+00 1.856038e+00 1.400946e+00 1.061607e+00 1.445299e+00 1.374056e+00 2.648961e+00 2.360788e-01
<GCONST> 7.508028e+01
~s "ST_ng_3_1"
<MEAN> 25
 1.387264e+00 4.418667e+00 1.792655e+00 1.066568e+00 2.714320e+00 3.844058e+00 1.058764e+00 1.366035e+00 1.496567e+00 -4.055783e+00 -8.467608e+00 -3.300172e+00 -7.934433e-01 1.664709e+00 4.057255e-01 -2.373009e-01 7.134959e-01 -3.869492e-01 -3.315257e-01 2.898980e-01 -2.310129e-02 1.939983e-01 2.905619e-01 -7.618778e-03 -1.121153e+00
<VARIANCE> 25
 2.345979e+00 2.615754e+01 1.002539e+01 1.604136e+01 1.120519e+01 1.190131e+01 2.900921e+01 2.295237e+01 1.254689e+01 1.824789e+01 1.842921e+01 1.122796e+01 3.265807e-01 9.964858e-01 2.060272e+00 1.460312e+00 9.697765e-01 1.795379e+00 1.883914e+00 1.675378e+00 2.592468e+00 2.797002e+00 1.613325e+00 2.671493e+00 1.984246e-01
<GCONST> 8.081154e+01
~s "ST_m_2_1"
<MEAN> 25
 -1.469919e+00 3.583497e+00 -5.722026e-02 2.491253e-01 4.046383e+00 4.358803e+00 4.260662e+00 4.572551e+00 2.259274e+00 -8.748875e-01 -4.795189e+00 -4.891562e+00 8.470955e-01 6.794823e-01 6.159233e-01 5.083669e-01 4.840751e-01 3.470924e-01 1.681432e-01 2.890990e-02 -5.489915e-01 -8.232242e-01 -7.024590e-01 -5.358741e-01 4.717318e-01
<VARIANCE> 25
 5.714291e+01 1.905511e+01 1.519805e+01 1.911764e+01 1.968973e+01 2.545818e+01 2.326862e+01 2.490264e+01 1.705505e+01 3.595285e+01 3.269282e+01 2.033167e+01 3.002653e+00 1.379243e+00 8.863610e-01 1.094369e+00 1.035258e+00 1.485246e+00 1.457069e+00 1.647862e+00 1.713446e+00 1.765533e+00 1.991478e+00 1.208581e+00 1.082193e+00
<GCONST> 8.886977e+01
~s "ST_m_2_2"
<MEAN> 25
 2.859260e-01 7.985707e+00 2.700062e+00 1.840082e-01 2.257682e+00 3.032053e+00 5.739956e+00 7.084336e+00 1.615444e+00 -2.255444e+00 -4.835362e+00 -5.594790e+00 -1.273814e+00 1.179001e+00 3.016886e-01 -1.086879e-01 8.103499e-01 3.713081e-01 -1.979133e-01 -3.880324e-01 3.584349e-01 9.324334e-01 6.613260e-01 6.869547e-01 -1.331797e+00
<VARIANCE> 25
 6.774536e+00 1.346231e+01 1.148137e+01 1.578959e+01 1.531763e+01 3.046395e+01 1.658567e+01 1.520739e+01 2.354597e+01 2.871695e+01 2.067373e+01 1.568049e+01 3.658505e-01 8.322700e-01 1.090859e+00 1.623356e+00 1.350256e+00 2.611672e+00 1.531449e+00 2.721321e+00 2.266724e+00 2.244467e+00 2.197334e+00 2.071221e+00 2.245842e-01
<GCONST> 8.335230e+01
~s "ST_ng_4_1"
<MEAN> 25
 -4.206689e+00 6.811841e+00 4.370499e+00 1.831126e+00 4.108934e+00 2.858355e+00 -3.057189e-01 7.264564e-01 1.862727e+00 3.479948e-01 -2.904421e+00 -1.556602e+00 -1.887521e+00 5.886865e-01 3.825370e-01 -1.285009e-01 1.014988e-01 3.534170e-01 2.758676e-01 -8.114659e-01 -1.509310e-01 1.185851e+00 1.318815e+00 6.832017e-01 -1.539740e+00
<VARIANCE> 25
 1.595407e+01 1.330055e+01 2.267650e+01 1.999926e+01 1.880218e+01 4.413008e+01 1.937652e+01 3.093643e+01 2.933613e+01 2.761482e+01 2.069978e+01 2.264635e+01 4.575054e-01 2.501263e+00 2.330007e+00 1.766656e+00 1.545494e+00 4.233677e+00 1.964831e+00 2.827195e+00 3.077694e+00 3.346698e+00 2.575863e+00 1.776369e+00 6.691736e-01
<GCONST> 9.197997e+01
~s "ST_m_3_1"
<MEAN> 25
 1.391941e-01 5.459084e+00 1.116382e+00 1.212868e+00 6.044491e+00 6.121208e+00 3.365781e+00 2.851764e+00 9.803028e-01 -3.216869e+00 -7.793014e+00 -5.910686e+00 2.548809e+00 -3.134003e-01 -7.264133e-01 -1.140852e+00 -1.425512e+00 -5.468524e-01 -1.157335e-01 -6.197843e-02 -3.802272e-01 -1.026284e+00 -5.513082e-01 4.279843e-01 1.993213e+00
<VARIANCE> 25
 2.433188e+01 3.646749e+01 1.935512e+01 2.040723e+01 2.800742e+01 3.614736e+01 2.629132e+01 2.669094e+01 2.477135e+01 3.449956e+01 4.647133e+01 2.552685e+01 5.929079e+00 2.242025e+00 1.941368e+00 1.888505e+00 3.331301e+00 3.620429e+00 3.553576e+00 3.053512e+00 3.360963e+00 3.853620e+00 6.227328e+00 2.896087e+00 2.617493e+00
<GCONST> 1.011932e+02
~s "ST_m_3_2"
<MEAN> 25
 -5.965959e+00 9.072750e+00 4.065436e+00 7.604162e-02 4.213123e+00 4.269597e+00 3.493264e+00 2.845012e+00 3.140599e+00 3.243007e+00 -6.276930e-01 -1.511770e+00 -8.476382e-01 -1.934545e+00 -3.781844e-01 -5.070466e-01 -4.545394e-01 7.925308e-01 -8.945938e-01 -1.658000e+00 -4.232048e-01 -1.214766e-01 6.942831e-01 1.135656e+00 6.782212e-02
<VARIANCE> 25
 8.018697e+00 1.034350e+01 1.560006e+01 2.230788e+01 2.059136e+01 3.557919e+01 1.766106e+01 3.210894e+01 2.296328e+01 2.702635e+01 2.289986e+01 2.383287e+01 6.796875e-01 2.091788e+00 9.922368e-01 1.360990e+00 1.788589e+00 1.616223e+00 1.734131e+00 1.731761e+00 2.062191e+00 2.727315e+00 1.518770e+00 1.470958e+00 8.251701e-01
<GCONST> 8.703953e+01
~s "ST_m_4_1"
<MEAN> 25
 6.874485e+00 7.616212e-01 -6.507366e+00 -6.548581e+00 -2.464090e+00 1.808483e+00 6.895590e+00 6.108780e+00 1.844833e-01 -3.903170e+00 -4.091547e+00 -4.774534e-01 1.641483e+00 -3.658626e+00 -2.388161e+00 -7.635885e-01 -2.072668e+00 -8.471206e-01 1.867590e+00 1.012540e+00 -6.224297e-01 -1.036124e-01 1.716664e+00 1.670028e+00 2.271351e+00
<VARIANCE> 25
 5.632561e+00 3.865864e+01 1.745921e+01 1.557806e+01 2.917325e+01 2.397598e+01 4.973728e+01 2.297944e+01 3.065280e+01 2.373521e+01 2.913014e+01 2.376434e+01 2.111835e+00 2.899221e+00 1.845526e+00 2.989981e+00 3.763056e+00 3.424467e+00 2.666328e+00 2.917927e+00 2.534249e+00 5.669860e+00 2.783688e+00 4.193779e+00 1.297893e+00
<GCONST> 9.716825e+01
~s "ST_m_4_2"
<MEAN> 25
 5.306982e+00 1.224613e+00 -2.840005e+00 -4.945744e+00 -4.124955e+00 -1.567548e+00 2.840555e+00 5.436210e+00 1.707127e+00 -3.547473e+00 -4.688857e+00 -1.915362e+00 6.612899e-01 -1.592521e+00 -1.255096e+00 -1.303190e+00 -1.787577e+00 -1.078671e+00 1.816078e-01 9.375970e-02 -1.928512e-01 -2.659264e-01 1.378545e+00 2.230854e+00 1.008545e+00
<VARIANCE> 25
 7.510176e+00 2.600010e+01 2.550330e+01 2.835495e+01 3.834906e+01 2.842817e+01 3.146651e+01 3.553371e+01 2.183159e+01 2.058351e+01 2.094728e+01 2.074170e+01 2.093450e-01 2.626719e+00 1.892529e+00 2.013531e+00 2.371385e+00 3.567354e+00 3.009698e+00 2.828706e+00 1.347758e+00 2.236768e+00 1.494165e+00 3.208958e+00 3.608852e-01
<GCONST> 9.066891e+01
~s "ST_m_4_3"
<MEAN> 25
 -5.144263e+00 2.612462e-01 3.929083e-01 -2.898868e+00 9.339371e-01 7.283141e+00 2.402246e+00 -1.094751e+00 -1.850268e-01 -1.626313e+00 -4.962674e-01 1.461477e+00 1.541677e+00 -4.390749e-01 3.504620e-01 -3.676147e-01 -1.795366e+00 -1.293249e+00 -1.816348e+00 -2.055434e+00 -1.095751e+00 -1.004437e+00 -2.194344e-01 6.609284e-01 1.406382e+00
<VARIANCE> 25
 1.239123e+01 4.081581e+01 2.381782e+01 2.296167e+01 2.396924e+01 2.210688e+01 2.928176e+01 3.351966e+01 2.786299e+01 2.895019e+01 1.977988e+01 1.697962e+01 1.416515e+00 6.065980e+00 1.830068e+00 1.730505e+00 2.784198e+00 5.315673e+00 3.599511e+00 3.095674e+00 1.896909e+00 2.267972e+00 1.654527e+00 1.882861e+00 8.864464e-01
<GCONST> 9.503253e+01
~s "ST_c_2_1"
<MEAN> 25
 -6.622015e+00 -8.660148e+00 1.711513e+01 -1.752788e+00 -5.234172e+00 1.488369e+01 7.610371e-01 -7.229899e-01 3.187927e+00 -1.718055e+00 2.301148e+00 3.142391e+00 -1.993512e+00 -6.164138e+00 4.439154e+00 -2.524020e-01 -2.493564e+00 1.203521e+00 -2.251808e+00 3.234735e-01 2.644511e-01 -4.050514e-01 1.522812e+00 1.320491e-01 2.029166e+00
<VARIANCE> 25
 1.542049e+01 1.018605e+02 8.655655e+01 2.294103e+01 3.679217e+01 4.430103e+01 5.040170e+01 2.519946e+01 1.375566e+01 1.073826e+01 3.445653e+01 8.530379e+00 1.346156e+00 5.892369e+00 4.104527e+00 3.354279e+00 3.267610e+00 5.790662e+00 5.981059e+00 3.083372e+00 2.527165e+00 2.700947e+00 1.422139e+00 8.567591e-01 1.337091e+00
<GCONST> 9.907861e+01
~s "ST_c_3_1"
<MEAN> 25
 -3.556562e+00 -1.706070e+01 1.753814e+01 7.328712e+00 -4.101768e+00 3.869858e+00 -9.082738e+00 -3.418526e+00 7.194397e-01 -2.767888e+00 4.180019e+00 1.193231e+00 2.882216e+00 6.142182e-01 -3.346673e+00 3.021984e+00 1.792474e+00 -3.980461e+00 -1.831248e+00 -1.773816e+00 -1.261126e+00 9.982236e-02 -2.235360e-01 -1.233557e+00 9.229500e-01
<VARIANCE> 25
 3.918888e+01 3.252105e+01 4.607391e+01 4.249224e+01 3.158881e+01 8.439285e+01 4.898441e+01 3.385821e+01 2.287795e+01 1.880656e+01 1.941385e+01 1.957417e+01 1.862407e+00 2.712642e+00 3.717329e+00 3.136412e+00 3.306558e+00 6.001845e+00 3.855648e+00 2.591571e+00 1.470069e+00 3.846979e+00 2.537606e+00 2.752288e+00 4.177396e-01
<GCONST> 1.001523e+02
~s "ST_c_4_1"
<MEAN> 25
 4.423212e+00 -1.507120e+01 4.166278e+00 1.223227e+01 3.216494e+00 -4.576991e+00 -1.158768e+01 -6.893433e+00 -4.241990e+00 -2.418439e+00 3.440166e+00 -2.936296e+00 3.864970e-01 1.044847e+00 -1.696446e+00 -1.920154e-01 8.352728e-01 -1.539619e-01 8.976279e-01 -3.794321e-01 -5.821108e-01 2.955368e-01 -3.689166e-01 1.475869e-01 -4.741670e-01
<VARIANCE> 25
 3.342264e+00 2.143102e+01 2.569281e+01 1.841533e+01 3.764037e+01 4.515723e+01 2.422959e+01 1.493354e+01 2.756449e+01 4.431768e+01 1.233475e+01 3.250187e+01 2.526098e-01 1.404706e+00 1.005504e+00 9.903654e-01 1.397260e+00 1.597552e+00 1.509301e+00 1.481218e+00 8.775817e-01 1.704638e+00 6.326373e-01 1.346112e+00 4.618132e-01
<GCONST> 8.284563e+01
~s "ST_p_2_1"
<MEAN> 25
 -3.742197e+00 5.122178e+00 3.849395e-01 -2.214778e+00 -5.085877e-01 -2.060018e+00 -2.875614e+00 -1.642754e+00 2.632486e-01 1.674384e+00 1.509192e+00 1.611358e+00 4.470563e-01 2.588498e-01 7.736168e-01 3.859400e-01 -2.419849e-01 -4.297729e-01 -6.065507e-01 -4.298154e-01 2.106776e-02 -1.865267e-01 -2.606673e-01 -3.856907e-01 3.922954e-01
<VARIANCE> 25
 1.957214e+01 3.985017e+01 1.871342e+01 1.710783e+01 2.434846e+01 4.781876e+01 3.311804e+01 3.646527e+01 2.600587e+01 2.976830e+01 2.002995e+01 1.929161e+01 3.072700e+00 6.280196e+00 2.618849e+00 2.008281e+00 2.397179e+00 6.777040e+00 2.430789e+00 2.735632e+00 2.750202e+00 2.227167e+00 2.492496e+00 3.362000e+00 1.119348e+00
<GCONST> 9.849329e+01
~s "ST_p_2_2"
<MEAN> 25
 1.465787e+00 8.981007e+00 5.496452e+00 -1.810839e+00 -4.489310e+00 -4.372528e+00 -4.706119e+00 -4.254714e+00 -1.660390e+00 -7.265592e-01 -6.617131e-01 1.237302e-01 2.117325e+00 2.200261e+00 1.726468e+00 7.345040e-01 -2.620869e+00 -5.107333e+00 -1.920802e+00 2.630965e-02 -2.429625e-01 4.164686e-01 1.192632e-01 -9.779872e-01 1.033023e+00
<VARIANCE> 25
 1.197162e+01 2.059842e+01 1.384839e+01 1.473222e+01 3.203823e+01 5.368962e+01 2.731928e+01 2.449410e+01 3.068033e+01 2.508799e+01 1.662155e+01 1.415907e+01 1.285226e+00 3.128582e+00 2.285644e+00 2.506104e+00 3.876194e+00 2.507183e+00 4.413893e+00 3.650551e+00 3.846395e+00 2.894455e+00 3.710641e+00 2.140128e+00 5.531352e-01
<GCONST> 9.491650e+01
~s "ST_p_3_1"
<MEAN> 25
 7.261010e-01 7.908980e+00 4.451933e+00 1.176476e-01 -3.891682e+00 -9.478257e+00 -4.827063e+00 2.095248e+00 2.388932e+00 2.548181e-01 -1.247424e+00 -2.487023e+00 7.446221e-02 -1.038502e+00 -1.071728e-01 -8.781760e-02 -1.971996e-01 3.730573e-01 1.405643e-01 4.559694e-01 5.533346e-01 -4.193940e-01 -4.312588e-01 5.514925e-02 4.586525e-01
<VARIANCE> 25
 2.932211e+01 2.491387e+01 3.803321e+01 2.769930e+01 4.714097e+01 6.616570e+01 6.756811e+01 2.686806e+01 5.083721e+01 3.660478e+01 3.777978e+01 4.413480e+01 8.279648e-01 2.517401e+00 1.989782e+00 1.843664e+00 2.604786e+00 3.545820e+00 2.165068e+00 4.678605e+00 2.506217e+00 2.269913e+00 2.442527e+00 2.461787e+00 7.291135e-01
<GCONST> 9.978708e+01
~s "ST_p_3_2"
<MEAN> 25
 4.588843e+00 1.054905e+01 6.709546e+00 1.362574e+00 -6.135728e+00 -1.360282e+01 -8.183100e+00 -9.483156e-02 1.459679e+00 -8.152788e-01 -2.960667e+00 -3.732272e+00 5.444823e-02 3.004176e-02 2.157157e-01 2.339246e-01 -2.673612e-01 -7.350165e-01 -9.182876e-02 6.498179e-01 4.455078e-01 1.434133e-01 -1.512529e-01 -5.511600e-01 6.411040e-02
<VARIANCE> 25
 4.880771e+00 1.130511e+01 1.765786e+01 1.774270e+01 3.534159e+01 1.800126e+01 2.836438e+01 3.680046e+01 3.175281e+01 2.544534e+01 2.579860e+01 2.322584e+01 2.799588e-01 6.378880e-01 8.857394e-01 8.756742e-01 1.175192e+00 2.035323e+00 1.274518e+00 1.555929e+00 1.475757e+00 1.657474e+00 1.784845e+00 1.239940e+00 2.026706e-01
<GCONST> 8.187349e+01
~s "ST_p_4_1"
<MEAN> 25
 -1.509297e+00 1.017688e+00 -1.305043e+00 -1.939780e+00 -1.092355e-01 7.587874e-01 -9.831046e-01 -1.966123e+00 -5.502591e-01 -2.913983e-01 8.835505e-01 2.635140e+00 1.378397e+00 -1.996918e+00 -2.588884e-01 1.699731e+00 1.500030e+00 1.027908e+00 -1.103812e+00 -2.191230e+00 -1.347562e+00 -4.962328e-01 -3.657544e-01 -6.781877e-01 1.666449e+00
<VARIANCE> 25
 2.475289e+01 6.305764e+01 3.998322e+01 2.387443e+01 5.268190e+01 7.668444e+01 4.489197e+01 5.874391e+01 5.122419e+01 3.364002e+01 3.374834e+01 3.634606e+01 3.272136e+00 4.596182e+00 3.745603e+00 6.463062e+00 4.013288e+00 7.526629e+00 5.405891e+00 4.636579e+00 4.884287e+00 3.609641e+00 2.470133e+00 4.144927e+00 2.343811e+00
<GCONST> 1.094810e+02
~s "ST_p_4_2"
<MEAN> 25
 3.032916e+00 8.730590e+00 7.572959e+00 -1.327445e-01 -9.049026e+00 -1.185696e+01 -4.031790e+00 4.742013e-01 -5.536676e-01 -5.776669e-01 -1.358083e+00 -3.156673e+00 -3.592291e-02 -5.439294e-01 -7.926415e-01 -2.196303e-01 8.319988e-01 1.114881e+00 4.600578e-01 1.980126e-01 -2.016040e-01 -9.955941e-01 -7.245416e-01 3.385213e-01 6.700958e-02
<VARIANCE> 25
 7.041749e+00 1.971850e+01 1.850293e+01 2.081143e+01 5.218641e+01 4.786457e+01 6.100951e+01 5.041084e+01 4.046278e+01 6.161468e+01 5.381492e+01 3.046958e+01 5.619351e-01 1.273946e+00 2.089212e+00 1.302957e+00 5.010226e+00 4.136603e+00 4.103966e+00 3.142011e+00 2.807187e+00 4.382507e+00 2.289198e+00 2.371893e+00 5.785282e-01
<GCONST> 9.782153e+01
~h "@"
<BEGINHMM>
<NUMSTATES> 5
<STATE> 2
~s "ST_@_2_1"
<STATE> 3
~s "ST_@_3_1"
<STATE> 4
~s "ST_@_4_1"
~t "T_@"
<ENDHMM>
~h "a"
<BEGINHMM>
<NUMSTATES> 5
<STATE> 2
~s "ST_a_2_5"
<STATE> 3
~s "ST_a_3_1"
<STATE> 4
~s "ST_a_4_1"
~t "T_a"
<ENDHMM>
~h "b"
<BEGINHMM>
<NUMSTATES> 5
<STATE> 2
~s "ST_b_2_1"
<STATE> 3
~s "ST_b_3_1"
<STATE> 4
~s "ST_b_4_1"
~t "T_b"
<ENDHMM>
~h "c"
<BEGINHMM>
<NUMSTATES> 5
<STATE> 2
~s "ST_c_2_1"
<STATE> 3
~s "ST_c_3_1"
<STATE> 4
~s "ST_c_4_1"
~t "T_c"
<ENDHMM>
~h "d"
<BEGINHMM>
<NUMSTATES> 5
<STATE> 2
~s "ST_d_2_1"
<STATE> 3
~s "ST_d_3_1"
<STATE> 4
~s "ST_d_4_1"
~t "T_d"
<ENDHMM>
~h "e"
<BEGINHMM>
<NUMSTATES> 5
<STATE> 2
~s "ST_e_2_1"
<STATE> 3
~s "ST_e_3_1"
<STATE> 4
~s "ST_e_4_1"
~t "T_e"
<ENDHMM>
~h "g"
<BEGINHMM>
<NUMSTATES> 5
<STATE> 2
~s "ST_g_2_1"
<STATE> 3
~s "ST_g_3_1"
<STATE> 4
~s "ST_g_4_1"
~t "T_g"
<ENDHMM>
~h "h"
<BEGINHMM>
<NUMSTATES> 5
<STATE> 2
~s "ST_h_2_1"
<STATE> 3
~s "ST_h_3_1"
<STATE> 4
~s "ST_h_4_1"
~t "T_h"
<ENDHMM>
~h "i"
<BEGINHMM>
<NUMSTATES> 5
<STATE> 2
~s "ST_i_2_1"
<STATE> 3
~s "ST_i_3_1"
<STATE> 4
~s "ST_i_4_1"
~t "T_i"
<ENDHMM>
~h "j"
<BEGINHMM>
<NUMSTATES> 5
<STATE> 2
~s "ST_j_2_1"
<STATE> 3
~s "ST_j_3_1"
<STATE> 4
~s "ST_j_4_1"
~t "T_j"
<ENDHMM>
~h "k"
<BEGINHMM>
<NUMSTATES> 5
<STATE> 2
~s "ST_k_2_1"
<STATE> 3
~s "ST_k_3_1"
<STATE> 4
~s "ST_k_4_1"
~t "T_k"
<ENDHMM>
~h "l"
<BEGINHMM>
<NUMSTATES> 5
<STATE> 2
~s "ST_l_2_1"
<STATE> 3
~s "ST_l_3_1"
<STATE> 4
~s "ST_l_4_1"
~t "T_l"
<ENDHMM>
~h "m"
<BEGINHMM>
<NUMSTATES> 5
<STATE> 2
~s "ST_m_2_1"
<STATE> 3
~s "ST_m_3_1"
<STATE> 4
~s "ST_m_4_1"
~t "T_m"
<ENDHMM>
~h "n"
<BEGINHMM>
<NUMSTATES> 5
<STATE> 2
~s "ST_n_2_1"
<STATE> 3
~s "ST_n_3_1"
<STATE> 4
~s "ST_n_4_1"
~t "T_n"
<ENDHMM>
~h "p"
<BEGINHMM>
<NUMSTATES> 5
<STATE> 2
~s "ST_p_2_1"
<STATE> 3
~s "ST_p_3_1"
<STATE> 4
~s "ST_p_4_1"
~t "T_p"
<ENDHMM>
~h "r"
<BEGINHMM>
<NUMSTATES> 5
<STATE> 2
~s "ST_r_2_1"
<STATE> 3
~s "ST_r_3_1"
<STATE> 4
~s "ST_r_4_1"
~t "T_r"
<ENDHMM>
~h "s"
<BEGINHMM>
<NUMSTATES> 5
<STATE> 2
~s "ST_s_2_1"
<STATE> 3
~s "ST_s_3_1"
<STATE> 4
~s "ST_s_4_1"
~t "T_s"
<ENDHMM>
~h "t"
<BEGINHMM>
<NUMSTATES> 5
<STATE> 2
~s "ST_t_2_1"
<STATE> 3
~s "ST_t_3_1"
<STATE> 4
~s "ST_t_4_1"
~t "T_t"
<ENDHMM>
~h "u"
<BEGINHMM>
<NUMSTATES> 5
<STATE> 2
~s "ST_u_2_1"
<STATE> 3
~s "ST_u_3_1"
<STATE> 4
~s "ST_u_4_1"
~t "T_u"
<ENDHMM>
~h "u-r+u"
<BEGINHMM>
<NUMSTATES> 5
<STATE> 2
~s "ST_r_2_1"
<STATE> 3
~s "ST_r_3_2"
<STATE> 4
~s "ST_r_4_2"
~t "T_r"
<ENDHMM>
~h "ng"
<BEGINHMM>
<NUMSTATES> 5
<STATE> 2
~s "ST_ng_2_1"
<STATE> 3
~s "ST_ng_3_1"
<STATE> 4
~s "ST_ng_4_1"
~t "T_ng"
<ENDHMM>
~h "ny"
<BEGINHMM>
<NUMSTATES> 5
<STATE> 2
~s "ST_ny_2_1"
<STATE> 3
~s "ST_ny_3_1"
<STATE> 4
~s "ST_ny_4_1"
~t "T_ny"
<ENDHMM>
~h "sp"
<BEGINHMM>
<NUMSTATES> 3
<STATE> 2
~s "ST_sil_3_1"
<TRANSP> 3
 0.000000e+00 2.425158e-02 9.757484e-01
 0.000000e+00 7.858002e-01 2.141999e-01
 0.000000e+00 0.000000e+00 0.000000e+00
<ENDHMM>
~h "u-a+ng"
<BEGINHMM>
<NUMSTATES> 5
<STATE> 2
~s "ST_a_2_2"
<STATE> 3
~s "ST_a_3_1"
<STATE> 4
~s "ST_a_4_5"
~t "T_a"
<ENDHMM>
~h "k-k+a"
<BEGINHMM>
<NUMSTATES> 5
<STATE> 2
~s "ST_k_2_2"
<STATE> 3
~s "ST_k_3_2"
<STATE> 4
~s "ST_k_4_1"
~t "T_k"
<ENDHMM>
~h "k-u+n"
<BEGINHMM>
<NUMSTATES> 5
<STATE> 2
~s "ST_u_2_1"
<STATE> 3
~s "ST_u_3_1"
<STATE> 4
~s "ST_u_4_3"
~t "T_u"
<ENDHMM>
~h "a-l+a"
<BEGINHMM>
<NUMSTATES> 5
<STATE> 2
~s "ST_l_2_2"
<STATE> 3
~s "ST_l_3_1"
<STATE> 4
~s "ST_l_4_1"
~t "T_l"
<ENDHMM>
~h "a-m+a"
<BEGINHMM>
<NUMSTATES> 5
<STATE> 2
~s "ST_m_2_1"
<STATE> 3
~s "ST_m_3_1"
<STATE> 4
~s "ST_m_4_2"
~t "T_m"
<ENDHMM>
~h "a-m+p"
<BEGINHMM>
<NUMSTATES> 5
<STATE> 2
~s "ST_m_2_2"
<STATE> 3
~s "ST_m_3_2"
<STATE> 4
~s "ST_m_4_3"
~t "T_m"
<ENDHMM>
~h "a-n+d"
<BEGINHMM>
<NUMSTATES> 5
<STATE> 2
~s "ST_n_2_2"
<STATE> 3
~s "ST_n_3_2"
<STATE> 4
~s "ST_n_4_2"
~t "T_n"
<ENDHMM>
~h "a-s+e"
<BEGINHMM>
<NUMSTATES> 5
<STATE> 2
~s "ST_s_2_2"
<STATE> 3
~s "ST_s_3_1"
<STATE> 4
~s "ST_s_4_1"
~t "T_s"
<ENDHMM>
~h "d-a+p"
<BEGINHMM>
<NUMSTATES> 5
<STATE> 2
~s "ST_a_2_2"
<STATE> 3
~s "ST_a_3_2"
<STATE> 4
~s "ST_a_4_1"
~t "T_a"
<ENDHMM>
~h "ny-a+l"
<BEGINHMM>
<NUMSTATES> 5
<STATE> 2
~s "ST_a_2_3"
<STATE> 3
~s "ST_a_3_1"
<STATE> 4
~s "ST_a_4_3"
~t "T_a"
<ENDHMM>
~h "g-a+r"
<BEGINHMM>
<NUMSTATES> 5
<STATE> 2
~s "ST_a_2_2"
<STATE> 3
~s "ST_a_3_1"
<STATE> 4
~s "ST_a_4_3"
~t "T_a"
<ENDHMM>
~h "t-a+m"
<BEGINHMM>
<NUMSTATES> 5
<STATE> 2
~s "ST_a_2_4"
<STATE> 3
~s "ST_a_3_4"
<STATE> 4
~s "ST_a_4_5"
~t "T_a"
<ENDHMM>
~h "t-i+d"
<BEGINHMM>
<NUMSTATES> 5
<STATE> 2
~s "ST_i_2_2"
<STATE> 3
~s "ST_i_3_2"
<STATE> 4
~s "ST_i_4_3"
~t "T_i"
<ENDHMM>
~h "t-i+k"
<BEGINHMM>
<NUMSTATES> 5
<STATE> 2
~s "ST_i_2_2"
<STATE> 3
~s "ST_i_3_2"
<STATE> 4
~s "ST_i_4_2"
~t "T_i"
<ENDHMM>
~h "t-i+r"
<BEGINHMM>
<NUMSTATES> 5
<STATE> 2
~s "ST_i_2_2"
<STATE> 3
~s "ST_i_3_3"
<STATE> 4
~s "ST_i_4_3"
~t "T_i"
<ENDHMM>
~h "t-u+p"
<BEGINHMM>
<NUMSTATES> 5
<STATE> 2
~s "ST_u_2_4"
<STATE> 3
~s "ST_u_3_2"
<STATE> 4
~s "ST_u_4_4"
~t "T_u"
<ENDHMM>
~h "t-u+r"
<BEGINHMM>
<NUMSTATES> 5
<STATE> 2
~s "ST_u_2_4"
<STATE> 3
~s "ST_u_3_1"
<STATE> 4
~s "ST_u_4_3"
~t "T_u"
<ENDHMM>
~h "a+s"
<BEGINHMM>
<NUMSTATES> 5
<STATE> 2
~s "ST_a_2_5"
<STATE> 3
~s "ST_a_3_1"
<STATE> 4
~s "ST_a_4_4"
~t "T_a"
<ENDHMM>
~h "m-a+n"
<BEGINHMM>
<NUMSTATES> 5
<STATE> 2
~s "ST_a_2_5"
<STATE> 3
~s "ST_a_3_3"
<STATE> 4
~s "ST_a_4_6"
~t "T_a"
<ENDHMM>
~h "m-a+r"
<BEGINHMM>
<NUMSTATES> 5
<STATE> 2
~s "ST_a_2_5"
<STATE> 3
~s "ST_a_3_1"
<STATE> 4
~s "ST_a_4_3"
~t "T_a"
<ENDHMM>
~h "m-a+t"
<BEGINHMM>
<NUMSTATES> 5
<STATE> 2
~s "ST_a_2_5"
<STATE> 3
~s "ST_a_3_2"
<STATE> 4
~s "ST_a_4_2"
~t "T_a"
<ENDHMM>
~h "d-i"
<BEGINHMM>
<NUMSTATES> 5
<STATE> 2
~s "ST_i_2_1"
<STATE> 3
~s "ST_i_3_4"
<STATE> 4
~s "ST_i_4_1"
~t "T_i"
<ENDHMM>
~h "k-a"
<BEGINHMM>
<NUMSTATES> 5
<STATE> 2
~s "ST_a_2_1"
<STATE> 3
~s "ST_a_3_1"
<STATE> 4
~s "ST_a_4_1"
~t "T_a"
<ENDHMM>
~h "l-a"
<BEGINHMM>
<NUMSTATES> 5
<STATE> 2
~s "ST_a_2_1"
<STATE> 3
~s "ST_a_3_1"
<STATE> 4
~s "ST_a_4_2"
~t "T_a"
<ENDHMM>
~h "m-u"
<BEGINHMM>
<NUMSTATES> 5
<STATE> 2
~s "ST_u_2_2"
<STATE> 3
~s "ST_u_3_3"
<STATE> 4
~s "ST_u_4_2"
~t "T_u"
<ENDHMM>
~h "n+a"
<BEGINHMM>
<NUMSTATES> 5
<STATE> 2
~s "ST_n_2_2"
<STATE> 3
~s "ST_n_3_2"
<STATE> 4
~s "ST_n_4_1"
~t "T_n"
<ENDHMM>
~h "p-u"
<BEGINHMM>
<NUMSTATES> 5
<STATE> 2
~s "ST_u_2_1"
<STATE> 3
~s "ST_u_3_3"
<STATE> 4
~s "ST_u_4_2"
~t "T_u"
<ENDHMM>
~h "m-p+u"
<BEGINHMM>
<NUMSTATES> 5
<STATE> 2
~s "ST_p_2_2"
<STATE> 3
~s "ST_p_3_2"
<STATE> 4
~s "ST_p_4_2"
~t "T_p"
<ENDHMM>
~h "t-u"
<BEGINHMM>
<NUMSTATES> 5
<STATE> 2
~s "ST_u_2_3"
<STATE> 3
~s "ST_u_3_1"
<STATE> 4
~s "ST_u_4_1"
~t "T_u"
<ENDHMM>
~h "sil"
<BEGINHMM>
<NUMSTATES> 5
<STATE> 2
~s "ST_sil_2_1"
<STATE> 3
~s "ST_sil_3_1"
<STATE> 4
~s "ST_sil_4_1"
<TRANSP> 5
 0.000000e+00 1.000000e+00 0.000000e+00 0.000000e+00 0.000000e+00
 0.000000e+00 7.985507e-01 4.274976e-02 1.586996e-01 0.000000e+00
 0.000000e+00 0.000000e+00 8.545999e-01 1.454001e-01 0.000000e+00
 0.000000e+00 5.576222e-02 0.000000e+00 3.583560e-01 5.858818e-01
 0.000000e+00 0.000000e+00 0.000000e+00 0.000000e+00 0.000000e+00
<ENDHMM>
~h "p-u+r"
<BEGINHMM>
<NUMSTATES> 5
<STATE> 2
~s "ST_u_2_1"
<STATE> 3
~s "ST_u_3_3"
<STATE> 4
~s "ST_u_4_3"
~t "T_u"
<ENDHMM>
~h "l-a+k"
<BEGINHMM>
<NUMSTATES> 5
<STATE> 2
~s "ST_a_2_2"
<STATE> 3
~s "ST_a_3_2"
<STATE> 4
~s "ST_a_4_2"
~t "T_a"
<ENDHMM>
~h "b-u+k"
<BEGINHMM>
<NUMSTATES> 5
<STATE> 2
~s "ST_u_2_1"
<STATE> 3
~s "ST_u_3_3"
<STATE> 4
~s "ST_u_4_4"
~t "T_u"
<ENDHMM>
~h "r-a+s"
<BEGINHMM>
<NUMSTATES> 5
<STATE> 2
~s "ST_a_2_1"
<STATE> 3
~s "ST_a_3_1"
<STATE> 4
~s "ST_a_4_4"
~t "T_a"
<ENDHMM>
~h "r-u+a"
<BEGINHMM>
<NUMSTATES> 5
<STATE> 2
~s "ST_u_2_2"
<STATE> 3
~s "ST_u_3_1"
<STATE> 4
~s "ST_u_4_3"
~t "T_u"
<ENDHMM>
~h "k-a+n"
<BEGINHMM>
<NUMSTATES> 5
<STATE> 2
~s "ST_a_2_2"
<STATE> 3
~s "ST_a_3_3"
<STATE> 4
~s "ST_a_4_6"
~t "T_a"
<ENDHMM>
