~o
<STREAMINFO> 1 25
<VECSIZE> 25<NULLD><MFCC_D_N_Z_0><DIAGC>
~t "T_@"
<TRANSP> 5
 0.000000e+00 1.000000e+00 0.000000e+00 0.000000e+00 0.000000e+00
 0.000000e+00 4.126642e-01 5.873358e-01 0.000000e+00 0.000000e+00
 0.000000e+00 0.000000e+00 6.095835e-01 3.904165e-01 0.000000e+00
 0.000000e+00 0.000000e+00 0.000000e+00 6.878986e-01 3.121014e-01
 0.000000e+00 0.000000e+00 0.000000e+00 0.000000e+00 0.000000e+00
~t "T_a"
<TRANSP> 5
 0.000000e+00 1.000000e+00 0.000000e+00 0.000000e+00 0.000000e+00
 0.000000e+00 6.176597e-01 3.823403e-01 0.000000e+00 0.000000e+00
 0.000000e+00 0.000000e+00 4.902480e-01 5.097520e-01 0.000000e+00
 0.000000e+00 0.000000e+00 0.000000e+00 6.205534e-01 3.794466e-01
 0.000000e+00 0.000000e+00 0.000000e+00 0.000000e+00 0.000000e+00
~t "T_b"
<TRANSP> 5
 0.000000e+00 1.000000e+00 0.000000e+00 0.000000e+00 0.000000e+00
 0.000000e+00 5.682173e-01 4.317827e-01 0.000000e+00 0.000000e+00
 0.000000e+00 0.000000e+00 5.757359e-01 4.242641e-01 0.000000e+00
 0.000000e+00 0.000000e+00 0.000000e+00 4.390374e-01 5.609626e-01
 0.000000e+00 0.000000e+00 0.000000e+00 0.000000e+00 0.000000e+00
~t "T_c"
<TRANSP> 5
 0.000000e+00 1.000000e+00 0.000000e+00 0.000000e+00 0.000000e+00
 0.000000e+00 7.270018e-01 2.729982e-01 0.000000e+00 0.000000e+00
 0.000000e+00 0.000000e+00 7.611611e-01 2.388389e-01 0.000000e+00
 0.000000e+00 0.000000e+00 0.000000e+00 8.068227e-01 1.931773e-01
 0.000000e+00 0.000000e+00 0.000000e+00 0.000000e+00 0.000000e+00
~t "T_d"
<TRANSP> 5
 0.000000e+00 1.000000e+00 0.000000e+00 0.000000e+00 0.000000e+00
 0.000000e+00 6.221499e-01 3.778501e-01 0.000000e+00 0.000000e+00
 0.000000e+00 0.000000e+00 5.205162e-01 4.794838e-01 0.000000e+00
 0.000000e+00 0.000000e+00 0.000000e+00 6.088621e-01 3.911379e-01
 0.000000e+00 0.000000e+00 0.000000e+00 0.000000e+00 0.000000e+00
~t "T_e"
<TRANSP> 5
 0.000000e+00 1.000000e+00 0.000000e+00 0.000000e+00 0.000000e+00
 0.000000e+00 8.096199e-01 1.903801e-01 0.000000e+00 0.000000e+00
 0.000000e+00 0.000000e+00 7.732693e-01 2.267307e-01 0.000000e+00
 0.000000e+00 0.000000e+00 0.000000e+00 7.935561e-01 2.064439e-01
 0.000000e+00 0.000000e+00 0.000000e+00 0.000000e+00 0.000000e+00
~t "T_g"
<TRANSP> 5
 0.000000e+00 1.000000e+00 0.000000e+00 0.000000e+00 0.000000e+00
 0.000000e+00 7.325076e-01 2.674924e-01 0.000000e+00 0.000000e+00
 0.000000e+00 0.000000e+00 6.048142e-01 3.951859e-01 0.000000e+00
 0.000000e+00 0.000000e+00 0.000000e+00 6.907573e-01 3.092426e-01
 0.000000e+00 0.000000e+00 0.000000e+00 0.000000e+00 0.000000e+00
~t "T_h"
<TRANSP> 5
 0.000000e+00 1.000000e+00 0.000000e+00 0.000000e+00 0.000000e+00
 0.000000e+00 8.784127e-01 1.215873e-01 0.000000e+00 0.000000e+00
 0.000000e+00 0.000000e+00 8.226452e-01 1.773548e-01 0.000000e+00
 0.000000e+00 0.000000e+00 0.000000e+00 6.689906e-01 3.310094e-01
 0.000000e+00 0.000000e+00 0.000000e+00 0.000000e+00 0.000000e+00
~t "T_i"
<TRANSP> 5
 0.000000e+00 1.000000e+00 0.000000e+00 0.000000e+00 0.000000e+00
 0.000000e+00 5.965120e-01 4.034880e-01 0.000000e+00 0.000000e+00
 0.000000e+00 0.000000e+00 7.708594e-01 2.291406e-01 0.000000e+00
 0.000000e+00 0.000000e+00 0.000000e+00 7.326835e-01 2.673165e-01
 0.000000e+00 0.000000e+00 0.000000e+00 0.000000e+00 0.000000e+00
~t "T_j"
<TRANSP> 5
 0.000000e+00 1.000000e+00 0.000000e+00 0.000000e+00 0.000000e+00
 0.000000e+00 7.174036e-01 2.825964e-01 0.000000e+00 0.000000e+00
 0.000000e+00 0.000000e+00 5.145482e-01 4.854518e-01 0.000000e+00
 0.000000e+00 0.000000e+00 0.000000e+00 3.493669e-01 6.506331e-01
 0.000000e+00 0.000000e+00 0.000000e+00 0.000000e+00 0.000000e+00
~t "T_k"
<TRANSP> 5
 0.000000e+00 1.000000e+00 0.000000e+00 0.000000e+00 0.000000e+00
 0.000000e+00 6.528857e-01 3.471143e-01 0.000000e+00 0.000000e+00
 0.000000e+00 0.000000e+00 6.482762e-01 3.517238e-01 0.000000e+00
 0.000000e+00 0.000000e+00 0.000000e+00 5.076811e-01 4.923189e-01
 0.000000e+00 0.000000e+00 0.000000e+00 0.000000e+00 0.000000e+00
~t "T_l"
<TRANSP> 5
 0.000000e+00 1.000000e+00 0.000000e+00 0.000000e+00 0.000000e+00
 0.000000e+00 7.123553e-01 2.876447e-01 0.000000e+00 0.000000e+00
 0.000000e+00 0.000000e+00 6.250615e-01 3.749385e-01 0.000000e+00
 0.000000e+00 0.000000e+00 0.000000e+00 5.327812e-01 4.672188e-01
 0.000000e+00 0.000000e+00 0.000000e+00 0.000000e+00 0.000000e+00
~t "T_m"
<TRANSP> 5
 0.000000e+00 1.000000e+00 0.000000e+00 0.000000e+00 0.000000e+00
 0.000000e+00 7.202652e-01 2.797348e-01 0.000000e+00 0.000000e+00
 0.000000e+00 0.000000e+00 5.242888e-01 4.757112e-01 0.000000e+00
 0.000000e+00 0.000000e+00 0.000000e+00 5.447236e-01 4.552764e-01
 0.000000e+00 0.000000e+00 0.000000e+00 0.000000e+00 0.000000e+00
~t "T_n"
<TRANSP> 5
 0.000000e+00 1.000000e+00 0.000000e+00 0.000000e+00 0.000000e+00
 0.000000e+00 5.985521e-01 4.014479e-01 0.000000e+00 0.000000e+00
 0.000000e+00 0.000000e+00 6.081195e-01 3.918805e-01 0.000000e+00
 0.000000e+00 0.000000e+00 0.000000e+00 4.816223e-01 5.183777e-01
 0.000000e+00 0.000000e+00 0.000000e+00 0.000000e+00 0.000000e+00
~t "T_p"
<TRANSP> 5
 0.000000e+00 1.000000e+00 0.000000e+00 0.000000e+00 0.000000e+00
 0.000000e+00 6.049281e-01 3.950719e-01 0.000000e+00 0.000000e+00
 0.000000e+00 0.000000e+00 6.738976e-01 3.261024e-01 0.000000e+00
 0.000000e+00 0.000000e+00 0.000000e+00 4.437909e-01 5.562091e-01
 0.000000e+00 0.000000e+00 0.000000e+00 0.000000e+00 0.000000e+00
~t "T_r"
<TRANSP> 5
 0.000000e+00 1.000000e+00 0.000000e+00 0.000000e+00 0.000000e+00
 0.000000e+00 6.061608e-01 3.938392e-01 0.000000e+00 0.000000e+00
 0.000000e+00 0.000000e+00 4.929167e-01 5.070833e-01 0.000000e+00
 0.000000e+00 0.000000e+00 0.000000e+00 7.178878e-01 2.821122e-01
 0.000000e+00 0.000000e+00 0.000000e+00 0.000000e+00 0.000000e+00
~t "T_s"
<TRANSP> 5
 0.000000e+00 1.000000e+00 0.000000e+00 0.000000e+00 0.000000e+00
 0.000000e+00 8.652489e-01 1.347511e-01 0.000000e+00 0.000000e+00
 0.000000e+00 0.000000e+00 7.344430e-01 2.655570e-01 0.000000e+00
 0.000000e+00 0.000000e+00 0.000000e+00 5.249960e-01 4.750040e-01
 0.000000e+00 0.000000e+00 0.000000e+00 0.000000e+00 0.000000e+00
~t "T_t"
<TRANSP> 5
 0.000000e+00 1.000000e+00 0.000000e+00 0.000000e+00 0.000000e+00
 0.000000e+00 3.944353e-01 6.055647e-01 0.000000e+00 0.000000e+00
 0.000000e+00 0.000000e+00 4.639012e-01 5.360988e-01 0.000000e+00
 0.000000e+00 0.000000e+00 0.000000e+00 4.151071e-01 5.848929e-01
 0.000000e+00 0.000000e+00 0.000000e+00 0.000000e+00 0.000000e+00
~t "T_u"
<TRANSP> 5
 0.000000e+00 1.000000e+00 0.000000e+00 0.000000e+00 0.000000e+00
 0.000000e+00 6.025412e-01 3.974588e-01 0.000000e+00 0.000000e+00
 0.000000e+00 0.000000e+00 6.249691e-01 3.750309e-01 0.000000e+00
 0.000000e+00 0.000000e+00 0.000000e+00 6.855533e-01 3.144467e-01
 0.000000e+00 0.000000e+00 0.000000e+00 0.000000e+00 0.000000e+00
~t "T_ng"
<TRANSP> 5
 0.000000e+00 1.000000e+00 0.000000e+00 0.000000e+00 0.000000e+00
 0.000000e+00 6.660441e-01 3.339559e-01 0.000000e+00 0.000000e+00
 0.000000e+00 0.000000e+00 7.048557e-01 2.951443e-01 0.000000e+00
 0.000000e+00 0.000000e+00 0.000000e+00 7.019715e-01 2.980285e-01
 0.000000e+00 0.000000e+00 0.000000e+00 0.000000e+00 0.000000e+00
~t "T_ny"
<TRANSP> 5
 0.000000e+00 1.000000e+00 0.000000e+00 0.000000e+00 0.000000e+00
 0.000000e+00 6.184683e-01 3.815317e-01 0.000000e+00 0.000000e+00
 0.000000e+00 0.000000e+00 6.705132e-01 3.294868e-01 0.000000e+00
 0.000000e+00 0.000000e+00 0.000000e+00 7.066724e-01 2.933275e-01
 0.000000e+00 0.000000e+00 0.000000e+00 0.000000e+00 0.000000e+00
~s "ST_s_2_1"
<MEAN> 25
 -1.155806e+01 -9.689036e+00 2.302802e+01 -4.579298e+00 -7.900067e+00 1.621512e+01 1.105655e+00 7.773142e-01 -6.826126e-01 -9.902033e-01 6.027163e+00 2.555182e-01 -1.487990e+00 -1.806785e+00 1.029400e+00 1.026645e-01 -4.925341e-01 4.787744e-01 3.939169e-01 4.229321e-01 -9.632282e-01 -1.849007e-01 1.342623e+00 3.325117e-01 -1.569814e-01
<VARIANCE> 25
 2.048503e+01 2.083586e+01 3.810604e+01 3.791681e+01 2.726163e+01 2.260299e+01 3.915237e+01 5.240955e+01 2.418123e+01 3.240273e+01 4.120860e+01 2.478417e+01 2.228699e+00 2.816900e+00 1.295738e+01 2.732739e+00 2.934355e+00 4.762563e+00 3.600599e+00 2.187187e+00 2.781677e+00 2.584146e+00 3.080250e+00 2.206167e+00 3.451156e-01
<GCONST> 9.985169e+01
~s "ST_s_2_2"
<MEAN> 25
 -9.369658e+00 -1.232930e+01 1.628749e+01 -1.178633e+01 -7.019224e+00 1.687829e+01 -4.032990e+00 3.786519e+00 6.117403e+00 1.000247e-01 6.190662e+00 1.559608e+00 -1.692784e+00 -1.042582e+00 1.290317e+00 -4.987196e-01 -4.562406e-02 8.332706e-01 -6.400710e-01 1.761796e-01 8.737147e-02 -1.539647e-01 2.932837e-01 -2.452905e-01 -4.577692e-01
<VARIANCE> 25
 2.406116e+01 2.760947e+01 4.817906e+01 1.912801e+01 2.290578e+01 3.721840e+01 2.949069e+01 5.575431e+01 2.734874e+01 2.529191e+01 2.600088e+01 2.030328e+01 1.802870e+00 2.188706e+00 8.390955e+00 3.813319e+00 1.703567e+00 2.995852e+00 3.395453e+00 3.216229e+00 2.504416e+00 2.015527e+00 2.101216e+00 1.711060e+00 3.350097e-01
<GCONST> 9.689695e+01
~s "ST_s_3_1"
<MEAN> 25
 -5.863688e+00 -7.373808e+00 1.065003e+01 -1.984377e+00 -2.111676e+00 1.055925e+01 -4.748211e+00 -4.220687e+00 -5.404450e-01 -2.943288e+00 3.989428e+00 1.966332e+00 4.046358e+00 2.997228e+00 -2.366262e+00 3.012217e+00 1.948078e+00 -3.610921e+00 -1.820802e+00 -2.448981e+00 -1.944631e+00 -1.288191e+00 -1.377804e+00 -5.053328e-01 9.964924e-01
<VARIANCE> 25
 5.621027e+01 5.536582e+01 2.859547e+01 3.996365e+01 4.071949e+01 5.229481e+01 8.077800e+01 6.021188e+01 6.798199e+01 4.836325e+01 3.574139e+01 2.832059e+01 1.940142e+00 3.936666e+00 3.432681e+00 4.098159e+00 5.376082e+00 4.535829e+00 4.663301e+00 8.067722e+00 3.079228e+00 3.997360e+00 3.920110e+00 3.390386e+00 1.292880e+00
<GCONST> 1.090551e+02
~s "ST_s_4_1"
<MEAN> 25
 4.541953e+00 -2.472496e+00 5.178975e+00 7.279086e+00 3.262437e+00 -1.155405e+00 -1.011787e+01 -6.949623e+00 -3.641060e+00 -4.638834e+00 -1.143055e-01 -2.147180e+00 9.450473e-01 4.717629e-02 -8.871844e-01 1.736022e+00 7.298557e-01 -2.072290e+00 -1.618006e-01 4.053652e-01 3.645724e-01 5.177672e-01 -9.392117e-01 -1.007867e+00 3.758893e-01
<VARIANCE> 25
 6.606205e+00 3.438144e+01 3.035458e+01 4.911442e+01 7.036167e+01 2.456550e+01 6.952058e+01 5.358831e+01 3.650837e+01 6.215034e+01 3.311041e+01 2.917813e+01 1.347527e+00 3.071481e+00 1.791812e+00 2.785744e+00 2.664872e+00 2.745549e+00 2.592257e+00 3.451517e+00 2.728751e+00 2.520870e+00 2.764416e+00 2.122341e+00 5.756174e-01
<GCONST> 9.931300e+01
~s "ST_i_2_1"
<MEAN> 25
 2.944882e+00 -4.932613e+00 7.181973e+00 1.598439e+01 5.179592e+00 -7.681567e+00 -1.147326e+01 -5.625745e+00 -1.105895e+00 -5.837602e-01 -8.637406e-01 -4.055919e+00 -4.986188e-01 7.122204e-01 6.902701e-01 1.082429e+00 3.324028e-02 -9.192805e-01 1.268087e-01 2.194169e-01 -2.146816e-03 9.034081e-02 -5.037887e-01 -3.164221e-01 -6.375134e-01
<VARIANCE> 25
 1.091217e+01 2.957111e+01 6.636409e+01 4.551538e+01 4.465764e+01 4.083105e+01 4.360165e+01 2.336593e+01 3.145922e+01 2.827823e+01 3.036163e+01 2.705324e+01 1.962071e-01 1.776473e+00 1.185639e+00 2.005641e+00 1.343054e+00 2.088767e+00 1.627620e+00 1.347534e+00 1.501125e+00 1.630829e+00 1.507431e+00 1.062227e+00 5.877735e-01
<GCONST> 9.013728e+01
~s "ST_i_2_2"
<MEAN> 25
 3.712598e+00 -8.992039e+00 5.154065e+00 1.643574e+01 6.232991e+00 -6.217531e+00 -1.446510e+01 -1.159613e+01 -3.641150e+00 -1.284232e+00 -1.963888e+00 -3.616555e+00 4.538343e-01 -9.425093e-01 1.359587e+00 3.205040e+00 6.656637e-01 -2.363110e+00 -1.277776e+00 5.266317e-02 -7.299808e-02 4.479071e-01 -8.326411e-02 -1.329537e+00 7.988331e-01
<VARIANCE> 25
 8.169581e+00 2.447882e+01 4.082961e+01 3.337974e+01 3.953915e+01 4.344792e+01 3.385641e+01 2.235906e+01 2.748988e+01 3.379598e+01 4.186380e+01 3.481794e+01 1.269855e+00 2.946408e+00 2.350756e+00 5.734877e+00 2.787519e+00 5.032916e+00 3.848934e+00 4.019758e+00 2.880115e+00 3.041928e+00 2.458917e+00 3.136092e+00 1.452080e+00
<GCONST> 1.005464e+02
~s "ST_i_3_1"
<MEAN> 25
 1.697629e+00 -8.322074e-01 2.847056e+00 1.160724e+01 3.932933e+00 -6.143516e+00 -6.064122e+00 -4.011885e+00 4.503952e-01 2.884224e+00 -1.737763e+00 -2.822600e+00 -1.322444e+00 1.761882e+00 2.180807e-01 -4.650159e-01 6.744977e-01 5.119410e-01 2.749774e-01 5.951627e-01 7.839841e-01 5.949347e-01 1.632662e-02 2.405410e-01 -1.639665e+00
<VARIANCE> 25
 1.058234e+01 1.724873e+01 2.860830e+01 2.397514e+01 1.912870e+01 3.732268e+01 3.007783e+01 2.845709e+01 3.178050e+01 1.798602e+01 1.619809e+01 1.510819e+01 2.769940e-01 7.585522e-01 1.979466e+00 1.639245e+00 9.818240e-01 2.241364e+00 2.217974e+00 1.280086e+00 1.840995e+00 1.833466e+00 1.492956e+00 1.667575e+00 3.458129e-01
<GCONST> 8.537212e+01
~s "ST_i_3_2"
<MEAN> 25
 -1.108546e+00 -2.484168e+00 9.185606e+00 1.841068e+01 8.476430e+00 -5.925544e+00 -1.327011e+01 -9.496327e+00 -4.673665e-01 9.233580e-01 -2.399113e+00 -2.492493e+00 -1.349187e+00 2.350878e+00 -2.819684e-01 -7.910830e-01 8.714106e-01 5.600718e-01 9.420522e-01 6.307630e-01 5.191005e-01 1.366663e+00 5.382941e-01 2.641878e-01 -1.949910e+00
<VARIANCE> 25
 8.847870e+00 3.865836e+01 1.603048e+01 2.136246e+01 3.727094e+01 4.298362e+01 3.373303e+01 2.400177e+01 2.133134e+01 2.522836e+01 2.874207e+01 2.453020e+01 4.980531e-01 1.148989e+00 1.479914e+00 1.695664e+00 1.544942e+00 2.696766e+00 2.380991e+00 1.781390e+00 2.105757e+00 2.520185e+00 2.164080e+00 2.406277e+00 5.538326e-01
<GCONST> 9.050208e+01
~s "ST_i_3_3"
<MEAN> 25
 4.889725e+00 -9.727992e+00 5.087744e+00 1.451877e+01 6.437333e+00 -5.575394e+00 -1.387152e+01 -9.992947e+00 -2.118025e+00 1.872564e+00 2.228129e-01 -5.601137e+00 1.462419e-01 1.112823e+00 -3.626521e-01 -1.409855e+00 6.300708e-02 8.798078e-01 5.470693e-01 3.115203e-01 1.429930e-01 1.889026e-01 5.673701e-01 5.229486e-01 -2.811516e-01
<VARIANCE> 25
 6.374425e+00 2.968772e+01 2.223308e+01 2.130572e+01 3.168314e+01 5.131947e+01 2.478489e+01 3.129929e+01 2.526644e+01 3.552882e+01 3.067645e+01 2.443757e+01 2.006020e-01 1.485799e+00 1.159745e+00 1.476174e+00 1.296687e+00 2.529386e+00 1.905907e+00 2.787037e+00 2.253257e+00 1.860490e+00 1.439053e+00 1.091955e+00 3.330044e-01
<GCONST> 8.778809e+01
~s "ST_i_3_4"
<MEAN> 25
 -2.054137e+00 1.105631e-01 1.403942e+01 2.112893e+01 8.107021e+00 -7.230410e+00 -1.359591e+01 -6.571683e+00 2.256085e+00 7.896152e-01 -4.599456e+00 -6.378839e+00 -5.048522e-01 1.046283e+00 -4.365599e-01 -6.733047e-01 -1.063080e-01 7.775259e-02 8.861069e-01 2.432209e-01 1.019425e-01 5.688253e-01 -1.657475e-01 8.331786e-03 -8.451391e-01
<VARIANCE> 25
 9.116899e+00 2.084463e+01 3.588469e+01 2.039721e+01 3.898022e+01 4.536842e+01 4.892489e+01 2.416259e+01 3.594817e+01 2.001934e+01 3.550223e+01 2.085963e+01 1.646204e-01 7.043551e-01 1.268370e+00 1.640860e+00 1.083742e+00 1.398630e+00 1.429608e+00 8.519030e-01 8.960495e-01 1.267350e+00 1.147751e+00 7.415759e-01 3.029977e-01
<GCONST> 8.349239e+01
~s "ST_i_4_1"
<MEAN> 25
 -6.633254e+00 6.519593e+00 4.588537e+00 7.848888e+00 6.296104e+00 -2.713755e+00 -3.262921e+00 -1.556634e+00 3.110036e+00 5.798807e+00 -6.155771e-01 -1.831558e+00 -9.828024e-01 1.162917e-01 -7.846934e-01 -1.611375e+00 -2.786862e-01 8.457918e-01 9.308393e-01 6.198899e-01 2.997018e-01 2.723362e-01 4.128203e-01 4.797082e-01 -7.932435e-01
<VARIANCE> 25
 1.331714e+01 1.195951e+01 2.908361e+01 3.563860e+01 1.760893e+01 4.383699e+01 4.839856e+01 2.633045e+01 2.498532e+01 2.163738e+01 2.346358e+01 2.285852e+01 2.074385e-01 1.362513e+00 1.117500e+00 1.338150e+00 1.625078e+00 2.610842e+00 2.836230e+00 2.313841e+00 2.038434e+00 1.843789e+00 1.881688e+00 1.085439e+00 2.166070e-01
<GCONST> 8.731156e+01
~s "ST_i_4_2"
<MEAN> 25
 -6.268003e+00 2.554801e+00 6.135972e+00 1.119358e+01 8.447437e+00 -3.711368e+00 -1.137654e+01 -8.080264e+00 9.323469e-01 3.593472e+00 -5.641287e-01 -7.921394e-01 -8.173488e-01 -1.054713e+00 -9.253786e-01 -2.626948e+00 -8.115273e-01 1.964409e+00 3.297059e-01 -3.510413e-01 2.095204e-01 4.285651e-01 8.864665e-01 4.676778e-01 -1.661847e-01
<VARIANCE> 25
 1.029181e+01 3.256999e+01 1.235502e+01 3.118700e+01 2.053353e+01 4.553942e+01 3.245495e+01 1.833549e+01 2.298277e+01 2.741522e+01 1.434368e+01 2.408564e+01 4.121126e-01 4.126452e+00 2.301591e+00 2.225946e+00 2.418304e+00 3.287949e+00 3.007387e+00 1.874495e+00 2.537820e+00 1.967763e+00 2.467547e+00 1.359331e+00 1.000329e+00
<GCONST> 9.202204e+01
~s "ST_i_4_3"
<MEAN> 25
 2.386924e+00 -2.812392e+00 4.217479e+00 9.976255e+00 6.934386e+00 -1.084140e+00 -9.226512e+00 -8.476768e+00 -7.880261e-01 4.340898e+00 1.611811e+00 -3.305946e+00 2.138600e-02 9.504472e-01 -1.133307e+00 -1.924929e+00 -4.182204e-01 1.647169e+00 2.169199e+00 7.973937e-01 -1.026211e-01 -3.449465e-01 3.386650e-02 1.161401e+00 -4.870041e-01
<VARIANCE> 25
 3.043290e+01 6.781326e+01 2.642390e+01 3.156636e+01 4.205970e+01 4.611137e+01 3.038459e+01 3.033367e+01 3.028625e+01 3.905349e+01 1.934051e+01 2.717272e+01 5.637668e-01 2.536030e+00 2.433175e+00 1.554231e+00 2.383910e+00 2.042058e+00 2.516740e+00 2.933508e+00 2.271955e+00 2.863991e+00 2.639495e+00 2.824354e+00 7.043558e-01
<GCONST> 9.684275e+01
~s "ST_l_2_1"
<MEAN> 25
 5.784591e+00 -2.464023e+00 -4.675426e+00 -4.165288e+00 -5.442429e+00 -2.698217e+00 4.892785e+00 3.597741e+00 -4.607852e+00 -3.900613e+00 6.855810e-01 -8.381596e-01 4.635487e-01 -1.330396e+00 -9.840462e-01 -7.719939e-01 -1.537594e+00 -4.087108e-01 1.884416e+00 9.779157e-01 -2.420402e-01 4.017031e-01 1.159481e+00 3.734590e-01 7.608562e-01
<VARIANCE> 25
 4.548569e+00 1.429722e+01 1.631534e+01 2.420637e+01 2.367937e+01 3.500446e+01 2.885061e+01 4.270390e+01 3.788665e+01 2.914948e+01 3.431611e+01 3.126956e+01 9.454343e-02 1.676167e+00 8.305190e-01 1.192530e+00 2.207091e+00 1.797766e+00 2.036782e+00 2.459989e+00 2.248482e+00 2.459104e+00 2.453891e+00 2.053729e+00 2.969240e-01
<GCONST> 8.717336e+01
~s "ST_l_2_2"
<MEAN> 25
 7.600420e+00 -4.541914e+00 -5.665812e+00 -5.639433e-01 -3.884028e+00 -4.561618e+00 3.449386e+00 1.544781e+00 -3.501657e+00 -2.679869e+00 -1.759766e-01 2.095252e+00 1.606366e-01 -9.925330e-02 -3.080490e-01 -4.460666e-01 -6.415733e-01 -1.317372e-01 9.667114e-01 5.326794e-01 8.180127e-02 -3.118277e-02 -2.244855e-01 -6.313938e-03 1.463157e-01
<VARIANCE> 25
 5.447711e+00 1.319236e+01 1.105293e+01 1.576286e+01 1.775669e+01 3.444585e+01 3.288056e+01 4.268964e+01 3.063096e+01 4.339487e+01 4.213249e+01 2.850983e+01 1.103181e-01 9.562702e-01 6.385477e-01 1.190499e+00 1.275230e+00 1.438212e+00 1.376770e+00 1.500668e+00 1.337654e+00 2.336302e+00 2.571837e+00 1.101162e+00 1.891564e-01
<GCONST> 8.265269e+01
~s "ST_l_3_1"
<MEAN> 25
 6.847999e+00 -8.446003e+00 -5.949872e+00 -6.095987e+00 -8.760695e+00 7.331480e-01 8.770171e+00 2.915962e+00 -6.496240e-01 -1.352594e+00 4.256636e-01 2.812962e+00 -9.264987e-02 -1.618702e+00 1.305917e-01 -3.945085e-01 -4.395352e-01 1.084105e+00 5.303416e-01 -1.563662e-02 6.341379e-01 6.489462e-02 3.121560e-02 1.897446e-01 6.993613e-01
<VARIANCE> 25
 5.637938e+00 2.775423e+01 1.501891e+01 2.639163e+01 3.675364e+01 5.127797e+01 2.718203e+01 4.290988e+01 4.153062e+01 4.102357e+01 3.317254e+01 3.459190e+01 1.415883e-01 1.633699e+00 9.479201e-01 1.751934e+00 2.403325e+00 2.139250e+00 2.419518e+00 2.189429e+00 2.477505e+00 2.686229e+00 2.194433e+00 1.601945e+00 3.328231e-01
<GCONST> 9.047143e+01
~s "ST_l_4_1"
<MEAN> 25
 6.659329e+00 -1.045235e+01 -5.641951e+00 -5.093046e+00 -8.450898e+00 2.228046e-01 8.468566e+00 3.946322e+00 -4.992630e-02 -1.721503e+00 3.793510e-01 2.102532e+00 -6.920626e-02 4.616591e-01 5.527488e-02 1.174295e-01 4.693255e-02 -3.532701e-01 -3.486443e-01 3.086322e-01 2.789066e-01 -1.245392e-03 -2.541448e-01 -2.020454e-01 -2.951640e-01
<VARIANCE> 25
 4.262185e+00 2.113918e+01 1.306826e+01 1.424591e+01 3.700752e+01 3.514096e+01 2.551855e+01 5.142904e+01 3.360179e+01 4.215367e+01 3.029509e+01 2.509685e+01 1.100463e-01 7.802104e-01 5.621898e-01 8.689346e-01 1.022416e+00 1.723474e+00 1.041060e+00 1.466061e+00 1.211685e+00 1.269612e+00 1.290358e+00 1.243944e+00 1.244161e-01
<GCONST> 8.055190e+01
~s "ST_b_2_1"
<MEAN> 25
 -9.628054e+00 2.450707e+00 -1.322846e+00 -1.815088e+00 3.262664e+00 5.297982e+00 7.342376e+00 6.854105e+00 3.405731e+00 -2.471638e-01 -2.581177e+00 -6.914897e-01 3.137130e+00 2.087881e+00 1.845877e+00 7.917669e-01 -1.129661e-01 4.199008e-02 -5.790392e-01 -5.761816e-01 -1.098903e+00 -1.734233e+00 -7.525599e-01 -2.400011e-01 1.858929e+00
<VARIANCE> 25
 2.130216e+01 1.151519e+02 2.332240e+01 2.571096e+01 6.231551e+01 2.525673e+01 3.488455e+01 3.793784e+01 2.255430e+01 5.189004e+01 2.964925e+01 2.172426e+01 1.971931e+00 9.360471e+00 2.381222e+00 1.884791e+00 3.162652e+00 4.153697e+00 2.458593e+00 1.518186e+00 1.073841e+00 2.824836e+00 1.314380e+00 2.006288e+00 8.929933e-01
<GCONST> 9.850618e+01
~s "ST_b_3_1"
<MEAN> 25
 -9.879445e-02 1.491162e+01 7.132835e+00 3.209805e+00 5.758809e+00 3.028464e+00 2.199820e+00 3.289817e+00 8.682254e-01 -1.861434e+00 -2.483559e+00 -1.323410e+00 2.396073e+00 8.528543e-01 1.180798e+00 -7.401624e-02 -1.374098e+00 -8.029801e-01 -1.618509e+00 -1.365117e+00 -6.016810e-01 -1.064788e+00 -6.459713e-01 -7.399704e-01 1.671925e+00
<VARIANCE> 25
 7.869074e+00 4.139868e+01 1.736702e+01 2.571822e+01 3.576794e+01 2.720960e+01 1.924207e+01 3.202421e+01 1.451225e+01 2.575861e+01 2.405996e+01 1.199170e+01 2.175967e+00 1.086646e+01 2.801573e+00 2.625315e+00 2.632432e+00 4.878152e+00 2.296165e+00 1.723091e+00 2.299245e+00 3.220704e+00 1.833452e+00 1.734461e+00 1.050912e+00
<GCONST> 9.502294e+01
~s "ST_b_4_1"
<MEAN> 25
 4.187117e+00 1.315586e+01 6.494496e+00 -2.061803e+00 -2.403511e+00 -1.335444e+00 -1.891116e+00 1.286924e+00 3.034500e-01 -5.709133e+00 -5.389872e+00 -4.963850e+00 1.265856e+00 8.104593e-01 2.688420e-01 -1.182029e+00 -2.648329e+00 -3.057203e+00 -9.099636e-01 1.067407e+00 3.059940e-01 -3.515983e-01 -3.145369e-01 -1.714823e+00 7.879056e-01
<VARIANCE> 25
 7.732555e+00 2.724310e+01 1.577762e+01 1.779335e+01 2.595798e+01 3.270423e+01 3.168945e+01 2.822627e+01 2.657917e+01 3.404114e+01 2.195250e+01 1.844345e+01 1.487350e+00 3.783337e+00 1.464329e+00 4.595339e+00 3.789316e+00 3.131025e+00 6.672998e+00 3.257819e+00 3.369792e+00 3.016391e+00 1.808957e+00 1.855574e+00 6.702906e-01
<GCONST> 9.560262e+01
~s "ST_e_2_1"
<MEAN> 25
 5.998470e+00 -6.602805e+00 1.473488e+00 9.211887e+00 2.452358e+00 -4.818806e+00 -9.766488e+00 -1.127814e+01 -4.864089e+00 -3.865527e-01 2.066034e+00 2.015704e+00 -6.019597e-02 1.852652e-01 -2.236127e-01 3.250316e-01 1.260009e-01 -3.414695e-01 1.301303e-01 1.500605e-01 7.185717e-02 2.970189e-01 -1.055462e-01 -1.372782e-01 -2.135574e-01
<VARIANCE> 25
 3.728224e+00 1.421908e+01 1.444716e+01 1.267105e+01 2.964592e+01 1.611127e+01 3.023240e+01 2.836875e+01 2.240624e+01 4.084978e+01 1.963385e+01 2.533172e+01 9.045441e-02 3.468364e-01 5.591706e-01 1.221410e+00 8.127503e-01 1.308535e+00 9.476086e-01 8.971639e-01 7.464487e-01 9.805160e-01 8.741493e-01 7.789859e-01 9.463152e-02
<GCONST> 7.408086e+01
~s "ST_e_3_1"
<MEAN> 25
 3.194022e+00 -1.233021e+00 1.398372e-01 1.139815e+01 7.247465e+00 -5.940037e+00 -1.208103e+01 -1.130308e+01 -2.915660e+00 4.727966e+00 2.310578e+00 -1.399558e+00 -8.431102e-01 1.458336e+00 1.078254e-01 6.365595e-02 4.105846e-01 -2.526436e-01 2.889499e-01 1.442758e-01 4.308538e-01 1.020587e+00 7.838411e-02 -3.701561e-02 -1.203245e+00
<VARIANCE> 25
 9.683068e+00 3.091605e+01 1.891347e+01 2.195345e+01 4.130956e+01 2.321082e+01 3.027800e+01 3.862674e+01 2.983391e+01 5.042726e+01 1.812174e+01 2.163851e+01 4.036419e-01 7.880339e-01 8.855307e-01 1.302293e+00 1.143260e+00 1.323467e+00 2.135202e+00 1.824131e+00 1.527516e+00 2.481966e+00 1.200930e+00 1.073971e+00 4.254452e-01
<GCONST> 8.639868e+01
~s "ST_e_4_1"
<MEAN> 25
 -4.175745e+00 5.468993e+00 3.726213e-01 6.939828e+00 7.709291e+00 -4.652414e+00 -7.485550e+00 -5.555312e+00 2.233895e+00 8.546387e+00 2.914981e+00 -7.373450e-02 -9.662421e-01 3.719600e-01 -2.631079e-01 -1.186978e+00 -4.015785e-01 5.546595e-01 1.300505e+00 1.389732e+00 5.956176e-01 -3.816974e-01 -4.628563e-01 1.643223e-01 -8.403469e-01
<VARIANCE> 25
 2.799722e+01 3.542591e+01 2.424322e+01 3.342724e+01 3.197980e+01 3.136439e+01 4.282875e+01 4.940466e+01 4.151500e+01 5.631636e+01 3.273588e+01 1.888524e+01 3.248350e-01 1.121605e+00 7.895089e-01 1.480272e+00 2.058650e+00 1.783914e+00 2.298356e+00 1.816845e+00 1.957959e+00 2.629975e+00 2.271180e+00 1.215605e+00 2.399192e-01
<GCONST> 9.139923e+01
~s "ST_r_2_1"
<MEAN> 25
 5.898282e+00 -2.493289e-01 -5.733875e+00 -2.817042e+00 2.064853e+00 1.327876e+00 -2.599267e+00 -2.497195e+00 -1.979116e+00 -5.500904e+00 -1.479482e+00 4.974161e+00 5.423706e-01 2.141168e-01 -9.594735e-01 -7.295186e-01 2.469204e-01 -1.518735e-01 -3.445931e-01 4.193121e-01 2.074965e-01 -6.888639e-01 2.555633e-02 6.024264e-01 2.213535e-01
<VARIANCE> 25
 1.674692e+01 4.080349e+01 2.569744e+01 3.389055e+01 2.886451e+01 5.025321e+01 3.582729e+01 3.429406e+01 3.234421e+01 3.263612e+01 3.825167e+01 3.115408e+01 6.969494e-01 1.845738e+00 1.647644e+00 1.687242e+00 1.673226e+00 3.526397e+00 3.248526e+00 3.651304e+00 3.297788e+00 2.803523e+00 3.059869e+00 2.224013e+00 7.144784e-01
<GCONST> 9.700999e+01
~s "ST_r_3_1"
<MEAN> 25
 3.310315e+00 3.371880e+00 -4.408144e+00 -5.044810e+00 2.345339e+00 4.792676e+00 -1.185417e+00 -2.848776e+00 -1.731978e+00 -5.283768e+00 -3.038285e+00 4.038252e+00 -6.128082e-01 1.099753e+00 6.323633e-01 2.833925e-01 5.473936e-01 6.882650e-02 2.562879e-01 1.766395e-01 -2.227347e-01 2.776829e-01 -3.350639e-01 -8.131852e-01 -7.828966e-01
<VARIANCE> 25
 1.270289e+01 2.285513e+01 1.926970e+01 2.272330e+01 1.896292e+01 3.285370e+01 2.669983e+01 3.611100e+01 3.466137e+01 2.425274e+01 2.411820e+01 2.665619e+01 3.973737e-01 1.706857e+00 1.577036e+00 1.130637e+00 1.171598e+00 1.878229e+00 2.058246e+00 1.503595e+00 1.497085e+00 1.697286e+00 2.524312e+00 2.694314e+00 2.895634e-01
<GCONST> 8.792462e+01
~s "ST_r_3_2"
<MEAN> 25
 9.615251e+00 1.228067e-01 -1.063987e+01 -5.734164e+00 3.629114e+00 -2.908908e-01 -3.909856e+00 -2.158212e+00 6.845332e-01 -4.277274e+00 -2.878921e+00 4.793829e+00 -2.561711e-02 -6.298570e-01 8.958585e-02 2.639792e-01 -3.571917e-01 -3.339740e-01 5.062431e-01 4.308094e-01 1.868846e-01 7.050208e-01 4.066005e-01 -3.957711e-01 2.523270e-01
<VARIANCE> 25
 8.144426e+00 4.537332e+01 2.703169e+01 1.830993e+01 2.919197e+01 3.484955e+01 3.411527e+01 4.477373e+01 6.620939e+01 2.878428e+01 7.615751e+01 5.828815e+01 3.005027e-01 1.236944e+00 1.582148e+00 1.841601e+00 1.869360e+00 4.130961e+00 3.561101e+00 2.304678e+00 2.720972e+00 2.683349e+00 2.125535e+00 2.686035e+00 3.267123e-01
<GCONST> 9.511115e+01
~s "ST_r_4_1"
<MEAN> 25
 -5.024136e+00 5.333051e+00 -1.011330e+00 -1.890666e+00 4.766786e+00 4.083370e+00 1.326410e-01 -2.537377e+00 -2.129032e+00 4.407715e-02 3.840234e-01 3.394020e+00 -1.394222e+00 1.903006e-01 4.601643e-01 1.867201e-01 1.564189e-02 -3.155780e-01 1.880629e-01 4.601511e-01 6.787258e-01 1.100255e+00 4.400328e-01 -2.108889e-01 -1.027813e+00
<VARIANCE> 25
 2.283124e+01 2.157833e+01 1.304465e+01 1.927897e+01 2.393288e+01 3.652311e+01 2.770941e+01 2.246225e+01 4.402694e+01 3.208372e+01 3.076690e+01 2.015935e+01 3.497764e-01 1.302602e+00 1.501487e+00 1.478045e+00 1.775346e+00 2.255925e+00 2.345008e+00 2.051661e+00 1.994015e+00 2.238078e+00 1.630842e+00 1.713749e+00 2.649192e-01
<GCONST> 8.872900e+01
~s "ST_r_4_2"
<MEAN> 25
 8.606239e+00 -2.284710e+00 -8.099527e+00 -3.983193e+00 1.303203e-01 -3.937998e+00 -1.588452e+00 1.668532e+00 -4.985584e-01 -3.148782e+00 1.095130e+00 3.205610e+00 -3.219845e-01 -7.318276e-01 7.214829e-01 5.080536e-01 -7.891604e-01 -4.982983e-01 1.089365e+00 5.769570e-01 -5.171083e-03 9.443977e-01 9.437449e-02 -9.328748e-01 1.787632e-01
<VARIANCE> 25
 9.853349e+00 7.803590e+01 4.383079e+01 2.250746e+01 3.106116e+01 2.986353e+01 7.550809e+01 4.281397e+01 3.623481e+01 4.130936e+01 7.707092e+01 3.318211e+01 2.417988e-01 1.200417e+00 1.121591e+00 1.525210e+00 1.052306e+00 3.760048e+00 2.369932e+00 3.128744e+00 1.805743e+00 3.018073e+00 1.240075e+00 2.189350e+00 3.444393e-01
<GCONST> 9.386501e+01
~s "ST_ny_2_1"
<MEAN> 25
 -1.024125e+01 6.202900e+00 6.851636e+00 4.367328e+00 6.280192e+00 4.148901e+00 -1.510936e-02 -5.184591e-02 2.931368e+00 3.610545e+00 -5.051940e-01 -1.791244e+00 3.388083e+00 1.110494e+00 2.734697e+00 1.811062e+00 -7.919717e-01 -2.177220e-01 -1.119132e+00 -2.008705e+00 -1.224376e+00 -1.218765e+00 -6.233827e-01 -1.020443e-02 2.483331e+00
<VARIANCE> 25
 3.886699e+01 5.101340e+01 2.399627e+01 1.762370e+01 2.564146e+01 3.222902e+01 2.070872e+01 3.343593e+01 1.898213e+01 2.597987e+01 2.425007e+01 1.748411e+01 2.397085e+00 3.963227e+00 2.763079e+00 1.885034e+00 2.492949e+00 4.577139e+00 2.678495e+00 3.558910e+00 2.235349e+00 2.521316e+00 3.901685e+00 2.627391e+00 1.234113e+00
<GCONST> 9.795187e+01
~s "ST_ny_3_1"
<MEAN> 25
 6.324184e-02 1.540798e+00 1.102372e+01 1.152042e+01 2.270196e+00 -7.919768e-01 -6.745698e+00 -8.496084e+00 -2.633944e-01 3.058278e+00 -2.401046e-02 -1.345525e+00 2.509033e+00 -4.186695e+00 -1.844027e+00 8.644251e-01 -9.767162e-01 -9.948596e-01 -5.120693e-01 -9.501792e-01 -5.956475e-01 8.891919e-01 1.689171e+00 3.844353e-01 3.060435e+00
<VARIANCE> 25
 1.019724e+01 7.189429e+01 3.548393e+01 4.124966e+01 2.020237e+01 5.230273e+01 3.559845e+01 2.956074e+01 2.909824e+01 3.632963e+01 4.342488e+01 3.053106e+01 3.022732e+00 3.744905e+00 7.442393e+00 4.929592e+00 2.475236e+00 6.281271e+00 5.566718e+00 6.671021e+00 4.328305e+00 4.844294e+00 3.910950e+00 3.316364e+00 1.332717e+00
<GCONST> 1.061880e+02
~s "ST_ny_4_1"
<MEAN> 25
 5.364569e+00 -1.158447e+01 -1.582000e+00 6.956769e+00 -2.151984e-01 1.809166e-01 2.639378e-01 -4.783870e+00 -1.817830e+00 5.378791e+00 4.979178e+00 -9.027602e-02 9.115559e-01 -1.471149e+00 -2.514338e+00 -2.415877e+00 -7.327508e-01 1.175246e+00 2.517811e+00 1.221032e+00 -5.597149e-01 -4.582191e-01 3.168052e-01 5.234354e-01 1.031960e+00
<VARIANCE> 25
 6.027681e+00 1.997583e+01 1.561643e+01 2.648207e+01 1.234756e+01 2.760866e+01 3.903917e+01 2.025795e+01 3.941993e+01 3.704953e+01 4.572151e+01 3.798650e+01 4.120848e-01 2.359690e+00 2.209598e+00 2.086591e+00 1.469079e+00 2.434538e+00 2.738185e+00 1.916892e+00 3.163251e+00 1.455398e+00 2.430042e+00 1.489172e+00 5.411628e-01
<GCONST> 9.064535e+01
~s "ST_h_2_1"
<MEAN> 25
 4.867938e+00 1.401007e+01 3.840841e+00 -2.699001e+00 -7.452481e+00 -9.861589e+00 1.223029e+00 5.447019e+00 1.154768e+00 -2.119377e+00 -5.260386e+00 -6.858408e+00 5.257878e-01 -4.371217e-02 -3.999219e-01 -2.965682e-01 -6.269243e-01 -1.522335e+00 -8.155477e-01 4.340585e-01 4.479407e-01 -2.395290e-01 -3.759801e-01 -2.049315e-01 3.901182e-01
<VARIANCE> 25
 5.384923e+00 1.538620e+01 2.135183e+01 1.553795e+01 4.395572e+01 4.622059e+01 4.390872e+01 2.334284e+01 2.704870e+01 1.901111e+01 2.318075e+01 1.205188e+01 3.451060e-01 1.674736e+00 8.995454e-01 1.146003e+00 1.395936e+00 2.261103e+00 3.448246e+00 1.341578e+00 1.090793e+00 1.876212e+00 1.499956e+00 1.732558e+00 1.427780e-01
<GCONST> 8.448067e+01
~s "ST_h_3_1"
<MEAN> 25
 6.935684e+00 5.723411e+00 -4.031175e+00 -4.928095e+00 -1.157714e+01 -1.368995e+01 4.441191e+00 8.814825e+00 -1.108396e+00 -6.632953e+00 -6.586394e+00 -2.525470e+00 6.352806e-02 -2.316659e+00 -1.655809e+00 -4.267631e-01 -3.936036e-01 1.239998e+00 1.721669e+00 -4.225574e-01 -6.039484e-01 2.988286e-01 3.366281e-01 1.287057e+00 6.270548e-01
<VARIANCE> 25
 6.006422e+00 2.782438e+01 3.124247e+01 2.001205e+01 3.923293e+01 4.200545e+01 6.085824e+01 3.566462e+01 2.866494e+01 4.636137e+01 3.939370e+01 2.476555e+01 4.932225e-01 3.666254e+00 1.315788e+00 1.643129e+00 2.067562e+00 5.586188e+00 5.507401e+00 3.537459e+00 2.565244e+00 4.873594e+00 3.272780e+00 1.837126e+00 1.275702e+00
<GCONST> 9.801180e+01
~s "ST_h_4_1"
<MEAN> 25
 6.459931e+00 -7.115942e+00 -9.831247e+00 -6.394030e+00 -1.157701e+01 -1.943489e+00 1.158024e+01 3.841837e+00 1.510302e+00 -1.110994e+00 -5.455030e+00 1.246486e+00 -1.217190e-02 -1.460915e+00 -5.314282e-01 3.677389e-01 1.188560e+00 1.842470e+00 -1.624541e-01 -1.222998e+00 9.145659e-01 9.360785e-01 2.313714e-01 2.491163e-01 4.614542e-01
<VARIANCE> 25
 4.380718e+00 2.003683e+01 1.655882e+01 1.924417e+01 2.141965e+01 2.621021e+01 2.501704e+01 2.316360e+01 2.879098e+01 2.770697e+01 2.076436e+01 1.140864e+01 3.380782e-01 1.613216e+00 1.781858e+00 8.496478e-01 2.867355e+00 1.557905e+00 1.633848e+00 1.584235e+00 1.057059e+00 9.904354e-01 2.046669e+00 1.640041e+00 3.982642e-01
<GCONST> 8.362022e+01
~s "ST_u_2_1"
<MEAN> 25
 4.495703e+00 6.491195e+00 4.646452e+00 -1.291247e+00 -6.528211e+00 -6.002006e+00 -7.903989e-01 2.414602e+00 -1.528015e+00 -6.219284e+00 -4.738212e+00 -3.613192e+00 -3.149987e-01 4.135354e-01 -3.856366e-01 -2.180293e-01 6.973954e-01 6.982599e-01 1.000186e-01 -2.334516e-01 4.118274e-01 7.807463e-01 8.613230e-02 2.107693e-02 -4.592523e-01
<VARIANCE> 25
 8.334842e+00 5.471455e+01 4.775246e+01 2.043591e+01 5.305139e+01 5.477398e+01 6.704567e+01 4.045703e+01 5.610756e+01 5.717569e+01 3.760377e+01 3.150731e+01 3.872075e-01 1.422721e+00 1.696319e+00 1.465232e+00 3.313926e+00 5.597067e+00 3.071498e+00 3.108083e+00 2.420551e+00 1.679603e+00 1.741354e+00 2.640789e+00 3.806450e-01
<GCONST> 9.743683e+01
~s "ST_u_2_2"
<MEAN> 25
 4.181710e+00 8.086381e+00 3.817701e+00 4.242156e-02 -2.353145e+00 -9.012234e+00 -7.843720e+00 2.314056e-01 9.602784e-01 -2.696991e+00 -3.279590e+00 -1.250749e+00 -1.174786e-03 -5.164251e-01 -3.461681e-02 1.015543e-01 -8.635891e-01 -5.577518e-01 6.935806e-01 3.613253e-01 -4.474049e-02 4.099751e-01 2.921661e-01 -1.376500e-01 1.539084e-01
<VARIANCE> 25
 4.657538e+00 2.036751e+01 2.052377e+01 1.802993e+01 4.200568e+01 3.684556e+01 5.982333e+01 2.667383e+01 4.912557e+01 3.606818e+01 5.704583e+01 2.497712e+01 2.587494e-01 2.619734e+00 9.429852e-01 9.484031e-01 2.134783e+00 2.481215e+00 4.225217e+00 1.937715e+00 1.533421e+00 1.392869e+00 1.322522e+00 1.479108e+00 5.614041e-01
<GCONST> 8.999590e+01
~s "ST_u_2_3"
<MEAN> 25
 7.395463e+00 1.537425e+00 2.024733e+00 -2.490860e+00 -8.382504e+00 -5.840193e+00 4.310541e-01 4.051144e+00 -4.831989e-01 -7.637979e+00 -6.163713e+00 -4.002690e+00 -1.777443e-01 1.087760e+00 8.453890e-02 7.135070e-03 -2.005744e-01 -1.003988e+00 -3.126971e-01 5.141256e-01 1.018022e+00 1.286197e+00 -6.240328e-02 -9.494427e-01 -5.640374e-01
<VARIANCE> 25
 2.586148e+00 2.430646e+01 2.167533e+01 1.065160e+01 3.059542e+01 2.058839e+01 6.203942e+01 3.319419e+01 4.119793e+01 3.280894e+01 2.082833e+01 1.872279e+01 1.312695e-01 6.216829e-01 5.244427e-01 9.839423e-01 9.808887e-01 1.359468e+00 1.661947e+00 2.450313e+00 1.260368e+00 1.087561e+00 1.147179e+00 1.923699e+00 1.462713e-01
<GCONST> 8.048977e+01
~s "ST_u_2_4"
<MEAN> 25
 8.397315e+00 -2.130717e+00 1.032495e+00 -1.609608e+00 -1.028140e+01 -5.498771e+00 6.401289e+00 4.268316e+00 -6.296533e+00 -1.086700e+01 -5.441867e+00 -9.017594e-01 -8.304708e-02 9.604770e-01 -2.445395e-01 2.174987e-01 5.322524e-01 -7.394403e-01 3.911559e-02 1.156587e+00 7.745409e-01 3.630542e-01 -2.012791e-01 -5.604615e-01 -5.186409e-01
<VARIANCE> 25
 8.608191e+00 3.058404e+01 1.389097e+01 2.697008e+01 4.338778e+01 4.225955e+01 4.398377e+01 2.821285e+01 2.741813e+01 2.635767e+01 3.840075e+01 2.158573e+01 4.533101e-01 1.561713e+00 8.590339e-01 9.877911e-01 1.457222e+00 2.622029e+00 1.888483e+00 2.341347e+00 1.620319e+00 1.760170e+00 1.688062e+00 1.372117e+00 6.928543e-01
<GCONST> 8.922514e+01
~s "ST_u_3_1"
<MEAN> 25
 4.810090e+00 5.305507e+00 -4.073164e-01 -2.801160e+00 -5.726544e+00 -3.938580e+00 3.519456e+00 3.149035e+00 -1.113482e+00 -3.942849e+00 -5.286655e+00 -2.877552e+00 -7.989328e-01 6.971252e-01 -1.348791e-01 -2.165725e-01 1.139065e+00 8.604271e-01 -3.331595e-01 -4.308527e-01 6.830435e-01 1.366599e+00 7.457225e-01 3.784476e-01 -8.752169e-01
<VARIANCE> 25
 9.172862e+00 4.337724e+01 2.942344e+01 1.813096e+01 4.211723e+01 4.074186e+01 3.807132e+01 2.857734e+01 4.558232e+01 4.109564e+01 2.200648e+01 2.453032e+01 3.958181e-01 1.788777e+00 1.540324e+00 1.385596e+00 2.219342e+00 2.154397e+00 2.993735e+00 2.265176e+00 2.569849e+00 2.148551e+00 1.439999e+00 1.690713e+00 5.753688e-01
<GCONST> 9.241642e+01
~s "ST_u_3_2"
<MEAN> 25
 4.184669e+00 5.856308e+00 1.490332e+00 -1.267139e+00 -5.086570e+00 -3.150236e+00 5.845225e+00 4.717690e+00 -3.490809e+00 -7.161891e+00 -5.791006e+00 -1.437410e+00 -1.581870e+00 2.114031e+00 -5.866720e-02 -1.154857e-01 1.738212e+00 4.896343e-01 -6.586606e-01 -1.419612e-01 8.590093e-01 1.511641e+00 6.445689e-01 5.784882e-02 -2.045344e+00
<VARIANCE> 25
 1.383580e+01 2.323079e+01 1.359814e+01 1.677661e+01 3.908864e+01 4.939927e+01 2.995635e+01 2.597697e+01 3.278584e+01 2.501882e+01 2.805781e+01 1.993053e+01 2.960735e-01 1.030002e+00 1.266087e+00 1.525548e+00 1.797478e+00 2.402709e+00 2.821038e+00 2.535639e+00 2.143751e+00 3.010812e+00 2.234148e+00 1.757711e+00 4.657211e-01
<GCONST> 8.977815e+01
~s "ST_u_3_3"
<MEAN> 25
 1.794433e+00 1.187484e+01 4.990439e+00 -1.555260e+00 -3.125492e+00 -5.334992e+00 -2.908932e+00 1.138947e+00 1.386306e+00 -2.691518e-01 -2.556226e+00 -3.447375e+00 -1.432083e+00 7.211241e-01 -3.022051e-01 -7.290822e-02 1.302937e+00 1.509341e+00 6.692509e-01 -4.932655e-01 3.049707e-01 1.558690e+00 6.069901e-01 4.653238e-01 -1.443455e+00
<VARIANCE> 25
 1.037374e+01 3.031698e+01 2.862676e+01 1.946308e+01 5.176278e+01 6.737905e+01 5.020606e+01 4.052662e+01 3.795705e+01 4.561551e+01 5.087413e+01 3.306545e+01 4.768105e-01 1.069660e+00 1.862516e+00 1.556161e+00 2.041848e+00 3.780733e+00 3.318350e+00 2.171412e+00 3.611633e+00 2.214223e+00 2.791497e+00 1.627585e+00 3.743565e-01
<GCONST> 9.570007e+01
~s "ST_u_4_1"
<MEAN> 25
 -1.889582e+00 7.713694e+00 1.335245e+00 -2.306686e+00 -1.472152e+00 -3.115972e+00 -9.448715e-01 8.697990e-01 3.359347e+00 4.699162e+00 9.280214e-01 3.615583e-02 -9.391187e-01 -4.271133e-01 -1.771202e-01 1.925487e-01 9.166136e-01 6.721751e-01 -4.358059e-02 -1.545123e-01 2.687706e-02 3.868421e-01 8.237962e-01 8.811455e-01 -5.768344e-01
<VARIANCE> 25
 2.067409e+01 3.481096e+01 2.768870e+01 1.480191e+01 2.380923e+01 3.123482e+01 3.861176e+01 1.969137e+01 1.942855e+01 1.721531e+01 1.501857e+01 1.774335e+01 2.600916e-01 7.541334e-01 7.950678e-01 7.858084e-01 1.084256e+00 1.488592e+00 1.985107e+00 1.430727e+00 1.295740e+00 7.888091e-01 1.154676e+00 1.196301e+00 1.183536e-01
<GCONST> 8.081885e+01
~s "ST_u_4_2"
<MEAN> 25
 -4.516770e+00 1.131974e+01 5.919223e+00 1.891152e+00 2.937059e+00 -3.740990e+00 -6.000853e+00 -2.531528e+00 6.711943e-01 4.061996e+00 2.588204e+00 3.780191e-01 -9.776216e-01 -6.592377e-01 -3.271599e-01 9.781534e-02 7.364680e-01 9.159855e-01 3.740569e-01 -1.897627e-02 3.155037e-02 2.145433e-01 2.973762e-01 3.791894e-01 -5.412154e-01
<VARIANCE> 25
 1.956015e+01 1.651117e+01 1.360943e+01 2.182816e+01 3.748729e+01 5.636856e+01 4.118971e+01 2.536363e+01 3.304807e+01 3.080723e+01 2.766635e+01 1.578742e+01 3.337699e-01 6.681876e-01 7.947237e-01 8.331063e-01 1.077713e+00 1.779671e+00 1.803315e+00 1.645093e+00 1.646843e+00 1.192520e+00 1.262568e+00 1.045588e+00 1.270614e-01
<GCONST> 8.374641e+01
~s "ST_u_4_3"
<MEAN> 25
 3.001246e+00 5.278345e+00 -7.945138e-01 -2.474896e+00 -8.229005e-01 4.994141e-01 3.056332e+00 2.236972e+00 -9.630150e-01 -3.750851e+00 -4.053820e+00 -1.298261e+00 -4.296032e-01 -6.768830e-02 -2.995406e-01 -2.833811e-02 8.595263e-01 8.992203e-01 1.458409e-01 -3.683430e-01 -2.619131e-01 4.491251e-01 8.713410e-01 4.299288e-01 -3.564920e-01
<VARIANCE> 25
 1.265400e+01 4.800154e+01 2.299713e+01 2.279454e+01 3.875449e+01 3.551268e+01 4.039986e+01 4.141002e+01 4.292693e+01 3.006279e+01 2.040520e+01 1.624816e+01 4.398812e-01 2.073272e+00 1.283812e+00 1.702145e+00 1.749771e+00 2.821417e+00 3.152738e+00 2.516816e+00 3.455240e+00 1.832588e+00 1.633155e+00 1.965869e+00 2.834157e-01
<GCONST> 9.234290e+01
~s "ST_u_4_4"
<MEAN> 25
 -2.579607e+00 1.199829e+01 3.455338e+00 -1.195053e+00 1.660375e-01 -1.965464e+00 9.841363e-01 2.805978e+00 8.341766e-01 -3.739658e-01 -2.193241e+00 -1.292090e+00 -1.337003e+00 -6.607983e-01 -3.041508e-01 -7.108771e-02 5.859529e-01 4.016870e-01 -5.782548e-01 -7.978631e-01 -6.863790e-02 7.002144e-01 1.134925e+00 1.072280e+00 -7.798510e-01
<VARIANCE> 25
 1.364485e+01 1.861638e+01 1.671901e+01 2.007612e+01 2.537119e+01 3.563336e+01 2.789073e+01 2.094016e+01 3.488791e+01 3.007251e+01 2.518772e+01 2.997454e+01 2.586500e-01 1.217419e+00 9.415771e-01 1.256000e+00 1.541423e+00 1.969428e+00 2.711251e+00 1.733613e+00 2.587767e+00 1.406999e+00 1.238787e+00 1.372055e+00 2.345112e-01
<GCONST> 8.610243e+01
~s "ST_k_2_1"
<MEAN> 25
 -5.818198e+00 3.536465e+00 2.104247e+00 -8.847277e+00 -8.953775e+00 6.107829e-01 2.043024e+00 1.005484e+00 5.882176e-01 8.721273e-01 1.621336e+00 3.426609e-01 1.159464e+00 -2.305608e+00 -9.829630e-01 -2.076221e+00 -1.834376e+00 2.382363e+00 2.393804e+00 2.591463e-01 -1.787785e+00 -2.573733e+00 -6.715326e-01 3.320545e-01 1.737950e+00
<VARIANCE> 25
 1.249597e+01 5.132598e+01 4.952112e+01 4.810305e+01 7.271391e+01 7.045602e+01 5.558323e+01 4.743164e+01 3.551247e+01 7.521078e+01 2.670297e+01 3.164022e+01 3.224716e+00 5.875464e+00 4.267320e+00 4.267955e+00 6.240528e+00 1.173472e+01 6.382180e+00 2.610538e+00 3.531288e+00 4.475712e+00 2.162859e+00 3.621521e+00 1.406336e+00
<GCONST> 1.093444e+02
~s "ST_k_2_2"
<MEAN> 25
 -4.659443e+00 -2.646354e+00 -6.122978e-01 -3.550666e+00 -3.806514e-01 5.548700e+00 -2.898502e-01 -2.895130e+00 -1.282243e+00 1.579420e-01 2.539397e+00 2.468759e+00 1.074435e+00 -3.822424e+00 -7.526774e-01 -2.302715e+00 -2.061365e+00 2.638418e+00 9.281245e-01 -1.154150e+00 -1.749521e+00 -1.347703e+00 9.502953e-01 6.318863e-01 2.349700e+00
<VARIANCE> 25
 1.837763e+01 9.625915e+01 4.445862e+01 6.701668e+01 5.060950e+01 7.239040e+01 1.097816e+02 7.842416e+01 4.824081e+01 4.737973e+01 3.012553e+01 3.980133e+01 2.282364e+00 4.089420e+00 5.493299e+00 4.452612e+00 3.766757e+00 5.967381e+00 5.814671e+00 4.539306e+00 3.862938e+00 4.313373e+00 3.173079e+00 2.552446e+00 1.826473e+00
<GCONST> 1.108387e+02
~s "ST_k_3_1"
<MEAN> 25
 2.390836e+00 -7.546644e-01 -1.878845e+00 -8.610645e+00 -1.190732e+01 -5.923513e-01 6.926805e+00 1.447017e+00 -4.008133e+00 -3.195963e+00 -9.795190e-03 1.555987e+00 3.042987e+00 -1.408216e+00 -1.813900e+00 1.395137e+00 -3.959669e-03 -1.968357e+00 6.431339e-01 5.394431e-01 -2.825329e-01 -3.288126e-01 -4.839810e-01 3.723276e-02 2.420826e+00
<VARIANCE> 25
 2.914298e+01 3.616486e+01 3.453547e+01 2.888308e+01 3.726392e+01 5.731455e+01 1.951224e+01 3.654602e+01 3.210885e+01 4.991632e+01 2.274139e+01 3.566026e+01 1.179823e+00 4.103992e+00 3.091318e+00 2.272566e+00 4.140893e+00 4.474643e+00 4.353634e+00 6.442143e+00 6.794409e+00 1.074918e+01 4.169771e+00 4.086932e+00 9.021764e-01
<GCONST> 1.049301e+02
~s "ST_k_3_2"
<MEAN> 25
 3.363415e+00 -9.828099e+00 -2.616435e+00 -3.891714e+00 -5.052269e+00 3.685035e+00 -3.677977e-01 -6.405707e+00 -5.564732e+00 -7.256309e-01 4.999708e+00 3.510071e+00 2.869381e+00 -1.369699e+00 -1.409201e+00 8.780776e-01 -7.865046e-01 -2.904932e+00 -5.833576e-02 2.308438e-01 1.478538e-01 7.023213e-01 5.673594e-01 2.935465e-01 2.492985e+00
<VARIANCE> 25
 2.745397e+01 3.680742e+01 3.359692e+01 4.720411e+01 4.021921e+01 5.911647e+01 7.214945e+01 6.444989e+01 3.620935e+01 4.775977e+01 3.247794e+01 2.207848e+01 1.303872e+00 3.887411e+00 3.854967e+00 3.593184e+00 3.917548e+00 5.293999e+00 7.353559e+00 7.774219e+00 5.055562e+00 5.908861e+00 3.539415e+00 4.076465e+00 1.037717e+00
<GCONST> 1.079159e+02
~s "ST_k_4_1"
<MEAN> 25
 7.740803e+00 -1.241988e+01 -6.722401e+00 -4.119833e+00 -6.785447e+00 -1.399410e+00 2.268938e+00 -2.723344e+00 -1.331914e+00 1.858732e+00 4.353699e+00 3.546020e+00 4.718116e-01 -5.780485e-01 -9.354746e-01 -2.414676e-01 3.287696e-02 -1.536094e-01 1.077491e+00 1.267084e+00 8.940228e-01 3.049026e-01 8.168745e-03 6.872169e-02 5.027621e-01
<VARIANCE> 25
 7.153522e+00 3.638225e+01 1.409873e+01 1.834952e+01 2.535202e+01 3.401500e+01 3.985677e+01 3.747543e+01 4.034960e+01 4.391035e+01 3.606685e+01 2.789322e+01 3.681590e-01 1.718789e+00 1.244679e+00 1.792691e+00 2.877026e+00 2.548331e+00 2.937541e+00 2.772412e+00 2.274722e+00 2.846184e+00 2.116349e+00 1.975157e+00 5.067895e-01
<GCONST> 9.257942e+01
~s "ST_a_2_1"
<MEAN> 25
 8.947919e+00 -1.033988e+01 -8.499669e+00 -5.441630e+00 -4.638633e+00 -1.655911e+00 3.626023e+00 1.919038e+00 -2.253736e+00 3.849753e-02 5.048163e+00 1.946910e+00 -2.038313e-01 1.318693e-01 3.598310e-01 5.275784e-01 3.051925e-02 1.776351e-01 -3.278082e-01 -6.152689e-01 2.179367e-02 4.768480e-01 -2.293528e-03 -1.406674e-01 -2.815253e-01
<VARIANCE> 25
 7.226688e+00 1.962304e+01 1.830092e+01 1.744595e+01 2.282159e+01 2.925783e+01 3.380500e+01 4.005923e+01 2.101839e+01 3.881511e+01 3.368461e+01 3.221365e+01 1.187744e-01 6.272639e-01 8.327667e-01 1.102475e+00 8.868697e-01 1.412800e+00 1.708495e+00 1.339087e+00 1.033264e+00 1.219889e+00 8.933430e-01 9.679030e-01 1.714365e-01
<GCONST> 8.076922e+01
~s "ST_a_2_2"
<MEAN> 25
 7.469401e+00 -1.187018e+01 -7.237989e+00 -3.387317e+00 -4.908520e+00 -8.270684e-01 3.164182e+00 -9.467880e-01 -3.403055e-01 1.893875e+00 3.876792e+00 2.703968e+00 -1.302646e-01 1.021483e+00 2.802596e-02 8.883563e-02 2.376255e-01 -1.967813e-02 1.383718e-01 4.103480e-01 -2.279596e-01 -5.029787e-01 -2.938944e-01 -5.453010e-02 -5.715180e-01
<VARIANCE> 25
 6.035156e+00 2.362676e+01 1.197138e+01 1.748815e+01 2.116640e+01 2.722984e+01 3.011257e+01 2.667954e+01 3.455374e+01 3.704449e+01 3.237718e+01 3.120005e+01 1.519154e-01 1.007523e+00 8.160406e-01 1.017148e+00 1.353933e+00 1.759330e+00 1.893712e+00 2.357994e+00 1.967827e+00 2.057520e+00 1.940077e+00 1.588297e+00 2.545773e-01
<GCONST> 8.482579e+01
~s "ST_a_2_3"
<MEAN> 25
 6.685863e+00 -1.097052e+01 -6.197829e+00 1.046227e-01 -2.699015e+00 1.729144e+00 6.998422e+00 4.551437e-01 -3.728588e+00 2.710963e+00 5.332292e+00 7.261018e-02 2.272276e-01 6.762704e-01 -6.948267e-01 -1.082852e+00 -4.838242e-01 -2.022038e-01 6.746503e-01 9.057798e-01 4.668507e-02 -4.165477e-01 -5.616635e-01 -3.288053e-01 -1.373190e-01
<VARIANCE> 25
 5.468931e+00 1.503733e+01 9.574514e+00 1.355135e+01 1.466216e+01 1.553519e+01 3.095866e+01 2.512840e+01 1.761130e+01 2.569698e+01 3.065235e+01 2.731423e+01 8.126725e-02 4.943473e-01 4.254669e-01 1.177808e+00 8.869745e-01 1.452260e+00 1.635404e+00 1.442851e+00 1.508775e+00 1.425867e+00 1.549953e+00 1.094716e+00 1.079255e-01
<GCONST> 7.642695e+01
~s "ST_a_2_4"
<MEAN> 25
 6.085087e+00 -8.062246e+00 -5.830987e+00 -5.775818e+00 -8.768549e+00 -9.445291e-01 7.968180e+00 5.703578e+00 -3.804139e-01 -2.792666e+00 6.278566e-01 1.085442e+00 -5.511855e-02 1.424374e+00 3.954518e-01 3.413312e-01 2.207656e-01 -7.275487e-01 -5.750512e-01 4.539713e-01 6.639011e-01 3.851244e-01 -5.751657e-01 -7.948963e-01 -6.177610e-01
<VARIANCE> 25
 4.908261e+00 2.112868e+01 1.250347e+01 1.593511e+01 2.390051e+01 4.011040e+01 3.149277e+01 4.287688e+01 2.691430e+01 3.264309e+01 2.450369e+01 1.906411e+01 1.049240e-01 1.481775e+00 8.659140e-01 1.089984e+00 1.403895e+00 1.501090e+00 1.368190e+00 1.619080e+00 1.649201e+00 1.520870e+00 1.471836e+00 1.250926e+00 2.666015e-01
<GCONST> 8.271124e+01
~s "ST_a_2_5"
<MEAN> 25
 7.312255e+00 -7.131567e+00 -8.910786e+00 -3.983707e+00 -3.617451e+00 1.219958e+00 8.223516e+00 3.932518e+00 -1.331942e+00 -1.138186e+00 1.094111e+00 1.592233e+00 1.757717e-02 -9.409994e-01 3.631228e-01 6.038846e-01 2.509722e-01 2.464568e-01 -8.960280e-01 -9.962924e-01 1.213982e-01 6.095635e-01 8.205011e-01 3.665893e-01 4.182706e-01
<VARIANCE> 25
 5.694708e+00 3.155099e+01 1.519712e+01 2.182606e+01 2.805995e+01 2.429408e+01 3.564460e+01 2.432515e+01 2.473895e+01 3.689854e+01 3.051877e+01 2.904913e+01 2.857807e-01 2.304422e+00 1.187900e+00 1.333938e+00 1.608530e+00 1.842048e+00 1.982872e+00 1.951507e+00 2.413424e+00 2.359848e+00 1.830954e+00 1.878212e+00 5.457649e-01
<GCONST> 8.868704e+01
~s "ST_a_3_1"
<MEAN> 25
 7.454111e+00 -7.350012e+00 -6.643339e+00 -2.570596e+00 -4.257336e+00 1.163896e-02 2.949199e+00 -1.220672e+00 -1.216845e+00 9.056737e-01 1.837657e+00 2.493003e+00 -6.874090e-01 1.732717e+00 7.233239e-01 5.129232e-01 7.705837e-01 -1.974167e-02 -7.535033e-01 -5.989835e-02 3.202951e-01 -6.177663e-02 -4.655425e-01 8.826298e-02 -1.182063e+00
<VARIANCE> 25
 6.620802e+00 2.069262e+01 1.799982e+01 2.442160e+01 2.526159e+01 3.066761e+01 4.083530e+01 4.123812e+01 3.461160e+01 4.207944e+01 3.400699e+01 2.969556e+01 4.824007e-01 1.300108e+00 1.690539e+00 1.453463e+00 1.799110e+00 3.170157e+00 2.476897e+00 2.545358e+00 2.159946e+00 2.414770e+00 2.431666e+00 2.125134e+00 5.313984e-01
<GCONST> 9.191215e+01
~s "ST_a_3_2"
<MEAN> 25
 6.337719e+00 -6.198949e+00 -5.242903e+00 -2.459376e+00 -4.605803e+00 4.129582e-01 4.253019e+00 -3.245377e-02 -2.179445e+00 -1.920010e+00 1.012361e+00 3.697771e+00 -1.418191e+00 2.818605e+00 7.915866e-01 1.157892e-01 8.510757e-01 -7.675429e-02 -7.574940e-01 -1.135487e-02 3.189906e-01 5.798057e-01 6.293785e-03 -2.291289e-02 -2.143559e+00
<VARIANCE> 25
 4.508526e+00 2.387001e+01 1.658377e+01 1.499309e+01 2.906786e+01 3.964802e+01 3.302631e+01 4.866911e+01 3.207895e+01 3.678378e+01 3.670214e+01 2.562756e+01 3.701774e-01 5.792146e-01 1.188483e+00 1.063974e+00 1.619848e+00 2.156871e+00 2.148775e+00 2.472998e+00 2.578980e+00 3.017794e+00 2.656691e+00 2.692506e+00 3.672024e-01
<GCONST> 8.912711e+01
~s "ST_a_3_3"
<MEAN> 25
 7.354754e+00 -8.253942e+00 -7.621994e+00 -2.381994e+00 -3.015278e+00 -1.423737e+00 2.927006e+00 2.768236e-01 -2.907311e+00 -5.895670e-01 5.348685e+00 4.463726e+00 -5.386826e-01 2.806792e+00 8.646395e-01 5.762299e-01 1.554513e+00 3.056677e-02 -7.780270e-01 3.377052e-01 -5.328923e-01 -1.046613e+00 -1.271866e+00 -1.048412e+00 -1.495250e+00
<VARIANCE> 25
 5.953859e+00 1.849762e+01 1.565304e+01 1.549185e+01 2.554685e+01 2.696255e+01 2.607246e+01 2.156303e+01 2.717423e+01 2.797392e+01 2.377220e+01 3.378952e+01 1.354083e-01 8.070967e-01 8.431634e-01 1.174415e+00 1.164645e+00 1.647821e+00 1.753528e+00 2.136375e+00 2.349168e+00 2.288606e+00 2.193735e+00 2.340887e+00 2.022419e-01
<GCONST> 8.379749e+01
~s "ST_a_3_4"
<MEAN> 25
 6.283024e+00 -3.285357e+00 -4.560663e+00 -4.782089e+00 -8.544469e+00 -3.451906e+00 6.093053e+00 5.553310e+00 9.285418e-01 -1.256919e+00 -1.322559e+00 -6.380804e-01 -5.673195e-01 2.709333e+00 1.296255e+00 1.116604e+00 1.773055e+00 5.881825e-02 -1.089082e+00 -1.482667e-01 1.165222e-01 1.280481e-01 -8.213160e-01 -1.361329e+00 -1.384254e+00
<VARIANCE> 25
 3.640740e+00 1.506908e+01 1.122824e+01 1.711796e+01 1.397044e+01 3.286147e+01 1.975935e+01 4.219530e+01 2.299159e+01 3.146519e+01 1.983159e+01 1.657654e+01 1.475679e-01 8.093214e-01 9.833575e-01 1.073233e+00 1.395700e+00 2.456198e+00 1.912172e+00 1.805934e+00 1.558276e+00 1.661462e+00 1.313006e+00 1.523183e+00 1.730276e-01
<GCONST> 8.073508e+01
~s "ST_a_4_1"
<MEAN> 25
 1.507665e+00 2.192558e+00 -3.502029e+00 -1.539225e+00 -9.239700e-01 -2.161506e+00 9.400995e-01 1.258144e-02 -6.447878e-01 2.368086e+00 2.158015e+00 2.734276e+00 -1.342625e+00 1.153665e+00 5.211381e-01 1.133173e-01 7.129031e-01 2.226824e-01 -4.384944e-01 1.597868e-02 4.378835e-01 3.010537e-01 8.859038e-02 1.619914e-01 -1.395678e+00
<VARIANCE> 25
 2.097830e+01 4.077277e+01 2.398667e+01 3.105468e+01 2.245186e+01 2.661314e+01 3.243970e+01 2.598325e+01 2.303738e+01 2.436143e+01 1.908909e+01 1.819771e+01 5.326197e-01 2.691292e+00 1.722814e+00 1.938031e+00 1.598516e+00 2.616903e+00 1.861335e+00 2.629412e+00 1.912222e+00 2.746554e+00 2.303996e+00 1.273978e+00 8.888433e-01
<GCONST> 9.182422e+01
~s "ST_a_4_2"
<MEAN> 25
 -1.500990e+00 2.100144e+00 -5.249210e+00 -4.906003e+00 -9.681348e-01 2.116003e+00 5.396682e+00 3.050205e+00 1.672580e+00 3.076209e+00 2.273182e+00 3.444090e+00 -1.579561e+00 1.167661e+00 8.206934e-02 -3.469164e-01 6.628456e-01 1.411333e-01 -3.955556e-02 4.098437e-01 6.096737e-01 5.138741e-01 6.332471e-02 5.705988e-02 -1.594101e+00
<VARIANCE> 25
 1.605247e+01 2.207254e+01 1.954593e+01 1.694943e+01 1.900563e+01 2.545023e+01 2.071528e+01 2.923746e+01 2.687638e+01 3.039058e+01 1.580522e+01 1.497748e+01 4.471679e-01 2.128375e+00 1.750806e+00 1.378274e+00 1.149965e+00 2.695446e+00 1.639053e+00 2.419408e+00 2.878850e+00 2.533616e+00 1.613755e+00 1.771572e+00 7.105025e-01
<GCONST> 8.841623e+01
~s "ST_a_4_3"
<MEAN> 25
 6.004055e+00 -2.897776e+00 -6.268969e+00 -2.566981e+00 -1.045530e+00 -4.910447e-01 1.337897e+00 6.650771e-01 8.302872e-01 -7.305819e-01 -7.550321e-01 3.166209e+00 -3.253816e-01 1.287503e+00 1.534391e-01 -1.690407e-02 6.358781e-01 -1.813086e-01 -4.058451e-01 1.043830e-01 1.408675e-01 -4.549719e-01 -5.120588e-01 3.217410e-01 -6.942976e-01
<VARIANCE> 25
 9.669457e+00 2.075504e+01 1.197135e+01 1.793215e+01 1.823184e+01 2.463045e+01 3.361663e+01 2.637687e+01 3.560556e+01 2.568543e+01 2.687158e+01 2.639577e+01 4.786108e-01 8.793656e-01 1.310701e+00 1.619183e+00 2.166379e+00 2.497915e+00 2.072530e+00 1.622658e+00 1.606384e+00 1.615895e+00 1.954948e+00 1.384149e+00 3.069774e-01
<GCONST> 8.645189e+01
~s "ST_a_4_4"
<MEAN> 25
 4.184730e+00 -3.470435e+00 -1.959660e+00 -2.699217e+00 -2.717137e+00 6.793683e+00 4.124367e+00 2.350733e-01 3.889864e+00 2.054553e+00 1.815331e+00 3.720860e+00 -2.632454e+00 -6.110467e-01 3.813284e+00 -1.238503e+00 -6.894280e-01 2.467376e+00 -1.806265e+00 1.615446e-01 1.699689e+00 1.967887e-01 8.785883e-01 1.803579e-01 -7.678987e-01
<VARIANCE> 25
 9.657049e+00 1.266900e+01 1.792009e+01 1.356783e+01 1.356408e+01 2.035145e+01 1.951657e+01 2.768277e+01 4.212101e+01 3.724356e+01 2.148276e+01 2.579144e+01 5.726407e-01 1.841005e+00 3.903278e+00 2.482621e+00 2.035168e+00 3.935115e+00 2.844688e+00 3.763216e+00 3.146611e+00 2.769368e+00 3.769704e+00 3.243923e+00 2.487419e-01
<GCONST> 9.188795e+01
~s "ST_a_4_5"
<MEAN> 25
 4.292214e+00 1.880467e+00 -1.182479e+00 -1.326702e+00 -2.588711e+00 -6.834100e-01 4.980560e+00 5.429476e+00 7.196894e-01 -1.682290e+00 -3.470385e+00 -4.134532e+00 -8.411917e-01 1.736578e+00 1.338900e+00 1.129608e+00 2.225013e+00 1.590729e+00 -1.186996e-01 2.325958e-01 2.235550e-01 -4.474377e-01 -1.169975e+00 -1.302527e+00 -1.127626e+00
<VARIANCE> 25
 2.939375e+00 1.110982e+01 1.020091e+01 1.381719e+01 1.482382e+01 2.679469e+01 2.010914e+01 2.846502e+01 2.382690e+01 2.852686e+01 1.983362e+01 1.593610e+01 1.185370e-01 8.337558e-01 9.551760e-01 1.876452e+00 1.235479e+00 2.619669e+00 2.209335e+00 1.792507e+00 1.499102e+00 1.815410e+00 1.724325e+00 1.499240e+00 1.905945e-01
<GCONST> 8.010662e+01
~s "ST_a_4_6"
<MEAN> 25
 5.570968e+00 -1.353086e+00 -4.244736e+00 -8.121986e-01 7.887587e-01 -7.242346e-01 -1.563116e-01 8.507529e-04 -2.245360e+00 -1.086840e+00 1.243495e+00 5.359666e-01 -6.524553e-01 2.312580e+00 1.372660e+00 9.451767e-01 1.350824e+00 4.883082e-01 -6.852823e-01 -9.260157e-02 6.673850e-02 -6.040451e-01 -1.895951e+00 -1.398837e+00 -1.299378e+00
<VARIANCE> 25
 5.326397e+00 1.775023e+01 1.713512e+01 1.360156e+01 2.091812e+01 2.042835e+01 2.185610e+01 2.331769e+01 2.210356e+01 2.821376e+01 2.476155e+01 1.985663e+01 1.295261e-01 7.373701e-01 1.136262e+00 1.142726e+00 1.272062e+00 2.698740e+00 2.075348e+00 1.596153e+00 1.795900e+00 2.403263e+00 2.642239e+00 2.914608e+00 1.509619e-01
<GCONST> 8.282867e+01
~s "ST_n_2_1"
<MEAN> 25
 5.597370e+00 3.052606e-01 -3.021444e+00 1.209062e+00 3.115699e+00 2.446140e-01 -2.622188e-01 1.612436e+00 -2.719726e+00 -4.254168e+00 -2.526941e+00 -2.725493e+00 -2.941683e-01 7.958729e-01 4.391671e-01 3.190027e-01 5.957569e-01 5.428184e-01 -2.243768e-02 3.734975e-02 -3.577936e-02 -8.200734e-01 -1.318049e+00 -5.717966e-01 -4.966576e-01
<VARIANCE> 25
 4.362700e+00 1.903651e+01 1.013905e+01 1.212033e+01 1.843476e+01 1.845803e+01 1.678116e+01 2.681055e+01 1.633398e+01 2.791911e+01 1.782832e+01 1.951259e+01 1.450342e-01 5.665830e-01 9.304941e-01 1.014600e+00 8.099016e-01 1.019382e+00 1.164942e+00 9.476798e-01 1.215941e+00 9.951130e-01 1.635588e+00 1.546084e+00 1.448566e-01
<GCONST> 7.562801e+01
~s "ST_n_2_2"
<MEAN> 25
 4.484386e+00 2.784552e+00 -7.014843e-01 4.485822e+00 8.089324e+00 2.601684e+00 -1.940575e+00 -8.125059e-01 -1.369980e+00 -3.235770e+00 -4.009664e+00 -3.026674e+00 -1.372286e-01 1.740796e+00 5.338065e-01 -7.035993e-02 7.270932e-01 2.089557e-01 -2.596064e-01 2.905624e-01 3.499434e-01 -6.040909e-01 -1.050971e+00 -1.298344e-01 -6.409082e-01
<VARIANCE> 25
 1.727442e+01 2.921564e+01 1.784417e+01 1.656525e+01 2.235629e+01 2.501974e+01 2.345075e+01 2.524337e+01 1.837266e+01 2.793671e+01 2.327107e+01 1.641123e+01 1.527075e+00 9.958209e-01 1.164184e+00 1.038652e+00 1.194968e+00 1.557631e+00 1.570187e+00 2.146956e+00 2.656945e+00 1.919088e+00 1.935681e+00 2.025859e+00 7.645729e-01
<GCONST> 8.792875e+01
~s "ST_n_3_1"
<MEAN> 25
 4.515666e+00 1.032974e+00 -2.011137e+00 7.144083e-01 1.704481e+00 1.063701e+00 1.220861e+00 1.069751e+00 -2.820778e+00 -4.955818e+00 -4.147439e+00 -2.030350e+00 -2.432519e-01 3.183659e-01 1.854186e-01 -5.734561e-01 -5.768737e-01 -1.187714e-02 5.407519e-01 4.838212e-01 -5.612553e-04 -2.746575e-01 8.294878e-02 4.455119e-01 -2.193691e-01
<VARIANCE> 25
 5.274364e+00 2.631980e+01 1.529880e+01 1.791903e+01 2.129286e+01 2.042964e+01 3.164829e+01 2.897100e+01 2.233708e+01 2.204412e+01 2.209007e+01 2.629043e+01 3.610536e-01 6.654671e-01 1.096299e+00 1.114287e+00 8.095730e-01 2.057083e+00 1.196557e+00 1.143921e+00 1.864007e+00 1.107653e+00 1.763337e+00 1.012676e+00 2.529181e-01
<GCONST> 8.148191e+01
~s "ST_n_3_2"
<MEAN> 25
 1.889009e+00 8.780721e+00 3.090343e+00 4.852136e+00 9.770278e+00 2.966089e+00 -3.876804e+00 -1.737098e+00 -1.213415e-01 -2.310467e+00 -4.804307e+00 -2.482613e+00 -7.338153e-01 9.412414e-01 8.868877e-01 1.343750e-01 -1.282820e-01 -1.211531e-01 6.023049e-02 -8.622765e-02 2.209073e-01 5.404523e-01 4.660253e-01 4.743789e-01 -7.514120e-01
<VARIANCE> 25
 8.219511e+00 1.786444e+01 1.859040e+01 2.189351e+01 1.723683e+01 2.452636e+01 2.485381e+01 2.248599e+01 2.847435e+01 2.752121e+01 2.544180e+01 1.708930e+01 2.103629e+00 1.096213e+00 1.597837e+00 9.908679e-01 1.378925e+00 1.697224e+00 1.514049e+00 2.164205e+00 3.014454e+00 3.468632e+00 2.588867e+00 1.287201e+00 1.367927e+00
<GCONST> 8.925290e+01
~s "ST_n_4_1"
<MEAN> 25
 3.243432e+00 3.090809e+00 -1.807374e+00 -7.574795e-01 8.362172e-01 1.964648e+00 3.633700e+00 9.379108e-01 -3.335896e+00 -4.569279e+00 -2.492330e+00 7.681026e-01 -2.200217e-01 -2.031767e+00 1.321372e-01 -1.097675e+00 -2.060977e+00 8.105730e-01 1.161089e+00 -1.855166e-01 2.166988e-01 8.202233e-01 1.065645e+00 5.424327e-01 7.437353e-01
<VARIANCE> 25
 1.710158e+01 3.084018e+01 4.281087e+01 2.564953e+01 3.963234e+01 4.087925e+01 3.899852e+01 2.763857e+01 3.971560e+01 2.614668e+01 2.902040e+01 2.161425e+01 3.243133e+00 4.232602e+00 8.571158e+00 2.341207e+00 3.003853e+00 6.168231e+00 3.188618e+00 3.421803e+00 3.335928e+00 2.720532e+00 3.620779e+00 2.645391e+00 1.785954e+00
<GCONST> 1.029486e+02
~s "ST_n_4_2"
<MEAN> 25
 -1.678151e+00 9.658879e+00 6.606291e+00 5.862797e+00 8.068909e+00 1.819903e+00 -3.436910e+00 -9.887336e-01 2.507833e+00 1.777950e+00 -1.155729e+00 -2.669402e-01 -8.603653e-01 -1.082474e+00 6.602647e-02 1.676283e-01 -6.183414e-01 5.969505e-02 5.323436e-01 -3.826785e-01 -1.591523e-01 1.037587e+00 1.671533e+00 9.906593e-01 -2.351707e-01
<VARIANCE> 25
 1.205684e+01 1.377164e+01 1.483595e+01 1.817595e+01 2.294174e+01 2.691950e+01 2.778297e+01 2.224722e+01 2.178338e+01 2.515923e+01 2.824849e+01 2.247246e+01 6.211725e-01 3.270942e+00 1.741430e+00 3.548777e+00 2.909606e+00 4.391468e+00 3.422039e+00 2.865506e+00 2.452312e+00 2.276632e+00 2.050269e+00 1.786391e+00 9.969859e-01
<GCONST> 9.264427e+01
~s "ST_d_2_1"
<MEAN> 25
 6.677004e-01 2.474626e+00 4.224751e+00 9.767579e+00 9.771430e+00 7.508696e-01 -6.363215e+00 -6.065464e+00 -3.136303e+00 -4.201131e-01 1.558156e+00 1.393210e+00 1.190268e+00 -3.726616e+00 -1.009286e+00 1.329171e+00 -4.423424e-01 -1.631460e+00 -1.855095e+00 -1.820197e+00 -1.932062e+00 -1.296701e+00 1.193153e+00 1.137730e+00 2.097505e+00
<VARIANCE> 25
 2.095730e+01 5.921341e+01 3.243284e+01 4.697915e+01 3.618625e+01 4.766943e+01 5.299245e+01 3.779096e+01 4.939550e+01 4.408691e+01 2.990654e+01 3.326404e+01 9.426770e-01 3.072865e+00 2.991221e+00 5.795040e+00 4.267291e+00 6.640483e+00 5.493304e+00 4.834256e+00 4.791481e+00 8.482891e+00 5.306580e+00 4.136681e+00 8.217355e-01
<GCONST> 1.071803e+02
~s "ST_d_3_1"
<MEAN> 25
 4.195676e+00 -3.238094e+00 1.793454e+00 9.337811e+00 7.768111e+00 -1.716269e+00 -9.507893e+00 -8.737302e+00 -7.737058e+00 -5.675884e+00 2.262704e+00 2.597071e+00 5.335572e-01 -7.853045e-01 -2.656586e-01 -7.219848e-01 -1.507199e+00 -7.022298e-01 3.230451e-01 3.421234e-01 -1.500471e-01 -1.095149e-01 1.377970e-01 -2.398892e-01 7.175155e-01
<VARIANCE> 25
 1.122811e+01 2.990964e+01 3.612960e+01 5.018483e+01 3.927996e+01 4.641727e+01 6.218071e+01 2.996717e+01 4.174728e+01 6.447099e+01 3.454855e+01 4.446412e+01 6.029513e-01 3.545125e+00 2.342032e+00 4.013524e+00 4.560482e+00 3.121775e+00 7.126257e+00 3.545234e+00 4.276825e+00 6.247610e+00 4.614310e+00 3.480900e+00 6.790410e-01
<GCONST> 1.041001e+02
~s "ST_d_4_1"
<MEAN> 25
 3.992828e+00 -2.890489e+00 2.376643e+00 7.947480e+00 3.934767e+00 -2.982934e+00 -6.294744e+00 -5.796083e+00 -6.024104e+00 -3.494850e+00 2.064981e+00 1.323419e+00 5.038441e-02 -2.602978e-01 4.752457e-02 -8.512758e-01 -1.346122e+00 -2.888620e-01 8.092881e-01 1.245696e+00 7.237023e-01 6.508446e-02 -2.151407e-01 -3.630575e-01 1.718412e-01
<VARIANCE> 25
 1.439876e+01 4.257148e+01 4.932135e+01 6.926013e+01 4.639042e+01 3.410536e+01 6.161927e+01 3.987116e+01 3.872255e+01 6.304565e+01 4.353105e+01 3.802202e+01 1.080277e-01 1.011276e+00 9.029732e-01 1.402447e+00 1.840754e+00 1.920657e+00 2.788561e+00 1.703824e+00 1.609865e+00 1.553677e+00 1.790280e+00 1.593085e+00 1.409516e-01
<GCONST> 9.173532e+01
~s "ST_@_2_1"
<MEAN> 25
 4.132585e+00 -7.860930e+00 7.124112e+00 9.324711e+00 2.494335e+00 -3.055250e-01 -1.242757e+01 -1.284924e+01 -4.033278e+00 -1.178992e-01 1.989303e+00 -3.114705e+00 1.196137e+00 9.248089e-01 -2.655657e+00 -5.372601e-01 8.162897e-01 -3.625647e-02 1.582123e+00 3.591674e-01 -8.852568e-01 -1.496142e-01 -6.297070e-01 -1.427469e-01 -1.872297e-02
<VARIANCE> 25
 8.339535e+00 8.176162e+00 1.895884e+01 1.908916e+01 1.763238e+01 2.016675e+01 2.974899e+01 1.696205e+01 2.308044e+01 2.613224e+01 1.542623e+01 2.182104e+01 5.158553e-01 1.218647e+00 2.625078e+00 1.212439e+00 1.650433e+00 2.761880e+00 2.454121e+00 3.894636e+00 2.604007e+00 1.945974e+00 1.043905e+00 1.816017e+00 3.185696e-01
<GCONST> 8.596559e+01
~s "ST_@_3_1"
<MEAN> 25
 4.744623e+00 -2.323245e+00 5.279003e+00 8.642668e+00 4.979039e+00 2.779144e+00 -6.843185e+00 -9.427579e+00 -4.790383e+00 -1.504780e+00 -2.043191e-01 -2.201112e+00 -4.122652e-01 2.951203e+00 -5.009327e-01 -8.367011e-02 1.422734e+00 3.699634e-01 1.482056e+00 1.863837e+00 1.362661e+00 4.555952e-01 -1.581744e+00 -6.163673e-01 -1.647597e+00
<VARIANCE> 25
 7.111758e+00 2.017275e+01 1.315708e+01 1.299463e+01 1.876034e+01 2.074955e+01 1.649203e+01 2.499973e+01 2.201130e+01 1.693689e+01 1.472842e+01 1.925031e+01 2.107086e-01 6.181595e-01 1.364311e+00 6.959262e-01 1.571270e+00 1.279351e+00 1.052930e+00 1.341744e+00 3.639457e+00 3.360001e+00 2.469940e+00 1.189637e+00 1.974810e-01
<GCONST> 8.052199e+01
~s "ST_@_4_1"
<MEAN> 25
 4.188718e+00 3.631838e+00 3.868790e+00 8.470927e+00 8.060257e+00 2.279149e+00 -5.460024e+00 -5.229055e+00 -1.213719e+00 -1.465940e+00 -4.377309e+00 -4.694701e+00 5.470607e-04 1.235960e+00 -2.112499e-02 -2.693984e-01 5.554683e-01 1.038414e-02 -5.440911e-02 4.942718e-01 4.437549e-01 -3.640232e-01 -7.784171e-01 -5.376924e-01 -4.426999e-01
<VARIANCE> 25
 4.697924e+00 1.006001e+01 1.401742e+01 2.041637e+01 1.055121e+01 2.432005e+01 1.217281e+01 1.472434e+01 1.832281e+01 1.633691e+01 2.054661e+01 9.022729e+00 1.797589e-01 9.424824e-01 6.089028e-01 5.944261e-01 1.226405e+00 9.338787e-01 1.160114e+00 1.004995e+00 2.056956e+00 1.270109e+00 2.147300e+00 5.302739e-01 2.633851e-01
<GCONST> 7.437312e+01
~s "ST_g_2_1"
<MEAN> 25
 1.660661e+00 -5.335157e-02 -4.353491e+00 -1.779740e+00 1.892641e+00 5.999851e+00 3.852290e+00 -5.153553e+00 -7.637769e+00 -8.672541e-02 3.299543e+00 6.856312e-01 1.924057e+00 -2.893595e+00 -2.565486e-01 4.280587e-01 -2.030589e-01 5.644230e-01 -1.128999e+00 -2.116476e+00 -1.714991e+00 -7.826263e-01 5.019513e-01 -2.119377e-01 2.539463e+00
<VARIANCE> 25
 2.310924e+01 8.887350e+01 3.239365e+01 3.266627e+01 4.078230e+01 4.664878e+01 4.532867e+01 4.782463e+01 3.777655e+01 1.992296e+01 3.272918e+01 1.149085e+01 1.810195e+00 7.122259e+00 4.697259e+00 4.432206e+00 3.647883e+00 8.166850e+00 7.860747e+00 2.871661e+00 4.895657e+00 2.362934e+00 3.223341e+00 2.577271e+00 1.810971e+00
<GCONST> 1.055872e+02
~s "ST_g_3_1"
<MEAN> 25
 8.775292e+00 -5.330517e+00 -5.326260e+00 1.515573e+00 1.029611e+00 -1.438800e+00 -2.075830e+00 -8.837852e+00 -1.165802e+01 -5.505300e-01 4.951387e+00 -9.625965e-01 1.076243e+00 -1.542556e+00 -5.760920e-01 -6.969882e-01 -1.045438e+00 -1.888065e+00 -1.346403e+00 1.151694e+00 6.334965e-01 6.419893e-02 1.399760e+00 4.246221e-01 1.517214e+00
<VARIANCE> 25
 7.555573e+00 1.765105e+01 1.262675e+01 2.357983e+01 9.543377e+00 1.882609e+01 2.748218e+01 2.379227e+01 2.361992e+01 3.718431e+01 3.109312e+01 2.588191e+01 4.904471e-01 1.538851e+00 1.660009e+00 2.202592e+00 8.727393e-01 4.765077e+00 4.727439e+00 5.620336e+00 3.590456e+00 5.411168e+00 3.417795e+00 2.561350e+00 5.502230e-01
<GCONST> 9.193760e+01
~s "ST_g_4_1"
<MEAN> 25
 1.039204e+01 -8.254766e+00 -6.676100e+00 -3.226410e+00 -2.030803e+00 -9.360332e-01 -1.985835e+00 -4.257097e+00 -4.963964e+00 1.296776e-01 6.925460e+00 4.519644e+00 1.404838e-01 -3.532263e-01 -5.518795e-01 -8.907668e-01 -6.325450e-01 -1.121205e-02 1.044225e+00 1.136613e+00 1.385289e+00 2.025115e-01 -3.016331e-01 9.204865e-01 2.644672e-01
<VARIANCE> 25
 5.895542e+00 1.124097e+01 1.593449e+01 2.601178e+01 1.345694e+01 1.466602e+01 3.720706e+01 2.806027e+01 3.526485e+01 4.978367e+01 3.789619e+01 4.663591e+01 1.086652e-01 3.627831e-01 8.425682e-01 7.458220e-01 8.200105e-01 1.168897e+00 2.277689e+00 1.548571e+00 1.260540e+00 2.559928e+00 9.283546e-01 8.683987e-01 1.042886e-01
<GCONST> 7.956699e+01
~s "ST_t_2_1"
<MEAN> 25
 -6.643236e+00 4.795554e+00 -3.403385e-02 -2.944368e+00 1.543535e+00 3.139798e+00 2.282595e+00 1.063636e+00 1.890540e+00 2.740825e+00 1.991241e+00 3.001721e+00 2.776513e-01 -2.959333e+00 9.394807e-01 -2.581675e-02 -1.474168e+00 1.615500e+00 -7.364103e-01 -2.155233e+00 -7.845299e-01 -1.222522e+00 -1.019793e-01 7.866098e-01 1.499642e+00
<VARIANCE> 25
 2.231968e+01 3.217629e+01 3.147552e+01 2.690878e+01 3.889756e+01 3.435442e+01 3.134251e+01 3.600397e+01 3.093370e+01 3.400085e+01 1.759133e+01 2.197331e+01 1.794685e+00 2.660911e+00 3.098547e+00 3.869423e+00 3.409981e+00 3.543255e+00 4.525156e+00 3.067431e+00 3.725438e+00 3.010596e+00 2.928921e+00 3.066320e+00 1.248542e+00
<GCONST> 1.004112e+02
~s "ST_t_3_1"
<MEAN> 25
 -3.525620e+00 -4.869221e+00 2.519965e+00 -2.652967e+00 -3.185917e+00 7.775836e+00 7.187997e-01 -4.967166e+00 -1.286064e+00 -2.490476e+00 7.154716e-01 4.603707e+00 3.165715e+00 -2.210639e+00 1.101943e+00 1.029056e+00 -1.690355e+00 -4.388357e-01 -1.095180e+00 -1.859087e+00 -1.977268e+00 -2.808063e+00 -1.503515e+00 -3.870385e-01 3.392015e+00
<VARIANCE> 25
 2.239592e+01 3.152962e+01 2.680412e+01 2.150244e+01 3.270786e+01 3.765630e+01 4.575837e+01 3.701655e+01 4.848398e+01 3.386728e+01 2.550992e+01 1.904411e+01 2.128805e+00 6.291087e+00 4.549705e+00 1.017497e+01 9.837455e+00 6.187797e+00 1.243025e+01 8.054948e+00 5.168255e+00 5.281925e+00 4.532715e+00 4.233581e+00 1.480930e+00
<GCONST> 1.088026e+02
~s "ST_t_4_1"
<MEAN> 25
 5.095388e+00 -2.899038e+00 2.822410e+00 6.188723e-01 -4.434917e+00 9.902699e-01 -8.254540e-01 -4.724938e+00 -5.689092e+00 -8.462953e+00 -4.055490e+00 1.421793e+00 2.437048e+00 -2.646035e-01 8.942115e-03 1.970738e+00 -5.331741e-02 -3.140082e+00 -7.947406e-01 9.274489e-01 -5.749702e-01 -1.412245e+00 -1.395074e+00 -1.629722e+00 1.873243e+00
<VARIANCE> 25
 1.701240e+01 3.403815e+01 2.322072e+01 5.790113e+01 6.697325e+01 3.432729e+01 1.123421e+02 5.615894e+01 4.370792e+01 5.108698e+01 3.510219e+01 2.589934e+01 1.483819e+00 4.381859e+00 4.084345e+00 1.044084e+01 7.855912e+00 4.996369e+00 1.176987e+01 9.169968e+00 4.092846e+00 3.784401e+00 4.212198e+00 2.939181e+00 1.116271e+00
<GCONST> 1.098683e+02
~s "ST_sil_2_1"
<MEAN> 25
 -1.265407e+01 3.101824e+00 -1.169743e+00 1.063683e-01 6.319615e+00 1.516365e+00 1.170312e+00 3.814134e+00 4.444169e+00 4.704373e+00 1.834505e+00 3.476346e-01 -9.736601e-02 -5.787440e-02 -3.519749e-02 -1.892406e-02 1.104513e-02 4.988684e-02 1.321440e-01 1.709909e-01 9.983682e-02 1.283172e-02 -1.788489e-02 -2.556934e-02 -5.617365e-02
<VARIANCE> 25
 1.511770e+01 1.860556e+01 1.180697e+01 1.582698e+01 2.426510e+01 2.266429e+01 2.537197e+01 3.543168e+01 1.772055e+01 2.388574e+01 1.764671e+01 1.585288e+01 1.666358e-01 3.013920e-01 3.943766e-01 4.438404e-01 5.960501e-01 7.570617e-01 8.924032e-01 9.772488e-01 9.150515e-01 8.410181e-01 7.248378e-01 6.737217e-01 7.016500e-02
<GCONST> 7.230745e+01
~s "silst"
<MEAN> 25
 -1.447800e+01 3.689156e-01 -4.470000e+00 -4.002514e+00 3.463284e+00 4.057413e+00 5.027399e+00 4.074226e+00 6.313189e+00 7.893903e+00 4.043546e-01 -1.595055e+00 -1.735237e-01 -2.159824e-01 -2.012870e-01 -1.497238e-01 -1.467729e-02 -3.205642e-02 -8.373637e-03 6.530360e-02 5.010801e-02 -9.598944e-03 -8.104252e-02 -9.936862e-02 -8.171155e-02
<VARIANCE> 25
 6.232782e+00 1.784830e+01 1.127057e+01 1.014685e+01 1.536727e+01 1.237743e+01 1.047623e+01 1.586899e+01 1.402213e+01 1.310013e+01 1.472613e+01 1.584865e+01 2.021382e-01 5.486928e-01 6.158473e-01 5.480397e-01 6.091623e-01 7.850078e-01 7.789236e-01 6.534088e-01 8.903745e-01 9.619369e-01 7.090919e-01 7.032745e-01 6.987654e-02
<GCONST> 6.821554e+01
~s "ST_sil_3_1"
<MEAN> 25
 -1.447800e+01 3.689156e-01 -4.470000e+00 -4.002514e+00 3.463284e+00 4.057413e+00 5.027399e+00 4.074226e+00 6.313189e+00 7.893903e+00 4.043546e-01 -1.595055e+00 -1.735237e-01 -2.159824e-01 -2.012870e-01 -1.497238e-01 -1.467729e-02 -3.205642e-02 -8.373637e-03 6.530360e-02 5.010801e-02 -9.598944e-03 -8.104252e-02 -9.936862e-02 -8.171155e-02
<VARIANCE> 25
 6.232782e+00 1.784830e+01 1.127057e+01 1.014685e+01 1.536727e+01 1.237743e+01 1.047623e+01 1.586899e+01 1.402213e+01 1.310013e+01 1.472613e+01 1.584865e+01 2.021382e-01 5.486928e-01 6.158473e-01 5.480397e-01 6.091623e-01 7.850078e-01 7.789236e-01 6.534088e-01 8.903745e-01 9.619369e-01 7.090919e-01 7.032745e-01 6.987654e-02
<GCONST> 6.821554e+01
~s "ST_sil_4_1"
<MEAN> 25
 -1.165253e+01 3.391450e+00 -1.414388e+00 -8.561549e-01 5.280034e+00 1.421731e+00 9.098440e-01 3.268652e+00 4.141066e+00 4.576738e+00 1.060409e+00 -5.624217e-01 7.609761e-02 -7.868096e-02 6.907140e-02 -4.554186e-02 -5.196129e-02 3.507551e-01 3.862693e-01 1.722938e-01 -1.004485e-01 -3.621424e-01 -3.125202e-01 -1.804444e-01 1.011474e-01
<VARIANCE> 25
 2.798112e+01 2.881425e+01 2.632735e+01 3.618018e+01 3.233662e+01 3.473992e+01 4.466884e+01 3.647052e+01 2.541081e+01 3.593226e+01 2.431871e+01 1.958307e+01 9.813533e-01 1.515794e+00 1.486236e+00 1.213122e+00 1.502904e+00 1.673451e+00 1.580111e+00 1.523299e+00 1.526246e+00 1.448132e+00 1.276778e+00 1.225934e+00 4.569508e-01
<GCONST> 9.014622e+01
~s "ST_j_2_1"
<MEAN> 25
 -2.142505e+00 3.476322e+00 7.144080e+00 2.054534e+00 2.796757e+00 6.817305e+00 -2.967995e+00 -4.787616e+00 4.702943e+00 4.469140e+00 3.642389e-01 -2.769967e-01 -1.242967e+00 -2.370135e+00 3.310035e+00 1.469113e-01 -1.648763e+00 2.165048e+00 -3.299153e-01 -8.856845e-01 4.393099e-01 -4.873566e-01 -7.318509e-01 -3.188992e-01 6.422730e-01
<VARIANCE> 25
 1.983779e+01 6.123264e+01 3.282589e+01 2.180055e+01 4.686016e+01 4.074171e+01 3.521820e+01 2.641151e+01 3.344626e+01 2.071474e+01 3.066908e+01 1.723307e+01 9.585476e-01 1.376257e+01 5.010328e+00 3.644559e+00 6.422693e+00 3.221900e+00 6.147464e+00 5.989448e+00 3.268544e+00 3.588122e+00 1.897192e+00 2.006691e+00 3.409070e+00
<GCONST> 1.039685e+02
~s "ST_j_3_1"
<MEAN> 25
 -7.415213e+00 -1.029226e+01 2.122965e+01 2.736317e+00 -5.621282e+00 1.098738e+01 -7.099745e+00 -5.832606e+00 3.758945e+00 5.042407e-01 8.856071e-01 -1.229430e+00 1.622021e+00 -1.931520e+00 8.703045e-01 2.177430e+00 3.280207e-01 -1.369179e+00 -2.881615e+00 -2.060049e+00 -1.981993e+00 -1.299081e+00 5.866216e-01 -5.151924e-01 2.014160e+00
<VARIANCE> 25
 1.680692e+01 4.944582e+01 3.484372e+01 5.217581e+01 2.743695e+01 3.450650e+01 5.478584e+01 4.631684e+01 3.169305e+01 2.213212e+01 2.475231e+01 1.805314e+01 3.217756e+00 1.249111e+01 6.346728e+00 2.590998e+00 4.353366e+00 5.213760e+00 3.872301e+00 3.225135e+00 3.974427e+00 3.049268e+00 3.236225e+00 2.537608e+00 1.303839e+00
<GCONST> 1.045289e+02
~s "ST_j_4_1"
<MEAN> 25
 2.239383e+00 -7.322646e+00 1.322753e+01 9.748013e+00 8.817971e-01 2.389634e+00 -1.312615e+01 -1.267095e+01 -3.724238e+00 -1.376135e+00 2.343166e+00 -1.480758e+00 3.258500e+00 8.721528e-02 -4.104435e+00 1.701074e+00 2.335317e+00 -3.187501e+00 -1.204449e+00 -1.217861e+00 -2.542070e+00 -5.874057e-01 6.056311e-01 -7.162361e-01 1.507082e+00
<VARIANCE> 25
 1.258252e+01 1.080930e+01 3.152471e+01 2.759738e+01 1.338056e+01 3.402109e+01 3.373850e+01 3.437232e+01 3.836392e+01 1.910849e+01 2.040668e+01 1.906284e+01 1.006453e+00 3.525345e+00 3.569337e+00 2.801817e+00 2.580204e+00 6.689750e+00 3.435065e+00 4.736736e+00 3.790387e+00 3.303563e+00 3.810512e+00 4.464212e+00 6.767706e-01
<GCONST> 9.754344e+01
~s "ST_ng_2_1"
<MEAN> 25
 3.847309e+00 -1.351176e+00 -2.572591e+00 3.152761e+00 1.108309e+00 -2.722732e-01 3.006036e+00 2.793963e+00 -1.452390e+00 -3.305465e+00 -4.515378e+00 -2.968944e+00 -4.190418e-01 6.317993e-01 9.653480e-01 5.203432e-01 1.282007e+00 9.695895e-01 -1.675207e+00 -6.148682e-01 6.111780e-01 -2.276222e-01 -5.757456e-01 -3.496151e-03 -4.240864e-01
<VARIANCE> 25
 5.474426e+00 7.317186e+00 1.184342e+01 5.034585e+00 7.849888e+00 1.755543e+01 1.770571e+01 1.245749e+01 1.170836e+01 1.479639e+01 1.177643e+01 2.618882e+01 1.709972e-01 1.198914e+00 1.032629e+00 1.627656e+00 7.158214e-01 1.326317e+00 1.949031e+00 1.385603e+00 9.683217e-01 1.256575e+00 1.415551e+00 2.391288e+00 2.350965e-01
<GCONST> 7.477745e+01
~s "ST_ng_3_1"
<MEAN> 25
 1.394494e+00 4.303411e+00 1.844018e+00 1.099170e+00 2.698986e+00 3.899757e+00 1.060339e+00 1.338244e+00 1.614439e+00 -3.820838e+00 -8.346398e+00 -3.386814e+00 -7.837390e-01 1.667672e+00 4.190472e-01 -2.117184e-01 7.399142e-01 -4.276463e-01 -4.528542e-01 2.997923e-01 7.145123e-02 1.678013e-01 2.179320e-01 -4.603657e-02 -1.113094e+00
<VARIANCE> 25
 2.423285e+00 2.550782e+01 9.726890e+00 1.569600e+01 1.077995e+01 1.140125e+01 2.926299e+01 2.396607e+01 1.263482e+01 2.050826e+01 1.876022e+01 1.121593e+01 3.248992e-01 9.846895e-01 1.990374e+00 1.421683e+00 9.702765e-01 1.872555e+00 2.220661e+00 1.678675e+00 2.719016e+00 2.967857e+00 1.572071e+00 2.566620e+00 2.019510e-01
<GCONST> 8.106687e+01
~s "ST_m_2_1"
<MEAN> 25
 -1.187803e+00 3.380784e+00 -2.052453e-01 3.009071e-01 3.652387e+00 3.974580e+00 4.344438e+00 4.770649e+00 2.285936e+00 -9.424551e-01 -4.769088e+00 -4.755542e+00 7.253403e-01 7.038724e-01 6.740605e-01 5.700776e-01 6.583102e-01 5.106299e-01 1.799749e-01 9.564117e-02 -4.797728e-01 -8.515369e-01 -7.931260e-01 -6.134802e-01 3.814590e-01
<VARIANCE> 25
 5.608866e+01 1.849938e+01 1.355139e+01 1.805575e+01 2.039783e+01 2.689164e+01 2.317131e+01 2.383860e+01 1.643768e+01 3.647652e+01 2.965547e+01 2.021113e+01 2.941469e+00 1.304827e+00 8.944584e-01 1.125827e+00 1.209508e+00 1.633827e+00 1.449219e+00 1.586223e+00 1.724064e+00 1.796287e+00 1.940027e+00 1.385445e+00 1.083019e+00
<GCONST> 8.886951e+01
~s "ST_m_2_2"
<MEAN> 25
 3.883092e-01 7.687492e+00 2.776795e+00 3.293907e-01 2.243995e+00 3.070235e+00 5.700016e+00 7.060694e+00 1.567001e+00 -2.334297e+00 -4.808913e+00 -5.710955e+00 -1.243699e+00 1.141476e+00 3.607126e-01 -2.523927e-02 8.790105e-01 4.751648e-01 -1.726012e-01 -3.632605e-01 3.704142e-01 8.506752e-01 5.174392e-01 5.600687e-01 -1.291213e+00
<VARIANCE> 25
 7.412391e+00 1.506419e+01 1.080132e+01 1.546090e+01 1.529519e+01 3.089163e+01 1.679532e+01 1.593372e+01 2.408282e+01 3.005482e+01 2.177086e+01 1.584721e+01 3.583561e-01 8.716965e-01 1.078558e+00 1.662981e+00 1.348298e+00 2.592103e+00 1.567199e+00 2.584262e+00 2.186764e+00 2.295649e+00 2.414907e+00 2.209647e+00 2.337144e-01
<GCONST> 8.386104e+01
~s "ST_ng_4_1"
<MEAN> 25
 -4.130890e+00 6.836804e+00 4.280925e+00 1.697414e+00 4.067370e+00 2.868183e+00 -3.007686e-01 7.132564e-01 1.855322e+00 2.767873e-01 -3.006873e+00 -1.511988e+00 -1.905600e+00 6.482606e-01 3.905595e-01 -1.270060e-01 1.309662e-01 3.409275e-01 3.032246e-01 -7.624584e-01 -1.745912e-01 1.184761e+00 1.332428e+00 6.641123e-01 -1.573313e+00
<VARIANCE> 25
 1.653986e+01 1.349958e+01 2.327317e+01 1.951282e+01 1.903178e+01 4.417683e+01 1.957978e+01 3.081464e+01 2.899094e+01 2.837213e+01 2.026143e+01 2.269560e+01 4.459125e-01 2.344137e+00 2.405318e+00 1.859833e+00 1.523711e+00 4.320506e+00 1.855813e+00 2.813240e+00 3.026377e+00 3.400674e+00 2.607239e+00 1.684173e+00 6.106836e-01
<GCONST> 9.185117e+01
~s "ST_m_3_1"
<MEAN> 25
 2.720002e-01 5.198735e+00 1.219009e+00 1.250771e+00 5.593652e+00 5.664824e+00 3.411393e+00 3.274246e+00 9.096422e-01 -3.361190e+00 -7.582407e+00 -5.944850e+00 2.281919e+00 -2.452672e-01 -5.883369e-01 -1.098731e+00 -1.361673e+00 -5.495933e-01 -2.658239e-01 -2.033179e-01 -3.872492e-01 -9.790198e-01 -5.177569e-01 4.269450e-01 1.789459e+00
<VARIANCE> 25
 2.359697e+01 3.524533e+01 1.904357e+01 2.029559e+01 3.040910e+01 3.816555e+01 2.547292e+01 2.814005e+01 2.558444e+01 3.405877e+01 4.647225e+01 2.455720e+01 5.699321e+00 1.966934e+00 1.712538e+00 1.737673e+00 3.096371e+00 3.533669e+00 3.459944e+00 2.770945e+00 3.153802e+00 3.510983e+00 5.805086e+00 2.751721e+00 2.536801e+00
<GCONST> 1.003356e+02
~s "ST_m_3_2"
<MEAN> 25
 -6.090645e+00 8.895189e+00 4.059435e+00 1.120523e-01 4.320121e+00 4.471880e+00 3.480104e+00 2.650918e+00 3.084934e+00 3.291350e+00 -6.043043e-01 -1.484141e+00 -7.827775e-01 -1.997721e+00 -4.410645e-01 -6.079499e-01 -5.718086e-01 7.724357e-01 -8.958554e-01 -1.669097e+00 -4.875309e-01 -2.197905e-01 6.861439e-01 1.169632e+00 1.333669e-01
<VARIANCE> 25
 8.133589e+00 1.103122e+01 1.588549e+01 2.237926e+01 2.007848e+01 3.441150e+01 1.781127e+01 3.154687e+01 2.249745e+01 2.719997e+01 2.294503e+01 2.382136e+01 7.659820e-01 2.160914e+00 1.000643e+00 1.312559e+00 1.745331e+00 1.691654e+00 1.755888e+00 1.728376e+00 2.152628e+00 2.808059e+00 1.546690e+00 1.521118e+00 8.705137e-01
<GCONST> 8.739230e+01
~s "ST_m_4_1"
<MEAN> 25
 6.630886e+00 8.980930e-01 -6.196518e+00 -6.189131e+00 -2.096758e+00 2.044318e+00 6.693719e+00 5.740788e+00 2.236868e-01 -3.716602e+00 -4.199015e+00 -5.751894e-01 1.697652e+00 -3.508677e+00 -2.329909e+00 -7.881688e-01 -2.057763e+00 -8.406696e-01 1.754549e+00 9.568978e-01 -5.745370e-01 -7.932065e-02 1.667980e+00 1.649147e+00 2.262401e+00
<VARIANCE> 25
 6.678887e+00 3.935195e+01 1.982150e+01 1.730061e+01 3.117190e+01 2.464264e+01 4.895906e+01 2.475749e+01 2.943112e+01 2.514997e+01 3.006022e+01 2.519841e+01 2.410652e+00 3.061356e+00 1.853953e+00 3.286078e+00 3.779046e+00 3.399128e+00 2.693154e+00 2.998527e+00 2.626853e+00 5.636415e+00 2.854635e+00 3.957660e+00 1.360037e+00
<GCONST> 9.821169e+01
~s "ST_m_4_2"
<MEAN> 25
 5.348977e+00 1.512107e+00 -2.612959e+00 -5.142073e+00 -3.959629e+00 -1.722274e+00 1.836184e+00 4.765368e+00 1.436643e+00 -3.827684e+00 -4.110343e+00 -1.062579e+00 6.527025e-01 -1.573308e+00 -1.140813e+00 -1.058662e+00 -1.749677e+00 -1.217247e+00 1.209263e-01 -3.655433e-03 -2.409272e-01 -6.979351e-02 1.489772e+00 2.184876e+00 9.885213e-01
<VARIANCE> 25
 8.280062e+00 3.318551e+01 3.116079e+01 2.918811e+01 4.040567e+01 2.854737e+01 4.231126e+01 3.828981e+01 2.299548e+01 2.098800e+01 2.205688e+01 2.238781e+01 2.467107e-01 3.106600e+00 2.215803e+00 2.154322e+00 2.123003e+00 3.657977e+00 3.249637e+00 3.104809e+00 1.402316e+00 2.413817e+00 1.536161e+00 3.419802e+00 4.450717e-01
<GCONST> 9.292500e+01
~s "ST_m_4_3"
<MEAN> 25
 -5.079137e+00 4.297654e-01 1.708435e-01 -3.224642e+00 8.567292e-01 6.983201e+00 2.289994e+00 -9.174868e-01 -1.955529e-01 -1.642063e+00 -3.285614e-01 1.426764e+00 1.393687e+00 -7.735636e-01 1.986779e-01 -4.798342e-01 -1.792392e+00 -9.717709e-01 -1.697646e+00 -2.085174e+00 -1.083782e+00 -1.075329e+00 -1.641596e-01 8.247270e-01 1.403174e+00
<VARIANCE> 25
 1.190737e+01 4.317859e+01 2.418482e+01 2.274890e+01 2.402952e+01 2.153678e+01 3.000220e+01 3.647461e+01 2.861732e+01 2.771169e+01 1.915897e+01 1.663543e+01 1.453578e+00 5.272881e+00 1.547382e+00 1.576955e+00 2.728986e+00 4.840314e+00 3.488820e+00 3.064496e+00 1.777440e+00 2.093731e+00 1.480427e+00 1.657855e+00 9.729288e-01
<GCONST> 9.425033e+01
~s "ST_c_2_1"
<MEAN> 25
 -7.127739e+00 -1.047479e+01 1.814786e+01 -1.696628e+00 -5.718019e+00 1.526384e+01 5.394500e-01 -6.091917e-01 3.088942e+00 -1.801596e+00 2.448656e+00 3.088246e+00 -1.811956e+00 -5.834297e+00 4.192154e+00 -7.849672e-02 -2.163483e+00 9.152570e-01 -2.342173e+00 3.088970e-01 7.389885e-02 -4.888437e-01 1.494551e+00 5.678548e-02 1.974448e+00
<VARIANCE> 25
 1.660453e+01 9.897151e+01 8.298416e+01 2.436667e+01 3.335302e+01 4.465055e+01 4.989293e+01 2.618147e+01 1.418957e+01 1.122046e+01 3.451099e+01 8.336031e+00 1.754689e+00 7.858090e+00 5.095617e+00 3.692986e+00 3.771914e+00 6.722149e+00 6.027983e+00 3.114890e+00 2.224981e+00 2.894504e+00 1.634126e+00 9.280860e-01 1.451862e+00
<GCONST> 1.005525e+02
~s "ST_c_3_1"
<MEAN> 25
 -3.104324e+00 -1.669048e+01 1.714549e+01 7.765242e+00 -3.942813e+00 3.190488e+00 -9.516585e+00 -3.699726e+00 7.591550e-01 -2.720425e+00 4.192650e+00 1.117581e+00 2.997844e+00 6.613914e-01 -3.546648e+00 3.044735e+00 1.823053e+00 -4.038567e+00 -1.758995e+00 -1.794694e+00 -1.283466e+00 1.185439e-01 -2.579298e-01 -1.278217e+00 9.421816e-01
<VARIANCE> 25
 3.689126e+01 2.940505e+01 4.460012e+01 3.975242e+01 3.267728e+01 7.682441e+01 4.774535e+01 3.309651e+01 2.367968e+01 1.924629e+01 1.973356e+01 2.033566e+01 1.695043e+00 2.751555e+00 3.010698e+00 3.232265e+00 3.409561e+00 6.140735e+00 3.787128e+00 2.653717e+00 1.502854e+00 3.694892e+00 2.469072e+00 2.753657e+00 4.035302e-01
<GCONST> 9.961454e+01
~s "ST_c_4_1"
<MEAN> 25
 4.504994e+00 -1.500058e+01 3.941339e+00 1.247787e+01 3.068439e+00 -4.977015e+00 -1.143851e+01 -6.910357e+00 -4.007258e+00 -1.982396e+00 3.324795e+00 -2.876650e+00 3.410925e-01 1.093459e+00 -1.705467e+00 -2.333157e-01 9.261250e-01 -8.827288e-02 8.191342e-01 -3.959526e-01 -5.547519e-01 3.059331e-01 -3.470054e-01 1.639896e-01 -5.191972e-01
<VARIANCE> 25
 3.302372e+00 2.122587e+01 2.973082e+01 2.038385e+01 3.734254e+01 4.269773e+01 2.418383e+01 1.420820e+01 2.685190e+01 4.563992e+01 1.258879e+01 3.245533e+01 2.969278e-01 1.367733e+00 1.033926e+00 9.961551e-01 1.282428e+00 1.605076e+00 1.497796e+00 1.402584e+00 8.829033e-01 1.685242e+00 6.153927e-01 1.331737e+00 4.751545e-01
<GCONST> 8.298817e+01
~s "ST_p_2_1"
<MEAN> 25
 -3.364444e+00 5.357751e+00 5.422400e-01 -2.299628e+00 -7.193221e-01 -1.959963e+00 -2.745526e+00 -1.663783e+00 3.648335e-01 1.517771e+00 1.076867e+00 1.210227e+00 5.222261e-01 5.883918e-01 8.661368e-01 3.134194e-01 -3.038982e-01 -7.166196e-01 -7.514894e-01 -2.988354e-01 1.414622e-01 -6.195726e-02 -3.065405e-01 -5.787983e-01 3.524352e-01
<VARIANCE> 25
 2.088267e+01 4.150090e+01 2.000452e+01 1.891827e+01 2.627655e+01 4.788205e+01 3.567441e+01 3.861492e+01 2.742303e+01 2.811135e+01 2.151867e+01 1.975170e+01 3.318940e+00 5.280221e+00 2.403134e+00 2.015842e+00 2.446176e+00 6.752332e+00 2.253611e+00 2.750013e+00 2.957337e+00 2.249038e+00 2.577218e+00 3.224428e+00 1.240650e+00
<GCONST> 9.901072e+01
~s "ST_p_2_2"
<MEAN> 25
 8.904719e-01 8.103998e+00 5.083293e+00 -1.849638e+00 -4.033710e+00 -3.149963e+00 -3.987437e+00 -4.016822e+00 -1.565633e+00 -9.398410e-01 -7.717856e-01 3.305441e-01 2.149800e+00 2.192354e+00 1.721673e+00 7.231883e-01 -2.542695e+00 -4.961199e+00 -2.002261e+00 -1.719458e-01 -3.144374e-01 3.529716e-01 4.734643e-02 -9.442804e-01 1.059406e+00
<VARIANCE> 25
 1.552254e+01 2.898050e+01 1.619005e+01 1.517489e+01 3.316756e+01 6.509491e+01 3.233370e+01 2.511229e+01 2.993607e+01 2.561306e+01 1.717118e+01 1.506347e+01 1.232184e+00 3.172291e+00 2.215555e+00 2.435669e+00 3.889638e+00 2.722737e+00 4.367617e+00 3.974067e+00 3.761185e+00 2.863689e+00 3.674461e+00 2.067777e+00 5.412223e-01
<GCONST> 9.618818e+01
~s "ST_p_3_1"
<MEAN> 25
 -2.327325e-01 8.004133e+00 3.898796e+00 -1.076618e-01 -3.234719e+00 -8.718724e+00 -4.519586e+00 1.622645e+00 2.458694e+00 1.001392e+00 -7.019214e-01 -1.572862e+00 -7.581617e-02 -9.957878e-01 6.511169e-03 3.440407e-02 -1.906132e-01 3.269774e-01 8.989808e-02 2.885312e-01 5.040564e-01 -2.345890e-01 -2.308888e-01 1.391225e-01 3.370289e-01
<VARIANCE> 25
 3.012183e+01 2.422171e+01 3.481918e+01 2.871078e+01 4.415628e+01 7.176423e+01 6.963192e+01 2.422462e+01 4.623442e+01 3.727391e+01 3.231802e+01 3.569867e+01 7.525667e-01 2.125982e+00 1.718974e+00 1.774693e+00 2.561719e+00 3.405974e+00 2.211562e+00 4.950609e+00 2.463683e+00 2.339730e+00 2.316191e+00 2.536229e+00 6.494024e-01
<GCONST> 9.867669e+01
~s "ST_p_3_2"
<MEAN> 25
 4.545607e+00 1.047996e+01 6.835383e+00 1.324918e+00 -6.320028e+00 -1.358640e+01 -8.023158e+00 -4.684835e-02 1.397118e+00 -8.312877e-01 -2.868184e+00 -3.707391e+00 5.375673e-02 4.774790e-03 1.992254e-01 2.110604e-01 -2.591744e-01 -6.940693e-01 -7.176839e-02 6.668360e-01 4.480864e-01 1.103398e-01 -1.660741e-01 -5.313433e-01 7.178648e-02
<VARIANCE> 25
 4.919838e+00 1.172835e+01 1.796075e+01 1.871138e+01 3.556921e+01 1.834544e+01 2.905715e+01 3.674629e+01 3.248111e+01 2.613044e+01 2.707164e+01 2.382737e+01 2.678214e-01 6.599234e-01 8.953111e-01 9.005570e-01 1.170925e+00 2.165236e+00 1.311686e+00 1.585377e+00 1.515308e+00 1.711844e+00 1.809226e+00 1.232204e+00 2.046723e-01
<GCONST> 8.236938e+01
~s "ST_p_4_1"
<MEAN> 25
 -1.108040e+00 2.148683e+00 -3.707501e-01 -1.726325e+00 -8.131614e-01 -8.366860e-01 -1.259987e+00 -7.677909e-01 -3.914093e-01 -7.647909e-01 1.035046e-01 1.083798e+00 1.107136e+00 -1.824077e+00 -4.285870e-01 1.289283e+00 1.385943e+00 1.140006e+00 -7.854965e-01 -1.753779e+00 -1.076153e+00 -5.353150e-01 -4.114014e-01 -4.148895e-01 1.388912e+00
<VARIANCE> 25
 2.612116e+01 6.164870e+01 4.486619e+01 2.328929e+01 5.773110e+01 8.444733e+01 4.149732e+01 6.266294e+01 4.830254e+01 3.448942e+01 3.977727e+01 5.215413e+01 3.033343e+00 4.751026e+00 3.470418e+00 6.222478e+00 3.542098e+00 5.926818e+00 4.976417e+00 4.630784e+00 4.447694e+00 3.316178e+00 2.606191e+00 3.816164e+00 2.323407e+00
<GCONST> 1.094473e+02
~s "ST_p_4_2"
<MEAN> 25
 3.160898e+00 8.662708e+00 7.304588e+00 -4.516635e-04 -8.890347e+00 -1.189982e+01 -3.918855e+00 8.889711e-01 -4.475920e-01 -9.459842e-01 -1.560143e+00 -2.923180e+00 -3.932219e-02 -5.225225e-01 -8.438435e-01 -2.215697e-01 9.191206e-01 1.215814e+00 4.221485e-01 7.424281e-02 -2.584688e-01 -9.802125e-01 -6.865699e-01 3.772891e-01 4.651957e-02
<VARIANCE> 25
 7.146765e+00 2.120740e+01 1.914625e+01 2.015011e+01 5.294735e+01 4.916341e+01 6.406228e+01 4.927180e+01 4.268024e+01 6.540141e+01 5.389219e+01 2.914820e+01 5.692065e-01 1.399156e+00 2.214463e+00 1.384623e+00 5.277766e+00 4.458706e+00 4.070339e+00 3.353703e+00 2.828917e+00 4.704535e+00 2.336421e+00 2.483818e+00 5.950414e-01
<GCONST> 9.863123e+01
~h "@"
<BEGINHMM>
<NUMSTATES> 5
<STATE> 2
~s "ST_@_2_1"
<STATE> 3
~s "ST_@_3_1"
<STATE> 4
~s "ST_@_4_1"
~t "T_@"
<ENDHMM>
~h "a"
<BEGINHMM>
<NUMSTATES> 5
<STATE> 2
~s "ST_a_2_5"
<STATE> 3
~s "ST_a_3_1"
<STATE> 4
~s "ST_a_4_1"
~t "T_a"
<ENDHMM>
~h "b"
<BEGINHMM>
<NUMSTATES> 5
<STATE> 2
~s "ST_b_2_1"
<STATE> 3
~s "ST_b_3_1"
<STATE> 4
~s "ST_b_4_1"
~t "T_b"
<ENDHMM>
~h "c"
<BEGINHMM>
<NUMSTATES> 5
<STATE> 2
~s "ST_c_2_1"
<STATE> 3
~s "ST_c_3_1"
<STATE> 4
~s "ST_c_4_1"
~t "T_c"
<ENDHMM>
~h "d"
<BEGINHMM>
<NUMSTATES> 5
<STATE> 2
~s "ST_d_2_1"
<STATE> 3
~s "ST_d_3_1"
<STATE> 4
~s "ST_d_4_1"
~t "T_d"
<ENDHMM>
~h "e"
<BEGINHMM>
<NUMSTATES> 5
<STATE> 2
~s "ST_e_2_1"
<STATE> 3
~s "ST_e_3_1"
<STATE> 4
~s "ST_e_4_1"
~t "T_e"
<ENDHMM>
~h "g"
<BEGINHMM>
<NUMSTATES> 5
<STATE> 2
~s "ST_g_2_1"
<STATE> 3
~s "ST_g_3_1"
<STATE> 4
~s "ST_g_4_1"
~t "T_g"
<ENDHMM>
~h "h"
<BEGINHMM>
<NUMSTATES> 5
<STATE> 2
~s "ST_h_2_1"
<STATE> 3
~s "ST_h_3_1"
<STATE> 4
~s "ST_h_4_1"
~t "T_h"
<ENDHMM>
~h "i"
<BEGINHMM>
<NUMSTATES> 5
<STATE> 2
~s "ST_i_2_1"
<STATE> 3
~s "ST_i_3_1"
<STATE> 4
~s "ST_i_4_1"
~t "T_i"
<ENDHMM>
~h "j"
<BEGINHMM>
<NUMSTATES> 5
<STATE> 2
~s "ST_j_2_1"
<STATE> 3
~s "ST_j_3_1"
<STATE> 4
~s "ST_j_4_1"
~t "T_j"
<ENDHMM>
~h "k"
<BEGINHMM>
<NUMSTATES> 5
<STATE> 2
~s "ST_k_2_1"
<STATE> 3
~s "ST_k_3_1"
<STATE> 4
~s "ST_k_4_1"
~t "T_k"
<ENDHMM>
~h "l"
<BEGINHMM>
<NUMSTATES> 5
<STATE> 2
~s "ST_l_2_1"
<STATE> 3
~s "ST_l_3_1"
<STATE> 4
~s "ST_l_4_1"
~t "T_l"
<ENDHMM>
~h "m"
<BEGINHMM>
<NUMSTATES> 5
<STATE> 2
~s "ST_m_2_1"
<STATE> 3
~s "ST_m_3_1"
<STATE> 4
~s "ST_m_4_1"
~t "T_m"
<ENDHMM>
~h "n"
<BEGINHMM>
<NUMSTATES> 5
<STATE> 2
~s "ST_n_2_1"
<STATE> 3
~s "ST_n_3_1"
<STATE> 4
~s "ST_n_4_1"
~t "T_n"
<ENDHMM>
~h "p"
<BEGINHMM>
<NUMSTATES> 5
<STATE> 2
~s "ST_p_2_1"
<STATE> 3
~s "ST_p_3_1"
<STATE> 4
~s "ST_p_4_1"
~t "T_p"
<ENDHMM>
~h "r"
<BEGINHMM>
<NUMSTATES> 5
<STATE> 2
~s "ST_r_2_1"
<STATE> 3
~s "ST_r_3_1"
<STATE> 4
~s "ST_r_4_1"
~t "T_r"
<ENDHMM>
~h "s"
<BEGINHMM>
<NUMSTATES> 5
<STATE> 2
~s "ST_s_2_1"
<STATE> 3
~s "ST_s_3_1"
<STATE> 4
~s "ST_s_4_1"
~t "T_s"
<ENDHMM>
~h "t"
<BEGINHMM>
<NUMSTATES> 5
<STATE> 2
~s "ST_t_2_1"
<STATE> 3
~s "ST_t_3_1"
<STATE> 4
~s "ST_t_4_1"
~t "T_t"
<ENDHMM>
~h "u"
<BEGINHMM>
<NUMSTATES> 5
<STATE> 2
~s "ST_u_2_1"
<STATE> 3
~s "ST_u_3_1"
<STATE> 4
~s "ST_u_4_1"
~t "T_u"
<ENDHMM>
~h "u-r+u"
<BEGINHMM>
<NUMSTATES> 5
<STATE> 2
~s "ST_r_2_1"
<STATE> 3
~s "ST_r_3_2"
<STATE> 4
~s "ST_r_4_2"
~t "T_r"
<ENDHMM>
~h "ng"
<BEGINHMM>
<NUMSTATES> 5
<STATE> 2
~s "ST_ng_2_1"
<STATE> 3
~s "ST_ng_3_1"
<STATE> 4
~s "ST_ng_4_1"
~t "T_ng"
<ENDHMM>
~h "ny"
<BEGINHMM>
<NUMSTATES> 5
<STATE> 2
~s "ST_ny_2_1"
<STATE> 3
~s "ST_ny_3_1"
<STATE> 4
~s "ST_ny_4_1"
~t "T_ny"
<ENDHMM>
~h "sp"
<BEGINHMM>
<NUMSTATES> 3
<STATE> 2
~s "ST_sil_3_1"
<TRANSP> 3
 0.000000e+00 2.975255e-02 9.702474e-01
 0.000000e+00 7.471886e-01 2.528114e-01
 0.000000e+00 0.000000e+00 0.000000e+00
<ENDHMM>
~h "u-a+ng"
<BEGINHMM>
<NUMSTATES> 5
<STATE> 2
~s "ST_a_2_2"
<STATE> 3
~s "ST_a_3_1"
<STATE> 4
~s "ST_a_4_5"
~t "T_a"
<ENDHMM>
~h "k-k+a"
<BEGINHMM>
<NUMSTATES> 5
<STATE> 2
~s "ST_k_2_2"
<STATE> 3
~s "ST_k_3_2"
<STATE> 4
~s "ST_k_4_1"
~t "T_k"
<ENDHMM>
~h "k-u+n"
<BEGINHMM>
<NUMSTATES> 5
<STATE> 2
~s "ST_u_2_1"
<STATE> 3
~s "ST_u_3_1"
<STATE> 4
~s "ST_u_4_3"
~t "T_u"
<ENDHMM>
~h "a-l+a"
<BEGINHMM>
<NUMSTATES> 5
<STATE> 2
~s "ST_l_2_2"
<STATE> 3
~s "ST_l_3_1"
<STATE> 4
~s "ST_l_4_1"
~t "T_l"
<ENDHMM>
~h "a-m+a"
<BEGINHMM>
<NUMSTATES> 5
<STATE> 2
~s "ST_m_2_1"
<STATE> 3
~s "ST_m_3_1"
<STATE> 4
~s "ST_m_4_2"
~t "T_m"
<ENDHMM>
~h "a-m+p"
<BEGINHMM>
<NUMSTATES> 5
<STATE> 2
~s "ST_m_2_2"
<STATE> 3
~s "ST_m_3_2"
<STATE> 4
~s "ST_m_4_3"
~t "T_m"
<ENDHMM>
~h "a-n+d"
<BEGINHMM>
<NUMSTATES> 5
<STATE> 2
~s "ST_n_2_2"
<STATE> 3
~s "ST_n_3_2"
<STATE> 4
~s "ST_n_4_2"
~t "T_n"
<ENDHMM>
~h "a-s+e"
<BEGINHMM>
<NUMSTATES> 5
<STATE> 2
~s "ST_s_2_2"
<STATE> 3
~s "ST_s_3_1"
<STATE> 4
~s "ST_s_4_1"
~t "T_s"
<ENDHMM>
~h "d-a+p"
<BEGINHMM>
<NUMSTATES> 5
<STATE> 2
~s "ST_a_2_2"
<STATE> 3
~s "ST_a_3_2"
<STATE> 4
~s "ST_a_4_1"
~t "T_a"
<ENDHMM>
~h "ny-a+l"
<BEGINHMM>
<NUMSTATES> 5
<STATE> 2
~s "ST_a_2_3"
<STATE> 3
~s "ST_a_3_1"
<STATE> 4
~s "ST_a_4_3"
~t "T_a"
<ENDHMM>
~h "g-a+r"
<BEGINHMM>
<NUMSTATES> 5
<STATE> 2
~s "ST_a_2_2"
<STATE> 3
~s "ST_a_3_1"
<STATE> 4
~s "ST_a_4_3"
~t "T_a"
<ENDHMM>
~h "t-a+m"
<BEGINHMM>
<NUMSTATES> 5
<STATE> 2
~s "ST_a_2_4"
<STATE> 3
~s "ST_a_3_4"
<STATE> 4
~s "ST_a_4_5"
~t "T_a"
<ENDHMM>
~h "t-i+d"
<BEGINHMM>
<NUMSTATES> 5
<STATE> 2
~s "ST_i_2_2"
<STATE> 3
~s "ST_i_3_2"
<STATE> 4
~s "ST_i_4_3"
~t "T_i"
<ENDHMM>
~h "t-i+k"
<BEGINHMM>
<NUMSTATES> 5
<STATE> 2
~s "ST_i_2_2"
<STATE> 3
~s "ST_i_3_2"
<STATE> 4
~s "ST_i_4_2"
~t "T_i"
<ENDHMM>
~h "t-i+r"
<BEGINHMM>
<NUMSTATES> 5
<STATE> 2
~s "ST_i_2_2"
<STATE> 3
~s "ST_i_3_3"
<STATE> 4
~s "ST_i_4_3"
~t "T_i"
<ENDHMM>
~h "t-u+p"
<BEGINHMM>
<NUMSTATES> 5
<STATE> 2
~s "ST_u_2_4"
<STATE> 3
~s "ST_u_3_2"
<STATE> 4
~s "ST_u_4_4"
~t "T_u"
<ENDHMM>
~h "t-u+r"
<BEGINHMM>
<NUMSTATES> 5
<STATE> 2
~s "ST_u_2_4"
<STATE> 3
~s "ST_u_3_1"
<STATE> 4
~s "ST_u_4_3"
~t "T_u"
<ENDHMM>
~h "a+s"
<BEGINHMM>
<NUMSTATES> 5
<STATE> 2
~s "ST_a_2_5"
<STATE> 3
~s "ST_a_3_1"
<STATE> 4
~s "ST_a_4_4"
~t "T_a"
<ENDHMM>
~h "m-a+n"
<BEGINHMM>
<NUMSTATES> 5
<STATE> 2
~s "ST_a_2_5"
<STATE> 3
~s "ST_a_3_3"
<STATE> 4
~s "ST_a_4_6"
~t "T_a"
<ENDHMM>
~h "m-a+r"
<BEGINHMM>
<NUMSTATES> 5
<STATE> 2
~s "ST_a_2_5"
<STATE> 3
~s "ST_a_3_1"
<STATE> 4
~s "ST_a_4_3"
~t "T_a"
<ENDHMM>
~h "m-a+t"
<BEGINHMM>
<NUMSTATES> 5
<STATE> 2
~s "ST_a_2_5"
<STATE> 3
~s "ST_a_3_2"
<STATE> 4
~s "ST_a_4_2"
~t "T_a"
<ENDHMM>
~h "d-i"
<BEGINHMM>
<NUMSTATES> 5
<STATE> 2
~s "ST_i_2_1"
<STATE> 3
~s "ST_i_3_4"
<STATE> 4
~s "ST_i_4_1"
~t "T_i"
<ENDHMM>
~h "k-a"
<BEGINHMM>
<NUMSTATES> 5
<STATE> 2
~s "ST_a_2_1"
<STATE> 3
~s "ST_a_3_1"
<STATE> 4
~s "ST_a_4_1"
~t "T_a"
<ENDHMM>
~h "l-a"
<BEGINHMM>
<NUMSTATES> 5
<STATE> 2
~s "ST_a_2_1"
<STATE> 3
~s "ST_a_3_1"
<STATE> 4
~s "ST_a_4_2"
~t "T_a"
<ENDHMM>
~h "m-u"
<BEGINHMM>
<NUMSTATES> 5
<STATE> 2
~s "ST_u_2_2"
<STATE> 3
~s "ST_u_3_3"
<STATE> 4
~s "ST_u_4_2"
~t "T_u"
<ENDHMM>
~h "n+a"
<BEGINHMM>
<NUMSTATES> 5
<STATE> 2
~s "ST_n_2_2"
<STATE> 3
~s "ST_n_3_2"
<STATE> 4
~s "ST_n_4_1"
~t "T_n"
<ENDHMM>
~h "p-u"
<BEGINHMM>
<NUMSTATES> 5
<STATE> 2
~s "ST_u_2_1"
<STATE> 3
~s "ST_u_3_3"
<STATE> 4
~s "ST_u_4_2"
~t "T_u"
<ENDHMM>
~h "m-p+u"
<BEGINHMM>
<NUMSTATES> 5
<STATE> 2
~s "ST_p_2_2"
<STATE> 3
~s "ST_p_3_2"
<STATE> 4
~s "ST_p_4_2"
~t "T_p"
<ENDHMM>
~h "t-u"
<BEGINHMM>
<NUMSTATES> 5
<STATE> 2
~s "ST_u_2_3"
<STATE> 3
~s "ST_u_3_1"
<STATE> 4
~s "ST_u_4_1"
~t "T_u"
<ENDHMM>
~h "sil"
<BEGINHMM>
<NUMSTATES> 5
<STATE> 2
~s "ST_sil_2_1"
<STATE> 3
~s "ST_sil_3_1"
<STATE> 4
~s "ST_sil_4_1"
<TRANSP> 5
 0.000000e+00 1.000000e+00 0.000000e+00 0.000000e+00 0.000000e+00
 0.000000e+00 8.008948e-01 4.407349e-02 1.550317e-01 0.000000e+00
 0.000000e+00 0.000000e+00 8.553586e-01 1.446414e-01 0.000000e+00
 0.000000e+00 5.867912e-02 0.000000e+00 3.270199e-01 6.143010e-01
 0.000000e+00 0.000000e+00 0.000000e+00 0.000000e+00 0.000000e+00
<ENDHMM>
~h "p-u+r"
<BEGINHMM>
<NUMSTATES> 5
<STATE> 2
~s "ST_u_2_1"
<STATE> 3
~s "ST_u_3_3"
<STATE> 4
~s "ST_u_4_3"
~t "T_u"
<ENDHMM>
~h "l-a+k"
<BEGINHMM>
<NUMSTATES> 5
<STATE> 2
~s "ST_a_2_2"
<STATE> 3
~s "ST_a_3_2"
<STATE> 4
~s "ST_a_4_2"
~t "T_a"
<ENDHMM>
~h "b-u+k"
<BEGINHMM>
<NUMSTATES> 5
<STATE> 2
~s "ST_u_2_1"
<STATE> 3
~s "ST_u_3_3"
<STATE> 4
~s "ST_u_4_4"
~t "T_u"
<ENDHMM>
~h "r-a+s"
<BEGINHMM>
<NUMSTATES> 5
<STATE> 2
~s "ST_a_2_1"
<STATE> 3
~s "ST_a_3_1"
<STATE> 4
~s "ST_a_4_4"
~t "T_a"
<ENDHMM>
~h "r-u+a"
<BEGINHMM>
<NUMSTATES> 5
<STATE> 2
~s "ST_u_2_2"
<STATE> 3
~s "ST_u_3_1"
<STATE> 4
~s "ST_u_4_3"
~t "T_u"
<ENDHMM>
~h "k-a+n"
<BEGINHMM>
<NUMSTATES> 5
<STATE> 2
~s "ST_a_2_2"
<STATE> 3
~s "ST_a_3_3"
<STATE> 4
~s "ST_a_4_6"
~t "T_a"
<ENDHMM>
