~o
<STREAMINFO> 1 25
<VECSIZE> 25<NULLD><MFCC_D_N_Z_0><DIAGC>
~s "silst"
<MEAN> 25
 -1.409191e+01 1.047947e+00 -4.300659e+00 -3.888186e+00 4.068275e+00 3.955007e+00 5.056877e+00 5.093940e+00 5.817668e+00 7.262472e+00 1.256267e+00 -1.715172e+00 -2.363419e-01 -2.611834e-01 -2.426920e-01 -1.415340e-01 -2.641535e-02 -4.017545e-02 6.225350e-02 1.208954e-01 5.547578e-02 6.369750e-04 -1.270018e-01 -1.431982e-01 -1.189156e-01
<VARIANCE> 25
 8.980153e+00 2.015564e+01 1.250146e+01 1.209698e+01 2.180568e+01 1.749441e+01 1.350259e+01 1.716392e+01 1.504303e+01 1.503632e+01 1.571374e+01 1.704336e+01 2.980702e-01 6.489877e-01 7.125331e-01 6.977414e-01 7.612974e-01 9.430781e-01 9.624000e-01 8.058938e-01 9.895381e-01 1.015711e+00 7.988567e-01 7.335839e-01 9.512144e-02
<GCONST> 7.275667e+01
~h "@"
<BEGINHMM>
<NUMSTATES> 5
<STATE> 2
<MEAN> 25
 4.164442e+00 -7.912629e+00 7.169982e+00 9.455362e+00 2.399476e+00 -3.487321e-01 -1.240064e+01 -1.294568e+01 -4.096851e+00 -1.151746e-01 1.963595e+00 -3.069258e+00 1.215830e+00 9.049776e-01 -2.689503e+00 -5.039902e-01 8.537437e-01 -7.657458e-02 1.558378e+00 3.449656e-01 -8.849729e-01 -1.399082e-01 -6.302426e-01 -1.428053e-01 -4.505867e-03
<VARIANCE> 25
 8.554412e+00 8.527427e+00 1.904840e+01 2.015504e+01 1.777530e+01 2.029790e+01 2.960128e+01 1.748322e+01 2.338170e+01 2.595091e+01 1.529838e+01 2.171306e+01 5.203944e-01 1.224087e+00 2.686341e+00 1.260129e+00 1.727851e+00 2.800437e+00 2.444621e+00 3.848900e+00 2.563604e+00 1.950002e+00 1.054776e+00 1.823504e+00 3.077913e-01
<GCONST> 8.621006e+01
<STATE> 3
<MEAN> 25
 4.701719e+00 -2.235649e+00 5.239194e+00 8.614732e+00 5.010757e+00 2.740064e+00 -6.721892e+00 -9.355950e+00 -4.777611e+00 -1.428992e+00 -2.359854e-01 -2.282591e+00 -4.075009e-01 2.931351e+00 -4.888251e-01 -9.688733e-02 1.414656e+00 3.572152e-01 1.444245e+00 1.859612e+00 1.354846e+00 4.151090e-01 -1.598339e+00 -5.966738e-01 -1.630513e+00
<VARIANCE> 25
 7.080735e+00 2.016348e+01 1.306487e+01 1.277399e+01 1.848586e+01 2.067883e+01 1.743134e+01 2.483216e+01 2.188893e+01 1.681301e+01 1.473016e+01 1.900402e+01 2.073652e-01 6.159027e-01 1.383250e+00 6.961717e-01 1.549770e+00 1.340374e+00 1.141922e+00 1.330408e+00 3.590622e+00 3.401623e+00 2.437421e+00 1.208527e+00 2.021160e-01
<GCONST> 8.062231e+01
<STATE> 4
<MEAN> 25
 4.326942e+00 4.040790e+00 4.125760e+00 8.275329e+00 8.307531e+00 2.471228e+00 -5.721003e+00 -4.981337e+00 -8.874370e-01 -1.651440e+00 -4.799547e+00 -4.992001e+00 -2.425328e-02 1.251435e+00 3.557790e-03 -2.462918e-01 5.058920e-01 -8.271998e-02 -8.211026e-02 5.728667e-01 5.047289e-01 -3.219565e-01 -7.194152e-01 -4.924908e-01 -4.591230e-01
<VARIANCE> 25
 4.766183e+00 1.213150e+01 1.474127e+01 2.014779e+01 1.159015e+01 2.870855e+01 1.153904e+01 1.392928e+01 1.765955e+01 1.756143e+01 2.285012e+01 9.657341e+00 1.674383e-01 8.362812e-01 5.594461e-01 5.521253e-01 1.193152e+00 9.108077e-01 1.108393e+00 1.061914e+00 1.882653e+00 1.260883e+00 1.956902e+00 5.125422e-01 2.367754e-01
<GCONST> 7.425105e+01
<TRANSP> 5
 0.000000e+00 1.000000e+00 0.000000e+00 0.000000e+00 0.000000e+00
 0.000000e+00 4.162559e-01 5.837441e-01 0.000000e+00 0.000000e+00
 0.000000e+00 0.000000e+00 6.214054e-01 3.785945e-01 0.000000e+00
 0.000000e+00 0.000000e+00 0.000000e+00 7.320062e-01 2.679938e-01
 0.000000e+00 0.000000e+00 0.000000e+00 0.000000e+00 0.000000e+00
<ENDHMM>
~h "a"
<BEGINHMM>
<NUMSTATES> 5
<STATE> 2
<MEAN> 25
 7.442893e+00 -8.915490e+00 -7.769121e+00 -4.175021e+00 -4.876650e+00 -2.632300e-01 6.114057e+00 2.511055e+00 -1.271480e+00 -3.522835e-01 2.513192e+00 1.901796e+00 -5.362084e-02 4.115416e-02 1.473007e-01 2.662048e-01 1.324171e-01 6.915820e-02 -2.701142e-01 -1.894982e-01 1.104441e-01 2.573641e-01 1.148603e-01 -8.493111e-02 -8.651840e-02
<VARIANCE> 25
 6.920281e+00 2.920385e+01 1.640882e+01 2.160249e+01 2.761488e+01 2.985124e+01 3.839902e+01 3.628998e+01 2.640367e+01 3.921419e+01 3.518053e+01 2.969890e+01 2.222500e-01 2.593723e+00 1.128624e+00 1.442008e+00 1.501644e+00 1.847431e+00 2.218121e+00 2.391283e+00 1.883829e+00 2.173993e+00 2.042530e+00 1.788027e+00 6.125911e-01
<GCONST> 8.981477e+01
<STATE> 3
<MEAN> 25
 6.862806e+00 -6.427932e+00 -6.204698e+00 -2.995933e+00 -4.781271e+00 -8.787616e-01 3.662969e+00 4.819451e-01 -1.303325e+00 -9.616471e-02 1.926621e+00 2.467119e+00 -7.563919e-01 2.320697e+00 8.396816e-01 5.142174e-01 1.109869e+00 -2.419170e-02 -7.959051e-01 2.871297e-02 3.392517e-02 -1.465824e-01 -5.738670e-01 -4.511660e-01 -1.441737e+00
<VARIANCE> 25
 5.799027e+00 2.572657e+01 1.709151e+01 1.877419e+01 2.580793e+01 3.244387e+01 3.173199e+01 4.388250e+01 3.182733e+01 3.671697e+01 3.291013e+01 3.001361e+01 4.091691e-01 1.189978e+00 1.290742e+00 1.335684e+00 1.675465e+00 2.442228e+00 2.120394e+00 2.350064e+00 2.310112e+00 2.577037e+00 2.400852e+00 2.456887e+00 5.003465e-01
<GCONST> 9.035748e+01
<STATE> 4
<MEAN> 25
 1.651081e+00 9.363541e-01 -4.248086e+00 -3.202891e+00 -1.212150e+00 6.051016e-01 3.511242e+00 2.123333e+00 5.680661e-01 1.432718e+00 1.345018e+00 2.158315e+00 -1.303419e+00 1.254706e+00 7.337481e-01 4.631507e-02 8.786438e-01 6.024798e-01 -3.484747e-01 1.406851e-01 4.941484e-01 1.188039e-01 -2.827732e-01 -1.792953e-01 -1.335747e+00
<VARIANCE> 25
 2.100890e+01 2.827801e+01 2.034110e+01 1.972036e+01 1.902320e+01 3.015673e+01 2.772364e+01 3.042712e+01 2.901838e+01 3.182009e+01 2.202693e+01 2.334233e+01 6.529709e-01 2.157410e+00 2.457438e+00 1.960819e+00 1.890426e+00 3.166987e+00 2.106244e+00 2.384281e+00 2.427560e+00 2.653545e+00 2.657428e+00 2.270684e+00 6.417230e-01
<GCONST> 9.302367e+01
<TRANSP> 5
 0.000000e+00 1.000000e+00 0.000000e+00 0.000000e+00 0.000000e+00
 0.000000e+00 5.934274e-01 4.065726e-01 0.000000e+00 0.000000e+00
 0.000000e+00 0.000000e+00 5.037796e-01 4.962204e-01 0.000000e+00
 0.000000e+00 0.000000e+00 0.000000e+00 5.578136e-01 4.421863e-01
 0.000000e+00 0.000000e+00 0.000000e+00 0.000000e+00 0.000000e+00
<ENDHMM>
~h "b"
<BEGINHMM>
<NUMSTATES> 5
<STATE> 2
<MEAN> 25
 -8.855339e+00 3.857315e+00 -5.553179e-01 -1.041333e+00 4.020838e+00 5.129528e+00 7.160540e+00 6.904213e+00 3.028018e+00 -5.070841e-01 -2.626677e+00 -7.340212e-01 3.139626e+00 2.278812e+00 2.014486e+00 9.487523e-01 -1.862780e-02 1.794962e-02 -6.847633e-01 -7.257481e-01 -1.110453e+00 -1.657570e+00 -7.988667e-01 -3.138599e-01 1.809114e+00
<VARIANCE> 25
 2.394502e+01 1.247662e+02 2.641284e+01 2.710435e+01 6.149881e+01 2.266749e+01 3.352842e+01 3.473600e+01 2.080713e+01 4.743139e+01 2.818069e+01 1.915854e+01 1.642648e+00 8.727566e+00 2.323568e+00 1.783683e+00 2.802998e+00 3.871826e+00 2.452149e+00 1.578110e+00 1.004199e+00 2.683870e+00 1.385047e+00 1.958826e+00 7.486027e-01
<GCONST> 9.753094e+01
<STATE> 3
<MEAN> 25
 1.867759e-02 1.471013e+01 7.212443e+00 3.054015e+00 5.446086e+00 2.943719e+00 1.927606e+00 3.108366e+00 8.784581e-01 -1.903583e+00 -2.315838e+00 -1.404044e+00 2.268938e+00 5.369070e-01 9.558892e-01 -3.392665e-01 -1.604887e+00 -8.322853e-01 -1.582523e+00 -1.349524e+00 -6.148770e-01 -1.059279e+00 -5.521614e-01 -6.706049e-01 1.664535e+00
<VARIANCE> 25
 7.361025e+00 4.825250e+01 2.020027e+01 2.807490e+01 3.651888e+01 2.958743e+01 1.918126e+01 3.392787e+01 1.605466e+01 2.681661e+01 2.529073e+01 1.314905e+01 2.366246e+00 1.092931e+01 2.594095e+00 2.340943e+00 2.468464e+00 5.119463e+00 2.433690e+00 1.615350e+00 2.444237e+00 3.523552e+00 1.780058e+00 1.677782e+00 1.248815e+00
<GCONST> 9.592698e+01
<STATE> 4
<MEAN> 25
 4.181461e+00 1.305892e+01 6.431256e+00 -2.340782e+00 -2.745033e+00 -1.194490e+00 -1.943156e+00 1.256113e+00 6.467080e-01 -5.637196e+00 -5.542219e+00 -4.784940e+00 1.380419e+00 8.348851e-01 2.992183e-01 -1.131863e+00 -2.611818e+00 -3.065249e+00 -9.778317e-01 1.120427e+00 4.306541e-01 -3.458966e-01 -3.683638e-01 -1.750926e+00 8.718079e-01
<VARIANCE> 25
 8.092385e+00 2.827838e+01 1.595258e+01 1.907734e+01 2.529893e+01 3.609272e+01 3.273978e+01 2.763468e+01 2.277421e+01 3.338272e+01 2.037608e+01 1.986573e+01 2.019857e+00 4.066276e+00 1.451504e+00 4.626528e+00 3.735663e+00 3.160326e+00 6.720060e+00 3.223172e+00 3.197808e+00 3.122987e+00 1.890114e+00 1.973242e+00 8.105306e-01
<GCONST> 9.632132e+01
<TRANSP> 5
 0.000000e+00 1.000000e+00 0.000000e+00 0.000000e+00 0.000000e+00
 0.000000e+00 5.899611e-01 4.100389e-01 0.000000e+00 0.000000e+00
 0.000000e+00 0.000000e+00 5.265628e-01 4.734373e-01 0.000000e+00
 0.000000e+00 0.000000e+00 0.000000e+00 4.541382e-01 5.458618e-01
 0.000000e+00 0.000000e+00 0.000000e+00 0.000000e+00 0.000000e+00
<ENDHMM>
~h "c"
<BEGINHMM>
<NUMSTATES> 5
<STATE> 2
<MEAN> 25
 -7.258205e+00 -1.058348e+01 1.810580e+01 -1.528179e+00 -5.363575e+00 1.470634e+01 2.411693e-01 1.804362e-02 3.128723e+00 -1.916230e+00 2.880940e+00 3.325052e+00 -1.598647e+00 -5.348454e+00 3.795508e+00 1.247954e-01 -1.969992e+00 6.721945e-01 -2.276768e+00 5.462687e-03 1.545200e-01 -3.190014e-01 1.247654e+00 2.786409e-02 1.828444e+00
<VARIANCE> 25
 1.726601e+01 1.208170e+02 8.489728e+01 2.328458e+01 3.404148e+01 4.355866e+01 5.016219e+01 2.697516e+01 1.565965e+01 1.067379e+01 3.485872e+01 8.802631e+00 2.131461e+00 9.154070e+00 6.184824e+00 4.107780e+00 4.551778e+00 7.258979e+00 5.550305e+00 3.629553e+00 2.402949e+00 3.054615e+00 2.039075e+00 1.202716e+00 1.468848e+00
<GCONST> 1.025179e+02
<STATE> 3
<MEAN> 25
 -2.291887e+00 -1.607711e+01 1.633837e+01 8.552879e+00 -3.612835e+00 2.332282e+00 -1.000384e+01 -4.662329e+00 3.053979e-01 -2.768497e+00 3.779469e+00 6.498019e-01 3.217077e+00 7.979987e-01 -3.880307e+00 3.087072e+00 1.899932e+00 -4.188868e+00 -1.759986e+00 -1.788074e+00 -1.356899e+00 1.097172e-01 -2.113346e-01 -1.324416e+00 9.653159e-01
<VARIANCE> 25
 3.276640e+01 2.453641e+01 4.113144e+01 3.474687e+01 3.444421e+01 7.358624e+01 4.559955e+01 2.525698e+01 2.142476e+01 2.022108e+01 1.804145e+01 1.917681e+01 1.341698e+00 2.592340e+00 1.978994e+00 3.467396e+00 3.589773e+00 6.187819e+00 3.933925e+00 2.478492e+00 1.566225e+00 3.703484e+00 2.459216e+00 2.696047e+00 3.480938e-01
<GCONST> 9.785053e+01
<STATE> 4
<MEAN> 25
 4.298557e+00 -1.363284e+01 2.571196e+00 1.102453e+01 3.205522e+00 -4.137077e+00 -9.893936e+00 -7.215658e+00 -4.594557e+00 -1.744517e+00 3.164171e+00 -2.294323e+00 5.171560e-02 1.547922e+00 -1.487241e+00 -2.588295e-01 9.065937e-01 -4.595248e-02 9.202508e-01 -1.432963e-01 -4.783221e-01 3.207459e-01 -2.569475e-01 1.459361e-01 -8.931702e-01
<VARIANCE> 25
 3.713612e+00 2.914345e+01 3.245591e+01 2.189800e+01 3.387852e+01 4.243621e+01 3.175718e+01 1.405238e+01 2.780641e+01 4.294956e+01 1.185588e+01 2.952988e+01 6.512232e-01 2.152411e+00 1.109854e+00 1.027356e+00 1.438481e+00 2.299603e+00 1.550328e+00 1.439870e+00 8.501241e-01 1.700315e+00 6.043902e-01 1.276515e+00 1.075052e+00
<GCONST> 8.616230e+01
<TRANSP> 5
 0.000000e+00 1.000000e+00 0.000000e+00 0.000000e+00 0.000000e+00
 0.000000e+00 7.661456e-01 2.338543e-01 0.000000e+00 0.000000e+00
 0.000000e+00 0.000000e+00 7.367083e-01 2.632917e-01 0.000000e+00
 0.000000e+00 0.000000e+00 0.000000e+00 8.402253e-01 1.597748e-01
 0.000000e+00 0.000000e+00 0.000000e+00 0.000000e+00 0.000000e+00
<ENDHMM>
~h "d"
<BEGINHMM>
<NUMSTATES> 5
<STATE> 2
<MEAN> 25
 9.882648e-01 1.997752e+00 3.894975e+00 9.535416e+00 9.769455e+00 9.620602e-01 -6.628704e+00 -6.369652e+00 -3.635564e+00 -1.350415e+00 1.551990e+00 1.874588e+00 1.198629e+00 -3.445340e+00 -9.438124e-01 1.070988e+00 -4.647985e-01 -1.485349e+00 -1.804577e+00 -1.674071e+00 -1.872000e+00 -1.332412e+00 1.183094e+00 1.047508e+00 2.040374e+00
<VARIANCE> 25
 2.050925e+01 5.976982e+01 3.256475e+01 4.332586e+01 3.538818e+01 4.771097e+01 5.229151e+01 3.691754e+01 5.045119e+01 4.804946e+01 3.280904e+01 3.404620e+01 9.897279e-01 4.202977e+00 3.013865e+00 6.094938e+00 4.832881e+00 6.258790e+00 6.069344e+00 5.396399e+00 4.958625e+00 9.020886e+00 5.923516e+00 4.087797e+00 9.537425e-01
<GCONST> 1.082938e+02
<STATE> 3
<MEAN> 25
 4.567588e+00 -3.407959e+00 1.381993e+00 8.920831e+00 7.299017e+00 -2.131349e+00 -9.317898e+00 -8.677521e+00 -7.455992e+00 -4.785155e+00 2.559109e+00 2.450275e+00 4.037525e-01 -7.008268e-01 -2.914382e-01 -7.535208e-01 -1.458112e+00 -6.273961e-01 4.549029e-01 4.052075e-01 9.504864e-02 2.257729e-01 2.195488e-01 -1.041408e-01 5.732466e-01
<VARIANCE> 25
 1.132830e+01 3.242400e+01 3.297163e+01 4.418692e+01 4.000546e+01 4.391807e+01 6.449805e+01 3.234692e+01 4.723960e+01 6.976017e+01 3.425489e+01 4.135372e+01 4.553678e-01 3.031665e+00 2.017272e+00 3.170562e+00 3.727996e+00 2.634869e+00 6.612005e+00 3.063687e+00 3.817279e+00 4.627497e+00 3.633306e+00 3.611425e+00 5.330133e-01
<GCONST> 1.018959e+02
<STATE> 4
<MEAN> 25
 4.766363e+00 -2.803735e+00 1.089611e+00 5.469080e+00 2.556563e+00 -2.284193e+00 -4.992820e+00 -4.897464e+00 -6.127278e+00 -3.839649e+00 2.065716e+00 1.381734e+00 7.395981e-02 -2.632274e-01 -1.974177e-02 -8.066097e-01 -1.484688e+00 -3.442904e-01 1.027984e+00 1.349754e+00 7.671993e-01 2.980925e-02 -4.128113e-01 -4.655161e-01 1.594299e-01
<VARIANCE> 25
 1.181690e+01 4.652931e+01 3.901287e+01 4.898328e+01 4.730449e+01 3.077507e+01 5.942354e+01 3.943238e+01 4.184003e+01 6.648946e+01 5.007280e+01 4.243254e+01 8.475167e-02 1.043764e+00 7.744322e-01 1.552837e+00 1.610988e+00 2.049558e+00 2.450949e+00 1.524697e+00 1.536996e+00 1.599022e+00 1.837473e+00 1.411649e+00 1.380298e-01
<GCONST> 9.059089e+01
<TRANSP> 5
 0.000000e+00 1.000000e+00 0.000000e+00 0.000000e+00 0.000000e+00
 0.000000e+00 6.465526e-01 3.534474e-01 0.000000e+00 0.000000e+00
 0.000000e+00 0.000000e+00 5.041976e-01 4.958025e-01 0.000000e+00
 0.000000e+00 0.000000e+00 0.000000e+00 5.819895e-01 4.180106e-01
 0.000000e+00 0.000000e+00 0.000000e+00 0.000000e+00 0.000000e+00
<ENDHMM>
~h "e"
<BEGINHMM>
<NUMSTATES> 5
<STATE> 2
<MEAN> 25
 6.089168e+00 -6.657953e+00 1.523797e+00 9.087823e+00 2.370165e+00 -4.693677e+00 -9.756972e+00 -1.123451e+01 -4.844326e+00 -7.572342e-01 1.998001e+00 2.419668e+00 -5.740082e-02 1.468418e-01 -2.394099e-01 4.244202e-01 1.409972e-01 -4.396276e-01 1.007350e-01 1.550127e-01 8.662567e-02 2.993798e-01 -1.640963e-01 -1.886988e-01 -2.081645e-01
<VARIANCE> 25
 3.220408e+00 1.434175e+01 1.411102e+01 1.372990e+01 2.924639e+01 1.613336e+01 2.969396e+01 2.867005e+01 2.242404e+01 3.853793e+01 1.908501e+01 2.418294e+01 8.237919e-02 3.485011e-01 5.534632e-01 1.069752e+00 7.365719e-01 1.210581e+00 8.440495e-01 8.400232e-01 7.523875e-01 1.046867e+00 8.650997e-01 7.892138e-01 8.011898e-02
<GCONST> 7.316815e+01
<STATE> 3
<MEAN> 25
 3.633879e+00 -2.097104e+00 9.329128e-02 1.140181e+01 6.719112e+00 -6.010803e+00 -1.204927e+01 -1.136801e+01 -3.188100e+00 4.164743e+00 2.030509e+00 -1.630620e+00 -7.912533e-01 1.468781e+00 1.313301e-01 2.084281e-01 4.740203e-01 -2.921981e-01 2.037567e-01 -6.569910e-02 3.195030e-01 1.051368e+00 1.614501e-02 -5.400514e-02 -1.182830e+00
<VARIANCE> 25
 8.041026e+00 2.605980e+01 1.932062e+01 1.827242e+01 4.157848e+01 2.324453e+01 2.899286e+01 3.630102e+01 2.876289e+01 4.554099e+01 1.646122e+01 1.999949e+01 3.747774e-01 8.153086e-01 9.128994e-01 1.240415e+00 1.025361e+00 1.221304e+00 1.889022e+00 1.787450e+00 1.280989e+00 2.134409e+00 1.130786e+00 1.095030e+00 4.245682e-01
<GCONST> 8.470876e+01
<STATE> 4
<MEAN> 25
 -4.045903e+00 5.948080e+00 8.123649e-01 8.339955e+00 8.484610e+00 -5.281085e+00 -8.788239e+00 -6.875493e+00 2.107368e+00 9.280333e+00 2.769732e+00 -5.481605e-01 -1.034162e+00 5.146587e-01 -1.832238e-01 -1.118082e+00 -2.413028e-01 4.648612e-01 1.096782e+00 1.386111e+00 7.352630e-01 -1.456529e-01 -2.616271e-01 1.667275e-01 -9.209089e-01
<VARIANCE> 25
 2.143558e+01 2.855607e+01 2.375863e+01 3.257264e+01 3.045279e+01 2.942782e+01 3.801885e+01 5.242862e+01 3.943982e+01 4.934224e+01 3.066954e+01 1.919962e+01 2.813703e-01 1.064960e+00 7.674820e-01 1.584108e+00 2.031755e+00 1.853909e+00 2.422260e+00 1.777544e+00 2.049991e+00 2.875494e+00 2.110567e+00 1.159730e+00 2.653633e-01
<GCONST> 9.048154e+01
<TRANSP> 5
 0.000000e+00 1.000000e+00 0.000000e+00 0.000000e+00 0.000000e+00
 0.000000e+00 7.956315e-01 2.043685e-01 0.000000e+00 0.000000e+00
 0.000000e+00 0.000000e+00 7.504821e-01 2.495179e-01 0.000000e+00
 0.000000e+00 0.000000e+00 0.000000e+00 7.961733e-01 2.038267e-01
 0.000000e+00 0.000000e+00 0.000000e+00 0.000000e+00 0.000000e+00
<ENDHMM>
~h "g"
<BEGINHMM>
<NUMSTATES> 5
<STATE> 2
<MEAN> 25
 1.693822e+00 2.167594e-02 -4.585245e+00 -1.899448e+00 1.965088e+00 5.981020e+00 3.914615e+00 -4.998447e+00 -7.686587e+00 -2.380324e-01 3.321928e+00 7.602761e-01 1.866776e+00 -2.801742e+00 -2.877877e-01 4.756589e-01 -1.885338e-01 3.749586e-01 -1.174495e+00 -2.001768e+00 -1.653207e+00 -6.967186e-01 5.659242e-01 -2.205237e-01 2.455968e+00
<VARIANCE> 25
 2.501635e+01 8.514159e+01 3.030373e+01 3.793775e+01 3.908117e+01 4.724731e+01 4.420299e+01 5.174831e+01 3.781253e+01 1.938208e+01 3.239029e+01 1.103716e+01 1.886724e+00 7.238577e+00 4.728054e+00 4.301813e+00 3.717487e+00 8.235092e+00 7.231898e+00 3.204248e+00 4.749639e+00 2.616127e+00 3.268669e+00 2.478291e+00 2.052979e+00
<GCONST> 1.059126e+02
<STATE> 3
<MEAN> 25
 9.008548e+00 -5.742017e+00 -5.713671e+00 1.283487e+00 5.367330e-01 -1.774768e+00 -1.921850e+00 -8.652933e+00 -1.141425e+01 2.372925e-01 5.146008e+00 -1.313167e+00 9.350201e-01 -1.378780e+00 -5.175077e-01 -7.787461e-01 -9.363523e-01 -1.591143e+00 -1.193719e+00 1.244010e+00 9.269179e-01 6.096044e-02 1.199213e+00 5.569896e-01 1.355164e+00
<VARIANCE> 25
 7.829765e+00 1.817023e+01 1.391573e+01 1.985939e+01 9.375379e+00 1.669231e+01 2.920991e+01 2.624247e+01 2.327449e+01 4.496268e+01 3.403965e+01 2.604372e+01 4.166355e-01 1.298665e+00 1.394840e+00 2.090568e+00 8.441896e-01 4.709629e+00 4.892691e+00 5.284750e+00 3.349124e+00 4.999178e+00 3.201903e+00 2.382363e+00 4.893730e-01
<GCONST> 9.118575e+01
<STATE> 4
<MEAN> 25
 1.037126e+01 -8.174621e+00 -7.031927e+00 -3.100094e+00 -1.762427e+00 -7.992532e-01 -1.280685e+00 -3.695598e+00 -4.358645e+00 -2.295805e-01 5.543882e+00 4.429046e+00 1.096936e-01 4.404459e-04 -5.339343e-01 -7.422706e-01 -4.479834e-01 6.693688e-03 7.719325e-01 8.749578e-01 1.226401e+00 4.686013e-02 -4.678031e-01 8.304389e-01 6.404109e-02
<VARIANCE> 25
 5.201443e+00 1.213181e+01 1.504587e+01 2.673324e+01 1.425621e+01 1.354337e+01 3.677823e+01 2.216557e+01 3.432262e+01 4.024610e+01 4.218694e+01 4.178122e+01 1.230002e-01 6.530356e-01 9.265683e-01 8.347617e-01 9.417437e-01 1.015809e+00 2.269429e+00 1.535331e+00 1.528990e+00 2.769540e+00 1.170291e+00 1.045575e+00 1.723320e-01
<GCONST> 8.107276e+01
<TRANSP> 5
 0.000000e+00 1.000000e+00 0.000000e+00 0.000000e+00 0.000000e+00
 0.000000e+00 7.469279e-01 2.530721e-01 0.000000e+00 0.000000e+00
 0.000000e+00 0.000000e+00 6.300806e-01 3.699194e-01 0.000000e+00
 0.000000e+00 0.000000e+00 0.000000e+00 7.630977e-01 2.369023e-01
 0.000000e+00 0.000000e+00 0.000000e+00 0.000000e+00 0.000000e+00
<ENDHMM>
~h "h"
<BEGINHMM>
<NUMSTATES> 5
<STATE> 2
<MEAN> 25
 4.900793e+00 1.349446e+01 3.376101e+00 -2.700590e+00 -7.382460e+00 -9.774423e+00 1.571108e+00 5.817910e+00 9.622611e-01 -2.727151e+00 -5.336957e+00 -6.526873e+00 5.213709e-01 -1.293045e-01 -4.618154e-01 -3.256823e-01 -6.345930e-01 -1.437817e+00 -6.889778e-01 4.565057e-01 3.138004e-01 -3.220729e-01 -3.416205e-01 -1.585813e-01 4.035508e-01
<VARIANCE> 25
 6.707024e+00 1.642997e+01 2.364657e+01 1.550231e+01 4.506722e+01 5.351901e+01 4.689624e+01 2.492066e+01 2.769362e+01 2.401960e+01 2.752290e+01 1.432194e+01 3.179915e-01 1.961029e+00 9.298300e-01 1.191007e+00 1.340243e+00 2.356808e+00 3.933582e+00 1.436854e+00 1.318475e+00 2.107933e+00 1.605545e+00 1.744239e+00 1.713090e-01
<GCONST> 8.668174e+01
<STATE> 3
<MEAN> 25
 7.130785e+00 4.015620e+00 -5.168881e+00 -5.729115e+00 -1.260872e+01 -1.242310e+01 6.591552e+00 8.925248e+00 -2.108173e+00 -6.489825e+00 -6.109416e+00 -1.504312e+00 4.043505e-02 -2.565826e+00 -1.733015e+00 -2.687298e-01 -1.239702e-01 1.687684e+00 1.767810e+00 -5.271050e-01 -4.213823e-01 3.590319e-01 2.865673e-01 1.368883e+00 6.781371e-01
<VARIANCE> 25
 5.396341e+00 3.095133e+01 3.229445e+01 1.944568e+01 3.770660e+01 3.812245e+01 5.743350e+01 3.202722e+01 2.554615e+01 3.542941e+01 3.524144e+01 2.467859e+01 5.069755e-01 2.463881e+00 1.465007e+00 1.477087e+00 2.358685e+00 3.804212e+00 4.573152e+00 3.164186e+00 2.890476e+00 3.565548e+00 3.654520e+00 1.919840e+00 8.511509e-01
<GCONST> 9.585210e+01
<STATE> 4
<MEAN> 25
 6.520215e+00 -7.861217e+00 -9.560118e+00 -5.683812e+00 -9.480107e+00 1.268501e-01 1.004553e+01 2.711304e+00 2.853436e+00 -1.131025e+00 -5.594676e+00 1.288084e+00 -6.310835e-02 -6.770208e-01 -3.442173e-02 2.873205e-01 1.152890e+00 1.476494e+00 -5.189697e-01 -9.489162e-01 7.201157e-01 7.778988e-01 4.084813e-01 1.387081e-01 2.235155e-01
<VARIANCE> 25
 4.467357e+00 1.959670e+01 1.978178e+01 2.031822e+01 2.581675e+01 3.665219e+01 3.142717e+01 2.441690e+01 2.506033e+01 3.378239e+01 1.897713e+01 1.212207e+01 2.446357e-01 1.471598e+00 1.867899e+00 7.531852e-01 2.953632e+00 1.863705e+00 1.242493e+00 1.388250e+00 1.128282e+00 1.112837e+00 1.301752e+00 1.276616e+00 2.455747e-01
<GCONST> 8.299216e+01
<TRANSP> 5
 0.000000e+00 1.000000e+00 0.000000e+00 0.000000e+00 0.000000e+00
 0.000000e+00 8.958171e-01 1.041829e-01 0.000000e+00 0.000000e+00
 0.000000e+00 0.000000e+00 7.832651e-01 2.167350e-01 0.000000e+00
 0.000000e+00 0.000000e+00 0.000000e+00 7.168944e-01 2.831056e-01
 0.000000e+00 0.000000e+00 0.000000e+00 0.000000e+00 0.000000e+00
<ENDHMM>
~h "i"
<BEGINHMM>
<NUMSTATES> 5
<STATE> 2
<MEAN> 25
 3.372259e+00 -7.995630e+00 5.576368e+00 1.536212e+01 5.372827e+00 -6.274659e+00 -1.326941e+01 -9.549444e+00 -2.425556e+00 -5.200559e-01 -1.049199e+00 -3.387825e+00 1.754966e-01 -4.225952e-01 1.148352e+00 2.351023e+00 4.655608e-01 -1.729841e+00 -9.988174e-01 -6.296636e-02 -1.357762e-01 1.874987e-01 -2.620291e-01 -1.027823e+00 3.766772e-01
<VARIANCE> 25
 1.106364e+01 3.049406e+01 5.608393e+01 4.161685e+01 4.142424e+01 4.748760e+01 4.198840e+01 3.173563e+01 3.208002e+01 3.202315e+01 3.655118e+01 3.118529e+01 1.243364e+00 3.153212e+00 2.002372e+00 6.205163e+00 2.686605e+00 5.060131e+00 3.552391e+00 3.284536e+00 2.500395e+00 2.750740e+00 2.207945e+00 2.675090e+00 1.561933e+00
<GCONST> 1.013788e+02
<STATE> 3
<MEAN> 25
 -5.339000e-01 -1.107811e+00 8.492031e+00 1.690554e+01 7.585505e+00 -6.159709e+00 -1.137611e+01 -6.980247e+00 4.589099e-01 1.793117e+00 -2.227185e+00 -3.901149e+00 -9.103910e-01 1.653508e+00 -2.915919e-01 -8.815251e-01 4.095741e-01 5.152661e-01 7.905399e-01 5.129797e-01 4.445724e-01 8.177349e-01 2.538810e-01 2.661738e-01 -1.334040e+00
<VARIANCE> 25
 1.575279e+01 3.706374e+01 4.128481e+01 3.511812e+01 3.478113e+01 4.212580e+01 4.488110e+01 3.146346e+01 3.037230e+01 2.452724e+01 3.002786e+01 2.552611e+01 5.364291e-01 1.227031e+00 1.529333e+00 1.863042e+00 1.410061e+00 2.363069e+00 2.088274e+00 1.471040e+00 1.797846e+00 1.987972e+00 1.748610e+00 1.496863e+00 6.535295e-01
<GCONST> 9.215877e+01
<STATE> 4
<MEAN> 25
 -4.311994e+00 3.292896e+00 4.926272e+00 8.836817e+00 6.733274e+00 -2.396815e+00 -6.620796e+00 -4.952110e+00 1.624247e+00 5.064122e+00 2.018662e-02 -1.842749e+00 -6.455036e-01 -1.280909e-01 -9.432279e-01 -1.986432e+00 -5.881086e-01 1.360432e+00 1.158434e+00 3.319046e-01 6.377109e-02 7.037514e-02 4.472446e-01 7.211258e-01 -4.720073e-01
<VARIANCE> 25
 3.264215e+01 4.725600e+01 2.436259e+01 3.111426e+01 2.545099e+01 4.485036e+01 5.443383e+01 3.759841e+01 2.796137e+01 2.990157e+01 2.131062e+01 2.567133e+01 5.723549e-01 2.658182e+00 1.747139e+00 1.763820e+00 2.090022e+00 2.917746e+00 3.440859e+00 2.965511e+00 2.280424e+00 2.258607e+00 2.294034e+00 1.692915e+00 5.942867e-01
<GCONST> 9.576753e+01
<TRANSP> 5
 0.000000e+00 1.000000e+00 0.000000e+00 0.000000e+00 0.000000e+00
 0.000000e+00 6.235663e-01 3.764337e-01 0.000000e+00 0.000000e+00
 0.000000e+00 0.000000e+00 7.902774e-01 2.097226e-01 0.000000e+00
 0.000000e+00 0.000000e+00 0.000000e+00 6.590826e-01 3.409175e-01
 0.000000e+00 0.000000e+00 0.000000e+00 0.000000e+00 0.000000e+00
<ENDHMM>
~h "j"
<BEGINHMM>
<NUMSTATES> 5
<STATE> 2
<MEAN> 25
 -2.430724e+00 1.876927e+00 6.594644e+00 2.170693e+00 2.383461e+00 6.143872e+00 -3.240033e+00 -4.895950e+00 4.078476e+00 4.305690e+00 4.585489e-01 -1.956964e-01 -1.090245e+00 -2.237234e+00 3.109224e+00 1.452821e-01 -1.393514e+00 2.078341e+00 -3.742962e-01 -5.913908e-01 4.981101e-01 -5.224589e-01 -6.100222e-01 -2.647555e-01 6.752229e-01
<VARIANCE> 25
 2.319055e+01 8.440480e+01 4.735488e+01 2.963816e+01 5.604828e+01 4.615885e+01 3.998028e+01 3.690825e+01 3.404056e+01 1.937435e+01 3.078636e+01 1.640120e+01 1.230619e+00 1.460789e+01 5.697286e+00 3.309876e+00 6.264225e+00 3.880888e+00 5.733680e+00 6.683093e+00 3.253723e+00 3.362144e+00 2.014975e+00 1.944002e+00 3.272073e+00
<GCONST> 1.062501e+02
<STATE> 3
<MEAN> 25
 -7.174629e+00 -9.971857e+00 2.160022e+01 3.376820e+00 -5.353844e+00 1.126865e+01 -7.259905e+00 -6.362925e+00 3.751500e+00 4.099600e-01 9.397234e-01 -1.209362e+00 1.839087e+00 -1.617529e+00 5.518561e-01 2.295493e+00 4.158233e-01 -1.684232e+00 -2.957761e+00 -2.326257e+00 -2.218054e+00 -1.219489e+00 7.741464e-01 -4.276810e-01 1.971046e+00
<VARIANCE> 25
 1.700348e+01 4.654732e+01 3.657983e+01 4.065059e+01 2.307054e+01 3.516990e+01 4.485854e+01 4.341478e+01 3.276493e+01 2.259671e+01 2.438171e+01 1.877880e+01 2.447841e+00 1.110386e+01 5.783412e+00 2.649848e+00 4.272316e+00 4.540591e+00 3.972847e+00 2.435023e+00 3.774816e+00 3.148806e+00 2.925952e+00 2.428288e+00 1.379939e+00
<GCONST> 1.029570e+02
<STATE> 4
<MEAN> 25
 2.094062e+00 -7.281889e+00 1.326678e+01 9.627891e+00 9.425851e-01 2.466081e+00 -1.306413e+01 -1.238880e+01 -3.497962e+00 -1.307966e+00 2.420951e+00 -1.507339e+00 3.311010e+00 1.860071e-01 -4.021272e+00 1.691262e+00 2.336883e+00 -3.146774e+00 -1.228924e+00 -1.253790e+00 -2.567266e+00 -5.986130e-01 6.054282e-01 -7.715175e-01 1.525659e+00
<VARIANCE> 25
 1.245714e+01 1.031431e+01 3.138526e+01 2.618170e+01 1.316738e+01 3.326225e+01 3.408534e+01 3.593343e+01 3.934134e+01 1.966579e+01 2.060466e+01 1.907503e+01 1.090497e+00 4.005204e+00 3.846156e+00 2.788454e+00 2.550022e+00 6.849750e+00 3.369383e+00 4.763345e+00 3.725381e+00 3.262718e+00 3.787267e+00 4.551383e+00 6.600041e-01
<GCONST> 9.774400e+01
<TRANSP> 5
 0.000000e+00 1.000000e+00 0.000000e+00 0.000000e+00 0.000000e+00
 0.000000e+00 7.584763e-01 2.415238e-01 0.000000e+00 0.000000e+00
 0.000000e+00 0.000000e+00 4.592430e-01 5.407570e-01 0.000000e+00
 0.000000e+00 0.000000e+00 0.000000e+00 3.489532e-01 6.510467e-01
 0.000000e+00 0.000000e+00 0.000000e+00 0.000000e+00 0.000000e+00
<ENDHMM>
~h "k"
<BEGINHMM>
<NUMSTATES> 5
<STATE> 2
<MEAN> 25
 -4.774047e+00 -1.645379e+00 8.762079e-02 -5.099010e+00 -2.551971e+00 5.004786e+00 4.728915e-01 -2.192224e+00 -1.293935e+00 -4.050046e-02 2.351264e+00 1.948398e+00 1.265868e+00 -3.470695e+00 -8.726685e-01 -2.118554e+00 -1.984495e+00 2.341664e+00 1.224752e+00 -8.303201e-01 -1.857410e+00 -1.624779e+00 6.180174e-01 5.830644e-01 2.319285e+00
<VARIANCE> 25
 1.763969e+01 9.382552e+01 4.631050e+01 6.920049e+01 6.681125e+01 7.952636e+01 1.022957e+02 7.873503e+01 4.814583e+01 5.656164e+01 3.019886e+01 3.989163e+01 2.596444e+00 4.909973e+00 5.273278e+00 4.798650e+00 4.529770e+00 8.403654e+00 6.398809e+00 4.510449e+00 4.001882e+00 4.788816e+00 3.448764e+00 2.951961e+00 1.722736e+00
<GCONST> 1.126020e+02
<STATE> 3
<MEAN> 25
 3.685467e+00 -8.107471e+00 -2.807114e+00 -4.654474e+00 -6.465374e+00 2.273224e+00 1.059967e+00 -4.772923e+00 -5.437688e+00 -1.319486e+00 4.012754e+00 3.130006e+00 2.891368e+00 -1.367997e+00 -1.470573e+00 1.057013e+00 -5.725542e-01 -2.750368e+00 3.484425e-02 3.205131e-01 2.080118e-01 5.759688e-01 3.436900e-01 2.386151e-01 2.466161e+00
<VARIANCE> 25
 2.500175e+01 4.759764e+01 3.108449e+01 4.429307e+01 4.692937e+01 5.636338e+01 6.695470e+01 6.450709e+01 3.564408e+01 4.681968e+01 3.546286e+01 2.539705e+01 1.267701e+00 4.024520e+00 3.739718e+00 3.424385e+00 4.154332e+00 5.284590e+00 6.927303e+00 7.667583e+00 5.093231e+00 7.110962e+00 3.886175e+00 4.061457e+00 9.578062e-01
<GCONST> 1.082768e+02
<STATE> 4
<MEAN> 25
 7.925137e+00 -1.301941e+01 -6.971523e+00 -3.906357e+00 -6.422122e+00 -1.429752e+00 2.026702e+00 -2.854769e+00 -1.622299e+00 2.324293e+00 5.276518e+00 3.332386e+00 4.011022e-01 -3.713131e-01 -8.417943e-01 -2.685021e-01 -1.105758e-02 -1.781267e-01 1.043270e+00 1.351019e+00 8.897433e-01 1.593084e-01 -5.839985e-02 8.531809e-02 3.761970e-01
<VARIANCE> 25
 7.205087e+00 3.008990e+01 1.285884e+01 1.825462e+01 2.377077e+01 3.180381e+01 3.765258e+01 3.300337e+01 4.012328e+01 4.260061e+01 3.127742e+01 2.812894e+01 3.137349e-01 1.691708e+00 1.152916e+00 1.595278e+00 2.437725e+00 2.169388e+00 2.828172e+00 2.423007e+00 2.097476e+00 2.505243e+00 1.903020e+00 1.673569e+00 5.095232e-01
<GCONST> 9.047021e+01
<TRANSP> 5
 0.000000e+00 1.000000e+00 0.000000e+00 0.000000e+00 0.000000e+00
 0.000000e+00 6.566884e-01 3.433116e-01 0.000000e+00 0.000000e+00
 0.000000e+00 0.000000e+00 6.288171e-01 3.711828e-01 0.000000e+00
 0.000000e+00 0.000000e+00 0.000000e+00 5.650544e-01 4.349456e-01
 0.000000e+00 0.000000e+00 0.000000e+00 0.000000e+00 0.000000e+00
<ENDHMM>
~h "l"
<BEGINHMM>
<NUMSTATES> 5
<STATE> 2
<MEAN> 25
 6.707307e+00 -4.015039e+00 -5.328456e+00 -2.212666e+00 -4.557818e+00 -3.398677e+00 4.367747e+00 2.792620e+00 -4.051247e+00 -3.309750e+00 7.067332e-01 8.200183e-01 2.532950e-01 -6.097492e-01 -5.467402e-01 -6.840779e-01 -1.031068e+00 -1.460081e-01 1.312213e+00 7.054628e-01 1.282308e-03 1.990575e-01 4.005989e-01 2.091650e-01 3.981198e-01
<VARIANCE> 25
 5.742646e+00 1.594567e+01 1.429339e+01 2.472299e+01 2.356437e+01 3.704576e+01 3.308942e+01 4.562949e+01 3.272035e+01 3.761976e+01 3.638465e+01 3.368266e+01 1.242457e-01 1.804670e+00 8.234053e-01 1.261654e+00 1.806674e+00 2.034645e+00 2.002171e+00 1.947326e+00 2.046991e+00 2.375061e+00 2.811100e+00 1.543183e+00 3.611854e-01
<GCONST> 8.788583e+01
<STATE> 3
<MEAN> 25
 6.687644e+00 -9.691339e+00 -5.452456e+00 -6.217321e+00 -9.292324e+00 1.296302e+00 9.177723e+00 2.889798e+00 2.033201e-01 -1.130438e+00 4.167942e-02 2.907737e+00 -1.173671e-01 -9.089267e-01 2.134437e-01 -1.217997e-01 -2.263387e-01 6.420894e-01 7.134878e-02 -1.532844e-02 5.626096e-01 -1.077977e-01 -2.660770e-01 8.075729e-02 3.453850e-01
<VARIANCE> 25
 4.775759e+00 2.997070e+01 1.373448e+01 2.188215e+01 3.703143e+01 4.030449e+01 2.354695e+01 4.221914e+01 3.987325e+01 4.281595e+01 3.156729e+01 2.956515e+01 1.183593e-01 2.169641e+00 7.480907e-01 1.461289e+00 1.746358e+00 2.219707e+00 1.897381e+00 1.617977e+00 1.880996e+00 1.887730e+00 1.528012e+00 1.323722e+00 4.292051e-01
<GCONST> 8.743966e+01
<STATE> 4
<MEAN> 25
 6.281224e+00 -8.677394e+00 -5.215630e+00 -4.664535e+00 -8.456446e+00 2.232024e-01 8.071142e+00 4.032712e+00 3.030985e-01 -2.057549e+00 -1.004270e+00 1.464026e+00 -1.502643e-01 1.417568e+00 1.661872e-01 3.055682e-01 4.087145e-01 -7.326345e-01 -4.974867e-01 2.762507e-01 9.451116e-02 2.394048e-01 -3.163265e-01 -6.169475e-01 -7.280002e-01
<VARIANCE> 25
 5.124096e+00 2.233337e+01 1.318878e+01 1.514511e+01 3.037904e+01 3.712514e+01 2.644860e+01 4.495761e+01 2.828829e+01 3.271601e+01 3.410835e+01 1.998523e+01 1.399403e-01 1.457553e+00 7.730699e-01 1.087349e+00 1.476281e+00 1.690948e+00 1.115682e+00 1.525285e+00 1.230266e+00 1.468438e+00 1.244772e+00 1.471087e+00 2.848553e-01
<GCONST> 8.307147e+01
<TRANSP> 5
 0.000000e+00 1.000000e+00 0.000000e+00 0.000000e+00 0.000000e+00
 0.000000e+00 7.923807e-01 2.076193e-01 0.000000e+00 0.000000e+00
 0.000000e+00 0.000000e+00 6.903521e-01 3.096478e-01 0.000000e+00
 0.000000e+00 0.000000e+00 0.000000e+00 3.881583e-01 6.118418e-01
 0.000000e+00 0.000000e+00 0.000000e+00 0.000000e+00 0.000000e+00
<ENDHMM>
~h "m"
<BEGINHMM>
<NUMSTATES> 5
<STATE> 2
<MEAN> 25
 5.174618e-01 6.009756e+00 1.904567e+00 4.810127e-01 2.515712e+00 3.251832e+00 5.179649e+00 6.329167e+00 1.716876e+00 -2.163609e+00 -4.951017e+00 -5.592812e+00 -6.181929e-01 9.499578e-01 5.520322e-01 2.945341e-01 9.573538e-01 6.626872e-01 -7.293671e-02 -1.966392e-01 1.502159e-01 1.944958e-01 -1.526171e-01 -3.919484e-02 -7.322434e-01
<VARIANCE> 25
 1.880539e+01 1.938599e+01 1.313932e+01 1.646759e+01 1.710952e+01 2.804663e+01 1.943193e+01 1.958802e+01 2.165741e+01 3.139334e+01 2.312106e+01 1.637286e+01 1.880452e+00 1.092743e+00 1.000186e+00 1.612223e+00 1.489955e+00 2.401205e+00 1.656496e+00 2.232207e+00 2.055315e+00 2.828825e+00 2.932192e+00 2.329800e+00 1.073744e+00
<GCONST> 8.932967e+01
<STATE> 3
<MEAN> 25
 -2.694107e+00 7.076521e+00 2.127194e+00 2.837994e-01 5.344747e+00 5.775646e+00 3.537691e+00 2.743387e+00 2.040189e+00 -2.807765e-01 -4.577802e+00 -3.825285e+00 7.271682e-01 -1.102482e+00 -4.849671e-01 -8.865227e-01 -9.714200e-01 8.873992e-02 -7.087874e-01 -1.022308e+00 -4.547416e-01 -6.117101e-01 7.739524e-02 7.743279e-01 9.475017e-01
<VARIANCE> 25
 2.553929e+01 2.726161e+01 2.152679e+01 2.262427e+01 2.425226e+01 3.446810e+01 2.401554e+01 3.024972e+01 2.318141e+01 4.122532e+01 4.383190e+01 2.810622e+01 5.032781e+00 2.993787e+00 1.225078e+00 1.328174e+00 2.060664e+00 2.763519e+00 2.610562e+00 2.753001e+00 2.670974e+00 3.012263e+00 3.863803e+00 2.171150e+00 2.144459e+00
<GCONST> 9.786249e+01
<STATE> 4
<MEAN> 25
 2.935580e+00 1.325258e+00 -3.033102e+00 -4.769868e+00 -1.396171e+00 2.618346e+00 3.910545e+00 3.390118e+00 5.374389e-01 -3.095994e+00 -3.632038e+00 -7.386872e-01 1.514040e+00 -2.346750e+00 -1.465777e+00 -1.016821e+00 -2.181644e+00 -9.995990e-01 5.137057e-01 1.564582e-03 -6.098225e-01 -4.735495e-01 1.112160e+00 1.666261e+00 1.849189e+00
<VARIANCE> 25
 3.154838e+01 3.971221e+01 3.073522e+01 2.503551e+01 3.458410e+01 3.556178e+01 4.287338e+01 3.905645e+01 2.814740e+01 2.456223e+01 3.199616e+01 2.476139e+01 2.367763e+00 4.450502e+00 2.838012e+00 2.646574e+00 3.094131e+00 4.226516e+00 5.017912e+00 4.696524e+00 2.336428e+00 4.253895e+00 2.754829e+00 3.372727e+00 1.479101e+00
<GCONST> 1.024963e+02
<TRANSP> 5
 0.000000e+00 1.000000e+00 0.000000e+00 0.000000e+00 0.000000e+00
 0.000000e+00 7.424513e-01 2.575487e-01 0.000000e+00 0.000000e+00
 0.000000e+00 0.000000e+00 4.611190e-01 5.388810e-01 0.000000e+00
 0.000000e+00 0.000000e+00 0.000000e+00 5.051327e-01 4.948672e-01
 0.000000e+00 0.000000e+00 0.000000e+00 0.000000e+00 0.000000e+00
<ENDHMM>
~h "n"
<BEGINHMM>
<NUMSTATES> 5
<STATE> 2
<MEAN> 25
 5.236302e+00 1.045227e+00 -2.207979e+00 2.623744e+00 5.205254e+00 1.249116e+00 -1.028309e+00 2.661307e-01 -2.197680e+00 -3.427484e+00 -2.742050e+00 -2.643326e+00 -3.189915e-01 1.378500e+00 5.755862e-01 2.221355e-01 8.056519e-01 4.558580e-01 -1.727773e-01 1.821266e-01 1.726864e-01 -7.196143e-01 -1.365592e+00 -5.637870e-01 -6.955784e-01
<VARIANCE> 25
 8.375212e+00 2.503619e+01 1.400458e+01 1.673533e+01 2.369800e+01 2.147586e+01 1.938820e+01 2.678624e+01 1.709377e+01 2.755052e+01 1.916115e+01 1.743068e+01 6.522395e-01 9.690889e-01 1.258408e+00 1.229327e+00 1.026828e+00 1.492861e+00 1.562147e+00 1.605795e+00 1.951494e+00 1.608281e+00 1.991192e+00 2.142497e+00 4.302878e-01
<GCONST> 8.427574e+01
<STATE> 3
<MEAN> 25
 3.155579e+00 5.595324e+00 5.505290e-01 2.704806e+00 6.461481e+00 2.206736e+00 -1.751214e+00 -3.089512e-01 -1.070187e+00 -3.523392e+00 -4.783615e+00 -2.453153e+00 -5.718464e-01 6.559591e-01 6.171359e-01 -1.704616e-01 -2.966215e-01 3.599843e-02 2.860609e-01 1.743594e-01 1.477265e-01 1.130049e-01 2.476230e-01 4.202219e-01 -5.456015e-01
<VARIANCE> 25
 8.235216e+00 3.271698e+01 2.225385e+01 2.214550e+01 3.214047e+01 2.233787e+01 2.912374e+01 2.790397e+01 2.609576e+01 2.751357e+01 2.374142e+01 2.099483e+01 1.054526e+00 9.138250e-01 1.347941e+00 1.120322e+00 1.003120e+00 1.720245e+00 1.418166e+00 1.636823e+00 2.144567e+00 2.322853e+00 2.212204e+00 1.219570e+00 7.108298e-01
<GCONST> 8.782784e+01
<STATE> 4
<MEAN> 25
 2.128440e+00 4.658294e+00 3.944865e-01 1.113673e+00 2.806573e+00 1.918559e+00 1.676837e+00 1.976752e-01 -2.077071e+00 -3.179785e+00 -2.530100e+00 2.223286e-01 -3.013768e-01 -1.758078e+00 1.063706e-01 -7.402878e-01 -1.706995e+00 5.402725e-01 9.867586e-01 -2.410394e-01 6.199021e-02 7.934520e-01 1.243486e+00 7.755544e-01 5.320923e-01
<VARIANCE> 25
 1.896005e+01 3.716682e+01 4.509690e+01 3.217368e+01 4.443687e+01 3.617485e+01 4.242083e+01 2.524133e+01 4.001992e+01 3.250881e+01 2.908713e+01 2.161525e+01 2.757565e+00 4.237456e+00 6.651350e+00 2.763308e+00 3.535779e+00 5.822922e+00 3.291247e+00 3.330811e+00 3.240886e+00 2.812819e+00 3.369060e+00 2.356912e+00 1.874460e+00
<GCONST> 1.034569e+02
<TRANSP> 5
 0.000000e+00 1.000000e+00 0.000000e+00 0.000000e+00 0.000000e+00
 0.000000e+00 6.042567e-01 3.957432e-01 0.000000e+00 0.000000e+00
 0.000000e+00 0.000000e+00 5.645248e-01 4.354752e-01 0.000000e+00
 0.000000e+00 0.000000e+00 0.000000e+00 4.755993e-01 5.244007e-01
 0.000000e+00 0.000000e+00 0.000000e+00 0.000000e+00 0.000000e+00
<ENDHMM>
~h "p"
<BEGINHMM>
<NUMSTATES> 5
<STATE> 2
<MEAN> 25
 -1.241334e+00 6.234958e+00 3.047829e+00 -1.942022e+00 -2.328680e+00 -1.866177e+00 -3.195240e+00 -3.265245e+00 -8.690969e-01 -4.484371e-02 1.001131e-01 9.970592e-01 1.609914e+00 1.576553e+00 1.394787e+00 5.932114e-01 -1.595766e+00 -3.203322e+00 -1.512154e+00 -3.058086e-01 -2.292526e-01 7.501022e-02 -1.636283e-01 -7.842562e-01 8.521216e-01
<VARIANCE> 25
 2.376582e+01 4.182263e+01 2.374954e+01 1.626694e+01 3.313977e+01 6.131295e+01 3.535329e+01 3.016503e+01 2.955215e+01 2.851042e+01 1.864768e+01 1.707272e+01 2.438529e+00 4.891763e+00 2.488764e+00 2.284508e+00 4.480882e+00 8.499512e+00 3.896326e+00 3.627070e+00 3.467468e+00 2.646518e+00 3.244742e+00 2.527700e+00 8.964911e-01
<GCONST> 1.006106e+02
<STATE> 3
<MEAN> 25
 3.386420e+00 9.740460e+00 6.309954e+00 9.204479e-01 -5.743903e+00 -1.235410e+01 -7.170614e+00 3.097421e-01 1.512208e+00 -4.431092e-01 -2.110338e+00 -3.093244e+00 6.797937e-02 -2.421635e-01 1.630389e-01 1.732219e-01 -2.601964e-01 -4.790215e-01 -5.844568e-02 5.849143e-01 4.936620e-01 -2.157375e-02 -2.928779e-01 -3.971563e-01 1.752269e-01
<VARIANCE> 25
 1.406163e+01 1.854150e+01 2.496726e+01 2.271148e+01 4.317774e+01 3.771721e+01 4.354977e+01 3.551551e+01 3.802681e+01 3.042110e+01 3.152932e+01 2.880232e+01 4.738785e-01 1.143664e+00 1.114193e+00 1.219162e+00 1.668679e+00 2.707423e+00 1.636407e+00 2.458642e+00 1.730909e+00 1.913018e+00 2.067848e+00 1.666320e+00 3.688233e-01
<GCONST> 9.048583e+01
<STATE> 4
<MEAN> 25
 1.203883e+00 5.982340e+00 4.149386e+00 -5.712247e-01 -4.773102e+00 -6.964637e+00 -3.999965e+00 -6.026729e-01 4.268920e-01 -6.443611e-01 -1.746895e+00 -1.256760e+00 4.178476e-01 -1.128568e+00 -7.247980e-01 3.001318e-01 1.056723e+00 1.226319e+00 -6.538112e-02 -7.533925e-01 -7.319561e-01 -8.435644e-01 -4.366881e-01 7.097637e-02 6.116762e-01
<VARIANCE> 25
 2.151299e+01 4.646134e+01 4.073664e+01 2.216549e+01 6.540659e+01 9.571307e+01 7.166393e+01 5.901849e+01 4.737076e+01 4.800246e+01 5.105075e+01 4.490311e+01 1.894904e+00 3.255142e+00 2.686061e+00 3.442475e+00 4.651475e+00 5.258098e+00 5.532678e+00 5.286063e+00 3.913343e+00 3.684615e+00 2.296113e+00 2.848563e+00 1.802684e+00
<GCONST> 1.079705e+02
<TRANSP> 5
 0.000000e+00 1.000000e+00 0.000000e+00 0.000000e+00 0.000000e+00
 0.000000e+00 6.081565e-01 3.918436e-01 0.000000e+00 0.000000e+00
 0.000000e+00 0.000000e+00 6.710936e-01 3.289064e-01 0.000000e+00
 0.000000e+00 0.000000e+00 0.000000e+00 4.335402e-01 5.664598e-01
 0.000000e+00 0.000000e+00 0.000000e+00 0.000000e+00 0.000000e+00
<ENDHMM>
~h "r"
<BEGINHMM>
<NUMSTATES> 5
<STATE> 2
<MEAN> 25
 6.459569e+00 -8.073128e-01 -6.600104e+00 -2.954340e+00 2.348774e+00 8.426630e-01 -2.984541e+00 -2.155788e+00 -1.447163e+00 -5.551294e+00 -1.314071e+00 5.485235e+00 5.097412e-01 1.420558e-01 -1.110457e+00 -7.675870e-01 3.920534e-01 8.555696e-04 -1.810848e-01 4.201742e-01 1.228177e-01 -6.003559e-01 1.324086e-01 6.804976e-01 2.049787e-01
<VARIANCE> 25
 1.680656e+01 3.723893e+01 2.766540e+01 3.304043e+01 2.648874e+01 5.091762e+01 3.790439e+01 3.899199e+01 3.596531e+01 3.240370e+01 4.226274e+01 2.964766e+01 7.009880e-01 1.833808e+00 1.565967e+00 1.647061e+00 1.873743e+00 3.773760e+00 3.233738e+00 3.524743e+00 3.280848e+00 3.018475e+00 3.196090e+00 2.364166e+00 7.388330e-01
<GCONST> 9.750403e+01
<STATE> 3
<MEAN> 25
 6.904993e+00 9.796078e-01 -8.209206e+00 -5.198189e+00 2.983919e+00 1.805641e+00 -2.343414e+00 -1.856460e+00 -5.903379e-01 -4.913338e+00 -2.821240e+00 4.114385e+00 -3.943021e-01 2.724285e-01 5.602884e-01 4.596570e-01 1.006976e-01 1.072268e-02 4.545598e-01 1.292429e-01 -2.826354e-01 4.719072e-01 -1.468512e-02 -8.302454e-01 -3.378242e-01
<VARIANCE> 25
 1.827360e+01 4.192480e+01 2.760591e+01 2.366230e+01 2.468390e+01 3.736486e+01 3.312332e+01 4.286580e+01 5.334972e+01 3.200070e+01 5.500957e+01 4.232250e+01 3.533707e-01 2.094641e+00 1.582546e+00 1.515171e+00 1.835402e+00 2.933727e+00 2.769286e+00 1.967782e+00 1.867769e+00 2.511794e+00 2.302543e+00 2.761678e+00 4.708052e-01
<GCONST> 9.494585e+01
<STATE> 4
<MEAN> 25
 -2.646937e+00 4.231689e+00 -2.095359e+00 -2.279154e+00 3.984677e+00 3.325777e+00 1.127496e-01 -2.255948e+00 -2.312592e+00 -8.116786e-01 1.789610e-01 3.353937e+00 -1.201055e+00 1.468953e-01 5.613814e-01 2.411637e-01 -9.025863e-02 -3.275793e-01 2.638870e-01 4.216053e-01 5.164795e-01 1.020527e+00 3.997172e-01 -3.238525e-01 -8.524815e-01
<VARIANCE> 25
 4.204387e+01 3.346643e+01 2.181429e+01 2.061511e+01 2.730863e+01 4.235807e+01 3.070053e+01 2.719474e+01 4.124008e+01 3.369944e+01 3.544534e+01 2.210026e+01 4.988957e-01 1.371168e+00 1.212062e+00 1.388216e+00 1.700122e+00 2.444106e+00 2.448975e+00 2.054184e+00 2.046841e+00 2.296797e+00 1.609527e+00 1.808309e+00 4.233628e-01
<GCONST> 9.192310e+01
<TRANSP> 5
 0.000000e+00 1.000000e+00 0.000000e+00 0.000000e+00 0.000000e+00
 0.000000e+00 6.145658e-01 3.854342e-01 0.000000e+00 0.000000e+00
 0.000000e+00 0.000000e+00 4.431785e-01 5.568215e-01 0.000000e+00
 0.000000e+00 0.000000e+00 0.000000e+00 6.971368e-01 3.028632e-01
 0.000000e+00 0.000000e+00 0.000000e+00 0.000000e+00 0.000000e+00
<ENDHMM>
~h "s"
<BEGINHMM>
<NUMSTATES> 5
<STATE> 2
<MEAN> 25
 -9.383015e+00 -1.138220e+01 1.698527e+01 -9.787692e+00 -7.057600e+00 1.638083e+01 -2.517784e+00 2.932287e+00 4.582034e+00 -7.726461e-02 6.028104e+00 1.439878e+00 -1.629362e+00 -1.142486e+00 1.310069e+00 -3.701679e-01 -1.571770e-01 7.961520e-01 -5.088728e-01 1.343552e-01 -8.316607e-02 -1.577900e-01 4.974215e-01 -9.285913e-02 -3.906922e-01
<VARIANCE> 25
 2.954544e+01 3.023062e+01 6.327928e+01 3.350559e+01 2.416230e+01 3.587088e+01 3.842279e+01 5.537895e+01 3.527477e+01 2.776274e+01 2.971485e+01 2.172998e+01 2.273158e+00 2.753955e+00 1.025420e+01 3.902982e+00 2.247132e+00 3.939080e+00 3.818414e+00 3.362396e+00 3.022594e+00 2.244300e+00 2.707093e+00 1.960842e+00 3.448058e-01
<GCONST> 1.009615e+02
<STATE> 3
<MEAN> 25
 -4.366638e+00 -6.297387e+00 9.765056e+00 -1.124725e+00 -1.534228e+00 9.272753e+00 -5.311303e+00 -4.990321e+00 -1.414206e+00 -3.473454e+00 3.480011e+00 1.771799e+00 4.066793e+00 2.767155e+00 -2.303022e+00 2.938349e+00 1.814039e+00 -3.683092e+00 -1.798849e+00 -2.231576e+00 -1.819199e+00 -1.120164e+00 -1.349612e+00 -6.815854e-01 1.136585e+00
<VARIANCE> 25
 6.030210e+01 5.464847e+01 2.894323e+01 3.893007e+01 4.257177e+01 5.270818e+01 8.306706e+01 5.957946e+01 6.711582e+01 5.236858e+01 3.488629e+01 2.869645e+01 1.695355e+00 5.101325e+00 3.294718e+00 4.354665e+00 5.698513e+00 4.435606e+00 4.602360e+00 8.370242e+00 3.425582e+00 4.441915e+00 4.049126e+00 3.343185e+00 1.089904e+00
<GCONST> 1.094868e+02
<STATE> 4
<MEAN> 25
 3.776606e+00 -2.796986e+00 7.463463e+00 1.249241e+01 5.054902e+00 -4.214675e+00 -1.179024e+01 -6.025319e+00 -1.733155e+00 -3.673410e+00 -1.758657e+00 -4.430409e+00 3.280202e-01 1.454227e-01 -3.376127e-01 1.591867e+00 4.402772e-01 -1.708386e+00 8.182867e-02 3.858106e-01 3.272504e-01 5.090165e-01 -7.209470e-01 -5.765409e-01 -2.089502e-02
<VARIANCE> 25
 7.008482e+00 2.948754e+01 3.427793e+01 7.007818e+01 5.897229e+01 3.696729e+01 4.955965e+01 4.037991e+01 3.411941e+01 4.915747e+01 3.919375e+01 2.742481e+01 6.403422e-01 1.581077e+00 1.337894e+00 2.097453e+00 2.266906e+00 2.038491e+00 1.924627e+00 2.532643e+00 1.979786e+00 1.845173e+00 2.095740e+00 1.842720e+00 3.472642e-01
<GCONST> 9.450343e+01
<TRANSP> 5
 0.000000e+00 1.000000e+00 0.000000e+00 0.000000e+00 0.000000e+00
 0.000000e+00 8.759279e-01 1.240721e-01 0.000000e+00 0.000000e+00
 0.000000e+00 0.000000e+00 7.435049e-01 2.564951e-01 0.000000e+00
 0.000000e+00 0.000000e+00 0.000000e+00 5.911849e-01 4.088150e-01
 0.000000e+00 0.000000e+00 0.000000e+00 0.000000e+00 0.000000e+00
<ENDHMM>
~h "t"
<BEGINHMM>
<NUMSTATES> 5
<STATE> 2
<MEAN> 25
 -6.608541e+00 4.635588e+00 9.287697e-02 -2.967097e+00 1.505689e+00 3.356239e+00 2.247005e+00 8.550130e-01 1.697540e+00 2.650298e+00 2.107200e+00 3.122551e+00 3.638730e-01 -3.065109e+00 9.728228e-01 5.931035e-02 -1.459813e+00 1.569481e+00 -8.675077e-01 -2.205724e+00 -7.219859e-01 -1.220639e+00 -1.589253e-01 7.066907e-01 1.609979e+00
<VARIANCE> 25
 2.069226e+01 3.273964e+01 3.062267e+01 2.725618e+01 3.836045e+01 3.417994e+01 3.184083e+01 3.525481e+01 3.130414e+01 3.411187e+01 1.735163e+01 2.032224e+01 1.743007e+00 2.721728e+00 3.363811e+00 4.388303e+00 3.665652e+00 3.705931e+00 5.091753e+00 3.134653e+00 3.662223e+00 3.104708e+00 2.907251e+00 3.277017e+00 1.218935e+00
<GCONST> 1.007442e+02
<STATE> 3
<MEAN> 25
 -3.589472e+00 -4.979425e+00 2.664642e+00 -2.603076e+00 -3.232150e+00 7.910640e+00 7.104073e-01 -5.039043e+00 -1.264963e+00 -2.515412e+00 6.587039e-01 4.570996e+00 3.227169e+00 -2.154297e+00 1.070056e+00 1.074705e+00 -1.624354e+00 -4.689708e-01 -1.097560e+00 -1.852395e+00 -2.048753e+00 -2.853963e+00 -1.460422e+00 -3.456094e-01 3.403882e+00
<VARIANCE> 25
 2.270692e+01 3.126278e+01 2.669371e+01 2.167194e+01 3.345176e+01 3.691646e+01 4.760874e+01 3.797154e+01 4.766695e+01 3.311303e+01 2.560944e+01 1.973006e+01 2.078417e+00 6.458586e+00 4.556750e+00 1.048853e+01 1.008653e+01 6.472337e+00 1.218004e+01 8.290699e+00 5.066726e+00 5.302723e+00 4.602062e+00 4.182340e+00 1.501860e+00
<GCONST> 1.089929e+02
<STATE> 4
<MEAN> 25
 5.324616e+00 -2.779358e+00 2.851748e+00 4.915695e-01 -4.895988e+00 1.037790e+00 -2.151506e-01 -4.829107e+00 -6.376529e+00 -8.803151e+00 -4.153366e+00 1.573224e+00 2.556801e+00 -2.246477e-01 -1.274716e-03 1.827988e+00 -2.543216e-01 -3.155103e+00 -6.452266e-01 1.026825e+00 -6.461595e-01 -1.595292e+00 -1.526492e+00 -1.636883e+00 1.954460e+00
<VARIANCE> 25
 1.669942e+01 3.405359e+01 2.231029e+01 5.259671e+01 6.220796e+01 3.375890e+01 1.039490e+02 5.373991e+01 4.192685e+01 4.857136e+01 3.590690e+01 2.365312e+01 1.362940e+00 4.244742e+00 4.086446e+00 1.043364e+01 8.121988e+00 4.921292e+00 1.213315e+01 8.972786e+00 4.042770e+00 3.483936e+00 4.179291e+00 2.854409e+00 1.080881e+00
<GCONST> 1.090873e+02
<TRANSP> 5
 0.000000e+00 1.000000e+00 0.000000e+00 0.000000e+00 0.000000e+00
 0.000000e+00 3.528885e-01 6.471115e-01 0.000000e+00 0.000000e+00
 0.000000e+00 0.000000e+00 4.562251e-01 5.437748e-01 0.000000e+00
 0.000000e+00 0.000000e+00 0.000000e+00 3.432788e-01 6.567213e-01
 0.000000e+00 0.000000e+00 0.000000e+00 0.000000e+00 0.000000e+00
<ENDHMM>
~h "u"
<BEGINHMM>
<NUMSTATES> 5
<STATE> 2
<MEAN> 25
 6.149144e+00 3.413921e+00 2.718153e+00 -1.535000e+00 -7.241292e+00 -6.152065e+00 7.627465e-01 3.328513e+00 -2.456571e+00 -7.644840e+00 -5.128750e+00 -2.671175e+00 -1.823887e-01 6.269180e-01 -1.672301e-01 -9.629828e-05 1.944764e-01 -3.671818e-01 2.563074e-02 4.798474e-01 6.766416e-01 7.146065e-01 -2.843827e-02 -3.785594e-01 -4.339297e-01
<VARIANCE> 25
 9.464900e+00 4.720765e+01 2.945615e+01 1.886586e+01 5.214684e+01 4.329864e+01 7.278259e+01 3.405214e+01 4.719420e+01 4.454881e+01 3.853862e+01 2.640984e+01 3.595972e-01 1.796457e+00 1.110619e+00 1.223676e+00 2.349097e+00 3.928554e+00 2.551927e+00 2.987498e+00 2.029646e+00 1.757628e+00 1.671254e+00 2.187493e+00 5.155124e-01
<GCONST> 9.451210e+01
<STATE> 3
<MEAN> 25
 3.247219e+00 8.475897e+00 2.295582e+00 -1.890808e+00 -4.226274e+00 -4.149095e+00 1.755872e+00 3.092067e+00 -7.312879e-01 -3.603316e+00 -4.581447e+00 -2.869298e+00 -1.301260e+00 1.116576e+00 -1.324478e-01 -1.518726e-01 1.302775e+00 9.645159e-01 -9.242690e-02 -4.321288e-01 5.724866e-01 1.521309e+00 7.361341e-01 3.708844e-01 -1.444727e+00
<VARIANCE> 25
 1.165437e+01 3.439996e+01 2.668152e+01 1.874953e+01 4.392327e+01 5.342331e+01 5.039321e+01 3.278807e+01 4.277031e+01 4.238769e+01 3.296197e+01 2.610330e+01 4.755194e-01 1.589723e+00 1.527624e+00 1.453015e+00 2.106745e+00 3.068862e+00 3.344947e+00 2.277709e+00 2.673965e+00 2.314812e+00 2.024522e+00 1.628693e+00 6.406103e-01
<GCONST> 9.457184e+01
<STATE> 4
<MEAN> 25
 -2.437527e+00 1.029695e+01 3.775279e+00 -4.339510e-01 6.026054e-01 -3.057479e+00 -2.765776e+00 -8.124833e-02 1.305642e+00 2.147042e+00 2.536911e-01 -2.535708e-01 -9.624631e-01 -5.902457e-01 -3.009046e-01 8.121940e-02 7.367213e-01 7.822655e-01 4.354588e-02 -3.735607e-01 -7.493718e-02 3.997082e-01 6.804003e-01 7.432811e-01 -5.518604e-01
<VARIANCE> 25
 2.049730e+01 2.800923e+01 2.355923e+01 2.421035e+01 3.374401e+01 4.585098e+01 4.738819e+01 2.870728e+01 3.267962e+01 3.436703e+01 2.988918e+01 2.049620e+01 4.147771e-01 1.154897e+00 1.025420e+00 1.120315e+00 1.464909e+00 2.108095e+00 2.558569e+00 1.894739e+00 2.105178e+00 1.384880e+00 1.476113e+00 1.374470e+00 2.391503e-01
<GCONST> 8.910300e+01
<TRANSP> 5
 0.000000e+00 1.000000e+00 0.000000e+00 0.000000e+00 0.000000e+00
 0.000000e+00 6.106066e-01 3.893934e-01 0.000000e+00 0.000000e+00
 0.000000e+00 0.000000e+00 6.223624e-01 3.776375e-01 0.000000e+00
 0.000000e+00 0.000000e+00 0.000000e+00 6.801547e-01 3.198453e-01
 0.000000e+00 0.000000e+00 0.000000e+00 0.000000e+00 0.000000e+00
<ENDHMM>
~h "ng"
<BEGINHMM>
<NUMSTATES> 5
<STATE> 2
<MEAN> 25
 3.914021e+00 -1.109246e+00 -2.711617e+00 2.782813e+00 3.032909e-01 -7.223691e-01 4.013706e+00 3.026115e+00 -1.541463e+00 -3.218082e+00 -5.060017e+00 -3.264246e+00 -4.836837e-01 7.191956e-01 9.087720e-01 5.679119e-01 1.294406e+00 8.506584e-01 -1.531804e+00 -5.317654e-01 5.878754e-01 -1.850275e-02 -5.203228e-01 -3.633646e-01 -5.280303e-01
<VARIANCE> 25
 6.014899e+00 7.527047e+00 1.107935e+01 6.196885e+00 7.270809e+00 1.970481e+01 1.401717e+01 1.344365e+01 1.365307e+01 1.540353e+01 9.856008e+00 2.908447e+01 2.153466e-01 1.093315e+00 8.936297e-01 1.122029e+00 6.760944e-01 1.348972e+00 2.069754e+00 1.817236e+00 1.065241e+00 1.491520e+00 1.183065e+00 2.039501e+00 3.086128e-01
<GCONST> 7.515633e+01
<STATE> 3
<MEAN> 25
 1.551273e+00 3.520282e+00 1.828825e+00 1.628646e+00 2.424470e+00 3.811002e+00 1.044317e+00 1.041398e+00 1.372160e+00 -3.787417e+00 -8.326700e+00 -3.345283e+00 -7.158130e-01 1.728794e+00 5.609455e-01 -2.611014e-01 8.065683e-01 -2.989847e-01 -7.398252e-01 2.356987e-01 1.826080e-01 3.215643e-02 1.025492e-01 1.266877e-01 -1.049820e+00
<VARIANCE> 25
 2.629850e+00 2.129330e+01 9.609597e+00 1.311591e+01 9.492317e+00 1.015450e+01 2.663988e+01 2.225033e+01 1.518034e+01 2.037951e+01 2.032300e+01 1.038386e+01 3.236562e-01 1.136231e+00 1.865505e+00 1.448640e+00 8.556246e-01 2.203079e+00 2.848353e+00 1.719732e+00 2.627021e+00 3.010527e+00 1.392267e+00 2.947032e+00 2.938020e-01
<GCONST> 8.132003e+01
<STATE> 4
<MEAN> 25
 -3.800230e+00 7.102377e+00 4.089282e+00 1.440482e+00 4.198680e+00 2.651056e+00 -4.552796e-01 1.060160e+00 1.483080e+00 -3.804137e-01 -3.267548e+00 -1.934434e+00 -1.762061e+00 4.845052e-01 3.527483e-01 -1.214185e-01 9.940054e-02 3.338819e-01 2.823491e-01 -7.788189e-01 -2.577358e-01 1.091954e+00 1.353490e+00 7.041203e-01 -1.417631e+00
<VARIANCE> 25
 1.665207e+01 1.517913e+01 2.178530e+01 2.153333e+01 1.837677e+01 4.126862e+01 2.214962e+01 3.142771e+01 2.733015e+01 2.994018e+01 2.226951e+01 2.310862e+01 5.168722e-01 2.480288e+00 2.548302e+00 1.794450e+00 1.559505e+00 4.014486e+00 1.626403e+00 2.922542e+00 3.075094e+00 3.195927e+00 2.564283e+00 2.181772e+00 6.757172e-01
<GCONST> 9.253423e+01
<TRANSP> 5
 0.000000e+00 1.000000e+00 0.000000e+00 0.000000e+00 0.000000e+00
 0.000000e+00 6.426543e-01 3.573457e-01 0.000000e+00 0.000000e+00
 0.000000e+00 0.000000e+00 6.833042e-01 3.166958e-01 0.000000e+00
 0.000000e+00 0.000000e+00 0.000000e+00 7.419004e-01 2.580996e-01
 0.000000e+00 0.000000e+00 0.000000e+00 0.000000e+00 0.000000e+00
<ENDHMM>
~h "ny"
<BEGINHMM>
<NUMSTATES> 5
<STATE> 2
<MEAN> 25
 -1.057201e+01 6.188978e+00 6.295053e+00 4.252074e+00 6.666064e+00 3.964957e+00 -3.996053e-02 2.704842e-01 3.160855e+00 3.764834e+00 -5.389175e-01 -1.785361e+00 3.236244e+00 1.262009e+00 2.890185e+00 1.758622e+00 -7.654666e-01 -4.712974e-02 -1.022139e+00 -1.953451e+00 -1.126231e+00 -1.231912e+00 -7.646752e-01 -5.922461e-02 2.342399e+00
<VARIANCE> 25
 3.830704e+01 5.293537e+01 1.947725e+01 1.772115e+01 2.562212e+01 3.045752e+01 2.176824e+01 3.322446e+01 1.780853e+01 2.499638e+01 2.442417e+01 1.795951e+01 2.077411e+00 3.856360e+00 2.491327e+00 1.654486e+00 2.430471e+00 3.982778e+00 2.513133e+00 3.338510e+00 2.024474e+00 2.500848e+00 3.703627e+00 2.545738e+00 9.886564e-01
<GCONST> 9.657983e+01
<STATE> 3
<MEAN> 25
 -8.656740e-01 3.498873e+00 1.200981e+01 1.102319e+01 2.465513e+00 8.214892e-02 -6.116423e+00 -8.253071e+00 -2.350268e-01 2.558687e+00 -8.341113e-01 -1.521155e+00 2.848485e+00 -3.886382e+00 -1.167352e+00 1.326580e+00 -1.174147e+00 -1.264987e+00 -1.020409e+00 -1.464240e+00 -6.189190e-01 8.308675e-01 1.480751e+00 3.390470e-01 3.289998e+00
<VARIANCE> 25
 1.331841e+01 6.172055e+01 3.400093e+01 4.037834e+01 1.987304e+01 5.127116e+01 3.657987e+01 3.026073e+01 2.485951e+01 3.402118e+01 3.750018e+01 2.569818e+01 3.747586e+00 4.842938e+00 7.210524e+00 4.540870e+00 2.406662e+00 6.927129e+00 4.735033e+00 6.590978e+00 4.756600e+00 5.051589e+00 4.052077e+00 3.367682e+00 1.352292e+00
<GCONST> 1.061664e+02
<STATE> 4
<MEAN> 25
 5.015439e+00 -1.115196e+01 -7.213604e-01 7.369415e+00 -8.383762e-02 -6.299843e-02 -5.359665e-01 -5.055307e+00 -1.606686e+00 5.364848e+00 4.919061e+00 -1.730127e-01 9.844213e-01 -1.702935e+00 -2.686663e+00 -2.242404e+00 -6.203923e-01 9.880183e-01 2.383980e+00 1.240875e+00 -6.699877e-01 -3.764406e-01 5.932356e-01 4.932127e-01 1.122233e+00
<VARIANCE> 25
 6.782057e+00 2.163605e+01 2.168201e+01 3.109441e+01 1.263991e+01 3.251009e+01 4.447086e+01 2.239544e+01 4.001154e+01 3.665702e+01 4.548155e+01 3.913090e+01 4.890827e-01 3.261753e+00 2.547949e+00 2.296628e+00 1.534832e+00 2.510415e+00 3.010682e+00 1.846540e+00 2.973036e+00 1.823517e+00 2.792386e+00 1.660770e+00 7.161601e-01
<GCONST> 9.333497e+01
<TRANSP> 5
 0.000000e+00 1.000000e+00 0.000000e+00 0.000000e+00 0.000000e+00
 0.000000e+00 5.778522e-01 4.221477e-01 0.000000e+00 0.000000e+00
 0.000000e+00 0.000000e+00 6.417097e-01 3.582903e-01 0.000000e+00
 0.000000e+00 0.000000e+00 0.000000e+00 7.516350e-01 2.483651e-01
 0.000000e+00 0.000000e+00 0.000000e+00 0.000000e+00 0.000000e+00
<ENDHMM>
~h "sp"
<BEGINHMM>
<NUMSTATES> 3
<STATE> 2
~s "silst"
<TRANSP> 3
 0.000000e+00 4.118083e-02 9.588192e-01
 0.000000e+00 7.087213e-01 2.912788e-01
 0.000000e+00 0.000000e+00 0.000000e+00
<ENDHMM>
~h "sil"
<BEGINHMM>
<NUMSTATES> 5
<STATE> 2
<MEAN> 25
 -1.245021e+01 3.243380e+00 -8.843068e-01 2.664296e-01 6.149446e+00 1.437756e+00 8.846568e-01 3.268676e+00 4.492218e+00 4.856572e+00 1.639654e+00 5.405126e-01 -1.353277e-01 -9.399240e-02 -6.567855e-02 -4.582210e-02 1.697343e-02 9.083376e-02 1.805206e-01 2.072439e-01 1.173200e-01 1.146867e-02 -7.733509e-03 -9.554376e-03 -7.477735e-02
<VARIANCE> 25
 1.519710e+01 1.903709e+01 1.188793e+01 1.524947e+01 2.360863e+01 2.203814e+01 2.418039e+01 3.476029e+01 1.821779e+01 2.506713e+01 1.821817e+01 1.491635e+01 1.936184e-01 3.220475e-01 4.170186e-01 4.490808e-01 5.971265e-01 7.610841e-01 9.200508e-01 9.895019e-01 9.062849e-01 8.334296e-01 7.244742e-01 6.725503e-01 7.810576e-02
<GCONST> 7.264983e+01
<STATE> 3
~s "silst"
<STATE> 4
<MEAN> 25
 -1.184928e+01 3.384680e+00 -1.235971e+00 -2.079640e-01 5.668293e+00 1.402846e+00 1.015759e+00 3.240998e+00 4.292897e+00 4.770280e+00 7.950668e-01 -8.179177e-01 4.022465e-01 1.621151e-01 2.576178e-01 6.682448e-02 -1.812966e-02 3.855524e-01 3.243807e-01 3.084141e-02 -3.000880e-01 -5.880071e-01 -4.472903e-01 -2.265598e-01 2.793856e-01
<VARIANCE> 25
 2.854420e+01 2.840554e+01 2.600373e+01 3.510691e+01 2.862059e+01 3.429757e+01 4.712253e+01 3.720133e+01 2.551259e+01 3.436285e+01 2.340880e+01 2.011552e+01 1.612668e+00 1.886756e+00 1.461155e+00 1.248837e+00 1.626225e+00 1.773143e+00 1.627391e+00 1.747807e+00 1.865148e+00 1.759518e+00 1.451883e+00 1.355555e+00 6.871570e-01
<GCONST> 9.205947e+01
<TRANSP> 5
 0.000000e+00 1.000000e+00 0.000000e+00 0.000000e+00 0.000000e+00
 0.000000e+00 8.078391e-01 5.369810e-02 1.384628e-01 0.000000e+00
 0.000000e+00 0.000000e+00 8.541403e-01 1.458597e-01 0.000000e+00
 0.000000e+00 5.631917e-02 0.000000e+00 2.770469e-01 6.666339e-01
 0.000000e+00 0.000000e+00 0.000000e+00 0.000000e+00 0.000000e+00
<ENDHMM>
