~o
<STREAMINFO> 1 25
<VECSIZE> 25<NULLD><MFCC_D_N_Z_0><DIAGC>
~t "T_@"
<TRANSP> 5
 0.000000e+00 1.000000e+00 0.000000e+00 0.000000e+00 0.000000e+00
 0.000000e+00 4.121217e-01 5.878783e-01 0.000000e+00 0.000000e+00
 0.000000e+00 0.000000e+00 5.999876e-01 4.000124e-01 0.000000e+00
 0.000000e+00 0.000000e+00 0.000000e+00 7.193400e-01 2.806600e-01
 0.000000e+00 0.000000e+00 0.000000e+00 0.000000e+00 0.000000e+00
~t "T_a"
<TRANSP> 5
 0.000000e+00 1.000000e+00 0.000000e+00 0.000000e+00 0.000000e+00
 0.000000e+00 6.543046e-01 3.456953e-01 0.000000e+00 0.000000e+00
 0.000000e+00 0.000000e+00 5.105575e-01 4.894425e-01 0.000000e+00
 0.000000e+00 0.000000e+00 0.000000e+00 6.410527e-01 3.589473e-01
 0.000000e+00 0.000000e+00 0.000000e+00 0.000000e+00 0.000000e+00
~t "T_b"
<TRANSP> 5
 0.000000e+00 1.000000e+00 0.000000e+00 0.000000e+00 0.000000e+00
 0.000000e+00 5.665037e-01 4.334963e-01 0.000000e+00 0.000000e+00
 0.000000e+00 0.000000e+00 5.817301e-01 4.182699e-01 0.000000e+00
 0.000000e+00 0.000000e+00 0.000000e+00 4.892500e-01 5.107500e-01
 0.000000e+00 0.000000e+00 0.000000e+00 0.000000e+00 0.000000e+00
~t "T_c"
<TRANSP> 5
 0.000000e+00 1.000000e+00 0.000000e+00 0.000000e+00 0.000000e+00
 0.000000e+00 7.251462e-01 2.748538e-01 0.000000e+00 0.000000e+00
 0.000000e+00 0.000000e+00 7.778158e-01 2.221842e-01 0.000000e+00
 0.000000e+00 0.000000e+00 0.000000e+00 7.809325e-01 2.190676e-01
 0.000000e+00 0.000000e+00 0.000000e+00 0.000000e+00 0.000000e+00
~t "T_d"
<TRANSP> 5
 0.000000e+00 1.000000e+00 0.000000e+00 0.000000e+00 0.000000e+00
 0.000000e+00 6.029104e-01 3.970896e-01 0.000000e+00 0.000000e+00
 0.000000e+00 0.000000e+00 5.218336e-01 4.781664e-01 0.000000e+00
 0.000000e+00 0.000000e+00 0.000000e+00 5.591639e-01 4.408361e-01
 0.000000e+00 0.000000e+00 0.000000e+00 0.000000e+00 0.000000e+00
~t "T_e"
<TRANSP> 5
 0.000000e+00 1.000000e+00 0.000000e+00 0.000000e+00 0.000000e+00
 0.000000e+00 8.115075e-01 1.884925e-01 0.000000e+00 0.000000e+00
 0.000000e+00 0.000000e+00 7.775565e-01 2.224435e-01 0.000000e+00
 0.000000e+00 0.000000e+00 0.000000e+00 7.778278e-01 2.221722e-01
 0.000000e+00 0.000000e+00 0.000000e+00 0.000000e+00 0.000000e+00
~t "T_g"
<TRANSP> 5
 0.000000e+00 1.000000e+00 0.000000e+00 0.000000e+00 0.000000e+00
 0.000000e+00 7.083184e-01 2.916816e-01 0.000000e+00 0.000000e+00
 0.000000e+00 0.000000e+00 6.050584e-01 3.949416e-01 0.000000e+00
 0.000000e+00 0.000000e+00 0.000000e+00 7.008649e-01 2.991351e-01
 0.000000e+00 0.000000e+00 0.000000e+00 0.000000e+00 0.000000e+00
~t "T_h"
<TRANSP> 5
 0.000000e+00 1.000000e+00 0.000000e+00 0.000000e+00 0.000000e+00
 0.000000e+00 8.782211e-01 1.217790e-01 0.000000e+00 0.000000e+00
 0.000000e+00 0.000000e+00 8.126073e-01 1.873927e-01 0.000000e+00
 0.000000e+00 0.000000e+00 0.000000e+00 7.227856e-01 2.772144e-01
 0.000000e+00 0.000000e+00 0.000000e+00 0.000000e+00 0.000000e+00
~t "T_i"
<TRANSP> 5
 0.000000e+00 1.000000e+00 0.000000e+00 0.000000e+00 0.000000e+00
 0.000000e+00 6.469910e-01 3.530090e-01 0.000000e+00 0.000000e+00
 0.000000e+00 0.000000e+00 7.898051e-01 2.101949e-01 0.000000e+00
 0.000000e+00 0.000000e+00 0.000000e+00 7.454467e-01 2.545533e-01
 0.000000e+00 0.000000e+00 0.000000e+00 0.000000e+00 0.000000e+00
~t "T_j"
<TRANSP> 5
 0.000000e+00 1.000000e+00 0.000000e+00 0.000000e+00 0.000000e+00
 0.000000e+00 6.934469e-01 3.065531e-01 0.000000e+00 0.000000e+00
 0.000000e+00 0.000000e+00 5.210558e-01 4.789442e-01 0.000000e+00
 0.000000e+00 0.000000e+00 0.000000e+00 3.527211e-01 6.472789e-01
 0.000000e+00 0.000000e+00 0.000000e+00 0.000000e+00 0.000000e+00
~t "T_k"
<TRANSP> 5
 0.000000e+00 1.000000e+00 0.000000e+00 0.000000e+00 0.000000e+00
 0.000000e+00 6.212546e-01 3.787454e-01 0.000000e+00 0.000000e+00
 0.000000e+00 0.000000e+00 6.606196e-01 3.393804e-01 0.000000e+00
 0.000000e+00 0.000000e+00 0.000000e+00 3.930716e-01 6.069285e-01
 0.000000e+00 0.000000e+00 0.000000e+00 0.000000e+00 0.000000e+00
~t "T_l"
<TRANSP> 5
 0.000000e+00 1.000000e+00 0.000000e+00 0.000000e+00 0.000000e+00
 0.000000e+00 7.137522e-01 2.862478e-01 0.000000e+00 0.000000e+00
 0.000000e+00 0.000000e+00 5.893496e-01 4.106505e-01 0.000000e+00
 0.000000e+00 0.000000e+00 0.000000e+00 5.043364e-01 4.956636e-01
 0.000000e+00 0.000000e+00 0.000000e+00 0.000000e+00 0.000000e+00
~t "T_m"
<TRANSP> 5
 0.000000e+00 1.000000e+00 0.000000e+00 0.000000e+00 0.000000e+00
 0.000000e+00 6.739662e-01 3.260338e-01 0.000000e+00 0.000000e+00
 0.000000e+00 0.000000e+00 5.221775e-01 4.778225e-01 0.000000e+00
 0.000000e+00 0.000000e+00 0.000000e+00 5.573546e-01 4.426453e-01
 0.000000e+00 0.000000e+00 0.000000e+00 0.000000e+00 0.000000e+00
~t "T_n"
<TRANSP> 5
 0.000000e+00 1.000000e+00 0.000000e+00 0.000000e+00 0.000000e+00
 0.000000e+00 5.823611e-01 4.176390e-01 0.000000e+00 0.000000e+00
 0.000000e+00 0.000000e+00 5.941326e-01 4.058674e-01 0.000000e+00
 0.000000e+00 0.000000e+00 0.000000e+00 5.249215e-01 4.750785e-01
 0.000000e+00 0.000000e+00 0.000000e+00 0.000000e+00 0.000000e+00
~t "T_p"
<TRANSP> 5
 0.000000e+00 1.000000e+00 0.000000e+00 0.000000e+00 0.000000e+00
 0.000000e+00 5.933349e-01 4.066651e-01 0.000000e+00 0.000000e+00
 0.000000e+00 0.000000e+00 6.632886e-01 3.367114e-01 0.000000e+00
 0.000000e+00 0.000000e+00 0.000000e+00 4.140163e-01 5.859836e-01
 0.000000e+00 0.000000e+00 0.000000e+00 0.000000e+00 0.000000e+00
~t "T_r"
<TRANSP> 5
 0.000000e+00 1.000000e+00 0.000000e+00 0.000000e+00 0.000000e+00
 0.000000e+00 4.663945e-01 5.336055e-01 0.000000e+00 0.000000e+00
 0.000000e+00 0.000000e+00 5.294128e-01 4.705872e-01 0.000000e+00
 0.000000e+00 0.000000e+00 0.000000e+00 7.375626e-01 2.624374e-01
 0.000000e+00 0.000000e+00 0.000000e+00 0.000000e+00 0.000000e+00
~t "T_s"
<TRANSP> 5
 0.000000e+00 1.000000e+00 0.000000e+00 0.000000e+00 0.000000e+00
 0.000000e+00 8.537179e-01 1.462821e-01 0.000000e+00 0.000000e+00
 0.000000e+00 0.000000e+00 7.082863e-01 2.917136e-01 0.000000e+00
 0.000000e+00 0.000000e+00 0.000000e+00 3.512920e-01 6.487080e-01
 0.000000e+00 0.000000e+00 0.000000e+00 0.000000e+00 0.000000e+00
~t "T_t"
<TRANSP> 5
 0.000000e+00 1.000000e+00 0.000000e+00 0.000000e+00 0.000000e+00
 0.000000e+00 3.574916e-01 6.425084e-01 0.000000e+00 0.000000e+00
 0.000000e+00 0.000000e+00 4.488969e-01 5.511031e-01 0.000000e+00
 0.000000e+00 0.000000e+00 0.000000e+00 3.413215e-01 6.586785e-01
 0.000000e+00 0.000000e+00 0.000000e+00 0.000000e+00 0.000000e+00
~t "T_u"
<TRANSP> 5
 0.000000e+00 1.000000e+00 0.000000e+00 0.000000e+00 0.000000e+00
 0.000000e+00 6.364261e-01 3.635739e-01 0.000000e+00 0.000000e+00
 0.000000e+00 0.000000e+00 5.974874e-01 4.025126e-01 0.000000e+00
 0.000000e+00 0.000000e+00 0.000000e+00 7.082827e-01 2.917173e-01
 0.000000e+00 0.000000e+00 0.000000e+00 0.000000e+00 0.000000e+00
~t "T_ng"
<TRANSP> 5
 0.000000e+00 1.000000e+00 0.000000e+00 0.000000e+00 0.000000e+00
 0.000000e+00 6.672435e-01 3.327565e-01 0.000000e+00 0.000000e+00
 0.000000e+00 0.000000e+00 6.927567e-01 3.072433e-01 0.000000e+00
 0.000000e+00 0.000000e+00 0.000000e+00 7.115353e-01 2.884646e-01
 0.000000e+00 0.000000e+00 0.000000e+00 0.000000e+00 0.000000e+00
~t "T_ny"
<TRANSP> 5
 0.000000e+00 1.000000e+00 0.000000e+00 0.000000e+00 0.000000e+00
 0.000000e+00 6.451719e-01 3.548280e-01 0.000000e+00 0.000000e+00
 0.000000e+00 0.000000e+00 6.546879e-01 3.453121e-01 0.000000e+00
 0.000000e+00 0.000000e+00 0.000000e+00 6.682096e-01 3.317904e-01
 0.000000e+00 0.000000e+00 0.000000e+00 0.000000e+00 0.000000e+00
~s "ST_s_2_1"
<MEAN> 25
 -1.165166e+01 -9.952620e+00 2.305389e+01 -4.380899e+00 -7.953649e+00 1.620501e+01 1.357171e+00 8.276771e-01 -9.114102e-01 -1.073252e+00 6.132647e+00 3.137266e-01 -1.382987e+00 -1.669460e+00 7.901464e-01 1.348136e-01 -4.012264e-01 3.695338e-01 4.427003e-01 4.261421e-01 -9.996968e-01 -2.573899e-01 1.256824e+00 3.753887e-01 -1.894693e-01
<VARIANCE> 25
 1.978735e+01 2.043766e+01 3.686579e+01 3.871756e+01 2.730786e+01 2.242209e+01 3.933673e+01 5.177255e+01 2.385509e+01 3.320580e+01 4.075818e+01 2.410761e+01 2.363825e+00 2.996063e+00 1.310452e+01 2.602127e+00 2.865670e+00 4.362503e+00 3.594522e+00 2.191456e+00 2.635344e+00 2.585965e+00 3.395478e+00 2.228745e+00 3.265307e-01
<GCONST> 9.971452e+01
~s "ST_s_2_2"
<MEAN> 25
 -1.033236e+01 -1.294417e+01 1.745436e+01 -1.253531e+01 -7.159024e+00 1.741586e+01 -4.590724e+00 4.298354e+00 6.047595e+00 -1.165022e-01 6.492949e+00 1.187567e+00 -1.478888e+00 -8.745618e-01 7.992834e-01 -2.387864e-01 1.142339e-01 5.753043e-01 -3.857207e-01 9.728713e-02 -3.602456e-02 -1.019166e-01 2.093502e-01 -1.906704e-01 -5.077415e-01
<VARIANCE> 25
 1.733720e+01 2.547047e+01 3.886142e+01 1.479399e+01 2.376348e+01 3.602101e+01 2.652232e+01 5.682610e+01 2.777372e+01 2.537451e+01 2.618220e+01 2.014096e+01 1.529887e+00 1.971669e+00 6.830733e+00 3.515672e+00 1.417984e+00 2.383291e+00 2.879326e+00 3.098835e+00 2.015008e+00 1.777482e+00 1.891711e+00 1.393510e+00 3.168476e-01
<GCONST> 9.407225e+01
~s "ST_s_3_1"
<MEAN> 25
 -6.598902e+00 -7.582099e+00 1.088005e+01 -2.654000e+00 -2.580754e+00 1.115835e+01 -4.109635e+00 -3.664421e+00 -3.064075e-01 -2.960108e+00 4.092775e+00 2.260154e+00 4.179982e+00 3.255854e+00 -2.411761e+00 2.985580e+00 1.955786e+00 -3.606231e+00 -1.863185e+00 -2.642114e+00 -2.024472e+00 -1.332687e+00 -1.416893e+00 -4.748966e-01 9.752350e-01
<VARIANCE> 25
 5.223661e+01 5.587724e+01 2.753475e+01 3.508355e+01 3.681159e+01 4.935567e+01 7.747073e+01 5.927420e+01 7.134647e+01 5.044257e+01 3.743567e+01 2.663996e+01 1.848004e+00 3.340971e+00 3.282743e+00 4.184095e+00 5.682775e+00 4.659802e+00 4.696278e+00 7.836716e+00 2.966772e+00 3.862969e+00 3.817275e+00 3.404169e+00 1.285364e+00
<GCONST> 1.084062e+02
~s "ST_s_4_1"
<MEAN> 25
 4.651574e+00 -2.951307e+00 4.735999e+00 4.875566e+00 2.320935e+00 9.285916e-01 -1.048351e+01 -9.169842e+00 -4.088513e+00 -3.680766e+00 1.368508e+00 -6.671892e-01 1.821577e+00 -7.512410e-02 -1.376721e+00 2.301292e+00 9.744477e-01 -2.825267e+00 -6.365042e-01 -2.333240e-02 -1.361053e-04 5.870263e-01 -8.812500e-01 -1.282320e+00 9.324618e-01
<VARIANCE> 25
 7.009667e+00 3.731599e+01 2.602660e+01 3.605046e+01 6.828980e+01 1.770256e+01 7.481395e+01 5.648517e+01 3.572339e+01 6.654372e+01 2.809091e+01 2.840609e+01 1.348713e+00 4.037947e+00 1.988275e+00 3.550923e+00 3.493128e+00 3.120839e+00 3.362143e+00 4.856173e+00 3.716994e+00 3.686855e+00 3.748781e+00 2.066515e+00 5.889664e-01
<GCONST> 1.012265e+02
~s "ST_i_2_1"
<MEAN> 25
 3.642545e+00 -5.208216e+00 6.219658e+00 1.542265e+01 5.142489e+00 -7.423419e+00 -1.097719e+01 -5.273169e+00 -1.293497e+00 -8.679519e-01 -5.962923e-01 -4.002998e+00 -3.934201e-01 6.391535e-01 6.655787e-01 1.181193e+00 2.949389e-01 -7.818300e-01 -6.453979e-02 1.873783e-01 -3.666913e-02 -9.074014e-02 -5.759611e-01 -2.997063e-01 -5.380041e-01
<VARIANCE> 25
 9.738791e+00 2.480754e+01 5.567154e+01 3.417657e+01 4.162380e+01 3.066609e+01 2.983055e+01 2.288999e+01 2.519579e+01 3.131688e+01 2.557134e+01 2.376968e+01 1.399073e-01 9.763497e-01 1.312958e+00 1.679263e+00 1.161862e+00 1.910988e+00 1.536436e+00 1.619350e+00 1.274384e+00 1.577719e+00 1.367005e+00 1.084731e+00 2.437727e-01
<GCONST> 8.593392e+01
~s "ST_i_2_2"
<MEAN> 25
 3.485422e+00 -8.412223e+00 5.532157e+00 1.603991e+01 6.202158e+00 -5.802899e+00 -1.506938e+01 -1.179045e+01 -2.985010e+00 -1.420417e+00 -2.272854e+00 -3.451277e+00 6.788470e-01 -1.014690e+00 1.384611e+00 3.752806e+00 1.003502e+00 -2.777529e+00 -1.728455e+00 -1.624969e-01 -2.255458e-01 3.260699e-01 -1.981101e-01 -1.540350e+00 9.765370e-01
<VARIANCE> 25
 7.966306e+00 2.494211e+01 3.591170e+01 3.352365e+01 3.859553e+01 4.324152e+01 3.284165e+01 2.388266e+01 2.760158e+01 3.395976e+01 3.975449e+01 3.499779e+01 1.371954e+00 3.107579e+00 2.657743e+00 5.064853e+00 3.123534e+00 4.790789e+00 4.304424e+00 4.398017e+00 3.041368e+00 3.091421e+00 2.868878e+00 2.984938e+00 1.476619e+00
<GCONST> 1.009724e+02
~s "ST_i_3_1"
<MEAN> 25
 1.339513e+00 -7.061003e-01 1.393831e+00 1.049099e+01 4.373132e+00 -5.434677e+00 -5.420106e+00 -4.461850e+00 3.483681e-01 3.479352e+00 -1.235591e+00 -2.159327e+00 -1.391108e+00 1.854299e+00 1.156769e-01 -6.582275e-01 6.536047e-01 4.221353e-01 2.271287e-01 5.891545e-01 8.008633e-01 7.318209e-01 2.200453e-01 3.297770e-01 -1.718219e+00
<VARIANCE> 25
 1.083739e+01 1.996618e+01 2.743599e+01 2.428458e+01 1.971684e+01 3.598870e+01 3.234842e+01 2.936031e+01 3.519431e+01 2.000740e+01 1.792406e+01 1.562399e+01 2.502682e-01 9.465931e-01 1.934580e+00 1.597628e+00 1.028560e+00 2.665734e+00 2.195967e+00 1.352397e+00 1.921034e+00 1.932487e+00 1.864108e+00 1.581614e+00 3.574767e-01
<GCONST> 8.658813e+01
~s "ST_i_3_2"
<MEAN> 25
 -1.150472e+00 -2.306559e+00 9.179565e+00 1.825159e+01 8.532434e+00 -5.799500e+00 -1.315997e+01 -9.401234e+00 -3.530447e-01 1.009377e+00 -2.331324e+00 -2.500175e+00 -1.352017e+00 2.320164e+00 -2.405902e-01 -7.923971e-01 8.443953e-01 5.639034e-01 9.393326e-01 6.295380e-01 5.269370e-01 1.353202e+00 4.919699e-01 2.228720e-01 -1.926775e+00
<VARIANCE> 25
 9.108778e+00 4.105240e+01 1.588725e+01 2.167765e+01 3.691755e+01 4.221496e+01 3.252872e+01 2.337129e+01 2.279992e+01 2.681939e+01 2.964589e+01 2.463241e+01 4.741211e-01 1.162305e+00 1.475750e+00 1.772192e+00 1.577271e+00 2.646482e+00 2.322338e+00 1.769070e+00 2.108211e+00 2.540963e+00 2.154821e+00 2.513586e+00 5.378265e-01
<GCONST> 9.066222e+01
~s "ST_i_3_3"
<MEAN> 25
 4.710186e+00 -1.023481e+01 5.232689e+00 1.495236e+01 6.244095e+00 -6.093115e+00 -1.388815e+01 -9.987234e+00 -2.576191e+00 1.447288e+00 -2.035724e-01 -6.013966e+00 2.166172e-01 5.713292e-01 -3.568853e-01 -1.190429e+00 -2.058903e-01 6.724724e-01 5.219700e-01 7.394973e-03 -5.309457e-02 2.666402e-01 6.534125e-01 5.408509e-01 -3.156815e-02
<VARIANCE> 25
 5.647492e+00 2.439316e+01 2.219638e+01 2.339231e+01 3.560651e+01 5.289111e+01 2.524363e+01 3.283521e+01 2.438511e+01 3.612988e+01 2.972359e+01 2.604395e+01 2.129693e-01 1.673713e+00 1.527896e+00 1.611981e+00 1.556437e+00 2.228852e+00 2.054920e+00 2.925303e+00 2.116853e+00 2.155760e+00 1.360954e+00 1.254819e+00 3.301791e-01
<GCONST> 8.867088e+01
~s "ST_i_3_4"
<MEAN> 25
 -2.405491e+00 -4.199728e-02 1.495828e+01 2.161464e+01 8.410915e+00 -7.151431e+00 -1.453565e+01 -6.643289e+00 2.372062e+00 2.595342e-01 -4.672212e+00 -6.412079e+00 -4.583978e-01 9.291872e-01 -3.734630e-01 -4.696868e-01 -1.959810e-01 -1.579451e-01 8.305029e-01 2.429675e-01 1.144293e-01 5.774469e-01 -1.981871e-01 4.137278e-03 -7.696608e-01
<VARIANCE> 25
 8.029799e+00 2.039958e+01 2.940265e+01 2.024481e+01 4.111392e+01 4.915312e+01 4.511177e+01 2.598569e+01 3.349019e+01 2.245462e+01 3.757996e+01 2.242028e+01 1.596115e-01 6.775829e-01 1.216537e+00 1.522760e+00 1.221302e+00 1.441099e+00 1.471083e+00 7.896963e-01 9.027274e-01 1.140368e+00 1.025801e+00 6.323919e-01 3.004279e-01
<GCONST> 8.297297e+01
~s "ST_i_4_1"
<MEAN> 25
 -6.804634e+00 6.672839e+00 4.788604e+00 7.823730e+00 6.255811e+00 -2.572605e+00 -2.973644e+00 -1.382302e+00 3.149741e+00 5.753839e+00 -7.233007e-01 -1.910043e+00 -9.626687e-01 8.932723e-02 -8.493975e-01 -1.659222e+00 -3.000878e-01 8.787838e-01 1.004234e+00 6.648899e-01 3.127608e-01 2.369195e-01 3.381200e-01 4.784448e-01 -7.789784e-01
<VARIANCE> 25
 1.362493e+01 1.009804e+01 2.650583e+01 3.899326e+01 1.721342e+01 4.658296e+01 4.701534e+01 2.635777e+01 2.562476e+01 2.152519e+01 2.345380e+01 2.359041e+01 1.856854e-01 1.358341e+00 1.083877e+00 1.368268e+00 1.630393e+00 2.444688e+00 2.654278e+00 2.254465e+00 1.916407e+00 1.756907e+00 1.753858e+00 1.060089e+00 1.849317e-01
<GCONST> 8.658463e+01
~s "ST_i_4_2"
<MEAN> 25
 -6.489374e+00 1.985671e+00 6.175323e+00 1.077615e+01 8.141768e+00 -3.250839e+00 -1.144987e+01 -8.384192e+00 1.033088e+00 3.780423e+00 -3.120262e-01 -3.878413e-01 -6.611713e-01 -1.625102e+00 -8.820672e-01 -2.901177e+00 -1.093620e+00 2.307913e+00 1.988003e-01 -5.422987e-01 1.534052e-01 3.487189e-01 1.003735e+00 4.215991e-01 2.004804e-01
<VARIANCE> 25
 9.430795e+00 3.513577e+01 1.234811e+01 3.089359e+01 2.090369e+01 4.774165e+01 3.355870e+01 1.884661e+01 2.390497e+01 2.709762e+01 1.420082e+01 2.587452e+01 5.317737e-01 5.493392e+00 2.372672e+00 2.546801e+00 2.779767e+00 3.928648e+00 3.411904e+00 2.284938e+00 2.463326e+00 1.922490e+00 2.576554e+00 1.579958e+00 1.529297e+00
<GCONST> 9.412854e+01
~s "ST_i_4_3"
<MEAN> 25
 3.574933e+00 -3.834991e+00 2.733351e+00 9.103673e+00 6.080808e+00 -7.063586e-01 -8.530050e+00 -8.634979e+00 -1.725397e+00 3.461282e+00 2.233153e+00 -1.788038e+00 -1.298075e-02 1.153329e+00 -1.112073e+00 -1.960450e+00 -2.604197e-01 1.705626e+00 2.206943e+00 1.283282e+00 -9.090942e-03 -8.044377e-01 -8.993966e-02 1.379099e+00 -5.886864e-01
<VARIANCE> 25
 2.855355e+01 6.674411e+01 2.975571e+01 2.764761e+01 4.447213e+01 3.985120e+01 3.137357e+01 2.849282e+01 3.144812e+01 4.312947e+01 1.946640e+01 3.292487e+01 4.383292e-01 2.157701e+00 2.435070e+00 1.860227e+00 2.652695e+00 2.179204e+00 2.656892e+00 2.335339e+00 2.282023e+00 2.981184e+00 2.507667e+00 2.691978e+00 5.670037e-01
<GCONST> 9.645765e+01
~s "ST_l_2_1"
<MEAN> 25
 5.726926e+00 -2.326535e+00 -4.409568e+00 -4.560325e+00 -5.860387e+00 -2.115875e+00 5.185549e+00 3.252893e+00 -4.199327e+00 -3.465293e+00 2.125359e-01 -8.568474e-01 5.318075e-01 -1.611121e+00 -1.085218e+00 -8.110740e-01 -1.701700e+00 -3.366231e-01 1.981274e+00 9.369183e-01 -1.867022e-01 4.135226e-01 1.191246e+00 4.520648e-01 8.883505e-01
<VARIANCE> 25
 4.444510e+00 1.382258e+01 1.749591e+01 2.485187e+01 2.408331e+01 3.954186e+01 2.728743e+01 4.373500e+01 4.178010e+01 2.839203e+01 3.846027e+01 3.132961e+01 7.924688e-02 1.620690e+00 8.080930e-01 1.200225e+00 2.409911e+00 1.723232e+00 2.059809e+00 2.864310e+00 2.342039e+00 2.608250e+00 2.751131e+00 2.303428e+00 2.878632e-01
<GCONST> 8.778264e+01
~s "ST_l_2_2"
<MEAN> 25
 7.635929e+00 -4.801791e+00 -5.570081e+00 -1.981814e-01 -3.512363e+00 -4.280470e+00 2.705411e+00 5.990173e-01 -3.629628e+00 -2.298243e+00 2.427858e-01 2.395140e+00 1.398843e-01 1.118419e-01 -2.721938e-01 -5.041508e-01 -6.784276e-01 -1.234780e-01 1.030239e+00 5.762892e-01 7.441002e-02 -1.436399e-01 -3.921139e-01 3.225517e-02 4.961278e-02
<VARIANCE> 25
 5.446582e+00 1.261362e+01 1.134125e+01 1.407236e+01 1.872638e+01 3.456834e+01 3.500420e+01 4.387438e+01 2.940335e+01 4.412022e+01 4.489414e+01 2.517017e+01 1.018095e-01 8.504042e-01 6.007231e-01 1.202817e+00 1.146506e+00 1.619648e+00 1.474288e+00 1.429169e+00 1.257885e+00 2.217106e+00 2.682807e+00 1.141029e+00 1.769252e-01
<GCONST> 8.226197e+01
~s "ST_l_3_1"
<MEAN> 25
 6.868972e+00 -8.090829e+00 -6.215303e+00 -5.820798e+00 -8.338452e+00 1.384964e-01 8.509941e+00 3.234305e+00 -5.927297e-01 -1.340803e+00 3.523591e-01 2.577062e+00 -7.824028e-02 -1.810656e+00 8.327303e-02 -4.633864e-01 -5.125117e-01 1.186755e+00 6.971500e-01 -4.786208e-02 5.738295e-01 1.453074e-01 1.568267e-01 2.144646e-01 7.943388e-01
<VARIANCE> 25
 5.606756e+00 2.784345e+01 1.392524e+01 2.823630e+01 3.592057e+01 5.289006e+01 2.718062e+01 4.140209e+01 4.243084e+01 4.336517e+01 3.288048e+01 3.851941e+01 1.651681e-01 1.428241e+00 1.053151e+00 1.847099e+00 2.508540e+00 2.059760e+00 2.461627e+00 2.393280e+00 2.701133e+00 2.965991e+00 2.245752e+00 1.621981e+00 2.914017e-01
<GCONST> 9.098610e+01
~s "ST_l_4_1"
<MEAN> 25
 6.688039e+00 -1.054563e+01 -5.726488e+00 -5.331372e+00 -8.200280e+00 4.609623e-01 8.696010e+00 3.686046e+00 -4.660020e-01 -1.489049e+00 7.810761e-01 1.980533e+00 -1.175815e-01 1.004416e-01 8.513160e-02 6.209321e-02 4.053108e-02 -2.893362e-02 -3.539357e-01 1.496389e-01 2.158450e-01 -1.230239e-01 -7.045395e-02 1.058274e-02 -1.649362e-01
<VARIANCE> 25
 4.493654e+00 2.115952e+01 1.364949e+01 1.501009e+01 4.338309e+01 3.327755e+01 2.470829e+01 5.027176e+01 3.688338e+01 4.277235e+01 2.985255e+01 2.671750e+01 1.003619e-01 5.194399e-01 6.416322e-01 9.043990e-01 1.125371e+00 1.364849e+00 1.255864e+00 1.464436e+00 1.273895e+00 1.279145e+00 1.285676e+00 1.130397e+00 1.114830e-01
<GCONST> 8.047735e+01
~s "ST_b_2_1"
<MEAN> 25
 -9.809524e+00 2.179137e+00 -1.393150e+00 -1.867936e+00 3.143677e+00 5.247415e+00 7.312737e+00 6.810784e+00 3.530464e+00 -1.027026e-01 -2.545574e+00 -6.513283e-01 3.117937e+00 2.040334e+00 1.804141e+00 7.606007e-01 -1.200427e-01 6.415787e-02 -5.466561e-01 -5.431983e-01 -1.092461e+00 -1.736111e+00 -7.509273e-01 -2.334250e-01 1.857153e+00
<VARIANCE> 25
 2.068500e+01 1.109717e+02 2.283217e+01 2.527954e+01 6.156179e+01 2.550259e+01 3.566969e+01 3.867225e+01 2.249993e+01 5.234272e+01 2.993818e+01 2.195730e+01 2.006107e+00 9.383027e+00 2.344609e+00 1.862082e+00 3.185057e+00 4.171841e+00 2.437444e+00 1.490147e+00 1.075160e+00 2.827319e+00 1.287127e+00 2.011454e+00 9.028675e-01
<GCONST> 9.843803e+01
~s "ST_b_3_1"
<MEAN> 25
 -1.726764e-01 1.493945e+01 7.066620e+00 3.212943e+00 5.848706e+00 3.066260e+00 2.289130e+00 3.393219e+00 8.505185e-01 -1.875901e+00 -2.472502e+00 -1.310142e+00 2.423264e+00 9.244246e-01 1.237328e+00 -2.124168e-02 -1.332156e+00 -7.956522e-01 -1.624150e+00 -1.376058e+00 -6.033290e-01 -1.055265e+00 -6.445811e-01 -7.351635e-01 1.673185e+00
<VARIANCE> 25
 8.070995e+00 4.175491e+01 1.750118e+01 2.557190e+01 3.575004e+01 2.703447e+01 1.940207e+01 3.231039e+01 1.430987e+01 2.563149e+01 2.381445e+01 1.179900e+01 2.151165e+00 1.090156e+01 2.854347e+00 2.657647e+00 2.647639e+00 4.821766e+00 2.279970e+00 1.720661e+00 2.260960e+00 3.174550e+00 1.840654e+00 1.719582e+00 1.033347e+00
<GCONST> 9.497914e+01
~s "ST_b_4_1"
<MEAN> 25
 4.351024e+00 1.326166e+01 6.437801e+00 -2.125538e+00 -2.607976e+00 -1.870420e+00 -2.041596e+00 1.670238e+00 4.985110e-01 -5.662474e+00 -5.216483e+00 -4.911339e+00 1.147122e+00 7.611151e-01 2.967989e-01 -1.115460e+00 -2.575483e+00 -3.003027e+00 -8.898146e-01 1.122912e+00 3.957280e-01 -2.956621e-01 -3.107303e-01 -1.674186e+00 7.214363e-01
<VARIANCE> 25
 7.899849e+00 2.694946e+01 1.539299e+01 1.737978e+01 2.674519e+01 3.400949e+01 3.204776e+01 2.986703e+01 2.621255e+01 3.425550e+01 2.203491e+01 1.835704e+01 1.495779e+00 3.535382e+00 1.421268e+00 4.374969e+00 3.594147e+00 3.072858e+00 6.512903e+00 3.122617e+00 3.429701e+00 2.934827e+00 1.731575e+00 1.813982e+00 6.771547e-01
<GCONST> 9.534776e+01
~s "ST_e_2_1"
<MEAN> 25
 5.988466e+00 -6.578176e+00 1.511204e+00 9.082561e+00 2.571791e+00 -4.569456e+00 -9.897674e+00 -1.117797e+01 -4.793711e+00 -6.084775e-01 2.008305e+00 2.027307e+00 -6.604185e-02 1.560491e-01 -2.349130e-01 4.667296e-01 1.849748e-01 -4.530940e-01 8.040187e-02 1.192421e-01 8.948288e-02 3.470360e-01 -1.703401e-01 -2.131678e-01 -2.174608e-01
<VARIANCE> 25
 3.574950e+00 1.413939e+01 1.441685e+01 1.367120e+01 3.002654e+01 1.673734e+01 2.941739e+01 2.868466e+01 2.198846e+01 3.828889e+01 1.822816e+01 2.493729e+01 8.551483e-02 3.888778e-01 5.683283e-01 1.084055e+00 8.201583e-01 1.255827e+00 8.832932e-01 8.858356e-01 7.429951e-01 9.927964e-01 8.205835e-01 7.981865e-01 9.270921e-02
<GCONST> 7.375677e+01
~s "ST_e_3_1"
<MEAN> 25
 2.739624e+00 -6.947337e-01 4.111277e-01 1.174120e+01 7.646522e+00 -6.151784e+00 -1.236508e+01 -1.149027e+01 -2.692154e+00 5.258978e+00 2.332865e+00 -1.571715e+00 -8.985264e-01 1.454807e+00 1.321079e-01 8.157110e-02 4.618499e-01 -2.840939e-01 2.149359e-01 1.440567e-01 5.368764e-01 1.161016e+00 1.321235e-01 -5.471255e-02 -1.233015e+00
<VARIANCE> 25
 1.011492e+01 3.004016e+01 1.838363e+01 2.024748e+01 4.037395e+01 2.206505e+01 2.960067e+01 3.936968e+01 3.061634e+01 5.168104e+01 1.775475e+01 2.058308e+01 3.900989e-01 8.384045e-01 8.787645e-01 1.221132e+00 1.096164e+00 1.263848e+00 2.060700e+00 1.832124e+00 1.594368e+00 2.085864e+00 1.162546e+00 1.107899e+00 4.136462e-01
<GCONST> 8.588310e+01
~s "ST_e_4_1"
<MEAN> 25
 -4.969109e+00 6.056213e+00 4.931059e-01 7.002349e+00 7.941154e+00 -4.732685e+00 -7.464413e+00 -5.152000e+00 2.861092e+00 8.929597e+00 2.719599e+00 -3.256009e-01 -9.962153e-01 2.730619e-01 -2.997248e-01 -1.228730e+00 -3.967481e-01 5.694678e-01 1.310602e+00 1.432661e+00 5.278365e-01 -4.620321e-01 -3.679153e-01 1.992045e-01 -8.234694e-01
<VARIANCE> 25
 2.338971e+01 3.087638e+01 2.368951e+01 3.085647e+01 2.974265e+01 3.220444e+01 4.228786e+01 4.926807e+01 3.784731e+01 4.727263e+01 2.906691e+01 1.742921e+01 2.680108e-01 1.112292e+00 7.754154e-01 1.543359e+00 2.066400e+00 1.744287e+00 2.165014e+00 1.758480e+00 1.941028e+00 2.510880e+00 2.048689e+00 1.158413e+00 2.225328e-01
<GCONST> 8.988105e+01
~s "ST_r_2_1"
<MEAN> 25
 5.241975e+00 5.666699e-01 -5.230670e+00 -3.599771e+00 2.038623e+00 2.977446e+00 -1.919581e+00 -3.283496e+00 -2.237672e+00 -5.569535e+00 -2.436948e+00 4.740817e+00 5.647801e-01 3.204507e-01 -9.061922e-01 -6.588848e-01 3.832682e-01 -2.137350e-01 -5.946293e-01 2.171666e-01 2.038954e-01 -7.345245e-01 -1.263298e-01 5.389724e-01 2.048239e-01
<VARIANCE> 25
 1.431095e+01 3.767741e+01 2.250883e+01 3.450539e+01 2.988581e+01 3.904351e+01 3.132167e+01 2.698358e+01 3.238825e+01 2.877306e+01 3.169876e+01 3.098156e+01 8.722186e-01 2.078548e+00 1.831603e+00 1.617587e+00 1.504427e+00 3.682035e+00 2.937318e+00 3.817751e+00 3.553571e+00 2.950647e+00 3.586746e+00 2.286578e+00 8.306199e-01
<GCONST> 9.649935e+01
~s "ST_r_3_1"
<MEAN> 25
 2.982023e+00 3.307547e+00 -3.991377e+00 -4.821979e+00 2.217227e+00 4.681130e+00 -1.421662e+00 -2.560686e+00 -1.189788e+00 -5.151354e+00 -2.943710e+00 3.946516e+00 -7.381808e-01 1.188697e+00 7.166609e-01 3.514243e-01 5.772132e-01 4.847610e-02 3.207772e-01 1.561861e-01 -2.452026e-01 4.664578e-01 -1.962954e-01 -8.982919e-01 -9.011266e-01
<VARIANCE> 25
 1.083165e+01 2.063952e+01 1.795985e+01 2.084259e+01 1.849362e+01 3.126085e+01 2.945371e+01 3.623444e+01 3.101378e+01 2.277314e+01 2.101925e+01 2.519351e+01 5.032660e-01 1.635525e+00 1.774305e+00 1.248987e+00 1.204689e+00 1.882121e+00 1.773752e+00 1.419321e+00 1.358361e+00 1.861009e+00 2.602255e+00 2.394348e+00 3.725930e-01
<GCONST> 8.755899e+01
~s "ST_r_3_2"
<MEAN> 25
 9.902692e+00 7.401218e-01 -1.028404e+01 -5.771896e+00 2.677490e+00 -1.211017e+00 -4.904052e+00 -1.417098e+00 1.937993e+00 -5.052288e+00 -4.087529e+00 4.945137e+00 3.466294e-01 -7.405299e-01 -6.055741e-01 -4.331227e-02 -2.746983e-01 -9.809151e-01 3.997545e-02 9.247985e-01 5.416424e-01 4.355194e-01 7.380448e-01 1.143391e-01 5.030919e-01
<VARIANCE> 25
 7.665933e+00 4.388277e+01 2.351684e+01 1.833003e+01 2.454945e+01 3.748586e+01 4.011239e+01 4.430539e+01 5.538126e+01 3.336369e+01 6.912506e+01 5.405916e+01 3.146985e-01 1.291226e+00 1.441238e+00 1.957382e+00 1.824549e+00 3.795722e+00 3.440446e+00 2.284786e+00 3.118382e+00 2.333548e+00 2.102376e+00 2.199055e+00 2.693241e-01
<GCONST> 9.422425e+01
~s "ST_r_4_1"
<MEAN> 25
 -5.217835e+00 5.391364e+00 -9.842561e-01 -1.708206e+00 4.876249e+00 3.874091e+00 1.818587e-01 -2.472491e+00 -2.306538e+00 9.927485e-02 4.940324e-01 3.166477e+00 -1.374259e+00 1.436343e-01 4.233975e-01 1.821311e-01 2.380854e-03 -3.128799e-01 1.962188e-01 4.590999e-01 6.275771e-01 1.063245e+00 4.812848e-01 -1.463498e-01 -1.003981e+00
<VARIANCE> 25
 2.183550e+01 2.126026e+01 1.293968e+01 1.886547e+01 2.332285e+01 3.608670e+01 2.711903e+01 2.167825e+01 4.587143e+01 3.365786e+01 3.047753e+01 2.027482e+01 3.315057e-01 1.221382e+00 1.425981e+00 1.437977e+00 1.759879e+00 2.143773e+00 2.404033e+00 2.078619e+00 2.126794e+00 2.225969e+00 1.649311e+00 1.686584e+00 2.393775e-01
<GCONST> 8.836409e+01
~s "ST_r_4_2"
<MEAN> 25
 9.185626e+00 -3.415987e+00 -9.782644e+00 -3.857584e+00 1.218680e+00 -4.251977e+00 -1.103606e+00 2.767999e+00 -1.220627e+00 -4.414237e+00 2.211238e+00 4.542276e+00 -3.217111e-01 -9.058124e-01 6.818895e-01 4.723608e-01 -7.855139e-01 1.118345e-01 1.370227e+00 3.855496e-01 -2.392419e-01 9.817928e-01 1.884156e-01 -1.184090e+00 2.138114e-01
<VARIANCE> 25
 7.030194e+00 5.148029e+01 2.898896e+01 2.257143e+01 3.768468e+01 4.656748e+01 4.169244e+01 4.150070e+01 3.147230e+01 4.480883e+01 7.198903e+01 3.602554e+01 2.650130e-01 1.045687e+00 1.367323e+00 1.620343e+00 1.309109e+00 3.432103e+00 2.245842e+00 3.178594e+00 1.671876e+00 2.705492e+00 1.433094e+00 1.933900e+00 3.585420e-01
<GCONST> 9.284348e+01
~s "ST_ny_2_1"
<MEAN> 25
 -9.894178e+00 6.468400e+00 7.174660e+00 4.603304e+00 6.197648e+00 4.085261e+00 -1.397673e-01 -4.253354e-01 2.638609e+00 3.328661e+00 -8.070784e-01 -1.791652e+00 3.379482e+00 9.322569e-01 2.699800e+00 1.877211e+00 -8.592011e-01 -3.038304e-01 -1.210763e+00 -2.134840e+00 -1.188392e+00 -1.116155e+00 -6.531010e-01 -2.820155e-02 2.532569e+00
<VARIANCE> 25
 3.935960e+01 5.146212e+01 2.548831e+01 1.940274e+01 2.485795e+01 3.245424e+01 2.067184e+01 3.459544e+01 1.984880e+01 2.829424e+01 2.515723e+01 1.708532e+01 2.405598e+00 4.357191e+00 2.729586e+00 2.126716e+00 2.568453e+00 4.808506e+00 2.816230e+00 3.931833e+00 2.246360e+00 2.745539e+00 3.961424e+00 2.683986e+00 1.272307e+00
<GCONST> 9.887439e+01
~s "ST_ny_3_1"
<MEAN> 25
 3.492081e-01 8.067250e-01 1.083080e+01 1.155016e+01 2.103808e+00 -8.738282e-01 -7.032574e+00 -8.619009e+00 -1.882492e-01 3.239849e+00 3.961039e-01 -1.258833e+00 2.443080e+00 -4.317404e+00 -2.131247e+00 7.211043e-01 -8.977073e-01 -9.505681e-01 -3.372402e-01 -7.224962e-01 -6.053057e-01 8.967243e-01 1.846427e+00 4.274362e-01 3.018603e+00
<VARIANCE> 25
 9.430503e+00 6.921210e+01 3.700305e+01 4.340098e+01 2.006083e+01 5.482415e+01 3.656986e+01 2.966595e+01 3.007807e+01 3.508285e+01 4.306883e+01 3.166877e+01 2.976006e+00 3.564479e+00 6.671719e+00 4.598879e+00 2.407112e+00 6.159815e+00 5.532126e+00 6.087397e+00 4.387105e+00 4.895417e+00 3.372547e+00 3.269010e+00 1.392950e+00
<GCONST> 1.057784e+02
~s "ST_ny_4_1"
<MEAN> 25
 5.309719e+00 -1.139365e+01 -1.361127e+00 7.514486e+00 -5.731810e-02 -1.598784e-01 -1.852589e-01 -4.852680e+00 -1.681233e+00 5.442202e+00 5.009287e+00 -1.676206e-01 9.757156e-01 -1.633569e+00 -2.635586e+00 -2.485351e+00 -7.739700e-01 1.262918e+00 2.580976e+00 1.287071e+00 -5.458946e-01 -4.502624e-01 4.236360e-01 5.866603e-01 1.119729e+00
<VARIANCE> 25
 6.052293e+00 2.061824e+01 1.549224e+01 2.507614e+01 1.232902e+01 2.639892e+01 3.642151e+01 2.052758e+01 4.181443e+01 3.844215e+01 4.745038e+01 3.963403e+01 3.920971e-01 2.153806e+00 2.154200e+00 2.180817e+00 1.506877e+00 2.536304e+00 2.826652e+00 1.947657e+00 3.329199e+00 1.505214e+00 2.391869e+00 1.396509e+00 4.844978e-01
<GCONST> 9.057742e+01
~s "ST_h_2_1"
<MEAN> 25
 4.787317e+00 1.407411e+01 4.064890e+00 -2.669079e+00 -7.512383e+00 -9.626180e+00 1.317201e+00 5.240079e+00 1.083533e+00 -2.018727e+00 -5.238843e+00 -6.918357e+00 4.960334e-01 -2.087781e-02 -4.008870e-01 -3.085668e-01 -6.336010e-01 -1.519603e+00 -7.890474e-01 4.199390e-01 4.547223e-01 -1.623123e-01 -3.256159e-01 -2.317890e-01 3.578317e-01
<VARIANCE> 25
 5.240337e+00 1.499104e+01 2.147920e+01 1.587872e+01 4.312795e+01 4.257500e+01 4.219427e+01 2.310000e+01 2.724428e+01 1.784565e+01 2.209999e+01 1.079741e+01 2.996144e-01 1.399679e+00 8.491552e-01 1.076447e+00 1.336609e+00 2.162578e+00 3.209400e+00 1.359454e+00 1.062789e+00 1.822839e+00 1.495092e+00 1.688179e+00 1.356481e-01
<GCONST> 8.336707e+01
~s "ST_h_3_1"
<MEAN> 25
 6.928728e+00 6.585347e+00 -3.385358e+00 -4.741748e+00 -1.143801e+01 -1.430804e+01 3.787281e+00 9.165752e+00 -9.669316e-01 -6.921030e+00 -6.544734e+00 -2.963614e+00 9.739346e-02 -2.252438e+00 -1.665330e+00 -4.343130e-01 -4.311740e-01 1.071271e+00 1.707779e+00 -3.162582e-01 -7.152226e-01 1.722400e-01 2.231330e-01 1.228766e+00 6.204062e-01
<VARIANCE> 25
 5.884252e+00 2.381389e+01 3.048484e+01 1.976031e+01 4.029652e+01 4.064885e+01 6.116286e+01 3.173110e+01 3.055914e+01 4.489671e+01 4.266124e+01 2.450368e+01 4.691969e-01 3.626391e+00 1.303925e+00 1.718333e+00 1.968217e+00 5.749077e+00 6.029692e+00 3.671783e+00 2.390936e+00 5.252428e+00 3.362038e+00 1.795707e+00 1.202761e+00
<GCONST> 9.781332e+01
~s "ST_h_4_1"
<MEAN> 25
 6.530180e+00 -6.879175e+00 -9.675854e+00 -6.255398e+00 -1.137745e+01 -1.653899e+00 1.153044e+01 3.701290e+00 1.676919e+00 -1.089001e+00 -5.749373e+00 1.288440e+00 3.139837e-02 -1.499619e+00 -4.775090e-01 3.176555e-01 1.085195e+00 1.886806e+00 -1.218845e-01 -1.176048e+00 9.231465e-01 8.560979e-01 2.261482e-01 2.689427e-01 5.316176e-01
<VARIANCE> 25
 4.367569e+00 2.246679e+01 1.842495e+01 2.053966e+01 2.350625e+01 3.162638e+01 2.513601e+01 2.935474e+01 2.848522e+01 3.088953e+01 1.949765e+01 1.165996e+01 3.479322e-01 2.299437e+00 2.001891e+00 9.108196e-01 3.020074e+00 1.626939e+00 1.632607e+00 1.487023e+00 1.182088e+00 1.109947e+00 1.787390e+00 1.526043e+00 5.496528e-01
<GCONST> 8.542360e+01
~s "ST_u_2_1"
<MEAN> 25
 4.586841e+00 6.056069e+00 4.522703e+00 -9.346003e-01 -6.436666e+00 -6.058118e+00 -6.789558e-01 2.372668e+00 -1.916362e+00 -6.522392e+00 -4.866985e+00 -3.531560e+00 -2.846591e-01 4.592692e-01 -4.785585e-01 -2.647494e-01 8.081999e-01 8.049843e-01 7.365374e-02 -2.840359e-01 4.936898e-01 7.489864e-01 -2.159974e-02 3.407862e-02 -4.665738e-01
<VARIANCE> 25
 7.913949e+00 5.247675e+01 4.442797e+01 1.934863e+01 5.301125e+01 5.442622e+01 6.280433e+01 3.971404e+01 5.736067e+01 5.745103e+01 3.824226e+01 3.138589e+01 4.096100e-01 1.369106e+00 1.787621e+00 1.402172e+00 3.403321e+00 5.785288e+00 2.773211e+00 3.344982e+00 2.537903e+00 1.737896e+00 1.941534e+00 2.751787e+00 3.447958e-01
<GCONST> 9.735506e+01
~s "ST_u_2_2"
<MEAN> 25
 3.915330e+00 8.820539e+00 3.741871e+00 -5.173805e-01 -1.259819e+00 -7.652863e+00 -8.201636e+00 7.445301e-02 1.448647e+00 -2.575295e+00 -3.047875e+00 -6.841769e-01 -5.245886e-02 -2.351393e-01 1.256863e-01 1.378037e-01 -6.831320e-01 -6.383373e-01 2.911622e-01 1.240318e-01 -7.381261e-02 3.518025e-01 2.624933e-01 2.019259e-02 4.346841e-02
<VARIANCE> 25
 4.220584e+00 2.120189e+01 1.662930e+01 1.645797e+01 3.705363e+01 3.695480e+01 5.643035e+01 2.768299e+01 4.339857e+01 3.167750e+01 4.827279e+01 2.475963e+01 2.485713e-01 2.118043e+00 7.943043e-01 8.757578e-01 2.018731e+00 2.510707e+00 3.987173e+00 1.651529e+00 1.458456e+00 1.227648e+00 1.178879e+00 1.339233e+00 4.495858e-01
<GCONST> 8.768400e+01
~s "ST_u_2_3"
<MEAN> 25
 7.302650e+00 1.875806e+00 1.859788e+00 -2.704720e+00 -8.288945e+00 -5.870755e+00 4.837398e-01 4.136073e+00 -3.514103e-01 -7.400183e+00 -6.168447e+00 -4.136003e+00 -1.881392e-01 1.100710e+00 9.868498e-02 -1.369736e-02 -1.810262e-01 -9.589008e-01 -3.252323e-01 4.828919e-01 1.023736e+00 1.303088e+00 -5.177413e-02 -9.470979e-01 -5.709236e-01
<VARIANCE> 25
 2.664688e+00 2.560442e+01 2.081725e+01 1.134553e+01 2.906491e+01 2.015294e+01 6.115974e+01 3.082508e+01 4.120766e+01 3.377044e+01 2.041346e+01 1.862217e+01 1.443800e-01 5.788890e-01 5.389661e-01 9.601946e-01 9.344384e-01 1.464447e+00 1.741602e+00 2.488944e+00 1.263543e+00 1.105536e+00 1.133621e+00 1.917671e+00 1.397347e-01
<GCONST> 8.051025e+01
~s "ST_u_2_4"
<MEAN> 25
 8.436238e+00 -2.100683e+00 9.121238e-01 -1.680452e+00 -1.022816e+01 -5.391443e+00 6.411269e+00 4.115487e+00 -6.407746e+00 -1.097730e+01 -5.583062e+00 -9.483333e-01 3.616376e-02 8.760443e-01 -3.207704e-01 2.036012e-01 4.419286e-01 -9.400601e-01 1.005315e-01 1.337661e+00 7.692320e-01 2.815134e-01 -2.178851e-01 -6.443601e-01 -3.995255e-01
<VARIANCE> 25
 8.825821e+00 2.968416e+01 1.377738e+01 2.595130e+01 4.247251e+01 3.994537e+01 4.308322e+01 2.768040e+01 2.743668e+01 2.591250e+01 3.854770e+01 2.076756e+01 5.202381e-01 1.648271e+00 8.733765e-01 1.041821e+00 1.396676e+00 2.746135e+00 2.045216e+00 2.493603e+00 1.753016e+00 1.699569e+00 1.749945e+00 1.401212e+00 7.396169e-01
<GCONST> 8.957895e+01
~s "ST_u_3_1"
<MEAN> 25
 4.994122e+00 5.154141e+00 -1.153147e-01 -2.222826e+00 -6.024028e+00 -4.295432e+00 3.862694e+00 3.319212e+00 -1.437917e+00 -4.277144e+00 -5.461500e+00 -3.134093e+00 -7.854216e-01 8.296180e-01 -9.361725e-02 -2.220091e-01 1.085280e+00 7.903678e-01 -3.393810e-01 -3.446344e-01 8.360528e-01 1.381884e+00 5.970285e-01 3.162174e-01 -9.207426e-01
<VARIANCE> 25
 8.363703e+00 4.159099e+01 3.016005e+01 2.092385e+01 4.489507e+01 3.604945e+01 3.496323e+01 2.870404e+01 4.262453e+01 4.098423e+01 2.193872e+01 2.275507e+01 3.888647e-01 1.746476e+00 1.374630e+00 1.298224e+00 2.071537e+00 1.958211e+00 2.900186e+00 2.252516e+00 2.748670e+00 2.069013e+00 1.392148e+00 1.599121e+00 5.366123e-01
<GCONST> 9.161074e+01
~s "ST_u_3_2"
<MEAN> 25
 4.390767e+00 5.440697e+00 1.566480e+00 -1.275690e+00 -5.335523e+00 -3.152449e+00 5.890639e+00 4.823614e+00 -3.594447e+00 -7.324457e+00 -5.658513e+00 -1.413645e+00 -1.593656e+00 2.207420e+00 -3.572823e-03 -6.254744e-02 1.787136e+00 5.396601e-01 -6.442847e-01 -1.556918e-01 9.289075e-01 1.588114e+00 5.874426e-01 -2.267491e-03 -2.087480e+00
<VARIANCE> 25
 1.419716e+01 2.375673e+01 1.374044e+01 1.752185e+01 4.110777e+01 5.065856e+01 3.049699e+01 2.595995e+01 3.238100e+01 2.595727e+01 2.898559e+01 2.017787e+01 2.992762e-01 9.003643e-01 1.296381e+00 1.538418e+00 1.827249e+00 2.442003e+00 2.847192e+00 2.674565e+00 2.102360e+00 3.065081e+00 2.214894e+00 1.766274e+00 4.443834e-01
<GCONST> 8.999339e+01
~s "ST_u_3_3"
<MEAN> 25
 1.361581e+00 1.258502e+01 5.646347e+00 -1.664415e+00 -3.351273e+00 -5.554613e+00 -3.418095e+00 9.659932e-01 1.968352e+00 4.481055e-01 -2.222036e+00 -3.589815e+00 -1.474314e+00 6.377289e-01 -3.058304e-01 -8.092244e-02 1.275033e+00 1.572660e+00 7.770160e-01 -4.029135e-01 3.580238e-01 1.530570e+00 5.446352e-01 4.641245e-01 -1.445629e+00
<VARIANCE> 25
 1.094792e+01 2.454962e+01 2.675844e+01 2.038896e+01 5.433826e+01 7.060640e+01 4.825497e+01 4.156282e+01 3.527469e+01 4.739421e+01 4.818112e+01 3.039785e+01 4.431715e-01 1.109650e+00 1.846699e+00 1.598865e+00 2.013106e+00 3.669793e+00 3.305759e+00 2.144266e+00 3.484842e+00 2.195860e+00 2.675264e+00 1.619298e+00 3.568857e-01
<GCONST> 9.521157e+01
~s "ST_u_4_1"
<MEAN> 25
 -1.947025e+00 7.914663e+00 1.365395e+00 -2.394728e+00 -1.614883e+00 -3.268982e+00 -6.952519e-01 1.125679e+00 3.485317e+00 4.719659e+00 7.709821e-01 -1.645613e-01 -9.634784e-01 -4.156761e-01 -1.826517e-01 1.847234e-01 8.806469e-01 6.505851e-01 -4.464925e-02 -1.314524e-01 5.575565e-02 3.804234e-01 8.160435e-01 8.558426e-01 -6.015909e-01
<VARIANCE> 25
 2.063234e+01 3.024909e+01 2.557988e+01 1.451066e+01 2.471350e+01 3.030694e+01 3.777337e+01 1.923759e+01 1.877834e+01 1.697956e+01 1.501466e+01 1.916293e+01 2.359804e-01 7.318054e-01 8.089020e-01 7.747591e-01 1.067618e+00 1.497205e+00 2.048854e+00 1.403658e+00 1.305271e+00 8.796021e-01 1.204047e+00 1.179578e+00 9.597854e-02
<GCONST> 8.038107e+01
~s "ST_u_4_2"
<MEAN> 25
 -5.583634e+00 1.072628e+01 5.868507e+00 2.502488e+00 3.584980e+00 -3.309149e+00 -5.552982e+00 -2.547590e+00 6.147128e-01 4.540120e+00 2.974087e+00 5.176374e-01 -9.913829e-01 -7.474904e-01 -4.115276e-01 4.480395e-02 6.892530e-01 8.854457e-01 4.139456e-01 5.610866e-02 5.124910e-02 2.021108e-01 2.590961e-01 3.143344e-01 -5.313348e-01
<VARIANCE> 25
 2.023882e+01 1.896669e+01 1.361518e+01 2.030363e+01 3.741002e+01 5.931361e+01 4.286298e+01 2.616455e+01 3.465815e+01 3.169505e+01 2.777527e+01 1.522849e+01 2.920538e-01 6.680971e-01 8.510084e-01 8.569959e-01 9.914312e-01 1.673683e+00 1.772176e+00 1.685414e+00 1.632162e+00 1.227326e+00 1.368313e+00 1.116840e+00 1.079006e-01
<GCONST> 8.383852e+01
~s "ST_u_4_3"
<MEAN> 25
 3.579536e+00 5.276664e+00 -1.527436e+00 -2.541607e+00 -2.602020e-02 1.088550e+00 3.157886e+00 2.110352e+00 -1.674373e+00 -4.797134e+00 -4.691290e+00 -1.013584e+00 -3.886999e-01 6.136875e-02 -4.830009e-01 -1.943535e-01 1.052677e+00 1.269396e+00 1.483470e-01 -6.093178e-01 -4.107013e-01 4.283423e-01 8.195988e-01 5.555401e-01 -3.970834e-01
<VARIANCE> 25
 1.134777e+01 4.217908e+01 2.768318e+01 2.139461e+01 4.143804e+01 3.564323e+01 3.768472e+01 4.090332e+01 3.850917e+01 3.249408e+01 2.023842e+01 1.446907e+01 6.383315e-01 2.231230e+00 1.561915e+00 1.760038e+00 2.083977e+00 3.094943e+00 3.384535e+00 2.516485e+00 3.101698e+00 2.193289e+00 2.149060e+00 2.128886e+00 4.229053e-01
<GCONST> 9.390001e+01
~s "ST_u_4_4"
<MEAN> 25
 -2.330691e+00 1.188494e+01 3.075993e+00 -1.426217e+00 -2.113311e-01 -2.261642e+00 1.394967e+00 3.039838e+00 5.586708e-01 -6.731201e-01 -2.558162e+00 -1.499322e+00 -1.350677e+00 -5.458712e-01 -2.512424e-01 -7.577592e-02 5.910364e-01 3.559872e-01 -6.307797e-01 -8.010278e-01 -4.787728e-02 7.575067e-01 1.136045e+00 1.015230e+00 -8.238777e-01
<VARIANCE> 25
 1.314693e+01 1.706345e+01 1.673420e+01 1.971771e+01 2.499893e+01 3.571123e+01 2.802007e+01 2.253325e+01 3.465833e+01 3.008260e+01 2.505843e+01 2.850509e+01 2.277381e-01 1.188432e+00 9.615240e-01 1.238439e+00 1.531595e+00 1.884880e+00 2.548621e+00 1.592892e+00 2.420386e+00 1.348899e+00 1.168568e+00 1.353124e+00 2.130290e-01
<GCONST> 8.534606e+01
~s "ST_k_2_1"
<MEAN> 25
 -5.981567e+00 3.741403e+00 2.755689e+00 -8.606395e+00 -8.689007e+00 7.208044e-01 1.263393e+00 5.543514e-01 5.551613e-01 6.035057e-01 1.870281e+00 9.409761e-01 9.222308e-01 -2.620018e+00 -1.219040e+00 -2.303790e+00 -1.791102e+00 2.740829e+00 2.572422e+00 3.697149e-01 -1.702871e+00 -2.687332e+00 -7.073186e-01 4.753843e-01 1.651147e+00
<VARIANCE> 25
 1.200123e+01 5.331092e+01 4.830083e+01 4.901764e+01 7.466809e+01 7.545583e+01 5.116449e+01 4.811264e+01 3.580773e+01 7.858609e+01 2.589690e+01 2.964055e+01 2.632429e+00 4.644358e+00 3.918623e+00 3.824945e+00 6.248054e+00 1.115172e+01 6.356510e+00 2.755886e+00 3.391979e+00 4.399096e+00 2.153293e+00 3.050907e+00 1.397898e+00
<GCONST> 1.084467e+02
~s "ST_k_2_2"
<MEAN> 25
 -4.638180e+00 -2.307714e+00 -9.188818e-01 -4.115854e+00 -7.393860e-01 5.697997e+00 5.367700e-01 -2.348291e+00 -1.558977e+00 -1.191315e-01 2.519669e+00 2.351880e+00 1.123364e+00 -3.891670e+00 -7.695736e-01 -2.233570e+00 -2.040432e+00 2.651263e+00 1.021102e+00 -1.171175e+00 -1.893554e+00 -1.441709e+00 9.440580e-01 6.775334e-01 2.407689e+00
<VARIANCE> 25
 1.748956e+01 1.008884e+02 4.271383e+01 6.436265e+01 5.184855e+01 7.464283e+01 1.063169e+02 8.014215e+01 5.000297e+01 4.831204e+01 3.066993e+01 4.016323e+01 2.319102e+00 3.838458e+00 5.725838e+00 4.394798e+00 3.865135e+00 5.760915e+00 5.812335e+00 4.556252e+00 3.753295e+00 4.390404e+00 3.215157e+00 2.680889e+00 1.850756e+00
<GCONST> 1.109218e+02
~s "ST_k_3_1"
<MEAN> 25
 2.429646e+00 -2.846615e-01 -2.101237e+00 -8.764601e+00 -1.185540e+01 -6.949997e-01 7.613484e+00 2.120992e+00 -4.277411e+00 -3.517692e+00 -6.629439e-01 4.378026e-01 2.891165e+00 -1.343893e+00 -1.502512e+00 1.399909e+00 1.336241e-01 -1.580853e+00 5.690181e-01 3.438940e-01 -6.205445e-01 -6.036212e-01 -3.801544e-01 9.330042e-02 2.348058e+00
<VARIANCE> 25
 3.151274e+01 3.539302e+01 3.067030e+01 2.835074e+01 3.670514e+01 5.273680e+01 2.249042e+01 3.482626e+01 4.159474e+01 5.431084e+01 2.514229e+01 4.409463e+01 1.756383e+00 4.609778e+00 3.519924e+00 2.125253e+00 5.138494e+00 5.405749e+00 4.303343e+00 5.940084e+00 7.080612e+00 1.012107e+01 3.854404e+00 4.589998e+00 9.687005e-01
<GCONST> 1.064794e+02
~s "ST_k_3_2"
<MEAN> 25
 3.107658e+00 -9.822352e+00 -2.381822e+00 -3.770053e+00 -4.792440e+00 3.903520e+00 -7.764680e-01 -6.582503e+00 -5.460133e+00 -6.502323e-01 5.113688e+00 3.480312e+00 2.900774e+00 -1.383324e+00 -1.386017e+00 8.629921e-01 -8.369265e-01 -2.889085e+00 -6.007394e-02 1.762379e-01 9.262848e-02 6.917646e-01 5.913850e-01 3.028446e-01 2.522918e+00
<VARIANCE> 25
 2.910882e+01 3.625747e+01 3.451656e+01 4.713898e+01 4.059538e+01 6.025468e+01 7.173972e+01 6.253188e+01 3.619669e+01 4.702955e+01 3.296669e+01 2.303242e+01 1.233619e+00 3.952661e+00 3.959648e+00 3.728087e+00 4.101704e+00 5.606962e+00 7.384773e+00 7.732749e+00 5.108076e+00 5.933860e+00 3.557574e+00 3.935859e+00 9.806790e-01
<GCONST> 1.080741e+02
~s "ST_k_4_1"
<MEAN> 25
 7.630539e+00 -1.244165e+01 -6.737974e+00 -3.940796e+00 -6.552753e+00 -1.773857e+00 2.204514e+00 -2.605597e+00 -1.921661e+00 1.436278e+00 4.275059e+00 3.359781e+00 5.690715e-01 -8.542120e-01 -1.079229e+00 -2.961320e-01 2.329299e-02 -2.621365e-01 9.757910e-01 1.328723e+00 1.110672e+00 4.692996e-01 1.311488e-01 4.460362e-03 6.843054e-01
<VARIANCE> 25
 8.498003e+00 3.323595e+01 1.494368e+01 1.775084e+01 2.684634e+01 3.192242e+01 4.527362e+01 3.736018e+01 3.945501e+01 4.431542e+01 3.174965e+01 2.490933e+01 3.760089e-01 1.738728e+00 1.271003e+00 2.145096e+00 3.025836e+00 2.784997e+00 3.495208e+00 3.153056e+00 2.130598e+00 2.829592e+00 2.250632e+00 2.159202e+00 4.490286e-01
<GCONST> 9.318351e+01
~s "ST_a_2_1"
<MEAN> 25
 9.099401e+00 -1.038663e+01 -8.346879e+00 -5.411882e+00 -4.839862e+00 -1.489779e+00 3.493264e+00 1.251698e+00 -2.247881e+00 2.536108e-01 5.089160e+00 2.232497e+00 -1.937991e-01 9.492118e-02 3.439198e-01 4.638242e-01 1.858889e-02 1.866867e-01 -2.636860e-01 -5.897670e-01 1.113873e-01 5.750679e-01 -2.192322e-02 -1.958822e-01 -2.376028e-01
<VARIANCE> 25
 7.008283e+00 1.798099e+01 1.842740e+01 1.826014e+01 2.519725e+01 2.933377e+01 3.438559e+01 4.399929e+01 2.053704e+01 3.970011e+01 3.170542e+01 3.220710e+01 1.116509e-01 5.057133e-01 7.901144e-01 1.084556e+00 8.922302e-01 1.369156e+00 1.567906e+00 1.274081e+00 1.003497e+00 1.138146e+00 8.312141e-01 8.823900e-01 1.437760e-01
<GCONST> 7.990840e+01
~s "ST_a_2_2"
<MEAN> 25
 7.472466e+00 -1.238196e+01 -7.170085e+00 -3.290461e+00 -5.079041e+00 -7.271092e-01 2.794886e+00 -1.453797e+00 -3.561875e-01 2.187750e+00 4.332466e+00 3.005234e+00 -8.856041e-02 9.850991e-01 -6.162466e-02 3.207239e-02 1.806509e-01 -6.814989e-02 3.186556e-01 6.122315e-01 -1.526214e-01 -5.297455e-01 -3.206618e-01 -7.996915e-03 -5.264849e-01
<VARIANCE> 25
 5.928258e+00 2.303578e+01 1.245953e+01 1.757346e+01 1.988410e+01 2.510738e+01 2.860853e+01 2.511081e+01 3.726430e+01 3.632425e+01 3.215455e+01 3.077683e+01 1.429434e-01 9.258557e-01 7.909107e-01 9.806178e-01 1.417266e+00 1.688831e+00 2.004845e+00 2.194868e+00 1.847550e+00 1.908996e+00 1.937091e+00 1.519463e+00 2.405025e-01
<GCONST> 8.414343e+01
~s "ST_a_2_3"
<MEAN> 25
 6.536657e+00 -1.131926e+01 -5.904621e+00 5.637453e-01 -2.604036e+00 1.686927e+00 6.762197e+00 -1.672187e-01 -3.777005e+00 2.979960e+00 5.215062e+00 5.431523e-02 2.435434e-01 6.251919e-01 -7.689133e-01 -1.146952e+00 -4.532572e-01 -1.482815e-01 7.706232e-01 9.077947e-01 -1.656372e-02 -4.698933e-01 -5.508472e-01 -2.634520e-01 -1.034026e-01
<VARIANCE> 25
 4.930587e+00 1.427550e+01 8.354304e+00 1.348316e+01 1.337448e+01 1.524859e+01 3.161574e+01 2.444683e+01 1.719490e+01 2.614741e+01 3.077810e+01 2.803106e+01 8.321397e-02 5.242147e-01 4.573455e-01 1.281427e+00 8.665056e-01 1.602012e+00 1.853084e+00 1.350190e+00 1.622919e+00 1.372751e+00 1.582519e+00 1.208883e+00 1.238084e-01
<GCONST> 7.670090e+01
~s "ST_a_2_4"
<MEAN> 25
 6.075634e+00 -8.390030e+00 -5.665845e+00 -5.839683e+00 -8.985808e+00 -5.561615e-01 8.071588e+00 5.375381e+00 -3.150174e-01 -2.891638e+00 5.940276e-01 1.583953e+00 5.549158e-03 1.351345e+00 2.341800e-01 2.866173e-01 1.299688e-01 -8.633330e-01 -4.596330e-01 5.679654e-01 7.108091e-01 3.803485e-01 -7.272356e-01 -8.277075e-01 -5.737991e-01
<VARIANCE> 25
 4.477184e+00 2.156796e+01 1.297370e+01 1.510094e+01 2.289106e+01 4.418087e+01 3.009867e+01 4.998048e+01 2.539398e+01 3.435228e+01 2.641291e+01 1.936560e+01 1.008964e-01 1.132071e+00 7.700330e-01 9.898965e-01 1.274373e+00 1.623360e+00 1.328156e+00 1.630166e+00 1.600174e+00 1.428252e+00 1.445305e+00 1.202674e+00 2.001401e-01
<GCONST> 8.186752e+01
~s "ST_a_2_5"
<MEAN> 25
 7.309619e+00 -7.007582e+00 -8.898458e+00 -3.984305e+00 -3.579343e+00 1.257617e+00 8.292841e+00 3.942696e+00 -1.325224e+00 -1.242184e+00 9.264436e-01 1.789550e+00 1.009091e-02 -9.904560e-01 3.347012e-01 6.228858e-01 2.699399e-01 2.588547e-01 -9.003963e-01 -1.018994e+00 7.937974e-02 6.063600e-01 8.815285e-01 4.203070e-01 4.227870e-01
<VARIANCE> 25
 5.655836e+00 3.125891e+01 1.483339e+01 2.249719e+01 2.916611e+01 2.581231e+01 3.514162e+01 2.455501e+01 2.503177e+01 3.686378e+01 3.186963e+01 2.983682e+01 2.734082e-01 2.477326e+00 1.264352e+00 1.378278e+00 1.627211e+00 1.808536e+00 1.942543e+00 1.934219e+00 2.411839e+00 2.394479e+00 1.869218e+00 1.897347e+00 5.642292e-01
<GCONST> 8.901723e+01
~s "ST_a_3_1"
<MEAN> 25
 7.568523e+00 -7.641803e+00 -6.661020e+00 -2.827465e+00 -4.436579e+00 3.008454e-01 2.945992e+00 -1.416058e+00 -9.452369e-01 1.227621e+00 1.860688e+00 2.267148e+00 -6.881818e-01 1.577440e+00 8.486258e-01 5.769938e-01 6.627347e-01 6.841154e-02 -7.683080e-01 -2.550890e-01 2.744313e-01 4.168132e-02 -3.971681e-01 7.596192e-02 -1.107843e+00
<VARIANCE> 25
 6.586540e+00 2.072261e+01 1.946212e+01 2.403280e+01 2.498914e+01 3.131058e+01 4.405690e+01 4.224733e+01 3.382376e+01 4.434525e+01 3.298558e+01 3.052382e+01 4.641986e-01 1.251518e+00 1.703309e+00 1.498146e+00 1.801044e+00 3.149002e+00 2.456276e+00 2.566649e+00 2.215759e+00 2.331975e+00 2.288775e+00 2.122841e+00 4.575269e-01
<GCONST> 9.184182e+01
~s "ST_a_3_2"
<MEAN> 25
 5.648529e+00 -4.887833e+00 -5.003664e+00 -2.608920e+00 -4.085629e+00 6.647736e-01 4.161166e+00 2.343542e-01 -2.026337e+00 -1.560864e+00 1.116259e+00 3.589684e+00 -1.581430e+00 2.869372e+00 7.264018e-01 5.376308e-02 9.054454e-01 -2.125528e-03 -5.580167e-01 1.912237e-01 5.402163e-01 7.513194e-01 7.629555e-02 7.628059e-03 -2.295035e+00
<VARIANCE> 25
 5.884231e+00 2.916567e+01 1.630678e+01 1.440862e+01 2.844203e+01 3.825877e+01 3.026417e+01 4.957524e+01 2.972702e+01 3.695171e+01 3.179517e+01 2.345664e+01 3.775818e-01 5.436921e-01 1.390758e+00 1.070679e+00 1.560140e+00 2.533697e+00 2.362528e+00 2.726408e+00 2.929915e+00 3.232013e+00 2.656390e+00 2.834232e+00 3.477314e-01
<GCONST> 8.973589e+01
~s "ST_a_3_3"
<MEAN> 25
 7.505235e+00 -8.419943e+00 -7.762075e+00 -2.434377e+00 -3.038280e+00 -1.616400e+00 3.045243e+00 5.348033e-01 -3.144877e+00 -9.487234e-01 5.589741e+00 4.678387e+00 -5.383853e-01 2.822526e+00 8.504680e-01 5.645792e-01 1.581080e+00 9.763855e-02 -7.682989e-01 4.360977e-01 -4.889905e-01 -1.144763e+00 -1.364614e+00 -1.096280e+00 -1.517477e+00
<VARIANCE> 25
 5.873681e+00 1.760503e+01 1.508954e+01 1.486746e+01 2.588152e+01 2.586518e+01 2.698158e+01 2.100071e+01 2.759362e+01 2.809172e+01 2.294061e+01 3.430484e+01 1.392093e-01 7.585297e-01 8.153016e-01 1.230681e+00 1.160975e+00 1.678713e+00 1.793173e+00 2.098816e+00 2.407433e+00 2.141230e+00 2.073451e+00 2.327429e+00 1.991951e-01
<GCONST> 8.351447e+01
~s "ST_a_3_4"
<MEAN> 25
 6.329960e+00 -2.994366e+00 -4.438089e+00 -4.811481e+00 -8.563085e+00 -3.473288e+00 6.002854e+00 5.784824e+00 1.101360e+00 -1.208135e+00 -1.362190e+00 -7.352313e-01 -5.959798e-01 2.748471e+00 1.343048e+00 1.163071e+00 1.859204e+00 1.387008e-01 -1.093735e+00 -1.348155e-01 9.598589e-02 1.267075e-01 -7.518210e-01 -1.388079e+00 -1.409831e+00
<VARIANCE> 25
 3.727473e+00 1.552518e+01 1.082425e+01 1.705177e+01 1.396290e+01 3.249816e+01 2.107078e+01 3.939445e+01 2.312158e+01 2.951682e+01 2.048913e+01 1.547615e+01 1.526627e-01 8.155757e-01 9.657629e-01 1.009049e+00 1.330757e+00 2.600870e+00 1.841779e+00 1.669015e+00 1.455015e+00 1.663751e+00 1.299673e+00 1.546660e+00 1.653207e-01
<GCONST> 8.038498e+01
~s "ST_a_4_1"
<MEAN> 25
 1.852618e+00 2.511640e+00 -3.698067e+00 -2.052057e+00 -1.178905e+00 -1.584510e+00 1.700956e+00 -9.429973e-02 -1.162184e+00 2.038544e+00 2.025578e+00 2.972767e+00 -1.415262e+00 1.553069e+00 4.258150e-01 -3.777981e-02 8.629312e-01 3.011166e-01 -2.982391e-01 2.492059e-01 5.440593e-01 4.121243e-01 1.223375e-01 1.284116e-01 -1.623383e+00
<VARIANCE> 25
 1.762909e+01 3.567210e+01 2.559543e+01 2.991607e+01 2.309053e+01 2.357508e+01 3.083805e+01 2.772980e+01 2.449136e+01 2.343207e+01 1.840800e+01 1.546738e+01 4.759812e-01 2.444805e+00 1.683934e+00 1.706760e+00 1.665125e+00 2.472776e+00 1.877976e+00 2.900880e+00 1.935531e+00 2.725261e+00 2.326578e+00 1.273383e+00 8.593183e-01
<GCONST> 9.100165e+01
~s "ST_a_4_2"
<MEAN> 25
 -1.916171e+00 2.283438e+00 -5.503407e+00 -5.210609e+00 -9.841322e-01 2.164411e+00 5.594585e+00 3.349974e+00 2.174749e+00 3.532291e+00 2.353138e+00 3.486706e+00 -1.500873e+00 8.909749e-01 4.883657e-02 -3.953582e-01 5.663984e-01 2.122917e-01 -5.212139e-02 2.697994e-01 4.908569e-01 3.925016e-01 4.352804e-02 9.794138e-02 -1.417653e+00
<VARIANCE> 25
 1.451854e+01 2.235076e+01 1.895828e+01 1.613705e+01 1.928463e+01 2.480950e+01 1.956119e+01 2.674833e+01 2.576638e+01 2.715192e+01 1.628156e+01 1.457635e+01 4.541836e-01 2.010160e+00 1.701204e+00 1.352435e+00 1.189396e+00 2.578750e+00 1.476395e+00 2.358205e+00 2.694181e+00 2.325093e+00 1.483051e+00 1.596660e+00 6.386340e-01
<GCONST> 8.726196e+01
~s "ST_a_4_3"
<MEAN> 25
 6.066777e+00 -3.998030e+00 -6.713704e+00 -2.506894e+00 -6.669084e-01 -6.045304e-02 1.147067e+00 4.624904e-01 9.784508e-01 -8.391647e-01 -5.511751e-01 3.559981e+00 -1.734839e-01 1.460819e+00 6.413857e-03 -1.170692e-01 8.206080e-01 -3.898400e-01 -8.765024e-01 2.720757e-01 3.550839e-01 -7.023663e-01 -6.638446e-01 3.752269e-01 -6.732486e-01
<VARIANCE> 25
 9.151877e+00 2.302842e+01 1.094182e+01 1.646745e+01 1.674056e+01 2.193140e+01 3.428283e+01 2.433109e+01 3.402626e+01 2.410217e+01 3.223753e+01 2.791940e+01 2.973830e-01 7.436503e-01 9.751330e-01 1.460473e+00 2.027954e+00 2.295007e+00 2.269545e+00 1.676483e+00 1.848953e+00 1.879939e+00 2.212132e+00 1.484237e+00 2.381201e-01
<GCONST> 8.535406e+01
~s "ST_a_4_4"
<MEAN> 25
 2.695103e+00 -4.537259e+00 4.112440e-01 -3.499334e+00 -3.594534e+00 8.524783e+00 3.181692e+00 -1.368373e-01 4.682311e+00 2.079336e+00 2.326462e+00 4.010813e+00 -2.877203e+00 -1.141224e+00 4.285870e+00 -1.652413e+00 -9.192432e-01 2.646081e+00 -2.059633e+00 3.189266e-01 1.575077e+00 -5.093049e-03 8.838235e-01 -7.852967e-02 -5.596576e-01
<VARIANCE> 25
 1.448868e+01 1.473651e+01 3.281587e+01 1.486250e+01 1.563025e+01 2.845996e+01 2.409340e+01 2.674497e+01 3.927935e+01 3.107055e+01 2.103497e+01 2.136681e+01 6.770241e-01 2.467097e+00 3.835626e+00 2.454174e+00 2.146740e+00 3.832939e+00 3.138165e+00 3.823766e+00 3.763262e+00 3.130077e+00 3.688393e+00 3.670877e+00 3.624000e-01
<GCONST> 9.468589e+01
~s "ST_a_4_5"
<MEAN> 25
 3.941965e+00 2.132350e+00 -3.616705e-01 -5.269411e-01 -1.421224e+00 4.961210e-01 5.228769e+00 5.854447e+00 4.171116e-01 -2.603868e+00 -4.023837e+00 -4.941745e+00 -7.833498e-01 1.486798e+00 1.246694e+00 1.034393e+00 2.055344e+00 1.569658e+00 -4.280804e-02 2.423526e-01 2.737471e-01 -4.775901e-01 -1.251992e+00 -1.250574e+00 -9.938122e-01
<VARIANCE> 25
 2.875713e+00 1.088426e+01 1.041195e+01 1.335077e+01 1.595089e+01 2.927676e+01 1.987934e+01 2.585976e+01 2.525452e+01 3.013020e+01 2.256381e+01 1.633725e+01 1.177292e-01 8.795326e-01 8.537868e-01 1.860061e+00 1.257028e+00 2.304944e+00 2.086574e+00 1.559297e+00 1.505529e+00 1.750494e+00 1.674601e+00 1.364282e+00 2.179741e-01
<GCONST> 7.996832e+01
~s "ST_a_4_6"
<MEAN> 25
 5.475140e+00 -1.114420e+00 -4.039999e+00 -4.162972e-01 1.399909e+00 -5.036572e-01 -5.619199e-01 -1.286689e-01 -2.024306e+00 -1.076977e+00 8.225088e-01 1.126917e-01 -6.559727e-01 2.354856e+00 1.434020e+00 9.432105e-01 1.354351e+00 4.298998e-01 -7.121032e-01 -1.199662e-01 4.890474e-02 -5.366385e-01 -1.813628e+00 -1.419167e+00 -1.289769e+00
<VARIANCE> 25
 5.046401e+00 1.760474e+01 1.613454e+01 1.391313e+01 2.190517e+01 2.039208e+01 1.879049e+01 2.322216e+01 2.001064e+01 2.795572e+01 2.435579e+01 1.909379e+01 1.275259e-01 6.358281e-01 1.052108e+00 1.077750e+00 1.198560e+00 2.553453e+00 1.974981e+00 1.554820e+00 1.771278e+00 2.344609e+00 2.701913e+00 2.825689e+00 1.201967e-01
<GCONST> 8.168871e+01
~s "ST_n_2_1"
<MEAN> 25
 5.498325e+00 6.104093e-01 -2.912127e+00 1.106383e+00 2.879332e+00 2.386687e-01 -9.505493e-02 1.334324e+00 -2.822501e+00 -3.984306e+00 -2.453620e+00 -2.501489e+00 -3.021063e-01 7.431741e-01 4.258777e-01 3.011735e-01 5.631861e-01 5.803432e-01 8.049352e-02 3.508591e-02 -1.178645e-01 -8.682795e-01 -1.293142e+00 -5.448711e-01 -4.813530e-01
<VARIANCE> 25
 4.512913e+00 2.033537e+01 1.097177e+01 1.281775e+01 2.059042e+01 1.836143e+01 1.736827e+01 2.693425e+01 1.714018e+01 2.935689e+01 1.989030e+01 1.974319e+01 1.390785e-01 4.311390e-01 8.684517e-01 9.750850e-01 8.629203e-01 1.001349e+00 1.099734e+00 9.318556e-01 1.217426e+00 1.021025e+00 1.646904e+00 1.527316e+00 1.113551e-01
<GCONST> 7.553252e+01
~s "ST_n_2_2"
<MEAN> 25
 4.428061e+00 2.642437e+00 -4.773946e-01 4.732918e+00 8.234770e+00 2.802230e+00 -2.157429e+00 -1.195894e+00 -1.396666e+00 -3.082565e+00 -4.110461e+00 -2.977549e+00 -3.562478e-01 1.739625e+00 6.236975e-01 -1.190366e-01 6.555619e-01 2.796382e-01 -2.220230e-01 2.786884e-01 4.362310e-01 -5.109770e-01 -1.002226e+00 -5.961384e-02 -7.846764e-01
<VARIANCE> 25
 1.621228e+01 2.799674e+01 1.816741e+01 1.871950e+01 2.217190e+01 2.591611e+01 2.112746e+01 2.400433e+01 1.747347e+01 2.685780e+01 2.395587e+01 1.461305e+01 1.194997e+00 9.305729e-01 9.603611e-01 8.529643e-01 1.029562e+00 1.646861e+00 1.448717e+00 2.061753e+00 2.135876e+00 1.872439e+00 1.866755e+00 1.748437e+00 6.479908e-01
<GCONST> 8.614999e+01
~s "ST_n_3_1"
<MEAN> 25
 4.739147e+00 2.684677e-01 -2.315512e+00 4.420539e-01 1.183170e+00 7.587206e-01 1.230543e+00 1.189446e+00 -3.053073e+00 -5.164793e+00 -3.629076e+00 -1.840259e+00 -1.484275e-01 2.856224e-01 8.049045e-02 -6.309967e-01 -6.579171e-01 -1.743001e-01 5.408289e-01 5.471375e-01 1.795537e-02 -2.162694e-01 9.483038e-02 3.605562e-01 -1.416907e-01
<VARIANCE> 25
 4.874757e+00 2.203461e+01 1.438578e+01 1.827809e+01 2.244452e+01 2.262236e+01 3.225474e+01 2.847403e+01 2.246876e+01 2.156514e+01 2.230807e+01 2.759709e+01 3.039268e-01 6.460650e-01 1.034650e+00 1.070335e+00 8.459507e-01 2.190059e+00 1.217534e+00 1.101876e+00 1.738384e+00 1.035259e+00 1.704161e+00 8.978900e-01 2.099306e-01
<GCONST> 8.069075e+01
~s "ST_n_3_2"
<MEAN> 25
 1.679200e+00 9.036295e+00 3.179456e+00 4.680197e+00 9.979140e+00 3.222986e+00 -3.993148e+00 -2.060389e+00 -1.376467e-01 -2.225249e+00 -4.845125e+00 -2.424084e+00 -7.837978e-01 1.078006e+00 1.073625e+00 1.896014e-01 -1.552013e-01 -1.230701e-01 5.948990e-02 -1.396510e-01 2.671446e-01 7.377592e-01 6.056855e-01 4.084533e-01 -8.024699e-01
<VARIANCE> 25
 8.127993e+00 1.517160e+01 1.575069e+01 1.951713e+01 1.642940e+01 2.430931e+01 2.543095e+01 2.072303e+01 2.990002e+01 2.496184e+01 2.638136e+01 1.925782e+01 2.136279e+00 8.885019e-01 1.307273e+00 8.385981e-01 1.383456e+00 1.771889e+00 1.405912e+00 2.214929e+00 3.115495e+00 3.525313e+00 2.784264e+00 1.050008e+00 1.146780e+00
<GCONST> 8.796416e+01
~s "ST_n_4_1"
<MEAN> 25
 3.237751e+00 3.542784e+00 -1.829871e+00 -7.337732e-01 8.341355e-01 1.561137e+00 3.636240e+00 1.147875e+00 -3.547428e+00 -4.626985e+00 -2.471116e+00 5.070660e-01 -1.137020e-01 -1.953374e+00 1.289850e-01 -1.034527e+00 -1.983023e+00 8.194918e-01 1.198788e+00 -1.520978e-01 1.120751e-01 7.184702e-01 1.032657e+00 5.896627e-01 7.872480e-01
<VARIANCE> 25
 1.667446e+01 3.549508e+01 4.483922e+01 2.713731e+01 3.973027e+01 4.100248e+01 3.873363e+01 2.742347e+01 4.079164e+01 2.679971e+01 2.946419e+01 2.271404e+01 3.777682e+00 4.145043e+00 8.761398e+00 2.427883e+00 2.912303e+00 5.876434e+00 3.093400e+00 3.344081e+00 3.761122e+00 3.037170e+00 3.531242e+00 2.883493e+00 2.001242e+00
<GCONST> 1.037359e+02
~s "ST_n_4_2"
<MEAN> 25
 -1.776629e+00 9.962748e+00 7.152766e+00 6.377811e+00 8.616691e+00 1.930113e+00 -4.177879e+00 -1.784667e+00 2.687332e+00 2.543286e+00 -7.228245e-01 -3.875163e-01 -8.079940e-01 -1.013698e+00 1.217288e-01 1.897416e-01 -7.104123e-01 -9.004878e-02 5.758457e-01 -1.366211e-01 -8.844733e-02 7.571344e-01 1.343602e+00 8.810679e-01 -2.293120e-01
<VARIANCE> 25
 1.061545e+01 1.085977e+01 1.501106e+01 1.585691e+01 1.997995e+01 2.106244e+01 2.773237e+01 2.120400e+01 1.981794e+01 2.198474e+01 2.515607e+01 2.087854e+01 4.848277e-01 2.977561e+00 1.593115e+00 3.831192e+00 2.514306e+00 4.070086e+00 3.125056e+00 2.614275e+00 1.997297e+00 2.385900e+00 2.281241e+00 1.860003e+00 8.884302e-01
<GCONST> 9.041693e+01
~s "ST_d_2_1"
<MEAN> 25
 6.644384e-01 2.645955e+00 4.052068e+00 9.225966e+00 9.706256e+00 1.034267e+00 -6.102025e+00 -5.710721e+00 -3.103527e+00 -6.036408e-01 1.469766e+00 1.272776e+00 1.210907e+00 -3.810067e+00 -1.102572e+00 1.295146e+00 -3.697755e-01 -1.596974e+00 -1.955216e+00 -1.893639e+00 -1.949937e+00 -1.320716e+00 1.286759e+00 1.303283e+00 2.140386e+00
<VARIANCE> 25
 2.155532e+01 5.903951e+01 2.973072e+01 4.781764e+01 3.566541e+01 4.567245e+01 5.284239e+01 3.884238e+01 4.732463e+01 4.302335e+01 3.147211e+01 3.464112e+01 8.926819e-01 2.828765e+00 2.964876e+00 5.543463e+00 4.406943e+00 6.603725e+00 5.515734e+00 4.899319e+00 4.702748e+00 8.373273e+00 5.400189e+00 4.086054e+00 8.051931e-01
<GCONST> 1.069346e+02
~s "ST_d_3_1"
<MEAN> 25
 4.225820e+00 -3.031254e+00 1.828441e+00 9.461218e+00 8.063269e+00 -1.664143e+00 -9.848706e+00 -8.626730e+00 -7.427855e+00 -5.673663e+00 2.233884e+00 2.551543e+00 6.000730e-01 -9.244777e-01 -3.374884e-01 -6.586059e-01 -1.482969e+00 -8.327246e-01 2.048726e-01 2.432505e-01 -2.516451e-01 -2.138620e-01 1.037990e-01 -2.201550e-01 8.086657e-01
<VARIANCE> 25
 1.097232e+01 2.959044e+01 3.845737e+01 4.534795e+01 4.014718e+01 4.314061e+01 6.785184e+01 3.134078e+01 4.786653e+01 6.382465e+01 3.318824e+01 4.296915e+01 6.498984e-01 4.061720e+00 2.278939e+00 4.510189e+00 4.399878e+00 3.632731e+00 7.290516e+00 3.574128e+00 5.174521e+00 6.786576e+00 4.743791e+00 3.662828e+00 7.068924e-01
<GCONST> 1.049996e+02
~s "ST_d_4_1"
<MEAN> 25
 4.880599e+00 -3.383185e+00 1.288485e+00 6.653357e+00 2.909607e+00 -3.190563e+00 -5.572446e+00 -5.463409e+00 -6.764386e+00 -4.146783e+00 1.941996e+00 1.041188e+00 9.987906e-02 -4.517366e-01 4.691252e-02 -8.341984e-01 -1.649812e+00 -4.365205e-01 9.823495e-01 1.410345e+00 7.180555e-01 9.487826e-02 -1.373209e-01 -4.689499e-01 2.664175e-01
<VARIANCE> 25
 1.066000e+01 3.716952e+01 4.004866e+01 6.105333e+01 4.389704e+01 3.716463e+01 6.159151e+01 4.172930e+01 4.485946e+01 6.854945e+01 5.043373e+01 4.531472e+01 9.973038e-02 1.190449e+00 1.023539e+00 1.839804e+00 1.812571e+00 2.286989e+00 2.844544e+00 1.682940e+00 1.976617e+00 1.838668e+00 2.022123e+00 1.716815e+00 1.357322e-01
<GCONST> 9.277294e+01
~s "ST_@_2_1"
<MEAN> 25
 4.135281e+00 -7.864054e+00 7.121099e+00 9.323008e+00 2.500033e+00 -3.048146e-01 -1.242896e+01 -1.284493e+01 -4.031048e+00 -1.182067e-01 1.986813e+00 -3.115856e+00 1.195109e+00 9.257632e-01 -2.653522e+00 -5.393483e-01 8.161088e-01 -3.260152e-02 1.581573e+00 3.582559e-01 -8.850016e-01 -1.508030e-01 -6.298477e-01 -1.412783e-01 -1.914700e-02
<VARIANCE> 25
 8.326772e+00 8.154950e+00 1.897535e+01 1.908115e+01 1.762294e+01 2.018227e+01 2.974578e+01 1.695876e+01 2.309329e+01 2.615650e+01 1.544086e+01 2.183985e+01 5.156933e-01 1.218994e+00 2.623052e+00 1.208249e+00 1.650427e+00 2.750864e+00 2.454554e+00 3.895983e+00 2.606483e+00 1.945619e+00 1.045340e+00 1.812835e+00 3.191318e-01
<GCONST> 8.595954e+01
~s "ST_@_3_1"
<MEAN> 25
 4.858162e+00 -2.480657e+00 5.172193e+00 8.752481e+00 4.959904e+00 2.621499e+00 -6.846129e+00 -9.521902e+00 -4.944512e+00 -1.541512e+00 -2.662212e-02 -2.202968e+00 -4.111577e-01 2.943612e+00 -5.031481e-01 -7.004742e-02 1.444092e+00 4.013923e-01 1.497009e+00 1.882844e+00 1.317005e+00 3.862243e-01 -1.573278e+00 -5.923877e-01 -1.648938e+00
<VARIANCE> 25
 6.801759e+00 1.962175e+01 1.284527e+01 1.264774e+01 1.925444e+01 1.979682e+01 1.667165e+01 2.519489e+01 2.127178e+01 1.725941e+01 1.364954e+01 1.980558e+01 2.158820e-01 6.270034e-01 1.393960e+00 7.025796e-01 1.588900e+00 1.270441e+00 1.060901e+00 1.352566e+00 3.627203e+00 3.238936e+00 2.523392e+00 1.191754e+00 2.013485e-01
<GCONST> 8.042509e+01
~s "ST_@_4_1"
<MEAN> 25
 4.280415e+00 3.797017e+00 4.026347e+00 8.478041e+00 8.314141e+00 2.332239e+00 -5.729492e+00 -4.947196e+00 -9.768869e-01 -1.819653e+00 -4.884635e+00 -4.788592e+00 -1.431639e-02 1.245590e+00 -5.121194e-03 -2.699780e-01 5.374218e-01 7.660581e-03 -7.104389e-03 5.550569e-01 4.791042e-01 -3.396239e-01 -7.638457e-01 -5.155851e-01 -4.563916e-01
<VARIANCE> 25
 4.563497e+00 1.178269e+01 1.541092e+01 1.968146e+01 1.107033e+01 2.791357e+01 1.210418e+01 1.473715e+01 1.851275e+01 1.576158e+01 2.326122e+01 9.268267e+00 1.709723e-01 8.984421e-01 5.688995e-01 5.542977e-01 1.187450e+00 8.283082e-01 1.091926e+00 1.028234e+00 1.954225e+00 1.330895e+00 2.062875e+00 5.311137e-01 2.581443e-01
<GCONST> 7.437781e+01
~s "ST_g_2_1"
<MEAN> 25
 1.834438e+00 -5.879096e-01 -4.758560e+00 -2.090406e+00 1.748561e+00 6.280805e+00 4.146791e+00 -5.065002e+00 -7.955606e+00 -3.835169e-01 3.205883e+00 6.100621e-01 1.860602e+00 -2.808454e+00 -9.361796e-02 4.934113e-01 -1.363901e-01 4.447016e-01 -1.335911e+00 -2.047920e+00 -1.551780e+00 -8.188966e-01 4.558963e-01 -1.338842e-01 2.500062e+00
<VARIANCE> 25
 2.187612e+01 8.747521e+01 3.160363e+01 3.390203e+01 4.198015e+01 4.651806e+01 4.659309e+01 4.826810e+01 3.247907e+01 1.784587e+01 3.033772e+01 1.106060e+01 1.862953e+00 7.485262e+00 4.532640e+00 4.362446e+00 3.631625e+00 7.759808e+00 7.554668e+00 2.516279e+00 4.891600e+00 2.044895e+00 3.236106e+00 2.474682e+00 1.944591e+00
<GCONST> 1.049053e+02
~s "ST_g_3_1"
<MEAN> 25
 8.685470e+00 -5.250694e+00 -5.253907e+00 1.575663e+00 1.138551e+00 -1.274399e+00 -2.139605e+00 -8.987046e+00 -1.170174e+01 -8.570457e-01 4.688007e+00 -7.830527e-01 1.125205e+00 -1.615898e+00 -6.228223e-01 -6.119806e-01 -1.085533e+00 -1.999975e+00 -1.339074e+00 1.056663e+00 4.928225e-01 1.183067e-01 1.441467e+00 3.703603e-01 1.565216e+00
<VARIANCE> 25
 7.405680e+00 1.768088e+01 1.237592e+01 2.459303e+01 9.852304e+00 2.098952e+01 2.652969e+01 2.296467e+01 2.334982e+01 3.228308e+01 3.150091e+01 2.573526e+01 5.303219e-01 1.613219e+00 1.819936e+00 2.211438e+00 8.724950e-01 4.715833e+00 4.731987e+00 5.851129e+00 3.628076e+00 5.738044e+00 3.545299e+00 2.638476e+00 5.771861e-01
<GCONST> 9.230080e+01
~s "ST_g_4_1"
<MEAN> 25
 1.051723e+01 -8.011621e+00 -6.654479e+00 -3.560314e+00 -1.912798e+00 -1.021560e+00 -2.497938e+00 -4.213555e+00 -4.470952e+00 2.047913e-01 7.300264e+00 4.807192e+00 1.508726e-01 -3.634891e-01 -5.274025e-01 -9.657288e-01 -7.007428e-01 7.833760e-02 1.019037e+00 1.041211e+00 1.372294e+00 2.842506e-01 -2.465781e-01 8.790529e-01 2.787673e-01
<VARIANCE> 25
 5.744318e+00 1.229414e+01 1.571045e+01 2.576814e+01 1.361912e+01 1.664812e+01 3.739020e+01 2.927051e+01 3.743339e+01 5.186537e+01 3.522842e+01 4.750239e+01 1.107172e-01 3.446143e-01 9.387934e-01 7.020704e-01 7.160423e-01 1.338478e+00 2.342659e+00 1.827688e+00 1.411279e+00 2.536068e+00 9.748086e-01 9.597701e-01 1.020468e-01
<GCONST> 8.027842e+01
~s "ST_t_2_1"
<MEAN> 25
 -6.681780e+00 4.697701e+00 -1.572596e-01 -3.090347e+00 1.554599e+00 3.297724e+00 2.328976e+00 9.809825e-01 1.585512e+00 2.528920e+00 2.033757e+00 3.075575e+00 3.461096e-01 -2.982948e+00 9.544209e-01 4.249489e-02 -1.457301e+00 1.517874e+00 -8.822395e-01 -2.214974e+00 -7.502179e-01 -1.207101e+00 -1.603374e-01 7.029950e-01 1.562246e+00
<VARIANCE> 25
 2.191055e+01 3.182881e+01 3.181869e+01 2.754474e+01 3.767212e+01 3.489403e+01 3.168887e+01 3.607965e+01 3.224693e+01 3.466537e+01 1.762556e+01 2.157478e+01 1.737553e+00 2.779282e+00 3.328561e+00 4.109150e+00 3.649745e+00 3.683735e+00 4.802505e+00 3.017906e+00 3.637692e+00 3.004652e+00 2.916540e+00 3.183915e+00 1.232807e+00
<GCONST> 1.007451e+02
~s "ST_t_3_1"
<MEAN> 25
 -3.698564e+00 -4.981477e+00 2.442245e+00 -2.832841e+00 -3.373330e+00 7.864033e+00 8.597796e-01 -4.853292e+00 -1.158144e+00 -2.461022e+00 7.336660e-01 4.660561e+00 3.195987e+00 -2.176553e+00 1.062500e+00 9.667758e-01 -1.698048e+00 -3.617536e-01 -1.008442e+00 -1.841139e+00 -2.040646e+00 -2.847375e+00 -1.438637e+00 -2.803762e-01 3.391708e+00
<VARIANCE> 25
 2.326153e+01 3.145537e+01 2.684819e+01 2.074021e+01 3.286074e+01 3.743916e+01 4.656230e+01 3.788467e+01 4.758994e+01 3.378670e+01 2.534809e+01 1.944899e+01 2.160891e+00 6.275991e+00 4.560421e+00 1.007503e+01 9.604852e+00 6.398396e+00 1.183338e+01 8.155566e+00 5.178054e+00 5.390405e+00 4.583570e+00 4.079770e+00 1.506802e+00
<GCONST> 1.088283e+02
~s "ST_t_4_1"
<MEAN> 25
 4.979067e+00 -2.705388e+00 2.767088e+00 -2.981335e-01 -5.085689e+00 1.698687e+00 3.544672e-01 -4.563385e+00 -6.076983e+00 -8.751392e+00 -4.021727e+00 1.999205e+00 2.566956e+00 -2.669055e-01 1.750271e-02 1.738593e+00 -3.617597e-01 -3.057597e+00 -6.027375e-01 9.505541e-01 -6.296697e-01 -1.553437e+00 -1.531216e+00 -1.618701e+00 1.985593e+00
<VARIANCE> 25
 1.756783e+01 3.487599e+01 2.313203e+01 4.809378e+01 5.868026e+01 3.403883e+01 9.168721e+01 5.150208e+01 4.418674e+01 4.831883e+01 3.508359e+01 2.303041e+01 1.459629e+00 4.656732e+00 4.096502e+00 1.042357e+01 8.027903e+00 5.041183e+00 1.248231e+01 9.385374e+00 4.176041e+00 3.870400e+00 4.246578e+00 3.002676e+00 1.181494e+00
<GCONST> 1.094294e+02
~s "ST_sil_2_1"
<MEAN> 25
 -1.272904e+01 3.097788e+00 -1.314336e+00 3.037629e-02 6.445446e+00 1.608968e+00 1.304808e+00 4.039955e+00 4.367506e+00 4.630508e+00 1.946375e+00 2.369225e-01 -9.092207e-02 -4.973468e-02 -2.136161e-02 -1.404997e-02 5.081076e-03 3.855902e-02 1.095226e-01 1.532860e-01 9.603480e-02 1.528603e-02 -1.730610e-02 -2.427014e-02 -5.317352e-02
<VARIANCE> 25
 1.554420e+01 1.891016e+01 1.229736e+01 1.619465e+01 2.412898e+01 2.293113e+01 2.584199e+01 3.510469e+01 1.762499e+01 2.317931e+01 1.758102e+01 1.623708e+01 1.601350e-01 2.935360e-01 3.899420e-01 4.466128e-01 5.963098e-01 7.337374e-01 8.623627e-01 9.584256e-01 9.145175e-01 8.408707e-01 7.213788e-01 6.716614e-01 6.873092e-02
<GCONST> 7.223003e+01
~s "silst"
<MEAN> 25
 -1.447800e+01 3.689156e-01 -4.470000e+00 -4.002514e+00 3.463284e+00 4.057413e+00 5.027399e+00 4.074226e+00 6.313189e+00 7.893903e+00 4.043546e-01 -1.595055e+00 -1.735237e-01 -2.159824e-01 -2.012870e-01 -1.497238e-01 -1.467729e-02 -3.205642e-02 -8.373637e-03 6.530360e-02 5.010801e-02 -9.598944e-03 -8.104252e-02 -9.936862e-02 -8.171155e-02
<VARIANCE> 25
 6.232782e+00 1.784830e+01 1.127057e+01 1.014685e+01 1.536727e+01 1.237743e+01 1.047623e+01 1.586899e+01 1.402213e+01 1.310013e+01 1.472613e+01 1.584865e+01 2.021382e-01 5.486928e-01 6.158473e-01 5.480397e-01 6.091623e-01 7.850078e-01 7.789236e-01 6.534088e-01 8.903745e-01 9.619369e-01 7.090919e-01 7.032745e-01 6.987654e-02
<GCONST> 6.821554e+01
~s "ST_sil_3_1"
<MEAN> 25
 -1.456503e+01 7.237992e-02 -4.243261e+00 -3.847410e+00 2.948967e+00 3.635683e+00 4.621770e+00 3.444544e+00 6.790286e+00 8.217258e+00 -1.334108e-01 -1.415907e+00 -9.743176e-02 -1.014092e-01 -1.193210e-01 -1.029922e-01 8.652735e-03 -4.610713e-02 -3.120650e-02 4.004618e-02 3.301149e-02 1.768143e-03 -4.772108e-02 -6.275493e-02 -5.288671e-02
<VARIANCE> 25
 4.389255e+00 1.578307e+01 9.832209e+00 8.809631e+00 1.198498e+01 1.162615e+01 1.163780e+01 1.721889e+01 1.164212e+01 1.223490e+01 1.293972e+01 1.604946e+01 1.309105e-01 3.491624e-01 4.783008e-01 4.490980e-01 5.246721e-01 8.204635e-01 7.591941e-01 6.385522e-01 8.139365e-01 8.825453e-01 6.428340e-01 6.597738e-01 5.031854e-02
<GCONST> 6.481028e+01
~s "ST_sil_4_1"
<MEAN> 25
 -1.167233e+01 3.296119e+00 -1.661522e+00 -1.184067e+00 5.181878e+00 1.688408e+00 1.328022e+00 3.511224e+00 4.133713e+00 4.576055e+00 1.129475e+00 -5.122177e-01 4.366608e-02 -1.287173e-01 2.336726e-02 -4.778373e-02 -2.373941e-02 3.612913e-01 4.012206e-01 1.822011e-01 -9.291952e-02 -3.534573e-01 -3.192420e-01 -1.973286e-01 8.630238e-02
<VARIANCE> 25
 2.674249e+01 2.844069e+01 2.619421e+01 3.513982e+01 3.175317e+01 3.483348e+01 4.360307e+01 3.419043e+01 2.485378e+01 3.470792e+01 2.385598e+01 1.917356e+01 1.000492e+00 1.581970e+00 1.476336e+00 1.217193e+00 1.530918e+00 1.621515e+00 1.576891e+00 1.505828e+00 1.552917e+00 1.496474e+00 1.332247e+00 1.244211e+00 4.505629e-01
<GCONST> 8.997771e+01
~s "ST_j_2_1"
<MEAN> 25
 -2.318958e+00 4.274328e+00 7.404978e+00 2.335419e+00 3.272933e+00 7.317952e+00 -2.456634e+00 -4.720793e+00 4.448110e+00 4.384448e+00 2.190571e-01 -2.685364e-01 -1.264547e+00 -2.513395e+00 3.435169e+00 1.100788e-01 -1.742007e+00 2.125966e+00 -3.224101e-01 -8.326310e-01 3.934596e-01 -5.606030e-01 -6.939172e-01 -3.552433e-01 7.317526e-01
<VARIANCE> 25
 1.753428e+01 5.838313e+01 3.222164e+01 2.061143e+01 4.827116e+01 3.600100e+01 3.127717e+01 2.468966e+01 3.313258e+01 1.968392e+01 3.055018e+01 1.658171e+01 1.004725e+00 1.349849e+01 4.789249e+00 3.733148e+00 6.507263e+00 3.168893e+00 5.726718e+00 5.295162e+00 3.045816e+00 3.428040e+00 2.035279e+00 1.905815e+00 3.226079e+00
<GCONST> 1.029960e+02
~s "ST_j_3_1"
<MEAN> 25
 -7.516123e+00 -1.038015e+01 2.115391e+01 2.548089e+00 -5.626003e+00 1.112425e+01 -6.919723e+00 -5.733694e+00 3.841048e+00 5.493782e-01 7.889132e-01 -1.244215e+00 1.560076e+00 -2.002925e+00 9.273160e-01 2.123642e+00 2.992080e-01 -1.309030e+00 -2.847346e+00 -2.008543e+00 -1.953888e+00 -1.291539e+00 5.803544e-01 -5.321050e-01 2.014116e+00
<VARIANCE> 25
 1.685832e+01 4.895850e+01 3.518008e+01 5.287973e+01 2.734137e+01 3.423856e+01 5.526969e+01 4.728858e+01 3.197501e+01 2.192764e+01 2.523701e+01 1.738666e+01 3.399478e+00 1.267663e+01 6.393481e+00 2.694642e+00 4.341532e+00 5.334007e+00 3.946213e+00 3.317790e+00 3.952383e+00 3.021820e+00 3.199986e+00 2.524168e+00 1.295481e+00
<GCONST> 1.046906e+02
~s "ST_j_4_1"
<MEAN> 25
 2.226481e+00 -7.321873e+00 1.326997e+01 9.761709e+00 8.640458e-01 2.399417e+00 -1.312673e+01 -1.266342e+01 -3.712611e+00 -1.383068e+00 2.340920e+00 -1.500305e+00 3.250201e+00 7.006527e-02 -4.096631e+00 1.706942e+00 2.328616e+00 -3.188441e+00 -1.210301e+00 -1.223296e+00 -2.540293e+00 -5.883254e-01 6.050047e-01 -7.133626e-01 1.508768e+00
<VARIANCE> 25
 1.259507e+01 1.081023e+01 3.193637e+01 2.756100e+01 1.338168e+01 3.396144e+01 3.365884e+01 3.423390e+01 3.820902e+01 1.902387e+01 2.044906e+01 1.909146e+01 1.007929e+00 3.575905e+00 3.572067e+00 2.804613e+00 2.580359e+00 6.654407e+00 3.449831e+00 4.743892e+00 3.776489e+00 3.293063e+00 3.794108e+00 4.460006e+00 6.805494e-01
<GCONST> 9.755470e+01
~s "ST_ng_2_1"
<MEAN> 25
 3.781755e+00 -1.424177e+00 -2.556055e+00 3.260740e+00 1.061635e+00 -3.340566e-01 2.933631e+00 2.950701e+00 -1.225300e+00 -3.163307e+00 -4.567826e+00 -3.236650e+00 -4.237801e-01 6.365817e-01 1.007899e+00 5.099973e-01 1.210161e+00 8.984645e-01 -1.742864e+00 -6.605009e-01 6.067626e-01 -1.941612e-01 -5.258928e-01 -4.365565e-02 -4.252620e-01
<VARIANCE> 25
 5.645746e+00 6.958244e+00 1.216373e+01 4.069445e+00 8.095514e+00 1.750240e+01 1.624714e+01 1.453228e+01 1.227013e+01 1.489348e+01 1.185774e+01 2.680914e+01 1.832792e-01 1.221074e+00 9.267004e-01 1.666248e+00 6.210917e-01 1.503925e+00 1.880392e+00 1.399267e+00 1.142404e+00 1.519642e+00 1.358493e+00 2.671068e+00 2.382725e-01
<GCONST> 7.515024e+01
~s "ST_ng_3_1"
<MEAN> 25
 1.423903e+00 4.509252e+00 1.738586e+00 1.024837e+00 2.737406e+00 3.762504e+00 9.300547e-01 1.249393e+00 1.390829e+00 -4.169495e+00 -8.579790e+00 -3.274115e+00 -7.984219e-01 1.664980e+00 4.207802e-01 -2.335906e-01 6.894459e-01 -3.608391e-01 -2.323307e-01 2.937115e-01 -1.093367e-01 1.681343e-01 3.308767e-01 3.938538e-02 -1.124087e+00
<VARIANCE> 25
 2.175884e+00 2.660760e+01 1.013803e+01 1.614805e+01 1.150740e+01 1.232261e+01 2.841881e+01 2.153672e+01 1.199701e+01 1.703329e+01 1.784839e+01 1.129690e+01 3.298065e-01 1.009467e+00 2.126496e+00 1.503573e+00 9.738246e-01 1.770648e+00 1.555302e+00 1.685685e+00 2.365797e+00 2.690791e+00 1.680273e+00 2.730180e+00 1.964337e-01
<GCONST> 8.041914e+01
~s "ST_m_2_1"
<MEAN> 25
 -1.682372e+00 3.717522e+00 -8.220319e-04 2.018328e-01 4.236076e+00 4.462966e+00 4.222401e+00 4.545575e+00 2.235648e+00 -8.860851e-01 -4.764017e+00 -4.897665e+00 9.279898e-01 6.982885e-01 5.884343e-01 4.614133e-01 3.991424e-01 2.754949e-01 1.597490e-01 -4.227358e-03 -5.811655e-01 -7.994365e-01 -6.595742e-01 -4.953414e-01 5.219429e-01
<VARIANCE> 25
 5.836331e+01 1.975674e+01 1.579874e+01 1.942057e+01 1.977061e+01 2.512946e+01 2.339091e+01 2.523123e+01 1.756108e+01 3.695364e+01 3.417046e+01 2.047871e+01 3.056397e+00 1.433943e+00 9.164441e-01 1.076637e+00 9.618479e-01 1.434962e+00 1.488607e+00 1.695520e+00 1.727360e+00 1.754491e+00 2.018062e+00 1.169875e+00 1.101166e+00
<GCONST> 8.911463e+01
~s "ST_m_2_2"
<MEAN> 25
 1.991965e-01 8.186045e+00 2.620920e+00 9.167603e-02 2.279934e+00 3.002339e+00 5.683324e+00 7.034678e+00 1.889555e+00 -2.022478e+00 -4.944416e+00 -5.511475e+00 -1.306839e+00 1.209511e+00 2.703079e-01 -1.406425e-01 7.840807e-01 3.149764e-01 -2.036258e-01 -4.083415e-01 3.362792e-01 9.831896e-01 7.550870e-01 7.741266e-01 -1.370902e+00
<VARIANCE> 25
 6.503549e+00 1.271244e+01 1.183788e+01 1.584731e+01 1.558390e+01 3.043644e+01 1.661829e+01 1.478723e+01 2.084378e+01 2.697743e+01 1.847399e+01 1.574114e+01 3.593476e-01 7.948477e-01 1.111169e+00 1.628826e+00 1.371065e+00 2.660570e+00 1.527665e+00 2.829501e+00 2.293969e+00 2.263283e+00 2.067923e+00 1.997764e+00 2.025764e-01
<GCONST> 8.283422e+01
~s "ST_ng_4_1"
<MEAN> 25
 -4.316105e+00 6.793524e+00 4.426389e+00 1.899435e+00 4.129261e+00 2.871164e+00 -2.619996e-01 7.792422e-01 1.931851e+00 4.556614e-01 -2.807143e+00 -1.613581e+00 -1.863120e+00 5.258310e-01 3.523074e-01 -1.441002e-01 7.873233e-02 3.538148e-01 2.297810e-01 -8.640303e-01 -1.420652e-01 1.190807e+00 1.309623e+00 6.889815e-01 -1.503394e+00
<VARIANCE> 25
 1.565695e+01 1.306382e+01 2.222995e+01 2.006922e+01 1.861450e+01 4.353457e+01 1.924903e+01 3.191736e+01 2.979910e+01 2.742286e+01 2.100994e+01 2.263946e+01 4.795328e-01 2.650869e+00 2.274198e+00 1.699469e+00 1.568052e+00 4.251908e+00 2.165504e+00 2.877084e+00 3.230331e+00 3.307677e+00 2.529993e+00 1.882078e+00 7.256948e-01
<GCONST> 9.228429e+01
~s "ST_m_3_1"
<MEAN> 25
 1.865524e-01 5.476828e+00 9.833710e-01 1.104525e+00 5.973406e+00 6.107555e+00 3.424281e+00 2.778152e+00 9.827591e-01 -3.137112e+00 -7.798079e+00 -5.795430e+00 2.631530e+00 -3.814228e-01 -8.049994e-01 -1.179472e+00 -1.484860e+00 -5.510510e-01 -2.964264e-02 -5.064349e-03 -3.743300e-01 -1.027566e+00 -5.482898e-01 4.353015e-01 2.067831e+00
<VARIANCE> 25
 2.462294e+01 3.648733e+01 1.927494e+01 2.067090e+01 2.841824e+01 3.557548e+01 2.597240e+01 2.556853e+01 2.435762e+01 3.375914e+01 4.561394e+01 2.638820e+01 5.933440e+00 2.335824e+00 2.015123e+00 1.918450e+00 3.416380e+00 3.686950e+00 3.576937e+00 3.079940e+00 3.400786e+00 3.934976e+00 6.322071e+00 2.927932e+00 2.628390e+00
<GCONST> 1.013500e+02
~s "ST_m_3_2"
<MEAN> 25
 -5.865874e+00 9.173414e+00 4.019375e+00 2.241398e-02 4.174764e+00 4.172096e+00 3.531623e+00 2.979125e+00 3.100723e+00 3.151495e+00 -6.162078e-01 -1.562555e+00 -8.678479e-01 -1.898468e+00 -3.483341e-01 -4.589750e-01 -4.025954e-01 7.915181e-01 -8.993810e-01 -1.661054e+00 -4.000129e-01 -7.052789e-02 7.023343e-01 1.118478e+00 4.132682e-02
<VARIANCE> 25
 8.060493e+00 1.004331e+01 1.580994e+01 2.263099e+01 2.065411e+01 3.588967e+01 1.774244e+01 3.242829e+01 2.332073e+01 2.705432e+01 2.270612e+01 2.362279e+01 6.614447e-01 2.072568e+00 9.937030e-01 1.370088e+00 1.833538e+00 1.605004e+00 1.739419e+00 1.727457e+00 2.018184e+00 2.666455e+00 1.481833e+00 1.433590e+00 8.141645e-01
<GCONST> 8.695058e+01
~s "ST_m_4_1"
<MEAN> 25
 6.994217e+00 5.606202e-01 -6.686882e+00 -6.658439e+00 -2.668584e+00 1.649879e+00 7.020173e+00 6.288287e+00 1.554935e-01 -3.976236e+00 -4.008941e+00 -4.013841e-01 1.589056e+00 -3.721351e+00 -2.390107e+00 -7.217538e-01 -2.050893e+00 -8.386469e-01 1.888914e+00 1.020869e+00 -6.356869e-01 -1.100158e-01 1.755868e+00 1.697352e+00 2.253711e+00
<VARIANCE> 25
 5.132109e+00 3.823451e+01 1.660887e+01 1.545305e+01 2.857365e+01 2.351236e+01 5.067955e+01 2.259278e+01 3.114742e+01 2.371033e+01 2.899638e+01 2.311804e+01 1.936386e+00 2.860938e+00 1.864379e+00 2.949132e+00 3.771960e+00 3.441657e+00 2.688865e+00 2.901761e+00 2.535891e+00 5.761857e+00 2.690418e+00 4.269537e+00 1.247983e+00
<GCONST> 9.681842e+01
~s "ST_m_4_2"
<MEAN> 25
 5.229740e+00 1.270906e+00 -2.773777e+00 -4.797137e+00 -4.100131e+00 -1.797889e+00 3.017010e+00 5.818725e+00 1.681464e+00 -3.524884e+00 -4.632010e+00 -2.172224e+00 6.742375e-01 -1.568564e+00 -1.338647e+00 -1.382255e+00 -1.767607e+00 -1.048127e+00 1.969297e-01 1.400030e-01 -1.567395e-01 -2.955557e-01 1.332924e+00 2.229256e+00 9.999470e-01
<VARIANCE> 25
 7.527704e+00 2.384460e+01 2.426379e+01 2.904283e+01 3.872983e+01 2.667893e+01 2.940247e+01 3.289739e+01 2.051240e+01 2.055987e+01 2.011962e+01 1.962864e+01 2.027660e-01 2.477690e+00 1.660199e+00 1.891505e+00 2.519435e+00 3.562530e+00 3.018177e+00 2.764180e+00 1.374736e+00 2.265124e+00 1.469827e+00 3.211175e+00 3.511281e-01
<GCONST> 8.994573e+01
~s "ST_m_4_3"
<MEAN> 25
 -5.110529e+00 2.420991e-01 6.371675e-01 -2.789501e+00 8.844836e-01 7.398044e+00 2.227020e+00 -1.359671e+00 -5.863460e-02 -1.547708e+00 -6.819264e-01 1.428836e+00 1.637031e+00 -2.139972e-01 4.645869e-01 -3.066476e-01 -1.849487e+00 -1.529061e+00 -1.838205e+00 -1.982409e+00 -1.102882e+00 -9.293301e-01 -2.099790e-01 5.491856e-01 1.411261e+00
<VARIANCE> 25
 1.251680e+01 3.947412e+01 2.345719e+01 2.311032e+01 2.401314e+01 2.263220e+01 2.894756e+01 3.243211e+01 2.792633e+01 2.878043e+01 2.078496e+01 1.665665e+01 1.407232e+00 6.333096e+00 2.037291e+00 1.901932e+00 2.857387e+00 5.799538e+00 3.614909e+00 3.267962e+00 2.051003e+00 2.425138e+00 1.693186e+00 1.994759e+00 8.422793e-01
<GCONST> 9.559254e+01
~s "ST_c_2_1"
<MEAN> 25
 -6.463564e+00 -7.906459e+00 1.643183e+01 -1.753891e+00 -4.785834e+00 1.456287e+01 9.396201e-01 -7.001087e-01 3.035165e+00 -1.687041e+00 2.285820e+00 3.130477e+00 -2.082932e+00 -6.261539e+00 4.534258e+00 -3.692001e-01 -2.549262e+00 1.365049e+00 -2.240167e+00 3.311130e-01 3.908477e-01 -3.271349e-01 1.519071e+00 1.566569e-01 2.034168e+00
<VARIANCE> 25
 1.565075e+01 1.083530e+02 8.715730e+01 2.237499e+01 3.904953e+01 4.734958e+01 5.069478e+01 2.528042e+01 1.447172e+01 1.102968e+01 3.409549e+01 8.572964e+00 1.154948e+00 5.289734e+00 3.631473e+00 3.318924e+00 3.144565e+00 5.274348e+00 5.984007e+00 3.050929e+00 2.451289e+00 2.732474e+00 1.413622e+00 8.511653e-01 1.318089e+00
<GCONST> 9.876250e+01
~s "ST_c_3_1"
<MEAN> 25
 -3.664083e+00 -1.704788e+01 1.778824e+01 7.182746e+00 -4.251233e+00 4.204299e+00 -8.927386e+00 -3.416631e+00 7.581955e-01 -2.769434e+00 4.062039e+00 1.212923e+00 2.835912e+00 5.703471e-01 -3.265224e+00 3.004402e+00 1.738007e+00 -3.967771e+00 -1.871167e+00 -1.779541e+00 -1.281614e+00 7.548004e-02 -1.896237e-01 -1.216741e+00 9.246680e-01
<VARIANCE> 25
 3.885594e+01 3.209692e+01 4.742707e+01 4.284990e+01 3.184678e+01 8.708556e+01 4.883342e+01 3.330073e+01 2.264476e+01 1.842056e+01 1.993384e+01 1.914880e+01 1.929152e+00 2.754696e+00 3.955319e+00 3.105289e+00 3.408070e+00 5.904394e+00 3.816356e+00 2.536565e+00 1.481744e+00 3.860404e+00 2.561278e+00 2.712887e+00 4.123905e-01
<GCONST> 1.002395e+02
~s "ST_c_4_1"
<MEAN> 25
 4.260018e+00 -1.516653e+01 4.635487e+00 1.225843e+01 3.297774e+00 -4.471092e+00 -1.186163e+01 -6.578309e+00 -4.258275e+00 -2.679966e+00 3.619753e+00 -3.182745e+00 4.479145e-01 8.731578e-01 -1.663398e+00 -7.202974e-02 7.142455e-01 -3.463893e-01 7.818401e-01 -4.607835e-01 -5.611049e-01 2.885928e-01 -4.394217e-01 8.296271e-02 -3.699083e-01
<VARIANCE> 25
 3.249895e+00 2.238069e+01 2.268533e+01 1.854964e+01 4.009061e+01 4.640535e+01 2.504774e+01 1.399971e+01 2.853691e+01 4.378324e+01 1.185249e+01 3.143585e+01 2.120463e-01 1.088486e+00 1.022474e+00 8.648342e-01 1.320666e+00 1.242017e+00 1.235363e+00 1.411600e+00 8.303168e-01 1.780349e+00 5.823972e-01 1.223472e+00 3.558056e-01
<GCONST> 8.119563e+01
~s "ST_p_2_1"
<MEAN> 25
 -4.024186e+00 5.044981e+00 2.084270e-01 -2.273084e+00 -4.132159e-01 -2.033175e+00 -2.711423e+00 -1.576401e+00 3.039595e-01 1.909733e+00 1.767082e+00 1.900182e+00 3.765162e-01 1.190387e-01 7.013942e-01 3.673050e-01 -2.001730e-01 -2.901726e-01 -5.857718e-01 -5.098758e-01 -1.229016e-02 -1.941654e-01 -2.114411e-01 -2.688166e-01 3.748732e-01
<VARIANCE> 25
 1.786610e+01 3.868036e+01 1.779746e+01 1.676793e+01 2.337311e+01 4.756431e+01 3.223809e+01 3.589940e+01 2.567086e+01 3.047041e+01 1.944220e+01 1.854296e+01 3.005587e+00 6.443700e+00 2.752324e+00 2.030256e+00 2.309842e+00 6.522340e+00 2.490194e+00 2.561095e+00 2.587424e+00 2.189209e+00 2.451736e+00 3.168487e+00 1.105453e+00
<GCONST> 9.793477e+01
~s "ST_p_2_2"
<MEAN> 25
 1.903391e+00 9.614562e+00 5.750397e+00 -1.710178e+00 -4.850946e+00 -5.394779e+00 -5.118025e+00 -4.307380e+00 -1.859988e+00 -6.557255e-01 -4.972102e-01 4.036630e-02 2.074332e+00 2.180621e+00 1.712874e+00 7.494221e-01 -2.630726e+00 -5.168583e+00 -1.882045e+00 1.552944e-01 -1.698725e-01 4.399205e-01 1.370832e-01 -9.971388e-01 1.004258e+00
<VARIANCE> 25
 9.420013e+00 1.414853e+01 1.274891e+01 1.404618e+01 3.092835e+01 4.278550e+01 2.518090e+01 2.433618e+01 3.062628e+01 2.550439e+01 1.569615e+01 1.417376e+01 1.324225e+00 3.243038e+00 2.312730e+00 2.469629e+00 3.935090e+00 2.493661e+00 4.497314e+00 3.394611e+00 3.825395e+00 2.931532e+00 3.839377e+00 2.223418e+00 5.512077e-01
<GCONST> 9.387370e+01
~s "ST_p_3_1"
<MEAN> 25
 1.027389e+00 7.802471e+00 4.588148e+00 8.864519e-02 -4.130918e+00 -9.433653e+00 -4.839946e+00 2.117378e+00 2.336984e+00 -3.192227e-02 -1.504369e+00 -2.704352e+00 1.874763e-01 -1.075741e+00 -1.253290e-01 -6.932102e-02 -2.066901e-01 3.612758e-01 1.284142e-01 4.198929e-01 4.764144e-01 -5.143129e-01 -5.068806e-01 -1.312367e-02 5.541145e-01
<VARIANCE> 25
 2.912108e+01 2.672643e+01 3.844589e+01 2.748594e+01 4.914407e+01 6.554015e+01 6.597811e+01 2.737819e+01 5.121004e+01 3.692188e+01 3.914510e+01 4.540719e+01 9.724689e-01 2.635953e+00 2.172149e+00 1.845904e+00 2.659713e+00 4.108299e+00 2.292788e+00 5.000201e+00 2.900650e+00 2.264650e+00 2.475139e+00 2.704953e+00 7.535028e-01
<GCONST> 1.008324e+02
~s "ST_p_3_2"
<MEAN> 25
 4.601584e+00 1.057428e+01 6.637669e+00 1.408513e+00 -6.018341e+00 -1.360853e+01 -8.252678e+00 -7.451566e-02 1.511643e+00 -8.226066e-01 -3.015667e+00 -3.740454e+00 5.570960e-02 3.964847e-02 2.144253e-01 2.456066e-01 -2.657979e-01 -7.465356e-01 -9.504884e-02 6.415126e-01 4.368256e-01 1.560962e-01 -1.467854e-01 -5.604987e-01 5.919533e-02
<VARIANCE> 25
 4.916533e+00 1.124333e+01 1.749463e+01 1.739266e+01 3.518745e+01 1.803795e+01 2.817359e+01 3.684074e+01 3.120861e+01 2.531715e+01 2.514902e+01 2.286697e+01 2.829999e-01 6.270425e-01 8.800747e-01 8.579364e-01 1.180043e+00 1.960156e+00 1.255760e+00 1.545189e+00 1.447358e+00 1.646039e+00 1.773682e+00 1.233556e+00 2.005106e-01
<GCONST> 8.163771e+01
~s "ST_p_4_1"
<MEAN> 25
 -1.450480e+00 7.102626e-01 -1.400447e+00 -1.885010e+00 7.802626e-02 1.032740e+00 -1.184644e+00 -2.286198e+00 -6.733019e-01 -4.743194e-01 9.689283e-01 2.878886e+00 1.430834e+00 -2.022562e+00 -1.940308e-01 1.802465e+00 1.526617e+00 9.979603e-01 -1.191280e+00 -2.263752e+00 -1.365351e+00 -4.510760e-01 -3.647919e-01 -8.111230e-01 1.723450e+00
<VARIANCE> 25
 2.444011e+01 6.230974e+01 3.997667e+01 2.373766e+01 5.066204e+01 7.639568e+01 4.664559e+01 6.010340e+01 5.345987e+01 3.450871e+01 3.406002e+01 3.297142e+01 3.299270e+00 4.844617e+00 3.701277e+00 6.788933e+00 4.211389e+00 8.124003e+00 5.330665e+00 4.659867e+00 5.109736e+00 3.649580e+00 2.432360e+00 4.266826e+00 2.384041e+00
<GCONST> 1.097492e+02
~s "ST_p_4_2"
<MEAN> 25
 2.984459e+00 8.891443e+00 7.842943e+00 -1.691494e-01 -9.223124e+00 -1.193011e+01 -4.122123e+00 2.747980e-01 -5.897772e-01 -3.070650e-01 -1.174106e+00 -3.306982e+00 -4.353420e-02 -5.621210e-01 -7.142103e-01 -1.967569e-01 7.169095e-01 9.925885e-01 4.765206e-01 2.972580e-01 -1.390153e-01 -9.945970e-01 -7.237462e-01 3.320916e-01 8.118189e-02
<VARIANCE> 25
 6.962223e+00 1.890546e+01 1.770807e+01 2.120391e+01 5.118152e+01 4.718649e+01 5.915982e+01 5.064222e+01 3.902751e+01 5.873508e+01 5.314936e+01 3.083216e+01 5.685827e-01 1.249846e+00 2.040327e+00 1.259688e+00 4.748397e+00 3.738016e+00 4.101769e+00 2.974985e+00 2.792100e+00 4.375454e+00 2.315295e+00 2.265094e+00 5.845739e-01
<GCONST> 9.729207e+01
~h "@"
<BEGINHMM>
<NUMSTATES> 5
<STATE> 2
~s "ST_@_2_1"
<STATE> 3
~s "ST_@_3_1"
<STATE> 4
~s "ST_@_4_1"
~t "T_@"
<ENDHMM>
~h "a"
<BEGINHMM>
<NUMSTATES> 5
<STATE> 2
~s "ST_a_2_5"
<STATE> 3
~s "ST_a_3_1"
<STATE> 4
~s "ST_a_4_1"
~t "T_a"
<ENDHMM>
~h "b"
<BEGINHMM>
<NUMSTATES> 5
<STATE> 2
~s "ST_b_2_1"
<STATE> 3
~s "ST_b_3_1"
<STATE> 4
~s "ST_b_4_1"
~t "T_b"
<ENDHMM>
~h "c"
<BEGINHMM>
<NUMSTATES> 5
<STATE> 2
~s "ST_c_2_1"
<STATE> 3
~s "ST_c_3_1"
<STATE> 4
~s "ST_c_4_1"
~t "T_c"
<ENDHMM>
~h "d"
<BEGINHMM>
<NUMSTATES> 5
<STATE> 2
~s "ST_d_2_1"
<STATE> 3
~s "ST_d_3_1"
<STATE> 4
~s "ST_d_4_1"
~t "T_d"
<ENDHMM>
~h "e"
<BEGINHMM>
<NUMSTATES> 5
<STATE> 2
~s "ST_e_2_1"
<STATE> 3
~s "ST_e_3_1"
<STATE> 4
~s "ST_e_4_1"
~t "T_e"
<ENDHMM>
~h "g"
<BEGINHMM>
<NUMSTATES> 5
<STATE> 2
~s "ST_g_2_1"
<STATE> 3
~s "ST_g_3_1"
<STATE> 4
~s "ST_g_4_1"
~t "T_g"
<ENDHMM>
~h "h"
<BEGINHMM>
<NUMSTATES> 5
<STATE> 2
~s "ST_h_2_1"
<STATE> 3
~s "ST_h_3_1"
<STATE> 4
~s "ST_h_4_1"
~t "T_h"
<ENDHMM>
~h "i"
<BEGINHMM>
<NUMSTATES> 5
<STATE> 2
~s "ST_i_2_1"
<STATE> 3
~s "ST_i_3_1"
<STATE> 4
~s "ST_i_4_1"
~t "T_i"
<ENDHMM>
~h "j"
<BEGINHMM>
<NUMSTATES> 5
<STATE> 2
~s "ST_j_2_1"
<STATE> 3
~s "ST_j_3_1"
<STATE> 4
~s "ST_j_4_1"
~t "T_j"
<ENDHMM>
~h "k"
<BEGINHMM>
<NUMSTATES> 5
<STATE> 2
~s "ST_k_2_1"
<STATE> 3
~s "ST_k_3_1"
<STATE> 4
~s "ST_k_4_1"
~t "T_k"
<ENDHMM>
~h "l"
<BEGINHMM>
<NUMSTATES> 5
<STATE> 2
~s "ST_l_2_1"
<STATE> 3
~s "ST_l_3_1"
<STATE> 4
~s "ST_l_4_1"
~t "T_l"
<ENDHMM>
~h "m"
<BEGINHMM>
<NUMSTATES> 5
<STATE> 2
~s "ST_m_2_1"
<STATE> 3
~s "ST_m_3_1"
<STATE> 4
~s "ST_m_4_1"
~t "T_m"
<ENDHMM>
~h "n"
<BEGINHMM>
<NUMSTATES> 5
<STATE> 2
~s "ST_n_2_1"
<STATE> 3
~s "ST_n_3_1"
<STATE> 4
~s "ST_n_4_1"
~t "T_n"
<ENDHMM>
~h "p"
<BEGINHMM>
<NUMSTATES> 5
<STATE> 2
~s "ST_p_2_1"
<STATE> 3
~s "ST_p_3_1"
<STATE> 4
~s "ST_p_4_1"
~t "T_p"
<ENDHMM>
~h "r"
<BEGINHMM>
<NUMSTATES> 5
<STATE> 2
~s "ST_r_2_1"
<STATE> 3
~s "ST_r_3_1"
<STATE> 4
~s "ST_r_4_1"
~t "T_r"
<ENDHMM>
~h "s"
<BEGINHMM>
<NUMSTATES> 5
<STATE> 2
~s "ST_s_2_1"
<STATE> 3
~s "ST_s_3_1"
<STATE> 4
~s "ST_s_4_1"
~t "T_s"
<ENDHMM>
~h "t"
<BEGINHMM>
<NUMSTATES> 5
<STATE> 2
~s "ST_t_2_1"
<STATE> 3
~s "ST_t_3_1"
<STATE> 4
~s "ST_t_4_1"
~t "T_t"
<ENDHMM>
~h "u"
<BEGINHMM>
<NUMSTATES> 5
<STATE> 2
~s "ST_u_2_1"
<STATE> 3
~s "ST_u_3_1"
<STATE> 4
~s "ST_u_4_1"
~t "T_u"
<ENDHMM>
~h "u-r+u"
<BEGINHMM>
<NUMSTATES> 5
<STATE> 2
~s "ST_r_2_1"
<STATE> 3
~s "ST_r_3_2"
<STATE> 4
~s "ST_r_4_2"
~t "T_r"
<ENDHMM>
~h "ng"
<BEGINHMM>
<NUMSTATES> 5
<STATE> 2
~s "ST_ng_2_1"
<STATE> 3
~s "ST_ng_3_1"
<STATE> 4
~s "ST_ng_4_1"
~t "T_ng"
<ENDHMM>
~h "ny"
<BEGINHMM>
<NUMSTATES> 5
<STATE> 2
~s "ST_ny_2_1"
<STATE> 3
~s "ST_ny_3_1"
<STATE> 4
~s "ST_ny_4_1"
~t "T_ny"
<ENDHMM>
~h "sp"
<BEGINHMM>
<NUMSTATES> 3
<STATE> 2
~s "ST_sil_3_1"
<TRANSP> 3
 0.000000e+00 1.730091e-02 9.826991e-01
 0.000000e+00 8.215601e-01 1.784399e-01
 0.000000e+00 0.000000e+00 0.000000e+00
<ENDHMM>
~h "u-a+ng"
<BEGINHMM>
<NUMSTATES> 5
<STATE> 2
~s "ST_a_2_2"
<STATE> 3
~s "ST_a_3_1"
<STATE> 4
~s "ST_a_4_5"
~t "T_a"
<ENDHMM>
~h "k-k+a"
<BEGINHMM>
<NUMSTATES> 5
<STATE> 2
~s "ST_k_2_2"
<STATE> 3
~s "ST_k_3_2"
<STATE> 4
~s "ST_k_4_1"
~t "T_k"
<ENDHMM>
~h "k-u+n"
<BEGINHMM>
<NUMSTATES> 5
<STATE> 2
~s "ST_u_2_1"
<STATE> 3
~s "ST_u_3_1"
<STATE> 4
~s "ST_u_4_3"
~t "T_u"
<ENDHMM>
~h "a-l+a"
<BEGINHMM>
<NUMSTATES> 5
<STATE> 2
~s "ST_l_2_2"
<STATE> 3
~s "ST_l_3_1"
<STATE> 4
~s "ST_l_4_1"
~t "T_l"
<ENDHMM>
~h "a-m+a"
<BEGINHMM>
<NUMSTATES> 5
<STATE> 2
~s "ST_m_2_1"
<STATE> 3
~s "ST_m_3_1"
<STATE> 4
~s "ST_m_4_2"
~t "T_m"
<ENDHMM>
~h "a-m+p"
<BEGINHMM>
<NUMSTATES> 5
<STATE> 2
~s "ST_m_2_2"
<STATE> 3
~s "ST_m_3_2"
<STATE> 4
~s "ST_m_4_3"
~t "T_m"
<ENDHMM>
~h "a-n+d"
<BEGINHMM>
<NUMSTATES> 5
<STATE> 2
~s "ST_n_2_2"
<STATE> 3
~s "ST_n_3_2"
<STATE> 4
~s "ST_n_4_2"
~t "T_n"
<ENDHMM>
~h "a-s+e"
<BEGINHMM>
<NUMSTATES> 5
<STATE> 2
~s "ST_s_2_2"
<STATE> 3
~s "ST_s_3_1"
<STATE> 4
~s "ST_s_4_1"
~t "T_s"
<ENDHMM>
~h "d-a+p"
<BEGINHMM>
<NUMSTATES> 5
<STATE> 2
~s "ST_a_2_2"
<STATE> 3
~s "ST_a_3_2"
<STATE> 4
~s "ST_a_4_1"
~t "T_a"
<ENDHMM>
~h "ny-a+l"
<BEGINHMM>
<NUMSTATES> 5
<STATE> 2
~s "ST_a_2_3"
<STATE> 3
~s "ST_a_3_1"
<STATE> 4
~s "ST_a_4_3"
~t "T_a"
<ENDHMM>
~h "g-a+r"
<BEGINHMM>
<NUMSTATES> 5
<STATE> 2
~s "ST_a_2_2"
<STATE> 3
~s "ST_a_3_1"
<STATE> 4
~s "ST_a_4_3"
~t "T_a"
<ENDHMM>
~h "t-a+m"
<BEGINHMM>
<NUMSTATES> 5
<STATE> 2
~s "ST_a_2_4"
<STATE> 3
~s "ST_a_3_4"
<STATE> 4
~s "ST_a_4_5"
~t "T_a"
<ENDHMM>
~h "t-i+d"
<BEGINHMM>
<NUMSTATES> 5
<STATE> 2
~s "ST_i_2_2"
<STATE> 3
~s "ST_i_3_2"
<STATE> 4
~s "ST_i_4_3"
~t "T_i"
<ENDHMM>
~h "t-i+k"
<BEGINHMM>
<NUMSTATES> 5
<STATE> 2
~s "ST_i_2_2"
<STATE> 3
~s "ST_i_3_2"
<STATE> 4
~s "ST_i_4_2"
~t "T_i"
<ENDHMM>
~h "t-i+r"
<BEGINHMM>
<NUMSTATES> 5
<STATE> 2
~s "ST_i_2_2"
<STATE> 3
~s "ST_i_3_3"
<STATE> 4
~s "ST_i_4_3"
~t "T_i"
<ENDHMM>
~h "t-u+p"
<BEGINHMM>
<NUMSTATES> 5
<STATE> 2
~s "ST_u_2_4"
<STATE> 3
~s "ST_u_3_2"
<STATE> 4
~s "ST_u_4_4"
~t "T_u"
<ENDHMM>
~h "t-u+r"
<BEGINHMM>
<NUMSTATES> 5
<STATE> 2
~s "ST_u_2_4"
<STATE> 3
~s "ST_u_3_1"
<STATE> 4
~s "ST_u_4_3"
~t "T_u"
<ENDHMM>
~h "a+s"
<BEGINHMM>
<NUMSTATES> 5
<STATE> 2
~s "ST_a_2_5"
<STATE> 3
~s "ST_a_3_1"
<STATE> 4
~s "ST_a_4_4"
~t "T_a"
<ENDHMM>
~h "m-a+n"
<BEGINHMM>
<NUMSTATES> 5
<STATE> 2
~s "ST_a_2_5"
<STATE> 3
~s "ST_a_3_3"
<STATE> 4
~s "ST_a_4_6"
~t "T_a"
<ENDHMM>
~h "m-a+r"
<BEGINHMM>
<NUMSTATES> 5
<STATE> 2
~s "ST_a_2_5"
<STATE> 3
~s "ST_a_3_1"
<STATE> 4
~s "ST_a_4_3"
~t "T_a"
<ENDHMM>
~h "m-a+t"
<BEGINHMM>
<NUMSTATES> 5
<STATE> 2
~s "ST_a_2_5"
<STATE> 3
~s "ST_a_3_2"
<STATE> 4
~s "ST_a_4_2"
~t "T_a"
<ENDHMM>
~h "d-i"
<BEGINHMM>
<NUMSTATES> 5
<STATE> 2
~s "ST_i_2_1"
<STATE> 3
~s "ST_i_3_4"
<STATE> 4
~s "ST_i_4_1"
~t "T_i"
<ENDHMM>
~h "k-a"
<BEGINHMM>
<NUMSTATES> 5
<STATE> 2
~s "ST_a_2_1"
<STATE> 3
~s "ST_a_3_1"
<STATE> 4
~s "ST_a_4_1"
~t "T_a"
<ENDHMM>
~h "l-a"
<BEGINHMM>
<NUMSTATES> 5
<STATE> 2
~s "ST_a_2_1"
<STATE> 3
~s "ST_a_3_1"
<STATE> 4
~s "ST_a_4_2"
~t "T_a"
<ENDHMM>
~h "m-u"
<BEGINHMM>
<NUMSTATES> 5
<STATE> 2
~s "ST_u_2_2"
<STATE> 3
~s "ST_u_3_3"
<STATE> 4
~s "ST_u_4_2"
~t "T_u"
<ENDHMM>
~h "n+a"
<BEGINHMM>
<NUMSTATES> 5
<STATE> 2
~s "ST_n_2_2"
<STATE> 3
~s "ST_n_3_2"
<STATE> 4
~s "ST_n_4_1"
~t "T_n"
<ENDHMM>
~h "p-u"
<BEGINHMM>
<NUMSTATES> 5
<STATE> 2
~s "ST_u_2_1"
<STATE> 3
~s "ST_u_3_3"
<STATE> 4
~s "ST_u_4_2"
~t "T_u"
<ENDHMM>
~h "m-p+u"
<BEGINHMM>
<NUMSTATES> 5
<STATE> 2
~s "ST_p_2_2"
<STATE> 3
~s "ST_p_3_2"
<STATE> 4
~s "ST_p_4_2"
~t "T_p"
<ENDHMM>
~h "t-u"
<BEGINHMM>
<NUMSTATES> 5
<STATE> 2
~s "ST_u_2_3"
<STATE> 3
~s "ST_u_3_1"
<STATE> 4
~s "ST_u_4_1"
~t "T_u"
<ENDHMM>
~h "sil"
<BEGINHMM>
<NUMSTATES> 5
<STATE> 2
~s "ST_sil_2_1"
<STATE> 3
~s "ST_sil_3_1"
<STATE> 4
~s "ST_sil_4_1"
<TRANSP> 5
 0.000000e+00 1.000000e+00 0.000000e+00 0.000000e+00 0.000000e+00
 0.000000e+00 7.962072e-01 4.286766e-02 1.609252e-01 0.000000e+00
 0.000000e+00 0.000000e+00 8.491009e-01 1.508990e-01 0.000000e+00
 0.000000e+00 5.823360e-02 0.000000e+00 3.765092e-01 5.652572e-01
 0.000000e+00 0.000000e+00 0.000000e+00 0.000000e+00 0.000000e+00
<ENDHMM>
~h "p-u+r"
<BEGINHMM>
<NUMSTATES> 5
<STATE> 2
~s "ST_u_2_1"
<STATE> 3
~s "ST_u_3_3"
<STATE> 4
~s "ST_u_4_3"
~t "T_u"
<ENDHMM>
~h "l-a+k"
<BEGINHMM>
<NUMSTATES> 5
<STATE> 2
~s "ST_a_2_2"
<STATE> 3
~s "ST_a_3_2"
<STATE> 4
~s "ST_a_4_2"
~t "T_a"
<ENDHMM>
~h "b-u+k"
<BEGINHMM>
<NUMSTATES> 5
<STATE> 2
~s "ST_u_2_1"
<STATE> 3
~s "ST_u_3_3"
<STATE> 4
~s "ST_u_4_4"
~t "T_u"
<ENDHMM>
~h "r-a+s"
<BEGINHMM>
<NUMSTATES> 5
<STATE> 2
~s "ST_a_2_1"
<STATE> 3
~s "ST_a_3_1"
<STATE> 4
~s "ST_a_4_4"
~t "T_a"
<ENDHMM>
~h "r-u+a"
<BEGINHMM>
<NUMSTATES> 5
<STATE> 2
~s "ST_u_2_2"
<STATE> 3
~s "ST_u_3_1"
<STATE> 4
~s "ST_u_4_3"
~t "T_u"
<ENDHMM>
~h "k-a+n"
<BEGINHMM>
<NUMSTATES> 5
<STATE> 2
~s "ST_a_2_2"
<STATE> 3
~s "ST_a_3_3"
<STATE> 4
~s "ST_a_4_6"
~t "T_a"
<ENDHMM>
