~o
<STREAMINFO> 1 25
<VECSIZE> 25<NULLD><MFCC_D_N_Z_0><DIAGC>
~s "silst"
<MEAN> 25
 -1.402840e+01 1.356292e+00 -4.049663e+00 -3.517711e+00 4.426861e+00 3.778039e+00 5.070780e+00 5.609851e+00 5.596955e+00 6.869860e+00 1.615000e+00 -1.698756e+00 -2.476313e-01 -2.431735e-01 -2.291856e-01 -1.324400e-01 -5.996019e-03 -2.169732e-02 7.490067e-02 1.488141e-01 7.419705e-02 2.533958e-03 -1.501184e-01 -1.726661e-01 -1.305029e-01
<VARIANCE> 25
 9.680849e+00 2.095086e+01 1.356265e+01 1.424194e+01 2.471212e+01 2.053444e+01 1.587664e+01 2.059233e+01 1.604868e+01 1.658135e+01 1.626445e+01 1.756231e+01 3.228602e-01 6.880956e-01 7.836143e-01 7.585062e-01 8.290291e-01 1.035554e+00 1.049878e+00 8.453482e-01 1.048340e+00 1.036276e+00 8.278991e-01 7.934656e-01 1.091153e-01
<GCONST> 7.493135e+01
~h "@"
<BEGINHMM>
<NUMSTATES> 5
<STATE> 2
<MEAN> 25
 4.234643e+00 -7.940361e+00 7.239714e+00 9.508772e+00 2.339028e+00 -4.005379e-01 -1.244303e+01 -1.302858e+01 -4.215000e+00 -1.859247e-01 1.990226e+00 -2.977774e+00 1.236706e+00 8.818409e-01 -2.747476e+00 -4.877616e-01 8.867845e-01 -1.314939e-01 1.528683e+00 3.764914e-01 -8.550754e-01 -1.255633e-01 -5.917617e-01 -1.254441e-01 9.952198e-03
<VARIANCE> 25
 8.658946e+00 8.727589e+00 1.898677e+01 2.090705e+01 1.792236e+01 2.116019e+01 2.893165e+01 1.783267e+01 2.414981e+01 2.601830e+01 1.554766e+01 2.208009e+01 5.354849e-01 1.242323e+00 2.765484e+00 1.286439e+00 1.809694e+00 2.911474e+00 2.424643e+00 3.635462e+00 2.487681e+00 1.994850e+00 1.210593e+00 1.853347e+00 3.167720e-01
<GCONST> 8.668181e+01
<STATE> 3
<MEAN> 25
 4.678799e+00 -2.199669e+00 5.161409e+00 8.628258e+00 5.031826e+00 2.646165e+00 -6.629661e+00 -9.289861e+00 -4.747330e+00 -1.339656e+00 -2.849893e-01 -2.332190e+00 -4.041281e-01 2.908314e+00 -4.763511e-01 -1.035092e-01 1.408277e+00 3.595378e-01 1.426455e+00 1.847145e+00 1.348644e+00 3.866892e-01 -1.614179e+00 -5.938218e-01 -1.614501e+00
<VARIANCE> 25
 7.016634e+00 2.022087e+01 1.330668e+01 1.265757e+01 1.829098e+01 2.045151e+01 1.796631e+01 2.477922e+01 2.167722e+01 1.703293e+01 1.482602e+01 1.874590e+01 2.076103e-01 6.316154e-01 1.404814e+00 7.003927e-01 1.531287e+00 1.376279e+00 1.193691e+00 1.315658e+00 3.600754e+00 3.372941e+00 2.419262e+00 1.202592e+00 2.115107e-01
<GCONST> 8.075067e+01
<STATE> 4
<MEAN> 25
 4.324706e+00 4.087226e+00 4.159895e+00 8.273822e+00 8.331412e+00 2.469625e+00 -5.776662e+00 -4.954587e+00 -8.655425e-01 -1.724244e+00 -4.832901e+00 -4.979733e+00 -1.848656e-02 1.242195e+00 -4.546417e-03 -2.438749e-01 4.986171e-01 -9.152019e-02 -8.107247e-02 5.778126e-01 4.920341e-01 -3.251000e-01 -7.003773e-01 -4.856408e-01 -4.537083e-01
<VARIANCE> 25
 4.825951e+00 1.194144e+01 1.469344e+01 2.019298e+01 1.168677e+01 2.883696e+01 1.126919e+01 1.386451e+01 1.772321e+01 1.752761e+01 2.306489e+01 9.702039e+00 1.660144e-01 8.398107e-01 5.536656e-01 5.486273e-01 1.195318e+00 8.859478e-01 1.105850e+00 1.086151e+00 1.846833e+00 1.271018e+00 1.923780e+00 5.192953e-01 2.370853e-01
<GCONST> 7.420627e+01
<TRANSP> 5
 0.000000e+00 1.000000e+00 0.000000e+00 0.000000e+00 0.000000e+00
 0.000000e+00 4.199718e-01 5.800282e-01 0.000000e+00 0.000000e+00
 0.000000e+00 0.000000e+00 6.290442e-01 3.709557e-01 0.000000e+00
 0.000000e+00 0.000000e+00 0.000000e+00 7.287819e-01 2.712182e-01
 0.000000e+00 0.000000e+00 0.000000e+00 0.000000e+00 0.000000e+00
<ENDHMM>
~h "a"
<BEGINHMM>
<NUMSTATES> 5
<STATE> 2
<MEAN> 25
 7.372685e+00 -8.539439e+00 -7.716196e+00 -4.205708e+00 -4.917478e+00 -2.646506e-01 6.244822e+00 2.666543e+00 -1.219370e+00 -5.454722e-01 2.236038e+00 1.923533e+00 -4.993850e-02 -9.718508e-02 8.549784e-02 2.220507e-01 1.072278e-01 1.670571e-01 -1.624728e-01 -1.621085e-01 1.199668e-01 2.713044e-01 1.595528e-01 -7.514098e-02 -3.520367e-02
<VARIANCE> 25
 7.018023e+00 3.202069e+01 1.709108e+01 2.233041e+01 2.772640e+01 3.052890e+01 3.784549e+01 3.676606e+01 2.696651e+01 3.935403e+01 3.646734e+01 2.922561e+01 2.811593e-01 2.998499e+00 1.265847e+00 1.528718e+00 1.620985e+00 1.899447e+00 2.399625e+00 2.427488e+00 1.968871e+00 2.270274e+00 2.186283e+00 1.945732e+00 7.365598e-01
<GCONST> 9.123976e+01
<STATE> 3
<MEAN> 25
 6.685345e+00 -6.401270e+00 -6.225087e+00 -3.110521e+00 -4.603604e+00 -6.570435e-01 3.691746e+00 4.437820e-01 -1.185562e+00 1.481508e-01 2.006772e+00 2.419351e+00 -7.579468e-01 2.219298e+00 7.763786e-01 4.654868e-01 1.041308e+00 -5.711452e-02 -7.845666e-01 1.710126e-02 7.426631e-02 -7.076979e-02 -4.899028e-01 -3.768155e-01 -1.406382e+00
<VARIANCE> 25
 6.574590e+00 2.918541e+01 1.699088e+01 1.861899e+01 2.485216e+01 3.185250e+01 3.129512e+01 4.256008e+01 3.132163e+01 3.661683e+01 3.208543e+01 2.998280e+01 4.710653e-01 1.302895e+00 1.300527e+00 1.379548e+00 1.615487e+00 2.423354e+00 2.141020e+00 2.391807e+00 2.373189e+00 2.624610e+00 2.378611e+00 2.375006e+00 5.787598e-01
<GCONST> 9.085123e+01
<STATE> 4
<MEAN> 25
 1.638537e+00 9.644061e-01 -4.124477e+00 -3.095792e+00 -1.109211e+00 6.142001e-01 3.333451e+00 1.975447e+00 5.802486e-01 1.522322e+00 1.406877e+00 2.091738e+00 -1.276038e+00 1.190439e+00 7.868498e-01 7.242870e-02 8.606730e-01 6.442418e-01 -3.785984e-01 9.888533e-02 4.818222e-01 5.507212e-02 -3.343313e-01 -1.876629e-01 -1.281163e+00
<VARIANCE> 25
 2.160657e+01 2.965640e+01 2.075274e+01 1.992704e+01 1.880132e+01 3.071695e+01 2.803955e+01 3.027001e+01 2.928784e+01 3.161515e+01 2.278994e+01 2.387735e+01 6.768504e-01 2.220751e+00 2.485658e+00 2.033113e+00 1.958922e+00 3.223113e+00 2.119320e+00 2.396955e+00 2.415095e+00 2.638149e+00 2.667071e+00 2.245166e+00 6.171886e-01
<GCONST> 9.332160e+01
<TRANSP> 5
 0.000000e+00 1.000000e+00 0.000000e+00 0.000000e+00 0.000000e+00
 0.000000e+00 5.734870e-01 4.265130e-01 0.000000e+00 0.000000e+00
 0.000000e+00 0.000000e+00 5.257699e-01 4.742300e-01 0.000000e+00
 0.000000e+00 0.000000e+00 0.000000e+00 5.394393e-01 4.605608e-01
 0.000000e+00 0.000000e+00 0.000000e+00 0.000000e+00 0.000000e+00
<ENDHMM>
~h "b"
<BEGINHMM>
<NUMSTATES> 5
<STATE> 2
<MEAN> 25
 -8.534926e+00 5.214861e+00 -7.418835e-02 -3.828060e-01 5.079265e+00 4.770329e+00 6.573649e+00 6.988676e+00 2.856797e+00 -6.127471e-01 -2.420855e+00 -7.285866e-01 3.144769e+00 2.454461e+00 2.107559e+00 9.804615e-01 8.291443e-02 -3.023225e-02 -8.308349e-01 -8.210080e-01 -1.158353e+00 -1.620890e+00 -7.899340e-01 -3.905622e-01 1.770987e+00
<VARIANCE> 25
 2.607050e+01 1.161446e+02 2.621378e+01 2.458452e+01 4.669821e+01 2.019427e+01 2.791809e+01 3.487634e+01 2.048292e+01 4.815593e+01 2.777177e+01 1.852692e+01 1.564362e+00 7.531728e+00 2.123513e+00 1.724465e+00 2.307205e+00 3.920199e+00 2.081907e+00 1.613966e+00 9.985684e-01 2.770818e+00 1.469076e+00 1.697409e+00 6.836630e-01
<GCONST> 9.602836e+01
<STATE> 3
<MEAN> 25
 -3.740737e-01 1.458094e+01 7.214942e+00 2.994434e+00 5.530818e+00 2.981995e+00 1.886782e+00 3.203700e+00 1.027768e+00 -1.785893e+00 -2.204625e+00 -1.426654e+00 2.216884e+00 2.687591e-01 8.837920e-01 -4.283848e-01 -1.728112e+00 -6.645534e-01 -1.461396e+00 -1.354551e+00 -6.441295e-01 -1.137002e+00 -5.066062e-01 -5.502755e-01 1.713656e+00
<VARIANCE> 25
 1.075365e+01 5.542658e+01 2.173417e+01 3.009260e+01 3.358871e+01 3.337479e+01 1.764115e+01 3.400425e+01 1.636957e+01 2.753419e+01 2.455657e+01 1.407391e+01 2.426718e+00 1.052127e+01 2.447343e+00 2.003226e+00 2.300728e+00 4.888252e+00 2.479450e+00 1.603255e+00 2.309268e+00 3.602037e+00 1.721552e+00 1.723613e+00 1.368882e+00
<GCONST> 9.634519e+01
<STATE> 4
<MEAN> 25
 3.517249e+00 1.144011e+01 5.659710e+00 -2.665135e+00 -3.261758e+00 -2.426908e-01 -6.506377e-01 1.260769e+00 7.336467e-01 -5.239844e+00 -5.692684e+00 -4.374388e+00 1.598142e+00 9.676276e-01 3.679152e-01 -9.924439e-01 -2.504206e+00 -2.956263e+00 -9.883109e-01 9.829761e-01 3.846055e-01 -4.215294e-01 -4.691583e-01 -1.684281e+00 9.782319e-01
<VARIANCE> 25
 1.476603e+01 6.384421e+01 2.365569e+01 2.076704e+01 3.334524e+01 4.033658e+01 5.411028e+01 2.731366e+01 2.181965e+01 3.265590e+01 2.048014e+01 2.005458e+01 2.275462e+00 5.774631e+00 1.803982e+00 4.998642e+00 4.262704e+00 3.671891e+00 6.921848e+00 3.145880e+00 3.121572e+00 3.126542e+00 1.835284e+00 2.303949e+00 8.737521e-01
<GCONST> 1.002734e+02
<TRANSP> 5
 0.000000e+00 1.000000e+00 0.000000e+00 0.000000e+00 0.000000e+00
 0.000000e+00 5.751536e-01 4.248464e-01 0.000000e+00 0.000000e+00
 0.000000e+00 0.000000e+00 4.974492e-01 5.025508e-01 0.000000e+00
 0.000000e+00 0.000000e+00 0.000000e+00 4.900399e-01 5.099602e-01
 0.000000e+00 0.000000e+00 0.000000e+00 0.000000e+00 0.000000e+00
<ENDHMM>
~h "c"
<BEGINHMM>
<NUMSTATES> 5
<STATE> 2
<MEAN> 25
 -7.313098e+00 -1.070888e+01 1.818372e+01 -1.477128e+00 -5.439483e+00 1.462534e+01 1.667233e-01 7.594460e-02 3.155909e+00 -1.922225e+00 3.022866e+00 3.378698e+00 -1.554109e+00 -5.269059e+00 3.715673e+00 1.740512e-01 -1.923434e+00 6.284188e-01 -2.228040e+00 -4.103106e-03 1.423742e-01 -3.144435e-01 1.211075e+00 2.449688e-02 1.807293e+00
<VARIANCE> 25
 1.719772e+01 1.201166e+02 8.405138e+01 2.322519e+01 3.413346e+01 4.333459e+01 5.008110e+01 2.692269e+01 1.567910e+01 1.055260e+01 3.565322e+01 8.907993e+00 2.218703e+00 9.447511e+00 6.479226e+00 4.196452e+00 4.638620e+00 7.308569e+00 5.651155e+00 3.629179e+00 2.371758e+00 3.022163e+00 2.106498e+00 1.213271e+00 1.482412e+00
<GCONST> 1.027236e+02
<STATE> 3
<MEAN> 25
 -2.133628e+00 -1.602586e+01 1.620671e+01 8.684570e+00 -3.482944e+00 2.199206e+00 -1.010093e+01 -4.814624e+00 2.226907e-01 -2.774313e+00 3.629277e+00 5.380055e-01 3.254328e+00 8.168979e-01 -3.930048e+00 3.083668e+00 1.915843e+00 -4.226598e+00 -1.804643e+00 -1.808841e+00 -1.371727e+00 1.115637e-01 -1.943612e-01 -1.345547e+00 9.746401e-01
<VARIANCE> 25
 3.202099e+01 2.469993e+01 4.093951e+01 3.429191e+01 3.406853e+01 7.382091e+01 4.559455e+01 2.423775e+01 2.118967e+01 2.055288e+01 1.705972e+01 1.877427e+01 1.288040e+00 2.593150e+00 1.871672e+00 3.528282e+00 3.625719e+00 6.173127e+00 3.836855e+00 2.438985e+00 1.581452e+00 3.753649e+00 2.477932e+00 2.688240e+00 3.422213e-01
<GCONST> 9.759377e+01
<STATE> 4
<MEAN> 25
 4.269804e+00 -1.350608e+01 2.434454e+00 1.092315e+01 3.188108e+00 -4.099718e+00 -9.768592e+00 -7.195910e+00 -4.532361e+00 -1.688480e+00 3.126738e+00 -2.236752e+00 2.186623e-02 1.578081e+00 -1.448545e+00 -2.524404e-01 9.124523e-01 -2.238115e-02 9.234824e-01 -1.090106e-01 -4.712168e-01 2.963901e-01 -2.459425e-01 1.468685e-01 -9.222445e-01
<VARIANCE> 25
 3.749166e+00 3.025243e+01 3.308573e+01 2.177984e+01 3.344758e+01 4.211946e+01 3.210801e+01 1.400597e+01 2.765158e+01 4.261032e+01 1.182823e+01 2.930528e+01 6.963071e-01 2.187006e+00 1.180279e+00 1.025059e+00 1.421584e+00 2.370953e+00 1.542379e+00 1.460677e+00 8.511909e-01 1.685260e+00 6.199576e-01 1.280886e+00 1.114401e+00
<GCONST> 8.641416e+01
<TRANSP> 5
 0.000000e+00 1.000000e+00 0.000000e+00 0.000000e+00 0.000000e+00
 0.000000e+00 7.699495e-01 2.300505e-01 0.000000e+00 0.000000e+00
 0.000000e+00 0.000000e+00 7.319150e-01 2.680850e-01 0.000000e+00
 0.000000e+00 0.000000e+00 0.000000e+00 8.421898e-01 1.578102e-01
 0.000000e+00 0.000000e+00 0.000000e+00 0.000000e+00 0.000000e+00
<ENDHMM>
~h "d"
<BEGINHMM>
<NUMSTATES> 5
<STATE> 2
<MEAN> 25
 1.160663e+00 1.801989e+00 3.641901e+00 9.398844e+00 9.803951e+00 1.016198e+00 -6.705591e+00 -6.456957e+00 -3.852942e+00 -1.602926e+00 1.584371e+00 1.953015e+00 1.201080e+00 -3.355957e+00 -9.355796e-01 9.939642e-01 -4.566158e-01 -1.434187e+00 -1.812099e+00 -1.674329e+00 -1.838917e+00 -1.305078e+00 1.201846e+00 1.052884e+00 2.019245e+00
<VARIANCE> 25
 2.018136e+01 5.964956e+01 3.074190e+01 4.258264e+01 3.579283e+01 4.759279e+01 5.360302e+01 3.722208e+01 5.026821e+01 4.857930e+01 3.304603e+01 3.446788e+01 1.014942e+00 4.557112e+00 3.033115e+00 6.052820e+00 4.977117e+00 6.092992e+00 6.087143e+00 5.435508e+00 5.063515e+00 9.136774e+00 6.018346e+00 4.052112e+00 1.005271e+00
<GCONST> 1.084811e+02
<STATE> 3
<MEAN> 25
 4.604508e+00 -3.104841e+00 1.204127e+00 8.476181e+00 7.326846e+00 -1.739826e+00 -9.014030e+00 -8.650805e+00 -7.535409e+00 -4.959839e+00 2.356369e+00 2.549476e+00 3.560378e-01 -6.654464e-01 -2.548804e-01 -7.433891e-01 -1.478554e+00 -5.959621e-01 5.301378e-01 4.729744e-01 1.726437e-01 2.748732e-01 1.817199e-01 -1.289493e-01 5.237256e-01
<VARIANCE> 25
 1.074446e+01 3.420244e+01 3.157300e+01 4.164895e+01 3.955978e+01 4.190660e+01 6.357796e+01 3.176280e+01 4.741984e+01 6.723737e+01 3.538767e+01 3.964169e+01 4.151856e-01 2.834181e+00 1.913492e+00 2.937429e+00 3.521307e+00 2.426185e+00 6.293296e+00 2.997003e+00 3.634456e+00 4.309083e+00 3.340070e+00 3.450246e+00 4.994274e-01
<GCONST> 1.008453e+02
<STATE> 4
<MEAN> 25
 4.756941e+00 -2.773877e+00 1.151365e+00 5.317794e+00 2.263797e+00 -2.398187e+00 -4.816847e+00 -4.568533e+00 -5.897039e+00 -3.618577e+00 2.217609e+00 1.305848e+00 5.852601e-02 -2.395332e-01 -2.629748e-02 -7.819543e-01 -1.452239e+00 -3.646111e-01 1.020798e+00 1.335918e+00 8.070893e-01 5.258600e-02 -4.776542e-01 -4.782375e-01 1.356976e-01
<VARIANCE> 25
 1.233625e+01 5.048051e+01 3.904958e+01 4.768899e+01 4.642225e+01 2.785084e+01 6.252829e+01 3.949167e+01 4.304342e+01 6.755098e+01 5.021526e+01 4.296767e+01 8.427864e-02 1.061285e+00 7.767394e-01 1.621956e+00 1.568649e+00 2.024202e+00 2.481565e+00 1.483047e+00 1.469030e+00 1.523528e+00 1.855430e+00 1.450770e+00 1.486284e-01
<GCONST> 9.070356e+01
<TRANSP> 5
 0.000000e+00 1.000000e+00 0.000000e+00 0.000000e+00 0.000000e+00
 0.000000e+00 6.503004e-01 3.496996e-01 0.000000e+00 0.000000e+00
 0.000000e+00 0.000000e+00 5.175818e-01 4.824182e-01 0.000000e+00
 0.000000e+00 0.000000e+00 0.000000e+00 5.651290e-01 4.348710e-01
 0.000000e+00 0.000000e+00 0.000000e+00 0.000000e+00 0.000000e+00
<ENDHMM>
~h "e"
<BEGINHMM>
<NUMSTATES> 5
<STATE> 2
<MEAN> 25
 6.088845e+00 -6.660954e+00 1.527517e+00 9.061408e+00 2.352934e+00 -4.714284e+00 -9.759132e+00 -1.120744e+01 -4.809796e+00 -7.495126e-01 1.994432e+00 2.414221e+00 -5.462446e-02 1.322966e-01 -2.427976e-01 4.322085e-01 1.388420e-01 -4.455878e-01 1.099253e-01 1.706011e-01 9.725869e-02 2.985969e-01 -1.647670e-01 -1.951246e-01 -2.017588e-01
<VARIANCE> 25
 3.269235e+00 1.423692e+01 1.401599e+01 1.415219e+01 2.918597e+01 1.629931e+01 2.978064e+01 2.884027e+01 2.245707e+01 3.843366e+01 1.904799e+01 2.409572e+01 8.239695e-02 3.594128e-01 5.495997e-01 1.073301e+00 7.381185e-01 1.217064e+00 8.308825e-01 8.099813e-01 7.573353e-01 1.031826e+00 8.680111e-01 7.903885e-01 8.257908e-02
<GCONST> 7.321944e+01
<STATE> 3
<MEAN> 25
 3.902550e+00 -2.604334e+00 -1.866716e-02 1.128277e+01 6.393492e+00 -5.984925e+00 -1.192658e+01 -1.121683e+01 -3.178515e+00 3.944974e+00 1.936102e+00 -1.696510e+00 -7.374805e-01 1.458342e+00 9.765034e-02 2.292307e-01 4.652568e-01 -2.983851e-01 2.093168e-01 -1.303511e-01 2.347386e-01 1.016018e+00 -1.402333e-02 -5.667848e-02 -1.152885e+00
<VARIANCE> 25
 7.480268e+00 2.455793e+01 1.935406e+01 1.745311e+01 4.190404e+01 2.270617e+01 2.857847e+01 3.521214e+01 2.951957e+01 4.485905e+01 1.649673e+01 1.952389e+01 3.589149e-01 8.465818e-01 9.016327e-01 1.267602e+00 1.004505e+00 1.243726e+00 1.859137e+00 1.775918e+00 1.141171e+00 2.113790e+00 1.115922e+00 1.113807e+00 4.441523e-01
<GCONST> 8.436391e+01
<STATE> 4
<MEAN> 25
 -3.680251e+00 5.762856e+00 8.795777e-01 8.748308e+00 8.667045e+00 -5.417150e+00 -9.239985e+00 -7.401824e+00 1.787913e+00 9.230681e+00 2.841308e+00 -5.640119e-01 -1.055781e+00 5.903025e-01 -1.280909e-01 -1.063383e+00 -1.949954e-01 4.264392e-01 1.019130e+00 1.338682e+00 7.790259e-01 -5.262591e-02 -2.197486e-01 1.727263e-01 -9.566274e-01
<VARIANCE> 25
 2.096369e+01 2.804924e+01 2.351911e+01 3.261924e+01 3.015402e+01 2.917129e+01 3.647963e+01 5.317283e+01 3.976544e+01 4.890086e+01 2.970691e+01 1.971524e+01 2.868411e-01 1.054932e+00 8.013676e-01 1.638501e+00 2.042149e+00 1.862134e+00 2.459540e+00 1.810267e+00 2.062737e+00 3.016122e+00 2.078848e+00 1.142124e+00 2.792210e-01
<GCONST> 9.058491e+01
<TRANSP> 5
 0.000000e+00 1.000000e+00 0.000000e+00 0.000000e+00 0.000000e+00
 0.000000e+00 7.949442e-01 2.050558e-01 0.000000e+00 0.000000e+00
 0.000000e+00 0.000000e+00 7.335097e-01 2.664903e-01 0.000000e+00
 0.000000e+00 0.000000e+00 0.000000e+00 8.037703e-01 1.962297e-01
 0.000000e+00 0.000000e+00 0.000000e+00 0.000000e+00 0.000000e+00
<ENDHMM>
~h "g"
<BEGINHMM>
<NUMSTATES> 5
<STATE> 2
<MEAN> 25
 1.777211e+00 -5.255094e-02 -4.584848e+00 -1.816594e+00 1.918983e+00 5.909188e+00 3.920976e+00 -5.087597e+00 -7.803516e+00 -2.616685e-01 3.324591e+00 7.440681e-01 1.870729e+00 -2.822269e+00 -3.156603e-01 4.701596e-01 -2.039655e-01 3.324610e-01 -1.179968e+00 -1.982925e+00 -1.656712e+00 -6.955827e-01 5.783862e-01 -2.228274e-01 2.462685e+00
<VARIANCE> 25
 2.490404e+01 8.462505e+01 3.027313e+01 3.788261e+01 3.903197e+01 4.755813e+01 4.405534e+01 5.133312e+01 3.783313e+01 1.941277e+01 3.249925e+01 1.102776e+01 1.861955e+00 7.151679e+00 4.741731e+00 4.289178e+00 3.710292e+00 8.363418e+00 7.184990e+00 3.270789e+00 4.741008e+00 2.627996e+00 3.264623e+00 2.477481e+00 2.027901e+00
<GCONST> 1.058891e+02
<STATE> 3
<MEAN> 25
 9.100302e+00 -6.150715e+00 -5.910728e+00 1.359266e+00 2.474561e-01 -1.841623e+00 -1.650817e+00 -8.553030e+00 -1.125047e+01 5.981331e-01 5.118251e+00 -1.469562e+00 8.645161e-01 -1.275990e+00 -5.079294e-01 -8.071222e-01 -8.663890e-01 -1.394581e+00 -1.018599e+00 1.234452e+00 1.029862e+00 1.017331e-01 1.078198e+00 6.102580e-01 1.259155e+00
<VARIANCE> 25
 7.552592e+00 1.947792e+01 1.411786e+01 1.857680e+01 9.733869e+00 1.555882e+01 2.885747e+01 2.686443e+01 2.204655e+01 4.619570e+01 3.449048e+01 2.566728e+01 4.118044e-01 1.298920e+00 1.298330e+00 1.950144e+00 8.785602e-01 4.671097e+00 4.911254e+00 5.093729e+00 3.200843e+00 4.775382e+00 3.097859e+00 2.219485e+00 5.255226e-01
<GCONST> 9.083909e+01
<STATE> 4
<MEAN> 25
 1.061129e+01 -7.796128e+00 -7.423223e+00 -3.743036e+00 -2.292538e+00 -7.822646e-01 -5.644661e-01 -3.454817e+00 -4.208959e+00 -5.399788e-01 5.460650e+00 5.393406e+00 8.215916e-02 4.033416e-02 -4.972398e-01 -6.636571e-01 -4.278369e-01 -6.256424e-02 6.624064e-01 7.929235e-01 1.118647e+00 -1.291720e-02 -5.094894e-01 7.680021e-01 2.046344e-02
<VARIANCE> 25
 5.669288e+00 1.189067e+01 1.535236e+01 2.539163e+01 1.684618e+01 1.309328e+01 4.055506e+01 1.896192e+01 3.109161e+01 3.607997e+01 3.867311e+01 4.119357e+01 1.698691e-01 7.968442e-01 1.009459e+00 9.028356e-01 1.058859e+00 9.852164e-01 2.170884e+00 1.425031e+00 1.994026e+00 2.826015e+00 1.244232e+00 1.354543e+00 2.918120e-01
<GCONST> 8.265923e+01
<TRANSP> 5
 0.000000e+00 1.000000e+00 0.000000e+00 0.000000e+00 0.000000e+00
 0.000000e+00 7.471806e-01 2.528194e-01 0.000000e+00 0.000000e+00
 0.000000e+00 0.000000e+00 6.587947e-01 3.412053e-01 0.000000e+00
 0.000000e+00 0.000000e+00 0.000000e+00 7.787998e-01 2.212002e-01
 0.000000e+00 0.000000e+00 0.000000e+00 0.000000e+00 0.000000e+00
<ENDHMM>
~h "h"
<BEGINHMM>
<NUMSTATES> 5
<STATE> 2
<MEAN> 25
 5.100770e+00 1.327087e+01 3.131547e+00 -2.759174e+00 -7.644056e+00 -1.027264e+01 1.477576e+00 5.987471e+00 8.866839e-01 -2.910502e+00 -5.444734e+00 -6.546760e+00 5.025889e-01 -2.492817e-01 -5.269362e-01 -3.403401e-01 -6.660376e-01 -1.353940e+00 -5.508067e-01 4.752295e-01 2.270439e-01 -3.836804e-01 -3.435998e-01 -8.659110e-02 4.178977e-01
<VARIANCE> 25
 6.760191e+00 1.744688e+01 2.508854e+01 1.567818e+01 4.527184e+01 5.310976e+01 4.656187e+01 2.518087e+01 2.793034e+01 2.633838e+01 2.903315e+01 1.443627e+01 3.065358e-01 2.009197e+00 9.835544e-01 1.256455e+00 1.371737e+00 2.462581e+00 4.246405e+00 1.426028e+00 1.476721e+00 2.141190e+00 1.623913e+00 1.756733e+00 1.720649e-01
<GCONST> 8.736755e+01
<STATE> 3
<MEAN> 25
 6.946535e+00 3.105642e+00 -5.755475e+00 -5.830374e+00 -1.288685e+01 -1.182549e+01 7.567421e+00 8.796438e+00 -2.287565e+00 -6.135989e+00 -5.882468e+00 -8.342885e-01 -3.408542e-02 -2.594785e+00 -1.715433e+00 -2.379625e-01 1.500686e-02 1.879681e+00 1.712504e+00 -6.881292e-01 -2.387548e-01 6.014112e-01 3.764437e-01 1.409216e+00 6.465114e-01
<VARIANCE> 25
 5.436779e+00 3.036202e+01 2.970078e+01 1.894118e+01 3.457397e+01 3.469730e+01 5.243656e+01 3.126665e+01 2.370808e+01 3.332529e+01 3.218555e+01 2.168641e+01 5.501559e-01 2.533912e+00 1.502201e+00 1.309837e+00 2.344493e+00 3.490401e+00 4.612097e+00 3.163192e+00 2.849568e+00 3.326529e+00 3.822053e+00 2.134177e+00 9.176869e-01
<GCONST> 9.515153e+01
<STATE> 4
<MEAN> 25
 6.459125e+00 -7.944076e+00 -9.993871e+00 -5.672281e+00 -9.075038e+00 3.256988e-01 1.016450e+01 2.660186e+00 2.922071e+00 -1.156700e-01 -4.939272e+00 1.289448e+00 -5.005774e-02 -5.442597e-01 -2.084891e-02 3.286389e-01 1.216253e+00 1.442620e+00 -5.113312e-01 -9.290861e-01 6.981779e-01 8.182157e-01 4.369325e-01 8.592715e-02 1.750259e-01
<VARIANCE> 25
 4.397739e+00 1.743459e+01 2.298305e+01 1.994631e+01 2.589124e+01 3.362478e+01 3.107472e+01 2.394061e+01 2.369760e+01 4.323696e+01 2.428070e+01 1.188706e+01 2.292237e-01 1.354448e+00 1.902608e+00 6.710793e-01 2.605591e+00 1.749771e+00 1.145321e+00 1.514394e+00 1.113425e+00 1.217641e+00 1.174225e+00 1.245834e+00 2.478183e-01
<GCONST> 8.282485e+01
<TRANSP> 5
 0.000000e+00 1.000000e+00 0.000000e+00 0.000000e+00 0.000000e+00
 0.000000e+00 9.002218e-01 9.977822e-02 0.000000e+00 0.000000e+00
 0.000000e+00 0.000000e+00 7.724692e-01 2.275309e-01 0.000000e+00
 0.000000e+00 0.000000e+00 0.000000e+00 7.307843e-01 2.692157e-01
 0.000000e+00 0.000000e+00 0.000000e+00 0.000000e+00 0.000000e+00
<ENDHMM>
~h "i"
<BEGINHMM>
<NUMSTATES> 5
<STATE> 2
<MEAN> 25
 3.064512e+00 -7.918355e+00 6.174361e+00 1.552580e+01 5.337059e+00 -6.227323e+00 -1.344404e+01 -9.497345e+00 -2.148264e+00 -4.935264e-01 -1.258766e+00 -3.505256e+00 1.599732e-01 -4.126922e-01 1.107960e+00 2.298193e+00 4.578997e-01 -1.691821e+00 -9.442418e-01 -5.872585e-02 -1.555699e-01 1.735198e-01 -2.566772e-01 -9.997208e-01 3.553249e-01
<VARIANCE> 25
 1.212000e+01 3.079515e+01 6.048618e+01 4.322275e+01 4.027536e+01 5.162576e+01 4.394849e+01 3.204595e+01 3.160586e+01 3.140971e+01 3.562011e+01 3.127815e+01 1.249122e+00 3.159082e+00 1.998937e+00 6.040106e+00 2.583384e+00 4.937826e+00 3.502654e+00 3.325620e+00 2.503908e+00 2.713077e+00 2.174568e+00 2.653084e+00 1.598092e+00
<GCONST> 1.015464e+02
<STATE> 3
<MEAN> 25
 -6.343623e-01 -7.273175e-01 8.114972e+00 1.658325e+01 7.763885e+00 -6.038993e+00 -1.105106e+01 -6.787152e+00 3.841013e-01 1.920943e+00 -2.021463e+00 -3.740002e+00 -9.325745e-01 1.667846e+00 -3.192997e-01 -9.629487e-01 3.969786e-01 5.743070e-01 8.224920e-01 5.265810e-01 4.566577e-01 8.271859e-01 2.895033e-01 3.049618e-01 -1.353797e+00
<VARIANCE> 25
 1.649888e+01 3.789292e+01 3.865179e+01 3.444825e+01 3.432207e+01 4.100452e+01 4.419244e+01 3.173683e+01 3.055723e+01 2.471990e+01 2.969077e+01 2.550670e+01 5.273270e-01 1.223204e+00 1.537809e+00 1.866684e+00 1.459321e+00 2.376005e+00 2.137506e+00 1.507799e+00 1.843009e+00 1.997893e+00 1.746922e+00 1.507233e+00 6.305485e-01
<GCONST> 9.217172e+01
<STATE> 4
<MEAN> 25
 -4.204162e+00 2.996662e+00 4.857661e+00 8.735999e+00 6.607687e+00 -2.371899e+00 -6.793060e+00 -5.152309e+00 1.552430e+00 5.050514e+00 1.146953e-01 -1.785122e+00 -6.090533e-01 -2.529801e-01 -9.496796e-01 -2.043482e+00 -6.661345e-01 1.441213e+00 1.160877e+00 2.661554e-01 2.691693e-02 2.162666e-02 4.596374e-01 7.699644e-01 -3.965558e-01
<VARIANCE> 25
 3.348675e+01 4.936774e+01 2.384942e+01 3.028556e+01 2.665677e+01 4.370881e+01 5.277665e+01 3.777097e+01 2.860539e+01 3.118606e+01 2.124827e+01 2.545262e+01 6.052119e-01 2.960717e+00 1.837121e+00 1.894131e+00 2.195984e+00 3.042629e+00 3.522484e+00 3.138257e+00 2.354822e+00 2.341505e+00 2.394500e+00 1.761412e+00 6.821119e-01
<GCONST> 9.658106e+01
<TRANSP> 5
 0.000000e+00 1.000000e+00 0.000000e+00 0.000000e+00 0.000000e+00
 0.000000e+00 6.405399e-01 3.594601e-01 0.000000e+00 0.000000e+00
 0.000000e+00 0.000000e+00 7.890765e-01 2.109235e-01 0.000000e+00
 0.000000e+00 0.000000e+00 0.000000e+00 6.398968e-01 3.601033e-01
 0.000000e+00 0.000000e+00 0.000000e+00 0.000000e+00 0.000000e+00
<ENDHMM>
~h "j"
<BEGINHMM>
<NUMSTATES> 5
<STATE> 2
<MEAN> 25
 -2.822287e+00 1.389249e+00 6.716890e+00 1.992399e+00 1.921808e+00 6.005329e+00 -3.135508e+00 -4.755063e+00 3.888509e+00 4.264979e+00 5.511773e-01 -2.882072e-01 -1.069217e+00 -2.306446e+00 3.062167e+00 1.163009e-01 -1.411288e+00 2.051595e+00 -4.306904e-01 -6.254545e-01 4.181973e-01 -5.967444e-01 -5.746071e-01 -2.293881e-01 7.123411e-01
<VARIANCE> 25
 2.511316e+01 9.827537e+01 4.976944e+01 3.023893e+01 5.546280e+01 4.709017e+01 4.005609e+01 3.913280e+01 3.337844e+01 1.947160e+01 3.131883e+01 1.645886e+01 1.325208e+00 1.459905e+01 6.226888e+00 3.148786e+00 6.076488e+00 3.980774e+00 5.747590e+00 6.807927e+00 3.094400e+00 3.326881e+00 2.070394e+00 1.962185e+00 3.239402e+00
<GCONST> 1.067216e+02
<STATE> 3
<MEAN> 25
 -6.867091e+00 -9.389550e+00 2.188839e+01 3.578051e+00 -5.143517e+00 1.154886e+01 -7.237722e+00 -6.801275e+00 3.477568e+00 2.714909e-01 8.281828e-01 -1.179399e+00 1.884982e+00 -1.603364e+00 4.337353e-01 2.365852e+00 4.503852e-01 -1.790605e+00 -2.977038e+00 -2.460485e+00 -2.346941e+00 -1.199386e+00 7.923366e-01 -4.235314e-01 1.974754e+00
<VARIANCE> 25
 1.591721e+01 3.873186e+01 3.624641e+01 3.835363e+01 2.169674e+01 3.424976e+01 4.359090e+01 4.140528e+01 3.349958e+01 2.309977e+01 2.440009e+01 1.927912e+01 2.369732e+00 1.102883e+01 5.811465e+00 2.763047e+00 4.255890e+00 4.614330e+00 4.195777e+00 2.073698e+00 3.660783e+00 3.158450e+00 2.981657e+00 2.482311e+00 1.431136e+00
<GCONST> 1.025105e+02
<STATE> 4
<MEAN> 25
 2.010094e+00 -7.260223e+00 1.323098e+01 9.623787e+00 9.988309e-01 2.521313e+00 -1.303944e+01 -1.230931e+01 -3.362356e+00 -1.236025e+00 2.442411e+00 -1.551535e+00 3.323333e+00 2.261287e-01 -3.955728e+00 1.675117e+00 2.323356e+00 -3.121457e+00 -1.255899e+00 -1.309513e+00 -2.611034e+00 -5.995263e-01 5.870063e-01 -8.219286e-01 1.534509e+00
<VARIANCE> 25
 1.197555e+01 1.003816e+01 3.138180e+01 2.533788e+01 1.309573e+01 3.149919e+01 3.464994e+01 3.586728e+01 3.894111e+01 1.990404e+01 2.045851e+01 1.896279e+01 1.140340e+00 4.191154e+00 4.047326e+00 2.712328e+00 2.552415e+00 6.986052e+00 3.366273e+00 4.776040e+00 3.629687e+00 3.176965e+00 3.726210e+00 4.579964e+00 6.649798e-01
<GCONST> 9.766865e+01
<TRANSP> 5
 0.000000e+00 1.000000e+00 0.000000e+00 0.000000e+00 0.000000e+00
 0.000000e+00 7.608081e-01 2.391919e-01 0.000000e+00 0.000000e+00
 0.000000e+00 0.000000e+00 4.359291e-01 5.640710e-01 0.000000e+00
 0.000000e+00 0.000000e+00 0.000000e+00 3.364898e-01 6.635101e-01
 0.000000e+00 0.000000e+00 0.000000e+00 0.000000e+00 0.000000e+00
<ENDHMM>
~h "k"
<BEGINHMM>
<NUMSTATES> 5
<STATE> 2
<MEAN> 25
 -4.688179e+00 -1.873985e+00 -1.379636e-02 -5.295286e+00 -2.676537e+00 5.242292e+00 5.918629e-01 -2.260642e+00 -1.423459e+00 -1.050363e-01 2.443375e+00 2.013466e+00 1.340267e+00 -3.446741e+00 -8.766732e-01 -2.061232e+00 -1.999502e+00 2.234780e+00 1.218099e+00 -8.203971e-01 -1.877025e+00 -1.620731e+00 6.229332e-01 5.781948e-01 2.361579e+00
<VARIANCE> 25
 1.778724e+01 9.313913e+01 4.601887e+01 6.792542e+01 6.668889e+01 7.878972e+01 1.029830e+02 8.035227e+01 4.789758e+01 5.657653e+01 3.012569e+01 3.975941e+01 2.661277e+00 5.028797e+00 5.302998e+00 4.859952e+00 4.548563e+00 8.885370e+00 6.406941e+00 4.518433e+00 4.012615e+00 4.836411e+00 3.443394e+00 3.009047e+00 1.703142e+00
<GCONST> 1.127319e+02
<STATE> 3
<MEAN> 25
 3.736205e+00 -8.136470e+00 -2.801969e+00 -4.670997e+00 -6.503866e+00 2.224452e+00 1.053001e+00 -4.759874e+00 -5.534046e+00 -1.427627e+00 4.045736e+00 3.179827e+00 2.901818e+00 -1.365172e+00 -1.464520e+00 1.093135e+00 -5.564401e-01 -2.780948e+00 6.060622e-03 3.110137e-01 2.532080e-01 6.142135e-01 3.411039e-01 2.440318e-01 2.472498e+00
<VARIANCE> 25
 2.424890e+01 4.727139e+01 3.041142e+01 4.412148e+01 4.681756e+01 5.538327e+01 6.591779e+01 6.380045e+01 3.519345e+01 4.637482e+01 3.525421e+01 2.507770e+01 1.248470e+00 3.997789e+00 3.785711e+00 3.410796e+00 4.137457e+00 5.279116e+00 7.020988e+00 7.815018e+00 4.983591e+00 7.139871e+00 3.882634e+00 4.075781e+00 9.462072e-01
<GCONST> 1.081126e+02
<STATE> 4
<MEAN> 25
 7.983937e+00 -1.298332e+01 -7.015691e+00 -3.940897e+00 -6.382020e+00 -1.509528e+00 1.964442e+00 -2.755734e+00 -1.761112e+00 2.216999e+00 5.380606e+00 3.261407e+00 4.164111e-01 -3.610903e-01 -8.471794e-01 -2.464897e-01 -1.128574e-02 -2.268026e-01 1.027752e+00 1.335337e+00 8.597710e-01 1.542594e-01 -6.888551e-02 7.951005e-02 3.811722e-01
<VARIANCE> 25
 7.261734e+00 2.962541e+01 1.286011e+01 1.830749e+01 2.388059e+01 3.134813e+01 3.801610e+01 3.335791e+01 4.006814e+01 4.280699e+01 3.114110e+01 2.820388e+01 3.578774e-01 1.713183e+00 1.163296e+00 1.627964e+00 2.363012e+00 2.181521e+00 2.782100e+00 2.431467e+00 2.117610e+00 2.552251e+00 1.897117e+00 1.641211e+00 5.400274e-01
<GCONST> 9.067636e+01
<TRANSP> 5
 0.000000e+00 1.000000e+00 0.000000e+00 0.000000e+00 0.000000e+00
 0.000000e+00 6.557555e-01 3.442445e-01 0.000000e+00 0.000000e+00
 0.000000e+00 0.000000e+00 6.127408e-01 3.872593e-01 0.000000e+00
 0.000000e+00 0.000000e+00 0.000000e+00 5.860276e-01 4.139724e-01
 0.000000e+00 0.000000e+00 0.000000e+00 0.000000e+00 0.000000e+00
<ENDHMM>
~h "l"
<BEGINHMM>
<NUMSTATES> 5
<STATE> 2
<MEAN> 25
 6.718822e+00 -4.188478e+00 -5.438044e+00 -2.256110e+00 -4.533589e+00 -3.245836e+00 4.504549e+00 2.859870e+00 -3.917940e+00 -3.096588e+00 8.349449e-01 8.072509e-01 2.354066e-01 -5.630568e-01 -5.194448e-01 -6.788216e-01 -9.773928e-01 -1.152047e-01 1.251047e+00 6.926143e-01 3.103331e-02 1.859868e-01 3.656415e-01 2.009720e-01 3.717709e-01
<VARIANCE> 25
 5.741217e+00 1.645079e+01 1.419382e+01 2.461015e+01 2.401787e+01 3.721326e+01 3.373061e+01 4.525838e+01 3.238828e+01 3.744805e+01 3.600968e+01 3.339748e+01 1.228944e-01 1.803842e+00 8.074064e-01 1.248097e+00 1.779061e+00 2.093434e+00 1.977682e+00 1.911014e+00 2.037191e+00 2.303902e+00 2.749608e+00 1.512891e+00 3.597510e-01
<GCONST> 8.776516e+01
<STATE> 3
<MEAN> 25
 6.686366e+00 -9.818320e+00 -5.447412e+00 -6.089054e+00 -9.383280e+00 1.143105e+00 9.127201e+00 3.095364e+00 3.330466e-01 -1.215468e+00 2.971170e-02 2.942544e+00 -1.311390e-01 -6.451231e-01 2.252826e-01 -4.574339e-02 -1.564874e-01 4.494915e-01 -5.113314e-02 6.820113e-03 4.880173e-01 -1.143640e-01 -2.917645e-01 3.717109e-02 2.103268e-01
<VARIANCE> 25
 4.705481e+00 2.858935e+01 1.359274e+01 2.042308e+01 3.614095e+01 3.917872e+01 2.331188e+01 4.264412e+01 3.894458e+01 4.327482e+01 3.146863e+01 2.837631e+01 1.175654e-01 2.340826e+00 7.201502e-01 1.354712e+00 1.637875e+00 2.241923e+00 1.752096e+00 1.575076e+00 1.764252e+00 1.767465e+00 1.436872e+00 1.318176e+00 4.701382e-01
<GCONST> 8.687871e+01
<STATE> 4
<MEAN> 25
 6.092177e+00 -7.524678e+00 -5.011054e+00 -4.334290e+00 -8.012698e+00 8.499941e-02 7.966327e+00 4.298414e+00 4.797256e-01 -2.135104e+00 -1.630412e+00 1.015075e+00 -3.489460e-01 1.855326e+00 3.135995e-01 3.315664e-01 7.192748e-01 -6.225846e-01 -5.299618e-01 2.922615e-01 1.684611e-02 3.040160e-01 -2.327839e-01 -7.256009e-01 -1.016568e+00
<VARIANCE> 25
 5.767211e+00 2.524612e+01 1.329253e+01 1.539063e+01 2.700835e+01 3.675552e+01 2.504511e+01 4.394320e+01 2.720921e+01 3.035266e+01 3.292379e+01 1.893518e+01 2.608483e-01 1.471305e+00 1.101549e+00 1.141935e+00 1.720085e+00 1.799753e+00 1.358437e+00 1.642377e+00 1.225292e+00 1.569414e+00 1.332633e+00 1.742697e+00 3.974687e-01
<GCONST> 8.508253e+01
<TRANSP> 5
 0.000000e+00 1.000000e+00 0.000000e+00 0.000000e+00 0.000000e+00
 0.000000e+00 8.085251e-01 1.914749e-01 0.000000e+00 0.000000e+00
 0.000000e+00 0.000000e+00 7.210051e-01 2.789949e-01 0.000000e+00
 0.000000e+00 0.000000e+00 0.000000e+00 4.055619e-01 5.944381e-01
 0.000000e+00 0.000000e+00 0.000000e+00 0.000000e+00 0.000000e+00
<ENDHMM>
~h "m"
<BEGINHMM>
<NUMSTATES> 5
<STATE> 2
<MEAN> 25
 4.497409e-01 6.008434e+00 2.007035e+00 6.117373e-01 2.694481e+00 3.382156e+00 5.040397e+00 6.192441e+00 1.782100e+00 -2.119346e+00 -5.019104e+00 -5.689696e+00 -5.876475e-01 9.337208e-01 5.556597e-01 3.307741e-01 9.513391e-01 6.459610e-01 -6.109363e-02 -2.053308e-01 1.434081e-01 1.828849e-01 -1.777073e-01 -4.190267e-02 -7.063547e-01
<VARIANCE> 25
 1.840690e+01 1.949486e+01 1.317542e+01 1.634339e+01 1.643988e+01 2.815066e+01 1.899482e+01 1.909656e+01 2.128131e+01 3.132705e+01 2.304625e+01 1.641184e+01 2.113488e+00 1.095213e+00 9.801250e-01 1.547834e+00 1.520205e+00 2.438456e+00 1.656689e+00 2.269016e+00 2.090366e+00 2.929832e+00 3.021955e+00 2.357565e+00 1.177351e+00
<GCONST> 8.950028e+01
<STATE> 3
<MEAN> 25
 -2.571732e+00 7.188284e+00 2.038060e+00 1.464118e-01 5.288177e+00 5.764284e+00 3.599790e+00 2.862597e+00 2.019275e+00 -3.807629e-01 -4.549574e+00 -3.751141e+00 6.249414e-01 -1.085178e+00 -4.740303e-01 -8.813074e-01 -9.482422e-01 6.706396e-02 -7.396168e-01 -1.052471e+00 -4.442097e-01 -5.362642e-01 1.359422e-01 7.987790e-01 8.665062e-01
<VARIANCE> 25
 2.433163e+01 2.700221e+01 2.188396e+01 2.275670e+01 2.377840e+01 3.382670e+01 2.428020e+01 3.012494e+01 2.314454e+01 4.094693e+01 4.249347e+01 2.790953e+01 4.788000e+00 2.842130e+00 1.195114e+00 1.323930e+00 1.935016e+00 2.622447e+00 2.633741e+00 2.798461e+00 2.624388e+00 2.905423e+00 3.649254e+00 2.053057e+00 2.128051e+00
<GCONST> 9.735433e+01
<STATE> 4
<MEAN> 25
 2.515700e+00 1.534789e+00 -2.610495e+00 -4.525537e+00 -1.138361e+00 2.811333e+00 3.598413e+00 3.044138e+00 4.953350e-01 -3.039417e+00 -3.615665e+00 -8.386689e-01 1.572940e+00 -2.249783e+00 -1.412101e+00 -1.081785e+00 -2.285275e+00 -1.082131e+00 4.320368e-01 -3.231284e-02 -6.275998e-01 -5.202919e-01 1.065443e+00 1.658952e+00 1.869676e+00
<VARIANCE> 25
 3.270387e+01 3.875200e+01 2.994729e+01 2.541982e+01 3.391484e+01 3.637519e+01 4.235267e+01 3.952844e+01 2.905879e+01 2.473301e+01 3.354836e+01 2.460044e+01 2.363747e+00 4.672137e+00 3.031988e+00 2.614892e+00 2.985465e+00 4.433786e+00 5.294673e+00 4.872546e+00 2.375540e+00 4.247344e+00 2.788369e+00 3.339298e+00 1.499025e+00
<GCONST> 1.028138e+02
<TRANSP> 5
 0.000000e+00 1.000000e+00 0.000000e+00 0.000000e+00 0.000000e+00
 0.000000e+00 7.309319e-01 2.690681e-01 0.000000e+00 0.000000e+00
 0.000000e+00 0.000000e+00 4.636268e-01 5.363731e-01 0.000000e+00
 0.000000e+00 0.000000e+00 0.000000e+00 4.943163e-01 5.056837e-01
 0.000000e+00 0.000000e+00 0.000000e+00 0.000000e+00 0.000000e+00
<ENDHMM>
~h "n"
<BEGINHMM>
<NUMSTATES> 5
<STATE> 2
<MEAN> 25
 5.250003e+00 1.081493e+00 -2.203167e+00 2.646538e+00 5.243317e+00 1.212606e+00 -1.110618e+00 1.152888e-01 -2.223559e+00 -3.278537e+00 -2.630220e+00 -2.566803e+00 -3.305061e-01 1.420411e+00 6.131203e-01 2.684971e-01 8.396361e-01 4.420475e-01 -1.991445e-01 1.731443e-01 1.634324e-01 -7.282916e-01 -1.403889e+00 -6.046872e-01 -7.196315e-01
<VARIANCE> 25
 7.610608e+00 2.630434e+01 1.405516e+01 1.689427e+01 2.402147e+01 2.146162e+01 1.953877e+01 2.695536e+01 1.693368e+01 2.635912e+01 1.914031e+01 1.752551e+01 6.966176e-01 9.480291e-01 1.287145e+00 1.256179e+00 1.063861e+00 1.541721e+00 1.610918e+00 1.640777e+00 2.094292e+00 1.675849e+00 2.020001e+00 2.205880e+00 4.716372e-01
<GCONST> 8.467514e+01
<STATE> 3
<MEAN> 25
 3.411213e+00 5.293324e+00 3.043496e-01 2.600596e+00 6.291096e+00 2.090364e+00 -1.682516e+00 -1.382805e-01 -1.264038e+00 -3.982956e+00 -4.937451e+00 -2.445050e+00 -5.358266e-01 6.323272e-01 6.077468e-01 -1.955356e-01 -2.986194e-01 8.402009e-02 2.815521e-01 1.684270e-01 1.549048e-01 4.879353e-02 1.899681e-01 4.103317e-01 -5.061427e-01
<VARIANCE> 25
 7.724642e+00 3.311550e+01 2.205093e+01 2.146224e+01 3.096152e+01 2.211976e+01 2.808118e+01 2.842286e+01 2.576104e+01 2.704473e+01 2.336812e+01 2.145722e+01 9.882702e-01 9.516110e-01 1.363081e+00 1.099233e+00 9.775482e-01 1.666512e+00 1.402827e+00 1.595819e+00 2.073364e+00 2.175662e+00 2.171441e+00 1.248154e+00 7.121474e-01
<GCONST> 8.742724e+01
<STATE> 4
<MEAN> 25
 2.008169e+00 4.742640e+00 6.087281e-01 1.223691e+00 2.991062e+00 2.052838e+00 1.486216e+00 1.027753e-01 -1.918715e+00 -3.078936e+00 -2.624547e+00 1.182887e-01 -3.699100e-01 -1.646145e+00 1.337450e-01 -7.142724e-01 -1.660617e+00 5.066814e-01 9.693797e-01 -2.374143e-01 9.637024e-02 8.500379e-01 1.236130e+00 7.622700e-01 4.365465e-01
<VARIANCE> 25
 1.808697e+01 3.637631e+01 4.138149e+01 3.181346e+01 4.531902e+01 3.575395e+01 4.061279e+01 2.465053e+01 3.951748e+01 3.215355e+01 2.814571e+01 2.135671e+01 2.600958e+00 4.284025e+00 6.352202e+00 2.675249e+00 3.599132e+00 5.689204e+00 3.280862e+00 3.330627e+00 3.083191e+00 2.743194e+00 3.367729e+00 2.296484e+00 1.877487e+00
<GCONST> 1.029288e+02
<TRANSP> 5
 0.000000e+00 1.000000e+00 0.000000e+00 0.000000e+00 0.000000e+00
 0.000000e+00 6.014016e-01 3.985984e-01 0.000000e+00 0.000000e+00
 0.000000e+00 0.000000e+00 5.523782e-01 4.476219e-01 0.000000e+00
 0.000000e+00 0.000000e+00 0.000000e+00 4.821785e-01 5.178215e-01
 0.000000e+00 0.000000e+00 0.000000e+00 0.000000e+00 0.000000e+00
<ENDHMM>
~h "p"
<BEGINHMM>
<NUMSTATES> 5
<STATE> 2
<MEAN> 25
 -1.136448e+00 6.238925e+00 3.023339e+00 -1.922633e+00 -2.313981e+00 -1.930525e+00 -3.266282e+00 -3.402193e+00 -1.020518e+00 -7.976147e-02 1.481331e-01 1.102806e+00 1.668355e+00 1.629187e+00 1.368961e+00 6.173337e-01 -1.541907e+00 -3.219565e+00 -1.505469e+00 -2.690684e-01 -2.483333e-01 5.026313e-02 -1.404601e-01 -7.928624e-01 8.733167e-01
<VARIANCE> 25
 2.372177e+01 4.312821e+01 2.437109e+01 1.620408e+01 3.379830e+01 6.001003e+01 3.497956e+01 2.932892e+01 3.004803e+01 2.773723e+01 1.820058e+01 1.763994e+01 2.367894e+00 4.954777e+00 2.671363e+00 2.288931e+00 4.834992e+00 8.733717e+00 3.864074e+00 3.455495e+00 3.579970e+00 2.776826e+00 3.277633e+00 2.643237e+00 8.784034e-01
<GCONST> 1.008355e+02
<STATE> 3
<MEAN> 25
 3.323535e+00 9.844334e+00 6.452280e+00 9.739377e-01 -5.783434e+00 -1.237828e+01 -7.104571e+00 1.993340e-01 1.122453e+00 -4.897616e-01 -1.608660e+00 -2.779060e+00 8.598019e-02 -2.092754e-01 2.170548e-01 2.491515e-01 -2.859728e-01 -5.953365e-01 -1.051772e-01 5.735713e-01 4.716096e-01 2.841210e-02 -2.452505e-01 -4.410673e-01 1.793844e-01
<VARIANCE> 25
 1.424124e+01 1.944327e+01 2.585317e+01 2.347397e+01 4.640569e+01 3.929441e+01 4.267891e+01 3.507401e+01 3.671827e+01 3.051078e+01 2.938622e+01 2.763990e+01 5.220005e-01 1.164692e+00 1.087281e+00 1.206039e+00 1.733598e+00 2.661438e+00 1.720662e+00 2.553379e+00 1.837837e+00 1.929091e+00 2.081742e+00 1.639060e+00 4.073102e-01
<GCONST> 9.089709e+01
<STATE> 4
<MEAN> 25
 1.430676e+00 6.762418e+00 4.817804e+00 -3.529700e-01 -4.973177e+00 -7.804344e+00 -5.035567e+00 -7.839943e-01 1.062463e+00 -2.622712e-01 -1.984563e+00 -1.847536e+00 3.368045e-01 -1.058948e+00 -6.235271e-01 2.629578e-01 8.975261e-01 1.044107e+00 -6.412493e-02 -5.244002e-01 -4.851053e-01 -7.865741e-01 -5.477472e-01 -1.067335e-02 5.428599e-01
<VARIANCE> 25
 2.069166e+01 4.154483e+01 3.989724e+01 2.311450e+01 6.666883e+01 9.211150e+01 7.172369e+01 6.143573e+01 4.858322e+01 4.550916e+01 5.165618e+01 4.421966e+01 1.792660e+00 3.005909e+00 2.441438e+00 3.134006e+00 4.096497e+00 4.535353e+00 4.964635e+00 5.136338e+00 3.739532e+00 3.642841e+00 2.319199e+00 2.477334e+00 1.752747e+00
<GCONST> 1.068799e+02
<TRANSP> 5
 0.000000e+00 1.000000e+00 0.000000e+00 0.000000e+00 0.000000e+00
 0.000000e+00 5.959634e-01 4.040365e-01 0.000000e+00 0.000000e+00
 0.000000e+00 0.000000e+00 6.610786e-01 3.389213e-01 0.000000e+00
 0.000000e+00 0.000000e+00 0.000000e+00 4.022208e-01 5.977792e-01
 0.000000e+00 0.000000e+00 0.000000e+00 0.000000e+00 0.000000e+00
<ENDHMM>
~h "r"
<BEGINHMM>
<NUMSTATES> 5
<STATE> 2
<MEAN> 25
 6.546270e+00 -8.030853e-01 -6.955843e+00 -3.118640e+00 2.715628e+00 9.031214e-01 -2.822187e+00 -1.926239e+00 -1.664302e+00 -5.934421e+00 -1.241199e+00 5.674583e+00 4.429129e-01 1.907867e-01 -1.081512e+00 -7.653205e-01 4.640147e-01 1.239063e-01 -1.548159e-01 2.846491e-01 -3.682491e-03 -4.810533e-01 2.160829e-01 5.771287e-01 1.382914e-01
<VARIANCE> 25
 1.724872e+01 3.623392e+01 2.730623e+01 3.242694e+01 2.537243e+01 5.126343e+01 3.769109e+01 3.914644e+01 3.827417e+01 3.188622e+01 4.419193e+01 3.064469e+01 7.225046e-01 1.771359e+00 1.546342e+00 1.583016e+00 1.972917e+00 3.936028e+00 3.182667e+00 3.516200e+00 3.059247e+00 3.099614e+00 3.109379e+00 2.481889e+00 7.404299e-01
<GCONST> 9.755518e+01
<STATE> 3
<MEAN> 25
 6.511369e+00 8.192142e-01 -7.904563e+00 -5.074179e+00 2.770773e+00 2.339599e+00 -1.867595e+00 -2.017003e+00 -8.755129e-01 -4.741445e+00 -2.631773e+00 3.978945e+00 -4.469686e-01 3.637494e-01 5.884487e-01 4.768511e-01 1.749579e-01 6.063280e-02 4.427133e-01 6.915890e-02 -2.992785e-01 5.497879e-01 4.665741e-02 -8.679917e-01 -4.106060e-01
<VARIANCE> 25
 1.907733e+01 4.148065e+01 2.739298e+01 2.265624e+01 2.484023e+01 3.683487e+01 3.470162e+01 4.271285e+01 4.920877e+01 3.111633e+01 5.381573e+01 3.933223e+01 3.590647e-01 2.018431e+00 1.530618e+00 1.541642e+00 1.785877e+00 2.986966e+00 2.841151e+00 2.007112e+00 1.771805e+00 2.475447e+00 2.029977e+00 2.713249e+00 4.640725e-01
<GCONST> 9.453152e+01
<STATE> 4
<MEAN> 25
 -2.650771e+00 4.349997e+00 -2.042548e+00 -2.212625e+00 4.098589e+00 3.345112e+00 1.437788e-01 -2.376540e+00 -2.495742e+00 -7.269198e-01 2.378802e-01 3.227462e+00 -1.192481e+00 1.754240e-01 5.847682e-01 2.371631e-01 -9.929607e-02 -3.332928e-01 2.129770e-01 4.072828e-01 5.388396e-01 1.020408e+00 4.155541e-01 -2.899569e-01 -8.543914e-01
<VARIANCE> 25
 4.010553e+01 3.237423e+01 2.097339e+01 2.062031e+01 2.619256e+01 4.196510e+01 3.111189e+01 2.773083e+01 4.116161e+01 3.207185e+01 3.459143e+01 2.294419e+01 5.113965e-01 1.320127e+00 1.199914e+00 1.393255e+00 1.699212e+00 2.494826e+00 2.553727e+00 2.088919e+00 2.082252e+00 2.248045e+00 1.605513e+00 1.802773e+00 3.989442e-01
<GCONST> 9.173689e+01
<TRANSP> 5
 0.000000e+00 1.000000e+00 0.000000e+00 0.000000e+00 0.000000e+00
 0.000000e+00 6.158950e-01 3.841050e-01 0.000000e+00 0.000000e+00
 0.000000e+00 0.000000e+00 4.369950e-01 5.630050e-01 0.000000e+00
 0.000000e+00 0.000000e+00 0.000000e+00 6.932675e-01 3.067326e-01
 0.000000e+00 0.000000e+00 0.000000e+00 0.000000e+00 0.000000e+00
<ENDHMM>
~h "s"
<BEGINHMM>
<NUMSTATES> 5
<STATE> 2
<MEAN> 25
 -9.650786e+00 -1.160512e+01 1.699642e+01 -9.772658e+00 -7.065734e+00 1.642830e+01 -2.542972e+00 2.793311e+00 4.496363e+00 -6.230799e-02 6.111202e+00 1.496075e+00 -1.447001e+00 -9.492517e-01 1.143706e+00 -2.314985e-01 -7.514031e-02 6.539437e-01 -4.906463e-01 3.984350e-02 -1.461194e-01 -1.994200e-01 4.122383e-01 -8.733715e-02 -3.890996e-01
<VARIANCE> 25
 2.884728e+01 3.104598e+01 5.988547e+01 3.308409e+01 2.430400e+01 3.518286e+01 3.872678e+01 5.518573e+01 3.698660e+01 2.820647e+01 3.023162e+01 2.196847e+01 2.932642e+00 3.539977e+00 1.055239e+01 4.243874e+00 2.376967e+00 4.291337e+00 3.793473e+00 3.585831e+00 3.048377e+00 2.276723e+00 2.828604e+00 1.958206e+00 3.488748e-01
<GCONST> 1.018736e+02
<STATE> 3
<MEAN> 25
 -3.350512e+00 -5.340343e+00 9.361009e+00 -4.218356e-01 -9.897818e-01 8.535452e+00 -5.832353e+00 -5.485133e+00 -1.868461e+00 -3.964132e+00 3.084657e+00 1.619424e+00 4.161816e+00 2.654150e+00 -2.288245e+00 2.941339e+00 1.827772e+00 -3.772507e+00 -1.917727e+00 -2.213438e+00 -1.835974e+00 -1.079315e+00 -1.321483e+00 -7.548591e-01 1.268324e+00
<VARIANCE> 25
 5.568433e+01 4.716866e+01 2.814417e+01 3.565850e+01 4.279083e+01 5.036284e+01 8.457150e+01 6.005201e+01 6.369196e+01 5.026028e+01 3.279185e+01 2.884202e+01 1.652934e+00 5.526756e+00 3.264270e+00 4.504004e+00 5.992749e+00 4.512708e+00 4.497872e+00 8.774416e+00 3.533481e+00 4.726707e+00 4.245180e+00 3.349557e+00 9.310199e-01
<GCONST> 1.091350e+02
<STATE> 4
<MEAN> 25
 3.529411e+00 -2.628700e+00 8.151425e+00 1.362426e+01 4.968029e+00 -4.838693e+00 -1.174989e+01 -6.117963e+00 -1.363220e+00 -3.226135e+00 -2.333764e+00 -4.820461e+00 2.477678e-01 2.025712e-01 -2.858366e-01 1.454087e+00 3.705144e-01 -1.594416e+00 1.142571e-01 3.928173e-01 3.099593e-01 4.856915e-01 -7.176828e-01 -5.647503e-01 -8.528788e-02
<VARIANCE> 25
 7.103551e+00 2.837664e+01 3.631384e+01 7.333040e+01 5.566451e+01 3.784919e+01 4.614828e+01 3.832331e+01 3.461993e+01 4.938339e+01 3.977352e+01 2.703958e+01 5.833280e-01 1.408037e+00 1.216628e+00 2.121204e+00 2.124308e+00 2.030380e+00 1.782770e+00 2.302888e+00 1.834715e+00 1.697953e+00 2.019620e+00 1.738468e+00 3.255787e-01
<GCONST> 9.359101e+01
<TRANSP> 5
 0.000000e+00 1.000000e+00 0.000000e+00 0.000000e+00 0.000000e+00
 0.000000e+00 8.799880e-01 1.200120e-01 0.000000e+00 0.000000e+00
 0.000000e+00 0.000000e+00 7.233820e-01 2.766180e-01 0.000000e+00
 0.000000e+00 0.000000e+00 0.000000e+00 6.177137e-01 3.822863e-01
 0.000000e+00 0.000000e+00 0.000000e+00 0.000000e+00 0.000000e+00
<ENDHMM>
~h "t"
<BEGINHMM>
<NUMSTATES> 5
<STATE> 2
<MEAN> 25
 -6.662392e+00 4.509035e+00 1.035796e-01 -2.814724e+00 1.593675e+00 3.355225e+00 2.258813e+00 8.236594e-01 1.755693e+00 2.802183e+00 2.129755e+00 3.067368e+00 3.953347e-01 -3.074960e+00 9.571130e-01 3.935508e-02 -1.493150e+00 1.564512e+00 -8.228073e-01 -2.192057e+00 -7.603452e-01 -1.246759e+00 -1.660508e-01 7.045870e-01 1.634565e+00
<VARIANCE> 25
 2.063522e+01 3.290786e+01 3.022137e+01 2.689504e+01 3.866459e+01 3.354398e+01 3.127638e+01 3.482650e+01 3.126707e+01 3.291196e+01 1.723952e+01 1.992487e+01 1.788917e+00 2.773908e+00 3.379395e+00 4.375407e+00 3.700421e+00 3.731747e+00 5.191029e+00 3.150197e+00 3.628226e+00 3.157097e+00 2.927212e+00 3.298764e+00 1.271687e+00
<GCONST> 1.007663e+02
<STATE> 3
<MEAN> 25
 -3.496317e+00 -4.979907e+00 2.698195e+00 -2.611037e+00 -3.296300e+00 7.928193e+00 7.198663e-01 -5.091707e+00 -1.344708e+00 -2.592833e+00 6.119697e-01 4.563046e+00 3.240883e+00 -2.119207e+00 1.074568e+00 1.091790e+00 -1.613373e+00 -5.142448e-01 -1.100082e+00 -1.825846e+00 -2.065912e+00 -2.872036e+00 -1.467821e+00 -3.647578e-01 3.402272e+00
<VARIANCE> 25
 2.268093e+01 3.128366e+01 2.665135e+01 2.166117e+01 3.323362e+01 3.689575e+01 4.784407e+01 3.790332e+01 4.790701e+01 3.310278e+01 2.564205e+01 1.976141e+01 2.075440e+00 6.524772e+00 4.555872e+00 1.052876e+01 1.009657e+01 6.439474e+00 1.223914e+01 8.387019e+00 5.016302e+00 5.247235e+00 4.622560e+00 4.158114e+00 1.499268e+00
<GCONST> 1.089951e+02
<STATE> 4
<MEAN> 25
 5.332450e+00 -2.832798e+00 2.862834e+00 6.336177e-01 -4.800985e+00 9.568387e-01 -3.373758e-01 -4.869013e+00 -6.389400e+00 -8.806598e+00 -4.136278e+00 1.545137e+00 2.548406e+00 -2.319132e-01 8.488697e-03 1.879018e+00 -2.176956e-01 -3.174095e+00 -6.850913e-01 1.003476e+00 -6.413991e-01 -1.579770e+00 -1.524575e+00 -1.644012e+00 1.949226e+00
<VARIANCE> 25
 1.666161e+01 3.399241e+01 2.228941e+01 5.353035e+01 6.310428e+01 3.329238e+01 1.057442e+02 5.372013e+01 4.175597e+01 4.867023e+01 3.612187e+01 2.371564e+01 1.345180e+00 4.209971e+00 4.108554e+00 1.050954e+01 8.157709e+00 4.968187e+00 1.213562e+01 9.046922e+00 3.955492e+00 3.459781e+00 4.185549e+00 2.880452e+00 1.068827e+00
<GCONST> 1.091078e+02
<TRANSP> 5
 0.000000e+00 1.000000e+00 0.000000e+00 0.000000e+00 0.000000e+00
 0.000000e+00 3.566086e-01 6.433914e-01 0.000000e+00 0.000000e+00
 0.000000e+00 0.000000e+00 4.544184e-01 5.455816e-01 0.000000e+00
 0.000000e+00 0.000000e+00 0.000000e+00 3.363256e-01 6.636744e-01
 0.000000e+00 0.000000e+00 0.000000e+00 0.000000e+00 0.000000e+00
<ENDHMM>
~h "u"
<BEGINHMM>
<NUMSTATES> 5
<STATE> 2
<MEAN> 25
 6.169418e+00 3.446481e+00 2.755547e+00 -1.469930e+00 -7.304152e+00 -6.138143e+00 9.183664e-01 3.402879e+00 -2.516140e+00 -7.703230e+00 -5.166977e+00 -2.747838e+00 -2.046504e-01 7.013675e-01 -1.609635e-01 1.199646e-03 2.661394e-01 -3.915244e-01 -4.162772e-02 5.385171e-01 7.201896e-01 6.660649e-01 -6.820931e-02 -3.782197e-01 -4.767998e-01
<VARIANCE> 25
 9.700783e+00 4.658353e+01 2.887076e+01 1.884698e+01 5.085249e+01 4.233202e+01 7.169094e+01 3.509415e+01 4.668943e+01 4.470635e+01 3.880207e+01 2.667799e+01 4.070608e-01 1.725762e+00 1.138979e+00 1.214652e+00 2.260132e+00 3.759669e+00 2.400377e+00 2.970823e+00 2.026862e+00 1.956732e+00 1.766182e+00 2.126298e+00 5.664605e-01
<GCONST> 9.465868e+01
<STATE> 3
<MEAN> 25
 3.086272e+00 8.856435e+00 2.478797e+00 -1.849237e+00 -4.032864e+00 -4.413957e+00 1.223333e+00 3.142500e+00 -1.742419e-01 -3.151085e+00 -4.581103e+00 -3.070133e+00 -1.270848e+00 1.043847e+00 -1.181670e-01 -1.574417e-01 1.282880e+00 9.888076e-01 -8.925764e-02 -4.628561e-01 5.237916e-01 1.448869e+00 7.116552e-01 3.942575e-01 -1.385841e+00
<VARIANCE> 25
 1.105642e+01 3.203516e+01 2.527897e+01 1.839341e+01 4.134303e+01 5.053939e+01 5.254826e+01 3.092769e+01 4.311611e+01 4.267355e+01 3.176657e+01 2.615391e+01 4.980336e-01 1.513291e+00 1.488777e+00 1.381002e+00 2.054648e+00 3.017006e+00 3.244442e+00 2.173688e+00 2.601382e+00 2.245943e+00 1.840573e+00 1.565871e+00 6.480327e-01
<GCONST> 9.384223e+01
<STATE> 4
<MEAN> 25
 -2.289024e+00 1.029171e+01 3.667159e+00 -6.334914e-01 4.928419e-01 -2.940129e+00 -2.605125e+00 -8.840053e-03 1.156254e+00 1.777670e+00 7.358701e-02 -1.342443e-01 -9.477726e-01 -6.316347e-01 -3.391155e-01 6.428143e-02 7.319853e-01 8.210509e-01 6.906902e-02 -4.222700e-01 -1.298682e-01 3.933166e-01 7.239593e-01 8.032167e-01 -5.314419e-01
<VARIANCE> 25
 2.029034e+01 2.782273e+01 2.434381e+01 2.484720e+01 3.332595e+01 4.736780e+01 4.882832e+01 2.847209e+01 3.390246e+01 3.638126e+01 3.122386e+01 2.062651e+01 4.624467e-01 1.265136e+00 1.158477e+00 1.272249e+00 1.758159e+00 2.418120e+00 2.827025e+00 1.934275e+00 2.293510e+00 1.535790e+00 1.597910e+00 1.430780e+00 3.064351e-01
<GCONST> 9.077613e+01
<TRANSP> 5
 0.000000e+00 1.000000e+00 0.000000e+00 0.000000e+00 0.000000e+00
 0.000000e+00 6.203889e-01 3.796111e-01 0.000000e+00 0.000000e+00
 0.000000e+00 0.000000e+00 6.249887e-01 3.750113e-01 0.000000e+00
 0.000000e+00 0.000000e+00 0.000000e+00 6.652261e-01 3.347740e-01
 0.000000e+00 0.000000e+00 0.000000e+00 0.000000e+00 0.000000e+00
<ENDHMM>
~h "ng"
<BEGINHMM>
<NUMSTATES> 5
<STATE> 2
<MEAN> 25
 3.975044e+00 -1.269120e+00 -2.690313e+00 2.473916e+00 1.973467e-01 -1.454296e-01 3.913093e+00 2.495249e+00 -1.147157e+00 -2.918127e+00 -5.418002e+00 -3.176151e+00 -4.661214e-01 8.357869e-01 8.396290e-01 6.232984e-01 1.247910e+00 7.292917e-01 -1.318965e+00 -4.832078e-01 4.246809e-01 2.993322e-02 -4.477993e-01 -4.651415e-01 -5.804896e-01
<VARIANCE> 25
 5.860644e+00 8.695519e+00 1.090574e+01 6.571455e+00 7.804483e+00 2.305055e+01 1.351373e+01 1.563970e+01 1.385628e+01 2.041233e+01 1.008236e+01 2.798048e+01 1.804794e-01 1.220142e+00 8.341143e-01 1.014391e+00 8.763896e-01 1.486131e+00 2.079881e+00 1.789166e+00 1.355595e+00 1.482381e+00 1.147961e+00 1.622810e+00 3.007623e-01
<GCONST> 7.599971e+01
<STATE> 3
<MEAN> 25
 1.793526e+00 3.021504e+00 1.595779e+00 2.194811e+00 2.469569e+00 3.485840e+00 1.121318e+00 1.094908e+00 1.157719e+00 -3.587400e+00 -8.258452e+00 -3.501276e+00 -7.117966e-01 1.707963e+00 7.898977e-01 -2.621495e-01 8.160872e-01 -1.460087e-01 -9.095321e-01 1.000421e-01 2.531192e-01 -1.156539e-01 -3.948990e-02 3.250732e-01 -9.882944e-01
<VARIANCE> 25
 2.731577e+00 1.395365e+01 1.055215e+01 1.051405e+01 9.075073e+00 1.061007e+01 2.692416e+01 2.309903e+01 1.714197e+01 2.006145e+01 2.090981e+01 1.118506e+01 3.220121e-01 1.229992e+00 1.670316e+00 1.576119e+00 8.717981e-01 2.324198e+00 3.180343e+00 1.659662e+00 2.778761e+00 3.208961e+00 1.384004e+00 3.194585e+00 3.091438e-01
<GCONST> 8.150392e+01
<STATE> 4
<MEAN> 25
 -3.289255e+00 7.278779e+00 3.851642e+00 1.122998e+00 4.145227e+00 2.693272e+00 -4.654665e-01 1.287563e+00 1.534211e+00 -1.017209e+00 -3.796703e+00 -2.055758e+00 -1.720391e+00 5.821432e-01 2.739058e-01 -1.574589e-01 1.838997e-01 2.389034e-01 2.513486e-01 -6.001815e-01 -2.301411e-01 1.031569e+00 1.317491e+00 5.686697e-01 -1.433464e+00
<VARIANCE> 25
 1.493195e+01 1.587695e+01 1.991144e+01 2.224763e+01 1.787313e+01 3.810183e+01 2.263632e+01 2.911117e+01 2.584057e+01 2.954456e+01 2.254856e+01 2.156677e+01 5.296407e-01 2.411364e+00 2.569967e+00 1.741384e+00 1.520639e+00 3.833488e+00 1.566037e+00 3.171472e+00 2.913040e+00 3.089503e+00 2.489115e+00 2.353831e+00 6.490055e-01
<GCONST> 9.198946e+01
<TRANSP> 5
 0.000000e+00 1.000000e+00 0.000000e+00 0.000000e+00 0.000000e+00
 0.000000e+00 6.788558e-01 3.211442e-01 0.000000e+00 0.000000e+00
 0.000000e+00 0.000000e+00 6.427910e-01 3.572090e-01 0.000000e+00
 0.000000e+00 0.000000e+00 0.000000e+00 7.581448e-01 2.418552e-01
 0.000000e+00 0.000000e+00 0.000000e+00 0.000000e+00 0.000000e+00
<ENDHMM>
~h "ny"
<BEGINHMM>
<NUMSTATES> 5
<STATE> 2
<MEAN> 25
 -1.074378e+01 6.119315e+00 6.153757e+00 4.216828e+00 6.765351e+00 3.992116e+00 -6.253771e-02 2.612673e-01 3.234696e+00 3.871962e+00 -5.539603e-01 -1.773708e+00 3.200202e+00 1.313352e+00 2.900324e+00 1.740358e+00 -7.397059e-01 -5.220325e-03 -9.774442e-01 -1.937177e+00 -1.125730e+00 -1.235815e+00 -8.075988e-01 -1.062793e-01 2.299315e+00
<VARIANCE> 25
 3.784661e+01 5.356805e+01 1.895856e+01 1.780798e+01 2.561017e+01 3.060390e+01 2.203939e+01 3.342261e+01 1.755117e+01 2.506249e+01 2.477246e+01 1.814894e+01 2.011531e+00 3.844925e+00 2.479635e+00 1.591917e+00 2.378749e+00 3.818526e+00 2.434397e+00 3.356019e+00 2.005294e+00 2.488672e+00 3.643591e+00 2.455568e+00 9.105871e-01
<GCONST> 9.627515e+01
<STATE> 3
<MEAN> 25
 -1.209931e+00 4.242012e+00 1.243637e+01 1.064951e+01 2.488113e+00 3.783458e-01 -5.953888e+00 -7.920925e+00 -1.324806e-01 2.213258e+00 -1.152012e+00 -1.624006e+00 2.924719e+00 -3.732192e+00 -8.343052e-01 1.518432e+00 -1.221604e+00 -1.327708e+00 -1.245295e+00 -1.695134e+00 -6.555014e-01 7.697302e-01 1.368964e+00 3.490380e-01 3.335967e+00
<VARIANCE> 25
 1.385797e+01 6.009513e+01 3.169437e+01 3.922367e+01 1.957834e+01 5.172081e+01 3.635481e+01 3.099203e+01 2.458868e+01 3.258768e+01 3.477344e+01 2.471695e+01 4.015108e+00 5.082945e+00 7.138016e+00 4.401707e+00 2.521275e+00 7.088018e+00 4.526733e+00 6.289515e+00 4.674879e+00 5.335905e+00 4.007371e+00 3.528529e+00 1.390300e+00
<GCONST> 1.060777e+02
<STATE> 4
<MEAN> 25
 4.738907e+00 -1.057192e+01 2.404470e-02 8.112211e+00 1.883018e-01 -3.282900e-01 -1.345003e+00 -5.496418e+00 -1.442581e+00 5.425453e+00 4.805596e+00 -2.229538e-01 1.121068e+00 -2.034672e+00 -2.879761e+00 -2.171630e+00 -6.316414e-01 9.299216e-01 2.369393e+00 1.239787e+00 -6.836501e-01 -2.644705e-01 7.881979e-01 5.372270e-01 1.304940e+00
<VARIANCE> 25
 7.294319e+00 2.522925e+01 2.498303e+01 3.370377e+01 1.364224e+01 3.407952e+01 4.408801e+01 2.435920e+01 4.044464e+01 3.792968e+01 4.622383e+01 3.996391e+01 6.199204e-01 3.594081e+00 2.539014e+00 2.525246e+00 1.573064e+00 2.864554e+00 3.130849e+00 1.930363e+00 3.159164e+00 1.979267e+00 3.012242e+00 1.651136e+00 8.545129e-01
<GCONST> 9.511958e+01
<TRANSP> 5
 0.000000e+00 1.000000e+00 0.000000e+00 0.000000e+00 0.000000e+00
 0.000000e+00 5.666043e-01 4.333957e-01 0.000000e+00 0.000000e+00
 0.000000e+00 0.000000e+00 6.191275e-01 3.808725e-01 0.000000e+00
 0.000000e+00 0.000000e+00 0.000000e+00 7.460345e-01 2.539655e-01
 0.000000e+00 0.000000e+00 0.000000e+00 0.000000e+00 0.000000e+00
<ENDHMM>
~h "sp"
<BEGINHMM>
<NUMSTATES> 3
<STATE> 2
~s "silst"
<TRANSP> 3
 0.000000e+00 5.479448e-02 9.452056e-01
 0.000000e+00 7.254881e-01 2.745120e-01
 0.000000e+00 0.000000e+00 0.000000e+00
<ENDHMM>
~h "sil"
<BEGINHMM>
<NUMSTATES> 5
<STATE> 2
<MEAN> 25
 -1.230013e+01 3.333319e+00 -7.831150e-01 2.567916e-01 6.024067e+00 1.399293e+00 6.523690e-01 2.858115e+00 4.446715e+00 4.955123e+00 1.536762e+00 6.086731e-01 -1.595693e-01 -1.177649e-01 -8.599450e-02 -5.729833e-02 1.795519e-02 1.050277e-01 2.004007e-01 2.234489e-01 1.274799e-01 1.902156e-02 5.083347e-04 -3.962743e-03 -8.700683e-02
<VARIANCE> 25
 1.539281e+01 1.947390e+01 1.267300e+01 1.541160e+01 2.278525e+01 2.196502e+01 2.410345e+01 3.319660e+01 1.852655e+01 2.528477e+01 1.803208e+01 1.460816e+01 2.060090e-01 3.340403e-01 4.207744e-01 4.491695e-01 5.946365e-01 7.646021e-01 9.351200e-01 1.009501e+00 9.036198e-01 8.287267e-01 7.236252e-01 6.637533e-01 8.095935e-02
<GCONST> 7.282348e+01
<STATE> 3
~s "silst"
<STATE> 4
<MEAN> 25
 -1.195233e+01 3.263550e+00 -1.253506e+00 -1.217250e-01 5.703613e+00 1.441370e+00 1.183462e+00 3.308013e+00 4.392262e+00 4.864932e+00 7.293704e-01 -8.195783e-01 4.973763e-01 2.012819e-01 3.004161e-01 1.024566e-01 -1.132200e-02 3.932870e-01 3.067940e-01 -3.634183e-02 -3.725041e-01 -6.505927e-01 -4.789629e-01 -2.193226e-01 3.399717e-01
<VARIANCE> 25
 2.842699e+01 2.825014e+01 2.565701e+01 3.538127e+01 2.838361e+01 3.382236e+01 4.628086e+01 3.709496e+01 2.533106e+01 3.449355e+01 2.375473e+01 1.967894e+01 1.721467e+00 1.958688e+00 1.407240e+00 1.199049e+00 1.592713e+00 1.782314e+00 1.590337e+00 1.743600e+00 1.865400e+00 1.800628e+00 1.484125e+00 1.341235e+00 7.195136e-01
<GCONST> 9.205434e+01
<TRANSP> 5
 0.000000e+00 1.000000e+00 0.000000e+00 0.000000e+00 0.000000e+00
 0.000000e+00 8.100742e-01 6.322665e-02 1.266991e-01 0.000000e+00
 0.000000e+00 0.000000e+00 8.363397e-01 1.636603e-01 0.000000e+00
 0.000000e+00 5.704701e-02 0.000000e+00 2.435371e-01 6.994160e-01
 0.000000e+00 0.000000e+00 0.000000e+00 0.000000e+00 0.000000e+00
<ENDHMM>
