~o
<STREAMINFO> 1 25
<VECSIZE> 25<NULLD><MFCC_D_N_Z_0><DIAGC>
~h "@"
<BEGINHMM>
<NUMSTATES> 5
<STATE> 2
<MEAN> 25
 3.091925e+00 -1.553477e+00 4.917863e+00 6.321286e+00 2.954149e+00 5.774650e-01 -6.773020e+00 -6.820402e+00 -1.553755e+00 3.180056e-02 1.049303e-01 -1.408975e+00 2.062512e-01 9.093084e-02 -2.043190e-01 3.481784e-01 3.679110e-01 -2.545944e-01 -1.809829e-01 -4.444500e-02 -1.497283e-01 -1.148007e-01 -8.471905e-02 -3.054984e-02 4.283748e-02
<VARIANCE> 25
 2.555016e+01 6.141974e+01 5.127568e+01 4.550486e+01 4.570469e+01 5.260996e+01 3.736192e+01 4.168721e+01 4.306200e+01 2.923661e+01 3.477534e+01 2.532679e+01 1.805252e+00 7.201735e+00 5.067759e+00 2.755776e+00 3.570848e+00 5.092761e+00 3.910752e+00 4.516345e+00 4.414791e+00 2.861819e+00 3.343826e+00 2.178548e+00 2.057367e+00
<GCONST> 1.063324e+02
<STATE> 3
<MEAN> 25
 3.580657e+00 -1.376225e+00 4.397870e+00 7.046788e+00 3.731502e+00 -3.474477e-02 -7.101692e+00 -6.859734e+00 -1.921689e+00 -2.690212e-01 -8.755298e-02 -1.421518e+00 2.263292e-01 5.095198e-02 -2.769252e-01 2.226858e-01 2.675936e-01 -2.790174e-01 -8.207830e-02 2.998617e-02 -1.736365e-01 -1.491217e-01 -6.184304e-02 1.720161e-02 7.483981e-02
<VARIANCE> 25
 2.309648e+01 5.791103e+01 4.653143e+01 4.103400e+01 4.337494e+01 5.114791e+01 3.673133e+01 3.994793e+01 4.315201e+01 3.204596e+01 3.645685e+01 2.698130e+01 1.582007e+00 6.682278e+00 4.324679e+00 2.695564e+00 3.322569e+00 4.709288e+00 3.784039e+00 4.354897e+00 4.077611e+00 2.853080e+00 3.490123e+00 2.124608e+00 1.843940e+00
<GCONST> 1.052548e+02
<STATE> 4
<MEAN> 25
 4.300133e+00 -1.320350e+00 3.618492e+00 7.459713e+00 4.199254e+00 -7.625216e-01 -7.147984e+00 -6.751506e+00 -2.413571e+00 -6.353288e-01 -1.889385e-01 -1.249311e+00 2.295547e-01 -1.955431e-02 -3.340266e-01 5.296670e-02 1.020180e-01 -2.646398e-01 4.467646e-02 8.890333e-02 -1.788818e-01 -1.519785e-01 -3.042862e-02 7.006083e-02 1.125090e-01
<VARIANCE> 25
 2.025418e+01 5.494400e+01 4.290122e+01 3.765959e+01 4.360073e+01 5.017338e+01 3.958173e+01 4.019379e+01 4.240153e+01 3.707416e+01 3.794749e+01 2.900954e+01 1.319085e+00 5.978260e+00 3.486272e+00 2.609706e+00 3.138895e+00 4.186915e+00 3.698845e+00 4.169112e+00 3.622425e+00 2.835223e+00 3.614321e+00 2.006212e+00 1.585737e+00
<GCONST> 1.041318e+02
<TRANSP> 5
 0.000000e+00 1.000000e+00 0.000000e+00 0.000000e+00 0.000000e+00
 0.000000e+00 5.838448e-01 4.161552e-01 0.000000e+00 0.000000e+00
 0.000000e+00 0.000000e+00 5.838449e-01 4.161551e-01 0.000000e+00
 0.000000e+00 0.000000e+00 0.000000e+00 6.829398e-01 3.170603e-01
 0.000000e+00 0.000000e+00 0.000000e+00 0.000000e+00 0.000000e+00
<ENDHMM>
~h "a"
<BEGINHMM>
<NUMSTATES> 5
<STATE> 2
<MEAN> 25
 2.756796e+00 -2.990599e+00 -1.631456e+00 -1.587825e+00 -1.837707e+00 1.075173e+00 1.536133e+00 2.344479e-01 -4.693630e-01 -3.987417e-01 6.259368e-01 7.029836e-01 1.471523e-02 3.923813e-02 1.140630e-01 6.956225e-02 2.120260e-02 -1.156372e-02 -9.872703e-02 -2.167298e-02 2.121790e-02 -2.604770e-02 -1.457419e-02 -7.014198e-03 1.208920e-02
<VARIANCE> 25
 4.002369e+01 6.932629e+01 5.980396e+01 4.887761e+01 4.609645e+01 5.622324e+01 5.826926e+01 5.092303e+01 3.625374e+01 3.951140e+01 3.950434e+01 3.351137e+01 2.427035e+00 4.569508e+00 3.179980e+00 2.897420e+00 2.924593e+00 4.287459e+00 3.398817e+00 3.208682e+00 2.742735e+00 2.891960e+00 2.717881e+00 2.382034e+00 2.126296e+00
<GCONST> 1.064045e+02
<STATE> 3
<MEAN> 25
 2.702050e+00 -2.831802e+00 -1.312350e+00 -1.350678e+00 -1.723177e+00 9.839324e-01 1.211796e+00 1.602114e-01 -4.234682e-01 -4.633660e-01 5.787908e-01 6.569632e-01 -4.582990e-02 8.950400e-02 1.409374e-01 1.074758e-01 6.397532e-02 -4.557091e-02 -1.461043e-01 -3.313318e-02 2.748656e-02 -2.738131e-02 -3.210763e-02 -1.986206e-02 -5.067443e-02
<VARIANCE> 25
 3.783637e+01 6.900343e+01 6.179725e+01 5.209044e+01 4.557757e+01 5.833405e+01 6.114990e+01 5.161814e+01 3.645252e+01 3.928459e+01 3.898214e+01 3.348667e+01 2.296573e+00 4.446760e+00 3.136652e+00 2.980265e+00 2.910039e+00 4.324624e+00 3.431463e+00 3.223137e+00 2.685755e+00 2.825574e+00 2.681678e+00 2.353442e+00 2.003430e+00
<GCONST> 1.063335e+02
<STATE> 4
<MEAN> 25
 2.541156e+00 -2.561968e+00 -8.168865e-01 -9.372157e-01 -1.504623e+00 7.689571e-01 6.400910e-01 -3.406652e-02 -3.874274e-01 -5.705501e-01 4.649887e-01 5.554304e-01 -9.751914e-02 1.361559e-01 1.608673e-01 1.425457e-01 1.059593e-01 -7.595263e-02 -1.897734e-01 -5.307093e-02 2.959885e-02 -2.140604e-02 -4.632841e-02 -3.895081e-02 -1.064216e-01
<VARIANCE> 25
 3.744197e+01 6.953967e+01 6.450174e+01 5.772189e+01 4.663330e+01 6.213280e+01 6.573344e+01 5.295913e+01 3.657448e+01 3.900513e+01 3.827682e+01 3.337391e+01 2.167922e+00 4.271814e+00 3.083641e+00 3.109983e+00 2.889415e+00 4.389539e+00 3.461604e+00 3.247302e+00 2.610422e+00 2.744704e+00 2.629447e+00 2.304924e+00 1.872074e+00
<GCONST> 1.064207e+02
<TRANSP> 5
 0.000000e+00 1.000000e+00 0.000000e+00 0.000000e+00 0.000000e+00
 0.000000e+00 5.896698e-01 4.103302e-01 0.000000e+00 0.000000e+00
 0.000000e+00 0.000000e+00 5.896686e-01 4.103314e-01 0.000000e+00
 0.000000e+00 0.000000e+00 0.000000e+00 6.906607e-01 3.093394e-01
 0.000000e+00 0.000000e+00 0.000000e+00 0.000000e+00 0.000000e+00
<ENDHMM>
~h "b"
<BEGINHMM>
<NUMSTATES> 5
<STATE> 2
<MEAN> 25
 -7.265901e+00 7.346374e+00 1.301297e+00 -1.355018e+00 2.484252e+00 1.240140e+00 2.828647e+00 5.006963e+00 3.738243e+00 1.059045e+00 -1.776132e+00 -1.407583e+00 6.085068e-01 2.417774e-01 3.659092e-01 1.506565e-02 -3.610379e-01 -1.962909e-01 -2.230143e-01 -1.659473e-01 -1.327278e-01 -2.375995e-01 -4.040736e-02 -3.234284e-02 4.331369e-01
<VARIANCE> 25
 5.411460e+01 8.461084e+01 3.597886e+01 2.286492e+01 3.957156e+01 3.642823e+01 4.354327e+01 3.597596e+01 2.344607e+01 4.666653e+01 2.470832e+01 2.446004e+01 3.041508e+00 5.070487e+00 2.114305e+00 2.116506e+00 2.676035e+00 3.493405e+00 3.176726e+00 2.068527e+00 2.238924e+00 3.148727e+00 1.545349e+00 1.810027e+00 1.671961e+00
<GCONST> 1.009683e+02
<STATE> 3
<MEAN> 25
 -5.583522e+00 7.789423e+00 1.991107e+00 -1.554513e+00 1.399469e+00 7.200215e-01 2.304783e+00 4.550395e+00 3.226632e+00 3.560902e-01 -1.837453e+00 -1.485976e+00 6.353046e-01 8.139261e-02 1.658343e-01 -1.175968e-01 -4.117412e-01 -1.683987e-01 -1.375511e-01 -1.794119e-01 -2.598847e-01 -2.704161e-01 1.774348e-02 -5.073314e-03 4.871016e-01
<VARIANCE> 25
 5.506985e+01 8.947653e+01 3.830657e+01 2.664404e+01 4.021078e+01 4.364293e+01 4.730560e+01 3.543235e+01 2.984294e+01 4.940190e+01 2.594938e+01 2.566138e+01 3.389434e+00 5.966923e+00 2.693148e+00 2.689856e+00 3.122205e+00 4.271297e+00 3.822492e+00 2.485485e+00 2.781120e+00 3.711365e+00 1.774368e+00 2.060369e+00 2.102257e+00
<GCONST> 1.042717e+02
<STATE> 4
<MEAN> 25
 -3.339682e+00 7.711374e+00 2.001523e+00 -2.140316e+00 3.650521e-02 1.295319e-01 2.022792e+00 3.845960e+00 2.021889e+00 -4.455482e-01 -1.669024e+00 -1.601266e+00 6.615756e-01 -1.633398e-01 -1.031546e-01 -2.094660e-01 -4.161323e-01 -1.382457e-01 5.439772e-03 -2.138878e-01 -4.189829e-01 -2.213334e-01 8.790201e-02 -1.594258e-02 5.586702e-01
<VARIANCE> 25
 5.500014e+01 9.581085e+01 4.317809e+01 3.121347e+01 4.030137e+01 4.883316e+01 5.119232e+01 3.806143e+01 3.946231e+01 4.864372e+01 2.864437e+01 2.929668e+01 3.607543e+00 6.786918e+00 3.165440e+00 3.179558e+00 3.501197e+00 5.265187e+00 4.507659e+00 3.156052e+00 3.496933e+00 4.294149e+00 2.001579e+00 2.397693e+00 2.622891e+00
<GCONST> 1.074930e+02
<TRANSP> 5
 0.000000e+00 1.000000e+00 0.000000e+00 0.000000e+00 0.000000e+00
 0.000000e+00 6.132164e-01 3.867836e-01 0.000000e+00 0.000000e+00
 0.000000e+00 0.000000e+00 6.132168e-01 3.867832e-01 0.000000e+00
 0.000000e+00 0.000000e+00 0.000000e+00 7.158472e-01 2.841527e-01
 0.000000e+00 0.000000e+00 0.000000e+00 0.000000e+00 0.000000e+00
<ENDHMM>
~h "c"
<BEGINHMM>
<NUMSTATES> 5
<STATE> 2
<MEAN> 25
 6.974880e-01 -7.995901e+00 6.860146e+00 5.735134e+00 8.815680e-01 2.423598e+00 -4.613606e+00 -3.757595e+00 -1.866207e+00 -1.848476e+00 2.094836e+00 2.509020e-02 1.308540e-02 -1.944955e-01 -2.428052e-01 4.153451e-01 1.796123e-01 -4.181975e-01 -3.317617e-01 -3.555896e-01 -1.063120e-01 2.684462e-01 1.891406e-01 -5.615237e-02 -8.121178e-03
<VARIANCE> 25
 4.057509e+01 1.050963e+02 1.020231e+02 4.772663e+01 5.536199e+01 8.401984e+01 6.875938e+01 3.500910e+01 3.590222e+01 2.846523e+01 2.931008e+01 2.589875e+01 4.284031e+00 8.848131e+00 8.855464e+00 4.134880e+00 5.069286e+00 7.285487e+00 4.682844e+00 3.150774e+00 3.120687e+00 2.756863e+00 2.323698e+00 2.432487e+00 2.368754e+00
<GCONST> 1.108713e+02
<STATE> 3
<MEAN> 25
 7.640771e-01 -8.117208e+00 5.986571e+00 6.682116e+00 1.480112e+00 1.372930e+00 -5.278739e+00 -4.572320e+00 -2.203768e+00 -1.214007e+00 2.482550e+00 -1.183595e-01 3.794375e-02 6.266673e-02 -4.340957e-01 3.229913e-01 2.716410e-01 -4.120751e-01 -2.048578e-01 -3.071576e-01 -1.284274e-01 2.644280e-01 1.058726e-01 -4.369783e-02 -1.254411e-01
<VARIANCE> 25
 3.578651e+01 9.059191e+01 1.011655e+02 4.533730e+01 5.521276e+01 8.317953e+01 6.010760e+01 3.320819e+01 3.329924e+01 3.011783e+01 2.466993e+01 2.508774e+01 4.076468e+00 7.795216e+00 7.936817e+00 4.228965e+00 4.551771e+00 6.810248e+00 4.198680e+00 3.112767e+00 2.722412e+00 2.861207e+00 2.161587e+00 2.569510e+00 2.429408e+00
<GCONST> 1.094629e+02
<STATE> 4
<MEAN> 25
 9.738326e-01 -7.487589e+00 4.524606e+00 7.555879e+00 2.460665e+00 1.670931e-01 -5.783089e+00 -5.420624e+00 -2.694167e+00 -5.540725e-01 2.686404e+00 -2.224418e-01 5.950101e-02 2.752526e-01 -5.468529e-01 1.991182e-01 3.257490e-01 -3.696331e-01 -1.197704e-01 -2.560934e-01 -1.126751e-01 2.532493e-01 1.604977e-02 -2.739217e-02 -2.066159e-01
<VARIANCE> 25
 3.091605e+01 7.799996e+01 9.433333e+01 4.374969e+01 5.340900e+01 7.778610e+01 5.125193e+01 3.178602e+01 3.131389e+01 3.264571e+01 2.063719e+01 2.334199e+01 3.776925e+00 6.690543e+00 6.609818e+00 4.433979e+00 3.980156e+00 6.230070e+00 3.755793e+00 3.132813e+00 2.545246e+00 3.073369e+00 2.056954e+00 2.731326e+00 2.603788e+00
<GCONST> 1.079184e+02
<TRANSP> 5
 0.000000e+00 1.000000e+00 0.000000e+00 0.000000e+00 0.000000e+00
 0.000000e+00 6.048198e-01 3.951803e-01 0.000000e+00 0.000000e+00
 0.000000e+00 0.000000e+00 6.048198e-01 3.951802e-01 0.000000e+00
 0.000000e+00 0.000000e+00 0.000000e+00 7.052633e-01 2.947368e-01
 0.000000e+00 0.000000e+00 0.000000e+00 0.000000e+00 0.000000e+00
<ENDHMM>
~h "d"
<BEGINHMM>
<NUMSTATES> 5
<STATE> 2
<MEAN> 25
 1.689340e+00 1.703516e-01 3.020310e+00 6.173281e+00 4.367221e+00 -1.700848e+00 -5.807975e+00 -3.886280e+00 -2.113833e+00 -1.716632e+00 -2.115297e-01 -4.588324e-02 -8.685008e-02 -2.713390e-02 -9.934961e-02 -2.135606e-01 -2.769700e-01 -1.413531e-01 2.000760e-01 1.533673e-01 -1.627052e-02 1.162509e-02 5.192875e-02 7.141648e-02 -5.927240e-02
<VARIANCE> 25
 3.344450e+01 4.953534e+01 5.528802e+01 8.425986e+01 7.656613e+01 4.673637e+01 8.234151e+01 4.681671e+01 4.703011e+01 5.894691e+01 3.706512e+01 3.518155e+01 1.050112e+00 3.950890e+00 1.772462e+00 2.838738e+00 3.110435e+00 3.599719e+00 4.124381e+00 3.284253e+00 2.850943e+00 3.825997e+00 3.279260e+00 2.263092e+00 1.363120e+00
<GCONST> 1.061102e+02
<STATE> 3
<MEAN> 25
 1.465674e+00 1.123577e-01 2.772525e+00 5.592071e+00 3.625145e+00 -2.013823e+00 -5.257638e+00 -3.488268e+00 -2.096645e+00 -1.662151e+00 -1.301988e-01 1.031086e-01 -1.257938e-01 -2.013943e-03 -1.092170e-01 -2.897972e-01 -3.483586e-01 -1.091263e-01 2.809300e-01 1.888557e-01 3.913080e-02 4.135923e-02 1.359090e-02 6.435842e-02 -9.820290e-02
<VARIANCE> 25
 3.732676e+01 4.835855e+01 5.822417e+01 8.844542e+01 7.882529e+01 4.664971e+01 8.265122e+01 4.625474e+01 4.742514e+01 5.991400e+01 3.790537e+01 3.520507e+01 1.056153e+00 3.613934e+00 1.684166e+00 2.593946e+00 2.869866e+00 3.449250e+00 3.697781e+00 2.990905e+00 2.726747e+00 3.633683e+00 3.058480e+00 2.219665e+00 1.270469e+00
<GCONST> 1.055566e+02
<STATE> 4
<MEAN> 25
 1.250299e+00 3.801183e-02 2.405879e+00 4.668703e+00 2.508486e+00 -2.273653e+00 -4.396944e+00 -2.964510e+00 -1.936231e+00 -1.528618e+00 -1.653664e-01 2.436094e-01 -1.601648e-01 4.220442e-02 -1.217744e-01 -3.461424e-01 -3.603237e-01 -5.721836e-02 3.211285e-01 2.200735e-01 1.155143e-01 6.478714e-02 -4.242963e-02 5.341154e-02 -1.419804e-01
<VARIANCE> 25
 4.212247e+01 4.800623e+01 6.142239e+01 9.074792e+01 7.946229e+01 4.796822e+01 8.180571e+01 4.553602e+01 4.728434e+01 5.823484e+01 3.942438e+01 3.501137e+01 1.090810e+00 3.267074e+00 1.626916e+00 2.331659e+00 2.655209e+00 3.334490e+00 3.262349e+00 2.706460e+00 2.582444e+00 3.352874e+00 2.838448e+00 2.168790e+00 1.177467e+00
<GCONST> 1.049065e+02
<TRANSP> 5
 0.000000e+00 1.000000e+00 0.000000e+00 0.000000e+00 0.000000e+00
 0.000000e+00 5.650750e-01 4.349250e-01 0.000000e+00 0.000000e+00
 0.000000e+00 0.000000e+00 5.650746e-01 4.349255e-01 0.000000e+00
 0.000000e+00 0.000000e+00 0.000000e+00 6.606294e-01 3.393706e-01
 0.000000e+00 0.000000e+00 0.000000e+00 0.000000e+00 0.000000e+00
<ENDHMM>
~h "e"
<BEGINHMM>
<NUMSTATES> 5
<STATE> 2
<MEAN> 25
 9.382504e-01 -1.875988e+00 2.044967e-01 4.181662e+00 3.048217e+00 -2.060739e+00 -5.921052e+00 -5.164230e+00 -7.590016e-01 2.396538e+00 2.292649e+00 8.309366e-01 -1.977889e-01 4.178599e-01 -2.857962e-01 4.706318e-02 8.766600e-02 -2.586195e-01 2.243177e-01 1.433450e-01 2.036476e-01 3.427904e-01 -7.960095e-02 -3.447568e-02 -3.977916e-01
<VARIANCE> 25
 5.076364e+01 5.294010e+01 4.259853e+01 6.568517e+01 6.553693e+01 6.138571e+01 7.727444e+01 7.646977e+01 4.465704e+01 5.765833e+01 3.009797e+01 2.522540e+01 1.831230e+00 2.192448e+00 1.661531e+00 2.517315e+00 2.002501e+00 2.960117e+00 2.977628e+00 3.463089e+00 2.039342e+00 2.519173e+00 2.067643e+00 1.492035e+00 8.382200e-01
<GCONST> 1.027704e+02
<STATE> 3
<MEAN> 25
 1.621064e-01 -7.023559e-01 -4.419892e-01 4.141572e+00 3.273751e+00 -2.559910e+00 -5.168332e+00 -4.584810e+00 -9.974073e-02 3.322421e+00 2.042247e+00 7.096938e-01 -3.198102e-01 4.329290e-01 -2.549290e-01 -7.162825e-02 5.051855e-02 -1.765224e-01 3.132857e-01 2.820850e-01 2.920219e-01 3.469437e-01 -1.097142e-01 -3.378695e-02 -4.761560e-01
<VARIANCE> 25
 5.118754e+01 5.332104e+01 3.547744e+01 6.385700e+01 6.505941e+01 4.823956e+01 8.025041e+01 7.794746e+01 4.174977e+01 5.728859e+01 2.930387e+01 2.506522e+01 1.496719e+00 1.931227e+00 1.364583e+00 2.192983e+00 1.862585e+00 2.662470e+00 2.775303e+00 2.843925e+00 1.887015e+00 2.468622e+00 1.925663e+00 1.443559e+00 7.416801e-01
<GCONST> 1.008429e+02
<STATE> 4
<MEAN> 25
 -1.293113e+00 8.106602e-01 -9.671732e-01 3.758496e+00 3.557956e+00 -2.764581e+00 -4.095607e+00 -3.583939e+00 8.167152e-01 4.303626e+00 1.678414e+00 5.523707e-01 -4.803113e-01 3.828872e-01 -2.042389e-01 -2.345896e-01 1.394644e-02 -2.373899e-02 3.928358e-01 4.068125e-01 3.526776e-01 2.972876e-01 -1.214528e-01 -2.791487e-02 -5.473072e-01
<VARIANCE> 25
 5.465393e+01 5.310246e+01 2.894555e+01 6.292377e+01 6.352617e+01 3.807391e+01 7.970484e+01 7.801147e+01 3.900869e+01 5.523434e+01 2.740818e+01 2.411096e+01 1.032890e+00 1.614982e+00 1.102509e+00 1.794158e+00 1.686117e+00 2.196365e+00 2.421366e+00 2.260390e+00 1.762511e+00 2.321620e+00 1.729023e+00 1.369712e+00 6.146443e-01
<GCONST> 9.810991e+01
<TRANSP> 5
 0.000000e+00 1.000000e+00 0.000000e+00 0.000000e+00 0.000000e+00
 0.000000e+00 6.181569e-01 3.818431e-01 0.000000e+00 0.000000e+00
 0.000000e+00 0.000000e+00 6.181567e-01 3.818433e-01 0.000000e+00
 0.000000e+00 0.000000e+00 0.000000e+00 7.240289e-01 2.759710e-01
 0.000000e+00 0.000000e+00 0.000000e+00 0.000000e+00 0.000000e+00
<ENDHMM>
~h "g"
<BEGINHMM>
<NUMSTATES> 5
<STATE> 2
<MEAN> 25
 6.451837e+00 -3.465685e+00 -5.849769e+00 -2.976890e+00 -1.798651e+00 -6.332896e-01 1.003847e+00 -3.063594e+00 -4.684945e+00 -6.264960e-01 3.471072e+00 3.401942e+00 2.528463e-01 -3.954853e-01 -1.561014e-01 6.341512e-02 1.314560e-01 1.079127e-01 -1.647580e-01 -1.032657e-01 5.315719e-02 1.832267e-02 1.448992e-01 1.558628e-01 3.203491e-01
<VARIANCE> 25
 3.302427e+01 7.130311e+01 2.503226e+01 3.098800e+01 3.744659e+01 3.932430e+01 5.043002e+01 4.109634e+01 4.084869e+01 3.788666e+01 3.533821e+01 3.685127e+01 1.554786e+00 4.887609e+00 2.166627e+00 2.313413e+00 2.472587e+00 4.179733e+00 4.056928e+00 3.904205e+00 3.634207e+00 3.042710e+00 2.606822e+00 2.175524e+00 2.387702e+00
<GCONST> 1.035593e+02
<STATE> 3
<MEAN> 25
 7.075710e+00 -4.412322e+00 -6.228851e+00 -2.907113e+00 -1.537487e+00 -3.581877e-01 6.396524e-01 -3.213401e+00 -4.447158e+00 -5.971305e-01 3.789210e+00 3.808641e+00 2.122011e-01 -3.374825e-01 -1.230869e-01 1.207311e-02 7.552697e-02 1.123604e-01 -1.097015e-01 -1.030616e-02 1.292446e-01 3.474981e-03 8.362911e-02 1.464769e-01 2.750613e-01
<VARIANCE> 25
 2.962737e+01 5.960356e+01 2.758709e+01 3.155979e+01 3.575208e+01 3.685316e+01 4.921729e+01 3.850125e+01 4.020628e+01 3.790728e+01 3.577622e+01 4.030862e+01 1.467462e+00 4.264992e+00 2.269641e+00 2.174790e+00 2.319422e+00 3.794873e+00 3.770498e+00 3.633377e+00 3.246329e+00 2.954614e+00 2.665998e+00 2.221917e+00 2.047479e+00
<GCONST> 1.025054e+02
<STATE> 4
<MEAN> 25
 7.630816e+00 -5.373824e+00 -6.489265e+00 -3.098511e+00 -1.460050e+00 4.987590e-02 3.701471e-01 -3.043971e+00 -3.883769e+00 -6.231071e-01 4.007613e+00 4.232232e+00 1.063380e-01 -2.696323e-01 -3.025906e-02 -4.900233e-02 1.299642e-02 1.575763e-01 -6.458919e-02 8.389132e-02 2.172936e-01 -3.827703e-04 1.434507e-02 9.777221e-02 1.881806e-01
<VARIANCE> 25
 2.755755e+01 4.739949e+01 3.451352e+01 3.331715e+01 3.442094e+01 3.676379e+01 4.754874e+01 3.605540e+01 4.026217e+01 3.787346e+01 3.741437e+01 4.350904e+01 1.478987e+00 3.547468e+00 2.512425e+00 2.120635e+00 2.225758e+00 3.360176e+00 3.524536e+00 3.224957e+00 2.819587e+00 2.817543e+00 2.661713e+00 2.271499e+00 1.690101e+00
<GCONST> 1.016539e+02
<TRANSP> 5
 0.000000e+00 1.000000e+00 0.000000e+00 0.000000e+00 0.000000e+00
 0.000000e+00 6.228846e-01 3.771153e-01 0.000000e+00 0.000000e+00
 0.000000e+00 0.000000e+00 6.228846e-01 3.771155e-01 0.000000e+00
 0.000000e+00 0.000000e+00 0.000000e+00 7.256163e-01 2.743837e-01
 0.000000e+00 0.000000e+00 0.000000e+00 0.000000e+00 0.000000e+00
<ENDHMM>
~h "h"
<BEGINHMM>
<NUMSTATES> 5
<STATE> 2
<MEAN> 25
 3.769989e+00 1.772653e+00 2.870060e-01 -4.133776e+00 -8.768864e+00 -3.771285e+00 4.534093e+00 4.407228e+00 -1.321946e-01 -2.968378e+00 -2.753973e+00 -1.260340e+00 -3.859315e-02 -6.561546e-01 -2.513503e-01 -7.089765e-02 -2.948379e-02 2.269101e-01 6.052739e-02 -1.369912e-01 7.638607e-02 2.603723e-01 2.270849e-01 2.640164e-01 1.925758e-01
<VARIANCE> 25
 3.617980e+01 1.137824e+02 8.646267e+01 2.315391e+01 4.125196e+01 1.205724e+02 5.138593e+01 4.209171e+01 3.314043e+01 4.414737e+01 4.718235e+01 3.912046e+01 2.084459e+00 4.081246e+00 3.882084e+00 1.722827e+00 2.583868e+00 4.749340e+00 3.736189e+00 2.658874e+00 2.111124e+00 2.938004e+00 2.466374e+00 2.238864e+00 7.515814e-01
<GCONST> 1.049643e+02
<STATE> 3
<MEAN> 25
 3.548527e+00 3.617141e-03 -1.697695e-01 -4.232139e+00 -8.661399e+00 -2.911487e+00 4.529047e+00 3.820037e+00 3.383906e-02 -2.287011e+00 -2.127639e+00 -5.595130e-01 -9.249151e-02 -7.041216e-01 -1.743339e-01 -2.459002e-02 9.019513e-02 3.993866e-01 -1.143819e-02 -2.761419e-01 5.938850e-02 3.017292e-01 2.772835e-01 2.822740e-01 1.864647e-01
<VARIANCE> 25
 4.023355e+01 1.113737e+02 9.335004e+01 2.605404e+01 4.237820e+01 1.314693e+02 5.682190e+01 4.997559e+01 3.158800e+01 4.522927e+01 4.830313e+01 3.727932e+01 2.362109e+00 4.218100e+00 4.389768e+00 1.908495e+00 2.713039e+00 4.995501e+00 3.852559e+00 2.915634e+00 2.242536e+00 2.945691e+00 2.374175e+00 2.189373e+00 8.629746e-01
<GCONST> 1.063272e+02
<STATE> 4
<MEAN> 25
 3.089672e+00 -2.175167e+00 -2.407728e-01 -4.162107e+00 -8.092842e+00 -1.249159e+00 4.080166e+00 2.608698e+00 2.208649e-01 -1.457725e+00 -1.284572e+00 2.573758e-01 -1.389793e-01 -6.285700e-01 -3.758418e-02 4.907925e-02 2.377159e-01 5.201850e-01 -1.617046e-01 -4.121664e-01 6.161882e-02 3.158538e-01 2.956246e-01 2.506649e-01 1.459978e-01
<VARIANCE> 25
 4.662647e+01 1.008920e+02 1.016851e+02 3.200618e+01 4.480396e+01 1.407758e+02 6.384406e+01 6.012896e+01 3.161119e+01 4.515487e+01 4.880347e+01 3.374851e+01 2.833922e+00 4.395776e+00 4.943852e+00 2.217040e+00 2.742405e+00 5.299150e+00 3.823816e+00 3.171982e+00 2.455582e+00 2.843995e+00 2.253371e+00 2.101487e+00 9.755555e-01
<GCONST> 1.077262e+02
<TRANSP> 5
 0.000000e+00 1.000000e+00 0.000000e+00 0.000000e+00 0.000000e+00
 0.000000e+00 6.186458e-01 3.813542e-01 0.000000e+00 0.000000e+00
 0.000000e+00 0.000000e+00 6.186455e-01 3.813546e-01 0.000000e+00
 0.000000e+00 0.000000e+00 0.000000e+00 7.236562e-01 2.763438e-01
 0.000000e+00 0.000000e+00 0.000000e+00 0.000000e+00 0.000000e+00
<ENDHMM>
~h "i"
<BEGINHMM>
<NUMSTATES> 5
<STATE> 2
<MEAN> 25
 3.700517e-01 -2.340286e+00 2.786127e+00 7.439491e+00 4.086864e+00 -1.775693e+00 -6.043686e+00 -4.615322e+00 -2.749801e-01 9.942657e-01 -3.046420e-02 -9.696707e-01 -1.160059e-01 1.723738e-01 -5.323015e-02 -5.175184e-02 4.318640e-02 -2.056267e-02 6.013635e-02 -1.981078e-03 1.228435e-02 7.505284e-02 -4.135109e-03 3.498223e-02 -1.605109e-01
<VARIANCE> 25
 3.908012e+01 6.039764e+01 6.286229e+01 9.446292e+01 4.980583e+01 5.852014e+01 7.139374e+01 4.866632e+01 3.510465e+01 3.928740e+01 3.700666e+01 3.560769e+01 2.065686e+00 4.554046e+00 2.996067e+00 6.084287e+00 3.203751e+00 4.800052e+00 4.536641e+00 3.786043e+00 2.639563e+00 3.212933e+00 2.725184e+00 2.613203e+00 2.342889e+00
<GCONST> 1.086195e+02
<STATE> 3
<MEAN> 25
 8.917308e-02 -1.904475e+00 2.489119e+00 7.010427e+00 4.068775e+00 -1.701573e+00 -5.660715e+00 -4.442153e+00 -2.027519e-01 1.162835e+00 -1.840619e-03 -8.079538e-01 -1.076624e-01 1.461985e-01 -1.684073e-01 -2.690288e-01 -5.674353e-02 6.529377e-02 2.165202e-01 1.172695e-01 1.536178e-02 4.702777e-02 4.310621e-02 8.691636e-02 -1.478108e-01
<VARIANCE> 25
 4.252540e+01 6.253801e+01 5.955801e+01 8.888309e+01 4.972430e+01 5.609781e+01 6.983176e+01 4.887931e+01 3.597997e+01 4.236797e+01 3.760475e+01 3.482045e+01 2.025993e+00 4.347222e+00 2.795299e+00 5.521343e+00 3.183053e+00 4.660182e+00 4.281519e+00 3.749221e+00 2.633992e+00 3.279420e+00 2.725527e+00 2.586405e+00 2.279263e+00
<GCONST> 1.083006e+02
<STATE> 4
<MEAN> 25
 -3.744848e-02 -1.570951e+00 1.779499e+00 5.870508e+00 3.621629e+00 -1.430967e+00 -4.676567e+00 -3.820912e+00 -1.393908e-01 1.212064e+00 1.346877e-01 -5.230496e-01 -8.603486e-02 9.616989e-02 -2.569696e-01 -4.356436e-01 -1.550955e-01 1.164855e-01 3.505293e-01 2.410595e-01 1.465516e-02 1.079971e-02 8.062951e-02 1.033808e-01 -1.158148e-01
<VARIANCE> 25
 4.890541e+01 6.568388e+01 5.661072e+01 8.278418e+01 5.147977e+01 5.343367e+01 7.004039e+01 5.013530e+01 3.757029e+01 4.567363e+01 3.799708e+01 3.378113e+01 1.990340e+00 4.076830e+00 2.559947e+00 4.668472e+00 3.097687e+00 4.418909e+00 3.915233e+00 3.583672e+00 2.598898e+00 3.298780e+00 2.679270e+00 2.543956e+00 2.190425e+00
<GCONST> 1.078469e+02
<TRANSP> 5
 0.000000e+00 1.000000e+00 0.000000e+00 0.000000e+00 0.000000e+00
 0.000000e+00 5.958230e-01 4.041770e-01 0.000000e+00 0.000000e+00
 0.000000e+00 0.000000e+00 5.958233e-01 4.041767e-01 0.000000e+00
 0.000000e+00 0.000000e+00 0.000000e+00 6.971191e-01 3.028809e-01
 0.000000e+00 0.000000e+00 0.000000e+00 0.000000e+00 0.000000e+00
<ENDHMM>
~h "j"
<BEGINHMM>
<NUMSTATES> 5
<STATE> 2
<MEAN> 25
 1.865248e+00 -2.052706e+00 5.137280e+00 2.513167e+00 -4.424746e-01 1.621473e+00 -4.047185e+00 -5.031367e+00 -8.711401e-01 2.620827e-01 7.409511e-01 -8.457788e-01 1.207168e-01 -7.906848e-02 1.161833e-01 4.873234e-01 3.714211e-01 2.491785e-03 -4.821408e-01 -4.184737e-01 -2.816887e-02 4.684283e-02 -5.268814e-02 -8.094654e-02 9.507151e-02
<VARIANCE> 25
 3.359196e+01 7.701612e+01 6.939454e+01 5.369392e+01 5.533456e+01 6.242995e+01 5.347364e+01 5.674588e+01 3.952605e+01 3.181130e+01 3.063649e+01 2.266521e+01 2.486289e+00 8.252808e+00 6.381925e+00 2.930493e+00 4.513330e+00 5.548287e+00 4.572778e+00 4.709520e+00 4.657210e+00 3.312482e+00 2.720781e+00 2.086503e+00 2.572704e+00
<GCONST> 1.095310e+02
<STATE> 3
<MEAN> 25
 2.191720e+00 -2.074080e+00 5.303305e+00 3.745361e+00 5.675911e-01 1.516427e+00 -5.127070e+00 -5.896202e+00 -9.854550e-01 3.303186e-01 5.970518e-01 -1.057575e+00 1.528419e-01 3.223704e-02 6.605890e-03 4.940165e-01 4.273326e-01 -9.680052e-02 -4.054371e-01 -2.945964e-01 -6.930596e-02 -6.396054e-03 -8.238269e-02 -9.198108e-02 4.958368e-02
<VARIANCE> 25
 3.136424e+01 7.122677e+01 6.487640e+01 5.320112e+01 5.289187e+01 5.893589e+01 4.787495e+01 5.139257e+01 4.083426e+01 2.952339e+01 3.119725e+01 2.293987e+01 2.297325e+00 7.986152e+00 6.237976e+00 2.851392e+00 4.258258e+00 5.526599e+00 4.395464e+00 4.741709e+00 4.741692e+00 3.116933e+00 2.897550e+00 2.132962e+00 2.438300e+00
<GCONST> 1.087150e+02
<STATE> 4
<MEAN> 25
 2.773135e+00 -1.823360e+00 5.181898e+00 5.110073e+00 1.791191e+00 1.108491e+00 -6.076962e+00 -6.504519e+00 -1.297289e+00 2.426534e-01 4.462430e-01 -1.243152e+00 1.713332e-01 9.498052e-02 -8.980791e-02 4.536064e-01 4.281359e-01 -1.812387e-01 -2.933962e-01 -1.591372e-01 -1.075355e-01 -5.923842e-02 -9.197169e-02 -6.871168e-02 2.378547e-02
<VARIANCE> 25
 2.819555e+01 6.564502e+01 5.799332e+01 5.123007e+01 4.990535e+01 5.473779e+01 4.122573e+01 4.582000e+01 4.234919e+01 2.816667e+01 3.287616e+01 2.401102e+01 2.047267e+00 7.587943e+00 5.761435e+00 2.844972e+00 3.971164e+00 5.324619e+00 4.076195e+00 4.662734e+00 4.640309e+00 2.899271e+00 3.115927e+00 2.180004e+00 2.273100e+00
<GCONST> 1.075510e+02
<TRANSP> 5
 0.000000e+00 1.000000e+00 0.000000e+00 0.000000e+00 0.000000e+00
 0.000000e+00 5.838497e-01 4.161503e-01 0.000000e+00 0.000000e+00
 0.000000e+00 0.000000e+00 5.838500e-01 4.161500e-01 0.000000e+00
 0.000000e+00 0.000000e+00 0.000000e+00 6.829473e-01 3.170527e-01
 0.000000e+00 0.000000e+00 0.000000e+00 0.000000e+00 0.000000e+00
<ENDHMM>
~h "k"
<BEGINHMM>
<NUMSTATES> 5
<STATE> 2
<MEAN> 25
 2.306027e+00 -2.922040e+00 -2.144144e+00 -1.645196e+00 -2.578661e+00 -4.613371e-01 8.192195e-01 -8.630608e-01 -1.119877e+00 2.410903e-03 1.306601e+00 1.217835e+00 2.354382e-01 -2.871688e-01 -1.461347e-01 -1.352935e-01 -1.429710e-01 9.204342e-02 1.198913e-01 -4.914448e-03 -1.313779e-01 -1.088303e-01 4.629996e-02 4.161255e-02 2.792074e-01
<VARIANCE> 25
 4.035645e+01 9.145538e+01 5.311042e+01 5.893564e+01 5.232425e+01 6.155431e+01 6.827132e+01 5.617672e+01 3.838989e+01 4.315423e+01 3.695872e+01 3.333229e+01 2.886346e+00 5.691104e+00 3.208618e+00 3.892576e+00 3.921310e+00 6.169796e+00 4.066099e+00 3.862777e+00 3.414334e+00 3.762947e+00 2.901129e+00 2.703917e+00 3.036369e+00
<GCONST> 1.100552e+02
<STATE> 3
<MEAN> 25
 2.861051e+00 -3.530654e+00 -2.433293e+00 -1.961663e+00 -2.859361e+00 -1.838497e-01 1.120585e+00 -7.928014e-01 -1.372330e+00 -3.004301e-01 1.362587e+00 1.299237e+00 2.127857e-01 -2.141708e-01 -9.951800e-02 -1.088472e-01 -9.609514e-02 1.086519e-01 1.258276e-01 4.640580e-02 -1.011772e-01 -1.348107e-01 5.290444e-03 1.839705e-02 2.399249e-01
<VARIANCE> 25
 3.788969e+01 8.574637e+01 5.294832e+01 5.337630e+01 5.038446e+01 5.927305e+01 6.424758e+01 5.405677e+01 3.757850e+01 4.310649e+01 3.715776e+01 3.301118e+01 2.777432e+00 5.571418e+00 3.306467e+00 3.612802e+00 3.808864e+00 5.968472e+00 3.947568e+00 3.745218e+00 3.384435e+00 3.609886e+00 2.941223e+00 2.684902e+00 2.873713e+00
<GCONST> 1.092983e+02
<STATE> 4
<MEAN> 25
 3.437475e+00 -3.968132e+00 -2.559664e+00 -2.230512e+00 -3.013120e+00 2.326727e-01 1.497013e+00 -5.395256e-01 -1.579786e+00 -7.696988e-01 1.274364e+00 1.303628e+00 1.434721e-01 -1.087626e-01 -1.331001e-02 -6.502540e-02 -3.549231e-02 1.300913e-01 1.074212e-01 8.004709e-02 -6.017469e-02 -1.439842e-01 -3.457505e-02 -8.732838e-03 1.578454e-01
<VARIANCE> 25
 3.553817e+01 7.899042e+01 5.471640e+01 4.690480e+01 4.785704e+01 5.695343e+01 5.864457e+01 5.088142e+01 3.650784e+01 4.217144e+01 3.722184e+01 3.240936e+01 2.610767e+00 5.413414e+00 3.430887e+00 3.280102e+00 3.635354e+00 5.573712e+00 3.807339e+00 3.541793e+00 3.273134e+00 3.371552e+00 2.948956e+00 2.609591e+00 2.623765e+00
<GCONST> 1.081691e+02
<TRANSP> 5
 0.000000e+00 1.000000e+00 0.000000e+00 0.000000e+00 0.000000e+00
 0.000000e+00 5.926546e-01 4.073454e-01 0.000000e+00 0.000000e+00
 0.000000e+00 0.000000e+00 5.926544e-01 4.073456e-01 0.000000e+00
 0.000000e+00 0.000000e+00 0.000000e+00 6.941881e-01 3.058120e-01
 0.000000e+00 0.000000e+00 0.000000e+00 0.000000e+00 0.000000e+00
<ENDHMM>
~h "l"
<BEGINHMM>
<NUMSTATES> 5
<STATE> 2
<MEAN> 25
 4.742487e+00 -4.167855e+00 -3.676513e+00 -2.375317e+00 -3.637365e+00 3.885331e-02 4.211902e+00 1.901894e+00 -8.925357e-01 -7.863487e-01 2.987189e-01 3.786040e-01 -1.123563e-01 2.573707e-01 -7.339140e-03 -1.815736e-01 -4.803713e-02 3.652125e-02 1.722358e-01 2.431129e-01 1.284099e-01 -2.004582e-02 -9.931778e-02 -5.072372e-02 -1.772644e-01
<VARIANCE> 25
 1.835090e+01 5.080500e+01 2.666656e+01 3.016613e+01 3.791252e+01 3.922791e+01 4.283678e+01 4.861185e+01 3.514233e+01 4.137453e+01 3.710391e+01 3.444655e+01 9.484220e-01 3.463029e+00 1.766036e+00 1.831558e+00 2.407619e+00 2.944811e+00 2.719343e+00 2.510125e+00 2.166784e+00 2.434013e+00 2.456448e+00 2.001974e+00 1.310415e+00
<GCONST> 9.862435e+01
<STATE> 3
<MEAN> 25
 4.334211e+00 -3.483409e+00 -3.576486e+00 -2.704963e+00 -3.636748e+00 1.580183e-01 4.463827e+00 2.336075e+00 -5.883861e-01 -7.740542e-01 9.647568e-02 2.611674e-01 -1.987492e-01 3.111009e-01 7.376514e-02 -1.115826e-01 2.312739e-02 4.734220e-02 7.729151e-02 1.655027e-01 1.300991e-01 2.470551e-02 -6.720113e-02 -4.897524e-02 -2.540130e-01
<VARIANCE> 25
 2.055394e+01 5.447702e+01 2.736237e+01 2.785163e+01 3.745906e+01 4.100884e+01 4.146362e+01 4.726348e+01 3.480833e+01 4.007172e+01 3.552480e+01 3.455877e+01 1.020929e+00 3.548467e+00 1.692554e+00 1.760051e+00 2.453940e+00 3.150995e+00 2.707744e+00 2.538427e+00 2.193918e+00 2.484757e+00 2.343515e+00 2.038948e+00 1.379518e+00
<GCONST> 9.880840e+01
<STATE> 4
<MEAN> 25
 3.685192e+00 -2.580943e+00 -3.231993e+00 -2.870148e+00 -3.478005e+00 3.088439e-01 4.451066e+00 2.526307e+00 -2.539687e-01 -6.516942e-01 -1.055290e-01 1.469855e-01 -2.572403e-01 3.446987e-01 1.464871e-01 -3.990309e-02 8.395930e-02 4.266400e-02 -3.392532e-02 6.490546e-02 1.110714e-01 5.464292e-02 -3.885204e-02 -3.380711e-02 -3.025351e-01
<VARIANCE> 25
 2.438380e+01 6.076893e+01 2.955465e+01 2.664088e+01 3.789678e+01 4.417563e+01 4.185458e+01 4.532635e+01 3.415488e+01 3.868062e+01 3.406892e+01 3.444035e+01 1.221933e+00 3.787184e+00 1.696800e+00 1.751601e+00 2.569312e+00 3.568025e+00 2.728874e+00 2.592605e+00 2.274105e+00 2.565806e+00 2.260809e+00 2.106599e+00 1.563321e+00
<GCONST> 9.970661e+01
<TRANSP> 5
 0.000000e+00 1.000000e+00 0.000000e+00 0.000000e+00 0.000000e+00
 0.000000e+00 5.798762e-01 4.201238e-01 0.000000e+00 0.000000e+00
 0.000000e+00 0.000000e+00 5.798764e-01 4.201235e-01 0.000000e+00
 0.000000e+00 0.000000e+00 0.000000e+00 6.787754e-01 3.212246e-01
 0.000000e+00 0.000000e+00 0.000000e+00 0.000000e+00 0.000000e+00
<ENDHMM>
~h "m"
<BEGINHMM>
<NUMSTATES> 5
<STATE> 2
<MEAN> 25
 -2.905711e-01 3.094547e+00 3.390086e-02 -1.226514e+00 6.926502e-02 2.225647e-01 1.817053e+00 2.348162e+00 7.434545e-01 -4.636351e-01 -1.553130e+00 -1.360847e+00 1.372420e-01 1.637069e-01 1.797140e-01 1.141160e-01 4.603698e-02 -7.936210e-02 -2.550407e-01 -1.719171e-01 1.635364e-02 -3.860939e-02 -5.175845e-02 5.709686e-02 6.964979e-02
<VARIANCE> 25
 5.675739e+01 5.515974e+01 3.855122e+01 3.149415e+01 5.661583e+01 5.644664e+01 5.484793e+01 4.097466e+01 3.179524e+01 3.787457e+01 3.713623e+01 3.103789e+01 2.363427e+00 3.630687e+00 1.969062e+00 1.910863e+00 3.190324e+00 4.278007e+00 3.005265e+00 2.531361e+00 2.420297e+00 2.808030e+00 2.895879e+00 2.581966e+00 1.796096e+00
<GCONST> 1.036594e+02
<STATE> 3
<MEAN> 25
 8.039244e-02 3.400670e+00 4.025034e-01 -1.020849e+00 5.572383e-02 -1.250614e-02 1.237629e+00 1.915761e+00 7.431444e-01 -5.433376e-01 -1.605462e+00 -1.160182e+00 1.250047e-01 1.120682e-01 1.578391e-01 8.949786e-02 -5.788317e-03 -9.250440e-02 -2.594396e-01 -2.067878e-01 1.161194e-02 -7.149207e-03 5.406675e-04 1.071678e-01 7.724790e-02
<VARIANCE> 25
 5.021216e+01 5.752974e+01 4.093684e+01 3.358694e+01 5.697264e+01 6.124509e+01 5.757290e+01 4.113321e+01 3.206462e+01 3.767414e+01 3.831880e+01 3.177279e+01 2.513187e+00 3.864300e+00 2.126838e+00 2.086071e+00 3.325571e+00 4.459330e+00 3.210212e+00 2.680177e+00 2.570960e+00 2.918699e+00 2.873659e+00 2.653877e+00 1.952249e+00
<GCONST> 1.045984e+02
<STATE> 4
<MEAN> 25
 4.854758e-01 3.617362e+00 7.449175e-01 -8.015542e-01 -7.137486e-02 -3.887928e-01 5.111016e-01 1.316499e+00 6.656074e-01 -5.525921e-01 -1.476001e+00 -8.344990e-01 7.883692e-02 2.854137e-02 1.160358e-01 9.341925e-02 -2.620409e-02 -1.147985e-01 -2.578462e-01 -2.198927e-01 -1.436183e-02 2.553457e-02 7.360171e-02 1.313549e-01 6.439811e-02
<VARIANCE> 25
 4.398241e+01 6.145783e+01 4.440683e+01 3.748399e+01 5.719699e+01 6.638571e+01 6.205379e+01 4.182511e+01 3.212136e+01 3.779384e+01 3.811847e+01 3.185534e+01 2.533332e+00 4.142524e+00 2.312107e+00 2.390710e+00 3.399937e+00 4.622698e+00 3.498323e+00 2.852847e+00 2.652800e+00 3.000358e+00 2.820052e+00 2.655347e+00 2.078411e+00
<GCONST> 1.055086e+02
<TRANSP> 5
 0.000000e+00 1.000000e+00 0.000000e+00 0.000000e+00 0.000000e+00
 0.000000e+00 5.702865e-01 4.297136e-01 0.000000e+00 0.000000e+00
 0.000000e+00 0.000000e+00 5.702875e-01 4.297125e-01 0.000000e+00
 0.000000e+00 0.000000e+00 0.000000e+00 6.674354e-01 3.325646e-01
 0.000000e+00 0.000000e+00 0.000000e+00 0.000000e+00 0.000000e+00
<ENDHMM>
~h "n"
<BEGINHMM>
<NUMSTATES> 5
<STATE> 2
<MEAN> 25
 2.713573e+00 -2.244040e+00 4.016230e-01 4.260059e-01 -3.295783e-01 1.187506e+00 2.203141e-01 -2.945005e-01 -1.474654e+00 -1.934444e+00 6.919415e-02 -6.688988e-02 5.767029e-03 8.228855e-02 1.480245e-01 -6.267282e-02 -1.478326e-01 -1.544847e-02 8.256923e-02 1.347077e-01 1.860173e-02 -9.614404e-02 -7.695821e-02 -5.495414e-02 6.161251e-03
<VARIANCE> 25
 4.051495e+01 7.035671e+01 7.346458e+01 5.340755e+01 6.431233e+01 5.743946e+01 6.506582e+01 5.088311e+01 3.879301e+01 4.198190e+01 3.814489e+01 3.172948e+01 2.119690e+00 4.836149e+00 3.423001e+00 2.406171e+00 3.197099e+00 4.146188e+00 3.494503e+00 2.989517e+00 2.881021e+00 3.080040e+00 3.087722e+00 2.361993e+00 1.639855e+00
<GCONST> 1.070218e+02
<STATE> 3
<MEAN> 25
 2.736588e+00 -2.083635e+00 7.587641e-01 2.740046e-01 -7.251851e-01 1.089425e+00 3.516209e-01 -8.219859e-03 -1.411341e+00 -2.121669e+00 -8.793332e-02 -2.052352e-01 4.766946e-03 7.782527e-02 1.167392e-01 -5.786166e-02 -1.555148e-01 -6.651586e-02 6.009139e-02 1.254609e-01 3.202487e-02 -6.204037e-02 -6.928119e-02 -6.814861e-02 -4.361936e-04
<VARIANCE> 25
 4.006326e+01 6.958900e+01 7.572024e+01 5.515563e+01 6.571505e+01 6.014618e+01 6.894558e+01 5.167910e+01 3.948719e+01 4.260961e+01 3.813444e+01 3.189948e+01 2.128637e+00 4.742423e+00 3.365868e+00 2.365176e+00 3.168841e+00 4.090302e+00 3.486106e+00 2.917721e+00 2.837190e+00 3.128977e+00 3.042629e+00 2.342710e+00 1.563190e+00
<GCONST> 1.070719e+02
<STATE> 4
<MEAN> 25
 2.765542e+00 -1.919024e+00 1.155606e+00 1.080138e-01 -1.241983e+00 8.472493e-01 3.987039e-01 2.675619e-01 -1.272144e+00 -2.234412e+00 -2.487384e-01 -4.070686e-01 -7.818875e-03 8.961955e-02 8.153049e-02 -2.993023e-02 -1.417738e-01 -1.291251e-01 2.631816e-02 1.005614e-01 4.426352e-02 -1.132507e-02 -5.837386e-02 -8.344801e-02 -2.560566e-02
<VARIANCE> 25
 4.019400e+01 7.031573e+01 7.693974e+01 5.767534e+01 6.610513e+01 6.455473e+01 7.281551e+01 5.365878e+01 3.994585e+01 4.311641e+01 3.826324e+01 3.244714e+01 2.149039e+00 4.591813e+00 3.298649e+00 2.367526e+00 3.126271e+00 4.052281e+00 3.430673e+00 2.850857e+00 2.770862e+00 3.125970e+00 2.944629e+00 2.320148e+00 1.486506e+00
<GCONST> 1.071375e+02
<TRANSP> 5
 0.000000e+00 1.000000e+00 0.000000e+00 0.000000e+00 0.000000e+00
 0.000000e+00 5.940512e-01 4.059489e-01 0.000000e+00 0.000000e+00
 0.000000e+00 0.000000e+00 5.940504e-01 4.059496e-01 0.000000e+00
 0.000000e+00 0.000000e+00 0.000000e+00 6.956551e-01 3.043449e-01
 0.000000e+00 0.000000e+00 0.000000e+00 0.000000e+00 0.000000e+00
<ENDHMM>
~h "p"
<BEGINHMM>
<NUMSTATES> 5
<STATE> 2
<MEAN> 25
 1.566022e+00 3.731465e+00 2.178161e+00 3.535701e-01 -1.712835e+00 -3.453778e+00 -2.244056e+00 -7.722212e-01 -5.239306e-01 -5.951247e-01 -8.616369e-01 -1.016979e+00 -1.033339e-02 -1.152746e-02 7.293338e-02 1.158754e-01 1.128956e-01 -4.368341e-02 -2.893989e-01 -2.227335e-01 2.059807e-02 1.001379e-01 5.218973e-02 -5.297914e-03 6.289679e-03
<VARIANCE> 25
 2.805361e+01 7.635522e+01 3.869772e+01 4.598859e+01 6.232492e+01 7.750924e+01 6.475824e+01 5.415982e+01 3.817255e+01 3.969035e+01 3.629770e+01 3.197137e+01 2.181597e+00 4.636609e+00 2.450673e+00 3.177390e+00 3.798809e+00 6.270129e+00 4.232741e+00 3.750526e+00 3.040156e+00 3.116209e+00 2.663411e+00 2.785584e+00 2.115596e+00
<GCONST> 1.074294e+02
<STATE> 3
<MEAN> 25
 1.575954e+00 3.583941e+00 2.295997e+00 6.188987e-01 -1.406999e+00 -3.436398e+00 -2.824063e+00 -1.260474e+00 -5.105255e-01 -4.155188e-01 -7.465673e-01 -1.012788e+00 1.081922e-02 -9.820020e-02 1.591019e-02 8.684271e-02 1.176273e-01 3.677243e-02 -1.946109e-01 -1.836262e-01 -4.758302e-03 6.374574e-02 4.650560e-02 1.145184e-02 4.776623e-02
<VARIANCE> 25
 2.860908e+01 7.805930e+01 3.933622e+01 4.832055e+01 6.426791e+01 7.866340e+01 6.287169e+01 5.375831e+01 3.842583e+01 4.069974e+01 3.677422e+01 3.302637e+01 2.113134e+00 4.631759e+00 2.508626e+00 3.250489e+00 3.805245e+00 6.328967e+00 4.324654e+00 3.785074e+00 3.102595e+00 3.180534e+00 2.718195e+00 2.845288e+00 2.074931e+00
<GCONST> 1.077404e+02
<STATE> 4
<MEAN> 25
 1.699247e+00 3.152406e+00 2.216268e+00 8.571470e-01 -9.736000e-01 -3.160006e+00 -3.222920e+00 -1.708985e+00 -5.897958e-01 -3.630053e-01 -6.263604e-01 -9.072769e-01 8.807651e-03 -1.561754e-01 -5.720231e-02 3.990532e-02 1.280295e-01 1.277971e-01 -6.317506e-02 -1.119334e-01 -1.749921e-02 2.729606e-02 3.716588e-02 4.532482e-02 5.780131e-02
<VARIANCE> 25
 3.036070e+01 7.932034e+01 4.007635e+01 5.025336e+01 6.639183e+01 7.766930e+01 6.072981e+01 5.249719e+01 3.817796e+01 4.171753e+01 3.701403e+01 3.416502e+01 2.032912e+00 4.559030e+00 2.516783e+00 3.221958e+00 3.789950e+00 6.127129e+00 4.286457e+00 3.743323e+00 3.137944e+00 3.256396e+00 2.763244e+00 2.850296e+00 2.050658e+00
<GCONST> 1.078186e+02
<TRANSP> 5
 0.000000e+00 1.000000e+00 0.000000e+00 0.000000e+00 0.000000e+00
 0.000000e+00 5.862880e-01 4.137119e-01 0.000000e+00 0.000000e+00
 0.000000e+00 0.000000e+00 5.862881e-01 4.137119e-01 0.000000e+00
 0.000000e+00 0.000000e+00 0.000000e+00 6.854119e-01 3.145881e-01
 0.000000e+00 0.000000e+00 0.000000e+00 0.000000e+00 0.000000e+00
<ENDHMM>
~h "r"
<BEGINHMM>
<NUMSTATES> 5
<STATE> 2
<MEAN> 25
 2.781821e+00 -5.292795e-01 -2.089057e+00 -1.358006e+00 9.380122e-01 9.343978e-01 -1.186698e+00 -1.164157e+00 -8.267563e-01 -2.111547e+00 -9.088245e-01 1.458647e+00 -2.817443e-01 -2.090175e-02 9.943867e-02 5.375992e-02 1.575296e-01 1.521838e-01 -1.992531e-02 1.957311e-02 1.179682e-01 2.215529e-01 1.356633e-01 -5.741383e-03 -1.878584e-01
<VARIANCE> 25
 4.290546e+01 6.353012e+01 5.628162e+01 4.820410e+01 4.739219e+01 5.743826e+01 5.129374e+01 4.439634e+01 4.156419e+01 4.181216e+01 4.406537e+01 3.384486e+01 1.277367e+00 2.599441e+00 2.611374e+00 2.758351e+00 2.728617e+00 3.469493e+00 3.475654e+00 3.052306e+00 2.438950e+00 2.707640e+00 2.347940e+00 2.494889e+00 9.779995e-01
<GCONST> 1.035883e+02
<STATE> 3
<MEAN> 25
 2.028707e+00 -5.911819e-01 -1.713618e+00 -1.126769e+00 1.297604e+00 1.278966e+00 -1.272998e+00 -1.144941e+00 -5.500600e-01 -1.539069e+00 -5.819708e-01 1.350694e+00 -3.481746e-01 -1.732995e-02 2.008702e-01 1.523150e-01 1.581542e-01 9.927520e-02 -5.482252e-02 1.373708e-02 1.212241e-01 2.484726e-01 1.302461e-01 -7.615517e-02 -2.288925e-01
<VARIANCE> 25
 4.937312e+01 6.638955e+01 5.847833e+01 5.149214e+01 4.751064e+01 5.780909e+01 5.111479e+01 4.332392e+01 4.264891e+01 4.174860e+01 4.380553e+01 3.221899e+01 1.297813e+00 2.651897e+00 2.595475e+00 2.782222e+00 2.643959e+00 3.310708e+00 3.412378e+00 2.924750e+00 2.355648e+00 2.612877e+00 2.312402e+00 2.370027e+00 9.575412e-01
<GCONST> 1.035679e+02
<STATE> 4
<MEAN> 25
 1.191721e+00 -8.137988e-01 -1.015615e+00 -5.672706e-01 1.604500e+00 1.470936e+00 -1.504951e+00 -1.192527e+00 -3.133099e-01 -9.030405e-01 -2.097993e-01 1.046014e+00 -3.811649e-01 5.726063e-04 2.872125e-01 2.726881e-01 1.673084e-01 2.903126e-02 -9.361617e-02 -1.422406e-02 1.024631e-01 2.425642e-01 9.513505e-02 -1.357547e-01 -2.557911e-01
<VARIANCE> 25
 5.581293e+01 6.886556e+01 6.161093e+01 5.882216e+01 4.863567e+01 6.019658e+01 5.188897e+01 4.271354e+01 4.312665e+01 4.181177e+01 4.330090e+01 3.158304e+01 1.375756e+00 2.752772e+00 2.569543e+00 2.895017e+00 2.583200e+00 3.299587e+00 3.342031e+00 2.822567e+00 2.360656e+00 2.553445e+00 2.308395e+00 2.254707e+00 9.748759e-01
<GCONST> 1.039460e+02
<TRANSP> 5
 0.000000e+00 1.000000e+00 0.000000e+00 0.000000e+00 0.000000e+00
 0.000000e+00 5.809636e-01 4.190364e-01 0.000000e+00 0.000000e+00
 0.000000e+00 0.000000e+00 5.809645e-01 4.190354e-01 0.000000e+00
 0.000000e+00 0.000000e+00 0.000000e+00 6.797085e-01 3.202915e-01
 0.000000e+00 0.000000e+00 0.000000e+00 0.000000e+00 0.000000e+00
<ENDHMM>
~h "s"
<BEGINHMM>
<NUMSTATES> 5
<STATE> 2
<MEAN> 25
 -4.510885e-01 -3.039359e+00 6.283106e+00 2.111174e+00 -1.594728e-01 1.711482e+00 -5.153250e+00 -2.427992e+00 6.822805e-02 -9.915873e-01 1.048669e+00 -7.824799e-01 3.739048e-02 4.283069e-01 -1.271471e-01 4.995516e-01 3.414215e-01 -5.600228e-01 -2.657121e-01 -1.688575e-01 -1.500040e-02 1.345313e-01 -1.794861e-01 -2.103410e-01 -2.177587e-01
<VARIANCE> 25
 6.053559e+01 7.625702e+01 9.014123e+01 1.150406e+02 6.613496e+01 1.233605e+02 7.680642e+01 7.890666e+01 5.147613e+01 4.795877e+01 4.732483e+01 3.490173e+01 3.885227e+00 3.482481e+00 4.660635e+00 4.062922e+00 2.763608e+00 5.061269e+00 3.436686e+00 4.208813e+00 2.888048e+00 2.674657e+00 2.699743e+00 1.896669e+00 9.236605e-01
<GCONST> 1.110224e+02
<STATE> 3
<MEAN> 25
 -3.155844e-01 -1.794912e+00 5.740269e+00 3.443351e+00 7.633442e-01 1.547554e-01 -5.688854e+00 -2.834842e+00 2.592380e-02 -5.143977e-01 5.914106e-01 -1.316171e+00 3.601157e-02 5.056797e-01 -2.424239e-01 4.401258e-01 3.153676e-01 -5.574790e-01 -1.344972e-01 -1.406222e-01 1.257504e-02 2.279859e-01 -1.803512e-01 -1.916405e-01 -2.748217e-01
<VARIANCE> 25
 5.564371e+01 7.904421e+01 8.029426e+01 1.155984e+02 7.106746e+01 1.168674e+02 7.683050e+01 7.767027e+01 5.004435e+01 5.047018e+01 4.689149e+01 3.494637e+01 3.386043e+00 3.208129e+00 3.771922e+00 3.922056e+00 2.601320e+00 4.608441e+00 3.312044e+00 4.052610e+00 2.671328e+00 2.661366e+00 2.512560e+00 1.815101e+00 8.931834e-01
<GCONST> 1.099527e+02
<STATE> 4
<MEAN> 25
 -1.463398e-01 -1.818324e-01 4.729282e+00 4.716070e+00 1.681910e+00 -1.583419e+00 -5.871228e+00 -3.213550e+00 4.025325e-03 2.753976e-01 1.402743e-01 -1.740907e+00 -4.174243e-02 5.385590e-01 -3.113360e-01 2.855758e-01 2.508771e-01 -4.506309e-01 3.950825e-02 -4.784631e-02 7.176724e-02 3.112284e-01 -1.424966e-01 -1.284567e-01 -3.517790e-01
<VARIANCE> 25
 4.869836e+01 7.671178e+01 6.943251e+01 1.089119e+02 7.549635e+01 1.004423e+02 7.718278e+01 7.615479e+01 4.643416e+01 5.275608e+01 4.496113e+01 3.363722e+01 2.755875e+00 2.902703e+00 2.862233e+00 3.618687e+00 2.405349e+00 4.130774e+00 3.153567e+00 3.658166e+00 2.386651e+00 2.598950e+00 2.259758e+00 1.704413e+00 8.454083e-01
<GCONST> 1.080056e+02
<TRANSP> 5
 0.000000e+00 1.000000e+00 0.000000e+00 0.000000e+00 0.000000e+00
 0.000000e+00 6.275957e-01 3.724042e-01 0.000000e+00 0.000000e+00
 0.000000e+00 0.000000e+00 6.275954e-01 3.724046e-01 0.000000e+00
 0.000000e+00 0.000000e+00 0.000000e+00 7.334960e-01 2.665040e-01
 0.000000e+00 0.000000e+00 0.000000e+00 0.000000e+00 0.000000e+00
<ENDHMM>
~h "t"
<BEGINHMM>
<NUMSTATES> 5
<STATE> 2
<MEAN> 25
 -4.958998e-01 5.941851e-01 5.244875e-01 -1.331830e-02 -1.568517e-01 6.452209e-01 5.274869e-01 1.419974e-01 -2.831570e-01 -1.514085e+00 -1.028894e+00 3.644688e-01 2.156094e-01 -2.817220e-02 1.849291e-01 1.888370e-01 -5.810159e-02 -1.754990e-01 -2.568751e-01 -2.159833e-01 -1.405773e-01 -1.341502e-01 -7.090791e-02 -5.648164e-02 1.964572e-01
<VARIANCE> 25
 5.516649e+01 5.358906e+01 3.673807e+01 5.650970e+01 5.963610e+01 4.845208e+01 7.192820e+01 5.512117e+01 4.542605e+01 5.581171e+01 3.540792e+01 2.875124e+01 3.180147e+00 4.882244e+00 2.453999e+00 4.048082e+00 3.914670e+00 4.522902e+00 4.415667e+00 4.118663e+00 3.374992e+00 4.419639e+00 2.966962e+00 2.625593e+00 3.351122e+00
<GCONST> 1.093722e+02
<STATE> 3
<MEAN> 25
 8.619848e-02 5.585725e-01 9.484063e-01 4.287417e-01 -3.042397e-01 1.845236e-01 -7.706505e-02 -3.760954e-01 -6.567204e-01 -1.861075e+00 -1.228258e+00 2.197921e-01 2.148743e-01 7.961030e-03 1.557220e-01 1.758526e-01 -3.047130e-02 -1.784690e-01 -2.453116e-01 -2.073572e-01 -1.380138e-01 -1.091185e-01 -6.709184e-02 -5.616761e-02 1.790960e-01
<VARIANCE> 25
 4.933396e+01 5.605007e+01 3.741362e+01 6.216592e+01 6.095267e+01 5.100543e+01 7.732511e+01 5.728446e+01 4.468443e+01 5.502802e+01 3.604374e+01 2.908121e+01 3.248513e+00 4.845322e+00 2.501617e+00 4.315968e+00 3.960609e+00 4.711273e+00 4.565411e+00 4.294890e+00 3.466366e+00 4.486777e+00 3.028148e+00 2.645981e+00 3.377305e+00
<GCONST> 1.099041e+02
<STATE> 4
<MEAN> 25
 7.986832e-01 6.574396e-01 1.220539e+00 7.956899e-01 -4.720730e-01 -4.146902e-01 -6.109612e-01 -8.285862e-01 -1.101858e+00 -2.174097e+00 -1.379410e+00 9.742259e-02 1.615380e-01 4.237130e-02 7.142546e-02 1.169684e-01 4.334470e-04 -1.564253e-01 -1.783611e-01 -1.501648e-01 -1.065742e-01 -3.203047e-02 -4.043498e-03 -1.925626e-02 1.142329e-01
<VARIANCE> 25
 4.379898e+01 6.085571e+01 3.757796e+01 6.620335e+01 6.196371e+01 5.223039e+01 7.924590e+01 5.838087e+01 4.297470e+01 5.442353e+01 3.718660e+01 2.916457e+01 3.157746e+00 4.698893e+00 2.486848e+00 4.392416e+00 3.930688e+00 4.686703e+00 4.509905e+00 4.298473e+00 3.388449e+00 4.298695e+00 3.028383e+00 2.630816e+00 3.261665e+00
<GCONST> 1.098247e+02
<TRANSP> 5
 0.000000e+00 1.000000e+00 0.000000e+00 0.000000e+00 0.000000e+00
 0.000000e+00 5.943074e-01 4.056926e-01 0.000000e+00 0.000000e+00
 0.000000e+00 0.000000e+00 5.943065e-01 4.056935e-01 0.000000e+00
 0.000000e+00 0.000000e+00 0.000000e+00 6.952437e-01 3.047563e-01
 0.000000e+00 0.000000e+00 0.000000e+00 0.000000e+00 0.000000e+00
<ENDHMM>
~h "u"
<BEGINHMM>
<NUMSTATES> 5
<STATE> 2
<MEAN> 25
 6.745882e-01 4.217141e+00 1.370266e+00 -1.661150e+00 -2.269658e+00 -1.636251e+00 7.390967e-01 1.234664e+00 -6.079164e-01 -2.137375e+00 -1.893358e+00 -5.398344e-01 2.216793e-02 -1.443223e-01 -1.223692e-01 -6.214007e-02 -4.370811e-03 7.812572e-02 2.630745e-02 -9.116836e-02 -5.457129e-02 6.859544e-02 9.532455e-02 8.270491e-02 5.463065e-02
<VARIANCE> 25
 4.519498e+01 6.839590e+01 4.239190e+01 3.027595e+01 6.340020e+01 7.137513e+01 5.729929e+01 4.383483e+01 4.512304e+01 5.655474e+01 3.917514e+01 2.943152e+01 2.672114e+00 4.265173e+00 2.371516e+00 2.062628e+00 3.692133e+00 4.998519e+00 3.799906e+00 3.408383e+00 3.378440e+00 3.833259e+00 2.641735e+00 2.361581e+00 2.167115e+00
<GCONST> 1.069441e+02
<STATE> 3
<MEAN> 25
 6.192808e-01 3.764871e+00 1.049699e+00 -1.785165e+00 -2.215519e+00 -1.378294e+00 8.163971e-01 1.008877e+00 -6.891758e-01 -1.875225e+00 -1.595890e+00 -2.958037e-01 -4.838995e-02 -2.179139e-01 -1.383072e-01 -4.584730e-02 3.473072e-02 1.130738e-01 2.555162e-02 -8.125182e-02 -1.441638e-02 1.231073e-01 1.405422e-01 1.054223e-01 2.777684e-02
<VARIANCE> 25
 4.614316e+01 7.168490e+01 4.297551e+01 3.097945e+01 6.314605e+01 7.026726e+01 5.589561e+01 4.421094e+01 4.420442e+01 5.527628e+01 3.973462e+01 2.932135e+01 2.559082e+00 4.328150e+00 2.433674e+00 2.120953e+00 3.640702e+00 4.893255e+00 3.804012e+00 3.415966e+00 3.315439e+00 3.660794e+00 2.577199e+00 2.323979e+00 2.178457e+00
<GCONST> 1.068723e+02
<STATE> 4
<MEAN> 25
 4.491541e-01 2.961204e+00 6.740826e-01 -1.863731e+00 -2.087107e+00 -1.003011e+00 8.669450e-01 7.658313e-01 -6.773877e-01 -1.475617e+00 -1.147511e+00 4.243215e-02 -1.054315e-01 -2.908686e-01 -1.380666e-01 -2.043851e-02 6.969255e-02 1.317218e-01 5.488262e-03 -7.158838e-02 2.676975e-02 1.537567e-01 1.664133e-01 1.169191e-01 1.478649e-02
<VARIANCE> 25
 4.987733e+01 7.605915e+01 4.425587e+01 3.264894e+01 6.329391e+01 6.889596e+01 5.474552e+01 4.503476e+01 4.321753e+01 5.292248e+01 4.009146e+01 2.895560e+01 2.445955e+00 4.375661e+00 2.524895e+00 2.217149e+00 3.527154e+00 4.738992e+00 3.783259e+00 3.398405e+00 3.175940e+00 3.389329e+00 2.482504e+00 2.262374e+00 2.183704e+00
<GCONST> 1.067924e+02
<TRANSP> 5
 0.000000e+00 1.000000e+00 0.000000e+00 0.000000e+00 0.000000e+00
 0.000000e+00 5.940090e-01 4.059910e-01 0.000000e+00 0.000000e+00
 0.000000e+00 0.000000e+00 5.940101e-01 4.059899e-01 0.000000e+00
 0.000000e+00 0.000000e+00 0.000000e+00 6.947314e-01 3.052686e-01
 0.000000e+00 0.000000e+00 0.000000e+00 0.000000e+00 0.000000e+00
<ENDHMM>
~h "ng"
<BEGINHMM>
<NUMSTATES> 5
<STATE> 2
<MEAN> 25
 1.793638e+00 1.036671e+00 -8.242612e-02 -2.086291e+00 -1.342058e+00 2.191214e+00 1.893773e+00 9.933990e-01 5.018797e-01 -2.318484e+00 -2.397020e+00 2.541358e-01 -1.845366e-02 1.847382e-01 8.050035e-02 -5.323103e-02 9.717438e-02 1.007275e-02 -1.147517e-01 8.646251e-02 8.050050e-04 4.423663e-03 2.288144e-01 5.184338e-02 -6.121895e-02
<VARIANCE> 25
 2.239947e+01 6.349611e+01 2.699427e+01 2.900084e+01 4.398874e+01 4.141954e+01 3.313943e+01 3.916220e+01 2.398541e+01 3.857116e+01 3.463626e+01 3.141896e+01 1.979921e+00 4.198165e+00 2.243892e+00 2.261903e+00 3.592825e+00 3.752372e+00 2.676979e+00 3.474001e+00 2.432417e+00 3.212581e+00 2.745649e+00 2.849838e+00 2.421109e+00
<GCONST> 1.019392e+02
<STATE> 3
<MEAN> 25
 1.817093e+00 1.529436e+00 1.140587e-01 -2.192047e+00 -1.086637e+00 2.160094e+00 1.563692e+00 1.212178e+00 5.065672e-01 -2.312114e+00 -1.900495e+00 2.898066e-01 3.298080e-02 1.838738e-01 7.088009e-02 -3.620218e-02 8.998913e-02 -3.955089e-02 -1.238816e-01 9.454891e-02 -1.806063e-02 2.666076e-02 2.333596e-01 6.002775e-04 -2.354345e-02
<VARIANCE> 25
 2.210533e+01 6.442054e+01 2.827241e+01 2.915184e+01 4.235782e+01 4.167468e+01 3.508237e+01 4.080841e+01 2.540653e+01 3.863300e+01 3.527063e+01 2.993378e+01 1.941692e+00 3.999760e+00 2.262623e+00 2.306960e+00 3.503120e+00 3.713399e+00 2.546081e+00 3.589154e+00 2.386896e+00 3.146259e+00 2.715944e+00 2.683156e+00 2.326852e+00
<GCONST> 1.018436e+02
<STATE> 4
<MEAN> 25
 2.054694e+00 2.123003e+00 3.510107e-01 -2.213336e+00 -8.044035e-01 1.978596e+00 1.080183e+00 1.415458e+00 4.880581e-01 -2.317829e+00 -1.484508e+00 1.497792e-01 7.208607e-02 2.228572e-01 8.733465e-02 1.051831e-02 9.859103e-02 -9.627808e-02 -1.511552e-01 7.355485e-02 -2.770841e-02 6.397884e-02 1.994017e-01 -6.817193e-02 -9.235826e-03
<VARIANCE> 25
 1.964658e+01 6.593068e+01 2.906315e+01 2.810746e+01 4.063454e+01 4.157158e+01 4.014319e+01 4.105173e+01 2.653957e+01 3.778242e+01 3.533578e+01 2.783945e+01 1.744907e+00 3.659871e+00 2.140757e+00 2.236696e+00 3.335890e+00 3.553408e+00 2.423649e+00 3.568962e+00 2.262322e+00 2.931075e+00 2.593532e+00 2.432390e+00 2.091287e+00
<GCONST> 1.009820e+02
<TRANSP> 5
 0.000000e+00 1.000000e+00 0.000000e+00 0.000000e+00 0.000000e+00
 0.000000e+00 5.820737e-01 4.179263e-01 0.000000e+00 0.000000e+00
 0.000000e+00 0.000000e+00 5.820737e-01 4.179263e-01 0.000000e+00
 0.000000e+00 0.000000e+00 0.000000e+00 6.806071e-01 3.193929e-01
 0.000000e+00 0.000000e+00 0.000000e+00 0.000000e+00 0.000000e+00
<ENDHMM>
~h "ny"
<BEGINHMM>
<NUMSTATES> 5
<STATE> 2
<MEAN> 25
 -7.528309e+00 -2.319592e-02 1.479236e+00 3.546710e+00 4.773866e+00 2.119473e+00 -1.551555e-01 -5.469673e-01 1.825446e+00 4.657083e+00 1.794917e+00 -1.378061e+00 1.210113e+00 -5.161214e-01 -1.158523e-02 1.001327e-01 -3.613158e-01 9.227122e-02 -1.084522e-02 -3.950954e-01 -3.677639e-01 -2.664104e-01 1.297073e-02 9.625903e-02 1.101253e+00
<VARIANCE> 25
 9.240482e+01 7.338844e+01 4.481253e+01 3.883987e+01 3.248012e+01 3.395029e+01 3.084189e+01 4.199888e+01 3.072442e+01 3.174449e+01 3.497094e+01 2.425206e+01 2.860082e+00 4.774641e+00 5.146540e+00 3.122237e+00 1.471855e+00 3.125413e+00 3.287291e+00 3.507078e+00 2.286972e+00 2.700268e+00 3.180643e+00 1.626102e+00 2.132704e+00
<GCONST> 1.036118e+02
<STATE> 3
<MEAN> 25
 -4.268181e+00 -1.453936e+00 1.311989e+00 3.727519e+00 3.561176e+00 2.114339e+00 -5.397017e-02 -1.474155e+00 1.021237e+00 4.038183e+00 1.741274e+00 -1.006908e+00 1.310823e+00 -5.823073e-01 -1.552844e-01 4.865036e-03 -4.876604e-01 -1.201270e-02 7.983219e-02 -3.125773e-01 -3.101916e-01 -2.559902e-01 -1.369541e-02 1.668323e-01 1.181402e+00
<VARIANCE> 25
 9.748620e+01 8.130533e+01 5.448203e+01 4.309568e+01 3.530986e+01 3.261223e+01 3.597517e+01 4.085764e+01 3.341891e+01 3.361761e+01 3.901719e+01 2.496177e+01 2.945297e+00 5.446280e+00 5.500236e+00 3.685816e+00 1.627484e+00 3.428495e+00 3.652431e+00 3.895602e+00 2.551428e+00 2.871588e+00 3.383862e+00 1.705785e+00 2.360250e+00
<GCONST> 1.056956e+02
<STATE> 4
<MEAN> 25
 -3.112813e-01 -3.347397e+00 3.229923e-01 3.336910e+00 1.571719e+00 1.636204e+00 6.099256e-01 -2.017643e+00 2.428648e-01 3.386328e+00 1.623091e+00 -4.379195e-01 1.155791e+00 -6.048722e-01 -3.998535e-01 -2.096917e-01 -5.793419e-01 -1.413348e-01 2.191322e-01 -1.030789e-01 -2.317540e-01 -2.130468e-01 -1.259013e-02 1.862488e-01 1.048372e+00
<VARIANCE> 25
 8.278311e+01 7.872349e+01 6.029219e+01 4.907618e+01 3.881852e+01 3.284358e+01 4.520423e+01 4.234948e+01 3.543883e+01 3.526071e+01 4.178597e+01 2.790144e+01 2.735719e+00 5.739407e+00 4.987635e+00 3.931621e+00 1.738665e+00 3.571479e+00 3.749171e+00 3.982989e+00 2.704267e+00 2.813523e+00 3.299888e+00 1.791549e+00 2.458730e+00
<GCONST> 1.065866e+02
<TRANSP> 5
 0.000000e+00 1.000000e+00 0.000000e+00 0.000000e+00 0.000000e+00
 0.000000e+00 5.900088e-01 4.099912e-01 0.000000e+00 0.000000e+00
 0.000000e+00 0.000000e+00 5.900090e-01 4.099911e-01 0.000000e+00
 0.000000e+00 0.000000e+00 0.000000e+00 6.915678e-01 3.084321e-01
 0.000000e+00 0.000000e+00 0.000000e+00 0.000000e+00 0.000000e+00
<ENDHMM>
~h "sil"
<BEGINHMM>
<NUMSTATES> 5
<STATE> 2
<MEAN> 25
 -1.050581e+01 3.641976e+00 -7.742078e-01 2.507963e-01 4.842392e+00 8.601139e-01 8.585276e-01 2.261475e+00 3.593444e+00 4.950660e+00 1.191898e+00 -2.581934e-01 -2.175694e-01 -7.793666e-03 -1.070374e-01 -1.216155e-01 1.591093e-02 1.059025e-01 2.476846e-01 2.401613e-01 9.066263e-02 2.854516e-02 8.773482e-03 2.490710e-02 -1.732980e-01
<VARIANCE> 25
 3.895189e+01 3.024428e+01 2.835346e+01 4.158857e+01 3.283168e+01 3.585761e+01 5.066264e+01 4.701785e+01 2.930520e+01 3.389518e+01 2.593656e+01 1.962070e+01 7.873924e-01 1.058384e+00 9.495026e-01 1.028270e+00 1.152489e+00 1.478225e+00 1.619004e+00 1.430891e+00 1.373195e+00 1.413370e+00 1.162786e+00 9.825073e-01 4.331092e-01
<GCONST> 8.919723e+01
<STATE> 3
<MEAN> 25
 -1.079736e+01 3.575002e+00 -1.013247e+00 8.408561e-03 4.844190e+00 1.112179e+00 1.436347e+00 2.779306e+00 3.702101e+00 4.856257e+00 1.129183e+00 -2.717017e-01 -5.071899e-02 -6.267127e-02 -8.544497e-02 -6.067629e-02 1.426168e-02 9.661075e-02 1.988031e-01 1.686408e-01 1.764602e-02 -5.448523e-02 -4.022211e-02 -4.376964e-02 -2.545717e-02
<VARIANCE> 25
 3.758255e+01 3.115057e+01 2.731460e+01 3.766439e+01 3.237428e+01 3.506339e+01 4.832528e+01 4.360584e+01 2.913357e+01 3.545375e+01 2.525791e+01 2.068212e+01 1.296854e+00 1.425116e+00 1.144521e+00 1.097006e+00 1.245734e+00 1.593135e+00 1.701750e+00 1.562047e+00 1.489245e+00 1.604766e+00 1.380254e+00 1.069001e+00 7.116252e-01
<GCONST> 9.125952e+01
<STATE> 4
<MEAN> 25
 -1.039087e+01 3.353232e+00 -1.197504e+00 -1.786507e-01 4.737862e+00 1.395350e+00 1.899316e+00 3.060433e+00 3.579804e+00 4.415522e+00 8.427718e-01 -4.034892e-01 1.834740e-01 -1.100101e-01 -2.852771e-02 -5.004264e-02 -4.988594e-02 9.105457e-02 1.265470e-01 8.080495e-02 -3.165205e-02 -1.426802e-01 -9.412372e-02 -5.018193e-02 1.809701e-01
<VARIANCE> 25
 4.508626e+01 3.721803e+01 2.768404e+01 3.419054e+01 3.435386e+01 3.329977e+01 4.329158e+01 3.862968e+01 2.965998e+01 3.794458e+01 2.597559e+01 2.141294e+01 1.905025e+00 1.872510e+00 1.426952e+00 1.268865e+00 1.580211e+00 1.779861e+00 1.845773e+00 1.836722e+00 1.752171e+00 1.999846e+00 1.698847e+00 1.199516e+00 1.165426e+00
<GCONST> 9.427570e+01
<TRANSP> 5
 0.000000e+00 1.000000e+00 0.000000e+00 0.000000e+00 0.000000e+00
 0.000000e+00 5.990924e-01 4.009076e-01 0.000000e+00 0.000000e+00
 0.000000e+00 0.000000e+00 5.990927e-01 4.009073e-01 0.000000e+00
 0.000000e+00 0.000000e+00 0.000000e+00 7.010397e-01 2.989604e-01
 0.000000e+00 0.000000e+00 0.000000e+00 0.000000e+00 0.000000e+00
<ENDHMM>
