~h "a"
<BEGINHMM>
<NUMSTATES> 5
<STATE> 2
<MEAN> 25
 -8.342391e-10 -6.993704e-08 -8.498811e-09 1.341735e-08 3.941780e-08 2.850317e-09 5.596354e-08 -1.019336e-08 -8.064311e-09 -2.659137e-08 -4.327615e-09 3.135349e-08 8.189915e-03 7.748712e-03 7.512058e-03 9.937505e-03 4.986486e-03 -8.222394e-03 -1.262124e-02 -7.085458e-03 3.215857e-03 5.224390e-03 -1.209671e-03 2.598397e-03 3.863287e-03
<VARIANCE> 25
 6.197250e+01 7.269382e+01 5.313067e+01 5.698232e+01 5.835572e+01 5.889814e+01 6.608836e+01 5.338778e+01 4.012721e+01 4.736023e+01 3.758759e+01 3.097640e+01 2.221815e+00 4.021650e+00 2.608438e+00 2.825415e+00 2.944812e+00 4.150948e+00 3.419099e+00 3.119950e+00 2.669910e+00 2.943820e+00 2.555069e+00 2.198400e+00 1.928937e+00
<GCONST> 1.067986e+02
<STATE> 3
<MEAN> 25
 -8.342391e-10 -6.993704e-08 -8.498811e-09 1.341735e-08 3.941780e-08 2.850317e-09 5.596354e-08 -1.019336e-08 -8.064311e-09 -2.659137e-08 -4.327615e-09 3.135349e-08 8.189915e-03 7.748712e-03 7.512058e-03 9.937505e-03 4.986486e-03 -8.222394e-03 -1.262124e-02 -7.085458e-03 3.215857e-03 5.224390e-03 -1.209671e-03 2.598397e-03 3.863287e-03
<VARIANCE> 25
 6.197250e+01 7.269382e+01 5.313067e+01 5.698232e+01 5.835572e+01 5.889814e+01 6.608836e+01 5.338778e+01 4.012721e+01 4.736023e+01 3.758759e+01 3.097640e+01 2.221815e+00 4.021650e+00 2.608438e+00 2.825415e+00 2.944812e+00 4.150948e+00 3.419099e+00 3.119950e+00 2.669910e+00 2.943820e+00 2.555069e+00 2.198400e+00 1.928937e+00
<GCONST> 1.067986e+02
<STATE> 4
<MEAN> 25
 -8.342391e-10 -6.993704e-08 -8.498811e-09 1.341735e-08 3.941780e-08 2.850317e-09 5.596354e-08 -1.019336e-08 -8.064311e-09 -2.659137e-08 -4.327615e-09 3.135349e-08 8.189915e-03 7.748712e-03 7.512058e-03 9.937505e-03 4.986486e-03 -8.222394e-03 -1.262124e-02 -7.085458e-03 3.215857e-03 5.224390e-03 -1.209671e-03 2.598397e-03 3.863287e-03
<VARIANCE> 25
 6.197250e+01 7.269382e+01 5.313067e+01 5.698232e+01 5.835572e+01 5.889814e+01 6.608836e+01 5.338778e+01 4.012721e+01 4.736023e+01 3.758759e+01 3.097640e+01 2.221815e+00 4.021650e+00 2.608438e+00 2.825415e+00 2.944812e+00 4.150948e+00 3.419099e+00 3.119950e+00 2.669910e+00 2.943820e+00 2.555069e+00 2.198400e+00 1.928937e+00
<GCONST> 1.067986e+02
<TRANSP> 5
 0.000000e+00 1.000000e+00 0.000000e+00 0.000000e+00 0.000000e+00
 0.000000e+00 6.000000e-01 4.000000e-01 0.000000e+00 0.000000e+00
 0.000000e+00 0.000000e+00 6.000000e-01 4.000000e-01 0.000000e+00
 0.000000e+00 0.000000e+00 0.000000e+00 7.000000e-01 3.000000e-01
 0.000000e+00 0.000000e+00 0.000000e+00 0.000000e+00 0.000000e+00
<ENDHMM>
~h "s"
<BEGINHMM>
<NUMSTATES> 5
<STATE> 2
<MEAN> 25
 -8.342391e-10 -6.993704e-08 -8.498811e-09 1.341735e-08 3.941780e-08 2.850317e-09 5.596354e-08 -1.019336e-08 -8.064311e-09 -2.659137e-08 -4.327615e-09 3.135349e-08 8.189915e-03 7.748712e-03 7.512058e-03 9.937505e-03 4.986486e-03 -8.222394e-03 -1.262124e-02 -7.085458e-03 3.215857e-03 5.224390e-03 -1.209671e-03 2.598397e-03 3.863287e-03
<VARIANCE> 25
 6.197250e+01 7.269382e+01 5.313067e+01 5.698232e+01 5.835572e+01 5.889814e+01 6.608836e+01 5.338778e+01 4.012721e+01 4.736023e+01 3.758759e+01 3.097640e+01 2.221815e+00 4.021650e+00 2.608438e+00 2.825415e+00 2.944812e+00 4.150948e+00 3.419099e+00 3.119950e+00 2.669910e+00 2.943820e+00 2.555069e+00 2.198400e+00 1.928937e+00
<GCONST> 1.067986e+02
<STATE> 3
<MEAN> 25
 -8.342391e-10 -6.993704e-08 -8.498811e-09 1.341735e-08 3.941780e-08 2.850317e-09 5.596354e-08 -1.019336e-08 -8.064311e-09 -2.659137e-08 -4.327615e-09 3.135349e-08 8.189915e-03 7.748712e-03 7.512058e-03 9.937505e-03 4.986486e-03 -8.222394e-03 -1.262124e-02 -7.085458e-03 3.215857e-03 5.224390e-03 -1.209671e-03 2.598397e-03 3.863287e-03
<VARIANCE> 25
 6.197250e+01 7.269382e+01 5.313067e+01 5.698232e+01 5.835572e+01 5.889814e+01 6.608836e+01 5.338778e+01 4.012721e+01 4.736023e+01 3.758759e+01 3.097640e+01 2.221815e+00 4.021650e+00 2.608438e+00 2.825415e+00 2.944812e+00 4.150948e+00 3.419099e+00 3.119950e+00 2.669910e+00 2.943820e+00 2.555069e+00 2.198400e+00 1.928937e+00
<GCONST> 1.067986e+02
<STATE> 4
<MEAN> 25
 -8.342391e-10 -6.993704e-08 -8.498811e-09 1.341735e-08 3.941780e-08 2.850317e-09 5.596354e-08 -1.019336e-08 -8.064311e-09 -2.659137e-08 -4.327615e-09 3.135349e-08 8.189915e-03 7.748712e-03 7.512058e-03 9.937505e-03 4.986486e-03 -8.222394e-03 -1.262124e-02 -7.085458e-03 3.215857e-03 5.224390e-03 -1.209671e-03 2.598397e-03 3.863287e-03
<VARIANCE> 25
 6.197250e+01 7.269382e+01 5.313067e+01 5.698232e+01 5.835572e+01 5.889814e+01 6.608836e+01 5.338778e+01 4.012721e+01 4.736023e+01 3.758759e+01 3.097640e+01 2.221815e+00 4.021650e+00 2.608438e+00 2.825415e+00 2.944812e+00 4.150948e+00 3.419099e+00 3.119950e+00 2.669910e+00 2.943820e+00 2.555069e+00 2.198400e+00 1.928937e+00
<GCONST> 1.067986e+02
<TRANSP> 5
 0.000000e+00 1.000000e+00 0.000000e+00 0.000000e+00 0.000000e+00
 0.000000e+00 6.000000e-01 4.000000e-01 0.000000e+00 0.000000e+00
 0.000000e+00 0.000000e+00 6.000000e-01 4.000000e-01 0.000000e+00
 0.000000e+00 0.000000e+00 0.000000e+00 7.000000e-01 3.000000e-01
 0.000000e+00 0.000000e+00 0.000000e+00 0.000000e+00 0.000000e+00
<ENDHMM>
~h "e"
<BEGINHMM>
<NUMSTATES> 5
<STATE> 2
<MEAN> 25
 -8.342391e-10 -6.993704e-08 -8.498811e-09 1.341735e-08 3.941780e-08 2.850317e-09 5.596354e-08 -1.019336e-08 -8.064311e-09 -2.659137e-08 -4.327615e-09 3.135349e-08 8.189915e-03 7.748712e-03 7.512058e-03 9.937505e-03 4.986486e-03 -8.222394e-03 -1.262124e-02 -7.085458e-03 3.215857e-03 5.224390e-03 -1.209671e-03 2.598397e-03 3.863287e-03
<VARIANCE> 25
 6.197250e+01 7.269382e+01 5.313067e+01 5.698232e+01 5.835572e+01 5.889814e+01 6.608836e+01 5.338778e+01 4.012721e+01 4.736023e+01 3.758759e+01 3.097640e+01 2.221815e+00 4.021650e+00 2.608438e+00 2.825415e+00 2.944812e+00 4.150948e+00 3.419099e+00 3.119950e+00 2.669910e+00 2.943820e+00 2.555069e+00 2.198400e+00 1.928937e+00
<GCONST> 1.067986e+02
<STATE> 3
<MEAN> 25
 -8.342391e-10 -6.993704e-08 -8.498811e-09 1.341735e-08 3.941780e-08 2.850317e-09 5.596354e-08 -1.019336e-08 -8.064311e-09 -2.659137e-08 -4.327615e-09 3.135349e-08 8.189915e-03 7.748712e-03 7.512058e-03 9.937505e-03 4.986486e-03 -8.222394e-03 -1.262124e-02 -7.085458e-03 3.215857e-03 5.224390e-03 -1.209671e-03 2.598397e-03 3.863287e-03
<VARIANCE> 25
 6.197250e+01 7.269382e+01 5.313067e+01 5.698232e+01 5.835572e+01 5.889814e+01 6.608836e+01 5.338778e+01 4.012721e+01 4.736023e+01 3.758759e+01 3.097640e+01 2.221815e+00 4.021650e+00 2.608438e+00 2.825415e+00 2.944812e+00 4.150948e+00 3.419099e+00 3.119950e+00 2.669910e+00 2.943820e+00 2.555069e+00 2.198400e+00 1.928937e+00
<GCONST> 1.067986e+02
<STATE> 4
<MEAN> 25
 -8.342391e-10 -6.993704e-08 -8.498811e-09 1.341735e-08 3.941780e-08 2.850317e-09 5.596354e-08 -1.019336e-08 -8.064311e-09 -2.659137e-08 -4.327615e-09 3.135349e-08 8.189915e-03 7.748712e-03 7.512058e-03 9.937505e-03 4.986486e-03 -8.222394e-03 -1.262124e-02 -7.085458e-03 3.215857e-03 5.224390e-03 -1.209671e-03 2.598397e-03 3.863287e-03
<VARIANCE> 25
 6.197250e+01 7.269382e+01 5.313067e+01 5.698232e+01 5.835572e+01 5.889814e+01 6.608836e+01 5.338778e+01 4.012721e+01 4.736023e+01 3.758759e+01 3.097640e+01 2.221815e+00 4.021650e+00 2.608438e+00 2.825415e+00 2.944812e+00 4.150948e+00 3.419099e+00 3.119950e+00 2.669910e+00 2.943820e+00 2.555069e+00 2.198400e+00 1.928937e+00
<GCONST> 1.067986e+02
<TRANSP> 5
 0.000000e+00 1.000000e+00 0.000000e+00 0.000000e+00 0.000000e+00
 0.000000e+00 6.000000e-01 4.000000e-01 0.000000e+00 0.000000e+00
 0.000000e+00 0.000000e+00 6.000000e-01 4.000000e-01 0.000000e+00
 0.000000e+00 0.000000e+00 0.000000e+00 7.000000e-01 3.000000e-01
 0.000000e+00 0.000000e+00 0.000000e+00 0.000000e+00 0.000000e+00
<ENDHMM> 
~h "b"
<BEGINHMM>
<NUMSTATES> 5
<STATE> 2
<MEAN> 25
 -8.342391e-10 -6.993704e-08 -8.498811e-09 1.341735e-08 3.941780e-08 2.850317e-09 5.596354e-08 -1.019336e-08 -8.064311e-09 -2.659137e-08 -4.327615e-09 3.135349e-08 8.189915e-03 7.748712e-03 7.512058e-03 9.937505e-03 4.986486e-03 -8.222394e-03 -1.262124e-02 -7.085458e-03 3.215857e-03 5.224390e-03 -1.209671e-03 2.598397e-03 3.863287e-03
<VARIANCE> 25
 6.197250e+01 7.269382e+01 5.313067e+01 5.698232e+01 5.835572e+01 5.889814e+01 6.608836e+01 5.338778e+01 4.012721e+01 4.736023e+01 3.758759e+01 3.097640e+01 2.221815e+00 4.021650e+00 2.608438e+00 2.825415e+00 2.944812e+00 4.150948e+00 3.419099e+00 3.119950e+00 2.669910e+00 2.943820e+00 2.555069e+00 2.198400e+00 1.928937e+00
<GCONST> 1.067986e+02
<STATE> 3
<MEAN> 25
 -8.342391e-10 -6.993704e-08 -8.498811e-09 1.341735e-08 3.941780e-08 2.850317e-09 5.596354e-08 -1.019336e-08 -8.064311e-09 -2.659137e-08 -4.327615e-09 3.135349e-08 8.189915e-03 7.748712e-03 7.512058e-03 9.937505e-03 4.986486e-03 -8.222394e-03 -1.262124e-02 -7.085458e-03 3.215857e-03 5.224390e-03 -1.209671e-03 2.598397e-03 3.863287e-03
<VARIANCE> 25
 6.197250e+01 7.269382e+01 5.313067e+01 5.698232e+01 5.835572e+01 5.889814e+01 6.608836e+01 5.338778e+01 4.012721e+01 4.736023e+01 3.758759e+01 3.097640e+01 2.221815e+00 4.021650e+00 2.608438e+00 2.825415e+00 2.944812e+00 4.150948e+00 3.419099e+00 3.119950e+00 2.669910e+00 2.943820e+00 2.555069e+00 2.198400e+00 1.928937e+00
<GCONST> 1.067986e+02
<STATE> 4
<MEAN> 25
 -8.342391e-10 -6.993704e-08 -8.498811e-09 1.341735e-08 3.941780e-08 2.850317e-09 5.596354e-08 -1.019336e-08 -8.064311e-09 -2.659137e-08 -4.327615e-09 3.135349e-08 8.189915e-03 7.748712e-03 7.512058e-03 9.937505e-03 4.986486e-03 -8.222394e-03 -1.262124e-02 -7.085458e-03 3.215857e-03 5.224390e-03 -1.209671e-03 2.598397e-03 3.863287e-03
<VARIANCE> 25
 6.197250e+01 7.269382e+01 5.313067e+01 5.698232e+01 5.835572e+01 5.889814e+01 6.608836e+01 5.338778e+01 4.012721e+01 4.736023e+01 3.758759e+01 3.097640e+01 2.221815e+00 4.021650e+00 2.608438e+00 2.825415e+00 2.944812e+00 4.150948e+00 3.419099e+00 3.119950e+00 2.669910e+00 2.943820e+00 2.555069e+00 2.198400e+00 1.928937e+00
<GCONST> 1.067986e+02
<TRANSP> 5
 0.000000e+00 1.000000e+00 0.000000e+00 0.000000e+00 0.000000e+00
 0.000000e+00 6.000000e-01 4.000000e-01 0.000000e+00 0.000000e+00
 0.000000e+00 0.000000e+00 6.000000e-01 4.000000e-01 0.000000e+00
 0.000000e+00 0.000000e+00 0.000000e+00 7.000000e-01 3.000000e-01
 0.000000e+00 0.000000e+00 0.000000e+00 0.000000e+00 0.000000e+00
<ENDHMM>
~h "u"
<BEGINHMM>
<NUMSTATES> 5
<STATE> 2
<MEAN> 25
 -8.342391e-10 -6.993704e-08 -8.498811e-09 1.341735e-08 3.941780e-08 2.850317e-09 5.596354e-08 -1.019336e-08 -8.064311e-09 -2.659137e-08 -4.327615e-09 3.135349e-08 8.189915e-03 7.748712e-03 7.512058e-03 9.937505e-03 4.986486e-03 -8.222394e-03 -1.262124e-02 -7.085458e-03 3.215857e-03 5.224390e-03 -1.209671e-03 2.598397e-03 3.863287e-03
<VARIANCE> 25
 6.197250e+01 7.269382e+01 5.313067e+01 5.698232e+01 5.835572e+01 5.889814e+01 6.608836e+01 5.338778e+01 4.012721e+01 4.736023e+01 3.758759e+01 3.097640e+01 2.221815e+00 4.021650e+00 2.608438e+00 2.825415e+00 2.944812e+00 4.150948e+00 3.419099e+00 3.119950e+00 2.669910e+00 2.943820e+00 2.555069e+00 2.198400e+00 1.928937e+00
<GCONST> 1.067986e+02
<STATE> 3
<MEAN> 25
 -8.342391e-10 -6.993704e-08 -8.498811e-09 1.341735e-08 3.941780e-08 2.850317e-09 5.596354e-08 -1.019336e-08 -8.064311e-09 -2.659137e-08 -4.327615e-09 3.135349e-08 8.189915e-03 7.748712e-03 7.512058e-03 9.937505e-03 4.986486e-03 -8.222394e-03 -1.262124e-02 -7.085458e-03 3.215857e-03 5.224390e-03 -1.209671e-03 2.598397e-03 3.863287e-03
<VARIANCE> 25
 6.197250e+01 7.269382e+01 5.313067e+01 5.698232e+01 5.835572e+01 5.889814e+01 6.608836e+01 5.338778e+01 4.012721e+01 4.736023e+01 3.758759e+01 3.097640e+01 2.221815e+00 4.021650e+00 2.608438e+00 2.825415e+00 2.944812e+00 4.150948e+00 3.419099e+00 3.119950e+00 2.669910e+00 2.943820e+00 2.555069e+00 2.198400e+00 1.928937e+00
<GCONST> 1.067986e+02
<STATE> 4
<MEAN> 25
 -8.342391e-10 -6.993704e-08 -8.498811e-09 1.341735e-08 3.941780e-08 2.850317e-09 5.596354e-08 -1.019336e-08 -8.064311e-09 -2.659137e-08 -4.327615e-09 3.135349e-08 8.189915e-03 7.748712e-03 7.512058e-03 9.937505e-03 4.986486e-03 -8.222394e-03 -1.262124e-02 -7.085458e-03 3.215857e-03 5.224390e-03 -1.209671e-03 2.598397e-03 3.863287e-03
<VARIANCE> 25
 6.197250e+01 7.269382e+01 5.313067e+01 5.698232e+01 5.835572e+01 5.889814e+01 6.608836e+01 5.338778e+01 4.012721e+01 4.736023e+01 3.758759e+01 3.097640e+01 2.221815e+00 4.021650e+00 2.608438e+00 2.825415e+00 2.944812e+00 4.150948e+00 3.419099e+00 3.119950e+00 2.669910e+00 2.943820e+00 2.555069e+00 2.198400e+00 1.928937e+00
<GCONST> 1.067986e+02
<TRANSP> 5
 0.000000e+00 1.000000e+00 0.000000e+00 0.000000e+00 0.000000e+00
 0.000000e+00 6.000000e-01 4.000000e-01 0.000000e+00 0.000000e+00
 0.000000e+00 0.000000e+00 6.000000e-01 4.000000e-01 0.000000e+00
 0.000000e+00 0.000000e+00 0.000000e+00 7.000000e-01 3.000000e-01
 0.000000e+00 0.000000e+00 0.000000e+00 0.000000e+00 0.000000e+00
<ENDHMM>
~h "k"
<BEGINHMM>
<NUMSTATES> 5
<STATE> 2
<MEAN> 25
 -8.342391e-10 -6.993704e-08 -8.498811e-09 1.341735e-08 3.941780e-08 2.850317e-09 5.596354e-08 -1.019336e-08 -8.064311e-09 -2.659137e-08 -4.327615e-09 3.135349e-08 8.189915e-03 7.748712e-03 7.512058e-03 9.937505e-03 4.986486e-03 -8.222394e-03 -1.262124e-02 -7.085458e-03 3.215857e-03 5.224390e-03 -1.209671e-03 2.598397e-03 3.863287e-03
<VARIANCE> 25
 6.197250e+01 7.269382e+01 5.313067e+01 5.698232e+01 5.835572e+01 5.889814e+01 6.608836e+01 5.338778e+01 4.012721e+01 4.736023e+01 3.758759e+01 3.097640e+01 2.221815e+00 4.021650e+00 2.608438e+00 2.825415e+00 2.944812e+00 4.150948e+00 3.419099e+00 3.119950e+00 2.669910e+00 2.943820e+00 2.555069e+00 2.198400e+00 1.928937e+00
<GCONST> 1.067986e+02
<STATE> 3
<MEAN> 25
 -8.342391e-10 -6.993704e-08 -8.498811e-09 1.341735e-08 3.941780e-08 2.850317e-09 5.596354e-08 -1.019336e-08 -8.064311e-09 -2.659137e-08 -4.327615e-09 3.135349e-08 8.189915e-03 7.748712e-03 7.512058e-03 9.937505e-03 4.986486e-03 -8.222394e-03 -1.262124e-02 -7.085458e-03 3.215857e-03 5.224390e-03 -1.209671e-03 2.598397e-03 3.863287e-03
<VARIANCE> 25
 6.197250e+01 7.269382e+01 5.313067e+01 5.698232e+01 5.835572e+01 5.889814e+01 6.608836e+01 5.338778e+01 4.012721e+01 4.736023e+01 3.758759e+01 3.097640e+01 2.221815e+00 4.021650e+00 2.608438e+00 2.825415e+00 2.944812e+00 4.150948e+00 3.419099e+00 3.119950e+00 2.669910e+00 2.943820e+00 2.555069e+00 2.198400e+00 1.928937e+00
<GCONST> 1.067986e+02
<STATE> 4
<MEAN> 25
 -8.342391e-10 -6.993704e-08 -8.498811e-09 1.341735e-08 3.941780e-08 2.850317e-09 5.596354e-08 -1.019336e-08 -8.064311e-09 -2.659137e-08 -4.327615e-09 3.135349e-08 8.189915e-03 7.748712e-03 7.512058e-03 9.937505e-03 4.986486e-03 -8.222394e-03 -1.262124e-02 -7.085458e-03 3.215857e-03 5.224390e-03 -1.209671e-03 2.598397e-03 3.863287e-03
<VARIANCE> 25
 6.197250e+01 7.269382e+01 5.313067e+01 5.698232e+01 5.835572e+01 5.889814e+01 6.608836e+01 5.338778e+01 4.012721e+01 4.736023e+01 3.758759e+01 3.097640e+01 2.221815e+00 4.021650e+00 2.608438e+00 2.825415e+00 2.944812e+00 4.150948e+00 3.419099e+00 3.119950e+00 2.669910e+00 2.943820e+00 2.555069e+00 2.198400e+00 1.928937e+00
<GCONST> 1.067986e+02
<TRANSP> 5
 0.000000e+00 1.000000e+00 0.000000e+00 0.000000e+00 0.000000e+00
 0.000000e+00 6.000000e-01 4.000000e-01 0.000000e+00 0.000000e+00
 0.000000e+00 0.000000e+00 6.000000e-01 4.000000e-01 0.000000e+00
 0.000000e+00 0.000000e+00 0.000000e+00 7.000000e-01 3.000000e-01
 0.000000e+00 0.000000e+00 0.000000e+00 0.000000e+00 0.000000e+00
<ENDHMM>
~h "d"
<BEGINHMM>
<NUMSTATES> 5
<STATE> 2
<MEAN> 25
 -8.342391e-10 -6.993704e-08 -8.498811e-09 1.341735e-08 3.941780e-08 2.850317e-09 5.596354e-08 -1.019336e-08 -8.064311e-09 -2.659137e-08 -4.327615e-09 3.135349e-08 8.189915e-03 7.748712e-03 7.512058e-03 9.937505e-03 4.986486e-03 -8.222394e-03 -1.262124e-02 -7.085458e-03 3.215857e-03 5.224390e-03 -1.209671e-03 2.598397e-03 3.863287e-03
<VARIANCE> 25
 6.197250e+01 7.269382e+01 5.313067e+01 5.698232e+01 5.835572e+01 5.889814e+01 6.608836e+01 5.338778e+01 4.012721e+01 4.736023e+01 3.758759e+01 3.097640e+01 2.221815e+00 4.021650e+00 2.608438e+00 2.825415e+00 2.944812e+00 4.150948e+00 3.419099e+00 3.119950e+00 2.669910e+00 2.943820e+00 2.555069e+00 2.198400e+00 1.928937e+00
<GCONST> 1.067986e+02
<STATE> 3
<MEAN> 25
 -8.342391e-10 -6.993704e-08 -8.498811e-09 1.341735e-08 3.941780e-08 2.850317e-09 5.596354e-08 -1.019336e-08 -8.064311e-09 -2.659137e-08 -4.327615e-09 3.135349e-08 8.189915e-03 7.748712e-03 7.512058e-03 9.937505e-03 4.986486e-03 -8.222394e-03 -1.262124e-02 -7.085458e-03 3.215857e-03 5.224390e-03 -1.209671e-03 2.598397e-03 3.863287e-03
<VARIANCE> 25
 6.197250e+01 7.269382e+01 5.313067e+01 5.698232e+01 5.835572e+01 5.889814e+01 6.608836e+01 5.338778e+01 4.012721e+01 4.736023e+01 3.758759e+01 3.097640e+01 2.221815e+00 4.021650e+00 2.608438e+00 2.825415e+00 2.944812e+00 4.150948e+00 3.419099e+00 3.119950e+00 2.669910e+00 2.943820e+00 2.555069e+00 2.198400e+00 1.928937e+00
<GCONST> 1.067986e+02
<STATE> 4
<MEAN> 25
 -8.342391e-10 -6.993704e-08 -8.498811e-09 1.341735e-08 3.941780e-08 2.850317e-09 5.596354e-08 -1.019336e-08 -8.064311e-09 -2.659137e-08 -4.327615e-09 3.135349e-08 8.189915e-03 7.748712e-03 7.512058e-03 9.937505e-03 4.986486e-03 -8.222394e-03 -1.262124e-02 -7.085458e-03 3.215857e-03 5.224390e-03 -1.209671e-03 2.598397e-03 3.863287e-03
<VARIANCE> 25
 6.197250e+01 7.269382e+01 5.313067e+01 5.698232e+01 5.835572e+01 5.889814e+01 6.608836e+01 5.338778e+01 4.012721e+01 4.736023e+01 3.758759e+01 3.097640e+01 2.221815e+00 4.021650e+00 2.608438e+00 2.825415e+00 2.944812e+00 4.150948e+00 3.419099e+00 3.119950e+00 2.669910e+00 2.943820e+00 2.555069e+00 2.198400e+00 1.928937e+00
<GCONST> 1.067986e+02
<TRANSP> 5
 0.000000e+00 1.000000e+00 0.000000e+00 0.000000e+00 0.000000e+00
 0.000000e+00 6.000000e-01 4.000000e-01 0.000000e+00 0.000000e+00
 0.000000e+00 0.000000e+00 6.000000e-01 4.000000e-01 0.000000e+00
 0.000000e+00 0.000000e+00 0.000000e+00 7.000000e-01 3.000000e-01
 0.000000e+00 0.000000e+00 0.000000e+00 0.000000e+00 0.000000e+00
<ENDHMM>
~h "p"
<BEGINHMM>
<NUMSTATES> 5
<STATE> 2
<MEAN> 25
 -8.342391e-10 -6.993704e-08 -8.498811e-09 1.341735e-08 3.941780e-08 2.850317e-09 5.596354e-08 -1.019336e-08 -8.064311e-09 -2.659137e-08 -4.327615e-09 3.135349e-08 8.189915e-03 7.748712e-03 7.512058e-03 9.937505e-03 4.986486e-03 -8.222394e-03 -1.262124e-02 -7.085458e-03 3.215857e-03 5.224390e-03 -1.209671e-03 2.598397e-03 3.863287e-03
<VARIANCE> 25
 6.197250e+01 7.269382e+01 5.313067e+01 5.698232e+01 5.835572e+01 5.889814e+01 6.608836e+01 5.338778e+01 4.012721e+01 4.736023e+01 3.758759e+01 3.097640e+01 2.221815e+00 4.021650e+00 2.608438e+00 2.825415e+00 2.944812e+00 4.150948e+00 3.419099e+00 3.119950e+00 2.669910e+00 2.943820e+00 2.555069e+00 2.198400e+00 1.928937e+00
<GCONST> 1.067986e+02
<STATE> 3
<MEAN> 25
 -8.342391e-10 -6.993704e-08 -8.498811e-09 1.341735e-08 3.941780e-08 2.850317e-09 5.596354e-08 -1.019336e-08 -8.064311e-09 -2.659137e-08 -4.327615e-09 3.135349e-08 8.189915e-03 7.748712e-03 7.512058e-03 9.937505e-03 4.986486e-03 -8.222394e-03 -1.262124e-02 -7.085458e-03 3.215857e-03 5.224390e-03 -1.209671e-03 2.598397e-03 3.863287e-03
<VARIANCE> 25
 6.197250e+01 7.269382e+01 5.313067e+01 5.698232e+01 5.835572e+01 5.889814e+01 6.608836e+01 5.338778e+01 4.012721e+01 4.736023e+01 3.758759e+01 3.097640e+01 2.221815e+00 4.021650e+00 2.608438e+00 2.825415e+00 2.944812e+00 4.150948e+00 3.419099e+00 3.119950e+00 2.669910e+00 2.943820e+00 2.555069e+00 2.198400e+00 1.928937e+00
<GCONST> 1.067986e+02
<STATE> 4
<MEAN> 25
 -8.342391e-10 -6.993704e-08 -8.498811e-09 1.341735e-08 3.941780e-08 2.850317e-09 5.596354e-08 -1.019336e-08 -8.064311e-09 -2.659137e-08 -4.327615e-09 3.135349e-08 8.189915e-03 7.748712e-03 7.512058e-03 9.937505e-03 4.986486e-03 -8.222394e-03 -1.262124e-02 -7.085458e-03 3.215857e-03 5.224390e-03 -1.209671e-03 2.598397e-03 3.863287e-03
<VARIANCE> 25
 6.197250e+01 7.269382e+01 5.313067e+01 5.698232e+01 5.835572e+01 5.889814e+01 6.608836e+01 5.338778e+01 4.012721e+01 4.736023e+01 3.758759e+01 3.097640e+01 2.221815e+00 4.021650e+00 2.608438e+00 2.825415e+00 2.944812e+00 4.150948e+00 3.419099e+00 3.119950e+00 2.669910e+00 2.943820e+00 2.555069e+00 2.198400e+00 1.928937e+00
<GCONST> 1.067986e+02
<TRANSP> 5
 0.000000e+00 1.000000e+00 0.000000e+00 0.000000e+00 0.000000e+00
 0.000000e+00 6.000000e-01 4.000000e-01 0.000000e+00 0.000000e+00
 0.000000e+00 0.000000e+00 6.000000e-01 4.000000e-01 0.000000e+00
 0.000000e+00 0.000000e+00 0.000000e+00 7.000000e-01 3.000000e-01
 0.000000e+00 0.000000e+00 0.000000e+00 0.000000e+00 0.000000e+00
<ENDHMM>
~h "r"
<BEGINHMM>
<NUMSTATES> 5
<STATE> 2
<MEAN> 25
 -8.342391e-10 -6.993704e-08 -8.498811e-09 1.341735e-08 3.941780e-08 2.850317e-09 5.596354e-08 -1.019336e-08 -8.064311e-09 -2.659137e-08 -4.327615e-09 3.135349e-08 8.189915e-03 7.748712e-03 7.512058e-03 9.937505e-03 4.986486e-03 -8.222394e-03 -1.262124e-02 -7.085458e-03 3.215857e-03 5.224390e-03 -1.209671e-03 2.598397e-03 3.863287e-03
<VARIANCE> 25
 6.197250e+01 7.269382e+01 5.313067e+01 5.698232e+01 5.835572e+01 5.889814e+01 6.608836e+01 5.338778e+01 4.012721e+01 4.736023e+01 3.758759e+01 3.097640e+01 2.221815e+00 4.021650e+00 2.608438e+00 2.825415e+00 2.944812e+00 4.150948e+00 3.419099e+00 3.119950e+00 2.669910e+00 2.943820e+00 2.555069e+00 2.198400e+00 1.928937e+00
<GCONST> 1.067986e+02
<STATE> 3
<MEAN> 25
 -8.342391e-10 -6.993704e-08 -8.498811e-09 1.341735e-08 3.941780e-08 2.850317e-09 5.596354e-08 -1.019336e-08 -8.064311e-09 -2.659137e-08 -4.327615e-09 3.135349e-08 8.189915e-03 7.748712e-03 7.512058e-03 9.937505e-03 4.986486e-03 -8.222394e-03 -1.262124e-02 -7.085458e-03 3.215857e-03 5.224390e-03 -1.209671e-03 2.598397e-03 3.863287e-03
<VARIANCE> 25
 6.197250e+01 7.269382e+01 5.313067e+01 5.698232e+01 5.835572e+01 5.889814e+01 6.608836e+01 5.338778e+01 4.012721e+01 4.736023e+01 3.758759e+01 3.097640e+01 2.221815e+00 4.021650e+00 2.608438e+00 2.825415e+00 2.944812e+00 4.150948e+00 3.419099e+00 3.119950e+00 2.669910e+00 2.943820e+00 2.555069e+00 2.198400e+00 1.928937e+00
<GCONST> 1.067986e+02
<STATE> 4
<MEAN> 25
 -8.342391e-10 -6.993704e-08 -8.498811e-09 1.341735e-08 3.941780e-08 2.850317e-09 5.596354e-08 -1.019336e-08 -8.064311e-09 -2.659137e-08 -4.327615e-09 3.135349e-08 8.189915e-03 7.748712e-03 7.512058e-03 9.937505e-03 4.986486e-03 -8.222394e-03 -1.262124e-02 -7.085458e-03 3.215857e-03 5.224390e-03 -1.209671e-03 2.598397e-03 3.863287e-03
<VARIANCE> 25
 6.197250e+01 7.269382e+01 5.313067e+01 5.698232e+01 5.835572e+01 5.889814e+01 6.608836e+01 5.338778e+01 4.012721e+01 4.736023e+01 3.758759e+01 3.097640e+01 2.221815e+00 4.021650e+00 2.608438e+00 2.825415e+00 2.944812e+00 4.150948e+00 3.419099e+00 3.119950e+00 2.669910e+00 2.943820e+00 2.555069e+00 2.198400e+00 1.928937e+00
<GCONST> 1.067986e+02
<TRANSP> 5
 0.000000e+00 1.000000e+00 0.000000e+00 0.000000e+00 0.000000e+00
 0.000000e+00 6.000000e-01 4.000000e-01 0.000000e+00 0.000000e+00
 0.000000e+00 0.000000e+00 6.000000e-01 4.000000e-01 0.000000e+00
 0.000000e+00 0.000000e+00 0.000000e+00 7.000000e-01 3.000000e-01
 0.000000e+00 0.000000e+00 0.000000e+00 0.000000e+00 0.000000e+00
<ENDHMM>
~h "g"
<BEGINHMM>
<NUMSTATES> 5
<STATE> 2
<MEAN> 25
 -8.342391e-10 -6.993704e-08 -8.498811e-09 1.341735e-08 3.941780e-08 2.850317e-09 5.596354e-08 -1.019336e-08 -8.064311e-09 -2.659137e-08 -4.327615e-09 3.135349e-08 8.189915e-03 7.748712e-03 7.512058e-03 9.937505e-03 4.986486e-03 -8.222394e-03 -1.262124e-02 -7.085458e-03 3.215857e-03 5.224390e-03 -1.209671e-03 2.598397e-03 3.863287e-03
<VARIANCE> 25
 6.197250e+01 7.269382e+01 5.313067e+01 5.698232e+01 5.835572e+01 5.889814e+01 6.608836e+01 5.338778e+01 4.012721e+01 4.736023e+01 3.758759e+01 3.097640e+01 2.221815e+00 4.021650e+00 2.608438e+00 2.825415e+00 2.944812e+00 4.150948e+00 3.419099e+00 3.119950e+00 2.669910e+00 2.943820e+00 2.555069e+00 2.198400e+00 1.928937e+00
<GCONST> 1.067986e+02
<STATE> 3
<MEAN> 25
 -8.342391e-10 -6.993704e-08 -8.498811e-09 1.341735e-08 3.941780e-08 2.850317e-09 5.596354e-08 -1.019336e-08 -8.064311e-09 -2.659137e-08 -4.327615e-09 3.135349e-08 8.189915e-03 7.748712e-03 7.512058e-03 9.937505e-03 4.986486e-03 -8.222394e-03 -1.262124e-02 -7.085458e-03 3.215857e-03 5.224390e-03 -1.209671e-03 2.598397e-03 3.863287e-03
<VARIANCE> 25
 6.197250e+01 7.269382e+01 5.313067e+01 5.698232e+01 5.835572e+01 5.889814e+01 6.608836e+01 5.338778e+01 4.012721e+01 4.736023e+01 3.758759e+01 3.097640e+01 2.221815e+00 4.021650e+00 2.608438e+00 2.825415e+00 2.944812e+00 4.150948e+00 3.419099e+00 3.119950e+00 2.669910e+00 2.943820e+00 2.555069e+00 2.198400e+00 1.928937e+00
<GCONST> 1.067986e+02
<STATE> 4
<MEAN> 25
 -8.342391e-10 -6.993704e-08 -8.498811e-09 1.341735e-08 3.941780e-08 2.850317e-09 5.596354e-08 -1.019336e-08 -8.064311e-09 -2.659137e-08 -4.327615e-09 3.135349e-08 8.189915e-03 7.748712e-03 7.512058e-03 9.937505e-03 4.986486e-03 -8.222394e-03 -1.262124e-02 -7.085458e-03 3.215857e-03 5.224390e-03 -1.209671e-03 2.598397e-03 3.863287e-03
<VARIANCE> 25
 6.197250e+01 7.269382e+01 5.313067e+01 5.698232e+01 5.835572e+01 5.889814e+01 6.608836e+01 5.338778e+01 4.012721e+01 4.736023e+01 3.758759e+01 3.097640e+01 2.221815e+00 4.021650e+00 2.608438e+00 2.825415e+00 2.944812e+00 4.150948e+00 3.419099e+00 3.119950e+00 2.669910e+00 2.943820e+00 2.555069e+00 2.198400e+00 1.928937e+00
<GCONST> 1.067986e+02
<TRANSP> 5
 0.000000e+00 1.000000e+00 0.000000e+00 0.000000e+00 0.000000e+00
 0.000000e+00 6.000000e-01 4.000000e-01 0.000000e+00 0.000000e+00
 0.000000e+00 0.000000e+00 6.000000e-01 4.000000e-01 0.000000e+00
 0.000000e+00 0.000000e+00 0.000000e+00 7.000000e-01 3.000000e-01
 0.000000e+00 0.000000e+00 0.000000e+00 0.000000e+00 0.000000e+00
<ENDHMM>
~h "i"
<BEGINHMM>
<NUMSTATES> 5
<STATE> 2
<MEAN> 25
 -8.342391e-10 -6.993704e-08 -8.498811e-09 1.341735e-08 3.941780e-08 2.850317e-09 5.596354e-08 -1.019336e-08 -8.064311e-09 -2.659137e-08 -4.327615e-09 3.135349e-08 8.189915e-03 7.748712e-03 7.512058e-03 9.937505e-03 4.986486e-03 -8.222394e-03 -1.262124e-02 -7.085458e-03 3.215857e-03 5.224390e-03 -1.209671e-03 2.598397e-03 3.863287e-03
<VARIANCE> 25
 6.197250e+01 7.269382e+01 5.313067e+01 5.698232e+01 5.835572e+01 5.889814e+01 6.608836e+01 5.338778e+01 4.012721e+01 4.736023e+01 3.758759e+01 3.097640e+01 2.221815e+00 4.021650e+00 2.608438e+00 2.825415e+00 2.944812e+00 4.150948e+00 3.419099e+00 3.119950e+00 2.669910e+00 2.943820e+00 2.555069e+00 2.198400e+00 1.928937e+00
<GCONST> 1.067986e+02
<STATE> 3
<MEAN> 25
 -8.342391e-10 -6.993704e-08 -8.498811e-09 1.341735e-08 3.941780e-08 2.850317e-09 5.596354e-08 -1.019336e-08 -8.064311e-09 -2.659137e-08 -4.327615e-09 3.135349e-08 8.189915e-03 7.748712e-03 7.512058e-03 9.937505e-03 4.986486e-03 -8.222394e-03 -1.262124e-02 -7.085458e-03 3.215857e-03 5.224390e-03 -1.209671e-03 2.598397e-03 3.863287e-03
<VARIANCE> 25
 6.197250e+01 7.269382e+01 5.313067e+01 5.698232e+01 5.835572e+01 5.889814e+01 6.608836e+01 5.338778e+01 4.012721e+01 4.736023e+01 3.758759e+01 3.097640e+01 2.221815e+00 4.021650e+00 2.608438e+00 2.825415e+00 2.944812e+00 4.150948e+00 3.419099e+00 3.119950e+00 2.669910e+00 2.943820e+00 2.555069e+00 2.198400e+00 1.928937e+00
<GCONST> 1.067986e+02
<STATE> 4
<MEAN> 25
 -8.342391e-10 -6.993704e-08 -8.498811e-09 1.341735e-08 3.941780e-08 2.850317e-09 5.596354e-08 -1.019336e-08 -8.064311e-09 -2.659137e-08 -4.327615e-09 3.135349e-08 8.189915e-03 7.748712e-03 7.512058e-03 9.937505e-03 4.986486e-03 -8.222394e-03 -1.262124e-02 -7.085458e-03 3.215857e-03 5.224390e-03 -1.209671e-03 2.598397e-03 3.863287e-03
<VARIANCE> 25
 6.197250e+01 7.269382e+01 5.313067e+01 5.698232e+01 5.835572e+01 5.889814e+01 6.608836e+01 5.338778e+01 4.012721e+01 4.736023e+01 3.758759e+01 3.097640e+01 2.221815e+00 4.021650e+00 2.608438e+00 2.825415e+00 2.944812e+00 4.150948e+00 3.419099e+00 3.119950e+00 2.669910e+00 2.943820e+00 2.555069e+00 2.198400e+00 1.928937e+00
<GCONST> 1.067986e+02
<TRANSP> 5
 0.000000e+00 1.000000e+00 0.000000e+00 0.000000e+00 0.000000e+00
 0.000000e+00 6.000000e-01 4.000000e-01 0.000000e+00 0.000000e+00
 0.000000e+00 0.000000e+00 6.000000e-01 4.000000e-01 0.000000e+00
 0.000000e+00 0.000000e+00 0.000000e+00 7.000000e-01 3.000000e-01
 0.000000e+00 0.000000e+00 0.000000e+00 0.000000e+00 0.000000e+00
<ENDHMM>
~h "j"
<BEGINHMM>
<NUMSTATES> 5
<STATE> 2
<MEAN> 25
 -8.342391e-10 -6.993704e-08 -8.498811e-09 1.341735e-08 3.941780e-08 2.850317e-09 5.596354e-08 -1.019336e-08 -8.064311e-09 -2.659137e-08 -4.327615e-09 3.135349e-08 8.189915e-03 7.748712e-03 7.512058e-03 9.937505e-03 4.986486e-03 -8.222394e-03 -1.262124e-02 -7.085458e-03 3.215857e-03 5.224390e-03 -1.209671e-03 2.598397e-03 3.863287e-03
<VARIANCE> 25
 6.197250e+01 7.269382e+01 5.313067e+01 5.698232e+01 5.835572e+01 5.889814e+01 6.608836e+01 5.338778e+01 4.012721e+01 4.736023e+01 3.758759e+01 3.097640e+01 2.221815e+00 4.021650e+00 2.608438e+00 2.825415e+00 2.944812e+00 4.150948e+00 3.419099e+00 3.119950e+00 2.669910e+00 2.943820e+00 2.555069e+00 2.198400e+00 1.928937e+00
<GCONST> 1.067986e+02
<STATE> 3
<MEAN> 25
 -8.342391e-10 -6.993704e-08 -8.498811e-09 1.341735e-08 3.941780e-08 2.850317e-09 5.596354e-08 -1.019336e-08 -8.064311e-09 -2.659137e-08 -4.327615e-09 3.135349e-08 8.189915e-03 7.748712e-03 7.512058e-03 9.937505e-03 4.986486e-03 -8.222394e-03 -1.262124e-02 -7.085458e-03 3.215857e-03 5.224390e-03 -1.209671e-03 2.598397e-03 3.863287e-03
<VARIANCE> 25
 6.197250e+01 7.269382e+01 5.313067e+01 5.698232e+01 5.835572e+01 5.889814e+01 6.608836e+01 5.338778e+01 4.012721e+01 4.736023e+01 3.758759e+01 3.097640e+01 2.221815e+00 4.021650e+00 2.608438e+00 2.825415e+00 2.944812e+00 4.150948e+00 3.419099e+00 3.119950e+00 2.669910e+00 2.943820e+00 2.555069e+00 2.198400e+00 1.928937e+00
<GCONST> 1.067986e+02
<STATE> 4
<MEAN> 25
 -8.342391e-10 -6.993704e-08 -8.498811e-09 1.341735e-08 3.941780e-08 2.850317e-09 5.596354e-08 -1.019336e-08 -8.064311e-09 -2.659137e-08 -4.327615e-09 3.135349e-08 8.189915e-03 7.748712e-03 7.512058e-03 9.937505e-03 4.986486e-03 -8.222394e-03 -1.262124e-02 -7.085458e-03 3.215857e-03 5.224390e-03 -1.209671e-03 2.598397e-03 3.863287e-03
<VARIANCE> 25
 6.197250e+01 7.269382e+01 5.313067e+01 5.698232e+01 5.835572e+01 5.889814e+01 6.608836e+01 5.338778e+01 4.012721e+01 4.736023e+01 3.758759e+01 3.097640e+01 2.221815e+00 4.021650e+00 2.608438e+00 2.825415e+00 2.944812e+00 4.150948e+00 3.419099e+00 3.119950e+00 2.669910e+00 2.943820e+00 2.555069e+00 2.198400e+00 1.928937e+00
<GCONST> 1.067986e+02
<TRANSP> 5
 0.000000e+00 1.000000e+00 0.000000e+00 0.000000e+00 0.000000e+00
 0.000000e+00 6.000000e-01 4.000000e-01 0.000000e+00 0.000000e+00
 0.000000e+00 0.000000e+00 6.000000e-01 4.000000e-01 0.000000e+00
 0.000000e+00 0.000000e+00 0.000000e+00 7.000000e-01 3.000000e-01
 0.000000e+00 0.000000e+00 0.000000e+00 0.000000e+00 0.000000e+00
<ENDHMM>
~h "@"
<BEGINHMM>
<NUMSTATES> 5
<STATE> 2
<MEAN> 25
 -8.342391e-10 -6.993704e-08 -8.498811e-09 1.341735e-08 3.941780e-08 2.850317e-09 5.596354e-08 -1.019336e-08 -8.064311e-09 -2.659137e-08 -4.327615e-09 3.135349e-08 8.189915e-03 7.748712e-03 7.512058e-03 9.937505e-03 4.986486e-03 -8.222394e-03 -1.262124e-02 -7.085458e-03 3.215857e-03 5.224390e-03 -1.209671e-03 2.598397e-03 3.863287e-03
<VARIANCE> 25
 6.197250e+01 7.269382e+01 5.313067e+01 5.698232e+01 5.835572e+01 5.889814e+01 6.608836e+01 5.338778e+01 4.012721e+01 4.736023e+01 3.758759e+01 3.097640e+01 2.221815e+00 4.021650e+00 2.608438e+00 2.825415e+00 2.944812e+00 4.150948e+00 3.419099e+00 3.119950e+00 2.669910e+00 2.943820e+00 2.555069e+00 2.198400e+00 1.928937e+00
<GCONST> 1.067986e+02
<STATE> 3
<MEAN> 25
 -8.342391e-10 -6.993704e-08 -8.498811e-09 1.341735e-08 3.941780e-08 2.850317e-09 5.596354e-08 -1.019336e-08 -8.064311e-09 -2.659137e-08 -4.327615e-09 3.135349e-08 8.189915e-03 7.748712e-03 7.512058e-03 9.937505e-03 4.986486e-03 -8.222394e-03 -1.262124e-02 -7.085458e-03 3.215857e-03 5.224390e-03 -1.209671e-03 2.598397e-03 3.863287e-03
<VARIANCE> 25
 6.197250e+01 7.269382e+01 5.313067e+01 5.698232e+01 5.835572e+01 5.889814e+01 6.608836e+01 5.338778e+01 4.012721e+01 4.736023e+01 3.758759e+01 3.097640e+01 2.221815e+00 4.021650e+00 2.608438e+00 2.825415e+00 2.944812e+00 4.150948e+00 3.419099e+00 3.119950e+00 2.669910e+00 2.943820e+00 2.555069e+00 2.198400e+00 1.928937e+00
<GCONST> 1.067986e+02
<STATE> 4
<MEAN> 25
 -8.342391e-10 -6.993704e-08 -8.498811e-09 1.341735e-08 3.941780e-08 2.850317e-09 5.596354e-08 -1.019336e-08 -8.064311e-09 -2.659137e-08 -4.327615e-09 3.135349e-08 8.189915e-03 7.748712e-03 7.512058e-03 9.937505e-03 4.986486e-03 -8.222394e-03 -1.262124e-02 -7.085458e-03 3.215857e-03 5.224390e-03 -1.209671e-03 2.598397e-03 3.863287e-03
<VARIANCE> 25
 6.197250e+01 7.269382e+01 5.313067e+01 5.698232e+01 5.835572e+01 5.889814e+01 6.608836e+01 5.338778e+01 4.012721e+01 4.736023e+01 3.758759e+01 3.097640e+01 2.221815e+00 4.021650e+00 2.608438e+00 2.825415e+00 2.944812e+00 4.150948e+00 3.419099e+00 3.119950e+00 2.669910e+00 2.943820e+00 2.555069e+00 2.198400e+00 1.928937e+00
<GCONST> 1.067986e+02
<TRANSP> 5
 0.000000e+00 1.000000e+00 0.000000e+00 0.000000e+00 0.000000e+00
 0.000000e+00 6.000000e-01 4.000000e-01 0.000000e+00 0.000000e+00
 0.000000e+00 0.000000e+00 6.000000e-01 4.000000e-01 0.000000e+00
 0.000000e+00 0.000000e+00 0.000000e+00 7.000000e-01 3.000000e-01
 0.000000e+00 0.000000e+00 0.000000e+00 0.000000e+00 0.000000e+00
<ENDHMM>
~h "n"
<BEGINHMM>
<NUMSTATES> 5
<STATE> 2
<MEAN> 25
 -8.342391e-10 -6.993704e-08 -8.498811e-09 1.341735e-08 3.941780e-08 2.850317e-09 5.596354e-08 -1.019336e-08 -8.064311e-09 -2.659137e-08 -4.327615e-09 3.135349e-08 8.189915e-03 7.748712e-03 7.512058e-03 9.937505e-03 4.986486e-03 -8.222394e-03 -1.262124e-02 -7.085458e-03 3.215857e-03 5.224390e-03 -1.209671e-03 2.598397e-03 3.863287e-03
<VARIANCE> 25
 6.197250e+01 7.269382e+01 5.313067e+01 5.698232e+01 5.835572e+01 5.889814e+01 6.608836e+01 5.338778e+01 4.012721e+01 4.736023e+01 3.758759e+01 3.097640e+01 2.221815e+00 4.021650e+00 2.608438e+00 2.825415e+00 2.944812e+00 4.150948e+00 3.419099e+00 3.119950e+00 2.669910e+00 2.943820e+00 2.555069e+00 2.198400e+00 1.928937e+00
<GCONST> 1.067986e+02
<STATE> 3
<MEAN> 25
 -8.342391e-10 -6.993704e-08 -8.498811e-09 1.341735e-08 3.941780e-08 2.850317e-09 5.596354e-08 -1.019336e-08 -8.064311e-09 -2.659137e-08 -4.327615e-09 3.135349e-08 8.189915e-03 7.748712e-03 7.512058e-03 9.937505e-03 4.986486e-03 -8.222394e-03 -1.262124e-02 -7.085458e-03 3.215857e-03 5.224390e-03 -1.209671e-03 2.598397e-03 3.863287e-03
<VARIANCE> 25
 6.197250e+01 7.269382e+01 5.313067e+01 5.698232e+01 5.835572e+01 5.889814e+01 6.608836e+01 5.338778e+01 4.012721e+01 4.736023e+01 3.758759e+01 3.097640e+01 2.221815e+00 4.021650e+00 2.608438e+00 2.825415e+00 2.944812e+00 4.150948e+00 3.419099e+00 3.119950e+00 2.669910e+00 2.943820e+00 2.555069e+00 2.198400e+00 1.928937e+00
<GCONST> 1.067986e+02
<STATE> 4
<MEAN> 25
 -8.342391e-10 -6.993704e-08 -8.498811e-09 1.341735e-08 3.941780e-08 2.850317e-09 5.596354e-08 -1.019336e-08 -8.064311e-09 -2.659137e-08 -4.327615e-09 3.135349e-08 8.189915e-03 7.748712e-03 7.512058e-03 9.937505e-03 4.986486e-03 -8.222394e-03 -1.262124e-02 -7.085458e-03 3.215857e-03 5.224390e-03 -1.209671e-03 2.598397e-03 3.863287e-03
<VARIANCE> 25
 6.197250e+01 7.269382e+01 5.313067e+01 5.698232e+01 5.835572e+01 5.889814e+01 6.608836e+01 5.338778e+01 4.012721e+01 4.736023e+01 3.758759e+01 3.097640e+01 2.221815e+00 4.021650e+00 2.608438e+00 2.825415e+00 2.944812e+00 4.150948e+00 3.419099e+00 3.119950e+00 2.669910e+00 2.943820e+00 2.555069e+00 2.198400e+00 1.928937e+00
<GCONST> 1.067986e+02
<TRANSP> 5
 0.000000e+00 1.000000e+00 0.000000e+00 0.000000e+00 0.000000e+00
 0.000000e+00 6.000000e-01 4.000000e-01 0.000000e+00 0.000000e+00
 0.000000e+00 0.000000e+00 6.000000e-01 4.000000e-01 0.000000e+00
 0.000000e+00 0.000000e+00 0.000000e+00 7.000000e-01 3.000000e-01
 0.000000e+00 0.000000e+00 0.000000e+00 0.000000e+00 0.000000e+00
<ENDHMM>
~h "l"
<BEGINHMM>
<NUMSTATES> 5
<STATE> 2
<MEAN> 25
 -8.342391e-10 -6.993704e-08 -8.498811e-09 1.341735e-08 3.941780e-08 2.850317e-09 5.596354e-08 -1.019336e-08 -8.064311e-09 -2.659137e-08 -4.327615e-09 3.135349e-08 8.189915e-03 7.748712e-03 7.512058e-03 9.937505e-03 4.986486e-03 -8.222394e-03 -1.262124e-02 -7.085458e-03 3.215857e-03 5.224390e-03 -1.209671e-03 2.598397e-03 3.863287e-03
<VARIANCE> 25
 6.197250e+01 7.269382e+01 5.313067e+01 5.698232e+01 5.835572e+01 5.889814e+01 6.608836e+01 5.338778e+01 4.012721e+01 4.736023e+01 3.758759e+01 3.097640e+01 2.221815e+00 4.021650e+00 2.608438e+00 2.825415e+00 2.944812e+00 4.150948e+00 3.419099e+00 3.119950e+00 2.669910e+00 2.943820e+00 2.555069e+00 2.198400e+00 1.928937e+00
<GCONST> 1.067986e+02
<STATE> 3
<MEAN> 25
 -8.342391e-10 -6.993704e-08 -8.498811e-09 1.341735e-08 3.941780e-08 2.850317e-09 5.596354e-08 -1.019336e-08 -8.064311e-09 -2.659137e-08 -4.327615e-09 3.135349e-08 8.189915e-03 7.748712e-03 7.512058e-03 9.937505e-03 4.986486e-03 -8.222394e-03 -1.262124e-02 -7.085458e-03 3.215857e-03 5.224390e-03 -1.209671e-03 2.598397e-03 3.863287e-03
<VARIANCE> 25
 6.197250e+01 7.269382e+01 5.313067e+01 5.698232e+01 5.835572e+01 5.889814e+01 6.608836e+01 5.338778e+01 4.012721e+01 4.736023e+01 3.758759e+01 3.097640e+01 2.221815e+00 4.021650e+00 2.608438e+00 2.825415e+00 2.944812e+00 4.150948e+00 3.419099e+00 3.119950e+00 2.669910e+00 2.943820e+00 2.555069e+00 2.198400e+00 1.928937e+00
<GCONST> 1.067986e+02
<STATE> 4
<MEAN> 25
 -8.342391e-10 -6.993704e-08 -8.498811e-09 1.341735e-08 3.941780e-08 2.850317e-09 5.596354e-08 -1.019336e-08 -8.064311e-09 -2.659137e-08 -4.327615e-09 3.135349e-08 8.189915e-03 7.748712e-03 7.512058e-03 9.937505e-03 4.986486e-03 -8.222394e-03 -1.262124e-02 -7.085458e-03 3.215857e-03 5.224390e-03 -1.209671e-03 2.598397e-03 3.863287e-03
<VARIANCE> 25
 6.197250e+01 7.269382e+01 5.313067e+01 5.698232e+01 5.835572e+01 5.889814e+01 6.608836e+01 5.338778e+01 4.012721e+01 4.736023e+01 3.758759e+01 3.097640e+01 2.221815e+00 4.021650e+00 2.608438e+00 2.825415e+00 2.944812e+00 4.150948e+00 3.419099e+00 3.119950e+00 2.669910e+00 2.943820e+00 2.555069e+00 2.198400e+00 1.928937e+00
<GCONST> 1.067986e+02
<TRANSP> 5
 0.000000e+00 1.000000e+00 0.000000e+00 0.000000e+00 0.000000e+00
 0.000000e+00 6.000000e-01 4.000000e-01 0.000000e+00 0.000000e+00
 0.000000e+00 0.000000e+00 6.000000e-01 4.000000e-01 0.000000e+00
 0.000000e+00 0.000000e+00 0.000000e+00 7.000000e-01 3.000000e-01
 0.000000e+00 0.000000e+00 0.000000e+00 0.000000e+00 0.000000e+00
<ENDHMM>
~h "m"
<BEGINHMM>
<NUMSTATES> 5
<STATE> 2
<MEAN> 25
 -8.342391e-10 -6.993704e-08 -8.498811e-09 1.341735e-08 3.941780e-08 2.850317e-09 5.596354e-08 -1.019336e-08 -8.064311e-09 -2.659137e-08 -4.327615e-09 3.135349e-08 8.189915e-03 7.748712e-03 7.512058e-03 9.937505e-03 4.986486e-03 -8.222394e-03 -1.262124e-02 -7.085458e-03 3.215857e-03 5.224390e-03 -1.209671e-03 2.598397e-03 3.863287e-03
<VARIANCE> 25
 6.197250e+01 7.269382e+01 5.313067e+01 5.698232e+01 5.835572e+01 5.889814e+01 6.608836e+01 5.338778e+01 4.012721e+01 4.736023e+01 3.758759e+01 3.097640e+01 2.221815e+00 4.021650e+00 2.608438e+00 2.825415e+00 2.944812e+00 4.150948e+00 3.419099e+00 3.119950e+00 2.669910e+00 2.943820e+00 2.555069e+00 2.198400e+00 1.928937e+00
<GCONST> 1.067986e+02
<STATE> 3
<MEAN> 25
 -8.342391e-10 -6.993704e-08 -8.498811e-09 1.341735e-08 3.941780e-08 2.850317e-09 5.596354e-08 -1.019336e-08 -8.064311e-09 -2.659137e-08 -4.327615e-09 3.135349e-08 8.189915e-03 7.748712e-03 7.512058e-03 9.937505e-03 4.986486e-03 -8.222394e-03 -1.262124e-02 -7.085458e-03 3.215857e-03 5.224390e-03 -1.209671e-03 2.598397e-03 3.863287e-03
<VARIANCE> 25
 6.197250e+01 7.269382e+01 5.313067e+01 5.698232e+01 5.835572e+01 5.889814e+01 6.608836e+01 5.338778e+01 4.012721e+01 4.736023e+01 3.758759e+01 3.097640e+01 2.221815e+00 4.021650e+00 2.608438e+00 2.825415e+00 2.944812e+00 4.150948e+00 3.419099e+00 3.119950e+00 2.669910e+00 2.943820e+00 2.555069e+00 2.198400e+00 1.928937e+00
<GCONST> 1.067986e+02
<STATE> 4
<MEAN> 25
 -8.342391e-10 -6.993704e-08 -8.498811e-09 1.341735e-08 3.941780e-08 2.850317e-09 5.596354e-08 -1.019336e-08 -8.064311e-09 -2.659137e-08 -4.327615e-09 3.135349e-08 8.189915e-03 7.748712e-03 7.512058e-03 9.937505e-03 4.986486e-03 -8.222394e-03 -1.262124e-02 -7.085458e-03 3.215857e-03 5.224390e-03 -1.209671e-03 2.598397e-03 3.863287e-03
<VARIANCE> 25
 6.197250e+01 7.269382e+01 5.313067e+01 5.698232e+01 5.835572e+01 5.889814e+01 6.608836e+01 5.338778e+01 4.012721e+01 4.736023e+01 3.758759e+01 3.097640e+01 2.221815e+00 4.021650e+00 2.608438e+00 2.825415e+00 2.944812e+00 4.150948e+00 3.419099e+00 3.119950e+00 2.669910e+00 2.943820e+00 2.555069e+00 2.198400e+00 1.928937e+00
<GCONST> 1.067986e+02
<TRANSP> 5
 0.000000e+00 1.000000e+00 0.000000e+00 0.000000e+00 0.000000e+00
 0.000000e+00 6.000000e-01 4.000000e-01 0.000000e+00 0.000000e+00
 0.000000e+00 0.000000e+00 6.000000e-01 4.000000e-01 0.000000e+00
 0.000000e+00 0.000000e+00 0.000000e+00 7.000000e-01 3.000000e-01
 0.000000e+00 0.000000e+00 0.000000e+00 0.000000e+00 0.000000e+00
<ENDHMM>
~h "c"
<BEGINHMM>
<NUMSTATES> 5
<STATE> 2
<MEAN> 25
 -8.342391e-10 -6.993704e-08 -8.498811e-09 1.341735e-08 3.941780e-08 2.850317e-09 5.596354e-08 -1.019336e-08 -8.064311e-09 -2.659137e-08 -4.327615e-09 3.135349e-08 8.189915e-03 7.748712e-03 7.512058e-03 9.937505e-03 4.986486e-03 -8.222394e-03 -1.262124e-02 -7.085458e-03 3.215857e-03 5.224390e-03 -1.209671e-03 2.598397e-03 3.863287e-03
<VARIANCE> 25
 6.197250e+01 7.269382e+01 5.313067e+01 5.698232e+01 5.835572e+01 5.889814e+01 6.608836e+01 5.338778e+01 4.012721e+01 4.736023e+01 3.758759e+01 3.097640e+01 2.221815e+00 4.021650e+00 2.608438e+00 2.825415e+00 2.944812e+00 4.150948e+00 3.419099e+00 3.119950e+00 2.669910e+00 2.943820e+00 2.555069e+00 2.198400e+00 1.928937e+00
<GCONST> 1.067986e+02
<STATE> 3
<MEAN> 25
 -8.342391e-10 -6.993704e-08 -8.498811e-09 1.341735e-08 3.941780e-08 2.850317e-09 5.596354e-08 -1.019336e-08 -8.064311e-09 -2.659137e-08 -4.327615e-09 3.135349e-08 8.189915e-03 7.748712e-03 7.512058e-03 9.937505e-03 4.986486e-03 -8.222394e-03 -1.262124e-02 -7.085458e-03 3.215857e-03 5.224390e-03 -1.209671e-03 2.598397e-03 3.863287e-03
<VARIANCE> 25
 6.197250e+01 7.269382e+01 5.313067e+01 5.698232e+01 5.835572e+01 5.889814e+01 6.608836e+01 5.338778e+01 4.012721e+01 4.736023e+01 3.758759e+01 3.097640e+01 2.221815e+00 4.021650e+00 2.608438e+00 2.825415e+00 2.944812e+00 4.150948e+00 3.419099e+00 3.119950e+00 2.669910e+00 2.943820e+00 2.555069e+00 2.198400e+00 1.928937e+00
<GCONST> 1.067986e+02
<STATE> 4
<MEAN> 25
 -8.342391e-10 -6.993704e-08 -8.498811e-09 1.341735e-08 3.941780e-08 2.850317e-09 5.596354e-08 -1.019336e-08 -8.064311e-09 -2.659137e-08 -4.327615e-09 3.135349e-08 8.189915e-03 7.748712e-03 7.512058e-03 9.937505e-03 4.986486e-03 -8.222394e-03 -1.262124e-02 -7.085458e-03 3.215857e-03 5.224390e-03 -1.209671e-03 2.598397e-03 3.863287e-03
<VARIANCE> 25
 6.197250e+01 7.269382e+01 5.313067e+01 5.698232e+01 5.835572e+01 5.889814e+01 6.608836e+01 5.338778e+01 4.012721e+01 4.736023e+01 3.758759e+01 3.097640e+01 2.221815e+00 4.021650e+00 2.608438e+00 2.825415e+00 2.944812e+00 4.150948e+00 3.419099e+00 3.119950e+00 2.669910e+00 2.943820e+00 2.555069e+00 2.198400e+00 1.928937e+00
<GCONST> 1.067986e+02
<TRANSP> 5
 0.000000e+00 1.000000e+00 0.000000e+00 0.000000e+00 0.000000e+00
 0.000000e+00 6.000000e-01 4.000000e-01 0.000000e+00 0.000000e+00
 0.000000e+00 0.000000e+00 6.000000e-01 4.000000e-01 0.000000e+00
 0.000000e+00 0.000000e+00 0.000000e+00 7.000000e-01 3.000000e-01
 0.000000e+00 0.000000e+00 0.000000e+00 0.000000e+00 0.000000e+00
<ENDHMM>
~h "t"
<BEGINHMM>
<NUMSTATES> 5
<STATE> 2
<MEAN> 25
 -8.342391e-10 -6.993704e-08 -8.498811e-09 1.341735e-08 3.941780e-08 2.850317e-09 5.596354e-08 -1.019336e-08 -8.064311e-09 -2.659137e-08 -4.327615e-09 3.135349e-08 8.189915e-03 7.748712e-03 7.512058e-03 9.937505e-03 4.986486e-03 -8.222394e-03 -1.262124e-02 -7.085458e-03 3.215857e-03 5.224390e-03 -1.209671e-03 2.598397e-03 3.863287e-03
<VARIANCE> 25
 6.197250e+01 7.269382e+01 5.313067e+01 5.698232e+01 5.835572e+01 5.889814e+01 6.608836e+01 5.338778e+01 4.012721e+01 4.736023e+01 3.758759e+01 3.097640e+01 2.221815e+00 4.021650e+00 2.608438e+00 2.825415e+00 2.944812e+00 4.150948e+00 3.419099e+00 3.119950e+00 2.669910e+00 2.943820e+00 2.555069e+00 2.198400e+00 1.928937e+00
<GCONST> 1.067986e+02
<STATE> 3
<MEAN> 25
 -8.342391e-10 -6.993704e-08 -8.498811e-09 1.341735e-08 3.941780e-08 2.850317e-09 5.596354e-08 -1.019336e-08 -8.064311e-09 -2.659137e-08 -4.327615e-09 3.135349e-08 8.189915e-03 7.748712e-03 7.512058e-03 9.937505e-03 4.986486e-03 -8.222394e-03 -1.262124e-02 -7.085458e-03 3.215857e-03 5.224390e-03 -1.209671e-03 2.598397e-03 3.863287e-03
<VARIANCE> 25
 6.197250e+01 7.269382e+01 5.313067e+01 5.698232e+01 5.835572e+01 5.889814e+01 6.608836e+01 5.338778e+01 4.012721e+01 4.736023e+01 3.758759e+01 3.097640e+01 2.221815e+00 4.021650e+00 2.608438e+00 2.825415e+00 2.944812e+00 4.150948e+00 3.419099e+00 3.119950e+00 2.669910e+00 2.943820e+00 2.555069e+00 2.198400e+00 1.928937e+00
<GCONST> 1.067986e+02
<STATE> 4
<MEAN> 25
 -8.342391e-10 -6.993704e-08 -8.498811e-09 1.341735e-08 3.941780e-08 2.850317e-09 5.596354e-08 -1.019336e-08 -8.064311e-09 -2.659137e-08 -4.327615e-09 3.135349e-08 8.189915e-03 7.748712e-03 7.512058e-03 9.937505e-03 4.986486e-03 -8.222394e-03 -1.262124e-02 -7.085458e-03 3.215857e-03 5.224390e-03 -1.209671e-03 2.598397e-03 3.863287e-03
<VARIANCE> 25
 6.197250e+01 7.269382e+01 5.313067e+01 5.698232e+01 5.835572e+01 5.889814e+01 6.608836e+01 5.338778e+01 4.012721e+01 4.736023e+01 3.758759e+01 3.097640e+01 2.221815e+00 4.021650e+00 2.608438e+00 2.825415e+00 2.944812e+00 4.150948e+00 3.419099e+00 3.119950e+00 2.669910e+00 2.943820e+00 2.555069e+00 2.198400e+00 1.928937e+00
<GCONST> 1.067986e+02
<TRANSP> 5
 0.000000e+00 1.000000e+00 0.000000e+00 0.000000e+00 0.000000e+00
 0.000000e+00 6.000000e-01 4.000000e-01 0.000000e+00 0.000000e+00
 0.000000e+00 0.000000e+00 6.000000e-01 4.000000e-01 0.000000e+00
 0.000000e+00 0.000000e+00 0.000000e+00 7.000000e-01 3.000000e-01
 0.000000e+00 0.000000e+00 0.000000e+00 0.000000e+00 0.000000e+00
<ENDHMM>
~h "ny"
<BEGINHMM>
<NUMSTATES> 5
<STATE> 2
<MEAN> 25
 -8.342391e-10 -6.993704e-08 -8.498811e-09 1.341735e-08 3.941780e-08 2.850317e-09 5.596354e-08 -1.019336e-08 -8.064311e-09 -2.659137e-08 -4.327615e-09 3.135349e-08 8.189915e-03 7.748712e-03 7.512058e-03 9.937505e-03 4.986486e-03 -8.222394e-03 -1.262124e-02 -7.085458e-03 3.215857e-03 5.224390e-03 -1.209671e-03 2.598397e-03 3.863287e-03
<VARIANCE> 25
 6.197250e+01 7.269382e+01 5.313067e+01 5.698232e+01 5.835572e+01 5.889814e+01 6.608836e+01 5.338778e+01 4.012721e+01 4.736023e+01 3.758759e+01 3.097640e+01 2.221815e+00 4.021650e+00 2.608438e+00 2.825415e+00 2.944812e+00 4.150948e+00 3.419099e+00 3.119950e+00 2.669910e+00 2.943820e+00 2.555069e+00 2.198400e+00 1.928937e+00
<GCONST> 1.067986e+02
<STATE> 3
<MEAN> 25
 -8.342391e-10 -6.993704e-08 -8.498811e-09 1.341735e-08 3.941780e-08 2.850317e-09 5.596354e-08 -1.019336e-08 -8.064311e-09 -2.659137e-08 -4.327615e-09 3.135349e-08 8.189915e-03 7.748712e-03 7.512058e-03 9.937505e-03 4.986486e-03 -8.222394e-03 -1.262124e-02 -7.085458e-03 3.215857e-03 5.224390e-03 -1.209671e-03 2.598397e-03 3.863287e-03
<VARIANCE> 25
 6.197250e+01 7.269382e+01 5.313067e+01 5.698232e+01 5.835572e+01 5.889814e+01 6.608836e+01 5.338778e+01 4.012721e+01 4.736023e+01 3.758759e+01 3.097640e+01 2.221815e+00 4.021650e+00 2.608438e+00 2.825415e+00 2.944812e+00 4.150948e+00 3.419099e+00 3.119950e+00 2.669910e+00 2.943820e+00 2.555069e+00 2.198400e+00 1.928937e+00
<GCONST> 1.067986e+02
<STATE> 4
<MEAN> 25
 -8.342391e-10 -6.993704e-08 -8.498811e-09 1.341735e-08 3.941780e-08 2.850317e-09 5.596354e-08 -1.019336e-08 -8.064311e-09 -2.659137e-08 -4.327615e-09 3.135349e-08 8.189915e-03 7.748712e-03 7.512058e-03 9.937505e-03 4.986486e-03 -8.222394e-03 -1.262124e-02 -7.085458e-03 3.215857e-03 5.224390e-03 -1.209671e-03 2.598397e-03 3.863287e-03
<VARIANCE> 25
 6.197250e+01 7.269382e+01 5.313067e+01 5.698232e+01 5.835572e+01 5.889814e+01 6.608836e+01 5.338778e+01 4.012721e+01 4.736023e+01 3.758759e+01 3.097640e+01 2.221815e+00 4.021650e+00 2.608438e+00 2.825415e+00 2.944812e+00 4.150948e+00 3.419099e+00 3.119950e+00 2.669910e+00 2.943820e+00 2.555069e+00 2.198400e+00 1.928937e+00
<GCONST> 1.067986e+02
<TRANSP> 5
 0.000000e+00 1.000000e+00 0.000000e+00 0.000000e+00 0.000000e+00
 0.000000e+00 6.000000e-01 4.000000e-01 0.000000e+00 0.000000e+00
 0.000000e+00 0.000000e+00 6.000000e-01 4.000000e-01 0.000000e+00
 0.000000e+00 0.000000e+00 0.000000e+00 7.000000e-01 3.000000e-01
 0.000000e+00 0.000000e+00 0.000000e+00 0.000000e+00 0.000000e+00
<ENDHMM>
~h "ng"
<BEGINHMM>
<NUMSTATES> 5
<STATE> 2
<MEAN> 25
 -8.342391e-10 -6.993704e-08 -8.498811e-09 1.341735e-08 3.941780e-08 2.850317e-09 5.596354e-08 -1.019336e-08 -8.064311e-09 -2.659137e-08 -4.327615e-09 3.135349e-08 8.189915e-03 7.748712e-03 7.512058e-03 9.937505e-03 4.986486e-03 -8.222394e-03 -1.262124e-02 -7.085458e-03 3.215857e-03 5.224390e-03 -1.209671e-03 2.598397e-03 3.863287e-03
<VARIANCE> 25
 6.197250e+01 7.269382e+01 5.313067e+01 5.698232e+01 5.835572e+01 5.889814e+01 6.608836e+01 5.338778e+01 4.012721e+01 4.736023e+01 3.758759e+01 3.097640e+01 2.221815e+00 4.021650e+00 2.608438e+00 2.825415e+00 2.944812e+00 4.150948e+00 3.419099e+00 3.119950e+00 2.669910e+00 2.943820e+00 2.555069e+00 2.198400e+00 1.928937e+00
<GCONST> 1.067986e+02
<STATE> 3
<MEAN> 25
 -8.342391e-10 -6.993704e-08 -8.498811e-09 1.341735e-08 3.941780e-08 2.850317e-09 5.596354e-08 -1.019336e-08 -8.064311e-09 -2.659137e-08 -4.327615e-09 3.135349e-08 8.189915e-03 7.748712e-03 7.512058e-03 9.937505e-03 4.986486e-03 -8.222394e-03 -1.262124e-02 -7.085458e-03 3.215857e-03 5.224390e-03 -1.209671e-03 2.598397e-03 3.863287e-03
<VARIANCE> 25
 6.197250e+01 7.269382e+01 5.313067e+01 5.698232e+01 5.835572e+01 5.889814e+01 6.608836e+01 5.338778e+01 4.012721e+01 4.736023e+01 3.758759e+01 3.097640e+01 2.221815e+00 4.021650e+00 2.608438e+00 2.825415e+00 2.944812e+00 4.150948e+00 3.419099e+00 3.119950e+00 2.669910e+00 2.943820e+00 2.555069e+00 2.198400e+00 1.928937e+00
<GCONST> 1.067986e+02
<STATE> 4
<MEAN> 25
 -8.342391e-10 -6.993704e-08 -8.498811e-09 1.341735e-08 3.941780e-08 2.850317e-09 5.596354e-08 -1.019336e-08 -8.064311e-09 -2.659137e-08 -4.327615e-09 3.135349e-08 8.189915e-03 7.748712e-03 7.512058e-03 9.937505e-03 4.986486e-03 -8.222394e-03 -1.262124e-02 -7.085458e-03 3.215857e-03 5.224390e-03 -1.209671e-03 2.598397e-03 3.863287e-03
<VARIANCE> 25
 6.197250e+01 7.269382e+01 5.313067e+01 5.698232e+01 5.835572e+01 5.889814e+01 6.608836e+01 5.338778e+01 4.012721e+01 4.736023e+01 3.758759e+01 3.097640e+01 2.221815e+00 4.021650e+00 2.608438e+00 2.825415e+00 2.944812e+00 4.150948e+00 3.419099e+00 3.119950e+00 2.669910e+00 2.943820e+00 2.555069e+00 2.198400e+00 1.928937e+00
<GCONST> 1.067986e+02
<TRANSP> 5
 0.000000e+00 1.000000e+00 0.000000e+00 0.000000e+00 0.000000e+00
 0.000000e+00 6.000000e-01 4.000000e-01 0.000000e+00 0.000000e+00
 0.000000e+00 0.000000e+00 6.000000e-01 4.000000e-01 0.000000e+00
 0.000000e+00 0.000000e+00 0.000000e+00 7.000000e-01 3.000000e-01
 0.000000e+00 0.000000e+00 0.000000e+00 0.000000e+00 0.000000e+00
<ENDHMM>
~h "sil"
<BEGINHMM>
<NUMSTATES> 5
<STATE> 2
<MEAN> 25
 -8.342391e-10 -6.993704e-08 -8.498811e-09 1.341735e-08 3.941780e-08 2.850317e-09 5.596354e-08 -1.019336e-08 -8.064311e-09 -2.659137e-08 -4.327615e-09 3.135349e-08 8.189915e-03 7.748712e-03 7.512058e-03 9.937505e-03 4.986486e-03 -8.222394e-03 -1.262124e-02 -7.085458e-03 3.215857e-03 5.224390e-03 -1.209671e-03 2.598397e-03 3.863287e-03
<VARIANCE> 25
 6.197250e+01 7.269382e+01 5.313067e+01 5.698232e+01 5.835572e+01 5.889814e+01 6.608836e+01 5.338778e+01 4.012721e+01 4.736023e+01 3.758759e+01 3.097640e+01 2.221815e+00 4.021650e+00 2.608438e+00 2.825415e+00 2.944812e+00 4.150948e+00 3.419099e+00 3.119950e+00 2.669910e+00 2.943820e+00 2.555069e+00 2.198400e+00 1.928937e+00
<GCONST> 1.067986e+02
<STATE> 3
<MEAN> 25
 -8.342391e-10 -6.993704e-08 -8.498811e-09 1.341735e-08 3.941780e-08 2.850317e-09 5.596354e-08 -1.019336e-08 -8.064311e-09 -2.659137e-08 -4.327615e-09 3.135349e-08 8.189915e-03 7.748712e-03 7.512058e-03 9.937505e-03 4.986486e-03 -8.222394e-03 -1.262124e-02 -7.085458e-03 3.215857e-03 5.224390e-03 -1.209671e-03 2.598397e-03 3.863287e-03
<VARIANCE> 25
 6.197250e+01 7.269382e+01 5.313067e+01 5.698232e+01 5.835572e+01 5.889814e+01 6.608836e+01 5.338778e+01 4.012721e+01 4.736023e+01 3.758759e+01 3.097640e+01 2.221815e+00 4.021650e+00 2.608438e+00 2.825415e+00 2.944812e+00 4.150948e+00 3.419099e+00 3.119950e+00 2.669910e+00 2.943820e+00 2.555069e+00 2.198400e+00 1.928937e+00
<GCONST> 1.067986e+02
<STATE> 4
<MEAN> 25
 -8.342391e-10 -6.993704e-08 -8.498811e-09 1.341735e-08 3.941780e-08 2.850317e-09 5.596354e-08 -1.019336e-08 -8.064311e-09 -2.659137e-08 -4.327615e-09 3.135349e-08 8.189915e-03 7.748712e-03 7.512058e-03 9.937505e-03 4.986486e-03 -8.222394e-03 -1.262124e-02 -7.085458e-03 3.215857e-03 5.224390e-03 -1.209671e-03 2.598397e-03 3.863287e-03
<VARIANCE> 25
 6.197250e+01 7.269382e+01 5.313067e+01 5.698232e+01 5.835572e+01 5.889814e+01 6.608836e+01 5.338778e+01 4.012721e+01 4.736023e+01 3.758759e+01 3.097640e+01 2.221815e+00 4.021650e+00 2.608438e+00 2.825415e+00 2.944812e+00 4.150948e+00 3.419099e+00 3.119950e+00 2.669910e+00 2.943820e+00 2.555069e+00 2.198400e+00 1.928937e+00
<GCONST> 1.067986e+02
<TRANSP> 5
 0.000000e+00 1.000000e+00 0.000000e+00 0.000000e+00 0.000000e+00
 0.000000e+00 6.000000e-01 4.000000e-01 0.000000e+00 0.000000e+00
 0.000000e+00 0.000000e+00 6.000000e-01 4.000000e-01 0.000000e+00
 0.000000e+00 0.000000e+00 0.000000e+00 7.000000e-01 3.000000e-01
 0.000000e+00 0.000000e+00 0.000000e+00 0.000000e+00 0.000000e+00
<ENDHMM>
~h "h"
<BEGINHMM>
<NUMSTATES> 5
<STATE> 2
<MEAN> 25
 -8.342391e-10 -6.993704e-08 -8.498811e-09 1.341735e-08 3.941780e-08 2.850317e-09 5.596354e-08 -1.019336e-08 -8.064311e-09 -2.659137e-08 -4.327615e-09 3.135349e-08 8.189915e-03 7.748712e-03 7.512058e-03 9.937505e-03 4.986486e-03 -8.222394e-03 -1.262124e-02 -7.085458e-03 3.215857e-03 5.224390e-03 -1.209671e-03 2.598397e-03 3.863287e-03
<VARIANCE> 25
 6.197250e+01 7.269382e+01 5.313067e+01 5.698232e+01 5.835572e+01 5.889814e+01 6.608836e+01 5.338778e+01 4.012721e+01 4.736023e+01 3.758759e+01 3.097640e+01 2.221815e+00 4.021650e+00 2.608438e+00 2.825415e+00 2.944812e+00 4.150948e+00 3.419099e+00 3.119950e+00 2.669910e+00 2.943820e+00 2.555069e+00 2.198400e+00 1.928937e+00
<GCONST> 1.067986e+02
<STATE> 3
<MEAN> 25
 -8.342391e-10 -6.993704e-08 -8.498811e-09 1.341735e-08 3.941780e-08 2.850317e-09 5.596354e-08 -1.019336e-08 -8.064311e-09 -2.659137e-08 -4.327615e-09 3.135349e-08 8.189915e-03 7.748712e-03 7.512058e-03 9.937505e-03 4.986486e-03 -8.222394e-03 -1.262124e-02 -7.085458e-03 3.215857e-03 5.224390e-03 -1.209671e-03 2.598397e-03 3.863287e-03
<VARIANCE> 25
 6.197250e+01 7.269382e+01 5.313067e+01 5.698232e+01 5.835572e+01 5.889814e+01 6.608836e+01 5.338778e+01 4.012721e+01 4.736023e+01 3.758759e+01 3.097640e+01 2.221815e+00 4.021650e+00 2.608438e+00 2.825415e+00 2.944812e+00 4.150948e+00 3.419099e+00 3.119950e+00 2.669910e+00 2.943820e+00 2.555069e+00 2.198400e+00 1.928937e+00
<GCONST> 1.067986e+02
<STATE> 4
<MEAN> 25
 -8.342391e-10 -6.993704e-08 -8.498811e-09 1.341735e-08 3.941780e-08 2.850317e-09 5.596354e-08 -1.019336e-08 -8.064311e-09 -2.659137e-08 -4.327615e-09 3.135349e-08 8.189915e-03 7.748712e-03 7.512058e-03 9.937505e-03 4.986486e-03 -8.222394e-03 -1.262124e-02 -7.085458e-03 3.215857e-03 5.224390e-03 -1.209671e-03 2.598397e-03 3.863287e-03
<VARIANCE> 25
 6.197250e+01 7.269382e+01 5.313067e+01 5.698232e+01 5.835572e+01 5.889814e+01 6.608836e+01 5.338778e+01 4.012721e+01 4.736023e+01 3.758759e+01 3.097640e+01 2.221815e+00 4.021650e+00 2.608438e+00 2.825415e+00 2.944812e+00 4.150948e+00 3.419099e+00 3.119950e+00 2.669910e+00 2.943820e+00 2.555069e+00 2.198400e+00 1.928937e+00
<GCONST> 1.067986e+02
<TRANSP> 5
 0.000000e+00 1.000000e+00 0.000000e+00 0.000000e+00 0.000000e+00
 0.000000e+00 6.000000e-01 4.000000e-01 0.000000e+00 0.000000e+00
 0.000000e+00 0.000000e+00 6.000000e-01 4.000000e-01 0.000000e+00
 0.000000e+00 0.000000e+00 0.000000e+00 7.000000e-01 3.000000e-01
 0.000000e+00 0.000000e+00 0.000000e+00 0.000000e+00 0.000000e+00
<ENDHMM>
