~o
<STREAMINFO> 1 25
<VECSIZE> 25<NULLD><MFCC_D_N_Z_0><DIAGC>
~h "proto"
<BEGINHMM>
<NUMSTATES> 5
<STATE> 2
<MEAN> 25
 -7.336859e-10 -7.816201e-08 -2.739094e-09 1.964322e-08 5.360798e-08 -1.565197e-09 4.758198e-08 3.599952e-09 -1.909540e-08 -2.554205e-08 -2.308665e-09 4.083207e-08 8.638864e-03 8.572616e-03 7.031425e-03 8.774477e-03 4.228540e-03 -8.472332e-03 -1.306055e-02 -6.865403e-03 3.993197e-03 5.710693e-03 -6.763357e-04 3.750207e-03 3.851272e-03
<VARIANCE> 25
 6.109137e+01 7.312717e+01 5.355396e+01 5.661739e+01 5.912644e+01 5.926980e+01 6.637511e+01 5.405226e+01 4.012751e+01 4.781247e+01 3.768970e+01 3.117918e+01 2.223180e+00 4.036931e+00 2.639410e+00 2.790456e+00 2.960966e+00 4.156663e+00 3.434334e+00 3.141204e+00 2.689780e+00 2.988842e+00 2.546543e+00 2.218368e+00 1.906218e+00
<GCONST> 1.068849e+02
<STATE> 3
<MEAN> 25
 -7.336859e-10 -7.816201e-08 -2.739094e-09 1.964322e-08 5.360798e-08 -1.565197e-09 4.758198e-08 3.599952e-09 -1.909540e-08 -2.554205e-08 -2.308665e-09 4.083207e-08 8.638864e-03 8.572616e-03 7.031425e-03 8.774477e-03 4.228540e-03 -8.472332e-03 -1.306055e-02 -6.865403e-03 3.993197e-03 5.710693e-03 -6.763357e-04 3.750207e-03 3.851272e-03
<VARIANCE> 25
 6.109137e+01 7.312717e+01 5.355396e+01 5.661739e+01 5.912644e+01 5.926980e+01 6.637511e+01 5.405226e+01 4.012751e+01 4.781247e+01 3.768970e+01 3.117918e+01 2.223180e+00 4.036931e+00 2.639410e+00 2.790456e+00 2.960966e+00 4.156663e+00 3.434334e+00 3.141204e+00 2.689780e+00 2.988842e+00 2.546543e+00 2.218368e+00 1.906218e+00
<GCONST> 1.068849e+02
<STATE> 4
<MEAN> 25
 -7.336859e-10 -7.816201e-08 -2.739094e-09 1.964322e-08 5.360798e-08 -1.565197e-09 4.758198e-08 3.599952e-09 -1.909540e-08 -2.554205e-08 -2.308665e-09 4.083207e-08 8.638864e-03 8.572616e-03 7.031425e-03 8.774477e-03 4.228540e-03 -8.472332e-03 -1.306055e-02 -6.865403e-03 3.993197e-03 5.710693e-03 -6.763357e-04 3.750207e-03 3.851272e-03
<VARIANCE> 25
 6.109137e+01 7.312717e+01 5.355396e+01 5.661739e+01 5.912644e+01 5.926980e+01 6.637511e+01 5.405226e+01 4.012751e+01 4.781247e+01 3.768970e+01 3.117918e+01 2.223180e+00 4.036931e+00 2.639410e+00 2.790456e+00 2.960966e+00 4.156663e+00 3.434334e+00 3.141204e+00 2.689780e+00 2.988842e+00 2.546543e+00 2.218368e+00 1.906218e+00
<GCONST> 1.068849e+02
<TRANSP> 5
 0.000000e+00 1.000000e+00 0.000000e+00 0.000000e+00 0.000000e+00
 0.000000e+00 6.000000e-01 4.000000e-01 0.000000e+00 0.000000e+00
 0.000000e+00 0.000000e+00 6.000000e-01 4.000000e-01 0.000000e+00
 0.000000e+00 0.000000e+00 0.000000e+00 7.000000e-01 3.000000e-01
 0.000000e+00 0.000000e+00 0.000000e+00 0.000000e+00 0.000000e+00
<ENDHMM>
