~o
<STREAMINFO> 1 25
<VECSIZE> 25<NULLD><MFCC_D_N_Z_0><DIAGC>
~h "@"
<BEGINHMM>
<NUMSTATES> 5
<STATE> 2
<MEAN> 25
 3.311759e+00 -4.270958e+00 7.933120e+00 9.007868e+00 3.119876e+00 1.907567e+00 -9.427263e+00 -1.012429e+01 -2.308000e+00 -3.779474e-01 3.536797e-02 -2.818282e+00 7.071432e-01 9.996722e-01 -1.690415e+00 2.288305e-01 1.172352e+00 -8.555067e-01 5.294801e-01 5.160320e-01 -2.905678e-01 3.275191e-02 -5.902322e-01 -4.078496e-01 -2.019118e-01
<VARIANCE> 25
 1.179884e+01 3.882843e+01 1.986572e+01 2.176872e+01 1.762958e+01 2.913379e+01 3.513655e+01 2.634845e+01 3.450216e+01 2.161193e+01 2.882590e+01 2.064738e+01 1.678055e+00 4.306153e+00 4.553963e+00 1.805489e+00 2.085291e+00 5.477694e+00 4.116743e+00 3.842811e+00 5.008261e+00 2.923790e+00 3.306303e+00 2.343772e+00 1.822700e+00
<GCONST> 9.883205e+01
<STATE> 3
<MEAN> 25
 3.848308e+00 -7.519259e-01 5.688917e+00 9.184017e+00 5.774292e+00 1.107144e+00 -7.660579e+00 -8.366963e+00 -2.660845e+00 -5.104346e-01 -1.659824e+00 -3.493926e+00 1.411957e-01 1.358573e+00 -8.918831e-01 3.228103e-02 1.018438e+00 -1.843311e-01 6.213231e-01 8.352381e-01 7.259154e-02 -2.441493e-01 -6.662291e-01 -1.319655e-01 -6.309131e-01
<VARIANCE> 25
 7.715230e+00 4.135483e+01 1.355901e+01 1.700699e+01 1.907464e+01 3.001055e+01 2.558522e+01 2.852716e+01 2.907436e+01 2.116741e+01 2.523666e+01 2.225373e+01 6.717740e-01 5.046044e+00 2.327488e+00 1.444973e+00 1.524732e+00 3.019144e+00 3.304051e+00 3.027828e+00 4.756625e+00 2.838115e+00 4.107361e+00 1.878129e+00 1.542541e+00
<GCONST> 9.419151e+01
<STATE> 4
<MEAN> 25
 4.538023e+00 1.349458e+00 3.811917e+00 8.877225e+00 8.022776e+00 9.852080e-01 -7.985942e+00 -7.678806e+00 -3.302681e+00 -2.031579e+00 -1.560468e+00 -2.877243e+00 1.775641e-01 1.332126e-01 -4.152269e-01 -2.015255e-01 1.193470e-01 -3.197967e-01 5.594702e-03 4.112967e-01 -8.566433e-02 -2.978045e-01 1.827261e-01 2.004883e-01 2.369372e-02
<VARIANCE> 25
 5.569964e+00 4.177479e+01 1.675913e+01 1.798172e+01 1.520823e+01 3.929612e+01 2.959010e+01 2.790988e+01 3.159371e+01 2.374941e+01 3.357299e+01 2.519345e+01 4.246427e-01 5.230534e+00 1.278933e+00 1.423667e+00 1.841217e+00 2.515586e+00 3.314422e+00 2.516528e+00 4.283566e+00 2.125625e+00 4.616562e+00 2.030818e+00 1.430622e+00
<GCONST> 9.343152e+01
<TRANSP> 5
 0.000000e+00 1.000000e+00 0.000000e+00 0.000000e+00 0.000000e+00
 0.000000e+00 4.955507e-01 5.044493e-01 0.000000e+00 0.000000e+00
 0.000000e+00 0.000000e+00 6.095204e-01 3.904797e-01 0.000000e+00
 0.000000e+00 0.000000e+00 0.000000e+00 8.374912e-01 1.625088e-01
 0.000000e+00 0.000000e+00 0.000000e+00 0.000000e+00 0.000000e+00
<ENDHMM>
~h "a"
<BEGINHMM>
<NUMSTATES> 5
<STATE> 2
<MEAN> 25
 6.117217e+00 -6.265944e+00 -6.249270e+00 -4.004777e+00 -4.164052e+00 6.941893e-01 5.159434e+00 1.851069e+00 -5.372156e-01 -1.863417e-01 1.377110e+00 1.869192e+00 -1.995150e-01 -9.357451e-03 -7.580747e-03 -7.581297e-03 1.629668e-01 2.416739e-01 1.839086e-02 8.451552e-02 2.465195e-01 2.219122e-01 1.455552e-01 4.331311e-02 -1.588605e-01
<VARIANCE> 25
 1.417855e+01 5.274633e+01 2.477463e+01 2.458911e+01 2.773728e+01 3.321564e+01 3.879760e+01 4.155252e+01 3.148518e+01 4.008924e+01 3.881923e+01 3.035069e+01 1.284486e+00 5.243017e+00 2.689667e+00 2.119708e+00 2.315246e+00 2.691757e+00 2.950096e+00 2.774648e+00 2.549391e+00 2.835317e+00 2.798217e+00 2.896039e+00 1.975233e+00
<GCONST> 9.973080e+01
<STATE> 3
<MEAN> 25
 4.992758e+00 -4.925521e+00 -5.331761e+00 -3.388085e+00 -3.134028e+00 9.946772e-01 4.113034e+00 1.338358e+00 -2.036113e-01 3.834986e-01 1.637469e+00 1.822298e+00 -6.753498e-01 9.076183e-01 5.582879e-01 1.938753e-01 5.384089e-01 2.304237e-01 -4.552483e-01 -4.960373e-02 2.306840e-01 1.000479e-01 -1.253005e-01 -1.323625e-01 -7.998688e-01
<VARIANCE> 25
 1.890333e+01 5.510563e+01 2.663856e+01 2.311046e+01 2.695730e+01 3.524339e+01 3.437733e+01 3.736478e+01 3.059929e+01 3.751962e+01 3.433969e+01 3.098117e+01 9.615198e-01 3.365554e+00 2.250560e+00 2.037755e+00 1.943345e+00 2.742657e+00 2.562014e+00 2.691821e+00 2.462687e+00 2.545985e+00 2.589965e+00 2.315568e+00 1.178599e+00
<GCONST> 9.744147e+01
<STATE> 4
<MEAN> 25
 3.243725e+00 -2.378349e+00 -3.876582e+00 -2.749913e+00 -1.789831e+00 1.108580e+00 2.584456e+00 1.065998e+00 2.011117e-01 5.284616e-01 1.342360e+00 1.534371e+00 -8.288376e-01 8.766959e-01 8.804541e-01 2.265340e-01 5.496324e-01 3.753808e-01 -5.745059e-01 -9.539785e-02 1.410085e-01 -1.487095e-01 -2.965415e-01 -2.251205e-01 -8.273342e-01
<VARIANCE> 25
 2.527764e+01 5.690710e+01 3.107775e+01 2.727623e+01 2.683598e+01 4.165715e+01 3.363621e+01 3.576829e+01 2.981783e+01 3.391845e+01 3.311066e+01 3.072368e+01 1.052700e+00 3.186342e+00 2.699069e+00 2.374543e+00 2.146454e+00 3.258566e+00 2.585275e+00 2.719033e+00 2.396403e+00 2.487792e+00 2.578265e+00 2.146213e+00 9.402475e-01
<GCONST> 9.831433e+01
<TRANSP> 5
 0.000000e+00 1.000000e+00 0.000000e+00 0.000000e+00 0.000000e+00
 0.000000e+00 4.649142e-01 5.350858e-01 0.000000e+00 0.000000e+00
 0.000000e+00 0.000000e+00 4.353747e-01 5.646253e-01 0.000000e+00
 0.000000e+00 0.000000e+00 0.000000e+00 4.755408e-01 5.244591e-01
 0.000000e+00 0.000000e+00 0.000000e+00 0.000000e+00 0.000000e+00
<ENDHMM>
~h "b"
<BEGINHMM>
<NUMSTATES> 5
<STATE> 2
<MEAN> 25
 -7.214554e+00 9.131062e+00 2.127282e+00 4.156820e-01 5.463592e+00 2.857954e+00 5.070882e+00 7.127538e+00 3.707860e+00 7.290246e-01 -1.900839e+00 -1.806576e+00 2.416246e+00 1.915916e+00 1.659328e+00 8.020393e-01 -1.353848e-01 -2.775888e-01 -6.687452e-01 -6.652689e-01 -7.271882e-01 -8.869479e-01 -5.086414e-01 -3.569929e-01 1.344948e+00
<VARIANCE> 25
 3.958501e+01 7.876281e+01 2.980238e+01 2.592313e+01 3.772779e+01 1.982639e+01 2.538371e+01 3.063071e+01 1.864034e+01 4.066714e+01 2.743615e+01 2.008415e+01 2.878492e+00 6.295547e+00 2.480408e+00 1.649617e+00 1.930154e+00 2.533729e+00 2.566003e+00 1.830279e+00 1.949571e+00 3.431315e+00 1.598642e+00 1.614444e+00 1.018838e+00
<GCONST> 9.716515e+01
<STATE> 3
<MEAN> 25
 -2.413413e+00 1.212806e+01 5.319977e+00 8.762248e-01 3.795572e+00 2.086446e+00 2.289007e+00 5.098386e+00 2.683151e+00 -1.531947e+00 -2.974946e+00 -2.258626e+00 1.768061e+00 8.533080e-01 1.039743e+00 8.768471e-02 -9.760306e-01 -4.269402e-01 -8.045481e-01 -8.600197e-01 -5.111519e-01 -8.116661e-01 -3.357503e-01 -1.712103e-01 1.169822e+00
<VARIANCE> 25
 2.560286e+01 8.471809e+01 3.022572e+01 2.777878e+01 4.028308e+01 3.133224e+01 2.474068e+01 4.122222e+01 1.898706e+01 4.133889e+01 2.336904e+01 1.668931e+01 4.687828e+00 7.437272e+00 3.056787e+00 2.613586e+00 3.439702e+00 4.430193e+00 4.080956e+00 2.303898e+00 2.307255e+00 4.391667e+00 1.719451e+00 2.190005e+00 2.277981e+00
<GCONST> 1.021210e+02
<STATE> 4
<MEAN> 25
 6.061116e-01 1.090334e+01 5.348446e+00 -1.593870e+00 -1.109681e+00 1.398107e+00 1.309018e+00 2.813911e+00 1.485232e+00 -3.612596e+00 -4.424489e+00 -3.206890e+00 1.353590e+00 1.730773e-01 3.055919e-02 -9.365535e-01 -1.767851e+00 -1.359429e+00 -5.912578e-01 2.075383e-01 -2.421703e-01 -8.217230e-01 -4.011286e-01 -8.456684e-01 1.010712e+00
<VARIANCE> 25
 2.807357e+01 9.904352e+01 3.269077e+01 3.046012e+01 4.221671e+01 5.883725e+01 5.352357e+01 3.087348e+01 2.663157e+01 3.881587e+01 2.244207e+01 2.716109e+01 3.984087e+00 9.892335e+00 3.103695e+00 4.605301e+00 5.167385e+00 7.744039e+00 6.226659e+00 3.421449e+00 3.663875e+00 4.409308e+00 1.991598e+00 3.147694e+00 2.300433e+00
<GCONST> 1.078951e+02
<TRANSP> 5
 0.000000e+00 1.000000e+00 0.000000e+00 0.000000e+00 0.000000e+00
 0.000000e+00 5.371341e-01 4.628660e-01 0.000000e+00 0.000000e+00
 0.000000e+00 0.000000e+00 5.406446e-01 4.593554e-01 0.000000e+00
 0.000000e+00 0.000000e+00 0.000000e+00 6.523484e-01 3.476516e-01
 0.000000e+00 0.000000e+00 0.000000e+00 0.000000e+00 0.000000e+00
<ENDHMM>
~h "c"
<BEGINHMM>
<NUMSTATES> 5
<STATE> 2
<MEAN> 25
 -6.305401e+00 -1.063718e+01 1.743312e+01 2.870530e-01 -4.883251e+00 1.184913e+01 -1.796798e+00 -8.924016e-01 2.924174e+00 -1.788746e+00 2.639910e+00 2.924397e+00 -4.934253e-01 -3.779711e+00 1.980137e+00 8.873764e-01 -1.204375e+00 -3.842202e-01 -1.965167e+00 -6.373322e-01 -2.089756e-01 -2.168354e-01 8.410166e-01 -1.272258e-01 1.518212e+00
<VARIANCE> 25
 2.389987e+01 1.263815e+02 7.919288e+01 2.982096e+01 3.225466e+01 6.764284e+01 6.026167e+01 2.856453e+01 1.676982e+01 1.413290e+01 3.583031e+01 1.006126e+01 6.577735e+00 1.395984e+01 1.568035e+01 6.087351e+00 6.698106e+00 1.471321e+01 5.928494e+00 4.093816e+00 2.581657e+00 2.724944e+00 2.588602e+00 1.897357e+00 1.335908e+00
<GCONST> 1.089119e+02
<STATE> 3
<MEAN> 25
 -2.335860e-01 -1.622197e+01 1.343379e+01 9.594326e+00 -2.341599e+00 3.148169e-01 -1.056806e+01 -5.301555e+00 -8.055701e-01 -2.609573e+00 3.865824e+00 -1.709632e-01 2.612871e+00 5.689799e-01 -3.340149e+00 2.331866e+00 1.762139e+00 -3.205357e+00 -1.133924e+00 -1.279883e+00 -1.265463e+00 8.215269e-02 -1.059009e-01 -1.130940e+00 8.094038e-01
<VARIANCE> 25
 2.459962e+01 2.243877e+01 5.476043e+01 2.493643e+01 4.014812e+01 6.550204e+01 3.978690e+01 2.199279e+01 2.155876e+01 2.343900e+01 1.070022e+01 2.357035e+01 2.498274e+00 2.729434e+00 3.271394e+00 3.691066e+00 3.285158e+00 6.555148e+00 4.892601e+00 2.972656e+00 1.520536e+00 3.871875e+00 2.212788e+00 2.927721e+00 5.266628e-01
<GCONST> 9.904185e+01
<STATE> 4
<MEAN> 25
 3.515083e+00 -1.233153e+01 2.506827e+00 1.062382e+01 3.351100e+00 -2.449260e+00 -8.145417e+00 -7.894450e+00 -4.516978e+00 -5.115063e-01 2.946770e+00 -1.329444e+00 2.506894e-01 1.104444e+00 -1.252349e+00 -4.086310e-02 6.175045e-01 -2.770446e-01 4.833477e-01 -1.148112e-01 -3.067685e-01 2.417465e-01 -2.012164e-01 -5.443902e-02 -5.451257e-01
<VARIANCE> 25
 8.818617e+00 4.679169e+01 4.579655e+01 2.127478e+01 3.585468e+01 4.056570e+01 3.042563e+01 1.655738e+01 2.484731e+01 3.120039e+01 1.013865e+01 2.538085e+01 1.789872e+00 3.901289e+00 4.275189e+00 2.231889e+00 2.433906e+00 2.910837e+00 2.584559e+00 2.016178e+00 1.399043e+00 2.032911e+00 8.561576e-01 1.455183e+00 2.513531e+00
<GCONST> 9.455385e+01
<TRANSP> 5
 0.000000e+00 1.000000e+00 0.000000e+00 0.000000e+00 0.000000e+00
 0.000000e+00 8.364007e-01 1.635993e-01 0.000000e+00 0.000000e+00
 0.000000e+00 0.000000e+00 5.538620e-01 4.461380e-01 0.000000e+00
 0.000000e+00 0.000000e+00 0.000000e+00 8.629561e-01 1.370439e-01
 0.000000e+00 0.000000e+00 0.000000e+00 0.000000e+00 0.000000e+00
<ENDHMM>
~h "d"
<BEGINHMM>
<NUMSTATES> 5
<STATE> 2
<MEAN> 25
 2.017900e+00 2.465461e+00 3.967396e+00 9.693063e+00 1.077521e+01 4.127206e-01 -8.534233e+00 -6.394488e+00 -4.443214e+00 -2.728070e+00 6.612259e-01 -2.022659e-01 2.672197e-01 -9.048092e-01 -2.112025e-02 2.824484e-01 -5.444650e-01 -7.041467e-01 -4.326936e-01 -2.966767e-01 -5.782509e-01 -4.291679e-01 3.786041e-01 1.598853e-01 5.551093e-01
<VARIANCE> 25
 1.306767e+01 5.336286e+01 3.461614e+01 4.537461e+01 3.854482e+01 3.217714e+01 5.708853e+01 3.519307e+01 5.414607e+01 5.233374e+01 3.284811e+01 3.851144e+01 8.823255e-01 5.919078e+00 2.080654e+00 3.992396e+00 4.099388e+00 3.273565e+00 6.223164e+00 5.078484e+00 5.369487e+00 6.881900e+00 4.477400e+00 2.465179e+00 1.518994e+00
<GCONST> 1.059232e+02
<STATE> 3
<MEAN> 25
 3.187793e+00 -6.563928e-01 3.007927e+00 8.830487e+00 7.227359e+00 -1.894812e+00 -8.128968e+00 -5.677292e+00 -5.304574e+00 -4.271021e+00 1.205236e+00 1.129083e+00 1.135548e-01 -2.033301e-01 -4.241962e-02 -5.905125e-01 -1.371974e+00 -5.757264e-01 7.399886e-01 5.956573e-01 3.774126e-01 3.346714e-01 -1.526137e-01 -2.251790e-01 1.806408e-01
<VARIANCE> 25
 1.716046e+01 4.707870e+01 4.356345e+01 6.408333e+01 5.479422e+01 3.273174e+01 6.861799e+01 3.453187e+01 6.028671e+01 5.912800e+01 3.963054e+01 3.873006e+01 4.192838e-01 2.944377e+00 1.274592e+00 1.986797e+00 2.739154e+00 2.534805e+00 3.382242e+00 3.261060e+00 2.678615e+00 4.142260e+00 3.124702e+00 2.102579e+00 6.965868e-01
<GCONST> 1.007588e+02
<STATE> 4
<MEAN> 25
 3.414500e+00 -6.148975e-01 2.579457e+00 6.758584e+00 4.000301e+00 -2.650264e+00 -5.392367e+00 -3.536066e+00 -4.331021e+00 -3.942017e+00 4.321821e-01 8.014472e-01 -9.294862e-02 9.663431e-02 -1.327348e-02 -6.304864e-01 -1.088816e+00 -2.508203e-01 8.746544e-01 7.250556e-01 5.832071e-01 3.316821e-01 -3.576315e-01 -3.007259e-01 -1.018469e-01
<VARIANCE> 25
 2.018777e+01 5.673764e+01 4.446363e+01 6.569644e+01 6.318686e+01 3.210959e+01 6.208480e+01 3.580153e+01 4.954563e+01 6.175207e+01 4.683640e+01 3.594388e+01 2.504965e-01 2.014605e+00 8.846455e-01 1.664718e+00 1.829327e+00 1.937834e+00 2.409522e+00 2.152935e+00 1.817655e+00 2.056288e+00 2.525654e+00 1.595209e+00 4.446065e-01
<GCONST> 9.626291e+01
<TRANSP> 5
 0.000000e+00 1.000000e+00 0.000000e+00 0.000000e+00 0.000000e+00
 0.000000e+00 6.980354e-01 3.019646e-01 0.000000e+00 0.000000e+00
 0.000000e+00 0.000000e+00 5.029646e-01 4.970355e-01 0.000000e+00
 0.000000e+00 0.000000e+00 0.000000e+00 5.531768e-01 4.468232e-01
 0.000000e+00 0.000000e+00 0.000000e+00 0.000000e+00 0.000000e+00
<ENDHMM>
~h "e"
<BEGINHMM>
<NUMSTATES> 5
<STATE> 2
<MEAN> 25
 6.055611e+00 -6.594179e+00 7.950853e-01 8.113181e+00 3.530370e+00 -4.697906e+00 -1.151777e+01 -1.073213e+01 -4.540520e+00 -4.571888e-01 2.882673e+00 7.750665e-01 -6.462479e-02 2.418206e-01 -3.818458e-01 5.798271e-01 1.974015e-01 -7.212791e-01 2.689014e-01 1.310018e-01 2.350139e-01 6.278669e-01 -3.164707e-01 -2.080600e-01 -2.790410e-01
<VARIANCE> 25
 5.271424e+00 1.561081e+01 1.900171e+01 2.272826e+01 3.631372e+01 2.513040e+01 3.450213e+01 4.529218e+01 2.610451e+01 5.821283e+01 2.236288e+01 2.850077e+01 2.391517e-01 1.228030e+00 7.252841e-01 1.676152e+00 1.256650e+00 1.388398e+00 1.445878e+00 1.193012e+00 1.064352e+00 1.291085e+00 1.334688e+00 8.422210e-01 4.036714e-01
<GCONST> 8.397884e+01
<STATE> 3
<MEAN> 25
 4.856551e+00 -4.383903e+00 4.121392e-01 1.005050e+01 4.185702e+00 -5.870388e+00 -1.076682e+01 -1.103086e+01 -3.492830e+00 2.484988e+00 1.687813e+00 -1.042259e-01 -4.502170e-01 8.297858e-01 -6.494258e-02 1.759252e-01 1.831224e-01 -2.001707e-01 3.076956e-01 1.202726e-01 3.281608e-01 7.320322e-01 -1.039626e-01 -2.737518e-02 -7.241275e-01
<VARIANCE> 25
 9.110736e+00 2.723227e+01 1.993153e+01 2.618502e+01 4.519334e+01 2.152190e+01 3.502603e+01 4.062303e+01 2.804795e+01 5.979340e+01 2.096379e+01 3.003327e+01 4.585817e-01 1.238889e+00 7.653639e-01 1.430493e+00 1.012528e+00 1.257286e+00 1.774187e+00 1.780373e+00 1.092517e+00 1.972025e+00 1.259469e+00 1.007055e+00 6.105565e-01
<GCONST> 8.715730e+01
<STATE> 4
<MEAN> 25
 -1.829278e-01 2.141359e+00 7.375437e-01 9.712447e+00 6.691014e+00 -5.419530e+00 -9.079082e+00 -9.384907e+00 -4.776011e-01 6.950926e+00 2.003701e+00 5.745435e-02 -7.914135e-01 7.124761e-01 -7.130301e-02 -6.006905e-01 1.100408e-02 1.827085e-01 6.433268e-01 8.555125e-01 5.614064e-01 2.426771e-01 -6.609474e-02 4.927261e-02 -8.459303e-01
<VARIANCE> 25
 2.887873e+01 4.130359e+01 2.040669e+01 2.643991e+01 4.102316e+01 2.341298e+01 3.331588e+01 4.377216e+01 3.850522e+01 5.286240e+01 2.512554e+01 2.038627e+01 3.859602e-01 9.509693e-01 7.675343e-01 1.600361e+00 1.657995e+00 1.617815e+00 2.110880e+00 1.895644e+00 1.752508e+00 2.450826e+00 1.610592e+00 1.099713e+00 3.546139e-01
<GCONST> 8.990053e+01
<TRANSP> 5
 0.000000e+00 1.000000e+00 0.000000e+00 0.000000e+00 0.000000e+00
 0.000000e+00 6.530787e-01 3.469214e-01 0.000000e+00 0.000000e+00
 0.000000e+00 0.000000e+00 7.063053e-01 2.936947e-01 0.000000e+00
 0.000000e+00 0.000000e+00 0.000000e+00 8.636085e-01 1.363915e-01
 0.000000e+00 0.000000e+00 0.000000e+00 0.000000e+00 0.000000e+00
<ENDHMM>
~h "g"
<BEGINHMM>
<NUMSTATES> 5
<STATE> 2
<MEAN> 25
 6.074366e+00 -3.077518e+00 -6.183688e+00 -2.297266e+00 -1.613864e+00 1.018013e+00 3.473463e+00 -4.645955e+00 -8.390668e+00 -3.713746e-01 3.732115e+00 1.764369e+00 5.180811e-01 -4.742550e-01 -8.949099e-02 5.312406e-01 2.851590e-01 -3.074273e-01 -7.790032e-01 -5.167029e-01 -7.844561e-01 -2.169843e-01 4.348002e-01 -2.691889e-01 4.964372e-01
<VARIANCE> 25
 1.621656e+01 5.915397e+01 1.731030e+01 3.439960e+01 3.933199e+01 4.385015e+01 4.521448e+01 4.689931e+01 3.383831e+01 2.909491e+01 2.255340e+01 1.920350e+01 2.387478e+00 9.032582e+00 2.288168e+00 2.202706e+00 3.161533e+00 5.351271e+00 4.911414e+00 5.108080e+00 4.407099e+00 3.083216e+00 2.371892e+00 2.187547e+00 4.858787e+00
<GCONST> 1.038535e+02
<STATE> 3
<MEAN> 25
 8.239734e+00 -5.152774e+00 -6.586280e+00 3.833663e-02 1.285686e-01 -1.672852e+00 -7.163247e-01 -5.451567e+00 -8.302346e+00 -3.845003e-03 4.741790e+00 4.751731e-01 4.150842e-01 -5.331829e-01 -2.372272e-01 -1.909678e-01 -1.928381e-01 -4.531555e-01 -5.055519e-01 2.115975e-01 5.786310e-01 1.592123e-01 3.256617e-01 3.540966e-01 5.589987e-01
<VARIANCE> 25
 1.186916e+01 3.209562e+01 1.447027e+01 2.350614e+01 1.733329e+01 2.179415e+01 4.051058e+01 3.889653e+01 2.791776e+01 3.500536e+01 2.769192e+01 2.757166e+01 9.142839e-01 3.699731e+00 1.843367e+00 2.084006e+00 1.884706e+00 3.849908e+00 4.221679e+00 4.821491e+00 3.061145e+00 3.232260e+00 2.890368e+00 1.988174e+00 1.676530e+00
<GCONST> 9.665534e+01
<STATE> 4
<MEAN> 25
 9.847149e+00 -6.651898e+00 -8.441252e+00 -3.589832e+00 -1.762307e+00 -1.671077e+00 -1.372724e-01 -2.273409e+00 -3.678087e+00 -1.686779e+00 5.146054e+00 6.442336e+00 3.505924e-02 3.672250e-02 -2.138329e-01 -1.802232e-01 -7.723176e-02 1.169059e-01 2.986038e-01 4.471578e-01 4.972573e-01 -5.869695e-02 -1.606143e-01 3.287961e-01 -3.717255e-02
<VARIANCE> 25
 6.136293e+00 2.016111e+01 1.700731e+01 2.765740e+01 3.129440e+01 1.695411e+01 4.294670e+01 2.953217e+01 2.601441e+01 3.588684e+01 3.876148e+01 4.275814e+01 4.562495e-01 1.498342e+00 1.436988e+00 1.349262e+00 2.113612e+00 1.688200e+00 2.555974e+00 1.828643e+00 1.991729e+00 2.531472e+00 2.510592e+00 1.970210e+00 7.982225e-01
<GCONST> 9.067676e+01
<TRANSP> 5
 0.000000e+00 1.000000e+00 0.000000e+00 0.000000e+00 0.000000e+00
 0.000000e+00 8.168991e-01 1.831009e-01 0.000000e+00 0.000000e+00
 0.000000e+00 0.000000e+00 7.384216e-01 2.615784e-01 0.000000e+00
 0.000000e+00 0.000000e+00 0.000000e+00 9.203001e-01 7.969991e-02
 0.000000e+00 0.000000e+00 0.000000e+00 0.000000e+00 0.000000e+00
<ENDHMM>
~h "h"
<BEGINHMM>
<NUMSTATES> 5
<STATE> 2
<MEAN> 25
 5.233038e+00 1.066614e+01 1.998794e+00 -3.598962e+00 -9.644588e+00 -9.961352e+00 3.479144e+00 6.476860e+00 -4.605215e-01 -4.373230e+00 -5.798015e+00 -5.564233e+00 1.764252e-01 -5.995094e-01 -7.170257e-01 -2.230172e-01 -3.612468e-01 -5.163050e-01 1.286990e-01 3.196217e-01 7.571901e-02 -9.167689e-03 6.484379e-02 3.707204e-01 2.421590e-01
<VARIANCE> 25
 9.859980e+00 3.333517e+01 4.170966e+01 1.441756e+01 4.309647e+01 5.054846e+01 5.196500e+01 2.457512e+01 3.337177e+01 3.552017e+01 2.838021e+01 2.325046e+01 4.472367e-01 2.703583e+00 1.400326e+00 1.183744e+00 1.853529e+00 3.416241e+00 4.418384e+00 1.702331e+00 1.881131e+00 2.258745e+00 2.135197e+00 2.238388e+00 3.643595e-01
<GCONST> 9.310980e+01
<STATE> 3
<MEAN> 25
 6.666248e+00 -7.377170e-01 -7.595273e+00 -5.814628e+00 -1.185167e+01 -8.518562e+00 8.709789e+00 7.478871e+00 -6.007223e-01 -4.045025e+00 -4.560805e+00 9.369198e-01 -7.861557e-02 -1.878840e+00 -1.209433e+00 -1.096889e-01 5.902444e-01 1.840051e+00 8.424099e-01 -1.012848e+00 2.339028e-01 9.211576e-01 4.194809e-01 7.967344e-01 4.453706e-01
<VARIANCE> 25
 5.266839e+00 4.953851e+01 2.789044e+01 1.890468e+01 2.594341e+01 6.355223e+01 5.863940e+01 3.243354e+01 3.142217e+01 3.418586e+01 3.330031e+01 2.246073e+01 4.399648e-01 2.850734e+00 1.854993e+00 9.585779e-01 2.553441e+00 2.844870e+00 4.267223e+00 2.476835e+00 2.377927e+00 2.880718e+00 2.631253e+00 2.243622e+00 7.606441e-01
<GCONST> 9.490307e+01
<STATE> 4
<MEAN> 25
 4.729070e+00 -6.700784e+00 -7.326602e+00 -6.127967e+00 -9.098380e+00 8.650815e-01 8.470174e+00 2.657090e+00 2.324469e+00 2.954051e-01 -2.140692e+00 2.681798e+00 -3.181770e-01 -6.744462e-01 3.205611e-01 1.850671e-01 7.959475e-01 1.613721e+00 -2.683039e-01 -9.301680e-01 4.525451e-01 7.541466e-01 3.203901e-01 6.590645e-02 1.024344e-01
<VARIANCE> 25
 3.433382e+01 3.372005e+01 8.158978e+01 1.971890e+01 2.152124e+01 7.156933e+01 3.818019e+01 3.172097e+01 2.609674e+01 3.306759e+01 3.950042e+01 1.719566e+01 1.349708e+00 3.492119e+00 4.754798e+00 1.165735e+00 2.519226e+00 2.391177e+00 1.991438e+00 2.827995e+00 1.748348e+00 1.780039e+00 1.599689e+00 1.307547e+00 9.453667e-01
<GCONST> 9.670891e+01
<TRANSP> 5
 0.000000e+00 1.000000e+00 0.000000e+00 0.000000e+00 0.000000e+00
 0.000000e+00 9.296777e-01 7.032233e-02 0.000000e+00 0.000000e+00
 0.000000e+00 0.000000e+00 6.696258e-01 3.303742e-01 0.000000e+00
 0.000000e+00 0.000000e+00 0.000000e+00 7.248461e-01 2.751540e-01
 0.000000e+00 0.000000e+00 0.000000e+00 0.000000e+00 0.000000e+00
<ENDHMM>
~h "i"
<BEGINHMM>
<NUMSTATES> 5
<STATE> 2
<MEAN> 25
 1.425194e+00 -5.262832e+00 7.792662e+00 1.615082e+01 6.271469e+00 -5.774584e+00 -1.316611e+01 -9.143513e+00 -1.000062e+00 2.184634e-01 -2.040787e+00 -3.604023e+00 -1.631715e-01 2.938061e-01 6.146334e-01 1.341143e+00 6.045873e-01 -8.577925e-01 -4.523087e-01 -3.151852e-02 -1.610379e-02 3.705232e-01 -6.048452e-02 -5.078540e-01 -2.108386e-01
<VARIANCE> 25
 1.602899e+01 4.337071e+01 5.241623e+01 4.317199e+01 3.626913e+01 5.636916e+01 4.451275e+01 3.281288e+01 2.982167e+01 2.743200e+01 3.357754e+01 2.849930e+01 1.570435e+00 4.350850e+00 2.519287e+00 8.343275e+00 2.399542e+00 5.898443e+00 4.708839e+00 3.089110e+00 2.405963e+00 2.624090e+00 2.525006e+00 2.697871e+00 2.287597e+00
<GCONST> 1.035790e+02
<STATE> 3
<MEAN> 25
 -3.904325e-01 -1.305109e+00 6.351684e+00 1.427505e+01 7.680944e+00 -4.717544e+00 -1.082934e+01 -7.562101e+00 -3.181956e-01 2.320794e+00 -9.790384e-01 -3.171861e+00 -6.980588e-01 9.746138e-01 -4.228419e-01 -1.309241e+00 3.810835e-02 8.675194e-01 7.386118e-01 3.648166e-01 2.877388e-01 4.883389e-01 3.477381e-01 4.023978e-01 -8.899857e-01
<VARIANCE> 25
 2.362654e+01 5.088227e+01 3.442636e+01 3.653863e+01 3.195147e+01 4.718158e+01 4.029430e+01 3.131236e+01 2.960548e+01 2.903465e+01 2.783315e+01 2.739231e+01 8.353099e-01 3.341197e+00 2.091833e+00 3.114057e+00 2.302822e+00 3.602535e+00 3.206701e+00 2.390106e+00 2.252033e+00 2.651319e+00 2.159888e+00 2.049716e+00 1.333600e+00
<GCONST> 9.864263e+01
<STATE> 4
<MEAN> 25
 -2.330761e+00 1.010858e+00 3.942813e+00 8.959142e+00 6.786609e+00 -1.641956e+00 -7.277713e+00 -5.822426e+00 5.661153e-01 3.543610e+00 8.489361e-02 -1.391348e+00 -3.463348e-01 9.782001e-03 -6.729046e-01 -1.676328e+00 -5.628827e-01 1.088291e+00 9.464819e-01 3.236472e-01 -1.841285e-02 -7.969017e-02 4.309791e-01 7.213434e-01 -2.673506e-01
<VARIANCE> 25
 3.510611e+01 5.686963e+01 3.018516e+01 3.326136e+01 3.120296e+01 5.055688e+01 4.186447e+01 3.669878e+01 3.163281e+01 3.418022e+01 2.638646e+01 2.793122e+01 1.334121e+00 4.911779e+00 2.286660e+00 2.969430e+00 2.836380e+00 4.183278e+00 3.022854e+00 3.091413e+00 2.684932e+00 3.310848e+00 2.715514e+00 2.070447e+00 1.876095e+00
<GCONST> 1.017917e+02
<TRANSP> 5
 0.000000e+00 1.000000e+00 0.000000e+00 0.000000e+00 0.000000e+00
 0.000000e+00 7.625244e-01 2.374756e-01 0.000000e+00 0.000000e+00
 0.000000e+00 0.000000e+00 6.600983e-01 3.399017e-01 0.000000e+00
 0.000000e+00 0.000000e+00 0.000000e+00 6.843189e-01 3.156811e-01
 0.000000e+00 0.000000e+00 0.000000e+00 0.000000e+00 0.000000e+00
<ENDHMM>
~h "j"
<BEGINHMM>
<NUMSTATES> 5
<STATE> 2
<MEAN> 25
 -3.529707e+00 -1.996822e+00 8.829132e+00 1.436161e+00 1.852512e-01 6.203676e+00 -3.773791e+00 -4.396452e+00 3.352730e+00 3.708116e+00 1.488183e+00 -1.421840e-01 -5.512822e-01 -1.872381e+00 2.559934e+00 5.982944e-01 -5.972283e-01 1.475039e+00 -1.266918e+00 -1.064209e+00 7.098758e-02 -4.284749e-01 -1.220513e-01 -2.612012e-01 7.997326e-01
<VARIANCE> 25
 4.037359e+01 1.155195e+02 8.991507e+01 3.450512e+01 5.986440e+01 5.775358e+01 4.595579e+01 4.074077e+01 3.484026e+01 2.292153e+01 2.580867e+01 1.546826e+01 3.183462e+00 1.632909e+01 6.960815e+00 3.943207e+00 7.131583e+00 5.572796e+00 5.307492e+00 5.724320e+00 4.539976e+00 4.080598e+00 2.356307e+00 1.863511e+00 3.599724e+00
<GCONST> 1.108291e+02
<STATE> 3
<MEAN> 25
 -1.557931e+00 -3.894201e+00 1.283383e+01 4.821052e+00 -1.249860e-01 6.925060e+00 -7.069161e+00 -8.374176e+00 1.101581e+00 1.428271e+00 1.098325e+00 -5.247852e-01 1.083578e+00 -2.819404e-01 4.367039e-01 1.415824e+00 2.970251e-01 -3.961253e-01 -1.111256e+00 -1.267596e+00 -1.296379e+00 -8.708691e-01 1.374014e-01 -3.933845e-01 8.317981e-01
<VARIANCE> 25
 2.735698e+01 7.116145e+01 9.554688e+01 2.715314e+01 4.521132e+01 4.874815e+01 5.033459e+01 4.541190e+01 4.274363e+01 2.597137e+01 2.438317e+01 1.829006e+01 4.944866e+00 1.249365e+01 1.221359e+01 3.831686e+00 7.727411e+00 8.146309e+00 6.444051e+00 6.635686e+00 5.588027e+00 2.921507e+00 3.143157e+00 2.278016e+00 3.683199e+00
<GCONST> 1.118593e+02
<STATE> 4
<MEAN> 25
 1.565115e+00 -4.084301e+00 1.021534e+01 7.840382e+00 1.122086e+00 4.171317e+00 -8.443902e+00 -9.787827e+00 -8.946218e-01 2.693468e-01 9.352921e-01 -1.073033e+00 1.148715e+00 2.059222e-01 -1.283636e+00 9.172212e-01 9.703071e-01 -9.907230e-01 -3.722536e-01 -2.719821e-01 -6.810203e-01 -3.441229e-01 -2.632759e-01 -6.055334e-01 4.193289e-01
<VARIANCE> 25
 1.452545e+01 4.669863e+01 5.401786e+01 2.508248e+01 2.350348e+01 3.803704e+01 4.979766e+01 3.945646e+01 4.349592e+01 2.311921e+01 2.957041e+01 2.044038e+01 3.699828e+00 7.720431e+00 1.060526e+01 2.762751e+00 4.622707e+00 7.221800e+00 5.354993e+00 6.530223e+00 5.211183e+00 3.216209e+00 3.135039e+00 3.056470e+00 2.797113e+00
<GCONST> 1.072743e+02
<TRANSP> 5
 0.000000e+00 1.000000e+00 0.000000e+00 0.000000e+00 0.000000e+00
 0.000000e+00 7.379884e-01 2.620116e-01 0.000000e+00 0.000000e+00
 0.000000e+00 0.000000e+00 5.703493e-01 4.296507e-01 0.000000e+00
 0.000000e+00 0.000000e+00 0.000000e+00 5.478718e-01 4.521281e-01
 0.000000e+00 0.000000e+00 0.000000e+00 0.000000e+00 0.000000e+00
<ENDHMM>
~h "k"
<BEGINHMM>
<NUMSTATES> 5
<STATE> 2
<MEAN> 25
 -2.385072e+00 -3.553895e+00 -1.273473e+00 -5.289381e+00 -3.588922e+00 4.533382e+00 1.031159e+00 -3.138916e+00 -2.819290e+00 -2.532613e-02 3.166231e+00 2.465746e+00 1.995606e+00 -2.967228e+00 -1.165135e+00 -1.271242e+00 -1.856855e+00 7.082551e-01 1.014585e+00 -6.000441e-01 -1.385801e+00 -9.322182e-01 5.755148e-01 5.271016e-01 2.581619e+00
<VARIANCE> 25
 3.251743e+01 8.681843e+01 3.883254e+01 5.903196e+01 5.746395e+01 7.387860e+01 8.639807e+01 8.638615e+01 4.574309e+01 5.613562e+01 3.096141e+01 3.310908e+01 2.792711e+00 6.393075e+00 4.941693e+00 6.340312e+00 5.056831e+00 1.360883e+01 6.980490e+00 6.022856e+00 5.239903e+00 7.174809e+00 3.591192e+00 3.398355e+00 1.778443e+00
<GCONST> 1.146860e+02
<STATE> 3
<MEAN> 25
 3.570551e+00 -8.919108e+00 -3.756175e+00 -5.518919e+00 -6.831696e+00 2.380018e+00 2.065102e+00 -4.075750e+00 -4.367441e+00 -6.646495e-01 4.002873e+00 3.487817e+00 2.252317e+00 -1.506382e+00 -1.222120e+00 3.332662e-01 -6.884952e-01 -1.567824e+00 4.808110e-01 4.985287e-01 1.052026e-01 1.312285e-01 2.946025e-01 2.250552e-01 2.134438e+00
<VARIANCE> 25
 3.118621e+01 4.918109e+01 3.111025e+01 4.519571e+01 4.292918e+01 6.551219e+01 6.420557e+01 5.672128e+01 3.833488e+01 5.109696e+01 3.307293e+01 2.808357e+01 2.306891e+00 4.694069e+00 3.619499e+00 4.248905e+00 4.316092e+00 8.299505e+00 6.212621e+00 6.598901e+00 4.864419e+00 6.567838e+00 3.128608e+00 3.605707e+00 1.810484e+00
<GCONST> 1.099750e+02
<STATE> 4
<MEAN> 25
 7.306967e+00 -1.077165e+01 -6.485669e+00 -4.554035e+00 -6.880334e+00 -1.209937e+00 3.196706e+00 -1.571907e+00 -2.827018e+00 1.398983e-02 4.289907e+00 3.657408e+00 7.957550e-01 -1.545677e-01 -7.237374e-01 2.100293e-01 2.407644e-01 -7.025847e-01 3.549781e-01 9.493468e-01 5.612229e-01 4.888858e-02 -1.049924e-01 -8.754686e-02 5.599347e-01
<VARIANCE> 25
 1.309943e+01 3.993677e+01 1.992858e+01 2.199260e+01 2.850405e+01 3.730656e+01 3.997689e+01 3.955360e+01 3.687888e+01 4.373251e+01 3.044529e+01 2.650587e+01 1.922691e+00 3.412773e+00 2.180023e+00 2.362224e+00 2.856647e+00 4.293582e+00 3.646287e+00 3.787269e+00 3.068931e+00 3.707639e+00 2.641806e+00 2.461335e+00 1.948364e+00
<GCONST> 1.003270e+02
<TRANSP> 5
 0.000000e+00 1.000000e+00 0.000000e+00 0.000000e+00 0.000000e+00
 0.000000e+00 5.794110e-01 4.205890e-01 0.000000e+00 0.000000e+00
 0.000000e+00 0.000000e+00 4.816055e-01 5.183945e-01 0.000000e+00
 0.000000e+00 0.000000e+00 0.000000e+00 5.728433e-01 4.271567e-01
 0.000000e+00 0.000000e+00 0.000000e+00 0.000000e+00 0.000000e+00
<ENDHMM>
~h "l"
<BEGINHMM>
<NUMSTATES> 5
<STATE> 2
<MEAN> 25
 6.387174e+00 -5.580866e+00 -5.201760e+00 -2.572004e+00 -4.649719e+00 -1.298498e+00 5.177326e+00 2.468801e+00 -2.744943e+00 -1.925742e+00 8.072478e-01 6.102757e-01 7.988387e-02 -1.063590e-01 -2.462488e-01 -4.541700e-01 -5.007275e-01 -1.234244e-01 5.725577e-01 4.845013e-01 1.729380e-01 -9.840120e-03 -5.749870e-02 5.440359e-02 1.040362e-01
<VARIANCE> 25
 5.431536e+00 2.800368e+01 1.321948e+01 2.337183e+01 3.504846e+01 3.345686e+01 3.539032e+01 3.651483e+01 3.162350e+01 3.687761e+01 3.374569e+01 3.365368e+01 1.629074e-01 2.226157e+00 8.299102e-01 1.271100e+00 1.808206e+00 1.959207e+00 2.187659e+00 1.695850e+00 1.800377e+00 1.949562e+00 2.458181e+00 1.544657e+00 4.989047e-01
<GCONST> 8.854185e+01
<STATE> 3
<MEAN> 25
 6.478531e+00 -7.144902e+00 -5.789033e+00 -4.546555e+00 -6.941961e+00 -6.507719e-01 7.538005e+00 4.387975e+00 -9.435915e-01 -1.811948e+00 4.233715e-01 1.199827e+00 -2.140216e-01 3.184564e-01 1.865427e-01 -1.220307e-02 9.277964e-02 1.035602e-01 -8.007141e-02 1.769166e-01 2.564239e-01 3.702836e-02 -1.496979e-01 -1.229608e-01 -2.732065e-01
<VARIANCE> 25
 5.608112e+00 3.177465e+01 1.293111e+01 1.865387e+01 3.269405e+01 3.862090e+01 2.845747e+01 4.304197e+01 3.243036e+01 3.698716e+01 3.195024e+01 2.921150e+01 2.871976e-01 3.070466e+00 1.032546e+00 1.335648e+00 1.951845e+00 2.204231e+00 2.019575e+00 1.884879e+00 1.565763e+00 1.877236e+00 1.704469e+00 1.714264e+00 8.219910e-01
<GCONST> 8.974146e+01
<STATE> 4
<MEAN> 25
 4.449819e+00 -3.073235e+00 -4.080205e+00 -3.797145e+00 -5.263878e+00 1.796114e-01 6.695668e+00 4.538482e+00 2.704598e-01 -1.255730e+00 -1.034084e+00 2.915927e-01 -8.504197e-01 1.621798e+00 5.138022e-01 1.795685e-01 8.921232e-01 2.542101e-01 -3.865505e-01 7.122785e-02 2.735492e-01 2.720248e-01 -2.142991e-01 -3.413745e-01 -1.228129e+00
<VARIANCE> 25
 9.563290e+00 4.581541e+01 1.735081e+01 1.848828e+01 2.684138e+01 3.190509e+01 2.197281e+01 3.980650e+01 2.764536e+01 3.417088e+01 2.916112e+01 2.716442e+01 5.445297e-01 2.297288e+00 1.407977e+00 1.319327e+00 1.982664e+00 2.622665e+00 1.850970e+00 2.008929e+00 1.779108e+00 2.092197e+00 1.723026e+00 2.074044e+00 8.364753e-01
<GCONST> 9.106683e+01
<TRANSP> 5
 0.000000e+00 1.000000e+00 0.000000e+00 0.000000e+00 0.000000e+00
 0.000000e+00 8.838947e-01 1.161053e-01 0.000000e+00 0.000000e+00
 0.000000e+00 0.000000e+00 7.580006e-01 2.419995e-01 0.000000e+00
 0.000000e+00 0.000000e+00 0.000000e+00 7.301880e-01 2.698120e-01
 0.000000e+00 0.000000e+00 0.000000e+00 0.000000e+00 0.000000e+00
<ENDHMM>
~h "m"
<BEGINHMM>
<NUMSTATES> 5
<STATE> 2
<MEAN> 25
 -1.306368e-01 5.495234e+00 9.927456e-01 -7.906715e-02 2.704928e+00 3.314959e+00 4.356771e+00 5.252599e+00 2.066267e+00 -1.421382e+00 -4.523331e+00 -4.709551e+00 -6.069758e-02 6.484407e-01 4.097972e-01 2.653667e-01 6.687805e-01 4.895937e-01 -1.443330e-01 -2.839265e-01 -1.882736e-01 -2.306731e-01 -3.124995e-01 -1.048953e-01 -2.247341e-01
<VARIANCE> 25
 2.718288e+01 2.277833e+01 1.819318e+01 1.886922e+01 2.536413e+01 3.340750e+01 2.217799e+01 2.248653e+01 2.011124e+01 3.122830e+01 2.862862e+01 2.187215e+01 3.823488e+00 2.081362e+00 1.274388e+00 1.490904e+00 2.312435e+00 2.737377e+00 1.894470e+00 2.415336e+00 2.162715e+00 3.090573e+00 3.673895e+00 2.560651e+00 2.071974e+00
<GCONST> 9.500211e+01
<STATE> 3
<MEAN> 25
 -8.148661e-01 6.158753e+00 1.517355e+00 -1.912450e-01 3.463707e+00 4.056928e+00 3.354981e+00 3.609305e+00 1.481839e+00 -1.510872e+00 -4.516404e+00 -3.931519e+00 4.744256e-01 -3.311991e-01 -1.869167e-01 -4.676640e-01 -5.883362e-01 -1.446655e-01 -3.576538e-01 -6.444963e-01 -3.588859e-01 -2.305220e-01 1.933023e-01 6.829245e-01 4.898720e-01
<VARIANCE> 25
 2.282289e+01 3.098120e+01 2.167542e+01 2.253592e+01 2.659657e+01 3.567326e+01 2.667113e+01 2.705916e+01 2.453239e+01 3.293170e+01 3.764988e+01 2.705097e+01 4.548602e+00 3.128746e+00 1.699798e+00 1.731600e+00 3.329789e+00 3.515560e+00 2.785819e+00 2.864067e+00 2.451187e+00 3.469007e+00 3.297364e+00 2.366493e+00 2.692177e+00
<GCONST> 9.921387e+01
<STATE> 4
<MEAN> 25
 9.147523e-02 4.342948e+00 7.635754e-01 -1.861571e+00 1.063059e+00 3.265301e+00 2.213843e+00 1.864272e+00 6.744103e-01 -1.959972e+00 -3.270066e+00 -1.362581e+00 1.080132e+00 -8.814638e-01 -4.495353e-01 -6.902013e-01 -1.704924e+00 -1.181739e+00 -4.427656e-01 -5.557482e-01 -4.261571e-01 -2.187848e-01 5.917297e-01 1.018281e+00 1.118507e+00
<VARIANCE> 25
 3.075650e+01 4.221006e+01 2.993485e+01 2.682944e+01 3.831606e+01 4.692418e+01 4.150340e+01 3.165327e+01 3.005060e+01 3.270652e+01 3.842029e+01 2.886617e+01 2.867562e+00 6.058933e+00 3.223202e+00 2.318911e+00 3.672142e+00 5.525112e+00 4.521203e+00 3.818962e+00 2.423494e+00 3.461200e+00 2.651218e+00 3.019511e+00 1.920222e+00
<GCONST> 1.039656e+02
<TRANSP> 5
 0.000000e+00 1.000000e+00 0.000000e+00 0.000000e+00 0.000000e+00
 0.000000e+00 5.851692e-01 4.148307e-01 0.000000e+00 0.000000e+00
 0.000000e+00 0.000000e+00 5.077607e-01 4.922393e-01 0.000000e+00
 0.000000e+00 0.000000e+00 0.000000e+00 5.397434e-01 4.602566e-01
 0.000000e+00 0.000000e+00 0.000000e+00 0.000000e+00 0.000000e+00
<ENDHMM>
~h "n"
<BEGINHMM>
<NUMSTATES> 5
<STATE> 2
<MEAN> 25
 4.822158e+00 5.086570e-01 -2.341232e+00 1.946301e+00 3.777567e+00 7.830439e-01 -1.646537e-01 -2.049554e-01 -2.846742e+00 -3.346116e+00 -1.130909e+00 -3.130594e-01 -2.203266e-01 9.789799e-01 5.453555e-01 1.707018e-01 3.986560e-01 4.004751e-01 1.264241e-01 1.939060e-01 -1.739092e-01 -7.118592e-01 -7.604421e-01 -1.390380e-01 -4.856147e-01
<VARIANCE> 25
 1.357099e+01 6.012955e+01 2.836660e+01 2.308732e+01 3.641760e+01 2.719171e+01 3.051405e+01 2.610033e+01 2.684295e+01 3.015403e+01 3.821660e+01 2.525923e+01 1.831469e+00 3.072755e+00 2.431459e+00 1.621039e+00 2.582921e+00 2.510671e+00 2.461446e+00 2.371895e+00 3.137345e+00 2.832824e+00 3.647817e+00 2.589102e+00 1.381549e+00
<GCONST> 9.776919e+01
<STATE> 3
<MEAN> 25
 4.413298e+00 1.387981e+00 -1.613093e+00 1.821637e+00 3.567744e+00 1.254609e+00 3.266348e-01 2.667073e-01 -2.831833e+00 -4.127419e+00 -1.925717e+00 -3.088142e-01 -4.183523e-01 2.907932e-01 4.985859e-01 -1.585414e-01 -2.839743e-01 3.283659e-01 3.347759e-01 1.944711e-01 1.136714e-01 -1.111551e-01 -1.735835e-01 1.346248e-02 -3.376113e-01
<VARIANCE> 25
 1.216531e+01 5.149535e+01 3.511998e+01 2.416591e+01 3.876204e+01 2.889742e+01 3.609559e+01 2.660505e+01 3.053120e+01 2.947966e+01 3.674392e+01 2.291389e+01 1.276737e+00 4.119771e+00 3.176794e+00 1.600314e+00 3.299652e+00 2.707275e+00 2.623892e+00 2.201571e+00 2.605423e+00 2.746029e+00 3.848472e+00 2.501482e+00 1.245535e+00
<GCONST> 9.823899e+01
<STATE> 4
<MEAN> 25
 3.534964e+00 1.456033e+00 -7.227347e-01 1.122549e+00 2.188021e+00 1.697543e+00 1.334791e+00 6.271210e-01 -2.173102e+00 -3.542074e+00 -1.810364e+00 -1.393745e-01 -5.593728e-01 -4.240381e-01 5.695912e-01 -3.900517e-01 -7.849321e-01 4.627506e-01 3.781430e-01 -4.610462e-02 2.878642e-01 4.198145e-01 3.423929e-01 1.772433e-01 -1.167824e-01
<VARIANCE> 25
 1.742906e+01 5.223314e+01 4.932114e+01 2.813519e+01 4.866879e+01 3.665752e+01 4.572794e+01 2.964676e+01 3.453411e+01 3.007731e+01 3.581574e+01 2.220337e+01 1.372490e+00 4.804454e+00 4.179850e+00 1.916545e+00 3.426492e+00 3.393843e+00 3.060853e+00 2.435012e+00 2.621157e+00 2.948715e+00 3.684840e+00 2.278553e+00 1.244983e+00
<GCONST> 1.011402e+02
<TRANSP> 5
 0.000000e+00 1.000000e+00 0.000000e+00 0.000000e+00 0.000000e+00
 0.000000e+00 3.861992e-01 6.138009e-01 0.000000e+00 0.000000e+00
 0.000000e+00 0.000000e+00 3.621257e-01 6.378743e-01 0.000000e+00
 0.000000e+00 0.000000e+00 0.000000e+00 4.026972e-01 5.973027e-01
 0.000000e+00 0.000000e+00 0.000000e+00 0.000000e+00 0.000000e+00
<ENDHMM>
~h "p"
<BEGINHMM>
<NUMSTATES> 5
<STATE> 2
<MEAN> 25
 9.906479e-01 7.922390e+00 4.107769e+00 -7.281860e-01 -3.900922e+00 -6.186366e+00 -3.911470e+00 -1.189338e+00 -3.466901e-01 -4.741703e-01 -7.216803e-01 -4.407658e-01 6.930119e-01 8.021726e-01 8.290746e-01 4.451634e-01 -8.734022e-01 -2.055720e+00 -1.199377e+00 -2.159640e-01 8.078077e-02 2.778496e-01 3.696636e-02 -4.996115e-01 3.597414e-01
<VARIANCE> 25
 1.950655e+01 3.136247e+01 2.474991e+01 2.123432e+01 3.979043e+01 7.606181e+01 3.706673e+01 3.632639e+01 3.006861e+01 2.556952e+01 2.165292e+01 2.183356e+01 2.727789e+00 4.095963e+00 2.231616e+00 2.140728e+00 4.799189e+00 9.394732e+00 3.531824e+00 3.542663e+00 3.065528e+00 2.433975e+00 2.376867e+00 2.369234e+00 1.409766e+00
<GCONST> 1.010458e+02
<STATE> 3
<MEAN> 25
 1.644539e+00 8.823744e+00 5.410393e+00 2.024266e-01 -4.895370e+00 -9.275926e+00 -5.776515e+00 -1.118265e+00 3.945970e-01 4.047485e-01 -6.795064e-01 -1.784312e+00 1.965885e-01 3.013539e-02 3.169714e-01 2.937654e-01 -1.513867e-01 -6.221091e-01 -4.740062e-01 -4.861861e-02 1.277838e-01 1.502443e-01 1.789735e-03 -3.722082e-01 1.997942e-01
<VARIANCE> 25
 1.958816e+01 3.320521e+01 2.906287e+01 2.329681e+01 5.176191e+01 7.430013e+01 4.663385e+01 4.384547e+01 3.656907e+01 3.091177e+01 3.017776e+01 3.045921e+01 1.763671e+00 3.111032e+00 1.841329e+00 2.018739e+00 3.378680e+00 6.627177e+00 3.136007e+00 3.608953e+00 3.047143e+00 2.516479e+00 2.576536e+00 2.422147e+00 1.189538e+00
<GCONST> 1.012660e+02
<STATE> 4
<MEAN> 25
 1.530053e+00 8.616296e+00 5.534371e+00 6.957594e-01 -3.712407e+00 -8.966714e+00 -7.071960e+00 -1.762429e+00 9.648652e-01 6.948673e-01 -1.168668e+00 -2.470535e+00 -1.267614e-02 -5.406666e-01 -1.649723e-01 6.932712e-02 3.038668e-01 5.385789e-01 9.489109e-02 -5.115255e-02 -2.006419e-02 -1.063450e-01 -1.069945e-01 -1.585827e-01 1.737326e-01
<VARIANCE> 25
 2.050084e+01 4.479690e+01 3.274605e+01 2.344870e+01 6.009114e+01 7.669782e+01 5.988420e+01 5.274721e+01 4.265681e+01 3.654047e+01 4.030772e+01 3.504890e+01 1.876540e+00 3.288222e+00 1.868486e+00 2.992475e+00 3.262146e+00 5.201670e+00 3.996309e+00 3.905696e+00 3.244206e+00 2.939285e+00 2.332825e+00 2.552428e+00 1.681131e+00
<GCONST> 1.041905e+02
<TRANSP> 5
 0.000000e+00 1.000000e+00 0.000000e+00 0.000000e+00 0.000000e+00
 0.000000e+00 5.949219e-01 4.050781e-01 0.000000e+00 0.000000e+00
 0.000000e+00 0.000000e+00 5.593469e-01 4.406531e-01 0.000000e+00
 0.000000e+00 0.000000e+00 0.000000e+00 6.314393e-01 3.685607e-01
 0.000000e+00 0.000000e+00 0.000000e+00 0.000000e+00 0.000000e+00
<ENDHMM>
~h "r"
<BEGINHMM>
<NUMSTATES> 5
<STATE> 2
<MEAN> 25
 5.563056e+00 -2.550793e-01 -6.153889e+00 -3.755490e+00 2.132881e+00 1.838133e+00 -1.522787e+00 -1.535913e+00 -1.695264e+00 -5.519214e+00 -1.972655e+00 4.130981e+00 -2.133010e-01 3.657445e-01 -3.028112e-01 -3.032694e-01 5.260550e-01 3.855393e-01 -9.479866e-02 -1.134768e-01 1.659381e-01 3.477660e-01 2.282643e-01 1.941545e-01 -3.264124e-01
<VARIANCE> 25
 2.075396e+01 4.224199e+01 3.111813e+01 2.520989e+01 2.668286e+01 4.378558e+01 3.166652e+01 3.845909e+01 4.083783e+01 3.335060e+01 4.455683e+01 3.345974e+01 1.007787e+00 1.707116e+00 2.119833e+00 1.776342e+00 1.928534e+00 3.181747e+00 3.138671e+00 3.122912e+00 2.270263e+00 2.691573e+00 2.231853e+00 2.419919e+00 7.682245e-01
<GCONST> 9.727821e+01
<STATE> 3
<MEAN> 25
 3.668491e+00 9.662440e-01 -5.318971e+00 -3.867445e+00 2.687192e+00 2.805455e+00 -1.082226e+00 -1.836308e+00 -1.169291e+00 -3.062006e+00 -1.192521e+00 3.284325e+00 -6.614693e-01 3.918368e-01 5.306129e-01 1.410599e-01 1.155051e-01 1.287831e-01 9.456417e-02 6.592151e-02 1.849030e-01 6.432222e-01 2.128816e-01 -3.250828e-01 -5.637332e-01
<VARIANCE> 25
 3.095189e+01 5.250748e+01 3.612031e+01 2.333521e+01 2.814469e+01 3.878987e+01 3.385375e+01 3.777594e+01 4.527275e+01 3.017643e+01 4.513826e+01 2.967361e+01 7.622690e-01 1.687973e+00 1.721673e+00 1.660943e+00 1.702976e+00 2.617186e+00 2.695065e+00 2.166180e+00 2.187939e+00 2.455708e+00 1.971721e+00 2.373041e+00 5.766164e-01
<GCONST> 9.588164e+01
<STATE> 4
<MEAN> 25
 7.512214e-01 1.966774e+00 -2.939114e+00 -2.739362e+00 3.036390e+00 2.824693e+00 -1.076322e+00 -1.825865e+00 -7.957241e-01 -8.531776e-01 -1.569888e-01 2.443456e+00 -9.241627e-01 2.783715e-01 8.477630e-01 3.350513e-01 -8.039954e-02 -1.005697e-01 -1.330273e-02 1.431723e-01 3.681191e-01 7.599124e-01 2.518093e-01 -4.125118e-01 -6.689458e-01
<VARIANCE> 25
 4.384990e+01 6.146624e+01 3.372897e+01 2.381980e+01 2.964192e+01 4.152966e+01 3.528297e+01 3.273105e+01 4.259644e+01 3.246355e+01 4.423627e+01 2.833369e+01 6.600049e-01 1.622935e+00 1.558529e+00 1.657692e+00 1.713478e+00 2.852235e+00 2.604651e+00 2.131630e+00 2.201173e+00 2.285275e+00 2.021156e+00 2.023461e+00 4.714005e-01
<GCONST> 9.565850e+01
<TRANSP> 5
 0.000000e+00 1.000000e+00 0.000000e+00 0.000000e+00 0.000000e+00
 0.000000e+00 6.590733e-01 3.409267e-01 0.000000e+00 0.000000e+00
 0.000000e+00 0.000000e+00 5.631039e-01 4.368961e-01 0.000000e+00
 0.000000e+00 0.000000e+00 0.000000e+00 5.846056e-01 4.153944e-01
 0.000000e+00 0.000000e+00 0.000000e+00 0.000000e+00 0.000000e+00
<ENDHMM>
~h "s"
<BEGINHMM>
<NUMSTATES> 5
<STATE> 2
<MEAN> 25
 -9.463095e+00 -1.051980e+01 1.663510e+01 -8.090785e+00 -5.670667e+00 1.541788e+01 -3.638224e+00 1.339474e+00 3.659520e+00 -8.044864e-01 5.439329e+00 1.228494e+00 4.954879e-02 1.224415e-01 1.412604e-01 8.651907e-01 5.954369e-01 -5.251450e-01 -7.777948e-01 -7.165506e-01 -6.737442e-01 -4.421268e-01 -3.067725e-02 -1.524482e-01 -4.651216e-02
<VARIANCE> 25
 3.560442e+01 3.898295e+01 5.477614e+01 5.004214e+01 3.448350e+01 5.024049e+01 4.646746e+01 7.128659e+01 4.839067e+01 3.349326e+01 3.614865e+01 2.499283e+01 8.660254e+00 6.292607e+00 1.062519e+01 6.442884e+00 4.082505e+00 8.243541e+00 4.216477e+00 6.261185e+00 3.760807e+00 2.857192e+00 3.531167e+00 2.244602e+00 9.791160e-01
<GCONST> 1.102956e+02
<STATE> 3
<MEAN> 25
 6.355724e-01 -4.344530e+00 8.507665e+00 4.410288e+00 1.703265e+00 3.895637e+00 -9.422584e+00 -7.342674e+00 -3.331510e+00 -4.388394e+00 2.410551e+00 -3.392790e-01 2.500478e+00 1.175766e+00 -1.644598e+00 2.476380e+00 1.282352e+00 -2.929792e+00 -9.208049e-01 -1.012228e+00 -1.068009e+00 -3.424443e-01 -1.027422e+00 -6.887196e-01 8.229334e-01
<VARIANCE> 25
 3.960412e+01 3.776883e+01 3.783171e+01 6.497885e+01 5.543475e+01 5.377237e+01 8.170078e+01 4.471207e+01 3.960254e+01 4.145921e+01 3.542173e+01 3.620898e+01 3.686168e+00 5.301417e+00 3.515396e+00 3.258463e+00 3.748207e+00 3.720575e+00 4.248715e+00 7.919598e+00 3.915288e+00 4.576097e+00 3.967796e+00 2.607692e+00 1.209589e+00
<GCONST> 1.088028e+02
<STATE> 4
<MEAN> 25
 2.263577e+00 -2.161051e+00 8.880467e+00 1.519332e+01 5.244885e+00 -5.397999e+00 -1.122974e+01 -6.274024e+00 -1.149044e+00 -2.407447e+00 -2.878639e+00 -4.955203e+00 2.539626e-01 6.291504e-01 -5.256132e-01 9.178204e-01 2.578762e-01 -1.328585e+00 2.619969e-01 1.702166e-01 1.526674e-01 5.401716e-01 -5.776044e-01 -3.151362e-01 -2.681616e-01
<VARIANCE> 25
 1.387757e+01 2.801380e+01 3.413955e+01 7.994757e+01 4.804300e+01 5.833302e+01 4.768932e+01 3.607108e+01 3.866606e+01 4.803113e+01 4.705016e+01 3.270882e+01 1.592486e+00 2.124151e+00 1.667318e+00 2.152178e+00 2.020625e+00 2.339524e+00 1.754949e+00 2.283243e+00 1.736320e+00 2.020865e+00 2.040311e+00 1.342855e+00 6.077715e-01
<GCONST> 9.727886e+01
<TRANSP> 5
 0.000000e+00 1.000000e+00 0.000000e+00 0.000000e+00 0.000000e+00
 0.000000e+00 8.883964e-01 1.116035e-01 0.000000e+00 0.000000e+00
 0.000000e+00 0.000000e+00 3.418468e-01 6.581532e-01 0.000000e+00
 0.000000e+00 0.000000e+00 0.000000e+00 6.580030e-01 3.419970e-01
 0.000000e+00 0.000000e+00 0.000000e+00 0.000000e+00 0.000000e+00
<ENDHMM>
~h "t"
<BEGINHMM>
<NUMSTATES> 5
<STATE> 2
<MEAN> 25
 -5.386612e+00 2.326220e+00 5.299174e-01 -1.884951e+00 1.037471e+00 4.068359e+00 2.168449e+00 -1.257942e-02 1.096416e+00 1.138256e+00 1.100956e+00 3.027546e+00 6.841683e-01 -1.922234e+00 8.528848e-01 2.029233e-02 -1.247629e+00 1.022028e+00 -4.403674e-01 -1.691579e+00 -9.514247e-01 -1.218544e+00 -3.288606e-01 4.623685e-01 1.403169e+00
<VARIANCE> 25
 2.692941e+01 4.774287e+01 2.783331e+01 2.946594e+01 4.314644e+01 3.775296e+01 3.540723e+01 3.838891e+01 3.848532e+01 4.009200e+01 2.226852e+01 2.074782e+01 4.514974e+00 5.905390e+00 2.856103e+00 3.884705e+00 5.195099e+00 4.829735e+00 5.339680e+00 4.162642e+00 4.846535e+00 6.311147e+00 3.733798e+00 3.126875e+00 4.099933e+00
<GCONST> 1.072055e+02
<STATE> 3
<MEAN> 25
 -1.693541e+00 -2.094176e+00 2.588232e+00 -1.995804e+00 -2.904465e+00 5.708080e+00 1.404848e+00 -3.741678e+00 -2.321588e+00 -3.423187e+00 -5.184115e-01 3.635431e+00 2.414712e+00 -1.558276e+00 8.178269e-01 8.931770e-01 -1.280483e+00 -7.344561e-01 -8.878779e-01 -1.151996e+00 -1.411418e+00 -2.169035e+00 -1.262018e+00 -4.893570e-01 2.536886e+00
<VARIANCE> 25
 3.736850e+01 4.434090e+01 2.469452e+01 2.681104e+01 4.455461e+01 4.373479e+01 4.694125e+01 3.899529e+01 5.354000e+01 5.176695e+01 3.042991e+01 2.041860e+01 3.892750e+00 6.734891e+00 3.805895e+00 8.117983e+00 8.364864e+00 6.746024e+00 1.056659e+01 8.833222e+00 5.291332e+00 5.758284e+00 4.773067e+00 4.221513e+00 2.941567e+00
<GCONST> 1.120664e+02
<STATE> 4
<MEAN> 25
 3.892601e+00 -2.900345e+00 2.959066e+00 5.424528e-02 -4.539534e+00 1.532415e+00 2.653505e-01 -3.520088e+00 -4.985860e+00 -7.662708e+00 -3.413520e+00 1.554887e+00 1.830831e+00 -3.815956e-01 2.320286e-01 1.522434e+00 -8.878785e-02 -2.144357e+00 -9.053403e-01 4.176037e-01 -3.175674e-01 -9.906333e-01 -1.019278e+00 -1.305512e+00 1.507682e+00
<VARIANCE> 25
 3.017684e+01 3.570930e+01 2.120852e+01 4.477969e+01 5.796407e+01 4.423255e+01 9.035591e+01 5.357036e+01 4.498458e+01 5.104380e+01 3.821542e+01 2.532691e+01 3.147939e+00 5.368297e+00 3.909495e+00 1.005389e+01 7.823601e+00 6.272663e+00 1.092200e+01 9.650089e+00 4.596004e+00 4.944416e+00 4.266269e+00 3.246309e+00 3.196102e+00
<GCONST> 1.126971e+02
<TRANSP> 5
 0.000000e+00 1.000000e+00 0.000000e+00 0.000000e+00 0.000000e+00
 0.000000e+00 4.819507e-01 5.180493e-01 0.000000e+00 0.000000e+00
 0.000000e+00 0.000000e+00 4.274329e-01 5.725672e-01 0.000000e+00
 0.000000e+00 0.000000e+00 0.000000e+00 4.094398e-01 5.905602e-01
 0.000000e+00 0.000000e+00 0.000000e+00 0.000000e+00 0.000000e+00
<ENDHMM>
~h "u"
<BEGINHMM>
<NUMSTATES> 5
<STATE> 2
<MEAN> 25
 4.735295e+00 5.621201e+00 3.096631e+00 -1.684902e+00 -6.152056e+00 -5.164704e+00 9.889138e-01 3.191721e+00 -1.402363e+00 -6.035138e+00 -5.114706e+00 -2.855390e+00 -2.836260e-01 5.979953e-01 -2.541871e-01 -8.696080e-02 3.727321e-01 -9.538430e-02 1.110308e-01 3.431372e-01 4.267291e-01 5.014213e-01 -4.494168e-02 -1.445728e-01 -4.972685e-01
<VARIANCE> 25
 1.719240e+01 4.897983e+01 2.945672e+01 1.937922e+01 5.098880e+01 5.258296e+01 6.498280e+01 3.387971e+01 4.895112e+01 5.496276e+01 3.748557e+01 2.706415e+01 1.427478e+00 2.584380e+00 1.453332e+00 1.443976e+00 3.062068e+00 5.155108e+00 3.361695e+00 3.160878e+00 3.127691e+00 3.569653e+00 2.617590e+00 2.320580e+00 1.202131e+00
<GCONST> 1.010105e+02
<STATE> 3
<MEAN> 25
 2.903916e+00 7.409332e+00 2.376283e+00 -1.914276e+00 -4.263214e+00 -4.208827e+00 1.138308e+00 2.747267e+00 -8.418463e-01 -3.760073e+00 -4.085686e+00 -2.196117e+00 -7.245401e-01 3.104772e-01 -3.489499e-01 -8.000272e-02 8.362115e-01 5.756723e-01 -4.247585e-02 -2.981556e-01 1.794163e-01 6.971120e-01 4.864027e-01 4.343902e-01 -7.369379e-01
<VARIANCE> 25
 2.108411e+01 4.381231e+01 2.825344e+01 2.032971e+01 5.337523e+01 5.510218e+01 5.425878e+01 3.076067e+01 4.623299e+01 5.096482e+01 3.540318e+01 2.719037e+01 1.081419e+00 2.934803e+00 1.594035e+00 1.481260e+00 2.605052e+00 4.072643e+00 3.647538e+00 2.593922e+00 3.044657e+00 3.007636e+00 2.383244e+00 2.118197e+00 1.220463e+00
<GCONST> 9.982555e+01
<STATE> 4
<MEAN> 25
 4.694856e-01 7.598744e+00 1.365002e+00 -2.120118e+00 -2.136820e+00 -2.734241e+00 7.729462e-01 1.584923e+00 -6.081308e-01 -1.785677e+00 -2.053927e+00 -3.519902e-01 -5.937987e-01 -5.073985e-01 -4.577350e-01 -1.033783e-01 6.769412e-01 7.641191e-01 -1.679144e-01 -5.595139e-01 -1.750967e-02 4.654179e-01 7.101435e-01 7.023701e-01 -3.228190e-01
<VARIANCE> 25
 2.713301e+01 4.433251e+01 2.795833e+01 2.437799e+01 4.792378e+01 5.278568e+01 4.653873e+01 3.051729e+01 3.941878e+01 4.624067e+01 3.428260e+01 2.929381e+01 1.236904e+00 3.926669e+00 1.897958e+00 1.859147e+00 2.903405e+00 4.336541e+00 4.041508e+00 2.717660e+00 3.149608e+00 2.785293e+00 2.247875e+00 2.243211e+00 1.645003e+00
<GCONST> 1.011362e+02
<TRANSP> 5
 0.000000e+00 1.000000e+00 0.000000e+00 0.000000e+00 0.000000e+00
 0.000000e+00 6.122111e-01 3.877888e-01 0.000000e+00 0.000000e+00
 0.000000e+00 0.000000e+00 5.411873e-01 4.588127e-01 0.000000e+00
 0.000000e+00 0.000000e+00 0.000000e+00 5.606532e-01 4.393468e-01
 0.000000e+00 0.000000e+00 0.000000e+00 0.000000e+00 0.000000e+00
<ENDHMM>
~h "ng"
<BEGINHMM>
<NUMSTATES> 5
<STATE> 2
<MEAN> 25
 3.347741e+00 -1.452752e+00 -1.288966e+00 9.597527e-01 -1.096385e+00 1.502304e+00 3.049232e+00 1.847767e+00 6.576865e-01 -3.224511e+00 -6.238142e+00 -2.792536e+00 -5.883259e-01 1.394611e+00 6.801622e-01 6.193764e-01 1.248773e+00 4.408369e-01 -7.459332e-01 -1.069491e-01 3.887936e-02 -1.121254e-01 -3.441356e-01 -3.595186e-01 -9.346632e-01
<VARIANCE> 25
 5.648906e+00 3.047152e+01 1.150273e+01 1.279246e+01 2.079375e+01 2.468854e+01 1.436788e+01 2.106591e+01 1.458900e+01 2.940932e+01 2.047537e+01 2.420426e+01 3.444270e-01 2.003542e+00 1.165163e+00 1.544593e+00 1.649156e+00 2.367646e+00 2.317028e+00 1.802813e+00 2.028176e+00 2.050903e+00 1.506005e+00 2.045166e+00 6.301263e-01
<GCONST> 8.540457e+01
<STATE> 3
<MEAN> 25
 1.908999e+00 2.440041e+00 1.945720e-01 1.409154e+00 1.636650e+00 1.831368e+00 1.543191e+00 2.008666e+00 3.600684e-01 -3.352521e+00 -6.251710e+00 -2.904575e+00 -8.141673e-01 1.171401e+00 5.723877e-01 -2.863426e-02 8.792557e-01 2.367502e-01 -4.702699e-01 5.529420e-02 -5.238696e-02 -1.373688e-01 1.399849e-01 1.730314e-01 -9.356387e-01
<VARIANCE> 25
 8.670428e+00 2.337024e+01 1.519931e+01 1.186234e+01 1.501701e+01 1.913826e+01 1.918461e+01 2.086797e+01 1.844329e+01 2.096347e+01 2.117973e+01 1.925761e+01 5.815327e-01 1.767421e+00 1.791381e+00 1.665151e+00 1.280339e+00 2.300092e+00 2.367770e+00 2.219821e+00 1.918710e+00 2.411952e+00 1.977677e+00 2.816338e+00 5.261635e-01
<GCONST> 8.654164e+01
<STATE> 4
<MEAN> 25
 -1.053441e-01 5.936771e+00 1.643111e+00 3.666825e-01 3.521977e+00 2.209566e+00 5.145122e-01 2.225944e+00 2.067506e-01 -3.741573e+00 -5.603274e+00 -2.560524e+00 -1.013064e+00 6.634645e-01 4.396801e-01 -5.427515e-02 4.184805e-01 1.725753e-01 -1.408814e-01 -3.192003e-01 -2.405057e-01 3.395917e-01 7.030963e-01 3.477322e-01 -9.136997e-01
<VARIANCE> 25
 1.216343e+01 2.604141e+01 1.714818e+01 1.813116e+01 1.507818e+01 1.836297e+01 2.158444e+01 2.358059e+01 2.104132e+01 2.306030e+01 2.594585e+01 1.716368e+01 7.691982e-01 2.563591e+00 2.141863e+00 1.357169e+00 1.825182e+00 2.380684e+00 1.743707e+00 2.725028e+00 1.764158e+00 2.352492e+00 2.372558e+00 2.767437e+00 7.255074e-01
<GCONST> 8.934176e+01
<TRANSP> 5
 0.000000e+00 1.000000e+00 0.000000e+00 0.000000e+00 0.000000e+00
 0.000000e+00 6.541218e-01 3.458782e-01 0.000000e+00 0.000000e+00
 0.000000e+00 0.000000e+00 5.746762e-01 4.253238e-01 0.000000e+00
 0.000000e+00 0.000000e+00 0.000000e+00 7.216768e-01 2.783232e-01
 0.000000e+00 0.000000e+00 0.000000e+00 0.000000e+00 0.000000e+00
<ENDHMM>
~h "ny"
<BEGINHMM>
<NUMSTATES> 5
<STATE> 2
<MEAN> 25
 -1.076058e+01 5.012642e+00 5.266799e+00 4.255442e+00 6.302430e+00 3.227353e+00 -2.055561e-01 -5.194475e-02 3.184806e+00 4.551960e+00 -3.912924e-01 -2.222436e+00 2.915778e+00 1.015523e+00 2.521770e+00 1.561321e+00 -5.698277e-01 1.376072e-01 -8.704752e-01 -1.753090e+00 -1.085544e+00 -1.045399e+00 -5.020739e-01 -1.262995e-01 2.142269e+00
<VARIANCE> 25
 4.337418e+01 6.072657e+01 2.169957e+01 2.321219e+01 2.799029e+01 3.458427e+01 2.195057e+01 3.434531e+01 1.805093e+01 2.382772e+01 2.641129e+01 2.232786e+01 2.607822e+00 5.246386e+00 3.618998e+00 2.039554e+00 2.014128e+00 4.107905e+00 2.749530e+00 3.597357e+00 1.884512e+00 2.974445e+00 3.960810e+00 2.403631e+00 9.812975e-01
<GCONST> 9.896731e+01
<STATE> 3
<MEAN> 25
 -3.209881e+00 5.269564e+00 1.068850e+01 8.788582e+00 3.927902e+00 1.801488e+00 -4.002913e+00 -5.694542e+00 4.197135e-01 2.492820e+00 -1.003654e+00 -1.950308e+00 3.207884e+00 -2.204515e+00 4.050781e-01 1.636786e+00 -1.188291e+00 -8.521431e-01 -1.258494e+00 -2.151774e+00 -9.905717e-01 9.491474e-02 6.959162e-01 3.339985e-01 3.186347e+00
<VARIANCE> 25
 2.976507e+01 7.215765e+01 3.435853e+01 3.237547e+01 2.085016e+01 4.909899e+01 2.939840e+01 3.482825e+01 2.215337e+01 3.123545e+01 2.782865e+01 1.924309e+01 3.702507e+00 7.335610e+00 9.171094e+00 4.555030e+00 2.783135e+00 6.150113e+00 5.130929e+00 5.916690e+00 4.126487e+00 4.948051e+00 5.367202e+00 3.131765e+00 1.568416e+00
<GCONST> 1.068942e+02
<STATE> 4
<MEAN> 25
 3.496581e+00 -6.829183e+00 4.289604e+00 1.027740e+01 8.976194e-01 -8.214381e-01 -4.011275e+00 -7.176612e+00 -6.071927e-01 5.113106e+00 3.312996e+00 -4.028996e-01 1.708391e+00 -3.147994e+00 -2.998548e+00 -1.336268e+00 -8.860937e-01 1.475639e-01 1.630024e+00 7.425681e-01 -6.366240e-01 1.923869e-01 1.257052e+00 6.883907e-01 2.061608e+00
<VARIANCE> 25
 1.235750e+01 5.492872e+01 6.040673e+01 3.850840e+01 1.644537e+01 3.702222e+01 4.742385e+01 2.755864e+01 4.069218e+01 4.015310e+01 4.833442e+01 3.443250e+01 1.467209e+00 4.721734e+00 3.344844e+00 4.939668e+00 1.961094e+00 5.351938e+00 5.661542e+00 3.461212e+00 3.941463e+00 3.324425e+00 3.244261e+00 2.095616e+00 1.432430e+00
<GCONST> 1.035376e+02
<TRANSP> 5
 0.000000e+00 1.000000e+00 0.000000e+00 0.000000e+00 0.000000e+00
 0.000000e+00 4.827311e-01 5.172689e-01 0.000000e+00 0.000000e+00
 0.000000e+00 0.000000e+00 5.372159e-01 4.627842e-01 0.000000e+00
 0.000000e+00 0.000000e+00 0.000000e+00 7.079394e-01 2.920606e-01
 0.000000e+00 0.000000e+00 0.000000e+00 0.000000e+00 0.000000e+00
<ENDHMM>
~h "sil"
<BEGINHMM>
<NUMSTATES> 5
<STATE> 2
<MEAN> 25
 -1.101930e+01 3.969381e+00 -5.502899e-01 -3.271032e-01 5.183287e+00 1.302864e+00 5.847386e-01 2.495164e+00 4.312762e+00 5.216393e+00 1.457055e+00 1.524917e-01 -3.314370e-01 -1.901823e-01 -1.590799e-01 -1.014690e-01 7.241946e-02 1.541290e-01 2.068667e-01 2.211999e-01 1.287995e-01 6.523053e-02 4.327998e-02 2.287887e-02 -1.976969e-01
<VARIANCE> 25
 2.535328e+01 2.570615e+01 2.054818e+01 1.980943e+01 2.477640e+01 2.706651e+01 3.295928e+01 3.295840e+01 2.097179e+01 2.400939e+01 1.894890e+01 1.574316e+01 3.366107e-01 4.696128e-01 5.704277e-01 6.486957e-01 7.738630e-01 1.008648e+00 1.111210e+00 1.134447e+00 1.017017e+00 9.638538e-01 8.339187e-01 7.923612e-01 1.365517e-01
<GCONST> 7.857364e+01
<STATE> 3
<MEAN> 25
 -1.250486e+01 3.157654e+00 -1.897426e+00 -1.151457e+00 5.233509e+00 2.126506e+00 2.410206e+00 3.963130e+00 4.639142e+00 5.497068e+00 1.402779e+00 -4.292567e-01 -1.980055e-01 -1.601836e-01 -1.033283e-01 -2.508891e-02 9.519099e-02 1.581578e-01 2.455147e-01 1.956122e-01 4.445661e-02 -4.443120e-02 -1.181898e-01 -1.542084e-01 -1.011527e-01
<VARIANCE> 25
 2.181059e+01 2.509067e+01 1.983205e+01 2.589861e+01 2.682699e+01 2.847256e+01 3.532861e+01 3.313577e+01 2.119469e+01 2.863326e+01 2.050044e+01 1.930429e+01 5.544078e-01 8.455998e-01 8.174419e-01 7.815343e-01 9.119031e-01 1.141301e+00 1.313035e+00 1.109035e+00 1.134736e+00 1.157046e+00 9.197237e-01 8.957180e-01 2.292904e-01
<GCONST> 8.240188e+01
<STATE> 4
<MEAN> 25
 -1.260136e+01 3.120368e+00 -1.945851e+00 -1.172092e+00 5.309977e+00 2.191874e+00 2.568960e+00 4.055404e+00 4.375506e+00 5.094976e+00 9.271118e-01 -8.589444e-01 4.878695e-01 1.200751e-01 2.618136e-01 9.260946e-02 -3.601460e-02 2.723119e-01 1.653941e-01 -7.326337e-02 -2.832143e-01 -4.621713e-01 -3.363836e-01 -1.870083e-01 3.558858e-01
<VARIANCE> 25
 2.553040e+01 2.835389e+01 2.399266e+01 2.985554e+01 2.877929e+01 2.900012e+01 3.622919e+01 3.277309e+01 2.411088e+01 3.114159e+01 2.197573e+01 2.085154e+01 1.736058e+00 1.977895e+00 1.338467e+00 1.133657e+00 1.374378e+00 1.567745e+00 1.537316e+00 1.602010e+00 1.732850e+00 1.828704e+00 1.436771e+00 1.117444e+00 7.047555e-01
<GCONST> 9.025716e+01
<TRANSP> 5
 0.000000e+00 1.000000e+00 0.000000e+00 0.000000e+00 0.000000e+00
 0.000000e+00 8.689687e-01 1.310313e-01 0.000000e+00 0.000000e+00
 0.000000e+00 0.000000e+00 5.418176e-01 4.581824e-01 0.000000e+00
 0.000000e+00 0.000000e+00 0.000000e+00 3.311632e-01 6.688368e-01
 0.000000e+00 0.000000e+00 0.000000e+00 0.000000e+00 0.000000e+00
<ENDHMM>
